-0.005828,,-0.005974,-0.003516,-0.001997,-0.001321,0.001133,-0.000931,-0.000468,-0.001004,-0.004085,-0.004485,-0.004606,-0.004919,-0.004706,-0.004598,-0.004959,-0.004899,-0.004755,-0.004493,-0.004289,-0.004506,-0.005078,-0.005559,-0.005823,-0.005583,-0.005255,-0.005217,-0.005227,-0.005207,-0.005169,-0.004872,-0.004619,-0.004269,-0.003800,-0.003388,-0.003113,-0.003009,-0.003009,-0.003046,-0.003116,-0.003502,-0.003985,-0.004475,-0.004931,-0.005306,-0.005687,-0.006187,-0.006463,-0.006675,-0.006822,-0.006515,-0.004763,-0.003433,-0.002047,0.001902,-0.000070,0.001906,-0.001273,-0.004501,-0.005344,-0.006215,-0.006118,-0.006326,-0.006194,-0.005332,-0.001908,-0.000493,0.000587,0.003407,0.004526,0.002500,0.001959,0.001865,-0.001263,-0.003225,-0.003189,-0.002725,-0.003687,-0.003656,-0.003411,-0.003248,-0.003119,-0.002898,-0.002620,-0.002646,-0.003044,-0.003556,-0.004032,-0.004126,-0.003785,-0.003703,-0.003547,-0.003573,-0.003458,-0.003210,-0.002980,-0.002583,-0.002132,-0.001739,-0.001459,-0.001324,-0.001249,-0.001298,-0.001479,-0.001846,-0.002268,-0.002762,-0.003146,-0.003631,-0.004163,-0.004517,-0.005036,-0.005135,-0.004449,-0.003292,-0.002234,-0.000264,0.002419,0.001552,0.001217,0.000961,-0.000263,-0.002024,-0.004374,-0.004368,-0.005449,-0.004881,-0.004439,-0.004024,-0.000797,-0.000608,0.000572,0.005037,0.006018,0.003976,0.001668,0.001489,0.000773,-0.000960,-0.002510,-0.001883,-0.001612,-0.002109,-0.001900,-0.001727,-0.001656,-0.001375,-0.001088,-0.000990,-0.001063,-0.001760,-0.002231,-0.002397,-0.002427,-0.002114,-0.001946,-0.001897,-0.001777,-0.001459,-0.001218,-0.000854,-0.000408,0.000031,0.000325,0.000452,0.000502,0.000476,0.000279,-0.000044,-0.000511,-0.001014,-0.001334,-0.001768,-0.002178,-0.002459,-0.003058,-0.003248,-0.002655,-0.001592,-0.000275,0.001722,0.003868,0.004799,0.003592,0.001194,0.000605,0.000052,-0.002742,-0.001627,-0.002830,-0.003721,-0.002547,-0.001978,-0.000238,0.001326,0.003556,0.007206,0.008102,0.007861,0.003253,0.002055,0.002673,0.002962,0.000458,-0.001105,-0.000865,-0.000527,-0.000621,-0.000518,-0.000305,0.000080,0.000327,0.000495,0.000629,0.000261,-0.000246,-0.000382,-0.000490,-0.000438,0.000090,0.000371,0.000458,0.000785,0.001000,0.001273,0.001714,0.002243,0.002669,0.002969,0.003114,0.003107,0.002925,0.002686,0.002392,0.002050,0.001712,0.001512,0.001364,0.000956,0.000496,0.000125,0.000168,0.000406,0.002002,0.003560,0.004987,0.010975,0.009714,0.008253,0.006203,0.004662,0.002485,0.001794,0.001123,-0.000446,0.001473,0.001604,0.003786,0.007617,0.005905,0.008341,0.009580,0.009402,0.007290,0.007476,0.006223,0.005085,0.002852,0.001382,0.001492,0.001310,0.001378,0.001470,0.001619,0.001894,0.002176,0.002426,0.002571,0.002724,0.002373,0.001915,0.001569,0.001370,0.001607,0.002025,0.002256,0.002514,0.002696,0.002912,0.003229,0.003677,0.004224,0.004667,0.004865,0.004947,0.004895,0.004718,0.004505,0.004325,0.004085,0.003928,0.003776,0.003434,0.003329,0.003193,0.002988,0.003006,0.004730,0.006254,0.006830,0.013100,0.014368,0.014058,0.012589,0.010199,0.009182,0.006522,0.004999,0.004654,0.006475,0.005345,0.008188,0.012185,0.006378,0.001700,0.004973,0.003200,0.007593,0.010667,0.009173,0.008403,0.007061,0.005186,0.003988,0.004416,0.004581,0.004589,0.004548,0.004576,0.004838,0.005084,0.005175,0.005288,0.005248,0.004818,0.004285,0.003924,0.003692,0.004037,0.004614,0.005037,0.005301,0.005495,0.005676,0.005909,0.006274,0.006649,0.006801,0.006903,0.006929,0.006677,0.006486,0.006361,0.006222,0.006144,0.005958,0.005763,0.005891,0.005798,0.005299,0.005072,0.005886,0.007083,0.007048,0.010224,0.015320,0.014369,0.015401,0.014027,0.012419,0.010739,0.007531,0.007212,0.008734,0.008140,0.009774,0.014856,0.009676,0.002844,0.008071,0.005330,0.008006,0.014893,0.012913,0.011609,0.008243,0.006906,0.007633,0.007375,0.007443,0.007501,0.007593,0.007617,0.007758,0.007974,0.008089,0.008183,0.008115,0.008018,0.007659,0.007078,0.006882,0.006944,0.007494,0.008299,0.008775,0.009046,0.009249,0.009351,0.009560,0.009765,0.009886,0.010117,0.010157,0.009926,0.009632,0.009428,0.009335,0.009313,0.009232,0.009237,0.009104,0.009003,0.008793,0.008499,0.008208,0.009384,0.011062,0.011232,0.016845,0.019603,0.019140,0.019119,0.015491,0.013794,0.011435,0.009173,0.011296,0.012475,0.012263,0.018734,0.017332,0.020180,0.044879,0.028756,0.032188,0.023042,0.017349,0.014761,0.010894,0.008785,0.009351,0.009670,0.009869,0.010065,0.010238,0.010340,0.010375,0.010525,0.010516,0.010487,0.010543,0.010449,0.010352,0.009964,0.009447,0.009161,0.009150,0.009964,0.010480,0.010773,0.010923,0.010908,0.010820,0.010807,0.010778,0.010788,0.010760,0.010634,0.010398,0.010083,0.009976,0.009743,0.009535,0.009688,0.009187,0.009206,0.009984,0.010545,0.010653,0.012728,0.016960,0.015013,0.016304,0.021815,0.017789,0.018862,0.015172,0.014010,0.015742,0.009624,0.010738,0.011111,0.012037,0.015923,0.017657,0.021259,0.031707,0.014898,0.020615,0.018978,0.012012,0.014521,0.010224,0.011415,0.010031,0.009990,0.011238,0.010474,0.011737,0.012097,0.011618,0.012804,0.011354,0.011584,0.012495,0.012238,0.011442,0.011844,0.012097,0.011387,0.010814,0.011035,0.012003,0.011795,0.013365,0.012658,0.012357,0.012494,0.012739,0.011588,0.012400,0.011693,0.010900,0.011465,0.011272,0.010743,0.010962,0.010706,0.010709,0.009877,0.010782,0.011886,0.012014,0.014411,0.017337,0.018147,0.020039,0.021144,0.021081,0.018607,0.017312,0.017376,0.016328,0.013737,0.012733,0.015146,0.018392,0.022229,0.022789,0.022468,0.025106,0.027028,0.021508,0.013734,0.011978,0.016244,0.012538,0.011543,0.011889,0.012042,0.012180,0.011887,0.012963,0.013216,0.012648,0.013843,0.014418,0.013436,0.013806,0.013818,0.013863,0.014426,0.014249,0.013712,0.013707,0.013819,0.013976,0.014007,0.014170,0.013721,0.015224,0.014391,0.013996,0.014067,0.014200,0.013741,0.013490,0.013914,0.013623,0.013402,0.013999,0.013619,0.014384,0.014777,0.013450,0.014091,0.015225,0.016154,0.016177,0.022798,0.025539,0.024675,0.024660,0.023945,0.023874,0.023214,0.020018,0.022655,0.021509,0.023864,0.024974,0.025295,0.027251,0.026584,0.026726,0.025570,0.023537,0.022332,0.018855,0.019513,0.016535,0.014102,0.013382,0.013555,0.013589,0.014459,0.014374,0.015093,0.016547,0.015760,0.014999,0.016618,0.015990,0.015341,0.016079,0.017311,0.018426,0.019505,0.021330,0.024781,0.022768,0.021387,0.018162,0.016763,0.020006,0.017862,0.016943,0.017817,0.016954,0.016894,0.017276,0.017011,0.016875,0.017665,0.018758,0.017590,0.017770,0.019373,0.017647,0.019127,0.020496,0.021278,0.022602,0.025536,0.031362,0.030953,0.031791,0.032843,0.032546,0.031091,0.029047,0.030890,0.029713,0.031600,0.035200,0.034743,0.034537,0.033997,0.033862,0.031288,0.027763,0.050637,0.040015,0.027269,0.028757,0.024153,0.021225,0.018572,0.019421,0.022294,0.020550,0.022280,0.028742,0.027684,0.025447,0.030315,0.029077,0.027813,0.028942,0.030892,0.031068,0.031882,0.034267,0.032875,0.030151,0.029644,0.024812,0.022741,0.026070,0.022645,0.022426,0.022474,0.022634,0.024593,0.025421,0.023017,0.021271,0.020639,0.020446,0.022209,0.021003,0.022449,0.021934,0.022946,0.024829,0.025273,0.030602,0.030621,0.036307,0.037029,0.036331,0.037777,0.037344,0.035796,0.035336,0.035124,0.036430,0.032997,0.036596,0.041200,0.041018,0.040477,0.041633,0.039887,0.035894,0.054195,0.045653,0.032190,0.034391,0.029773,0.024820,0.024833,0.029025,0.036064,0.035181,0.036365,0.040921,0.040001,0.039229,0.040553,0.040994,0.040547,0.041125,0.042560,0.041856,0.040724,0.041401,0.040059,0.038227,0.039401,0.037410,0.036324,0.039750,0.037304,0.037132,0.038411,0.037151,0.037315,0.037262,0.035047,0.032438,0.031434,0.030592,0.030513,0.030152,0.030936,0.029605,0.026427,0.028484,0.028110,0.035468,0.038507,0.039636,0.039692,0.036626,0.036901,0.037332,0.034986,0.035008,0.034088,0.037954,0.035460,0.032801,0.037858,0.036202,0.038652,0.041618,0.037333,0.039579,0.039304,0.037044,0.064818,0.048292,0.035737,0.035506,0.029525,0.033281,0.039359,0.040798,0.042151,0.043700,0.042324,0.042263,0.043623,0.044689,0.044263,0.043921,0.044954,0.045145,0.044299,0.043481,0.043565,0.042207,0.041859,0.040938,0.040421,0.042814,0.041846,0.041131,0.042006,0.041226,0.038593,0.037709,0.037937,0.039508,0.039745,0.038339,0.039890,0.039223,0.037394,0.035833,0.034973,0.038986,0.036567,0.036828,0.041344,0.041791,0.041627,0.040052,0.038786,0.038029,0.036161,0.036381,0.033754,0.035141,0.039042,0.037510,0.039405,0.035207,0.037056,0.041613,0.038809,0.040726,0.038298,0.030074,0.047285,0.071780,0.055767,0.059830,0.041916,0.038775,0.039739,0.040000,0.041439,0.043432,0.043935,0.044669,0.045176,0.045042,0.044869,0.044172,0.044449,0.044383,0.044000,0.043383,0.043165,0.042595,0.040873,0.039253,0.037659,0.037742,0.036819,0.035854,0.035089,0.035274,0.034604,0.033696,0.033980,0.034204,0.033916,0.033016,0.031498,0.031796,0.031963,0.030707,0.030555,0.031117,0.032324,0.033864,0.033934,0.032747,0.032591,0.033395,0.032162,0.029993,0.029890,0.030754,0.027036,0.026524,0.031983,0.029901,0.030859,0.030189,0.028991,0.031217,0.029543,0.029154,0.026665,0.024775,0.026256,0.025961,0.024923,0.026418,0.024305,0.026436,0.028442,0.027327,0.026917,0.028342,0.029044,0.030009,0.030697,0.031390,0.031336,0.031311,0.031183,0.029670,0.029079,0.029671,0.028947,0.030905,0.031093,0.031315,0.029980,0.029353,0.028160,0.025496,0.024992,0.026760,0.026876,0.025357,0.024598,0.024016,0.022723,0.022316,0.021977,0.021379,0.021145,0.021060,0.023852,0.023011,0.023975,0.024446,0.024660,0.023511,0.021917,0.023476,0.021947,0.018145,0.020060,0.020272,0.013444,0.016302,0.020812,0.017225,0.020143,0.020459,0.021794,0.020871,0.019155,0.021290,0.017463,0.018014,0.018803,0.017691,0.015902,0.008527,0.012091,0.013817,0.016650,0.017771,0.017150,0.016769,0.017106,0.015902,0.017032,0.016822,0.016945,0.015287,0.017100,0.016879,0.014715,0.017257,0.016894,0.019351,0.016600,0.017546,0.019061,0.017609,0.016874,0.016883,0.018834,0.018750,0.020772,0.019678,0.020152,0.019788,0.017916,0.018840,0.019193,0.018461,0.019996,0.020703,0.020191,0.019344,0.018898,0.018824,0.019049,0.019062,0.019818,0.019463,0.018347,0.016699,0.014703,0.014253,0.011619,0.010720,0.012447,0.016543,0.018833,0.018534,0.019199,0.018583,0.017121,0.015659,0.012927,0.012150,0.013040,0.012574,0.010241,0.005208,0.007103,0.007601,0.010308,0.013147,0.013761,0.014282,0.015446,0.015773,0.012817,0.013379,0.013996,0.012634,0.014665,0.016204,0.014744,0.016109,0.016906,0.016786,0.014875,0.015891,0.015831,0.014479,0.014911,0.013799,0.012671,0.013724,0.016200,0.015309,0.015748,0.016568,0.015589,0.016524,0.017507,0.017047,0.018154,0.018722,0.019379,0.020350,0.019796,0.018576,0.019436,0.018940,0.017438,0.018485,0.019561,0.016131,0.014172,0.015598,0.013013,0.012936,0.014389,0.019029,0.020084,0.019653,0.020362,0.019495,0.016382,0.016786,0.017666,0.013101,0.012738,0.015387,0.014967,0.012661,0.017528,0.013656,0.014125,0.017927,0.017316,0.018833,0.020181,0.018643,0.017406,0.017402,0.017221,0.015568,0.018100,0.020068,0.018449,0.017658,0.017708,0.017083,0.017612,0.019665,0.018755,0.018798,0.020493,0.020313,0.018325,0.017456,0.017739,0.016735,0.015703,0.016185,0.014949,0.015812,0.017976,0.018330,0.018823,0.018764,0.018597,0.019165,0.019636,0.019021,0.019242,0.018579,0.016879,0.017486,0.017974,0.015560,0.016149,0.017721,0.015830,0.017828,0.019438,0.019573,0.019268,0.020256,0.018849,0.018725,0.018969,0.018968,0.018623,0.015847,0.014444,0.014827,0.014615,0.017442,0.016002,0.025390,0.035962,0.029804,0.023605,0.020344,0.020123,0.019284,0.018516,0.017801,0.016772,0.015221,0.017018,0.018789,0.017680,0.016487,0.017355,0.017291,0.018383,0.019731,0.018123,0.017423,0.018744,0.018180,0.016350,0.014491,0.013839,0.013949,0.013521,0.012832,0.012667,0.015798,0.015020,0.016203,0.018106,0.018830,0.018427,0.017870,0.017961,0.017858,0.016885,0.017173,0.017654,0.017331,0.016689,0.016553,0.017403,0.017718,0.016708,0.016951,0.017069,0.016227,0.016557,0.017614,0.016261,0.016512,0.017144,0.016062,0.014443,0.012554,0.012078,0.012164,0.011285,0.014750,0.013944,0.014285,0.015918,0.011278,0.009104,0.012930,0.015982,0.015975,0.014883,0.014928,0.014460,0.013543,0.014393,0.015172,0.014747,0.014922,0.015001,0.015228,0.015072,0.014920,0.013841,0.013376,0.013339,0.012106,0.012121,0.011392,0.011108,0.012401,0.012708,0.012453,0.013515,0.016792,0.016032,0.015733,0.016812,0.016896,0.016476,0.017087,0.016410,0.016029,0.016050,0.016087,0.016394,0.015335,0.014818,0.014824,0.014039,0.013285,0.014563,0.014975,0.014634,0.015254,0.015745,0.015597,0.015840,0.015702,0.014120,0.013526,0.013771,0.011185,0.009766,0.011850,0.011771,0.010811,0.010058,0.010515,0.007825,0.002010,-0.000549,0.001169,0.008592,0.011296,0.012126,0.012236,0.011875,0.011739,0.012108,0.011769,0.011611,0.011957,0.011046,0.011528,0.011297,0.010978,0.011292,0.011341,0.011225,0.011321,0.011086,0.010928,0.010202,0.010199,0.010453,0.011461,0.011997,0.013251,0.015824,0.017192,0.017003,0.015736,0.014863,0.015744,0.014893,0.014382,0.014980,0.014733,0.014278,0.012424,0.010654,0.009998,0.006871,0.005061,0.007172,0.009279,0.009995,0.011325,0.010981,0.011742,0.013645,0.014416,0.014480,0.014915,0.015886,0.014932,0.012943,0.012295,0.011013,0.009274,0.008755,0.010473,0.008397,0.001790,-0.006454,-0.004286,0.000233,0.006226,0.009948,0.010186,0.009765,0.009746,0.009777,0.009494,0.009172,0.008830,0.009079,0.008906,0.008628,0.007951,0.007608,0.007588,0.008090,0.009302,0.009355,0.009979,0.009464,0.008856,0.009540,0.009619,0.010696,0.011143,0.013615,0.016313,0.016756,0.016151,0.015572,0.015842,0.013343,0.012514,0.013062,0.013362,0.013726,0.012946,0.011889,0.010336,0.008181,0.005048,0.002918,0.005841,0.006294,0.006307,0.007684,0.010048,0.009850,0.012496,0.013516,0.012279,0.013150,0.012666,0.010746,0.005530,0.006915,0.008501,0.007440,0.008007,0.006434,0.003279,-0.004005,-0.005545,-0.003730,-0.001562,0.005115,0.008235,0.008226,0.007854,0.006921,0.006240,0.005771,0.004776,0.005288,0.003528,0.003749,0.003902,0.003324,0.003933,0.004611,0.005015,0.005100,0.005390,0.005898,0.007135,0.009965,0.008718,0.015769,0.021703,0.020801,0.019961,0.018954,0.017409,0.016224,0.015521,0.013601,0.013085,0.013552,0.014203,0.011557,0.012491,0.011849,0.002198,0.002002,0.001435,-0.002519,0.001847,0.001310,0.000745,0.000626,0.001432,0.002558,0.002436,0.002494,0.006463,0.011366,0.012679,0.010095,0.010226,0.010525,0.007374,0.005685,0.006343,0.006161,0.004651,0.002437,-0.002112,-0.005121,-0.002894,0.001013,0.005493,0.006163,0.005354,0.004861,0.004717,0.004104,0.003177,0.005687,0.005457,0.005390,0.005314,0.004597,0.004256,0.004609,0.004890,0.004982,0.006157,0.003739,0.002454,0.004785,0.005044,0.005753,0.011510,0.019723,0.019408,0.019100,0.017018,0.014190,0.013710,0.013669,0.012708,0.010806,0.008634,0.009531,0.012092,0.011688,0.004246,0.001734,0.002895,-0.001777,0.000885,0.001541,0.001442,0.001131,0.002027,0.003814,0.004405,0.005007,0.008985,0.010997,0.010394,0.009610,0.008891,0.008714,0.008590,0.006570,0.006585,0.006296,0.006560,0.006623,0.005019,0.001798,-0.001006,0.001157,0.006915,0.008097,0.006187,0.004933,0.005592,0.005990,0.004839,0.004565,0.004463,0.004266,0.003581,0.003048,0.002538,0.002221,0.001532,0.001399,0.002177,0.001559,0.001115,0.003063,0.003005,0.002654,0.004540,0.010665,0.012118,0.013207,0.012763,0.011139,0.010422,0.010259,0.009142,0.007154,0.007066,0.008385,0.008463,0.006499,0.002583,0.000954,0.001502,-0.002663,-0.000033,0.001150,0.001308,0.000338,-0.000296,0.000605,0.000792,-0.000715,0.003220,0.004036,0.001876,0.003438,0.003313,0.001988,0.002393,-0.000330,0.000099,0.000467,0.001049,0.002220,0.003058,0.001302,-0.003067,-0.006228,-0.004542,0.000774,0.003234,0.003499,0.002179,0.002139,0.003151,0.002130,0.002559,0.004840,0.005515,0.005992,0.006558,0.006688,0.006327,0.007168,0.007457,0.006133,0.004875,0.005713,0.006971,0.008439,0.010706,0.014351,0.014837,0.014178,0.012837,0.011519,0.011016,0.011015,0.010313,0.008564,0.008580,0.009493,0.008947,0.006843,0.002773,0.001611,0.002989,-0.001616,-0.000382,0.000266,0.000868,0.000466,-0.000442,-0.000584,-0.000559,0.000107,0.004799,0.004720,0.003105,0.006210,0.007447,0.005499,0.004634,0.003630,0.004056,0.005377,0.006378,0.007150,0.008751,0.009174,0.008062,0.005285,-0.000656,0.001166,0.006716,0.007632,0.007399,0.007336,0.006422,0.006829,0.008359,0.008247,0.007852,0.008377,0.008647,0.008595,0.008361,0.006542,0.006136,0.004536,0.002653,0.002242,0.003414,0.005585,0.008357,0.012946,0.013278,0.012406,0.011869,0.011814,0.012146,0.011255,0.010198,0.009420,0.008178,0.007072,0.007720,0.007453,0.003038,0.001452,0.003625,-0.001406,-0.003002,-0.002663,-0.000053,0.000773,-0.001401,-0.002723,-0.001559,-0.000283,0.000999,0.002531,0.002523,0.003773,0.008673,0.009959,0.008597,0.010077,0.009500,0.010238,0.010778,0.008813,0.006736,0.005976,0.005537,0.004644,-0.000346,-0.004495,0.000205,0.005370,0.005266,0.003742,0.004373,0.004053,0.004741,0.004419,0.003910,0.004153,0.003828,0.003823,0.005187,0.005227,0.004397,0.003672,0.003089,0.003146,0.003851,0.006711,0.010309,0.012237,0.012562,0.012320,0.011684,0.010948,0.010453,0.010306,0.011220,0.011461,0.010275,0.008699,0.008842,0.008929,0.006916,0.006028,0.007399,0.004813,-0.001031,-0.000027,0.003020,0.001734,-0.003595,-0.004966,-0.002686,-0.003919,-0.002545,-0.001784,-0.003072,-0.004112,-0.000530,0.002810,0.000282,0.000167,-0.000182,0.000776,-0.000204,-0.001680,-0.001533,-0.002102,-0.003839,-0.003794,-0.004076,-0.006819,-0.008469,-0.003219,0.000568,0.001079,0.002376,0.006193,0.006431,0.004360,0.001567,0.001445,0.000559,-0.000396,-0.000444,-0.001012,-0.001920,-0.002822,-0.002593,-0.002122,-0.000306,0.002953,0.006539,0.009702,0.011833,0.013514,0.014357,0.013495,0.011863,0.011669,0.012337,0.010654,0.010015,0.009688,0.009207,0.008216,0.007672,0.007703,0.007389,0.007208,0.005317,0.003474,0.003136,-0.000335,-0.006357,-0.004276,-0.002147,-0.004855,-0.003411,-0.003754,-0.005754,-0.007821,-0.008635,-0.009867,-0.010622,-0.009969,-0.008628,-0.006937,-0.005070,-0.004207,-0.002280,-0.000767,-0.001762,-0.000959,-0.000318,-0.000783,-0.007769,-0.011411,-0.003703,0.002045,0.002090,0.001841,0.001988,-0.003959,-0.009295,-0.004875,-0.002023,-0.001860,-0.002778,-0.005424,-0.005006,-0.004435,-0.003812,-0.004993,-0.005026,-0.003686,-0.002071,0.000321,0.002861,0.007161,0.010245,0.011300,0.011819,0.011300,0.008796,0.005946,0.004640,0.004661,0.004060,0.002363,0.001896,0.002690,0.003571,0.006732,0.007267,0.005644,0.004461,0.001099,-0.001185,0.000882,0.001103,-0.001083,-0.002451,0.000254,0.001949,0.000600,-0.004053,-0.005824,-0.006360,-0.007591,-0.006365,-0.005800,-0.002963,-0.002810,-0.003766,-0.002120,0.000771,0.000083,-0.002883,-0.002509,-0.001697,-0.008992,-0.012085,-0.002447,0.003613,0.001676,-0.004306,-0.009698,-0.010446,-0.008277,-0.009561,-0.009429,-0.005381,-0.003989,-0.002375,-0.000373,0.000305,-0.002143,-0.003902,-0.004141,-0.004543,-0.004358,-0.003632,-0.001744,0.001265,0.005654,0.009967,0.010184,0.008196,0.007773,0.006022,0.003626,0.002880,0.000793,-0.001786,0.000734,0.005073,0.007022,0.007820,0.006987,0.004452,0.003261,0.002779,0.001701,0.002276,0.002731,0.002994,0.004336,0.006015,0.006516,0.001822,-0.001782,-0.001622,-0.004980,-0.004537,-0.005250,-0.005503,-0.003366,-0.004081,-0.003382,-0.004199,-0.001044,-0.003558,-0.011193,-0.005701,-0.003048,-0.012893,-0.015253,-0.006508,-0.000117,-0.004913,-0.010845,-0.009312,-0.008350,-0.007956,-0.004808,-0.005229,-0.003288,-0.004505,-0.004497,0.002577,0.002331,-0.003861,-0.002924,0.000273,-0.000458,-0.001925,-0.003359,-0.003141,-0.004615,-0.000145,0.001502,0.000993,0.004097,0.001672,-0.001489,-0.002874,-0.003529,-0.007218,-0.008093,0.002408,0.004130,0.004284,0.003502,0.001840,-0.000821,-0.004393,-0.005856,-0.006614,-0.009018,-0.008914,-0.010091,-0.009233,-0.009136,-0.008435,-0.008623,-0.009862,-0.009809,-0.009766,-0.007909,-0.009385,-0.008586,-0.006772,-0.007324,-0.007221,-0.008602,-0.005879,-0.010187,-0.005497,0.000271,-0.004390,-0.021708,-0.021740,-0.017884,-0.015672,-0.016801,-0.016235,-0.019464,-0.017294,-0.014752,-0.014905,-0.013893,-0.012177,-0.010693,-0.005681,-0.009663,-0.007773,-0.002401,-0.004342,-0.004492,-0.005243,-0.003310,-0.004433,-0.009180,-0.010238,-0.010245,-0.011486,-0.015360,-0.011308,-0.009379,-0.014557,-0.015833,-0.015484,-0.014669,-0.007351,-0.006414,-0.005763,-0.007857,-0.008463,-0.010075,-0.012908,-0.012346,-0.012593,-0.016458,-0.018697,-0.016051,-0.013910,-0.011621,-0.007779,-0.005179,-0.004865,-0.003629,-0.003139,-0.003892,-0.005263,-0.008905,-0.008229,-0.008492,-0.006939,-0.006318,-0.005065,-0.005045,-0.008923,-0.015680,-0.015790,-0.016552,-0.021001,-0.020245,-0.021208,-0.019123,-0.018561,-0.024673,-0.022277,-0.020307,-0.019557,-0.021523,-0.018181,-0.011639,-0.010570,-0.014981,-0.016314,-0.008333,-0.006273,-0.006973,-0.008536,-0.009130,-0.011138,-0.017469,-0.018149,-0.019442,-0.019502,-0.023021,-0.024931,-0.014158,-0.018179,-0.015480,-0.013156,-0.012688,-0.013931,-0.012720,-0.013017,-0.014858,-0.016193,-0.019093,-0.022292,-0.020120,-0.017503,-0.017658,-0.017066,-0.012786,-0.014142,-0.013521,-0.013603,-0.013206,-0.012948,-0.014294,-0.009506,-0.009170,-0.006286,-0.004080,-0.004374,-0.007265,-0.008289,-0.008447,-0.011509,-0.013339,-0.024950,-0.032073,-0.028960,-0.026052,-0.025714,-0.026476,-0.024669,-0.026055,-0.024609,-0.025677,-0.021893,-0.020088,-0.019122,-0.018201,-0.019876,-0.014898,-0.011593,-0.008220,-0.006800,-0.010886,-0.020145,-0.016134,-0.018372,-0.017892,-0.018405,-0.020346,-0.020364,-0.027917,-0.027715,-0.025524,-0.021535,-0.017767,-0.027008,-0.025867,-0.021704,-0.017997,-0.019017,-0.019577,-0.022722,-0.019141,-0.019489,-0.022435,-0.024792,-0.025104,-0.021498,-0.012979,-0.006667,-0.007292,-0.008492,-0.009750,-0.011801,-0.015043,-0.020186,-0.024453,-0.017366,-0.020116,-0.025294,-0.012284,-0.010169,-0.010936,-0.009049,-0.010010,-0.011789,-0.015184,-0.020786,-0.030162,-0.032652,-0.030586,-0.018819,-0.018362,-0.024503,-0.026954,-0.027861,-0.027101,-0.026117,-0.023169,-0.015954,-0.006182,-0.006090,-0.013973,-0.015659,-0.011535,-0.015855,-0.020915,-0.022444,-0.022247,-0.017352,-0.017159,-0.019398,-0.018865,-0.018840,-0.025081,-0.031408,-0.028807,-0.022828,-0.022393,-0.025615,-0.027867,-0.027109,-0.024075,-0.024050,-0.026828,-0.026195,-0.022305,-0.022569,-0.021829,-0.020120,-0.022350,-0.023994,-0.020061,-0.016539,-0.015742,-0.009493,-0.007650,-0.008816,-0.015540,-0.032721,-0.038479,-0.025564,-0.011177,-0.009075,-0.013321,-0.027731,-0.039496,-0.024194,-0.019811,-0.022567,-0.028374,-0.030127,-0.031919,-0.022947,-0.016766,-0.016014,-0.014684,-0.015204,-0.014645,-0.014686,-0.017783,-0.020860,-0.027594,-0.036110,-0.027323,-0.018253,-0.014830,-0.016843,-0.016391,-0.027803,-0.036503,-0.031566,-0.026305,-0.015973,-0.019529,-0.024546,-0.023308,-0.023444,-0.028637,-0.034014,-0.032262,-0.032142,-0.026305,-0.021943,-0.023825,-0.026105,-0.028680,-0.030134,-0.033906,-0.029988,-0.029604,-0.029036,-0.027069,-0.025222,-0.025766,-0.027643,-0.028220,-0.029804,-0.030725,-0.023735,-0.020343,-0.021152,-0.027617,-0.036624,-0.036953,-0.036408,-0.020594,-0.011023,-0.015072,-0.017674,-0.019666,-0.022086,-0.015491,-0.012727,-0.014822,-0.017192,-0.015871,-0.019475,-0.020760,-0.018891,-0.012181,-0.012053,-0.016292,-0.021923,-0.021660,-0.020405,-0.024328,-0.030804,-0.031833,-0.032082,-0.024832,-0.016397,-0.022910,-0.037610,-0.034521,-0.035360,-0.029667,-0.034756,-0.034247,-0.037586,-0.030643,-0.028193,-0.031777,-0.035743,-0.029529,-0.026541,-0.021948,-0.019720,-0.021496,-0.023001,-0.026792,-0.027093,-0.026005,-0.027417,-0.027246,-0.025489,-0.026862,-0.029756,-0.027422,-0.023739,-0.024280,-0.025778,-0.024487,-0.029097,-0.030826,-0.035874,-0.038282,-0.038389,-0.037745,-0.040246,-0.037108,-0.023016,-0.015665,-0.011550,-0.011423,-0.016744,-0.015504,-0.021647,-0.017420,-0.012490,-0.014758,-0.017101,-0.025863,-0.032701,-0.015004,-0.009281,-0.009179,-0.010422,-0.011300,-0.019497,-0.034276,-0.029168,-0.021672,-0.019944,-0.025021,-0.030926,-0.039974,-0.043488,-0.039089,-0.045005,-0.049130,-0.037255,-0.026336,-0.027587,-0.027839,-0.025005,-0.023762,-0.027608,-0.025348,-0.021194,-0.020295,-0.022532,-0.023925,-0.023093,-0.025348,-0.025796,-0.024503,-0.025932,-0.023866,-0.030077,-0.029346,-0.026635,-0.025944,-0.024885,-0.029367,-0.027017,-0.029621,-0.033324,-0.041179,-0.045238,-0.046205,-0.047374,-0.045564,-0.049197,-0.047502,-0.035438,-0.016935,-0.015297,-0.016957,-0.019051,-0.020675,-0.041786,-0.029931,-0.015857,-0.020787,-0.031039,-0.037744,-0.042049,-0.032741,-0.023471,-0.020132,-0.012970,-0.012991,-0.011373,-0.013886,-0.020259,-0.027681,-0.034925,-0.036481,-0.040796,-0.044997,-0.046230,-0.045133,-0.045308,-0.046608,-0.037776,-0.026231,-0.028281,-0.034075,-0.035561,-0.032031,-0.028739,-0.027226,-0.024330,-0.029064,-0.029039,-0.026632,-0.027469,-0.026086,-0.023218,-0.031388,-0.041262,-0.035541,-0.030641,-0.027019,-0.026513,-0.029483,-0.035591,-0.043221,-0.039262,-0.036749,-0.040454,-0.032977,-0.038932,-0.053774,-0.041715,-0.048394,-0.042370,-0.040536,-0.033167,-0.026132,-0.022112,-0.025720,-0.022976,-0.026639,-0.030458,-0.021766,-0.015946,-0.022765,-0.035910,-0.036323,-0.034570,-0.035827,-0.036699,-0.034748,-0.027865,-0.020512,-0.015835,-0.015565,-0.013187,-0.014280,-0.016451,-0.022685,-0.034646,-0.045674,-0.047668,-0.047078,-0.047336,-0.043697,-0.043927,-0.046816,-0.047856,-0.047886,-0.047423,-0.037118,-0.029832,-0.032003,-0.035851,-0.035310,-0.042309,-0.048145,-0.039324,-0.026590,-0.028266,-0.036722,-0.054760,-0.060520,-0.042949,-0.036858,-0.041265,-0.047504,-0.047071,-0.044231,-0.047852,-0.046831,-0.038327,-0.035942,-0.039873,-0.038308,-0.038439,-0.034821,-0.034256,-0.030877,-0.030173,-0.026473,-0.029648,-0.027882,-0.027136,-0.025327,-0.020769,-0.017207,-0.023471,-0.027584,-0.028595,-0.029694,-0.030082,-0.029718,-0.029471,-0.030022,-0.029310,-0.028708,-0.030432,-0.029726,-0.023814,-0.023078,-0.020072,-0.020479,-0.022853,-0.028020,-0.035255,-0.043654,-0.050194,-0.050549,-0.046969,-0.045080,-0.044938,-0.048717,-0.052014,-0.035215,-0.026293,-0.029521,-0.026999,-0.027779,-0.027875,-0.031785,-0.030823,-0.022581,-0.034409,-0.045102,-0.041288,-0.052866,-0.040061,-0.041330,-0.052012,-0.049412,-0.039266,-0.038200,-0.038232,-0.035054,-0.034751,-0.033096,-0.030386,-0.028727,-0.026739,-0.028167,-0.037023,-0.042352,-0.038615,-0.029158,-0.035315,-0.030962,-0.025141,-0.021623,-0.017335,-0.022230,-0.026073,-0.019935,-0.018654,-0.023961,-0.026198,-0.025760,-0.025230,-0.025429,-0.025723,-0.026570,-0.027256,-0.027948,-0.027917,-0.026582,-0.024385,-0.024631,-0.025920,-0.028033,-0.030376,-0.032592,-0.032926,-0.035810,-0.039627,-0.043796,-0.043227,-0.039765,-0.029862,-0.018078,-0.017924,-0.025779,-0.028032,-0.026359,-0.022938,-0.026372,-0.025283,-0.021206,-0.034164,-0.035759,-0.026319,-0.027630,-0.024632,-0.026148,-0.031588,-0.026195,-0.023934,-0.030156,-0.028354,-0.026641,-0.029264,-0.027369,-0.022967,-0.021825,-0.026443,-0.036965,-0.035022,-0.036193,-0.035032,-0.029324,-0.021613,-0.024931,-0.022526,-0.021161,-0.018045,-0.019553,-0.019329,-0.014112,-0.013799,-0.018972,-0.023359,-0.023988,-0.023533,-0.023136,-0.023548,-0.021350,-0.018766,-0.019781,-0.021960,-0.022558,-0.025270,-0.025694,-0.025938,-0.025867,-0.025843,-0.026026,-0.026048,-0.026315,-0.025179,-0.026814,-0.031372,-0.034920,-0.028215,-0.018673,-0.020015,-0.024160,-0.025878,-0.019682,-0.021258,-0.023439,-0.034958,-0.027788,-0.030622,-0.029407,-0.023016,-0.029837,-0.031495,-0.024184,-0.023353,-0.021625,-0.021531,-0.026801,-0.025591,-0.023735,-0.024327,-0.023249,-0.022851,-0.025701,-0.036800,-0.027309,-0.021991,-0.022203,-0.016678,-0.013610,-0.016291,-0.017874,-0.019603,-0.018506,-0.013508,-0.018241,-0.019169,-0.014233,-0.011694,-0.015077,-0.019517,-0.020207,-0.021036,-0.020922,-0.018944,-0.015433,-0.016112,-0.016002,-0.016570,-0.020353,-0.023195,-0.023646,-0.024036,-0.024108,-0.023698,-0.023239,-0.022799,-0.022288,-0.020724,-0.017481,-0.016331,-0.018606,-0.021633,-0.025185,-0.026293,-0.022715,-0.020052,-0.016832,-0.016980,-0.017865,-0.022028,-0.023390,-0.019226,-0.015146,-0.010597,-0.017788,-0.020335,-0.015153,-0.014496,-0.019887,-0.022201,-0.023413,-0.024736,-0.023126,-0.021553,-0.021220,-0.022047,-0.029081,-0.024077,-0.018352,-0.019181,-0.019504,-0.012259,-0.012722,-0.015744,-0.021657,-0.020044,-0.018476,-0.014731,-0.020604,-0.019310,-0.019555,-0.020295,-0.016400,-0.014828,-0.018710,-0.021771,-0.020608,-0.016745,-0.015355,-0.018710,-0.016842,-0.018475,-0.023777,-0.024710,-0.024378,-0.024380,-0.024501,-0.024409,-0.024035,-0.023271,-0.022580,-0.021618,-0.018321,-0.015268,-0.014176,-0.013191,-0.015571,-0.018442,-0.023315,-0.024418,-0.026410,-0.023588,-0.020100,-0.018759,-0.015765,-0.015794,-0.013827,-0.015962,-0.016820,-0.016995,-0.021323,-0.019550,-0.022174,-0.028466,-0.025275,-0.021732,-0.021868,-0.020191,-0.020812,-0.024194,-0.025594,-0.018707,-0.018165,-0.015265,-0.021614,-0.021755,-0.023325,-0.020958,-0.020428,-0.020189,-0.012772,-0.013668,-0.024287,-0.023520,-0.021658,-0.021835,-0.019853,-0.018519,-0.021074,-0.021431,-0.017722,-0.015224,-0.016079,-0.014923,-0.013039,-0.019778,-0.023385,-0.022539,-0.022685,-0.022810,-0.022814,-0.022616,-0.022591,-0.022528,-0.022578,-0.021783,-0.017794,-0.014269,-0.014428,-0.012980,-0.013009,-0.013065,-0.008217,-0.014155,-0.021965,-0.026423,-0.027566,-0.028569,-0.030939,-0.023193,-0.020384,-0.015895,-0.018538,-0.020544,-0.020372,-0.015862,-0.017799,-0.020290,-0.019808,-0.017939,-0.018376,-0.018612,-0.016123,-0.014403,-0.018746,-0.023019,-0.028848,-0.021933,-0.021594,-0.026953,-0.027658,-0.025115,-0.019698,-0.028115,-0.016992,-0.016480,-0.018127,-0.020439,-0.018942,-0.016094,-0.017491,-0.018977,-0.019594,-0.015655,-0.010591,-0.011189,-0.011714,-0.011127,-0.013785,-0.018506,-0.019114,-0.019044,-0.019758,-0.020156,-0.020197,-0.022198,-0.022730,-0.020786,-0.016796,-0.016306,-0.014919,-0.010870,-0.010096,-0.007834,-0.009199,-0.009474,-0.004831,-0.009508,-0.010324,-0.012459,-0.015124,-0.016478,-0.018715,-0.019302,-0.018367,-0.013078,-0.014666,-0.019749,-0.034906,-0.028470,-0.025952,-0.017069,-0.015350,-0.019419,-0.014965,-0.013922,-0.012893,-0.017099,-0.018986,-0.023183,-0.023528,-0.020892,-0.017511,-0.018075,-0.020117,-0.022674,-0.015765,-0.012279,-0.002524,-0.011426,-0.014446,-0.013457,-0.012723,-0.012119,-0.012745,-0.014430,-0.016236,-0.013346,-0.008784,-0.006838,-0.006310,-0.009348,-0.014148,-0.016104,-0.018336,-0.018231,-0.018147,-0.018669,-0.018866,-0.019063,-0.017392,-0.016287,-0.012304,-0.009533,-0.011174,-0.007243,-0.004223,-0.001949,-0.002253,-0.001153,-0.001243,-0.007046,-0.010712,-0.012782,-0.011903,-0.008576,-0.008808,-0.010531,-0.009548,-0.012403,-0.015189,-0.012303,-0.003889,-0.004158,-0.008888,-0.014932,-0.011488,-0.006629,-0.005897,-0.009375,-0.011437,-0.010910,-0.010048,-0.010749,-0.010317,-0.008388,-0.009198,-0.009021,-0.010182,-0.013154,-0.010995,-0.007006,0.000536,-0.007002,-0.008255,-0.005781,-0.005142,-0.004291,-0.006109,-0.007728,-0.007110,-0.008751,-0.005767,-0.005030,-0.008660,-0.006545,-0.006753,-0.010259,-0.009420,-0.006091,-0.008444,-0.007866,-0.004740,-0.004718,-0.006387,-0.005168,-0.000412,-0.000101,0.000088,0.002564,0.003801,0.003276,0.001325,-0.000744,0.000422,-0.001850,-0.009327,-0.010893,-0.008229,-0.005489,-0.004904,-0.000819,0.009107,0.008924,0.009151,0.010074,0.008860,0.005363,0.001530,-0.002026,0.001317,0.004640,0.004262,-0.000870,0.001661,0.005250,-0.001249,-0.000197,-0.001450,-0.003930,-0.007246,-0.009381,-0.006420,-0.004256,-0.005221,0.003388,0.001287,-0.003799,-0.003170,-0.001616,-0.000094,0.000922,-0.001638,-0.003384,-0.000074,0.001250,0.000011,0.002388,0.003588,0.006177,0.006248,0.006815,0.008241,0.008502,0.008598,0.008620,0.009056,0.009664,0.010026,0.010338,0.008141,0.008486,0.011008,0.012055,0.013238,0.014420,0.014092,0.009293,0.004278,0.002537,-0.003404,-0.005462,-0.003829,-0.002678,0.002441,0.015406,0.016171,0.015997,0.017433,0.016618,0.015754,0.016438,0.015828,0.017721,0.013196,0.012827,0.011732,0.010306,0.008292,0.011126,0.002952,-0.001816,0.006429,0.001435,-0.004870,-0.004888,-0.002789,-0.000055,0.000027,0.012950,0.009494,0.004946,0.008523,0.011547,0.011272,0.011016,0.011456,0.014702,0.017725,0.017590,0.019575,0.020816,0.017983,0.020646,0.022024,0.018791,0.020855,0.020043,0.019090,0.018748,0.018504,0.017141,0.016323,0.015719,0.015298,0.014953,0.015220,0.016143,0.017528,0.018540,0.018356,0.017891,0.014742,0.013384,0.014157,0.010307,0.006049,0.007712,0.017434,0.015252,0.020117,0.017415,0.017435,0.017198,0.016994,0.017544,0.015786,0.016941,0.017789,0.017367,0.017242,0.014787,0.008990,0.008432,0.004364,-0.003582,-0.001150,-0.003631,-0.008655,-0.007293,-0.003915,-0.001795,0.004568,0.017925,0.016053,0.014483,0.017402,0.019485,0.018544,0.019264,0.019747,0.019170,0.019625,0.019606,0.018332,0.019739,0.018687,0.021093,0.018931,0.016097,0.018252,0.014358,0.012540,0.010270,0.009138,0.007685,0.006613,0.006029,0.005424,0.005990,0.004463,0.003427,0.004094,0.003585,0.002582,0.002693,0.001652,-0.004583,-0.002859,-0.002689,-0.002536,0.000617,0.000317,-0.000493,0.014676,0.014014,0.013238,0.012176,0.012470,0.011522,0.010636,0.010675,0.010656,0.010770,0.011916,0.009943,0.005791,0.002971,0.002743,-0.004333,-0.008276,-0.010455,-0.010823,-0.008684,-0.007136,-0.004865,0.005232,-0.001259,0.003495,0.011277,0.011072,0.011102,0.013492,0.014368,0.013338,0.012484,0.012812,0.011037,0.009867,0.008239,0.007612,0.007248,0.005595,0.003059,0.000988,-0.001514,-0.000943,-0.002716,-0.004708,-0.002215,-0.001164,-0.002476,-0.004745,-0.002939,-0.002144,-0.001778,-0.001122,-0.004311,-0.005434,-0.003641,-0.004151,-0.005299,-0.007050,-0.008348,-0.007058,-0.003566,-0.003473,-0.002299,0.010285,0.010927,0.008491,0.006736,0.007725,0.007374,0.007338,0.008067,0.007275,0.004857,0.005883,0.008604,0.008851,0.007306,0.004567,0.001033,-0.003132,-0.006106,-0.008933,-0.008537,-0.004443,-0.011541,-0.017370,-0.010116,-0.006085,-0.003128,-0.000278,-0.000810,-0.003110,-0.002080,-0.000099,-0.002084,-0.003571,-0.003282,-0.003249,0.000130,0.001449,0.000972,0.000218,-0.000675,-0.004228,-0.006801,-0.005775,-0.004524,-0.003211,-0.000813,-0.000460,-0.000305,-0.001097,-0.000412,0.000324,-0.000569,-0.000422,-0.002581,-0.003266,-0.003405,-0.003805,-0.005228,-0.008766,-0.009068,-0.005944,-0.003319,-0.002095,0.000916,0.008111,0.007358,0.006275,0.006115,0.007546,0.007585,0.005329,0.002743,0.001708,-0.002112,-0.002564,0.000827,-0.000081,0.004113,0.004602,0.002181,0.002300,-0.001696,-0.003654,-0.004689,-0.010084,-0.015963,-0.018908,-0.017946,-0.013551,-0.007983,-0.005162,-0.007888,-0.012287,-0.017462,-0.012801,-0.008096,-0.012625,-0.015159,-0.013562,-0.004920,-0.004240,-0.009238,-0.006525,-0.005312,-0.010219,-0.007739,-0.008485,-0.010616,-0.008349,-0.005498,-0.004774,-0.006831,-0.007397,-0.007038,-0.005210,-0.007707,-0.010496,-0.011612,-0.010955,-0.011145,-0.011875,-0.009106,-0.011786,-0.014177,-0.015804,-0.014661,-0.009829,-0.004191,-0.004774,-0.010871,-0.012628,-0.005626,-0.002815,-0.004016,-0.005843,-0.007105,-0.006453,-0.005577,-0.007261,-0.007930,-0.007416,-0.006155,-0.005025,-0.003904,-0.004550,-0.002290,-0.003894,-0.005188,-0.006295,-0.012294,-0.014626,-0.013456,-0.009194,-0.006323,-0.006669,-0.009334,-0.008937,-0.009725,-0.006368,-0.005635,-0.006665,-0.005891,-0.009303,-0.004217,-0.003697,-0.007514,-0.004669,-0.005705,-0.006218,-0.005802,-0.003682,-0.004296,-0.005313,-0.004359,-0.001884,-0.003108,-0.005928,-0.007227,-0.006011,-0.007319,-0.007696,-0.008336,-0.009305,-0.009056,-0.008300,-0.006092,-0.007451,-0.010601,-0.010635,-0.006420,-0.003417,-0.005005,-0.008743,-0.011191,-0.010847,-0.003632,-0.000940,-0.002262,-0.003988,-0.003966,-0.002446,-0.001769,-0.002954,-0.005804,-0.005787,-0.005662,-0.004368,-0.001642,-0.002526,-0.002473,-0.003105,-0.002673,-0.003065,-0.007260,-0.010771,-0.009338,-0.011592,-0.009852,-0.010683,-0.015104,-0.015275,-0.009798,-0.002541,-0.002686,-0.004002,-0.005317,-0.006741,-0.007403,-0.000828,-0.002079,-0.002483,-0.001024,-0.001723,-0.001578,-0.002166,-0.002861,-0.004008,-0.005053,-0.003767,-0.005496,-0.008142,-0.006795,-0.006566,-0.005849,-0.004348,-0.005503,-0.009471,-0.010320,-0.010064,-0.009092,-0.006702,-0.010082,-0.014956,-0.013530,-0.006521,-0.003084,-0.003501,-0.011260,-0.008700,-0.003131,-0.000112,-0.000446,-0.003623,-0.003771,-0.000901,-0.001178,-0.000740,-0.001662,-0.005053,-0.005050,-0.003192,-0.003617,-0.005576,-0.005558,-0.003751,-0.004357,-0.005210,-0.009971,-0.005214,-0.007149,-0.010807,-0.009106,-0.006493,-0.007953,-0.008536,-0.005252,-0.001672,-0.002332,-0.005697,-0.011580,-0.007077,-0.002958,-0.000816,-0.001784,-0.003090,-0.000474,-0.000118,-0.000663,-0.001740,-0.003185,-0.003853,-0.003664,-0.003137,-0.003688,-0.005317,-0.006835,-0.006765,-0.004783,-0.002739,-0.003588,-0.008799,-0.010835,-0.008099,-0.004402,-0.006762,-0.010628,-0.010156,-0.008302,-0.006156,-0.005990,-0.009120,-0.009835,-0.007878,-0.003583,-0.000825,-0.000802,-0.003277,-0.003757,-0.001894,-0.002121,-0.000934,-0.001173,-0.004990,-0.005719,-0.005123,-0.008628,-0.007949,-0.004902,-0.002257,-0.000980,-0.005331,-0.006272,-0.004183,-0.006739,-0.013739,-0.012951,-0.012020,-0.011979,-0.008771,-0.005510,-0.004430,-0.002741,-0.003519,-0.003373,-0.001760,-0.000128,0.001165,0.002005,0.002139,0.001561,-0.002259,-0.001927,-0.000019,-0.002654,-0.005871,-0.003565,-0.001889,-0.001083,-0.002220,-0.006726,-0.006765,-0.004997,-0.003528,-0.002912,-0.006101,-0.007278,-0.007513,-0.007613,-0.005220,-0.003704,-0.004563,-0.009424,-0.011158,-0.006534,-0.011078,-0.009661,-0.011105,-0.005935,-0.003649,-0.003301,-0.001609,-0.000702,-0.000932,-0.000902,-0.000481,-0.001930,-0.003099,-0.005341,-0.007363,-0.009269,-0.009963,-0.009280,-0.006671,-0.003352,-0.003892,-0.004828,-0.003565,-0.007867,-0.011743,-0.013216,-0.014800,-0.015786,-0.010900,-0.004281,-0.001901,-0.000527,-0.003752,-0.006193,-0.005952,-0.006767,-0.001112,0.001280,0.002252,-0.000289,-0.009082,-0.005452,-0.003934,-0.007152,-0.008088,-0.004063,-0.004152,-0.003503,-0.002535,-0.005262,-0.006218,-0.005976,-0.006096,-0.003357,-0.004220,-0.004568,-0.005094,-0.005892,-0.003985,-0.003120,-0.004608,-0.006469,-0.005800,-0.002026,-0.008556,-0.012889,-0.013465,-0.008688,-0.006606,-0.004559,-0.001095,-0.000612,-0.001644,-0.000899,-0.000607,-0.003567,-0.003454,-0.005550,-0.007435,-0.008263,-0.010536,-0.012472,-0.012894,-0.008049,-0.005533,-0.002348,-0.002353,-0.002256,-0.006443,-0.013412,-0.011164,-0.008044,-0.006330,-0.002746,-0.001382,-0.003047,-0.009288,-0.010714,-0.006781,-0.003023,-0.003117,-0.001913,-0.001007,-0.002978,-0.004678,-0.007310,-0.008460,-0.008966,-0.005230,-0.002004,-0.003378,-0.003364,-0.002381,-0.004245,-0.005709,-0.006226,-0.007545,-0.003842,-0.004294,-0.004886,-0.005501,-0.007244,-0.005194,-0.004174,-0.005736,-0.005757,-0.006860,-0.005829,-0.010379,-0.014935,-0.009273,-0.005808,-0.003672,-0.000960,-0.000896,-0.003573,-0.004750,-0.002023,-0.000939,-0.003935,-0.005685,-0.006288,-0.006439,-0.009940,-0.014407,-0.017317,-0.015964,-0.011441,-0.005153,-0.001746,-0.002944,-0.004310,-0.009861,-0.016092,-0.014390,-0.008392,-0.008532,-0.009471,-0.008802,-0.009651,-0.009438,-0.008730,-0.007628,-0.007873,-0.009982,-0.009684,-0.012855,-0.011094,-0.011348,-0.012866,-0.011478,-0.010240,-0.009442,-0.008308,-0.010346,-0.012003,-0.013119,-0.013766,-0.016545,-0.016755,-0.019237,-0.015181,-0.017257,-0.018372,-0.019435,-0.021232,-0.018213,-0.014747,-0.015630,-0.014486,-0.015932,-0.017806,-0.012583,-0.006694,-0.025147