-0.002750,,-0.002754,-0.002445,-0.002134,-0.001737,-0.001597,-0.001373,-0.000980,-0.001404,-0.002047,-0.002537,-0.002809,-0.002809,-0.002775,-0.002677,-0.002703,-0.002720,-0.002716,-0.002694,-0.002667,-0.002683,-0.002754,-0.002805,-0.002812,-0.002759,-0.002654,-0.002592,-0.002532,-0.002468,-0.002402,-0.002334,-0.002300,-0.002277,-0.002251,-0.002235,-0.002225,-0.002236,-0.002249,-0.002243,-0.002212,-0.002207,-0.002214,-0.002231,-0.002259,-0.002294,-0.002307,-0.002263,-0.002205,-0.002234,-0.002308,-0.002339,-0.002339,-0.002357,-0.001711,-0.001144,-0.000388,-0.000286,-0.000989,-0.001657,-0.002240,-0.002341,-0.002346,-0.002375,-0.002320,-0.002273,-0.001907,-0.001559,-0.001168,-0.000657,-0.000374,-0.000135,-0.000094,-0.000791,-0.001436,-0.001907,-0.002147,-0.002204,-0.002290,-0.002340,-0.002291,-0.002239,-0.002228,-0.002203,-0.002150,-0.002120,-0.002165,-0.002221,-0.002263,-0.002248,-0.002144,-0.002071,-0.002000,-0.001945,-0.001849,-0.001777,-0.001734,-0.001704,-0.001687,-0.001683,-0.001683,-0.001689,-0.001695,-0.001701,-0.001691,-0.001694,-0.001700,-0.001727,-0.001764,-0.001778,-0.001723,-0.001716,-0.001774,-0.001852,-0.001910,-0.001786,-0.001364,-0.000754,-0.000508,-0.000480,-0.000340,-0.000332,-0.000497,-0.001116,-0.001564,-0.001969,-0.002152,-0.002071,-0.001858,-0.001838,-0.001722,-0.001559,-0.000716,0.000127,0.000187,-0.000004,-0.000183,-0.000444,-0.000617,-0.001232,-0.001767,-0.001732,-0.001738,-0.001768,-0.001723,-0.001700,-0.001686,-0.001643,-0.001579,-0.001524,-0.001515,-0.001594,-0.001646,-0.001651,-0.001603,-0.001494,-0.001420,-0.001359,-0.001255,-0.001177,-0.001129,-0.001099,-0.001083,-0.001063,-0.001059,-0.001068,-0.001080,-0.001087,-0.001098,-0.001106,-0.001119,-0.001136,-0.001154,-0.001162,-0.001120,-0.001121,-0.001127,-0.001113,-0.001162,-0.001172,-0.000880,-0.000263,0.000371,0.000588,0.000375,0.000002,-0.000258,-0.000784,-0.000887,-0.000992,-0.001348,-0.001352,-0.001198,-0.001103,-0.001130,-0.000943,0.000284,0.001346,0.001527,0.000756,-0.000074,-0.000102,0.000150,-0.000025,-0.000669,-0.001226,-0.001375,-0.001330,-0.001280,-0.001213,-0.001163,-0.001098,-0.001044,-0.000993,-0.000950,-0.000968,-0.001023,-0.001015,-0.000989,-0.000925,-0.000792,-0.000692,-0.000593,-0.000506,-0.000452,-0.000425,-0.000401,-0.000353,-0.000315,-0.000293,-0.000280,-0.000279,-0.000274,-0.000268,-0.000258,-0.000253,-0.000248,-0.000213,-0.000206,-0.000192,-0.000111,-0.000017,-0.000044,-0.000172,-0.000215,-0.000035,0.000927,0.001643,0.001849,0.001667,0.001244,0.000835,0.000545,0.000359,-0.000098,-0.000312,-0.000363,-0.000013,0.000646,0.000981,0.001280,0.001744,0.001845,0.001149,0.001275,0.001679,0.001355,0.000882,0.000359,-0.000217,-0.000393,-0.000464,-0.000465,-0.000428,-0.000388,-0.000346,-0.000303,-0.000254,-0.000212,-0.000149,-0.000149,-0.000178,-0.000191,-0.000180,-0.000117,-0.000026,0.000055,0.000129,0.000183,0.000224,0.000264,0.000318,0.000376,0.000424,0.000468,0.000492,0.000508,0.000518,0.000531,0.000556,0.000587,0.000624,0.000645,0.000693,0.000769,0.000807,0.000827,0.000868,0.000907,0.000930,0.001656,0.002503,0.002934,0.003018,0.002732,0.002537,0.002230,0.001842,0.001315,0.000888,0.000704,0.001070,0.002333,0.002649,0.001503,0.001022,0.001383,0.000946,0.001426,0.002387,0.002601,0.002475,0.002018,0.001268,0.000989,0.000847,0.000863,0.000906,0.000901,0.000901,0.000934,0.000969,0.000988,0.001028,0.001069,0.001062,0.001029,0.001018,0.001009,0.001069,0.001173,0.001255,0.001317,0.001358,0.001388,0.001423,0.001459,0.001503,0.001533,0.001566,0.001605,0.001612,0.001627,0.001650,0.001673,0.001708,0.001754,0.001834,0.001899,0.001908,0.001927,0.001990,0.002014,0.001935,0.002192,0.002949,0.003403,0.003704,0.003844,0.003810,0.003721,0.003252,0.002643,0.002166,0.001976,0.002183,0.003394,0.003927,0.002914,0.002117,0.002006,0.001871,0.002360,0.003413,0.004240,0.003916,0.003075,0.002716,0.002557,0.002506,0.002500,0.002491,0.002496,0.002484,0.002485,0.002512,0.002528,0.002559,0.002573,0.002614,0.002624,0.002574,0.002564,0.002575,0.002683,0.002803,0.002897,0.002949,0.002975,0.002990,0.003015,0.003038,0.003068,0.003114,0.003175,0.003200,0.003208,0.003228,0.003258,0.003304,0.003368,0.003441,0.003514,0.003576,0.003587,0.003588,0.003592,0.003631,0.003597,0.004067,0.004847,0.005365,0.005758,0.005682,0.005380,0.004913,0.004222,0.003814,0.003809,0.003927,0.004632,0.005469,0.005565,0.004883,0.004345,0.004525,0.004830,0.005107,0.005998,0.005738,0.004653,0.004150,0.003889,0.003960,0.004016,0.004030,0.004025,0.004017,0.004017,0.004031,0.004004,0.004011,0.004041,0.004089,0.004132,0.004135,0.004075,0.004032,0.004042,0.004126,0.004209,0.004241,0.004239,0.004219,0.004194,0.004179,0.004174,0.004189,0.004235,0.004254,0.004256,0.004259,0.004267,0.004299,0.004368,0.004390,0.004407,0.004481,0.004525,0.004568,0.004805,0.005278,0.005491,0.005671,0.006488,0.006563,0.006490,0.006265,0.005934,0.006131,0.005553,0.005047,0.004852,0.004480,0.004786,0.005581,0.006553,0.006907,0.006100,0.005442,0.005519,0.005182,0.005971,0.005869,0.005430,0.005134,0.004892,0.004929,0.004855,0.004897,0.005042,0.005050,0.005164,0.005031,0.004921,0.005053,0.005140,0.005095,0.005108,0.005254,0.005305,0.005211,0.005119,0.005101,0.005092,0.005260,0.005311,0.005251,0.005225,0.005250,0.005208,0.005263,0.005258,0.005163,0.005198,0.005229,0.005202,0.005286,0.005345,0.005394,0.005350,0.005349,0.005457,0.005487,0.005690,0.006114,0.006549,0.007111,0.007645,0.007830,0.007625,0.007403,0.007478,0.007459,0.006976,0.006211,0.005879,0.006388,0.006995,0.007432,0.008093,0.008638,0.008133,0.006984,0.006100,0.005470,0.006088,0.006706,0.006219,0.006005,0.005748,0.005867,0.005810,0.005841,0.005859,0.005745,0.005810,0.005980,0.006001,0.006038,0.005990,0.006030,0.006157,0.006198,0.006163,0.006138,0.006187,0.006276,0.006212,0.006156,0.006045,0.006152,0.006251,0.006227,0.006248,0.006277,0.006317,0.006344,0.006433,0.006501,0.006484,0.006511,0.006545,0.006672,0.006883,0.006919,0.007001,0.007036,0.006997,0.006950,0.007595,0.008546,0.009105,0.009397,0.009532,0.009526,0.009435,0.008937,0.008783,0.008639,0.008679,0.008903,0.008905,0.009278,0.009834,0.010145,0.010014,0.008894,0.007208,0.006883,0.007007,0.007477,0.007904,0.007301,0.006933,0.006800,0.006812,0.006852,0.006915,0.007074,0.007081,0.006963,0.007081,0.007178,0.007147,0.007207,0.007296,0.007316,0.007423,0.007721,0.008481,0.008988,0.008925,0.008386,0.007790,0.007782,0.007763,0.007642,0.007671,0.007649,0.007682,0.007763,0.007758,0.007779,0.007916,0.008149,0.008241,0.008263,0.008470,0.008482,0.008626,0.008882,0.009008,0.009169,0.009539,0.010374,0.011042,0.011517,0.012009,0.012197,0.012167,0.011862,0.011689,0.011407,0.011175,0.011352,0.011843,0.012382,0.012541,0.012416,0.012303,0.011688,0.010580,0.009387,0.009083,0.009518,0.010218,0.010831,0.010169,0.009549,0.009583,0.009496,0.009528,0.010131,0.010494,0.010444,0.010688,0.010798,0.010788,0.010799,0.010839,0.010877,0.010976,0.011293,0.011636,0.011630,0.011366,0.010726,0.010052,0.010051,0.009904,0.009630,0.009407,0.009291,0.009618,0.010110,0.010281,0.010074,0.009771,0.009530,0.009650,0.009743,0.009948,0.010091,0.010150,0.010397,0.010552,0.011095,0.011585,0.012366,0.013113,0.013471,0.013845,0.014017,0.013981,0.014053,0.013946,0.013658,0.013034,0.012956,0.013583,0.014014,0.014281,0.014544,0.014583,0.014532,0.014613,0.013081,0.011721,0.011609,0.011624,0.011801,0.011956,0.012152,0.012920,0.013488,0.013748,0.014316,0.014591,0.014612,0.014534,0.014370,0.014267,0.014246,0.014353,0.014445,0.014397,0.014394,0.014313,0.014131,0.014025,0.013804,0.013554,0.013664,0.013564,0.013392,0.013397,0.013314,0.013441,0.013658,0.013626,0.013346,0.012955,0.012529,0.012283,0.012327,0.012637,0.012828,0.012389,0.011987,0.011700,0.012234,0.013286,0.014125,0.014619,0.014568,0.014556,0.014646,0.014363,0.014221,0.014147,0.014290,0.014102,0.013661,0.013566,0.013520,0.013922,0.014829,0.014832,0.014900,0.015196,0.014655,0.013784,0.013081,0.012807,0.012663,0.013231,0.014090,0.014798,0.015427,0.015784,0.016055,0.016014,0.015966,0.015945,0.015876,0.015805,0.015712,0.015743,0.015851,0.015817,0.015732,0.015698,0.015599,0.015454,0.015234,0.014975,0.015014,0.014942,0.014974,0.015209,0.015170,0.014850,0.014509,0.014328,0.014395,0.014531,0.014547,0.014763,0.014872,0.014652,0.014378,0.014111,0.014278,0.014209,0.014099,0.014705,0.015184,0.015503,0.015529,0.015425,0.015491,0.015291,0.015062,0.014619,0.014223,0.014407,0.014497,0.014600,0.014310,0.014068,0.014771,0.015247,0.015663,0.015504,0.014789,0.014995,0.014146,0.013082,0.013488,0.013993,0.015330,0.016121,0.016313,0.016307,0.016376,0.016444,0.016590,0.016593,0.016502,0.016392,0.016231,0.016197,0.016194,0.016154,0.016148,0.016095,0.016001,0.015763,0.015421,0.015015,0.014833,0.014646,0.014409,0.014259,0.014116,0.013947,0.013772,0.013770,0.013899,0.013937,0.013820,0.013597,0.013554,0.013621,0.013425,0.013147,0.013026,0.013214,0.013685,0.013904,0.013897,0.013891,0.013960,0.013871,0.013735,0.013817,0.013738,0.013176,0.012447,0.012470,0.012505,0.012513,0.012456,0.012205,0.012551,0.012665,0.012624,0.012432,0.012149,0.012260,0.012135,0.011258,0.010156,0.009867,0.010498,0.012023,0.012668,0.012836,0.012872,0.012902,0.013054,0.013181,0.013256,0.013323,0.013422,0.013551,0.013518,0.013368,0.013320,0.013160,0.013205,0.013276,0.013447,0.013520,0.013480,0.013192,0.012548,0.012042,0.012052,0.012256,0.012241,0.012120,0.011960,0.011767,0.011660,0.011594,0.011362,0.011137,0.010942,0.011173,0.011276,0.011517,0.011818,0.011856,0.011788,0.011515,0.011520,0.011302,0.010901,0.011097,0.010990,0.010017,0.009495,0.009625,0.009435,0.009573,0.009827,0.010089,0.010404,0.010320,0.010337,0.009874,0.009767,0.009829,0.010231,0.010286,0.008887,0.007645,0.007584,0.007789,0.009306,0.009933,0.009816,0.009802,0.009741,0.009743,0.009696,0.009802,0.009764,0.009866,0.009999,0.009754,0.009918,0.010080,0.010298,0.010169,0.010203,0.010626,0.010653,0.010490,0.010278,0.010314,0.010387,0.010748,0.010988,0.011187,0.011260,0.010970,0.010832,0.010789,0.010654,0.010908,0.011146,0.011221,0.011071,0.010813,0.010545,0.010424,0.010385,0.010512,0.010525,0.010441,0.010428,0.010186,0.010002,0.009290,0.008376,0.007768,0.008141,0.008957,0.009366,0.009703,0.009828,0.009643,0.009430,0.009016,0.008610,0.008592,0.008458,0.008232,0.007900,0.007226,0.006818,0.006786,0.007197,0.008268,0.008599,0.009161,0.009421,0.009038,0.009174,0.009010,0.008807,0.008942,0.009274,0.009334,0.009614,0.009943,0.010040,0.009760,0.009626,0.009665,0.009590,0.009637,0.009453,0.009084,0.008952,0.009303,0.009540,0.009707,0.009910,0.009923,0.010066,0.010320,0.010204,0.010181,0.010270,0.010526,0.010780,0.010835,0.010602,0.010555,0.010308,0.009987,0.010123,0.010301,0.010059,0.009710,0.009742,0.009045,0.008347,0.007928,0.008551,0.009331,0.009676,0.009861,0.009703,0.009434,0.009564,0.009677,0.008945,0.008485,0.008477,0.008712,0.008979,0.008342,0.007752,0.007394,0.007477,0.008351,0.009878,0.010312,0.010480,0.010564,0.010230,0.009844,0.009380,0.009492,0.010101,0.010310,0.010279,0.010147,0.009961,0.009935,0.010156,0.010121,0.010082,0.010517,0.010754,0.010644,0.010427,0.010343,0.010232,0.009977,0.009740,0.009324,0.009150,0.009581,0.009873,0.010135,0.010125,0.010003,0.010046,0.010105,0.010082,0.010012,0.009880,0.009688,0.009713,0.009756,0.009441,0.009341,0.009503,0.009233,0.009242,0.009252,0.009473,0.009613,0.009703,0.009386,0.009211,0.009401,0.009600,0.009832,0.009535,0.009039,0.008916,0.008736,0.008429,0.008149,0.008668,0.008050,0.007807,0.008394,0.009083,0.010194,0.010532,0.010347,0.010059,0.009721,0.009193,0.009221,0.009735,0.009852,0.009604,0.009450,0.009437,0.009713,0.010043,0.009842,0.009558,0.009773,0.009851,0.009621,0.009205,0.008896,0.008797,0.008579,0.008309,0.008036,0.008315,0.008403,0.008598,0.009160,0.009503,0.009603,0.009593,0.009535,0.009481,0.009260,0.009251,0.009303,0.009204,0.009025,0.008897,0.008996,0.009125,0.009059,0.008885,0.008505,0.008342,0.008320,0.008377,0.008112,0.008086,0.008277,0.008262,0.008186,0.007896,0.007319,0.007326,0.007131,0.006579,0.006833,0.007845,0.007678,0.006494,0.005989,0.005813,0.006374,0.008072,0.008611,0.008702,0.008346,0.008033,0.008001,0.008162,0.008197,0.008218,0.008254,0.008318,0.008330,0.008354,0.008212,0.008011,0.007939,0.007754,0.007606,0.007469,0.007366,0.007470,0.007444,0.007415,0.007601,0.008371,0.008586,0.008655,0.008958,0.008995,0.008964,0.008932,0.008796,0.008617,0.008533,0.008425,0.008415,0.008367,0.008170,0.007962,0.007638,0.007349,0.007337,0.007356,0.007420,0.007552,0.007629,0.007625,0.007627,0.007619,0.007503,0.007361,0.007085,0.006629,0.006106,0.006350,0.006325,0.005735,0.005877,0.005979,0.005959,0.005266,0.004343,0.003928,0.004003,0.004748,0.006415,0.006652,0.006647,0.006610,0.006641,0.006689,0.006693,0.006747,0.006615,0.006585,0.006657,0.006539,0.006437,0.006344,0.006302,0.006348,0.006356,0.006325,0.006198,0.006070,0.006004,0.005980,0.005965,0.006073,0.006732,0.007324,0.007469,0.007321,0.006928,0.006693,0.006416,0.006191,0.006112,0.005869,0.005742,0.005707,0.005597,0.005437,0.004850,0.004216,0.003880,0.004078,0.004980,0.005409,0.005470,0.005572,0.005954,0.006115,0.006139,0.006101,0.006125,0.006248,0.006323,0.005951,0.004891,0.004157,0.004265,0.004178,0.004345,0.004395,0.003081,0.002000,0.001940,0.002194,0.003009,0.004337,0.004435,0.004361,0.004369,0.004366,0.004280,0.004094,0.004000,0.003991,0.003932,0.003806,0.003543,0.003292,0.003209,0.003364,0.003501,0.003560,0.003625,0.003546,0.003576,0.003589,0.003611,0.003554,0.003618,0.004038,0.004455,0.004678,0.004634,0.004495,0.004200,0.004052,0.003954,0.003809,0.003832,0.003875,0.003897,0.003895,0.003750,0.003447,0.002671,0.002238,0.002730,0.002642,0.002656,0.003062,0.003361,0.003877,0.004140,0.003986,0.004020,0.003821,0.003750,0.003048,0.001974,0.001780,0.002156,0.002461,0.002196,0.001842,0.001435,0.000167,-0.000225,-0.000002,0.000080,0.001045,0.001925,0.002080,0.001999,0.001819,0.001722,0.001613,0.001565,0.001353,0.001221,0.001257,0.001257,0.001312,0.001424,0.001525,0.001597,0.001617,0.001737,0.001787,0.001833,0.001760,0.002136,0.002940,0.003307,0.003486,0.003496,0.003344,0.003107,0.002881,0.002677,0.002667,0.002587,0.002409,0.002180,0.002200,0.002129,0.001780,0.001783,0.001945,0.001022,0.000305,0.000692,0.000390,0.000459,0.000927,0.001286,0.001151,0.000780,0.000982,0.001888,0.002378,0.002502,0.002751,0.002829,0.002351,0.001844,0.001647,0.001386,0.001172,0.000955,0.000608,0.000142,-0.000123,-0.000097,0.000250,0.000881,0.001175,0.001209,0.001321,0.001292,0.001187,0.001122,0.001346,0.001443,0.001470,0.001464,0.001360,0.001326,0.001349,0.001310,0.001463,0.001506,0.001221,0.001081,0.001147,0.001086,0.001212,0.001998,0.002641,0.002914,0.002887,0.002704,0.002539,0.002467,0.002435,0.002282,0.002022,0.001842,0.001935,0.002133,0.002053,0.001875,0.001954,0.001310,0.000745,0.000902,0.000825,0.000839,0.001004,0.001222,0.001272,0.001328,0.001785,0.002404,0.002871,0.002917,0.002665,0.002497,0.002588,0.002329,0.001925,0.001688,0.001619,0.001704,0.001635,0.001338,0.000985,0.000834,0.000918,0.001452,0.001946,0.001705,0.001517,0.001574,0.001805,0.001541,0.001468,0.001450,0.001446,0.001362,0.001229,0.001149,0.001057,0.000854,0.000891,0.000839,0.000899,0.001082,0.001201,0.000957,0.000798,0.001373,0.002014,0.002563,0.002768,0.002736,0.002638,0.002523,0.002393,0.002120,0.001914,0.001872,0.001753,0.001598,0.001456,0.001432,0.001494,0.000721,-0.000021,0.000148,0.000331,0.000412,0.000331,0.000319,0.000313,0.000161,0.000588,0.000928,0.000975,0.001132,0.001264,0.001228,0.001295,0.000964,0.000611,0.000396,0.000246,0.000338,0.000599,0.000808,0.000692,0.000316,-0.000030,0.000011,0.000603,0.001079,0.001260,0.001245,0.001329,0.001238,0.001252,0.001243,0.001596,0.001795,0.001858,0.001906,0.001877,0.001983,0.002194,0.002130,0.001979,0.001740,0.001568,0.001590,0.001945,0.002705,0.003125,0.003302,0.003126,0.002902,0.002752,0.002610,0.002461,0.002126,0.001853,0.001843,0.001608,0.001332,0.001129,0.001133,0.001344,0.000512,-0.000411,-0.000406,-0.000048,0.000360,0.000450,0.000380,0.000204,0.000149,0.000650,0.001095,0.000998,0.001255,0.001762,0.001936,0.001773,0.001418,0.001169,0.001068,0.001136,0.001272,0.001500,0.001787,0.001937,0.001896,0.001618,0.001058,0.001080,0.001700,0.001969,0.002007,0.001939,0.002008,0.001789,0.002065,0.002185,0.001998,0.001941,0.002019,0.001929,0.001818,0.001828,0.001781,0.001559,0.001116,0.000670,0.000647,0.001182,0.002144,0.002726,0.002943,0.002859,0.002787,0.002738,0.002565,0.002315,0.002105,0.001764,0.001413,0.001203,0.001059,0.000892,0.000797,0.000964,0.000292,-0.000573,-0.000864,-0.000497,0.000102,0.000312,0.000196,-0.000002,0.000063,0.000358,0.000491,0.000543,0.000658,0.001043,0.001569,0.001793,0.001819,0.001653,0.001794,0.002018,0.001957,0.001691,0.001436,0.001309,0.001293,0.001212,0.000664,0.000147,0.000421,0.001124,0.001448,0.001282,0.001178,0.001223,0.001239,0.001176,0.000998,0.000995,0.000978,0.000930,0.001141,0.001428,0.001527,0.001501,0.001316,0.001121,0.001221,0.001765,0.002418,0.002831,0.002963,0.002853,0.002720,0.002577,0.002409,0.002366,0.002400,0.002256,0.001999,0.001794,0.001717,0.001512,0.001250,0.001219,0.000953,0.000446,-0.000154,-0.000054,0.000151,-0.000063,-0.000485,-0.000612,-0.000759,-0.000659,-0.000373,-0.000670,-0.001159,-0.001012,-0.000399,-0.000280,-0.000297,-0.000266,-0.000219,-0.000333,-0.000713,-0.000823,-0.000763,-0.000968,-0.001184,-0.001240,-0.001252,-0.001429,-0.001602,-0.000894,-0.000239,-0.000070,0.000142,0.000953,0.001234,0.000779,0.000137,-0.000009,-0.000151,-0.000341,-0.000284,-0.000407,-0.000549,-0.000680,-0.000658,-0.000480,0.000030,0.000716,0.001405,0.002065,0.002420,0.002631,0.002661,0.002512,0.002313,0.002226,0.002063,0.001927,0.001912,0.001722,0.001651,0.001562,0.001339,0.001167,0.001162,0.001110,0.000772,0.000556,0.000347,-0.000217,-0.000806,-0.000824,-0.000859,-0.000962,-0.000634,-0.000830,-0.001325,-0.001508,-0.001519,-0.001904,-0.002250,-0.002198,-0.001922,-0.001971,-0.002133,-0.001764,-0.001184,-0.001120,-0.001094,-0.000917,-0.000828,-0.000760,-0.001383,-0.001848,-0.001341,-0.000406,-0.000304,-0.000541,-0.000372,-0.001485,-0.002440,-0.002132,-0.001575,-0.001383,-0.001549,-0.002171,-0.002291,-0.002171,-0.001933,-0.001955,-0.001878,-0.001645,-0.001337,-0.000702,-0.000037,0.000726,0.001461,0.001942,0.001960,0.001701,0.001428,0.001187,0.000911,0.000736,0.000650,0.000563,0.000471,0.000480,0.000692,0.000933,0.001337,0.001078,0.000770,0.000309,-0.000065,0.000119,0.000092,-0.000735,-0.000993,-0.000285,0.000173,-0.000242,-0.000855,-0.001080,-0.001406,-0.001922,-0.001844,-0.001582,-0.001383,-0.001324,-0.001313,-0.001272,-0.001098,-0.000814,-0.001170,-0.001484,-0.001388,-0.002043,-0.002271,-0.001583,-0.000127,-0.000167,-0.001507,-0.002834,-0.003588,-0.003475,-0.003445,-0.003241,-0.002417,-0.002088,-0.001686,-0.001214,-0.001010,-0.001377,-0.001635,-0.001609,-0.001725,-0.001748,-0.001827,-0.001627,-0.000782,0.000376,0.001089,0.001268,0.001305,0.001153,0.000880,0.000704,0.000521,0.000205,-0.000028,0.000149,0.000542,0.000855,0.001096,0.001035,0.000647,0.000345,0.000332,0.000232,0.000016,-0.000048,-0.000136,0.000135,0.000349,0.000104,-0.000426,-0.000740,-0.001280,-0.001757,-0.001774,-0.002109,-0.001941,-0.001784,-0.001740,-0.001673,-0.001754,-0.001375,-0.001508,-0.002290,-0.002108,-0.001623,-0.002318,-0.002684,-0.002037,-0.001187,-0.002655,-0.004207,-0.003764,-0.002960,-0.001894,-0.001220,-0.001259,-0.000986,-0.001043,-0.001320,-0.000502,-0.000178,-0.001068,-0.001001,-0.000449,-0.000306,-0.000716,-0.001324,-0.002032,-0.001990,-0.001284,-0.000987,-0.000312,0.000015,0.000075,0.000074,-0.000275,-0.000822,-0.001138,-0.001172,-0.000444,-0.000133,0.000093,-0.000097,-0.000409,-0.000784,-0.001144,-0.001345,-0.001898,-0.002352,-0.002723,-0.003330,-0.003534,-0.003663,-0.003735,-0.003821,-0.003741,-0.003451,-0.003280,-0.002994,-0.002990,-0.002901,-0.002579,-0.002508,-0.002550,-0.002810,-0.002353,-0.002724,-0.002473,-0.001720,-0.002044,-0.003656,-0.004151,-0.004102,-0.004386,-0.004924,-0.004332,-0.003835,-0.003362,-0.003093,-0.003183,-0.003046,-0.002708,-0.002465,-0.001827,-0.002158,-0.002413,-0.001941,-0.002060,-0.001720,-0.001543,-0.001135,-0.001529,-0.002847,-0.003466,-0.003198,-0.002668,-0.002480,-0.002261,-0.002157,-0.002297,-0.001984,-0.001691,-0.001785,-0.002063,-0.002277,-0.002360,-0.002722,-0.002824,-0.002936,-0.003106,-0.003021,-0.003249,-0.003703,-0.004190,-0.004395,-0.004267,-0.003870,-0.003453,-0.003276,-0.002962,-0.002622,-0.002510,-0.002439,-0.002747,-0.003220,-0.003352,-0.003335,-0.003157,-0.003092,-0.002727,-0.002801,-0.003151,-0.003994,-0.004236,-0.004284,-0.004929,-0.005128,-0.005244,-0.005307,-0.004834,-0.004670,-0.004590,-0.004511,-0.004425,-0.004328,-0.004054,-0.003447,-0.003197,-0.003467,-0.003650,-0.003004,-0.002506,-0.002679,-0.002898,-0.002716,-0.002931,-0.004412,-0.005351,-0.005404,-0.004534,-0.003712,-0.003605,-0.003239,-0.003372,-0.002840,-0.002391,-0.002491,-0.003151,-0.003478,-0.003724,-0.003967,-0.004086,-0.004285,-0.004515,-0.004453,-0.004161,-0.004072,-0.004123,-0.003753,-0.003784,-0.003913,-0.004237,-0.004578,-0.004670,-0.004721,-0.004241,-0.003992,-0.003801,-0.003284,-0.003375,-0.003758,-0.004027,-0.004095,-0.004476,-0.004695,-0.005503,-0.006039,-0.006019,-0.005789,-0.005899,-0.006162,-0.005886,-0.006115,-0.006328,-0.006335,-0.006025,-0.005605,-0.005172,-0.004651,-0.004501,-0.004089,-0.003793,-0.003463,-0.003129,-0.003277,-0.003951,-0.004215,-0.004492,-0.004325,-0.004738,-0.005978,-0.006344,-0.006497,-0.006345,-0.005740,-0.005119,-0.004421,-0.004481,-0.004374,-0.004328,-0.004361,-0.004735,-0.005007,-0.005364,-0.005233,-0.005224,-0.005435,-0.005637,-0.005758,-0.005649,-0.005189,-0.004241,-0.004156,-0.004398,-0.004908,-0.005528,-0.005975,-0.006026,-0.005813,-0.005215,-0.005236,-0.005800,-0.005049,-0.004810,-0.005080,-0.004821,-0.004986,-0.005307,-0.005503,-0.005719,-0.006043,-0.006249,-0.006580,-0.006171,-0.006327,-0.006841,-0.007081,-0.007578,-0.007883,-0.007561,-0.006718,-0.005371,-0.003812,-0.003278,-0.004130,-0.004703,-0.004561,-0.004883,-0.005155,-0.005138,-0.005112,-0.004980,-0.005195,-0.006436,-0.007663,-0.007431,-0.007159,-0.007397,-0.007573,-0.007425,-0.007423,-0.007608,-0.007653,-0.007401,-0.006934,-0.006690,-0.006758,-0.006778,-0.006545,-0.006512,-0.006486,-0.006392,-0.006562,-0.006526,-0.006106,-0.005780,-0.005963,-0.005566,-0.005509,-0.005898,-0.006799,-0.007957,-0.008129,-0.007469,-0.006242,-0.005504,-0.005694,-0.006424,-0.006957,-0.006576,-0.006426,-0.006877,-0.007345,-0.007240,-0.007199,-0.006842,-0.006441,-0.006848,-0.007351,-0.007438,-0.007209,-0.007415,-0.007795,-0.007844,-0.007738,-0.007586,-0.007034,-0.006649,-0.006518,-0.006921,-0.006915,-0.007633,-0.008278,-0.007953,-0.007275,-0.006496,-0.006936,-0.007985,-0.008472,-0.008059,-0.007796,-0.007878,-0.007721,-0.007613,-0.007362,-0.007134,-0.007302,-0.007569,-0.007889,-0.008088,-0.008400,-0.008425,-0.008564,-0.008732,-0.008782,-0.008769,-0.008884,-0.009110,-0.009098,-0.009029,-0.009135,-0.008701,-0.008315,-0.008240,-0.008576,-0.009029,-0.008940,-0.008799,-0.007930,-0.006557,-0.006625,-0.006750,-0.006742,-0.006846,-0.006499,-0.006382,-0.006578,-0.006995,-0.006960,-0.007309,-0.007526,-0.007694,-0.007355,-0.007157,-0.007434,-0.008043,-0.008284,-0.008129,-0.008136,-0.008283,-0.008263,-0.008302,-0.007963,-0.007183,-0.007383,-0.008231,-0.008413,-0.009067,-0.009093,-0.008619,-0.008246,-0.008257,-0.008206,-0.008101,-0.008266,-0.008598,-0.008363,-0.008085,-0.007896,-0.007920,-0.008222,-0.008396,-0.008641,-0.008871,-0.009073,-0.009412,-0.009664,-0.009662,-0.009767,-0.009996,-0.009906,-0.009498,-0.009370,-0.009480,-0.009366,-0.009570,-0.009551,-0.009758,-0.009877,-0.009614,-0.009448,-0.009142,-0.008828,-0.007839,-0.007037,-0.006473,-0.006184,-0.006687,-0.006644,-0.007078,-0.006877,-0.006374,-0.006649,-0.006989,-0.007628,-0.008214,-0.007372,-0.006649,-0.006625,-0.006755,-0.006929,-0.007642,-0.008442,-0.008413,-0.008009,-0.007869,-0.008184,-0.008585,-0.009092,-0.009372,-0.009131,-0.009211,-0.009510,-0.009519,-0.008888,-0.008934,-0.009128,-0.009017,-0.009061,-0.009585,-0.009837,-0.009758,-0.009730,-0.010019,-0.010439,-0.010737,-0.011247,-0.011213,-0.010722,-0.010651,-0.010324,-0.010562,-0.010422,-0.010085,-0.009911,-0.009645,-0.009994,-0.009845,-0.009706,-0.009698,-0.009795,-0.010014,-0.010123,-0.010011,-0.009695,-0.009659,-0.009701,-0.009256,-0.008153,-0.007666,-0.007818,-0.008039,-0.008104,-0.009185,-0.009086,-0.007934,-0.008115,-0.008808,-0.009311,-0.009756,-0.009616,-0.009092,-0.008974,-0.008321,-0.008354,-0.008266,-0.008569,-0.009180,-0.009769,-0.010284,-0.010483,-0.010713,-0.010928,-0.011076,-0.011159,-0.011270,-0.011383,-0.011170,-0.010669,-0.010757,-0.011000,-0.011224,-0.011656,-0.012260,-0.012745,-0.012568,-0.012812,-0.012192,-0.011067,-0.011332,-0.012536,-0.012252,-0.011888,-0.011954,-0.011590,-0.011387,-0.011153,-0.011059,-0.011163,-0.011382,-0.011491,-0.011273,-0.010960,-0.011371,-0.011863,-0.011642,-0.011632,-0.011318,-0.011266,-0.011358,-0.011236,-0.010897,-0.010467,-0.009989,-0.010153,-0.010043,-0.010318,-0.010759,-0.010355,-0.009577,-0.009996,-0.011107,-0.011380,-0.011119,-0.011027,-0.011012,-0.010839,-0.010354,-0.009810,-0.009299,-0.009247,-0.008988,-0.009154,-0.009482,-0.010151,-0.011107,-0.011974,-0.012431,-0.012542,-0.012757,-0.012876,-0.012695,-0.012685,-0.012835,-0.012881,-0.012879,-0.012760,-0.012714,-0.013051,-0.013471,-0.012825,-0.011594,-0.011093,-0.010725,-0.010653,-0.011479,-0.012496,-0.013522,-0.013989,-0.013498,-0.013050,-0.013052,-0.013127,-0.013192,-0.013071,-0.013280,-0.013936,-0.014626,-0.014864,-0.015000,-0.014876,-0.015104,-0.015408,-0.015198,-0.014586,-0.014479,-0.014180,-0.014681,-0.014543,-0.014317,-0.013857,-0.013156,-0.012420,-0.013105,-0.013716,-0.013896,-0.013982,-0.013847,-0.013636,-0.013385,-0.013239,-0.012926,-0.012561,-0.012492,-0.012331,-0.011416,-0.011020,-0.010476,-0.010265,-0.010385,-0.010703,-0.010983,-0.011135,-0.011257,-0.011463,-0.011703,-0.011894,-0.011740,-0.011580,-0.011829,-0.012017,-0.011900,-0.012324,-0.011458,-0.010586,-0.011099,-0.012079,-0.011598,-0.010249,-0.010810,-0.011799,-0.012042,-0.012707,-0.012563,-0.012600,-0.013032,-0.013034,-0.012710,-0.012987,-0.014078,-0.014900,-0.015418,-0.015551,-0.015209,-0.015021,-0.014836,-0.013875,-0.012417,-0.010965,-0.010270,-0.010301,-0.011777,-0.013431,-0.014149,-0.014098,-0.013254,-0.013673,-0.014476,-0.013584,-0.013061,-0.013709,-0.014182,-0.014192,-0.014043,-0.014025,-0.013974,-0.013992,-0.013932,-0.013779,-0.013527,-0.013124,-0.012408,-0.012012,-0.011834,-0.011721,-0.011478,-0.011045,-0.010368,-0.009839,-0.009676,-0.009587,-0.009545,-0.009600,-0.009636,-0.009519,-0.009796,-0.010076,-0.009485,-0.010306,-0.010604,-0.010829,-0.011252,-0.009834,-0.009822,-0.010141,-0.009690,-0.009922,-0.009832,-0.009928,-0.010283,-0.010174,-0.010027,-0.011115,-0.012474,-0.013173,-0.013797,-0.013880,-0.013401,-0.012622,-0.010829,-0.009458,-0.009257,-0.009696,-0.009555,-0.008682,-0.007881,-0.009018,-0.010418,-0.011859,-0.012042,-0.012256,-0.012333,-0.011381,-0.011087,-0.011856,-0.012660,-0.012953,-0.012942,-0.012848,-0.013003,-0.012695,-0.012103,-0.011997,-0.012260,-0.012238,-0.012576,-0.012563,-0.012458,-0.012303,-0.012077,-0.011866,-0.011559,-0.011075,-0.010190,-0.009376,-0.008910,-0.008657,-0.008145,-0.007604,-0.008051,-0.008216,-0.008999,-0.009219,-0.009094,-0.008558,-0.009084,-0.009413,-0.009289,-0.009003,-0.008442,-0.008492,-0.008265,-0.007711,-0.007529,-0.007485,-0.007868,-0.009343,-0.010774,-0.011616,-0.012180,-0.012199,-0.011634,-0.009989,-0.009501,-0.010137,-0.010253,-0.010511,-0.010334,-0.008850,-0.007342,-0.006441,-0.007355,-0.009150,-0.009394,-0.010555,-0.011031,-0.010244,-0.009541,-0.009995,-0.010842,-0.011060,-0.011213,-0.011259,-0.011083,-0.010393,-0.010345,-0.010268,-0.010164,-0.010609,-0.011127,-0.011234,-0.011224,-0.011154,-0.011012,-0.010839,-0.010694,-0.010590,-0.010349,-0.009557,-0.008747,-0.008154,-0.007489,-0.007079,-0.007125,-0.006865,-0.006943,-0.006764,-0.006902,-0.006679,-0.006426,-0.007145,-0.006815,-0.006116,-0.005598,-0.005672,-0.005580,-0.005106,-0.005094,-0.005502,-0.006163,-0.007420,-0.009111,-0.010121,-0.010496,-0.010516,-0.009053,-0.008006,-0.008221,-0.007716,-0.007271,-0.006578,-0.006142,-0.007434,-0.007468,-0.006517,-0.006199,-0.007351,-0.008141,-0.009898,-0.010186,-0.010111,-0.010235,-0.009649,-0.009191,-0.009714,-0.010363,-0.010344,-0.009743,-0.009287,-0.009809,-0.009549,-0.009628,-0.010497,-0.010802,-0.010666,-0.010422,-0.010197,-0.010034,-0.009918,-0.009792,-0.009631,-0.009443,-0.008894,-0.008317,-0.008071,-0.007685,-0.007398,-0.006418,-0.005982,-0.006058,-0.006056,-0.006517,-0.006023,-0.005072,-0.005437,-0.005468,-0.005372,-0.005912,-0.005640,-0.005189,-0.005078,-0.005209,-0.005621,-0.006146,-0.006687,-0.007635,-0.008933,-0.009358,-0.008813,-0.007671,-0.007795,-0.007138,-0.006515,-0.006451,-0.006975,-0.006487,-0.006727,-0.007701,-0.006700,-0.005421,-0.006011,-0.006981,-0.009573,-0.010261,-0.009878,-0.009711,-0.009388,-0.009006,-0.009288,-0.009489,-0.008883,-0.008331,-0.008426,-0.008428,-0.007936,-0.008803,-0.009523,-0.009396,-0.009349,-0.009308,-0.009161,-0.008916,-0.008709,-0.008598,-0.008567,-0.008417,-0.007536,-0.006635,-0.006425,-0.006426,-0.006429,-0.005050,-0.004697,-0.004616,-0.004739,-0.005231,-0.005567,-0.005584,-0.006471,-0.006872,-0.006228,-0.005690,-0.006055,-0.006043,-0.005105,-0.004505,-0.004389,-0.004294,-0.004523,-0.005512,-0.007063,-0.008174,-0.006888,-0.005862,-0.006089,-0.005753,-0.005742,-0.006184,-0.006423,-0.006388,-0.005962,-0.006566,-0.005995,-0.004768,-0.004727,-0.005803,-0.007143,-0.008178,-0.008129,-0.007427,-0.007425,-0.007586,-0.007757,-0.007234,-0.006162,-0.006008,-0.006073,-0.005912,-0.006164,-0.006811,-0.006829,-0.006604,-0.006445,-0.006252,-0.005871,-0.005772,-0.005647,-0.005370,-0.004765,-0.004507,-0.004280,-0.003787,-0.003831,-0.003664,-0.003227,-0.002279,-0.002907,-0.003355,-0.003329,-0.003740,-0.004230,-0.004771,-0.005757,-0.006417,-0.006369,-0.005542,-0.004880,-0.003714,-0.002654,-0.002263,-0.002347,-0.002430,-0.002480,-0.004065,-0.005314,-0.005830,-0.004485,-0.004515,-0.004765,-0.004505,-0.004679,-0.005429,-0.005712,-0.004648,-0.003628,-0.004665,-0.004411,-0.002643,-0.001844,-0.003411,-0.004789,-0.005160,-0.004965,-0.004658,-0.004573,-0.004642,-0.004822,-0.004473,-0.003719,-0.003260,-0.002995,-0.003128,-0.003532,-0.003746,-0.004028,-0.003967,-0.003774,-0.003619,-0.003409,-0.003218,-0.002890,-0.002764,-0.002447,-0.002020,-0.002020,-0.001642,-0.001421,-0.000971,-0.000412,-0.000041,-0.000565,-0.001849,-0.002367,-0.002408,-0.002666,-0.003386,-0.003937,-0.002819,-0.001723,-0.001586,-0.001673,-0.001239,-0.000754,-0.000463,-0.000709,-0.001274,-0.001318,-0.001705,-0.002170,-0.002074,-0.001465,-0.002540,-0.002670,-0.002199,-0.001946,-0.001557,-0.001649,-0.001766,-0.001858,-0.003405,-0.002908,-0.000955,-0.000236,-0.001112,-0.001765,-0.001775,-0.001642,-0.001427,-0.001536,-0.001720,-0.001580,-0.001693,-0.001438,-0.001224,-0.001642,-0.001532,-0.001439,-0.001628,-0.001501,-0.000951,-0.000895,-0.000804,-0.000395,-0.000214,-0.000274,-0.000032,0.000521,0.000720,0.000719,0.000910,0.000779,0.000638,0.000763,0.001069,0.000887,-0.000690,-0.001809,-0.001961,-0.002380,-0.002801,-0.002127,-0.000468,0.000901,0.001411,0.001711,0.002134,0.002070,0.001701,0.000992,0.000274,0.000280,0.000453,0.000398,0.000552,0.000817,-0.000117,-0.000334,-0.000472,-0.000710,-0.000525,-0.001158,-0.001425,-0.001681,-0.002436,-0.001028,0.000360,0.000410,-0.000051,-0.000306,-0.000259,-0.000037,0.000261,0.000061,-0.000238,0.000096,0.000487,0.000385,0.000691,0.000862,0.001351,0.001515,0.001430,0.001853,0.001963,0.002062,0.002060,0.002165,0.002385,0.002521,0.002398,0.002260,0.002113,0.002342,0.002579,0.002412,0.002170,0.002204,0.002241,0.002206,0.001378,-0.000256,-0.001741,-0.002593,-0.001806,0.000063,0.001542,0.002447,0.002918,0.003156,0.003437,0.003434,0.003363,0.003219,0.002579,0.002380,0.002074,0.002199,0.002235,0.002603,0.001755,-0.000042,-0.000509,0.000027,0.000344,0.000223,-0.000804,-0.001634,-0.001320,-0.000028,0.001270,0.001632,0.001459,0.001721,0.002166,0.002433,0.002131,0.001980,0.002312,0.002613,0.002989,0.003032,0.003132,0.003595,0.003360,0.003341,0.003689,0.003429,0.003342,0.003289,0.003135,0.003067,0.003212,0.003272,0.003129,0.002974,0.003003,0.003079,0.003070,0.003037,0.003065,0.003312,0.003302,0.002998,0.002637,0.002350,0.001719,0.001204,0.001526,0.001853,0.002326,0.002762,0.003547,0.003804,0.003802,0.003608,0.003351,0.003011,0.002491,0.002339,0.002614,0.002748,0.002554,0.002538,0.001878,-0.000444,-0.001907,-0.001102,-0.000971,-0.001369,-0.002165,-0.002867,-0.001392,0.000295,0.001501,0.002000,0.002066,0.002506,0.002689,0.002972,0.002965,0.002965,0.003040,0.002913,0.002913,0.003116,0.002985,0.002889,0.002617,0.002839,0.002779,0.002131,0.002280,0.001970,0.001666,0.001571,0.001588,0.001383,0.001176,0.001154,0.001192,0.000847,0.000523,0.000439,0.000217,0.000204,0.000335,-0.000053,-0.000664,-0.000609,-0.000564,-0.000522,-0.000614,-0.000798,0.000009,0.001011,0.002224,0.002565,0.002350,0.001990,0.001623,0.001390,0.001332,0.001332,0.001284,0.001060,0.000849,0.000698,0.000843,0.000262,-0.001967,-0.003282,-0.004361,-0.004859,-0.004710,-0.003541,-0.001414,-0.000085,0.000586,0.000834,0.001458,0.001631,0.001259,0.001477,0.002187,0.002482,0.001904,0.001459,0.001575,0.001153,0.000870,0.000633,0.000522,0.000307,-0.000298,-0.000612,-0.001040,-0.001047,-0.001181,-0.001476,-0.001323,-0.001215,-0.001389,-0.001656,-0.001574,-0.001533,-0.001519,-0.001350,-0.001582,-0.001654,-0.001638,-0.001523,-0.001377,-0.001408,-0.001636,-0.001603,-0.001627,-0.001693,-0.000738,0.000406,0.001079,0.001124,0.000795,0.000757,0.000888,0.000909,0.000975,0.000924,0.000600,0.000401,0.000612,0.000740,0.000778,0.001056,0.000190,-0.001403,-0.002559,-0.003688,-0.003114,-0.001433,-0.001076,-0.001064,-0.000972,-0.000975,-0.000856,-0.000794,-0.000814,-0.001049,-0.001241,-0.000981,-0.001334,-0.001737,-0.001825,-0.001967,-0.001503,-0.001148,-0.001163,-0.001314,-0.001459,-0.001982,-0.002428,-0.002357,-0.002066,-0.001807,-0.001400,-0.001356,-0.001386,-0.001367,-0.001303,-0.001154,-0.001214,-0.001118,-0.001361,-0.001373,-0.001242,-0.001360,-0.001391,-0.001561,-0.001623,-0.001413,-0.001241,-0.001274,-0.000455,0.000534,0.000537,0.000433,0.000417,0.000676,0.000898,0.000664,0.000310,0.000246,-0.000095,-0.000393,-0.000021,-0.000261,-0.000084,0.000182,-0.000081,-0.000256,-0.000848,-0.001234,-0.001433,-0.002007,-0.002702,-0.003320,-0.003545,-0.003319,-0.002918,-0.002502,-0.002762,-0.003180,-0.003644,-0.003485,-0.002840,-0.003088,-0.003294,-0.003347,-0.002614,-0.002345,-0.002920,-0.002737,-0.002456,-0.002967,-0.002884,-0.002962,-0.003257,-0.003080,-0.002674,-0.002402,-0.002576,-0.002653,-0.002670,-0.002392,-0.002613,-0.002947,-0.003139,-0.003131,-0.003065,-0.003107,-0.002804,-0.002883,-0.003018,-0.003128,-0.003105,-0.002871,-0.002236,-0.002046,-0.002505,-0.002783,-0.002288,-0.001752,-0.001802,-0.002086,-0.002283,-0.002359,-0.002349,-0.002572,-0.002734,-0.002778,-0.002709,-0.002678,-0.002688,-0.002915,-0.002602,-0.002749,-0.002934,-0.002971,-0.003499,-0.003724,-0.003508,-0.003052,-0.002707,-0.002639,-0.002884,-0.002841,-0.002901,-0.002666,-0.002559,-0.002723,-0.002606,-0.002923,-0.002635,-0.002488,-0.002954,-0.002705,-0.002750,-0.002796,-0.002854,-0.002671,-0.002725,-0.002860,-0.002820,-0.002442,-0.002513,-0.002852,-0.003084,-0.002967,-0.003085,-0.003167,-0.003254,-0.003372,-0.003305,-0.003235,-0.002993,-0.003008,-0.003214,-0.003214,-0.002809,-0.002325,-0.002548,-0.002974,-0.003274,-0.003458,-0.002815,-0.002203,-0.002316,-0.002663,-0.002722,-0.002600,-0.002520,-0.002625,-0.003011,-0.003116,-0.003164,-0.003168,-0.002708,-0.002732,-0.002693,-0.002747,-0.002736,-0.002740,-0.003106,-0.003455,-0.003399,-0.003621,-0.003550,-0.003530,-0.003779,-0.003816,-0.003594,-0.002866,-0.002751,-0.002912,-0.003040,-0.003075,-0.003290,-0.002665,-0.002729,-0.002863,-0.002684,-0.002771,-0.002791,-0.002870,-0.002962,-0.003080,-0.003222,-0.003068,-0.003201,-0.003515,-0.003466,-0.003437,-0.003403,-0.003243,-0.003289,-0.003662,-0.003756,-0.003677,-0.003573,-0.003260,-0.003376,-0.003687,-0.003702,-0.003163,-0.002696,-0.002486,-0.003110,-0.003129,-0.002683,-0.002179,-0.002089,-0.002527,-0.002750,-0.002430,-0.002454,-0.002455,-0.002566,-0.003007,-0.003112,-0.002883,-0.002930,-0.003188,-0.003374,-0.003199,-0.003169,-0.003074,-0.003563,-0.003300,-0.003372,-0.003743,-0.003740,-0.003449,-0.003512,-0.003638,-0.003499,-0.003048,-0.003043,-0.003388,-0.003962,-0.003676,-0.003217,-0.002909,-0.002930,-0.003143,-0.002907,-0.002819,-0.002911,-0.003041,-0.003212,-0.003316,-0.003298,-0.003186,-0.003247,-0.003405,-0.003597,-0.003685,-0.003543,-0.003279,-0.003239,-0.003724,-0.004035,-0.003925,-0.003427,-0.003416,-0.003635,-0.003632,-0.003572,-0.003467,-0.003326,-0.003510,-0.003557,-0.003441,-0.003081,-0.002688,-0.002567,-0.002881,-0.003142,-0.002940,-0.002957,-0.002885,-0.002882,-0.003385,-0.003580,-0.003429,-0.003741,-0.003838,-0.003624,-0.003335,-0.002922,-0.003252,-0.003441,-0.003301,-0.003508,-0.004218,-0.004363,-0.004265,-0.004222,-0.004034,-0.003702,-0.003538,-0.003240,-0.003297,-0.003313,-0.003143,-0.002927,-0.002797,-0.002627,-0.002580,-0.002628,-0.003270,-0.003479,-0.003166,-0.003377,-0.003802,-0.003647,-0.003354,-0.003231,-0.003219,-0.003697,-0.003874,-0.003736,-0.003551,-0.003362,-0.003659,-0.003951,-0.004042,-0.004035,-0.003741,-0.003424,-0.003342,-0.003673,-0.003993,-0.003626,-0.003935,-0.003828,-0.003940,-0.003587,-0.003300,-0.003288,-0.003143,-0.003009,-0.003024,-0.003080,-0.003032,-0.003272,-0.003468,-0.003700,-0.003869,-0.004090,-0.004181,-0.004102,-0.003938,-0.003638,-0.003704,-0.003978,-0.003799,-0.004245,-0.004724,-0.004927,-0.005015,-0.005031,-0.004740,-0.004013,-0.003580,-0.003182,-0.003547,-0.003935,-0.003948,-0.004151,-0.003667,-0.003232,-0.002931,-0.003182,-0.004341,-0.004340,-0.004058,-0.004277,-0.004505,-0.004117,-0.003977,-0.003847,-0.003572,-0.003806,-0.004015,-0.003988,-0.003976,-0.003659,-0.003717,-0.003780,-0.003837,-0.003946,-0.003777,-0.003576,-0.003651,-0.003744,-0.003781,-0.003266,-0.003830,-0.004228,-0.004330,-0.003994,-0.003800,-0.003702,-0.003337,-0.003180,-0.003323,-0.003325,-0.003196,-0.003590,-0.003631,-0.003757,-0.003909,-0.004069,-0.004283,-0.004431,-0.004608,-0.004351,-0.004251,-0.003833,-0.003775,-0.003746,-0.004216,-0.004928,-0.004828,-0.004461,-0.004331,-0.003958,-0.003635,-0.003755,-0.004459,-0.004802,-0.004628,-0.004190,-0.004206,-0.004164,-0.003938,-0.004186,-0.004463,-0.004792,-0.004870,-0.004896,-0.004681,-0.004178,-0.004255,-0.004255,-0.004002,-0.004165,-0.004440,-0.004487,-0.004576,-0.004210,-0.004216,-0.004162,-0.004149,-0.004291,-0.004162,-0.003979,-0.004107,-0.004057,-0.004141,-0.004016,-0.004316,-0.004696,-0.004345,-0.003997,-0.003854,-0.003569,-0.003466,-0.003878,-0.004161,-0.003975,-0.003719,-0.004047,-0.004232,-0.004272,-0.004194,-0.004335,-0.004660,-0.005052,-0.005249,-0.005100,-0.004591,-0.004010,-0.004161,-0.004340,-0.004969,-0.005569,-0.005578,-0.005049,-0.005047,-0.005299,-0.005297,-0.005347,-0.005352,-0.005309,-0.005197,-0.005194,-0.005501,-0.005535,-0.005890,-0.005830,-0.005896,-0.006090,-0.005949,-0.005748,-0.005728,-0.005612,-0.005795,-0.005987,-0.006081,-0.006129,-0.006422,-0.006426,-0.006486,-0.006106,-0.006193,-0.006257,-0.006295,-0.006413,-0.006311,-0.006054,-0.006096,-0.005944,-0.006163,-0.007751,-0.006350,-0.005950,-0.008684