-0.004811,,-0.004852,-0.004893,-0.004931,-0.001491,-0.001448,-0.001440,-0.001427,-0.001402,-0.001395,-0.001395,-0.001379,-0.001402,-0.001405,-0.001434,-0.001470,-0.001457,-0.001454,-0.001433,-0.001415,-0.001407,-0.001382,-0.001343,-0.001308,-0.001303,-0.001330,-0.001351,-0.001360,-0.001348,-0.001305,-0.001282,-0.001258,-0.001237,-0.001222,-0.001204,-0.001193,-0.001180,-0.001169,-0.001160,-0.001151,-0.001149,-0.001146,-0.001139,-0.001134,-0.001131,-0.001126,-0.001119,-0.001113,-0.001107,-0.001101,-0.001092,-0.001084,-0.001071,-0.001061,-0.001056,-0.001051,-0.001041,-0.001031,-0.001021,-0.001014,-0.001005,-0.001043,-0.001076,-0.001146,-0.001177,-0.001177,-0.001166,-0.001148,-0.001138,-0.001121,-0.001104,-0.001084,-0.001069,-0.001056,-0.001048,-0.001060,-0.001087,-0.001114,-0.001153,-0.001180,-0.001165,-0.001150,-0.001150,-0.001134,-0.001096,-0.001065,-0.001025,-0.000975,-0.000940,-0.000942,-0.000967,-0.000996,-0.001013,-0.000972,-0.000950,-0.000926,-0.000909,-0.000886,-0.000869,-0.000855,-0.000842,-0.000835,-0.000832,-0.000825,-0.000817,-0.000812,-0.000809,-0.000805,-0.000801,-0.000795,-0.000791,-0.000787,-0.000780,-0.000770,-0.000758,-0.000748,-0.000739,-0.000736,-0.000725,-0.000713,-0.000701,-0.000689,-0.000685,-0.000705,-0.000745,-0.000771,-0.000799,-0.000840,-0.000873,-0.000895,-0.000879,-0.000868,-0.000843,-0.000821,-0.000805,-0.000791,-0.000786,-0.000752,-0.000732,-0.000771,-0.000807,-0.000819,-0.000823,-0.000837,-0.000852,-0.000841,-0.000811,-0.000775,-0.000747,-0.000715,-0.000670,-0.000618,-0.000573,-0.000540,-0.000574,-0.000603,-0.000628,-0.000630,-0.000593,-0.000573,-0.000555,-0.000535,-0.000519,-0.000503,-0.000491,-0.000484,-0.000476,-0.000474,-0.000473,-0.000467,-0.000465,-0.000464,-0.000461,-0.000457,-0.000454,-0.000450,-0.000436,-0.000407,-0.000380,-0.000358,-0.000346,-0.000340,-0.000321,-0.000310,-0.000303,-0.000290,-0.000281,-0.000293,-0.000331,-0.000384,-0.000425,-0.000449,-0.000463,-0.000479,-0.000463,-0.000464,-0.000454,-0.000423,-0.000406,-0.000392,-0.000377,-0.000354,-0.000338,-0.000389,-0.000440,-0.000467,-0.000444,-0.000428,-0.000444,-0.000462,-0.000449,-0.000417,-0.000374,-0.000326,-0.000276,-0.000234,-0.000191,-0.000145,-0.000140,-0.000169,-0.000195,-0.000216,-0.000212,-0.000165,-0.000136,-0.000120,-0.000101,-0.000079,-0.000068,-0.000057,-0.000033,-0.000016,-0.000005,0.000015,0.000032,0.000047,0.000063,0.000082,0.000100,0.000121,0.000151,0.000185,0.000216,0.000246,0.000264,0.000281,0.000307,0.000318,0.000325,0.000336,0.000355,0.000376,0.000388,0.000336,0.000287,0.000242,0.000210,0.000192,0.000183,0.000181,0.000181,0.000209,0.000228,0.000246,0.000256,0.000232,0.000240,0.000219,0.000176,0.000159,0.000159,0.000136,0.000122,0.000114,0.000121,0.000137,0.000165,0.000208,0.000248,0.000287,0.000332,0.000372,0.000418,0.000427,0.000392,0.000359,0.000336,0.000336,0.000349,0.000365,0.000387,0.000423,0.000450,0.000475,0.000512,0.000545,0.000573,0.000600,0.000625,0.000649,0.000674,0.000702,0.000730,0.000757,0.000788,0.000817,0.000848,0.000882,0.000913,0.000945,0.000984,0.001013,0.001044,0.001078,0.001109,0.001144,0.001182,0.001162,0.001126,0.001090,0.001057,0.001035,0.001015,0.001017,0.001027,0.001044,0.001065,0.001090,0.001093,0.001047,0.001062,0.001097,0.001094,0.001092,0.001104,0.001082,0.001071,0.001055,0.001049,0.001063,0.001087,0.001110,0.001130,0.001162,0.001206,0.001229,0.001264,0.001305,0.001292,0.001260,0.001236,0.001195,0.001194,0.001222,0.001250,0.001293,0.001332,0.001365,0.001401,0.001432,0.001462,0.001490,0.001518,0.001543,0.001568,0.001596,0.001624,0.001652,0.001679,0.001710,0.001741,0.001773,0.001804,0.001835,0.001870,0.001902,0.001939,0.001980,0.002012,0.002041,0.002075,0.002087,0.002067,0.002059,0.002039,0.002028,0.002018,0.002007,0.002023,0.002052,0.002095,0.002133,0.002147,0.002110,0.002119,0.002161,0.002175,0.002197,0.002219,0.002199,0.002173,0.002146,0.002151,0.002185,0.002202,0.002229,0.002244,0.002262,0.002300,0.002332,0.002367,0.002390,0.002414,0.002417,0.002376,0.002344,0.002321,0.002346,0.002387,0.002434,0.002478,0.002516,0.002553,0.002589,0.002625,0.002657,0.002691,0.002721,0.002750,0.002781,0.002813,0.002846,0.002880,0.002916,0.002953,0.002987,0.003021,0.003053,0.003090,0.003122,0.003153,0.003185,0.003218,0.003249,0.003276,0.003313,0.003316,0.003297,0.003276,0.003244,0.003236,0.003237,0.003252,0.003289,0.003326,0.003362,0.003411,0.003395,0.003382,0.003388,0.003386,0.003387,0.003377,0.003358,0.003330,0.003298,0.003295,0.003336,0.003360,0.003385,0.003407,0.003427,0.003458,0.003481,0.003506,0.003527,0.003548,0.003572,0.003564,0.003514,0.003467,0.003429,0.003442,0.003471,0.003503,0.003528,0.003552,0.003575,0.003597,0.003618,0.003639,0.003660,0.003683,0.003709,0.003732,0.003755,0.003781,0.003805,0.003835,0.003867,0.003905,0.003943,0.003986,0.004024,0.004051,0.004080,0.004117,0.004140,0.004138,0.004149,0.004149,0.004098,0.004092,0.004076,0.004071,0.004069,0.004045,0.004091,0.004123,0.004172,0.004230,0.004256,0.004258,0.004230,0.004212,0.004215,0.004202,0.004193,0.004218,0.004184,0.004200,0.004218,0.004232,0.004263,0.004285,0.004323,0.004351,0.004370,0.004397,0.004414,0.004442,0.004475,0.004506,0.004494,0.004447,0.004409,0.004360,0.004371,0.004406,0.004434,0.004455,0.004486,0.004498,0.004516,0.004536,0.004555,0.004566,0.004589,0.004604,0.004615,0.004643,0.004662,0.004686,0.004709,0.004735,0.004773,0.004804,0.004844,0.004878,0.004914,0.004953,0.004987,0.005002,0.005014,0.005003,0.004976,0.004960,0.004962,0.004959,0.004952,0.004959,0.004998,0.005055,0.005093,0.005105,0.005102,0.005086,0.005057,0.005022,0.005013,0.005026,0.005039,0.005073,0.005046,0.005048,0.005064,0.005093,0.005128,0.005159,0.005201,0.005235,0.005269,0.005313,0.005337,0.005359,0.005397,0.005425,0.005448,0.005424,0.005386,0.005354,0.005334,0.005363,0.005387,0.005417,0.005461,0.005491,0.005536,0.005560,0.005590,0.005617,0.005649,0.005684,0.005716,0.005757,0.005797,0.005836,0.005873,0.005914,0.005958,0.005993,0.006028,0.006068,0.006097,0.006134,0.006185,0.006235,0.006239,0.006226,0.006216,0.006207,0.006196,0.006181,0.006175,0.006202,0.006213,0.006239,0.006250,0.006253,0.006265,0.006236,0.006196,0.006168,0.006148,0.006175,0.006192,0.006216,0.006206,0.006188,0.006207,0.006254,0.006298,0.006346,0.006393,0.006439,0.006478,0.006519,0.006566,0.006607,0.006638,0.006679,0.006740,0.006749,0.006739,0.006723,0.006701,0.006688,0.006694,0.006703,0.006730,0.006788,0.006845,0.006873,0.006913,0.006952,0.006994,0.007052,0.007100,0.007148,0.007202,0.007255,0.007307,0.007359,0.007415,0.007476,0.007542,0.007621,0.007685,0.007744,0.007813,0.007874,0.007913,0.007916,0.007915,0.007908,0.007897,0.007890,0.007891,0.007904,0.007908,0.007934,0.007958,0.007950,0.007926,0.007902,0.007875,0.007851,0.007830,0.007851,0.007875,0.007911,0.007946,0.007946,0.007941,0.007973,0.008027,0.008078,0.008108,0.008166,0.008217,0.008231,0.008264,0.008300,0.008307,0.008327,0.008340,0.008328,0.008331,0.008297,0.008239,0.008183,0.008139,0.008143,0.008168,0.008213,0.008263,0.008289,0.008332,0.008376,0.008436,0.008500,0.008536,0.008556,0.008597,0.008659,0.008734,0.008819,0.008881,0.008955,0.009034,0.009115,0.009191,0.009258,0.009331,0.009376,0.009418,0.009420,0.009415,0.009424,0.009412,0.009410,0.009425,0.009431,0.009445,0.009473,0.009526,0.009554,0.009543,0.009546,0.009545,0.009528,0.009516,0.009510,0.009513,0.009569,0.009627,0.009659,0.009701,0.009769,0.009842,0.009891,0.009891,0.009914,0.009935,0.009920,0.009921,0.009916,0.009910,0.009919,0.009894,0.009874,0.009873,0.009859,0.009798,0.009718,0.009643,0.009578,0.009576,0.009592,0.009616,0.009607,0.009617,0.009621,0.009622,0.009629,0.009622,0.009609,0.009611,0.009626,0.009652,0.009690,0.009725,0.009751,0.009768,0.009789,0.009848,0.009906,0.009973,0.009997,0.009990,0.009977,0.009969,0.009993,0.009992,0.009997,0.010033,0.010058,0.010082,0.010097,0.010129,0.010185,0.010222,0.010263,0.010283,0.010273,0.010301,0.010300,0.010288,0.010335,0.010359,0.010389,0.010451,0.010500,0.010559,0.010602,0.010606,0.010609,0.010610,0.010596,0.010602,0.010596,0.010586,0.010589,0.010568,0.010564,0.010549,0.010535,0.010499,0.010427,0.010340,0.010260,0.010197,0.010204,0.010211,0.010201,0.010201,0.010194,0.010174,0.010166,0.010172,0.010185,0.010190,0.010195,0.010196,0.010200,0.010183,0.010175,0.010187,0.010207,0.010232,0.010236,0.010263,0.010288,0.010268,0.010255,0.010236,0.010231,0.010235,0.010229,0.010240,0.010246,0.010269,0.010295,0.010281,0.010286,0.010284,0.010307,0.010326,0.010292,0.010275,0.010242,0.010224,0.010230,0.010207,0.010243,0.010284,0.010308,0.010306,0.010303,0.010296,0.010290,0.010285,0.010268,0.010258,0.010251,0.010236,0.010199,0.010152,0.010131,0.010095,0.010065,0.010045,0.009965,0.009850,0.009739,0.009648,0.009578,0.009571,0.009552,0.009539,0.009529,0.009523,0.009513,0.009505,0.009497,0.009481,0.009456,0.009434,0.009411,0.009389,0.009353,0.009319,0.009304,0.009293,0.009280,0.009251,0.009204,0.009170,0.009135,0.009094,0.009041,0.009002,0.008968,0.008925,0.008890,0.008883,0.008892,0.008842,0.008827,0.008801,0.008783,0.008776,0.008740,0.008723,0.008707,0.008705,0.008707,0.008676,0.008700,0.008743,0.008788,0.008843,0.008871,0.008874,0.008894,0.008918,0.008934,0.008946,0.008954,0.008949,0.008905,0.008862,0.008841,0.008821,0.008808,0.008790,0.008766,0.008706,0.008618,0.008538,0.008437,0.008368,0.008325,0.008298,0.008291,0.008279,0.008242,0.008198,0.008159,0.008120,0.008076,0.008039,0.008000,0.007959,0.007931,0.007905,0.007881,0.007828,0.007792,0.007736,0.007674,0.007621,0.007568,0.007540,0.007497,0.007470,0.007456,0.007408,0.007383,0.007412,0.007417,0.007385,0.007403,0.007386,0.007360,0.007323,0.007289,0.007264,0.007222,0.007222,0.007219,0.007164,0.007140,0.007137,0.007161,0.007185,0.007222,0.007232,0.007215,0.007203,0.007217,0.007232,0.007259,0.007282,0.007315,0.007340,0.007364,0.007373,0.007385,0.007420,0.007420,0.007417,0.007383,0.007358,0.007320,0.007267,0.007255,0.007255,0.007254,0.007240,0.007228,0.007190,0.007149,0.007105,0.007065,0.007040,0.007005,0.006968,0.006939,0.006884,0.006830,0.006777,0.006744,0.006704,0.006659,0.006617,0.006574,0.006511,0.006466,0.006431,0.006396,0.006373,0.006347,0.006363,0.006398,0.006421,0.006408,0.006368,0.006334,0.006282,0.006243,0.006216,0.006188,0.006186,0.006190,0.006162,0.006176,0.006199,0.006236,0.006240,0.006264,0.006306,0.006325,0.006346,0.006363,0.006371,0.006387,0.006413,0.006439,0.006469,0.006512,0.006525,0.006525,0.006540,0.006534,0.006519,0.006502,0.006490,0.006457,0.006419,0.006406,0.006407,0.006419,0.006438,0.006450,0.006451,0.006449,0.006441,0.006424,0.006418,0.006399,0.006370,0.006361,0.006337,0.006305,0.006257,0.006207,0.006161,0.006126,0.006082,0.006058,0.006030,0.005986,0.005953,0.005953,0.005955,0.005937,0.005981,0.006027,0.006064,0.006050,0.006028,0.006012,0.005988,0.005977,0.005971,0.005941,0.005921,0.005956,0.005962,0.005972,0.005975,0.006006,0.006015,0.006035,0.006069,0.006091,0.006085,0.006078,0.006057,0.006032,0.006024,0.006022,0.006032,0.006059,0.006044,0.006004,0.005982,0.005963,0.005949,0.005945,0.005929,0.005886,0.005847,0.005799,0.005739,0.005705,0.005686,0.005661,0.005629,0.005606,0.005590,0.005569,0.005577,0.005576,0.005543,0.005519,0.005485,0.005460,0.005440,0.005412,0.005384,0.005354,0.005327,0.005302,0.005294,0.005278,0.005275,0.005296,0.005300,0.005293,0.005318,0.005323,0.005313,0.005301,0.005284,0.005264,0.005267,0.005255,0.005225,0.005193,0.005158,0.005164,0.005144,0.005128,0.005132,0.005141,0.005136,0.005131,0.005124,0.005106,0.005090,0.005071,0.005032,0.004996,0.004973,0.004963,0.004966,0.004979,0.004961,0.004918,0.004898,0.004891,0.004874,0.004859,0.004831,0.004793,0.004776,0.004733,0.004658,0.004621,0.004605,0.004601,0.004595,0.004590,0.004584,0.004595,0.004617,0.004598,0.004597,0.004583,0.004541,0.004499,0.004463,0.004425,0.004389,0.004349,0.004316,0.004266,0.004226,0.004207,0.004204,0.004197,0.004175,0.004156,0.004149,0.004143,0.004133,0.004127,0.004112,0.004084,0.004075,0.004047,0.004012,0.003982,0.003960,0.003965,0.003953,0.003924,0.003933,0.003932,0.003924,0.003898,0.003884,0.003886,0.003904,0.003922,0.003900,0.003871,0.003844,0.003833,0.003837,0.003845,0.003840,0.003831,0.003832,0.003830,0.003819,0.003799,0.003779,0.003760,0.003751,0.003728,0.003680,0.003656,0.003655,0.003668,0.003671,0.003668,0.003678,0.003689,0.003689,0.003634,0.003611,0.003570,0.003507,0.003453,0.003406,0.003352,0.003305,0.003261,0.003208,0.003157,0.003110,0.003078,0.003059,0.003041,0.003035,0.003035,0.003022,0.003007,0.002995,0.002975,0.002953,0.002928,0.002895,0.002866,0.002843,0.002814,0.002794,0.002810,0.002825,0.002774,0.002761,0.002766,0.002780,0.002762,0.002754,0.002775,0.002796,0.002831,0.002855,0.002841,0.002818,0.002809,0.002813,0.002804,0.002793,0.002784,0.002778,0.002760,0.002750,0.002733,0.002719,0.002698,0.002674,0.002653,0.002625,0.002575,0.002548,0.002539,0.002540,0.002535,0.002564,0.002597,0.002611,0.002589,0.002529,0.002467,0.002400,0.002348,0.002298,0.002239,0.002188,0.002139,0.002081,0.002037,0.001994,0.001962,0.001941,0.001926,0.001946,0.001982,0.002012,0.002011,0.002007,0.001998,0.001993,0.001981,0.001946,0.001920,0.001892,0.001861,0.001818,0.001778,0.001750,0.001714,0.001706,0.001712,0.001722,0.001699,0.001681,0.001699,0.001716,0.001748,0.001780,0.001798,0.001780,0.001770,0.001762,0.001741,0.001717,0.001704,0.001697,0.001690,0.001680,0.001682,0.001685,0.001686,0.001697,0.001711,0.001730,0.001715,0.001682,0.001667,0.001694,0.001731,0.001747,0.001791,0.001792,0.001758,0.001725,0.001691,0.001649,0.001612,0.001556,0.001497,0.001458,0.001421,0.001375,0.001326,0.001280,0.001233,0.001191,0.001148,0.001124,0.001121,0.001160,0.001176,0.001195,0.001216,0.001226,0.001204,0.001184,0.001131,0.001087,0.001048,0.001001,0.000961,0.000932,0.000947,0.000954,0.000952,0.000950,0.000931,0.000948,0.000984,0.001020,0.001053,0.001094,0.001148,0.001180,0.001179,0.001179,0.001185,0.001183,0.001187,0.001190,0.001204,0.001214,0.001236,0.001256,0.001280,0.001315,0.001332,0.001338,0.001361,0.001357,0.001344,0.001342,0.001403,0.001462,0.001497,0.001468,0.001393,0.001341,0.001272,0.001198,0.001152,0.001114,0.001080,0.001063,0.001049,0.001022,0.000985,0.000959,0.000922,0.000887,0.000860,0.000811,0.000767,0.000811,0.000846,0.000886,0.000926,0.000955,0.000957,0.000958,0.000982,0.001016,0.001002,0.000959,0.000934,0.000925,0.000909,0.000893,0.000893,0.000894,0.000900,0.000914,0.000940,0.000971,0.000997,0.001035,0.001078,0.001126,0.001151,0.001164,0.001182,0.001181,0.001183,0.001187,0.001194,0.001201,0.001201,0.001207,0.001201,0.001218,0.001238,0.001224,0.001218,0.001244,0.001232,0.001222,0.001237,0.001299,0.001332,0.001309,0.001276,0.001229,0.001175,0.001143,0.001106,0.001086,0.001069,0.001028,0.001024,0.001048,0.001028,0.001002,0.000988,0.000977,0.000978,0.000962,0.000932,0.000945,0.000970,0.000995,0.001024,0.001063,0.001084,0.001098,0.001117,0.001126,0.001102,0.001048,0.001035,0.001030,0.001035,0.001037,0.001032,0.001043,0.001052,0.001066,0.001079,0.001075,0.001083,0.001088,0.001092,0.001086,0.001074,0.001054,0.001035,0.001029,0.001017,0.001009,0.000999,0.000991,0.000995,0.000992,0.001000,0.000996,0.001018,0.001024,0.001035,0.001090,0.001138,0.001130,0.001115,0.001100,0.001100,0.001093,0.001081,0.001048,0.000998,0.000954,0.000901,0.000854,0.000816,0.000772,0.000760,0.000743,0.000707,0.000699,0.000679,0.000671,0.000658,0.000653,0.000647,0.000675,0.000683,0.000686,0.000694,0.000699,0.000711,0.000728,0.000734,0.000754,0.000747,0.000735,0.000751,0.000748,0.000750,0.000752,0.000749,0.000770,0.000786,0.000809,0.000840,0.000849,0.000842,0.000839,0.000848,0.000870,0.000905,0.000935,0.000957,0.000984,0.001018,0.001046,0.001070,0.001084,0.001103,0.001108,0.001118,0.001127,0.001146,0.001171,0.001183,0.001165,0.001142,0.001138,0.001130,0.001118,0.001102,0.001090,0.001047,0.000985,0.000917,0.000857,0.000800,0.000745,0.000690,0.000656,0.000634,0.000613,0.000571,0.000555,0.000561,0.000572,0.000572,0.000570,0.000562,0.000607,0.000620,0.000621,0.000610,0.000615,0.000617,0.000649,0.000667,0.000696,0.000708,0.000730,0.000754,0.000751,0.000735,0.000728,0.000729,0.000740,0.000744,0.000747,0.000755,0.000764,0.000758,0.000762,0.000767,0.000777,0.000794,0.000802,0.000801,0.000781,0.000787,0.000793,0.000802,0.000828,0.000851,0.000857,0.000860,0.000874,0.000869,0.000874,0.000846,0.000810,0.000771,0.000748,0.000747,0.000747,0.000762,0.000768,0.000727,0.000652,0.000588,0.000536,0.000485,0.000440,0.000387,0.000353,0.000332,0.000317,0.000322,0.000326,0.000302,0.000293,0.000281,0.000270,0.000250,0.000278,0.000291,0.000298,0.000272,0.000251,0.000254,0.000288,0.000305,0.000321,0.000337,0.000362,0.000383,0.000394,0.000369,0.000349,0.000343,0.000325,0.000305,0.000272,0.000237,0.000225,0.000264,0.000302,0.000334,0.000357,0.000376,0.000393,0.000396,0.000382,0.000381,0.000386,0.000357,0.000376,0.000409,0.000429,0.000471,0.000509,0.000538,0.000555,0.000564,0.000551,0.000536,0.000502,0.000503,0.000518,0.000511,0.000492,0.000439,0.000349,0.000267,0.000199,0.000153,0.000152,0.000166,0.000143,0.000100,0.000072,0.000039,-0.000001,-0.000042,-0.000081,-0.000100,-0.000117,-0.000154,-0.000193,-0.000219,-0.000235,-0.000281,-0.000326,-0.000333,-0.000335,-0.000357,-0.000362,-0.000379,-0.000390,-0.000372,-0.000346,-0.000360,-0.000383,-0.000378,-0.000381,-0.000385,-0.000399,-0.000401,-0.000373,-0.000340,-0.000323,-0.000260,-0.000185,-0.000116,-0.000066,-0.000057,-0.000067,-0.000077,-0.000044,0.000009,0.000029,0.000018,-0.000013,-0.000004,0.000014,0.000033,0.000032,0.000048,0.000052,0.000083,0.000136,0.000189,0.000238,0.000273,0.000296,0.000308,0.000276,0.000230,0.000170,0.000098,0.000049,0.000017,-0.000005,-0.000047,-0.000068,-0.000122,-0.000201,-0.000261,-0.000319,-0.000336,-0.000365,-0.000416,-0.000484,-0.000538,-0.000583,-0.000642,-0.000682,-0.000698,-0.000707,-0.000714,-0.000708,-0.000720,-0.000746,-0.000756,-0.000755,-0.000761,-0.000770,-0.000752,-0.000729,-0.000717,-0.000711,-0.000693,-0.000672,-0.000677,-0.000710,-0.000707,-0.000698,-0.000698,-0.000716,-0.000741,-0.000754,-0.000783,-0.000804,-0.000776,-0.000747,-0.000740,-0.000711,-0.000677,-0.000633,-0.000585,-0.000545,-0.000516,-0.000458,-0.000404,-0.000355,-0.000312,-0.000242,-0.000162,-0.000096,-0.000046,-0.000015,0.000004,-0.000006,-0.000048,-0.000105,-0.000169,-0.000223,-0.000238,-0.000254,-0.000303,-0.000346,-0.000391,-0.000449,-0.000488,-0.000523,-0.000566,-0.000613,-0.000661,-0.000707,-0.000766,-0.000808,-0.000829,-0.000845,-0.000857,-0.000863,-0.000846,-0.000859,-0.000908,-0.000952,-0.000970,-0.000980,-0.000990,-0.000985,-0.000979,-0.000982,-0.000992,-0.000991,-0.000996,-0.001003,-0.001028,-0.001048,-0.001085,-0.001130,-0.001162,-0.001183,-0.001200,-0.001233,-0.001263,-0.001271,-0.001239,-0.001164,-0.001096,-0.001016,-0.000960,-0.000905,-0.000843,-0.000800,-0.000762,-0.000749,-0.000769,-0.000738,-0.000670,-0.000598,-0.000534,-0.000453,-0.000390,-0.000358,-0.000336,-0.000339,-0.000365,-0.000403,-0.000441,-0.000499,-0.000559,-0.000601,-0.000649,-0.000693,-0.000731,-0.000747,-0.000777,-0.000817,-0.000859,-0.000892,-0.000934,-0.000972,-0.000997,-0.001014,-0.001035,-0.001061,-0.001085,-0.001130,-0.001199,-0.001243,-0.001274,-0.001282,-0.001319,-0.001318,-0.001307,-0.001302,-0.001276,-0.001286,-0.001288,-0.001296,-0.001302,-0.001328,-0.001362,-0.001386,-0.001409,-0.001440,-0.001452,-0.001464,-0.001470,-0.001457,-0.001393,-0.001267,-0.001181,-0.001128,-0.001127,-0.001165,-0.001138,-0.001118,-0.001131,-0.001147,-0.001189,-0.001230,-0.001225,-0.001234,-0.001227,-0.001222,-0.001201,-0.001154,-0.001118,-0.001066,-0.001076,-0.001100,-0.001124,-0.001189,-0.001253,-0.001320,-0.001389,-0.001443,-0.001473,-0.001479,-0.001523,-0.001576,-0.001634,-0.001690,-0.001746,-0.001809,-0.001845,-0.001895,-0.001945,-0.001934,-0.001921,-0.001920,-0.001916,-0.001885,-0.001878,-0.001858,-0.001828,-0.001804,-0.001780,-0.001765,-0.001754,-0.001765,-0.001770,-0.001783,-0.001795,-0.001818,-0.001861,-0.001894,-0.001932,-0.001985,-0.002031,-0.002046,-0.002035,-0.002018,-0.001970,-0.001909,-0.001841,-0.001834,-0.001834,-0.001836,-0.001791,-0.001769,-0.001800,-0.001841,-0.001888,-0.001926,-0.001955,-0.001989,-0.001995,-0.002003,-0.002005,-0.002017,-0.002008,-0.001963,-0.001887,-0.001839,-0.001846,-0.001885,-0.001933,-0.001978,-0.002015,-0.002073,-0.002141,-0.002202,-0.002265,-0.002296,-0.002329,-0.002345,-0.002348,-0.002360,-0.002376,-0.002401,-0.002400,-0.002368,-0.002339,-0.002277,-0.002218,-0.002189,-0.002201,-0.002218,-0.002210,-0.002205,-0.002219,-0.002224,-0.002237,-0.002229,-0.002235,-0.002240,-0.002269,-0.002307,-0.002349,-0.002406,-0.002445,-0.002502,-0.002533,-0.002548,-0.002559,-0.002530,-0.002532,-0.002528,-0.002502,-0.002514,-0.002499,-0.002453,-0.002435,-0.002457,-0.002483,-0.002530,-0.002581,-0.002628,-0.002667,-0.002722,-0.002779,-0.002831,-0.002871,-0.002918,-0.002944,-0.002949,-0.002869,-0.002808,-0.002771,-0.002791,-0.002821,-0.002859,-0.002888,-0.002938,-0.003015,-0.003096,-0.003148,-0.003170,-0.003199,-0.003212,-0.003213,-0.003218,-0.003211,-0.003180,-0.003150,-0.003171,-0.003187,-0.003151,-0.003133,-0.003160,-0.003160,-0.003157,-0.003146,-0.003122,-0.003142,-0.003152,-0.003163,-0.003169,-0.003209,-0.003248,-0.003296,-0.003351,-0.003387,-0.003422,-0.003446,-0.003471,-0.003465,-0.003447,-0.003427,-0.003371,-0.003351,-0.003360,-0.003338,-0.003322,-0.003269,-0.003241,-0.003267,-0.003277,-0.003271,-0.003311,-0.003373,-0.003440,-0.003511,-0.003590,-0.003661,-0.003737,-0.003787,-0.003850,-0.003924,-0.003953,-0.003909,-0.003911,-0.003909,-0.003926,-0.003963,-0.004016,-0.004062,-0.004104,-0.004152,-0.004197,-0.004224,-0.004245,-0.004253,-0.004239,-0.004223,-0.004231,-0.004217,-0.004189,-0.004198,-0.004195,-0.004218,-0.004223,-0.004219,-0.004239,-0.004215,-0.004182,-0.004152,-0.004138,-0.004153,-0.004156,-0.004130,-0.004136,-0.004171,-0.004201,-0.004244,-0.004298,-0.004331,-0.004354,-0.004385,-0.004373,-0.004371,-0.004379,-0.004390,-0.004374,-0.004310,-0.004280,-0.004239,-0.004203,-0.004160,-0.004136,-0.004154,-0.004184,-0.004213,-0.004257,-0.004319,-0.004394,-0.004465,-0.004530,-0.004609,-0.004683,-0.004737,-0.004785,-0.004834,-0.004816,-0.004804,-0.004855,-0.004896,-0.004920,-0.004944,-0.004961,-0.004979,-0.004995,-0.005005,-0.005014,-0.005028,-0.005046,-0.005047,-0.005028,-0.005010,-0.005017,-0.005010,-0.005017,-0.005011,-0.005018,-0.005039,-0.005068,-0.005100,-0.005119,-0.005108,-0.005099,-0.005074,-0.005039,-0.005009,-0.005002,-0.004991,-0.005013,-0.005047,-0.005076,-0.005127,-0.005172,-0.005203,-0.005209,-0.005211,-0.005224,-0.005270,-0.005301,-0.005327,-0.005317,-0.005266,-0.005231,-0.005203,-0.005188,-0.005149,-0.005150,-0.005180,-0.005202,-0.005198,-0.005208,-0.005240,-0.005280,-0.005318,-0.005346,-0.005377,-0.005380,-0.005429,-0.005449,-0.005440,-0.005423,-0.005439,-0.005486,-0.005529,-0.005573,-0.005623,-0.005677,-0.005734,-0.005790,-0.005846,-0.005881,-0.005900,-0.005919,-0.005933,-0.005939,-0.005944,-0.005944,-0.005931,-0.005914,-0.005887,-0.005856,-0.005837,-0.005806,-0.005803,-0.005773,-0.005722,-0.005695,-0.005657,-0.005611,-0.005558,-0.005532,-0.005530,-0.005534,-0.005569,-0.005619,-0.005663,-0.005715,-0.005770,-0.005771,-0.005784,-0.005811,-0.005808,-0.005807,-0.005775,-0.005764,-0.005781,-0.005776,-0.005750,-0.005734,-0.005709,-0.005741,-0.005761,-0.005782,-0.005817,-0.005835,-0.005854,-0.005894,-0.005942,-0.005983,-0.005993,-0.005948,-0.005973,-0.005990,-0.006002,-0.006046,-0.006101,-0.006153,-0.006194,-0.006235,-0.006288,-0.006348,-0.006402,-0.006446,-0.006493,-0.006525,-0.006542,-0.006550,-0.006551,-0.006546,-0.006550,-0.006522,-0.006519,-0.006509,-0.006502,-0.006502,-0.006470,-0.006420,-0.006393,-0.006344,-0.006304,-0.006269,-0.006226,-0.006185,-0.006149,-0.006124,-0.006133,-0.006145,-0.006166,-0.006227,-0.006274,-0.006318,-0.006346,-0.006355,-0.006405,-0.006419,-0.006411,-0.006434,-0.006439,-0.006446,-0.006491,-0.006547,-0.006548,-0.006554,-0.006548,-0.006611,-0.006671,-0.006722,-0.006785,-0.006836,-0.006871,-0.006912,-0.006960,-0.006993,-0.007006,-0.007025,-0.007036,-0.007032,-0.007074,-0.007132,-0.007184,-0.007247,-0.007296,-0.007334,-0.007369,-0.007403,-0.007432,-0.007454,-0.007474,-0.007458,-0.007408,-0.007394,-0.007378,-0.007366,-0.007355,-0.007303,-0.007292,-0.007284,-0.007283,-0.007297,-0.007294,-0.007305,-0.007341,-0.007351,-0.007331,-0.007324,-0.007343,-0.007345,-0.007334,-0.007321,-0.007323,-0.007341,-0.007352,-0.007406,-0.007465,-0.007517,-0.007502,-0.007509,-0.007571,-0.007607,-0.007633,-0.007678,-0.007712,-0.007738,-0.007771,-0.007828,-0.007868,-0.007873,-0.007909,-0.007964,-0.008027,-0.008086,-0.008115,-0.008152,-0.008196,-0.008251,-0.008294,-0.008296,-0.008299,-0.008309,-0.008315,-0.008336,-0.008382,-0.008426,-0.008475,-0.008515,-0.008530,-0.008511,-0.008506,-0.008498,-0.008492,-0.008510,-0.008541,-0.008513,-0.008429,-0.008427,-0.008413,-0.008400,-0.008378,-0.008348,-0.008353,-0.008342,-0.008325,-0.008316,-0.008330,-0.008341,-0.008398,-0.008402,-0.008387,-0.008422,-0.008426,-0.008431,-0.008419,-0.008417,-0.008418,-0.008405,-0.008421,-0.008458,-0.008498,-0.008515,-0.008498,-0.008533,-0.008578,-0.008609,-0.008635,-0.008673,-0.008701,-0.008700,-0.008716,-0.008770,-0.008786,-0.008745,-0.008778,-0.008842,-0.008907,-0.008966,-0.009020,-0.009073,-0.009119,-0.009163,-0.009194,-0.009201,-0.009200,-0.009180,-0.009175,-0.009194,-0.009207,-0.009232,-0.009262,-0.009288,-0.009300,-0.009297,-0.009298,-0.009283,-0.009329,-0.009400,-0.009447,-0.009523,-0.009558,-0.009564,-0.009552,-0.009538,-0.009515,-0.009506,-0.009518,-0.009553,-0.009576,-0.009592,-0.009622,-0.009657,-0.009659,-0.009607,-0.009583,-0.009580,-0.009567,-0.009504,-0.009451,-0.009416,-0.009390,-0.009363,-0.009303,-0.009254,-0.009210,-0.009165,-0.009128,-0.009143,-0.009118,-0.009080,-0.009033,-0.008990,-0.008944,-0.008907,-0.008891,-0.008903,-0.008868,-0.008796,-0.008769,-0.008755,-0.008740,-0.008734,-0.008734,-0.008750,-0.008780,-0.008797,-0.008826,-0.008851,-0.008869,-0.008906,-0.008927,-0.008935,-0.008960,-0.008996,-0.009016,-0.009028,-0.009015,-0.008995,-0.008969,-0.009013,-0.009064,-0.009029,-0.009001,-0.009059,-0.009108,-0.009110,-0.009125,-0.009141,-0.009143,-0.009150,-0.009149,-0.009197,-0.009236,-0.009267,-0.009276,-0.009259,-0.009205,-0.009123,-0.009053,-0.008995,-0.008903,-0.008826,-0.008819,-0.008859,-0.008937,-0.009009,-0.009018,-0.008976,-0.008907,-0.008834,-0.008772,-0.008728,-0.008656,-0.008606,-0.008571,-0.008531,-0.008501,-0.008466,-0.008437,-0.008413,-0.008335,-0.008258,-0.008204,-0.008150,-0.008090,-0.008029,-0.007969,-0.007928,-0.007906,-0.007877,-0.007844,-0.007842,-0.007845,-0.007870,-0.007884,-0.007901,-0.007933,-0.007945,-0.007960,-0.007966,-0.007952,-0.007925,-0.007937,-0.007963,-0.007891,-0.007881,-0.007862,-0.007829,-0.007861,-0.007863,-0.007881,-0.007900,-0.007913,-0.007940,-0.007950,-0.007987,-0.008048,-0.008107,-0.008112,-0.008055,-0.007980,-0.007891,-0.007807,-0.007719,-0.007656,-0.007700,-0.007729,-0.007725,-0.007743,-0.007785,-0.007865,-0.007931,-0.007928,-0.007860,-0.007777,-0.007739,-0.007729,-0.007690,-0.007663,-0.007645,-0.007618,-0.007616,-0.007596,-0.007577,-0.007514,-0.007456,-0.007429,-0.007390,-0.007330,-0.007265,-0.007205,-0.007155,-0.007094,-0.007030,-0.006958,-0.006894,-0.006833,-0.006765,-0.006728,-0.006718,-0.006705,-0.006710,-0.006729,-0.006757,-0.006776,-0.006764,-0.006791,-0.006739,-0.006716,-0.006710,-0.006735,-0.006703,-0.006684,-0.006693,-0.006707,-0.006711,-0.006727,-0.006773,-0.006840,-0.006894,-0.006959,-0.006998,-0.006980,-0.006923,-0.006859,-0.006786,-0.006697,-0.006621,-0.006641,-0.006609,-0.006526,-0.006484,-0.006451,-0.006419,-0.006453,-0.006515,-0.006585,-0.006550,-0.006484,-0.006431,-0.006433,-0.006404,-0.006386,-0.006384,-0.006378,-0.006388,-0.006379,-0.006345,-0.006294,-0.006259,-0.006233,-0.006188,-0.006145,-0.006086,-0.006016,-0.005945,-0.005865,-0.005788,-0.005711,-0.005623,-0.005541,-0.005455,-0.005381,-0.005303,-0.005235,-0.005211,-0.005190,-0.005193,-0.005197,-0.005189,-0.005187,-0.005165,-0.005160,-0.005140,-0.005135,-0.005155,-0.005114,-0.005149,-0.005197,-0.005233,-0.005295,-0.005368,-0.005480,-0.005561,-0.005636,-0.005688,-0.005671,-0.005629,-0.005587,-0.005517,-0.005415,-0.005420,-0.005404,-0.005350,-0.005368,-0.005387,-0.005453,-0.005466,-0.005414,-0.005450,-0.005538,-0.005580,-0.005545,-0.005457,-0.005419,-0.005402,-0.005386,-0.005398,-0.005420,-0.005432,-0.005407,-0.005367,-0.005340,-0.005329,-0.005279,-0.005228,-0.005197,-0.005137,-0.005043,-0.004936,-0.004850,-0.004781,-0.004693,-0.004617,-0.004539,-0.004462,-0.004380,-0.004304,-0.004249,-0.004192,-0.004150,-0.004117,-0.004091,-0.004146,-0.004140,-0.004149,-0.004149,-0.004137,-0.004168,-0.004225,-0.004207,-0.004236,-0.004265,-0.004289,-0.004354,-0.004422,-0.004496,-0.004546,-0.004591,-0.004649,-0.004657,-0.004615,-0.004568,-0.004498,-0.004453,-0.004474,-0.004421,-0.004444,-0.004465,-0.004449,-0.004446,-0.004485,-0.004480,-0.004453,-0.004531,-0.004611,-0.004586,-0.004482,-0.004396,-0.004331,-0.004280,-0.004261,-0.004250,-0.004198,-0.004147,-0.004123,-0.004100,-0.004068,-0.004026,-0.003989,-0.003929,-0.003869,-0.003814,-0.003739,-0.003671,-0.003613,-0.003551,-0.003501,-0.003432,-0.003354,-0.003272,-0.003213,-0.003170,-0.003140,-0.003123,-0.003103,-0.003068,-0.003140,-0.003116,-0.003126,-0.003137,-0.003128,-0.003122,-0.003121,-0.003058,-0.003033,-0.003038,-0.003030,-0.003004,-0.003026,-0.003080,-0.003123,-0.003172,-0.003227,-0.003258,-0.003214,-0.003142,-0.003042,-0.003057,-0.003043,-0.003008,-0.003032,-0.003009,-0.002952,-0.002941,-0.002940,-0.002952,-0.002900,-0.002928,-0.003007,-0.002983,-0.002885,-0.002795,-0.002703,-0.002637,-0.002573,-0.002500,-0.002433,-0.002386,-0.002369,-0.002357,-0.002330,-0.002293,-0.002233,-0.002167,-0.002115,-0.002081,-0.002045,-0.001984,-0.001947,-0.001916,-0.001896,-0.001849,-0.001798,-0.001781,-0.001761,-0.001734,-0.001733,-0.001717,-0.001711,-0.001741,-0.001812,-0.001770,-0.001753,-0.001752,-0.001729,-0.001691,-0.001630,-0.001537,-0.001470,-0.001430,-0.001391,-0.001390,-0.001453,-0.001507,-0.001553,-0.001602,-0.001656,-0.001693,-0.001641,-0.001561,-0.001482,-0.001520,-0.001480,-0.001458,-0.001432,-0.001381,-0.001299,-0.001252,-0.001271,-0.001276,-0.001195,-0.001215,-0.001306,-0.001290,-0.001226,-0.001158,-0.001107,-0.001045,-0.000988,-0.000938,-0.000879,-0.000847,-0.000837,-0.000832,-0.000817,-0.000792,-0.000758,-0.000736,-0.000695,-0.000661,-0.000622,-0.000577,-0.000547,-0.000506,-0.000491,-0.000463,-0.000423,-0.000419,-0.000400,-0.000395,-0.000396,-0.000406,-0.000418,-0.000456,-0.000495,-0.000483,-0.000416,-0.000382,-0.000363,-0.000320,-0.000224,-0.000149,-0.000181,-0.000200,-0.000191,-0.000205,-0.000247,-0.000273,-0.000298,-0.000322,-0.000342,-0.000352,-0.000308,-0.000258,-0.000260,-0.000300,-0.000232,-0.000205,-0.000179,-0.000159,-0.000137,-0.000124,-0.000092,-0.000064,0.000046,0.000032,-0.000040,-0.000035,-0.000005,0.000032,0.000062,0.000086,0.000114,0.000147,0.000180,0.000205,0.000211,0.000223,0.000238,0.000256,0.000277,0.000291,0.000301,0.000306,0.000341,0.000376,0.000398,0.000410,0.000424,0.000417,0.000421,0.000415,0.000403,0.000394,0.000380,0.000374,0.000363,0.000333,0.000296,0.000284,0.000383,0.000445,0.000477,0.000564,0.000672,0.000700,0.000669,0.000641,0.000597,0.000538,0.000483,0.000439,0.000416,0.000409,0.000391,0.000365,0.000365,0.000381,0.000367,0.000318,0.000370,0.000395,0.000428,0.000476,0.000500,0.000548,0.000601,0.000667,0.000780,0.000759,0.000735,0.000755,0.000794,0.000826,0.000852,0.000866,0.000900,0.000933,0.000974,0.000981,0.001010,0.001030,0.001036,0.001033,0.001039,0.001045,0.001037,0.001032,0.001043,0.001050,0.001047,0.001010,0.000978,0.000956,0.000947,0.000936,0.000907,0.000885,0.000868,0.000851,0.000832,0.000803,0.000773,0.000739,0.000781,0.000883,0.001001,0.001116,0.001158,0.001143,0.001133,0.001122,0.001084,0.001032,0.000989,0.000952,0.000911,0.000863,0.000838,0.000813,0.000798,0.000768,0.000730,0.000670,0.000709,0.000799,0.000822,0.000868,0.000913,0.000929,0.001032,0.001134,0.001221,0.001217,0.001212,0.001226,0.001242,0.001233,0.001220,0.001224,0.001239,0.001262,0.001261,0.001247,0.001242,0.001236,0.001193,0.001156,0.001124,0.001079,0.001045,0.001025,0.001002,0.000990,0.000973,0.000948,0.000925,0.000912,0.000903,0.000899,0.000893,0.000891,0.000864,0.000831,0.000812,0.000781,0.000741,0.000711,0.000686,0.000699,0.000738,0.000753,0.000727,0.000719,0.000690,0.000665,0.000619,0.000562,0.000510,0.000450,0.000407,0.000375,0.000343,0.000293,0.000222,0.000178,0.000119,0.000059,0.000047,0.000158,0.000226,0.000251,0.000305,0.000390,0.000510,0.000633,0.000665,0.000642,0.000625,0.000614,0.000580,0.000538,0.000492,0.000446,0.000408,0.000380,0.000358,0.000323,0.000298,0.000259,0.000203,0.000147,0.000082,0.000011,-0.000043,-0.000078,-0.000103,-0.000108,-0.000127,-0.000164,-0.000189,-0.000227,-0.000239,-0.000246,-0.000237,-0.000216,-0.000245,-0.000262,-0.000263,-0.000277,-0.000308,-0.000283,-0.000265,-0.000250,-0.000220,-0.000199,-0.000174,-0.000141,-0.000184,-0.000224,-0.000269,-0.000317,-0.000364,-0.000412,-0.000452,-0.000487,-0.000532,-0.000576,-0.000636,-0.000649,-0.000695,-0.000759,-0.000837,-0.000826,-0.000729,-0.000641,-0.000515,-0.000387,-0.000270,-0.000223,-0.000234,-0.000259,-0.000282,-0.000320,-0.000368,-0.000409,-0.000461,-0.000530,-0.000609,-0.000662,-0.000710,-0.000743,-0.000767,-0.000782,-0.000805,-0.000857,-0.000900,-0.000919,-0.000936,-0.000931,-0.000915,-0.000896,-0.000895,-0.000905,-0.000908,-0.000888,-0.000862,-0.000843,-0.000811,-0.000783,-0.000767,-0.000760,-0.000752,-0.000751,-0.000732,-0.000698,-0.000677,-0.000653,-0.000604,-0.000570,-0.000535,-0.000505,-0.000553,-0.000594,-0.000630,-0.000667,-0.000703,-0.000746,-0.000789,-0.000823,-0.000868,-0.000903,-0.000946,-0.000987,-0.001043,-0.001119,-0.001192,-0.001248,-0.001258,-0.001199,-0.001116,-0.001048,-0.001060,-0.001094,-0.001094,-0.001111,-0.001132,-0.001154,-0.001174,-0.001195,-0.001219,-0.001254,-0.001290,-0.001312,-0.001305,-0.001271,-0.001240,-0.001217,-0.001219,-0.001242,-0.001261,-0.001254,-0.001232,-0.001209,-0.001179,-0.001156,-0.001137,-0.001125,-0.001108,-0.001084,-0.001070,-0.001057,-0.001063,-0.001054,-0.001049,-0.001048,-0.001040,-0.001026,-0.001015,-0.000985,-0.000959,-0.000940,-0.000926,-0.000907,-0.000903,-0.000896,-0.000953,-0.000990,-0.001030,-0.001074,-0.001121,-0.001181,-0.001236,-0.001269,-0.001308,-0.001331,-0.001353,-0.001396,-0.001457,-0.001416,-0.001522,-0.001597,-0.001693,-0.001773,-0.001834,-0.001896,-0.001949,-0.001988,-0.002017,-0.002029,-0.002049,-0.002079,-0.002106,-0.002115,-0.002105,-0.002085,-0.002061,-0.002047,-0.002027,-0.002008,-0.001985,-0.001980,-0.001981,-0.001963,-0.001952,-0.001956,-0.001942,-0.001931,-0.001917,-0.001895,-0.001877,-0.001868,-0.001865,-0.001859,-0.001854,-0.001848,-0.001850,-0.001849,-0.001842,-0.001831,-0.001819,-0.001809,-0.001798,-0.001793,-0.001786,-0.001776,-0.001763,-0.001750,-0.001737,-0.001736,-0.001739,-0.001737,-0.001731,-0.001732,-0.001742,-0.001755,-0.001763,-0.001766,-0.001768,-0.001769,-0.001765,-0.001760,-0.001753,-0.001747,-0.001739,-0.001776,-0.001794,-0.001824,-0.001849,-0.001866,-0.001893,-0.001911,-0.001914,-0.001910,-0.001931,-0.001959,-0.001967,-0.001955,-0.001943,-0.001933,-0.001922,-0.001916,-0.001910,-0.001910,-0.001900,-0.001897,-0.001899,-0.001887,-0.001881,-0.001878,-0.001873,-0.001868,-0.001867,-0.001862,-0.001854,-0.001843,-0.001847,-0.001849,-0.001845,-0.001838,-0.001836,-0.001831,-0.001825,-0.001817,-0.001805,-0.001794,-0.001786,-0.001781,-0.001775,-0.001764,-0.001753,-0.001750,-0.001756,-0.001762,-0.001749,-0.001736,-0.001720,-0.001711,-0.001713,-0.001715,-0.001710,-0.001702,-0.001699,-0.001698,-0.001697,-0.001689,-0.001676,-0.001662,-0.001645,-0.001688,-0.001721,-0.001755,-0.001784,-0.001808,-0.001836,-0.001862,-0.001874,-0.001888,-0.001888,-0.001910,-0.001943,-0.001948,-0.001967,-0.001991,-0.001994,-0.001976,-0.001966,-0.001951,-0.001945,-0.001937,-0.001939,-0.001940,-0.001934,-0.001937,-0.001937,-0.001936,-0.001932,-0.001927,-0.001926,-0.001923,-0.001921,-0.001919,-0.001910,-0.001903,-0.001896,-0.001890,-0.001887,-0.001883,-0.001870,-0.001855,-0.001842,-0.001829,-0.001822,-0.001812,-0.001798,-0.001780,-0.001773,-0.001771,-0.001777,-0.001771,-0.001765,-0.001765,-0.001772,-0.001783,-0.001786,-0.001783,-0.001788,-0.001793,-0.001801,-0.001808,-0.001805,-0.001802,-0.001807,-0.001848,-0.001878,-0.001897,-0.001924,-0.001952,-0.001976,-0.001983,-0.002007,-0.002034,-0.002033,-0.002025,-0.002055,-0.002087,-0.002121,-0.002140,-0.002149,-0.002139,-0.002128,-0.002097,-0.002091,-0.002100,-0.002098,-0.002095,-0.002088,-0.002090,-0.002092,-0.002094,-0.002094,-0.002093,-0.002091,-0.002088,-0.002089,-0.002093,-0.002091,-0.002088,-0.002084,-0.002080,-0.002081,-0.002086,-0.002080,-0.002067,-0.002053,-0.002048,-0.002045,-0.002039,-0.002034,-0.002027,-0.002019,-0.002013,-0.002007,-0.002002,-0.001998,-0.001999,-0.002005,-0.002014,-0.002017,-0.002016,-0.002017,-0.002017,-0.002020,-0.002023,-0.002017,-0.002013,-0.002021,-0.002050,-0.002068,-0.002084,-0.002108,-0.002150,-0.002178,-0.002200,-0.002238,-0.002265,-0.002249,-0.002247,-0.002275,-0.002256,-0.002220,-0.002194,-0.002165,-0.002161,-0.002170,-0.002173,-0.002196,-0.002226,-0.002232,-0.002237,-0.002246,-0.002256,-0.002250,-0.002243,-0.002247,-0.002249,-0.002242,-0.002234,-0.002236,-0.002242,-0.002250,-0.002249,-0.002246,-0.002245,-0.002246,-0.002254,-0.002255,-0.002250,-0.002238,-0.002226,-0.002222,-0.002224,-0.002229,-0.002228,-0.002217,-0.002217,-0.002205,-0.002200,-0.002191,-0.002189,-0.002192,-0.002193,-0.002197,-0.002205,-0.002212,-0.002219,-0.002228,-0.002230,-0.002230,-0.002233,-0.002241,-0.002289,-0.002319,-0.002351,-0.002388,-0.002428,-0.002465,-0.002490,-0.002502,-0.002534,-0.002536,-0.002514,-0.002504,-0.002485,-0.002465,-0.002461,-0.002461,-0.002484,-0.002513,-0.002524,-0.002536,-0.002542,-0.002546,-0.002555,-0.002567,-0.002580,-0.002567,-0.002554,-0.002545,-0.002534,-0.002520,-0.002516,-0.002509,-0.002506,-0.002512,-0.002513,-0.002511,-0.002509,-0.002505,-0.002512,-0.002516,-0.002516,-0.002516,-0.002512,-0.002511,-0.002513,-0.002512,-0.002512,-0.002507,-0.002519,-0.002513,-0.002505,-0.002497,-0.002497,-0.002499,-0.002500,-0.002508,-0.002518,-0.002528,-0.002538,-0.002552,-0.002556,-0.002560,-0.002564,-0.002573,-0.002625,-0.002664,-0.002707,-0.002750,-0.002796,-0.002835,-0.002865,-0.002869,-0.002874,-0.002858,-0.002822,-0.002814,-0.002830,-0.002862,-0.002908,-0.002957,-0.002998,-0.003035,-0.003059,-0.003072,-0.003089,-0.003088,-0.003074,-0.003081,-0.003085,-0.003088,-0.003082,-0.003072,-0.003060,-0.003052,-0.003052,-0.003049,-0.003047,-0.003054,-0.003058,-0.003058,-0.003055,-0.003051,-0.003059,-0.003066,-0.003068,-0.003078,-0.003083,-0.003088,-0.003095,-0.003098,-0.003104,-0.003108,-0.003119,-0.003125,-0.003124,-0.003133,-0.003150,-0.003167,-0.003188,-0.003211,-0.003230,-0.003240,-0.003254,-0.003276,-0.003290,-0.003303,-0.003318,-0.003341,-0.003397,-0.003454,-0.003494,-0.003528,-0.003572,-0.003624,-0.003676,-0.003719,-0.003766,-0.003803,-0.003816,-0.003839,-0.003895,-0.003949,-0.003979,-0.004007,-0.004036,-0.004077,-0.004120,-0.004167,-0.004226,-0.004265,-0.004290,-0.004309,-0.004325,-0.004336,-0.004340,-0.004351,-0.004371,-0.004389,-0.004407,-0.004424,-0.004443,-0.004459,-0.004478,-0.004491,-0.004505,-0.004516,-0.004543,-0.004568,-0.004588,-0.004615,-0.004640,-0.004669,-0.004704