-0.001697,,-0.001669,-0.001661,-0.001674,-0.001667,-0.001678,-0.001675,-0.001657,-0.001688,-0.001700,-0.001742,-0.001767,-0.001757,-0.001776,-0.001777,-0.001783,-0.001770,-0.001747,-0.001718,-0.001682,-0.001687,-0.001698,-0.001713,-0.001729,-0.001722,-0.001686,-0.001644,-0.001614,-0.001608,-0.001593,-0.001588,-0.001530,-0.001524,-0.001538,-0.001505,-0.001468,-0.001320,-0.001321,-0.001364,-0.001363,-0.001325,-0.001100,-0.001057,-0.001048,-0.001176,-0.001247,-0.001243,-0.001247,-0.001169,-0.001120,-0.001066,-0.000991,-0.000933,-0.000847,-0.000763,-0.000714,-0.000581,-0.000547,-0.000675,-0.000911,-0.001054,-0.001069,-0.001128,-0.001182,-0.001221,-0.001233,-0.001253,-0.001244,-0.001244,-0.001256,-0.001257,-0.001258,-0.001273,-0.001307,-0.001354,-0.001387,-0.001367,-0.001351,-0.001372,-0.001376,-0.001352,-0.001310,-0.001250,-0.001197,-0.001172,-0.001184,-0.001203,-0.001212,-0.001240,-0.001213,-0.001204,-0.001163,-0.001111,-0.001104,-0.001124,-0.001130,-0.001070,-0.000969,-0.000964,-0.000987,-0.001002,-0.000911,-0.000760,-0.000738,-0.000747,-0.000788,-0.000748,-0.000689,-0.000719,-0.000779,-0.000912,-0.000931,-0.000793,-0.000648,-0.000627,-0.000685,-0.000681,-0.000432,-0.000212,-0.000206,-0.000301,-0.000339,-0.000374,-0.000452,-0.000603,-0.000703,-0.000752,-0.000798,-0.000799,-0.000797,-0.000822,-0.000832,-0.000829,-0.000810,-0.000805,-0.000847,-0.000873,-0.000877,-0.000878,-0.000906,-0.000931,-0.000912,-0.000884,-0.000850,-0.000841,-0.000818,-0.000749,-0.000675,-0.000620,-0.000605,-0.000664,-0.000675,-0.000684,-0.000681,-0.000668,-0.000674,-0.000626,-0.000579,-0.000566,-0.000609,-0.000630,-0.000546,-0.000447,-0.000402,-0.000476,-0.000502,-0.000397,-0.000288,-0.000190,-0.000251,-0.000322,-0.000316,-0.000332,-0.000266,-0.000348,-0.000371,-0.000254,-0.000076,0.000042,-0.000089,-0.000138,0.000072,0.000390,0.000568,0.000370,0.000149,0.000088,0.000175,0.000145,-0.000024,-0.000162,-0.000248,-0.000285,-0.000279,-0.000290,-0.000308,-0.000310,-0.000294,-0.000290,-0.000354,-0.000405,-0.000418,-0.000383,-0.000371,-0.000394,-0.000415,-0.000397,-0.000364,-0.000326,-0.000286,-0.000236,-0.000168,-0.000106,-0.000059,-0.000077,-0.000120,-0.000123,-0.000133,-0.000139,-0.000123,-0.000108,-0.000045,-0.000005,-0.000009,-0.000074,-0.000080,0.000076,0.000189,0.000232,0.000163,0.000148,0.000286,0.000444,0.000574,0.000531,0.000512,0.000472,0.000523,0.000565,0.000543,0.000543,0.000596,0.000726,0.000775,0.000815,0.000839,0.001010,0.001167,0.001146,0.001051,0.000853,0.000744,0.000684,0.000577,0.000475,0.000462,0.000425,0.000400,0.000400,0.000395,0.000388,0.000370,0.000370,0.000345,0.000302,0.000291,0.000307,0.000290,0.000271,0.000249,0.000247,0.000261,0.000293,0.000328,0.000352,0.000400,0.000464,0.000522,0.000561,0.000546,0.000511,0.000491,0.000480,0.000459,0.000428,0.000452,0.000503,0.000573,0.000566,0.000530,0.000637,0.000774,0.000915,0.000912,0.000852,0.000950,0.001113,0.001320,0.001325,0.001260,0.001203,0.001226,0.001354,0.001310,0.001173,0.001081,0.001194,0.001418,0.001487,0.001375,0.001427,0.001567,0.001621,0.001578,0.001270,0.001049,0.001082,0.001138,0.001091,0.001145,0.001198,0.001231,0.001266,0.001304,0.001318,0.001299,0.001316,0.001364,0.001365,0.001375,0.001403,0.001383,0.001366,0.001333,0.001316,0.001322,0.001336,0.001349,0.001346,0.001374,0.001424,0.001454,0.001494,0.001518,0.001494,0.001457,0.001439,0.001394,0.001361,0.001377,0.001417,0.001492,0.001542,0.001527,0.001573,0.001678,0.001794,0.001861,0.001823,0.001871,0.002003,0.002147,0.002222,0.002198,0.002202,0.002207,0.002311,0.002295,0.002189,0.002092,0.002054,0.002242,0.002365,0.002402,0.002433,0.002374,0.002327,0.002375,0.002309,0.002120,0.001933,0.001941,0.001972,0.002056,0.002200,0.002308,0.002410,0.002473,0.002524,0.002525,0.002551,0.002611,0.002640,0.002672,0.002709,0.002696,0.002668,0.002629,0.002611,0.002632,0.002638,0.002655,0.002658,0.002659,0.002690,0.002720,0.002758,0.002781,0.002791,0.002775,0.002718,0.002682,0.002654,0.002666,0.002703,0.002767,0.002827,0.002875,0.002891,0.002958,0.003059,0.003158,0.003230,0.003228,0.003298,0.003414,0.003533,0.003625,0.003674,0.003677,0.003692,0.003669,0.003645,0.003652,0.003625,0.003717,0.003809,0.003910,0.003997,0.003978,0.003917,0.003880,0.003886,0.003688,0.003299,0.003175,0.003210,0.003310,0.003453,0.003605,0.003709,0.003775,0.003875,0.003894,0.003932,0.003953,0.003969,0.003978,0.003978,0.003996,0.003966,0.003918,0.003884,0.003907,0.003945,0.003955,0.003964,0.003958,0.003970,0.004018,0.004035,0.004050,0.004036,0.004031,0.004047,0.003981,0.003930,0.003851,0.003839,0.003924,0.003967,0.004035,0.004022,0.004041,0.004185,0.004246,0.004358,0.004302,0.004346,0.004573,0.004599,0.004629,0.004489,0.004486,0.004605,0.004606,0.004589,0.004501,0.004495,0.004674,0.004782,0.004775,0.004782,0.004750,0.004982,0.005044,0.004869,0.004523,0.004108,0.004104,0.004138,0.004310,0.004363,0.004492,0.004604,0.004703,0.004836,0.004882,0.004876,0.004884,0.004906,0.004936,0.004898,0.004882,0.004910,0.004874,0.004860,0.004853,0.004844,0.004868,0.004891,0.004923,0.004945,0.004955,0.005003,0.004984,0.005008,0.005030,0.005073,0.005067,0.004982,0.004926,0.004876,0.004919,0.004995,0.005002,0.005043,0.005128,0.005222,0.005311,0.005326,0.005371,0.005478,0.005661,0.005759,0.005653,0.005578,0.005574,0.005689,0.005766,0.005681,0.005599,0.005510,0.005631,0.005847,0.005934,0.005922,0.005736,0.005751,0.005808,0.005724,0.005583,0.005154,0.004925,0.004871,0.004988,0.005161,0.005314,0.005503,0.005546,0.005596,0.005664,0.005704,0.005698,0.005647,0.005648,0.005709,0.005742,0.005784,0.005718,0.005671,0.005688,0.005713,0.005757,0.005775,0.005797,0.005847,0.005855,0.005924,0.005957,0.005997,0.006034,0.006022,0.006068,0.006059,0.006050,0.006046,0.005992,0.006033,0.006060,0.006182,0.006336,0.006388,0.006448,0.006453,0.006621,0.006780,0.006846,0.006956,0.007040,0.007150,0.007155,0.007055,0.007114,0.007179,0.007254,0.007192,0.007070,0.007150,0.007310,0.007327,0.007231,0.006964,0.006886,0.006965,0.006895,0.006689,0.006284,0.006026,0.006057,0.006238,0.006380,0.006494,0.006608,0.006668,0.006810,0.006848,0.006822,0.006768,0.006738,0.006889,0.007010,0.007053,0.006946,0.006869,0.007019,0.007169,0.007255,0.007200,0.007145,0.007185,0.007187,0.007200,0.007213,0.007254,0.007325,0.007362,0.007417,0.007415,0.007422,0.007501,0.007499,0.007509,0.007548,0.007600,0.007767,0.007895,0.008024,0.008088,0.008229,0.008434,0.008551,0.008696,0.008787,0.008917,0.009017,0.009036,0.009050,0.009030,0.009096,0.009147,0.009144,0.009135,0.009195,0.009342,0.009324,0.009117,0.008935,0.008898,0.008944,0.008832,0.008677,0.008382,0.008181,0.008301,0.008475,0.008584,0.008698,0.008887,0.008971,0.009026,0.009080,0.009072,0.009072,0.009117,0.009198,0.009210,0.009142,0.009107,0.009170,0.009238,0.009253,0.009122,0.008993,0.009049,0.009133,0.009127,0.009051,0.009005,0.009033,0.009173,0.009224,0.009208,0.009156,0.009133,0.009115,0.009067,0.009105,0.009146,0.009338,0.009483,0.009607,0.009739,0.009858,0.010104,0.010304,0.010488,0.010566,0.010596,0.010665,0.010760,0.010845,0.010881,0.010895,0.010961,0.011012,0.011035,0.011023,0.011188,0.011296,0.011233,0.011029,0.010767,0.010821,0.010932,0.010853,0.010563,0.010260,0.010188,0.010451,0.010731,0.011003,0.011257,0.011390,0.011450,0.011476,0.011504,0.011492,0.011480,0.011479,0.011515,0.011541,0.011560,0.011604,0.011622,0.011637,0.011624,0.011598,0.011661,0.011684,0.011642,0.011609,0.011582,0.011537,0.011539,0.011479,0.011481,0.011491,0.011400,0.011224,0.011024,0.011052,0.011133,0.011218,0.011220,0.011121,0.011202,0.011370,0.011570,0.011667,0.011673,0.011735,0.011753,0.011716,0.011669,0.011614,0.011694,0.011762,0.011786,0.011783,0.011682,0.011630,0.011698,0.011893,0.012055,0.011937,0.011628,0.011451,0.011698,0.011871,0.011799,0.011611,0.011302,0.011314,0.011601,0.011955,0.012238,0.012418,0.012519,0.012530,0.012581,0.012607,0.012595,0.012584,0.012607,0.012605,0.012610,0.012669,0.012699,0.012714,0.012721,0.012732,0.012738,0.012735,0.012701,0.012715,0.012744,0.012691,0.012716,0.012642,0.012593,0.012570,0.012550,0.012641,0.012534,0.012392,0.012304,0.012267,0.012407,0.012316,0.012260,0.012351,0.012461,0.012577,0.012457,0.012403,0.012464,0.012519,0.012603,0.012381,0.012213,0.012249,0.012356,0.012578,0.012435,0.012259,0.012197,0.012270,0.012616,0.012614,0.012437,0.012210,0.012115,0.012408,0.012512,0.012500,0.012360,0.012209,0.012247,0.012362,0.012584,0.012729,0.012893,0.012957,0.012954,0.012931,0.012857,0.012804,0.012767,0.012693,0.012691,0.012715,0.012699,0.012643,0.012569,0.012508,0.012470,0.012406,0.012381,0.012355,0.012358,0.012297,0.012196,0.012161,0.012186,0.012180,0.012113,0.012043,0.011998,0.011932,0.011854,0.011739,0.011645,0.011676,0.011694,0.011766,0.011812,0.011836,0.011787,0.011665,0.011707,0.011730,0.011740,0.011561,0.011358,0.011388,0.011352,0.011358,0.011249,0.011134,0.011031,0.010949,0.010970,0.010969,0.010839,0.010628,0.010449,0.010413,0.010546,0.010523,0.010372,0.010200,0.010075,0.010070,0.010181,0.010399,0.010580,0.010713,0.010764,0.010799,0.010839,0.010866,0.010851,0.010822,0.010850,0.010908,0.010923,0.010892,0.010902,0.010926,0.011036,0.011035,0.010939,0.010839,0.010820,0.010852,0.010801,0.010730,0.010689,0.010648,0.010668,0.010639,0.010619,0.010549,0.010475,0.010456,0.010324,0.010285,0.010255,0.010303,0.010332,0.010276,0.010112,0.009979,0.009957,0.009965,0.009899,0.009621,0.009528,0.009542,0.009523,0.009462,0.009326,0.009355,0.009269,0.009233,0.009119,0.008940,0.008951,0.008848,0.008775,0.008578,0.008469,0.008644,0.008623,0.008493,0.008277,0.008019,0.008104,0.008234,0.008427,0.008490,0.008596,0.008678,0.008656,0.008801,0.008764,0.008695,0.008705,0.008768,0.008870,0.008808,0.008886,0.008928,0.009016,0.009014,0.009014,0.009062,0.009117,0.009243,0.009296,0.009361,0.009413,0.009475,0.009518,0.009523,0.009452,0.009447,0.009481,0.009502,0.009453,0.009316,0.009235,0.009234,0.009240,0.009257,0.009112,0.008984,0.008912,0.008931,0.008923,0.008731,0.008577,0.008505,0.008553,0.008488,0.008344,0.008342,0.008427,0.008334,0.008080,0.007768,0.007739,0.007902,0.007799,0.007461,0.007101,0.007193,0.007601,0.007724,0.007542,0.007168,0.006931,0.007101,0.007361,0.007562,0.007590,0.007625,0.007682,0.007797,0.007848,0.007779,0.007847,0.007961,0.008102,0.008052,0.007997,0.007996,0.008095,0.008202,0.008213,0.008141,0.008104,0.008228,0.008337,0.008416,0.008477,0.008513,0.008605,0.008715,0.008738,0.008715,0.008712,0.008745,0.008755,0.008735,0.008686,0.008665,0.008654,0.008684,0.008623,0.008559,0.008437,0.008500,0.008573,0.008471,0.008258,0.008080,0.008169,0.008229,0.008270,0.008139,0.008009,0.007867,0.007856,0.007761,0.007614,0.007569,0.007523,0.007447,0.007260,0.007232,0.007432,0.007726,0.007735,0.007561,0.007244,0.007082,0.007363,0.007628,0.007818,0.007905,0.007854,0.007875,0.008058,0.008178,0.008156,0.008154,0.008233,0.008278,0.008340,0.008307,0.008363,0.008467,0.008530,0.008493,0.008363,0.008364,0.008419,0.008478,0.008514,0.008386,0.008311,0.008352,0.008425,0.008472,0.008445,0.008442,0.008386,0.008372,0.008316,0.008236,0.008207,0.008147,0.008068,0.007976,0.007916,0.007960,0.007982,0.007941,0.007814,0.007780,0.007858,0.007896,0.007917,0.007708,0.007525,0.007415,0.007521,0.007530,0.007370,0.007209,0.007121,0.007296,0.007307,0.007221,0.007095,0.007143,0.007515,0.007519,0.007250,0.006931,0.006865,0.007085,0.007327,0.007381,0.007282,0.007372,0.007579,0.007678,0.007633,0.007594,0.007638,0.007723,0.007778,0.007700,0.007643,0.007661,0.007691,0.007617,0.007477,0.007440,0.007385,0.007411,0.007406,0.007361,0.007385,0.007364,0.007437,0.007476,0.007541,0.007573,0.007571,0.007582,0.007478,0.007360,0.007369,0.007377,0.007381,0.007288,0.007266,0.007276,0.007280,0.007288,0.007169,0.007144,0.007119,0.007037,0.006977,0.006781,0.006623,0.006513,0.006464,0.006471,0.006309,0.006114,0.005957,0.005951,0.006115,0.006102,0.005997,0.005820,0.005956,0.006137,0.006068,0.006028,0.005782,0.005551,0.005592,0.005740,0.005928,0.006082,0.006282,0.006317,0.006304,0.006360,0.006411,0.006428,0.006391,0.006335,0.006372,0.006412,0.006408,0.006326,0.006263,0.006345,0.006398,0.006461,0.006449,0.006468,0.006627,0.006712,0.006803,0.006802,0.006813,0.006807,0.006829,0.006820,0.006747,0.006651,0.006595,0.006571,0.006566,0.006543,0.006483,0.006435,0.006386,0.006378,0.006294,0.006176,0.006104,0.006028,0.005967,0.005808,0.005581,0.005532,0.005501,0.005492,0.005267,0.004930,0.004871,0.004850,0.004946,0.004948,0.004818,0.004714,0.004592,0.004635,0.004798,0.004800,0.004684,0.004371,0.004194,0.004362,0.004530,0.004751,0.004911,0.005087,0.005095,0.005146,0.005244,0.005256,0.005256,0.005251,0.005302,0.005383,0.005433,0.005473,0.005413,0.005360,0.005446,0.005526,0.005576,0.005506,0.005439,0.005516,0.005565,0.005615,0.005545,0.005419,0.005310,0.005139,0.005011,0.004863,0.004668,0.004517,0.004378,0.004359,0.004288,0.004202,0.004138,0.004119,0.004189,0.004134,0.004097,0.004113,0.004180,0.004220,0.004204,0.004247,0.004232,0.004211,0.004066,0.003872,0.003787,0.003733,0.003687,0.003591,0.003466,0.003314,0.003101,0.003043,0.003248,0.003371,0.003219,0.003032,0.002758,0.002568,0.002718,0.002924,0.003107,0.003238,0.003314,0.003323,0.003359,0.003409,0.003369,0.003322,0.003255,0.003211,0.003220,0.003201,0.003176,0.003044,0.002981,0.002969,0.002947,0.002910,0.002840,0.002842,0.002820,0.002826,0.002844,0.002847,0.002837,0.002721,0.002625,0.002582,0.002544,0.002510,0.002418,0.002418,0.002435,0.002409,0.002511,0.002520,0.002518,0.002490,0.002415,0.002517,0.002635,0.002665,0.002800,0.002864,0.002912,0.002798,0.002577,0.002429,0.002258,0.002232,0.002050,0.001731,0.001538,0.001380,0.001254,0.001113,0.001128,0.001309,0.001264,0.001187,0.001036,0.000827,0.000774,0.000825,0.000896,0.000929,0.001067,0.001174,0.001156,0.001117,0.000999,0.000981,0.001024,0.001068,0.001080,0.001034,0.001084,0.001174,0.001240,0.001267,0.001192,0.001184,0.001267,0.001407,0.001478,0.001475,0.001438,0.001419,0.001459,0.001421,0.001332,0.001194,0.001190,0.001230,0.001161,0.001059,0.000922,0.000905,0.001059,0.001053,0.001001,0.000751,0.000517,0.000560,0.000800,0.001041,0.001105,0.001084,0.001063,0.001144,0.001248,0.001294,0.001288,0.001199,0.001062,0.000939,0.000866,0.000926,0.000860,0.000710,0.000612,0.000652,0.000777,0.000781,0.000689,0.000511,0.000357,0.000353,0.000430,0.000507,0.000496,0.000483,0.000497,0.000518,0.000557,0.000538,0.000505,0.000541,0.000622,0.000675,0.000678,0.000700,0.000795,0.000937,0.001028,0.000962,0.000975,0.001098,0.001198,0.001255,0.001180,0.001109,0.001108,0.001154,0.001136,0.000960,0.000867,0.000952,0.000933,0.000868,0.000716,0.000726,0.000860,0.000838,0.000810,0.000650,0.000563,0.000640,0.000820,0.000986,0.001035,0.001070,0.001188,0.001364,0.001400,0.001367,0.001379,0.001399,0.001379,0.001263,0.001142,0.001095,0.001124,0.001126,0.001048,0.000925,0.000938,0.001067,0.001133,0.001011,0.000751,0.000646,0.000701,0.000768,0.000759,0.000768,0.000843,0.000851,0.000879,0.000849,0.000816,0.000799,0.000832,0.000871,0.000830,0.000785,0.000834,0.000909,0.000966,0.000887,0.000851,0.000935,0.001048,0.001141,0.001143,0.001182,0.001254,0.001258,0.001196,0.001053,0.001041,0.001195,0.001207,0.001069,0.000863,0.000796,0.000894,0.000837,0.000718,0.000495,0.000353,0.000400,0.000495,0.000533,0.000498,0.000475,0.000580,0.000665,0.000630,0.000583,0.000555,0.000572,0.000576,0.000503,0.000410,0.000300,0.000262,0.000281,0.000306,0.000246,0.000170,0.000212,0.000331,0.000414,0.000341,0.000219,0.000212,0.000319,0.000422,0.000492,0.000538,0.000589,0.000685,0.000717,0.000795,0.000825,0.000822,0.000860,0.000884,0.000927,0.001007,0.001070,0.001119,0.001128,0.001250,0.001440,0.001594,0.001653,0.001614,0.001642,0.001679,0.001630,0.001522,0.001400,0.001429,0.001499,0.001355,0.001137,0.000910,0.000921,0.001064,0.000964,0.000699,0.000413,0.000356,0.000455,0.000509,0.000438,0.000353,0.000379,0.000468,0.000474,0.000416,0.000442,0.000536,0.000624,0.000648,0.000640,0.000601,0.000575,0.000544,0.000538,0.000612,0.000718,0.000679,0.000621,0.000578,0.000672,0.000806,0.000812,0.000741,0.000628,0.000614,0.000670,0.000781,0.000859,0.000792,0.000804,0.000844,0.000863,0.000780,0.000755,0.000741,0.000789,0.000907,0.000904,0.000845,0.000768,0.000863,0.001082,0.001247,0.001348,0.001375,0.001446,0.001507,0.001484,0.001373,0.001269,0.001231,0.001246,0.001071,0.000837,0.000633,0.000656,0.000759,0.000609,0.000346,0.000130,0.000176,0.000213,0.000172,0.000080,0.000013,0.000072,0.000122,0.000131,0.000164,0.000223,0.000342,0.000444,0.000455,0.000452,0.000466,0.000501,0.000462,0.000457,0.000454,0.000486,0.000442,0.000330,0.000210,0.000253,0.000404,0.000427,0.000291,0.000162,0.000171,0.000256,0.000292,0.000313,0.000302,0.000276,0.000328,0.000421,0.000529,0.000552,0.000560,0.000627,0.000734,0.000758,0.000702,0.000674,0.000725,0.000818,0.000871,0.000952,0.001021,0.001052,0.001075,0.001095,0.001127,0.001148,0.001175,0.001147,0.001034,0.000887,0.000849,0.000895,0.000841,0.000637,0.000415,0.000326,0.000290,0.000130,-0.000096,-0.000214,-0.000218,-0.000260,-0.000263,-0.000316,-0.000388,-0.000455,-0.000378,-0.000307,-0.000363,-0.000392,-0.000390,-0.000345,-0.000407,-0.000548,-0.000670,-0.000707,-0.000675,-0.000710,-0.000806,-0.000814,-0.000770,-0.000712,-0.000720,-0.000728,-0.000654,-0.000553,-0.000585,-0.000636,-0.000483,-0.000289,-0.000205,-0.000243,-0.000237,-0.000263,-0.000219,-0.000119,-0.000003,0.000094,0.000148,0.000235,0.000289,0.000401,0.000533,0.000653,0.000692,0.000641,0.000595,0.000573,0.000601,0.000570,0.000580,0.000540,0.000488,0.000481,0.000537,0.000609,0.000614,0.000543,0.000468,0.000420,0.000325,0.000180,-0.000030,-0.000175,-0.000295,-0.000460,-0.000532,-0.000578,-0.000695,-0.000844,-0.000895,-0.000940,-0.001035,-0.001092,-0.001140,-0.001146,-0.001161,-0.001254,-0.001299,-0.001286,-0.001181,-0.001012,-0.000950,-0.000912,-0.001026,-0.001045,-0.000938,-0.000869,-0.000846,-0.001025,-0.001140,-0.001218,-0.001104,-0.000708,-0.000596,-0.000801,-0.000988,-0.001077,-0.001066,-0.001038,-0.001015,-0.001026,-0.001000,-0.000891,-0.000889,-0.000837,-0.000725,-0.000593,-0.000475,-0.000363,-0.000217,-0.000120,-0.000105,-0.000171,-0.000225,-0.000149,-0.000117,-0.000158,-0.000227,-0.000223,-0.000077,0.000028,0.000068,-0.000005,-0.000108,-0.000074,-0.000032,-0.000014,-0.000105,-0.000313,-0.000469,-0.000484,-0.000530,-0.000537,-0.000572,-0.000674,-0.000781,-0.000912,-0.001006,-0.001132,-0.001180,-0.001141,-0.001168,-0.001194,-0.001310,-0.001280,-0.001150,-0.001071,-0.001105,-0.001373,-0.001316,-0.001094,-0.001087,-0.001391,-0.001690,-0.001532,-0.001421,-0.001386,-0.001433,-0.001484,-0.001457,-0.001503,-0.001516,-0.001497,-0.001511,-0.001538,-0.001538,-0.001405,-0.001353,-0.001314,-0.001278,-0.001298,-0.001271,-0.001160,-0.000960,-0.000753,-0.000646,-0.000611,-0.000587,-0.000558,-0.000536,-0.000585,-0.000702,-0.000702,-0.000610,-0.000505,-0.000458,-0.000422,-0.000387,-0.000357,-0.000244,-0.000205,-0.000268,-0.000388,-0.000540,-0.000564,-0.000566,-0.000585,-0.000729,-0.000893,-0.000875,-0.000930,-0.000952,-0.001095,-0.001278,-0.001306,-0.001337,-0.001281,-0.001361,-0.001540,-0.001566,-0.001451,-0.001356,-0.001503,-0.001946,-0.001958,-0.001689,-0.001654,-0.001921,-0.002228,-0.002147,-0.001939,-0.001708,-0.001438,-0.001403,-0.001605,-0.001612,-0.001451,-0.001338,-0.001395,-0.001615,-0.001542,-0.001341,-0.001272,-0.001303,-0.001317,-0.001349,-0.001464,-0.001278,-0.001133,-0.001090,-0.001100,-0.001100,-0.000950,-0.000920,-0.000951,-0.001110,-0.001310,-0.001300,-0.001354,-0.001376,-0.001358,-0.001385,-0.001353,-0.001403,-0.001296,-0.001333,-0.001481,-0.001631,-0.001860,-0.001904,-0.002000,-0.002095,-0.002223,-0.002318,-0.002154,-0.002120,-0.002119,-0.002305,-0.002430,-0.002321,-0.002308,-0.002284,-0.002544,-0.002697,-0.002495,-0.002298,-0.002248,-0.002635,-0.002843,-0.002609,-0.002342,-0.002413,-0.002706,-0.002856,-0.002781,-0.002796,-0.002671,-0.002670,-0.002667,-0.002564,-0.002620,-0.002621,-0.002498,-0.002394,-0.002230,-0.002416,-0.002512,-0.002406,-0.002187,-0.001964,-0.001981,-0.002016,-0.002269,-0.002322,-0.002181,-0.001972,-0.001891,-0.002184,-0.002355,-0.002370,-0.002323,-0.002270,-0.002438,-0.002605,-0.002742,-0.002721,-0.002635,-0.002579,-0.002432,-0.002329,-0.002316,-0.002359,-0.002445,-0.002478,-0.002534,-0.002509,-0.002567,-0.002689,-0.002635,-0.002571,-0.002505,-0.002536,-0.002563,-0.002507,-0.002543,-0.002560,-0.002677,-0.002717,-0.002768,-0.002817,-0.002716,-0.002708,-0.002696,-0.002805,-0.002886,-0.002980,-0.003204,-0.003362,-0.003317,-0.003255,-0.003290,-0.003427,-0.003370,-0.003212,-0.003132,-0.003261,-0.003350,-0.003255,-0.003021,-0.002931,-0.003015,-0.003038,-0.002993,-0.002814,-0.002718,-0.002711,-0.002889,-0.003051,-0.002848,-0.002718,-0.002642,-0.002856,-0.003055,-0.003070,-0.003016,-0.002995,-0.003126,-0.003249,-0.003432,-0.003437,-0.003468,-0.003472,-0.003460,-0.003378,-0.003290,-0.003313,-0.003347,-0.003417,-0.003434,-0.003344,-0.003394,-0.003494,-0.003620,-0.003628,-0.003551,-0.003505,-0.003514,-0.003578,-0.003662,-0.003574,-0.003378,-0.003395,-0.003523,-0.003644,-0.003653,-0.003614,-0.003788,-0.003933,-0.004153,-0.004251,-0.004361,-0.004483,-0.004413,-0.004363,-0.004319,-0.004456,-0.004446,-0.004356,-0.004245,-0.004096,-0.004098,-0.004121,-0.004018,-0.003936,-0.003849,-0.003785,-0.003738,-0.003571,-0.003707,-0.003955,-0.004069,-0.003937,-0.003723,-0.003778,-0.003833,-0.003908,-0.003851,-0.003730,-0.003765,-0.003933,-0.004107,-0.004153,-0.004150,-0.004136,-0.004264,-0.004401,-0.004422,-0.004243,-0.004192,-0.004239,-0.004381,-0.004424,-0.004316,-0.004250,-0.004253,-0.004185,-0.004096,-0.004211,-0.004306,-0.004394,-0.004357,-0.004414,-0.004708,-0.004770,-0.004620,-0.004596,-0.004604,-0.004642,-0.004752,-0.004631,-0.004576,-0.004697,-0.004939,-0.005194,-0.005127,-0.005052,-0.005104,-0.005117,-0.005028,-0.004940,-0.004949,-0.004993,-0.005049,-0.004948,-0.004718,-0.004691,-0.004652,-0.004665,-0.004821,-0.004911,-0.004844,-0.004723,-0.004938,-0.005225,-0.005326,-0.005182,-0.004942,-0.004936,-0.005112,-0.005299,-0.005299,-0.005212,-0.005219,-0.005279,-0.005305,-0.005314,-0.005282,-0.005298,-0.005337,-0.005350,-0.005267,-0.005191,-0.005270,-0.005352,-0.005409,-0.005246,-0.005086,-0.005284,-0.005559,-0.005674,-0.005371,-0.004973,-0.004869,-0.005212,-0.005668,-0.005831,-0.005656,-0.005365,-0.005354,-0.005583,-0.005886,-0.006011,-0.006044,-0.005990,-0.005890,-0.006010,-0.006182,-0.006212,-0.006034,-0.005751,-0.005678,-0.005655,-0.005725,-0.005663,-0.005541,-0.005571,-0.005686,-0.005965,-0.006089,-0.006131,-0.006143,-0.005998,-0.006019,-0.006081,-0.006226,-0.006277,-0.006292,-0.006255,-0.006187,-0.006140,-0.006042,-0.006063,-0.006097,-0.006093,-0.006166,-0.006226,-0.006307,-0.006314,-0.006323,-0.006330,-0.006341,-0.006521,-0.006571,-0.006593,-0.006557,-0.006578,-0.006704,-0.006752,-0.006791,-0.006707,-0.006646,-0.006808,-0.006951,-0.007088,-0.006990,-0.006731,-0.006640,-0.006666,-0.006908,-0.006999,-0.006786,-0.006600,-0.006437,-0.006350,-0.006290,-0.006346,-0.006361,-0.006408,-0.006327,-0.006033,-0.006005,-0.006186,-0.006348,-0.006214,-0.005994,-0.005939,-0.006100,-0.006266,-0.006377,-0.006337,-0.006414,-0.006679,-0.006862,-0.007014,-0.006877,-0.006794,-0.006954,-0.006978,-0.007021,-0.007013,-0.006991,-0.006910,-0.006940,-0.006956,-0.006912,-0.006843,-0.006836,-0.006840,-0.006912,-0.006926,-0.006914,-0.006898,-0.006890,-0.006908,-0.006883,-0.006963,-0.007048,-0.007064,-0.007110,-0.007148,-0.007230,-0.007305,-0.007283,-0.007404,-0.007465,-0.007474,-0.007474,-0.007453,-0.007597,-0.007600,-0.007637,-0.007543,-0.007448,-0.007476,-0.007273,-0.007273,-0.007132,-0.006901,-0.006693,-0.006395,-0.006425,-0.006564,-0.006562,-0.006408,-0.006229,-0.006173,-0.006234,-0.006323,-0.006339,-0.006404,-0.006383,-0.006165,-0.006220,-0.006488,-0.006808,-0.007005,-0.007054,-0.007186,-0.007240,-0.007359,-0.007478,-0.007512,-0.007580,-0.007714,-0.007856,-0.007837,-0.007772,-0.007729,-0.007728,-0.007740,-0.007874,-0.007883,-0.007909,-0.007882,-0.007942,-0.008008,-0.007845,-0.007876,-0.007889,-0.007903,-0.007861,-0.007772,-0.007898,-0.007934,-0.008042,-0.008083,-0.008086,-0.008205,-0.008242,-0.008319,-0.008287,-0.008304,-0.008378,-0.008423,-0.008495,-0.008410,-0.008275,-0.008255,-0.008182,-0.008201,-0.008160,-0.007948,-0.007681,-0.007458,-0.007665,-0.007994,-0.007920,-0.007783,-0.007799,-0.007804,-0.007923,-0.007953,-0.007949,-0.007976,-0.007953,-0.007945,-0.007859,-0.007890,-0.007958,-0.008032,-0.008145,-0.008338,-0.008638,-0.008880,-0.008989,-0.009007,-0.009059,-0.009322,-0.009559,-0.009560,-0.009431,-0.009314,-0.009361,-0.009532,-0.009796,-0.009810,-0.009538,-0.009261,-0.009316,-0.009519,-0.009514,-0.009467,-0.009291,-0.009208,-0.009194,-0.009320,-0.009432,-0.009639,-0.009703,-0.009569,-0.009500,-0.009529,-0.009783,-0.009891,-0.009872,-0.009841,-0.009783,-0.009801,-0.009815,-0.009780,-0.009687,-0.009578,-0.009560,-0.009620,-0.009505,-0.009241,-0.008978,-0.009012,-0.009244,-0.009380,-0.009156,-0.009017,-0.009133,-0.009230,-0.009225,-0.009206,-0.009255,-0.009242,-0.009237,-0.009179,-0.009125,-0.009147,-0.009120,-0.009116,-0.009138,-0.009253,-0.009430,-0.009655,-0.009931,-0.010138,-0.010348,-0.010562,-0.010674,-0.010666,-0.010543,-0.010587,-0.010687,-0.010701,-0.010784,-0.010788,-0.010669,-0.010411,-0.010222,-0.010383,-0.010687,-0.010810,-0.010705,-0.010603,-0.010669,-0.010844,-0.011043,-0.011201,-0.011249,-0.011233,-0.011199,-0.011392,-0.011612,-0.011709,-0.011774,-0.011808,-0.012028,-0.012101,-0.012004,-0.011920,-0.011867,-0.011850,-0.011850,-0.011689,-0.011472,-0.011321,-0.011347,-0.011446,-0.011480,-0.011210,-0.011060,-0.011056,-0.011063,-0.011081,-0.011067,-0.011052,-0.011036,-0.010974,-0.010873,-0.010693,-0.010624,-0.010574,-0.010391,-0.010236,-0.010203,-0.010195,-0.010156,-0.010076,-0.009928,-0.009962,-0.010202,-0.010535,-0.010684,-0.010477,-0.010345,-0.010432,-0.010690,-0.010669,-0.010360,-0.010273,-0.010167,-0.010185,-0.010033,-0.010052,-0.010232,-0.010144,-0.010200,-0.010322,-0.010507,-0.010795,-0.010951,-0.010988,-0.010966,-0.011153,-0.011338,-0.011458,-0.011523,-0.011392,-0.011286,-0.011325,-0.011417,-0.011339,-0.011008,-0.010845,-0.010796,-0.010799,-0.010888,-0.010824,-0.011080,-0.011453,-0.011621,-0.011530,-0.011208,-0.011141,-0.011262,-0.011203,-0.010984,-0.010873,-0.010890,-0.010862,-0.010960,-0.011122,-0.011178,-0.011169,-0.011036,-0.010913,-0.010809,-0.010700,-0.010631,-0.010421,-0.010219,-0.009992,-0.009785,-0.009860,-0.009905,-0.009982,-0.009786,-0.009468,-0.009569,-0.009692,-0.009939,-0.009666,-0.009243,-0.009270,-0.009039,-0.009119,-0.009127,-0.009122,-0.009064,-0.008771,-0.008822,-0.008923,-0.009145,-0.009314,-0.009278,-0.009229,-0.009257,-0.009579,-0.009747,-0.009660,-0.009538,-0.009435,-0.009698,-0.009804,-0.009362,-0.008963,-0.008836,-0.009020,-0.009220,-0.009185,-0.009093,-0.009037,-0.009375,-0.009927,-0.010092,-0.010050,-0.009836,-0.009868,-0.009948,-0.009808,-0.009487,-0.009353,-0.009504,-0.009569,-0.009645,-0.009734,-0.009870,-0.010037,-0.010040,-0.009986,-0.009843,-0.009642,-0.009597,-0.009663,-0.009675,-0.009535,-0.009439,-0.009328,-0.009378,-0.009338,-0.009050,-0.008839,-0.008756,-0.008935,-0.008905,-0.008670,-0.008573,-0.008586,-0.008626,-0.008389,-0.008311,-0.008112,-0.008074,-0.008022,-0.008029,-0.007983,-0.007952,-0.007944,-0.008046,-0.008079,-0.008150,-0.008377,-0.008373,-0.008515,-0.008572,-0.008581,-0.008646,-0.008504,-0.008356,-0.008168,-0.007959,-0.008046,-0.008309,-0.008512,-0.008263,-0.007706,-0.007736,-0.008127,-0.008617,-0.008687,-0.008413,-0.008364,-0.008481,-0.008484,-0.008228,-0.008197,-0.008133,-0.008066,-0.008105,-0.008187,-0.008279,-0.008271,-0.008356,-0.008394,-0.008253,-0.008124,-0.008120,-0.008249,-0.008330,-0.008415,-0.008399,-0.008299,-0.008315,-0.008279,-0.008180,-0.007986,-0.007736,-0.007675,-0.007469,-0.007265,-0.007222,-0.007189,-0.007315,-0.007114,-0.006840,-0.006525,-0.006353,-0.006425,-0.006388,-0.006276,-0.005936,-0.005922,-0.006139,-0.006240,-0.006287,-0.006247,-0.006432,-0.006746,-0.006981,-0.006971,-0.006455,-0.006349,-0.006649,-0.006671,-0.006345,-0.005938,-0.006124,-0.006664,-0.006884,-0.006570,-0.006377,-0.006646,-0.007148,-0.007582,-0.007515,-0.007431,-0.007320,-0.007304,-0.007494,-0.007528,-0.007226,-0.007219,-0.007282,-0.007378,-0.007424,-0.007388,-0.007538,-0.007502,-0.007404,-0.007442,-0.007508,-0.007548,-0.007547,-0.007625,-0.007681,-0.007727,-0.007730,-0.007513,-0.007403,-0.007286,-0.007202,-0.007091,-0.006668,-0.006330,-0.006103,-0.006039,-0.006123,-0.006084,-0.005821,-0.005684,-0.005627,-0.005696,-0.005627,-0.005323,-0.005014,-0.005047,-0.005249,-0.005382,-0.005255,-0.005096,-0.005433,-0.005768,-0.006016,-0.005893,-0.005621,-0.005488,-0.005634,-0.005846,-0.005623,-0.005504,-0.005343,-0.005755,-0.006117,-0.005898,-0.005790,-0.006042,-0.006596,-0.006892,-0.006747,-0.006786,-0.006797,-0.006817,-0.006930,-0.006939,-0.006819,-0.006800,-0.006747,-0.006732,-0.006762,-0.006826,-0.006758,-0.006545,-0.006603,-0.006698,-0.006653,-0.006598,-0.006588,-0.006630,-0.006566,-0.006529,-0.006390,-0.006150,-0.006144,-0.005992,-0.005856,-0.005683,-0.005397,-0.005228,-0.005049,-0.004995,-0.004884,-0.004961,-0.004918,-0.004921,-0.004941,-0.005083,-0.005180,-0.005077,-0.004738,-0.004600,-0.004696,-0.004743,-0.004503,-0.004424,-0.004625,-0.004757,-0.004952,-0.004906,-0.004945,-0.004788,-0.004610,-0.004692,-0.004756,-0.004699,-0.004600,-0.004816,-0.005250,-0.005196,-0.004991,-0.005110,-0.005580,-0.005776,-0.005697,-0.005575,-0.005593,-0.005629,-0.005471,-0.005306,-0.005260,-0.005276,-0.005192,-0.005112,-0.005042,-0.004986,-0.004780,-0.004630,-0.004749,-0.004786,-0.004728,-0.004707,-0.004565,-0.004461,-0.004390,-0.004343,-0.004220,-0.003931,-0.003925,-0.003898,-0.003845,-0.003629,-0.003371,-0.003368,-0.003294,-0.003353,-0.003323,-0.003469,-0.003499,-0.003416,-0.003352,-0.003356,-0.003547,-0.003544,-0.003261,-0.003085,-0.003144,-0.003318,-0.003220,-0.003364,-0.003497,-0.003644,-0.003890,-0.003858,-0.003875,-0.003538,-0.003417,-0.003361,-0.003457,-0.003386,-0.003295,-0.003374,-0.003520,-0.003430,-0.003273,-0.003395,-0.003666,-0.003632,-0.003551,-0.003392,-0.003295,-0.003314,-0.003285,-0.003186,-0.002980,-0.002958,-0.002945,-0.002929,-0.002964,-0.002821,-0.002647,-0.002618,-0.002741,-0.002879,-0.002868,-0.002831,-0.002707,-0.002618,-0.002635,-0.002508,-0.002347,-0.002110,-0.002062,-0.002170,-0.002025,-0.001753,-0.001517,-0.001709,-0.001944,-0.001830,-0.001617,-0.001534,-0.001743,-0.001875,-0.001777,-0.001618,-0.001469,-0.001325,-0.001243,-0.001443,-0.001665,-0.001634,-0.001391,-0.001487,-0.001721,-0.001978,-0.001838,-0.001555,-0.001615,-0.001567,-0.001564,-0.001450,-0.001436,-0.001378,-0.001316,-0.001400,-0.001566,-0.001471,-0.001381,-0.001335,-0.001466,-0.001426,-0.001443,-0.001412,-0.001334,-0.001331,-0.001218,-0.001175,-0.001151,-0.001116,-0.001130,-0.001146,-0.001145,-0.001113,-0.000969,-0.000871,-0.000910,-0.000955,-0.000822,-0.000752,-0.000662,-0.000549,-0.000521,-0.000453,-0.000311,-0.000103,-0.000125,-0.000401,-0.000413,-0.000222,-0.000055,-0.000201,-0.000593,-0.000663,-0.000465,-0.000332,-0.000432,-0.000501,-0.000351,-0.000106,0.000207,0.000472,0.000339,0.000061,-0.000075,0.000102,0.000359,0.000190,-0.000104,-0.000365,-0.000034,0.000361,0.000273,0.000248,0.000097,0.000079,0.000139,0.000201,0.000297,0.000027,-0.000257,-0.000261,-0.000210,-0.000107,-0.000161,-0.000107,-0.000133,-0.000194,-0.000177,-0.000153,-0.000010,0.000078,0.000029,0.000158,0.000250,0.000277,0.000378,0.000469,0.000692,0.000694,0.000708,0.000804,0.000907,0.000989,0.000993,0.001035,0.001044,0.001049,0.001055,0.001000,0.001044,0.001004,0.000858,0.000683,0.000568,0.000740,0.000791,0.000638,0.000454,0.000305,0.000404,0.000596,0.000825,0.001098,0.001266,0.001359,0.001219,0.001069,0.001213,0.001349,0.001477,0.001292,0.000962,0.000889,0.000934,0.001199,0.001178,0.001031,0.000911,0.000759,0.000823,0.001069,0.001086,0.000806,0.000511,0.000613,0.000743,0.000788,0.000894,0.000965,0.000920,0.000860,0.000842,0.000933,0.000998,0.001108,0.001178,0.001162,0.001203,0.001228,0.001380,0.001579,0.001628,0.001589,0.001653,0.001748,0.001754,0.001706,0.001643,0.001612,0.001708,0.001730,0.001618,0.001522,0.001593,0.001736,0.001649,0.001397,0.001231,0.001301,0.001496,0.001493,0.001247,0.001101,0.001128,0.001241,0.001304,0.001330,0.001344,0.001373,0.001525,0.001449,0.001392,0.001421,0.001605,0.001641,0.001224,0.000904,0.000840,0.001032,0.001122,0.000663,0.000291,0.000230,0.000398,0.000719,0.000561,0.000265,0.000143,0.000310,0.000611,0.000645,0.000766,0.000743,0.000675,0.000656,0.000545,0.000553,0.000561,0.000708,0.000812,0.000743,0.000809,0.000920,0.001040,0.001176,0.001091,0.001086,0.001042,0.000984,0.000958,0.000852,0.000703,0.000551,0.000556,0.000511,0.000432,0.000354,0.000244,0.000189,0.000141,0.000089,0.000009,-0.000228,-0.000289,-0.000213,-0.000208,-0.000224,-0.000372,-0.000391,-0.000236,-0.000087,-0.000029,-0.000082,0.000076,0.000119,0.000059,0.000059,0.000105,0.000122,-0.000133,-0.000422,-0.000553,-0.000531,-0.000335,-0.000563,-0.000859,-0.000956,-0.000963,-0.000854,-0.000979,-0.000972,-0.000859,-0.000495,-0.000249,-0.000272,-0.000394,-0.000530,-0.000393,-0.000313,-0.000447,-0.000592,-0.000634,-0.000479,-0.000425,-0.000317,-0.000162,-0.000157,-0.000153,-0.000190,-0.000115,-0.000194,-0.000345,-0.000470,-0.000541,-0.000514,-0.000696,-0.000932,-0.001118,-0.001063,-0.000997,-0.001143,-0.001267,-0.001340,-0.001248,-0.001181,-0.001277,-0.001438,-0.001503,-0.001316,-0.001225,-0.001215,-0.001331,-0.001350,-0.001145,-0.000970,-0.000898,-0.000889,-0.000787,-0.000677,-0.000659,-0.000729,-0.000853,-0.000932,-0.000805,-0.000694,-0.000767,-0.000969,-0.001030,-0.000845,-0.000771,-0.000818,-0.001042,-0.001265,-0.001167,-0.001088,-0.001061,-0.000992,-0.001047,-0.001149,-0.001297,-0.001459,-0.001524,-0.001495,-0.001416,-0.001490,-0.001625,-0.001596,-0.001576,-0.001486,-0.001394,-0.001326,-0.001310,-0.001292,-0.001216,-0.001226,-0.001199,-0.001212,-0.001264,-0.001243,-0.001302,-0.001417,-0.001462,-0.001437,-0.001317,-0.001288,-0.001295,-0.001310,-0.001309,-0.001278,-0.001343,-0.001403,-0.001458,-0.001405,-0.001346,-0.001311,-0.001289,-0.001292,-0.001230,-0.001205,-0.001087,-0.000924,-0.000868,-0.000980,-0.001027,-0.001046,-0.001052,-0.001014,-0.001143,-0.001092,-0.001044,-0.001047,-0.001001,-0.001148,-0.001194,-0.001126,-0.001110,-0.001126,-0.001252,-0.001431,-0.001675,-0.001800,-0.001768,-0.001810,-0.001960,-0.002274,-0.002330,-0.002104,-0.001998,-0.001880,-0.002189,-0.002269,-0.002180,-0.002239,-0.002354,-0.002544,-0.002543,-0.002453,-0.002488,-0.002475,-0.002444,-0.002505,-0.002529,-0.002494,-0.002521,-0.002572,-0.002447,-0.002387,-0.002353,-0.002331,-0.002314,-0.002291,-0.002383,-0.002390,-0.002371,-0.002330,-0.002417,-0.002588,-0.002601,-0.002463,-0.002312,-0.002367,-0.002550,-0.002646,-0.002470,-0.002228,-0.002199,-0.002311,-0.002337,-0.002261,-0.002179,-0.002156,-0.002154,-0.002214,-0.002229,-0.002189,-0.002204,-0.002189,-0.002239,-0.002267,-0.002199,-0.002174,-0.002114,-0.002128,-0.002149,-0.002058,-0.001998,-0.002074,-0.002171,-0.002316,-0.002304,-0.002214,-0.002161,-0.002095,-0.002229,-0.002284,-0.002289,-0.002281,-0.002242,-0.002377,-0.002428,-0.002451,-0.002412,-0.002351,-0.002380,-0.002480,-0.002570,-0.002443,-0.002384,-0.002409,-0.002446,-0.002434,-0.002344,-0.002314,-0.002324,-0.002365,-0.002489,-0.002459,-0.002391,-0.002366,-0.002477,-0.002622,-0.002557,-0.002430,-0.002341,-0.002441,-0.002616,-0.002588,-0.002443,-0.002263,-0.002289,-0.002439,-0.002488,-0.002364,-0.002171,-0.002143,-0.002147,-0.002213,-0.002221,-0.002094,-0.002088,-0.002132,-0.002254,-0.002329,-0.002202,-0.002138,-0.002159,-0.002244,-0.002299,-0.002223,-0.002162,-0.002213,-0.002328,-0.002473,-0.002481,-0.002353,-0.002279,-0.002343,-0.002420,-0.002503,-0.002397,-0.002289,-0.002195,-0.002195,-0.002386,-0.002370,-0.002352,-0.002327,-0.002300,-0.002352,-0.002421,-0.002433,-0.002416,-0.002481,-0.002590,-0.002632,-0.002637,-0.002587,-0.002583,-0.002656,-0.002797,-0.002814,-0.002645,-0.002553,-0.002640,-0.002807,-0.002878,-0.002719,-0.002501,-0.002582,-0.002767,-0.002815,-0.002644,-0.002373,-0.002363,-0.002447,-0.002486,-0.002408,-0.002253,-0.002171,-0.002186,-0.002202,-0.002235,-0.002199,-0.002165,-0.002156,-0.002228,-0.002269,-0.002294,-0.002389,-0.002353,-0.002342,-0.002382,-0.002401,-0.002427,-0.002323,-0.002395,-0.002519,-0.002544,-0.002355,-0.002249,-0.002395,-0.002481,-0.002463,-0.002279,-0.002139,-0.002243,-0.002350,-0.002435,-0.002369,-0.002332,-0.002355,-0.002376,-0.002410,-0.002437,-0.002419,-0.002402,-0.002511,-0.002677,-0.002749,-0.002684,-0.002562,-0.002627,-0.002801,-0.002917,-0.002803,-0.002644,-0.002675,-0.002826,-0.002940,-0.002840,-0.002718,-0.002709,-0.002790,-0.002893,-0.002869,-0.002727,-0.002611,-0.002610,-0.002701,-0.002705,-0.002645,-0.002526,-0.002459,-0.002470,-0.002436,-0.002430,-0.002476,-0.002468,-0.002485,-0.002459,-0.002386,-0.002506,-0.002667,-0.002706,-0.002614,-0.002544,-0.002595,-0.002669,-0.002671,-0.002628,-0.002690,-0.002711,-0.002675,-0.002699,-0.002694,-0.002625,-0.002608,-0.002532,-0.002426,-0.002347,-0.002357,-0.002433,-0.002494,-0.002446,-0.002346,-0.002309,-0.002433,-0.002575,-0.002501,-0.002394,-0.002515,-0.002589,-0.002661,-0.002696,-0.002620,-0.002684,-0.002764,-0.002863,-0.002937,-0.002920,-0.002923,-0.002861,-0.002932,-0.003023,-0.003012,-0.002981,-0.002872,-0.002978,-0.003029,-0.002974,-0.002971,-0.002936,-0.002977,-0.002928,-0.002927,-0.002884,-0.002832,-0.002739,-0.002699,-0.002696,-0.002684,-0.002711,-0.002738,-0.002784,-0.002791,-0.002839,-0.002896,-0.002960,-0.003039,-0.003009,-0.003009,-0.002977,-0.002937,-0.002925,-0.002904,-0.002934,-0.002848,-0.002933,-0.002937,-0.002887,-0.002976,-0.002855,-0.002777,-0.002615,-0.002621,-0.002866,-0.003003,-0.003002,-0.002822,-0.002767,-0.002824,-0.002905,-0.002918,-0.002903,-0.003038,-0.002985,-0.003046,-0.003154,-0.003062,-0.003031,-0.003002,-0.003062,-0.003178,-0.003153,-0.003125,-0.003052,-0.003132,-0.003212,-0.003120,-0.003026,-0.002967,-0.003097,-0.003164,-0.003053,-0.003002,-0.002977,-0.003034,-0.003059,-0.003139,-0.003126,-0.003042,-0.002955,-0.002982,-0.002985,-0.002937,-0.002932,-0.002971,-0.003041,-0.003103,-0.003169,-0.003128,-0.003199,-0.003241,-0.003237,-0.003267,-0.003208,-0.003202,-0.003078,-0.002977,-0.002932,-0.002931,-0.003028,-0.003151,-0.003198,-0.003065,-0.002976,-0.003045,-0.003141,-0.003248,-0.003221,-0.003283,-0.003296,-0.003264,-0.003216,-0.003088,-0.003076,-0.003169,-0.003321,-0.003425,-0.003392,-0.003412,-0.003508,-0.003454,-0.003409,-0.003410,-0.003434,-0.003551,-0.003562,-0.003538,-0.003529,-0.003565,-0.003635,-0.003589,-0.003508,-0.003518,-0.003553,-0.003583,-0.003487,-0.003401,-0.003407,-0.003476,-0.003561,-0.003594,-0.003482,-0.003340,-0.003363,-0.003474,-0.003478,-0.003415,-0.003420,-0.003481,-0.003540,-0.003605,-0.003680,-0.003721,-0.003774,-0.003826,-0.003925,-0.004001,-0.004033,-0.003940,-0.003787,-0.003678,-0.003713,-0.003905,-0.003932,-0.003997,-0.003953,-0.003887,-0.003927,-0.003948,-0.004059,-0.004029,-0.004004,-0.004072,-0.004107,-0.004275,-0.004306,-0.004268,-0.004309,-0.004431,-0.004570,-0.004605,-0.004570,-0.004590,-0.004688,-0.004801,-0.004829,-0.004865,-0.005000,-0.005101,-0.005247,-0.005199,-0.005126,-0.005324,-0.005275,-0.005602,-0.005468,-0.005412,-0.005680,-0.005581,-0.005997,-0.005866,-0.005789,-0.005862,-0.005992,-0.006141,-0.006210,-0.006308,-0.006201,-0.006190,-0.006215,-0.006216,-0.006122,-0.006000,-0.005951,-0.005965