-0.002053,,-0.001917,-0.001875,-0.001794,-0.001707,-0.001679,-0.001776,-0.001756,-0.001792,-0.001800,-0.001925,-0.002086,-0.002097,-0.002109,-0.002089,-0.002078,-0.002071,-0.002053,-0.002018,-0.001987,-0.002000,-0.002028,-0.002056,-0.002078,-0.002061,-0.002001,-0.001943,-0.001901,-0.001881,-0.001861,-0.001844,-0.001804,-0.001778,-0.001777,-0.001773,-0.001778,-0.001753,-0.001748,-0.001760,-0.001755,-0.001764,-0.001702,-0.001705,-0.001739,-0.001727,-0.001712,-0.001563,-0.001562,-0.001600,-0.001612,-0.001603,-0.001408,-0.001370,-0.001370,-0.001379,-0.001358,-0.001170,-0.001224,-0.001264,-0.001458,-0.001553,-0.001496,-0.001458,-0.001384,-0.001350,-0.001307,-0.001180,-0.001069,-0.001084,-0.001137,-0.001164,-0.001127,-0.001180,-0.001333,-0.001520,-0.001651,-0.001650,-0.001645,-0.001673,-0.001687,-0.001645,-0.001604,-0.001551,-0.001498,-0.001466,-0.001482,-0.001510,-0.001537,-0.001562,-0.001506,-0.001475,-0.001423,-0.001375,-0.001348,-0.001337,-0.001328,-0.001296,-0.001263,-0.001272,-0.001291,-0.001301,-0.001277,-0.001232,-0.001245,-0.001281,-0.001299,-0.001251,-0.001157,-0.001161,-0.001194,-0.001214,-0.001129,-0.000989,-0.000996,-0.001022,-0.001054,-0.000950,-0.000764,-0.000727,-0.000795,-0.000979,-0.001016,-0.000916,-0.000927,-0.001037,-0.001233,-0.001245,-0.001042,-0.000817,-0.000793,-0.000882,-0.000876,-0.000758,-0.000597,-0.000618,-0.000782,-0.000893,-0.000950,-0.000979,-0.001091,-0.001202,-0.001219,-0.001170,-0.001128,-0.001126,-0.001100,-0.001038,-0.000970,-0.000907,-0.000878,-0.000937,-0.000963,-0.000989,-0.000979,-0.000929,-0.000901,-0.000850,-0.000807,-0.000777,-0.000775,-0.000777,-0.000746,-0.000719,-0.000715,-0.000754,-0.000779,-0.000740,-0.000706,-0.000702,-0.000765,-0.000804,-0.000725,-0.000625,-0.000551,-0.000604,-0.000629,-0.000525,-0.000423,-0.000319,-0.000391,-0.000424,-0.000295,-0.000178,-0.000099,-0.000293,-0.000477,-0.000455,-0.000385,-0.000318,-0.000541,-0.000621,-0.000482,-0.000201,0.000010,-0.000175,-0.000330,-0.000187,0.000114,0.000221,-0.000118,-0.000433,-0.000550,-0.000441,-0.000423,-0.000550,-0.000697,-0.000712,-0.000661,-0.000610,-0.000566,-0.000507,-0.000442,-0.000373,-0.000314,-0.000319,-0.000365,-0.000383,-0.000390,-0.000371,-0.000304,-0.000260,-0.000212,-0.000167,-0.000139,-0.000145,-0.000145,-0.000085,-0.000048,-0.000052,-0.000070,-0.000065,0.000009,0.000059,0.000060,0.000002,0.000005,0.000164,0.000295,0.000356,0.000284,0.000262,0.000402,0.000557,0.000638,0.000559,0.000543,0.000656,0.000822,0.000931,0.000760,0.000628,0.000549,0.000565,0.000546,0.000486,0.000448,0.000537,0.000724,0.000778,0.000784,0.000729,0.000701,0.000771,0.000642,0.000487,0.000470,0.000475,0.000340,0.000210,0.000110,0.000066,0.000080,0.000103,0.000145,0.000180,0.000230,0.000296,0.000356,0.000414,0.000411,0.000364,0.000334,0.000324,0.000328,0.000338,0.000369,0.000418,0.000480,0.000500,0.000499,0.000554,0.000619,0.000672,0.000683,0.000670,0.000718,0.000788,0.000862,0.000858,0.000820,0.000916,0.001049,0.001190,0.001188,0.001121,0.001217,0.001386,0.001587,0.001591,0.001520,0.001574,0.001747,0.002022,0.001935,0.001678,0.001497,0.001488,0.001615,0.001525,0.001302,0.001251,0.001409,0.001608,0.001672,0.001384,0.001081,0.001251,0.001467,0.001493,0.001543,0.001638,0.001601,0.001509,0.001369,0.001275,0.001267,0.001294,0.001310,0.001311,0.001344,0.001400,0.001429,0.001472,0.001514,0.001492,0.001449,0.001425,0.001374,0.001364,0.001408,0.001453,0.001519,0.001567,0.001580,0.001617,0.001656,0.001708,0.001747,0.001748,0.001771,0.001820,0.001889,0.001935,0.001912,0.001946,0.002050,0.002165,0.002234,0.002194,0.002231,0.002359,0.002505,0.002585,0.002553,0.002584,0.002698,0.002912,0.002960,0.002808,0.002699,0.002592,0.002670,0.002648,0.002525,0.002476,0.002432,0.002573,0.002731,0.002692,0.002405,0.002279,0.002450,0.002626,0.002845,0.003054,0.003012,0.002870,0.002731,0.002699,0.002739,0.002734,0.002752,0.002753,0.002753,0.002793,0.002828,0.002871,0.002897,0.002921,0.002920,0.002860,0.002819,0.002790,0.002823,0.002877,0.002940,0.002999,0.003042,0.003070,0.003095,0.003135,0.003178,0.003223,0.003243,0.003276,0.003333,0.003389,0.003438,0.003449,0.003510,0.003610,0.003707,0.003779,0.003771,0.003832,0.003930,0.004028,0.004112,0.004141,0.004204,0.004326,0.004438,0.004462,0.004404,0.004280,0.004212,0.004163,0.004149,0.004183,0.004155,0.004226,0.004290,0.004454,0.004310,0.003980,0.003997,0.004159,0.004356,0.004484,0.004457,0.004296,0.004117,0.004070,0.004120,0.004160,0.004166,0.004175,0.004165,0.004189,0.004231,0.004252,0.004270,0.004276,0.004302,0.004318,0.004238,0.004167,0.004091,0.004096,0.004169,0.004203,0.004221,0.004205,0.004193,0.004249,0.004265,0.004297,0.004286,0.004288,0.004386,0.004424,0.004492,0.004472,0.004484,0.004649,0.004713,0.004832,0.004776,0.004829,0.005072,0.005124,0.005234,0.005160,0.005191,0.005402,0.005423,0.005403,0.005124,0.005039,0.005190,0.005187,0.005084,0.004890,0.004843,0.005119,0.005306,0.005365,0.005248,0.004908,0.004924,0.005011,0.005156,0.005229,0.005158,0.005240,0.005099,0.005113,0.005100,0.005059,0.005120,0.005161,0.005210,0.005210,0.005183,0.005222,0.005256,0.005297,0.005320,0.005347,0.005341,0.005289,0.005227,0.005132,0.005146,0.005206,0.005219,0.005227,0.005249,0.005251,0.005290,0.005273,0.005293,0.005301,0.005361,0.005412,0.005397,0.005444,0.005516,0.005622,0.005719,0.005706,0.005749,0.005861,0.006059,0.006198,0.006179,0.006197,0.006308,0.006503,0.006637,0.006493,0.006304,0.006163,0.006261,0.006380,0.006290,0.006177,0.006027,0.006206,0.006396,0.006433,0.006412,0.006041,0.005780,0.005669,0.005732,0.005957,0.006021,0.006134,0.005959,0.005922,0.005957,0.006004,0.006033,0.006026,0.006042,0.006107,0.006164,0.006227,0.006221,0.006205,0.006279,0.006328,0.006374,0.006317,0.006231,0.006205,0.006165,0.006225,0.006245,0.006263,0.006322,0.006309,0.006393,0.006426,0.006494,0.006559,0.006559,0.006615,0.006659,0.006790,0.006929,0.006970,0.007037,0.007081,0.007263,0.007423,0.007453,0.007555,0.007610,0.007809,0.007972,0.008012,0.008087,0.008120,0.008157,0.008049,0.007787,0.007792,0.007888,0.007968,0.007854,0.007601,0.007598,0.007775,0.007823,0.007616,0.007104,0.006801,0.006790,0.007058,0.007210,0.007250,0.007189,0.007091,0.007147,0.007215,0.007240,0.007232,0.007272,0.007432,0.007537,0.007590,0.007547,0.007550,0.007717,0.007872,0.007991,0.007899,0.007816,0.007922,0.007957,0.007939,0.007824,0.007730,0.007786,0.007842,0.007894,0.007888,0.007940,0.008089,0.008150,0.008227,0.008294,0.008388,0.008608,0.008730,0.008835,0.008920,0.009061,0.009302,0.009439,0.009613,0.009725,0.009903,0.010158,0.010297,0.010399,0.010397,0.010463,0.010465,0.010321,0.010200,0.010152,0.010257,0.010230,0.010099,0.010002,0.009986,0.010032,0.009910,0.009651,0.009300,0.009049,0.009196,0.009447,0.009618,0.009707,0.009737,0.009668,0.009704,0.009775,0.009815,0.009898,0.010064,0.010182,0.010173,0.010126,0.010158,0.010227,0.010310,0.010315,0.010144,0.010054,0.010081,0.010067,0.009944,0.009681,0.009504,0.009530,0.009662,0.009726,0.009667,0.009636,0.009743,0.009930,0.010039,0.010105,0.010075,0.010215,0.010382,0.010514,0.010715,0.010821,0.011093,0.011317,0.011503,0.011689,0.011814,0.012072,0.012250,0.012391,0.012389,0.012377,0.012408,0.012372,0.012284,0.012186,0.012208,0.012264,0.012289,0.012225,0.012067,0.012144,0.012291,0.012240,0.011957,0.011580,0.011435,0.011641,0.011954,0.012161,0.012276,0.012394,0.012600,0.012745,0.012865,0.012893,0.012962,0.012998,0.012916,0.012876,0.012857,0.012864,0.012864,0.012806,0.012735,0.012723,0.012733,0.012622,0.012462,0.012311,0.012189,0.012179,0.012172,0.012155,0.012136,0.012167,0.012131,0.012062,0.011962,0.012017,0.012073,0.012076,0.012024,0.011911,0.012071,0.012281,0.012407,0.012415,0.012322,0.012533,0.012764,0.012973,0.013027,0.012927,0.012944,0.012977,0.012994,0.012961,0.012812,0.012786,0.012812,0.012911,0.013043,0.012978,0.012838,0.012821,0.013106,0.013341,0.013254,0.013037,0.012716,0.012677,0.013010,0.013320,0.013487,0.013686,0.013855,0.013984,0.014119,0.014129,0.014103,0.014100,0.014048,0.014034,0.014003,0.013979,0.013979,0.013934,0.013912,0.013894,0.013871,0.013808,0.013664,0.013521,0.013424,0.013324,0.013367,0.013338,0.013290,0.013295,0.013245,0.013289,0.013206,0.013170,0.013213,0.013250,0.013428,0.013333,0.013261,0.013268,0.013308,0.013484,0.013362,0.013313,0.013420,0.013594,0.013806,0.013540,0.013345,0.013375,0.013457,0.013658,0.013402,0.013155,0.013125,0.013218,0.013625,0.013543,0.013370,0.013246,0.013276,0.013673,0.013685,0.013545,0.013332,0.013156,0.013219,0.013342,0.013680,0.013954,0.014167,0.014188,0.014188,0.014142,0.014109,0.014102,0.014065,0.014025,0.013962,0.013917,0.013823,0.013733,0.013665,0.013582,0.013516,0.013433,0.013280,0.013068,0.012876,0.012701,0.012526,0.012524,0.012504,0.012494,0.012412,0.012320,0.012334,0.012391,0.012431,0.012373,0.012277,0.012265,0.012262,0.012296,0.012254,0.012205,0.012171,0.012116,0.012202,0.012220,0.012192,0.012026,0.011810,0.011813,0.011759,0.011766,0.011581,0.011306,0.011210,0.011159,0.011304,0.011236,0.011136,0.011002,0.010890,0.010922,0.010986,0.010943,0.010819,0.010679,0.010572,0.010544,0.010667,0.010997,0.011319,0.011581,0.011656,0.011649,0.011684,0.011751,0.011753,0.011789,0.011816,0.011840,0.011775,0.011640,0.011589,0.011582,0.011627,0.011596,0.011459,0.011320,0.011198,0.011165,0.010996,0.010808,0.010651,0.010586,0.010643,0.010624,0.010547,0.010451,0.010394,0.010387,0.010282,0.010219,0.010145,0.010123,0.010177,0.010120,0.010032,0.009921,0.009952,0.009941,0.009810,0.009527,0.009399,0.009402,0.009375,0.009311,0.009071,0.008987,0.008941,0.009018,0.009019,0.008837,0.009049,0.009019,0.008967,0.008775,0.008573,0.008740,0.008695,0.008637,0.008459,0.008131,0.008122,0.008234,0.008517,0.008683,0.008887,0.008965,0.008899,0.008931,0.008898,0.008875,0.008957,0.009031,0.009154,0.009104,0.009128,0.009185,0.009299,0.009428,0.009368,0.009390,0.009397,0.009489,0.009439,0.009332,0.009357,0.009414,0.009513,0.009485,0.009449,0.009399,0.009399,0.009375,0.009313,0.009192,0.009128,0.009134,0.009170,0.009120,0.008895,0.008716,0.008668,0.008689,0.008705,0.008497,0.008341,0.008238,0.008234,0.008161,0.007890,0.007797,0.007810,0.007857,0.007844,0.007700,0.007794,0.008030,0.007979,0.007600,0.007154,0.007180,0.007549,0.007632,0.007395,0.006917,0.006813,0.007106,0.007463,0.007656,0.007721,0.007853,0.007988,0.008144,0.008136,0.008036,0.008062,0.008166,0.008310,0.008306,0.008298,0.008297,0.008416,0.008567,0.008501,0.008363,0.008273,0.008376,0.008428,0.008382,0.008327,0.008304,0.008446,0.008598,0.008663,0.008652,0.008663,0.008720,0.008773,0.008776,0.008719,0.008653,0.008704,0.008742,0.008671,0.008511,0.008341,0.008326,0.008370,0.008238,0.008067,0.007885,0.007875,0.007927,0.007903,0.007746,0.007558,0.007670,0.007892,0.007990,0.007878,0.007851,0.007844,0.007805,0.007641,0.007511,0.007553,0.007712,0.007790,0.007617,0.007397,0.007288,0.007654,0.007942,0.008192,0.008364,0.008435,0.008462,0.008544,0.008555,0.008411,0.008312,0.008365,0.008491,0.008615,0.008520,0.008443,0.008514,0.008550,0.008541,0.008434,0.008433,0.008486,0.008537,0.008494,0.008260,0.008179,0.008210,0.008234,0.008196,0.008068,0.008032,0.008045,0.008145,0.008200,0.008115,0.008104,0.008043,0.008000,0.007937,0.007875,0.007904,0.007898,0.007835,0.007676,0.007628,0.007674,0.007762,0.007815,0.007644,0.007505,0.007557,0.007752,0.007816,0.007636,0.007464,0.007399,0.007666,0.007708,0.007517,0.007269,0.007176,0.007523,0.007521,0.007262,0.007045,0.007117,0.007414,0.007714,0.007819,0.007772,0.007864,0.008008,0.007994,0.007800,0.007623,0.007618,0.007782,0.007890,0.007744,0.007594,0.007603,0.007699,0.007697,0.007569,0.007492,0.007423,0.007466,0.007390,0.007191,0.007159,0.007122,0.007157,0.007146,0.007128,0.007206,0.007252,0.007373,0.007342,0.007386,0.007452,0.007421,0.007380,0.007259,0.007172,0.007162,0.007119,0.007087,0.006896,0.006812,0.006803,0.006802,0.006797,0.006614,0.006479,0.006407,0.006426,0.006512,0.006403,0.006265,0.006129,0.006162,0.006300,0.006208,0.006026,0.005788,0.005864,0.006043,0.005939,0.006029,0.005900,0.005737,0.005756,0.005927,0.006204,0.006460,0.006697,0.006662,0.006550,0.006458,0.006457,0.006480,0.006493,0.006432,0.006445,0.006484,0.006470,0.006402,0.006325,0.006385,0.006403,0.006406,0.006318,0.006223,0.006330,0.006409,0.006491,0.006481,0.006487,0.006632,0.006727,0.006781,0.006665,0.006642,0.006587,0.006497,0.006422,0.006345,0.006223,0.006127,0.006045,0.005982,0.005886,0.005727,0.005646,0.005605,0.005611,0.005541,0.005413,0.005442,0.005480,0.005559,0.005399,0.005117,0.005072,0.005025,0.005078,0.004993,0.004741,0.004645,0.004573,0.004645,0.004654,0.004667,0.004614,0.004388,0.004208,0.004389,0.004649,0.004961,0.005187,0.005380,0.005367,0.005319,0.005342,0.005327,0.005306,0.005292,0.005263,0.005300,0.005266,0.005258,0.005180,0.005118,0.005169,0.005200,0.005215,0.005108,0.004948,0.004975,0.005006,0.005062,0.004995,0.004951,0.005033,0.005047,0.005032,0.004867,0.004662,0.004499,0.004342,0.004304,0.004211,0.004069,0.003957,0.003863,0.003919,0.003865,0.003781,0.003741,0.003768,0.003903,0.004034,0.004223,0.004245,0.004288,0.004222,0.004114,0.004068,0.003980,0.003953,0.003843,0.003681,0.003473,0.003182,0.003016,0.003076,0.003199,0.003085,0.002965,0.002687,0.002501,0.002711,0.002993,0.003294,0.003481,0.003577,0.003472,0.003411,0.003391,0.003318,0.003217,0.003103,0.003032,0.003012,0.002956,0.002921,0.002823,0.002796,0.002859,0.002930,0.002989,0.002920,0.002889,0.002869,0.002933,0.003011,0.003018,0.003109,0.003062,0.003017,0.003002,0.002985,0.002973,0.002847,0.002746,0.002661,0.002600,0.002631,0.002588,0.002565,0.002524,0.002394,0.002420,0.002366,0.002304,0.002388,0.002502,0.002562,0.002555,0.002447,0.002479,0.002369,0.002393,0.002204,0.001889,0.001730,0.001503,0.001343,0.001167,0.001192,0.001398,0.001336,0.001213,0.001002,0.000820,0.000849,0.001015,0.001199,0.001346,0.001540,0.001670,0.001597,0.001501,0.001390,0.001340,0.001377,0.001380,0.001379,0.001303,0.001343,0.001451,0.001579,0.001679,0.001634,0.001639,0.001764,0.001889,0.001924,0.001873,0.001946,0.002097,0.002257,0.002197,0.001997,0.001810,0.001695,0.001671,0.001571,0.001461,0.001228,0.001151,0.001250,0.001262,0.001253,0.001017,0.000811,0.000897,0.001017,0.001076,0.000948,0.000970,0.000970,0.001139,0.001346,0.001429,0.001368,0.001317,0.001362,0.001468,0.001466,0.001446,0.001349,0.001147,0.000924,0.000854,0.000947,0.000914,0.000774,0.000581,0.000503,0.000610,0.000760,0.000924,0.001007,0.001096,0.001150,0.001187,0.001235,0.001176,0.001126,0.001153,0.001256,0.001284,0.001226,0.001179,0.001225,0.001368,0.001442,0.001334,0.001288,0.001408,0.001458,0.001472,0.001418,0.001469,0.001640,0.001757,0.001755,0.001552,0.001396,0.001439,0.001415,0.001374,0.001181,0.001055,0.001166,0.001260,0.001272,0.001111,0.001029,0.001125,0.001226,0.001266,0.001145,0.001194,0.001294,0.001444,0.001523,0.001552,0.001574,0.001671,0.001780,0.001772,0.001666,0.001533,0.001534,0.001531,0.001419,0.001229,0.001168,0.001285,0.001353,0.001255,0.001045,0.000998,0.001111,0.001236,0.001259,0.001252,0.001297,0.001241,0.001215,0.001146,0.001076,0.001045,0.001061,0.001073,0.001010,0.000929,0.000979,0.001048,0.001131,0.001053,0.001028,0.001205,0.001404,0.001469,0.001393,0.001362,0.001497,0.001606,0.001615,0.001461,0.001388,0.001443,0.001347,0.001168,0.000915,0.000809,0.000929,0.000904,0.000762,0.000570,0.000474,0.000604,0.000632,0.000593,0.000473,0.000533,0.000642,0.000713,0.000680,0.000624,0.000587,0.000690,0.000774,0.000773,0.000688,0.000579,0.000619,0.000674,0.000659,0.000567,0.000425,0.000467,0.000603,0.000720,0.000717,0.000615,0.000561,0.000650,0.000765,0.000879,0.000996,0.001064,0.001158,0.001184,0.001242,0.001287,0.001327,0.001415,0.001479,0.001516,0.001582,0.001628,0.001693,0.001707,0.001777,0.001842,0.001858,0.001842,0.001752,0.001790,0.001918,0.001938,0.001800,0.001552,0.001474,0.001506,0.001329,0.001056,0.000754,0.000747,0.000907,0.000813,0.000526,0.000281,0.000335,0.000577,0.000571,0.000413,0.000258,0.000445,0.000649,0.000695,0.000624,0.000629,0.000686,0.000857,0.000944,0.000987,0.000994,0.001030,0.001089,0.001069,0.001060,0.001106,0.001055,0.000999,0.000970,0.001075,0.001243,0.001262,0.001158,0.001038,0.001041,0.001130,0.001290,0.001377,0.001292,0.001240,0.001276,0.001314,0.001261,0.001275,0.001276,0.001315,0.001408,0.001421,0.001341,0.001289,0.001317,0.001419,0.001412,0.001336,0.001280,0.001375,0.001593,0.001654,0.001528,0.001299,0.001222,0.001235,0.001042,0.000765,0.000497,0.000490,0.000569,0.000406,0.000212,0.000080,0.000164,0.000296,0.000200,0.000028,-0.000103,0.000117,0.000313,0.000374,0.000324,0.000309,0.000446,0.000613,0.000664,0.000686,0.000758,0.000873,0.000939,0.000964,0.000963,0.000978,0.000955,0.000820,0.000677,0.000643,0.000694,0.000661,0.000565,0.000466,0.000513,0.000626,0.000699,0.000780,0.000803,0.000782,0.000817,0.000879,0.000838,0.000804,0.000788,0.000836,0.000977,0.001048,0.001053,0.001098,0.001195,0.001267,0.001296,0.001266,0.001309,0.001418,0.001498,0.001513,0.001457,0.001324,0.001214,0.001093,0.000921,0.000817,0.000816,0.000815,0.000700,0.000476,0.000272,0.000225,0.000218,0.000111,-0.000100,-0.000269,-0.000358,-0.000375,-0.000319,-0.000388,-0.000531,-0.000623,-0.000535,-0.000437,-0.000528,-0.000576,-0.000637,-0.000564,-0.000485,-0.000528,-0.000607,-0.000626,-0.000526,-0.000569,-0.000700,-0.000755,-0.000691,-0.000608,-0.000632,-0.000683,-0.000518,-0.000293,-0.000229,-0.000191,-0.000010,0.000176,0.000256,0.000233,0.000274,0.000207,0.000116,0.000032,0.000054,0.000093,0.000148,0.000211,0.000253,0.000291,0.000390,0.000591,0.000785,0.000946,0.001060,0.001157,0.001268,0.001252,0.001202,0.001071,0.000888,0.000774,0.000733,0.000726,0.000624,0.000497,0.000323,0.000200,0.000087,-0.000058,-0.000187,-0.000300,-0.000431,-0.000649,-0.000749,-0.000874,-0.001045,-0.001155,-0.001160,-0.001136,-0.001215,-0.001228,-0.001303,-0.001323,-0.001296,-0.001363,-0.001408,-0.001408,-0.001244,-0.001056,-0.001033,-0.000996,-0.001014,-0.000960,-0.000876,-0.000868,-0.000788,-0.000926,-0.001064,-0.001195,-0.001122,-0.000755,-0.000733,-0.001040,-0.001253,-0.001316,-0.001343,-0.001295,-0.001211,-0.001119,-0.001049,-0.000949,-0.000955,-0.000830,-0.000679,-0.000515,-0.000366,-0.000197,0.000034,0.000229,0.000372,0.000443,0.000515,0.000615,0.000597,0.000438,0.000224,0.000073,0.000129,0.000159,0.000088,-0.000048,-0.000200,-0.000210,-0.000139,-0.000089,-0.000155,-0.000367,-0.000581,-0.000661,-0.000763,-0.000795,-0.000839,-0.000951,-0.001051,-0.001083,-0.000992,-0.001080,-0.001223,-0.001252,-0.001271,-0.001317,-0.001466,-0.001370,-0.001179,-0.001096,-0.001185,-0.001434,-0.001351,-0.001105,-0.001114,-0.001438,-0.001798,-0.001709,-0.001603,-0.001530,-0.001563,-0.001692,-0.001838,-0.002051,-0.002126,-0.002027,-0.001881,-0.001695,-0.001534,-0.001301,-0.001143,-0.001018,-0.000914,-0.000946,-0.001047,-0.000993,-0.000796,-0.000597,-0.000484,-0.000371,-0.000220,-0.000016,0.000171,0.000183,0.000087,-0.000001,-0.000036,-0.000082,-0.000175,-0.000274,-0.000363,-0.000388,-0.000284,-0.000203,-0.000254,-0.000389,-0.000576,-0.000600,-0.000614,-0.000637,-0.000778,-0.000936,-0.000904,-0.000940,-0.000921,-0.001105,-0.001412,-0.001500,-0.001577,-0.001536,-0.001690,-0.001887,-0.001837,-0.001684,-0.001487,-0.001620,-0.001977,-0.001966,-0.001666,-0.001655,-0.001900,-0.002212,-0.002166,-0.002023,-0.001844,-0.001678,-0.001848,-0.002215,-0.002125,-0.001667,-0.001229,-0.001129,-0.001305,-0.001298,-0.001086,-0.000967,-0.001021,-0.001077,-0.001195,-0.001439,-0.001272,-0.001158,-0.001172,-0.001231,-0.001383,-0.001192,-0.001042,-0.000877,-0.000900,-0.001006,-0.000945,-0.001044,-0.001146,-0.001261,-0.001433,-0.001470,-0.001523,-0.001386,-0.001453,-0.001640,-0.001881,-0.002148,-0.002225,-0.002337,-0.002474,-0.002689,-0.002916,-0.002797,-0.002771,-0.002752,-0.002905,-0.002947,-0.002742,-0.002585,-0.002440,-0.002624,-0.002685,-0.002461,-0.002245,-0.002198,-0.002598,-0.002859,-0.002632,-0.002389,-0.002510,-0.002871,-0.003103,-0.003143,-0.003272,-0.003186,-0.003207,-0.003209,-0.002956,-0.002840,-0.002634,-0.002531,-0.002404,-0.002204,-0.002251,-0.002283,-0.002259,-0.002136,-0.002058,-0.002205,-0.002322,-0.002557,-0.002537,-0.002380,-0.002291,-0.002414,-0.002753,-0.002793,-0.002533,-0.002283,-0.002181,-0.002342,-0.002505,-0.002591,-0.002534,-0.002483,-0.002627,-0.002705,-0.002844,-0.002940,-0.003060,-0.003150,-0.003145,-0.003162,-0.003171,-0.003247,-0.003367,-0.003251,-0.003104,-0.002887,-0.002768,-0.002755,-0.002708,-0.002723,-0.002683,-0.002764,-0.002876,-0.002965,-0.003095,-0.003033,-0.003103,-0.003110,-0.003203,-0.003307,-0.003446,-0.003789,-0.003966,-0.003963,-0.003913,-0.003978,-0.004109,-0.004021,-0.003746,-0.003597,-0.003591,-0.003711,-0.003564,-0.003205,-0.003046,-0.003161,-0.003235,-0.003302,-0.003178,-0.003129,-0.003153,-0.003401,-0.003668,-0.003606,-0.003553,-0.003678,-0.004003,-0.004185,-0.003854,-0.003512,-0.003309,-0.003416,-0.003485,-0.003575,-0.003466,-0.003498,-0.003662,-0.003860,-0.003973,-0.003984,-0.004097,-0.004140,-0.004188,-0.004171,-0.004018,-0.003951,-0.003930,-0.004016,-0.003993,-0.003862,-0.003814,-0.003928,-0.004019,-0.004069,-0.003955,-0.003724,-0.003831,-0.003924,-0.004095,-0.004176,-0.004269,-0.004481,-0.004667,-0.004955,-0.005056,-0.005216,-0.005280,-0.005180,-0.005068,-0.004981,-0.005015,-0.004915,-0.004751,-0.004638,-0.004420,-0.004366,-0.004257,-0.004058,-0.004016,-0.003989,-0.003959,-0.004037,-0.003959,-0.004153,-0.004493,-0.004770,-0.004791,-0.004671,-0.004768,-0.005071,-0.005321,-0.005279,-0.004921,-0.004834,-0.004838,-0.004871,-0.004834,-0.004789,-0.004773,-0.004916,-0.005082,-0.005174,-0.005085,-0.005073,-0.005126,-0.005221,-0.005203,-0.005083,-0.004966,-0.004907,-0.004837,-0.004736,-0.004921,-0.005083,-0.005242,-0.005273,-0.005232,-0.005336,-0.005282,-0.005093,-0.005043,-0.005052,-0.005044,-0.005197,-0.005169,-0.005157,-0.005377,-0.005712,-0.006000,-0.005895,-0.005838,-0.005844,-0.005919,-0.005868,-0.005763,-0.005729,-0.005676,-0.005667,-0.005461,-0.005060,-0.004791,-0.004647,-0.004680,-0.004935,-0.005128,-0.005175,-0.005184,-0.005481,-0.005837,-0.005992,-0.005970,-0.005870,-0.006066,-0.006465,-0.006714,-0.006564,-0.006326,-0.006374,-0.006471,-0.006488,-0.006457,-0.006368,-0.006333,-0.006310,-0.006248,-0.006159,-0.006090,-0.006146,-0.006194,-0.006202,-0.005982,-0.005802,-0.005917,-0.006148,-0.006237,-0.005994,-0.005700,-0.005702,-0.006168,-0.006714,-0.006879,-0.006631,-0.006228,-0.006069,-0.006142,-0.006384,-0.006435,-0.006459,-0.006401,-0.006289,-0.006516,-0.006725,-0.006849,-0.006662,-0.006452,-0.006419,-0.006581,-0.006809,-0.006841,-0.006693,-0.006638,-0.006672,-0.006859,-0.006838,-0.006713,-0.006644,-0.006489,-0.006534,-0.006584,-0.006772,-0.006911,-0.007017,-0.007025,-0.006887,-0.006876,-0.006799,-0.007010,-0.007128,-0.007097,-0.007042,-0.007025,-0.007108,-0.007098,-0.007122,-0.007155,-0.007248,-0.007473,-0.007600,-0.007715,-0.007728,-0.007746,-0.007859,-0.007911,-0.007941,-0.007836,-0.007725,-0.007820,-0.007875,-0.007910,-0.007734,-0.007445,-0.007299,-0.007313,-0.007498,-0.007500,-0.007233,-0.006979,-0.006742,-0.006552,-0.006448,-0.006505,-0.006587,-0.006678,-0.006694,-0.006551,-0.006634,-0.006983,-0.007223,-0.007209,-0.007065,-0.007028,-0.007227,-0.007320,-0.007357,-0.007289,-0.007308,-0.007455,-0.007540,-0.007565,-0.007390,-0.007303,-0.007448,-0.007516,-0.007560,-0.007556,-0.007634,-0.007741,-0.007816,-0.007820,-0.007568,-0.007504,-0.007514,-0.007504,-0.007623,-0.007704,-0.007721,-0.007695,-0.007700,-0.007822,-0.007972,-0.008131,-0.008271,-0.008365,-0.008438,-0.008476,-0.008535,-0.008590,-0.008523,-0.008597,-0.008548,-0.008478,-0.008391,-0.008302,-0.008421,-0.008347,-0.008303,-0.008153,-0.007964,-0.007892,-0.007621,-0.007522,-0.007299,-0.007007,-0.006734,-0.006495,-0.006610,-0.006826,-0.007006,-0.006983,-0.006909,-0.006927,-0.007053,-0.007276,-0.007369,-0.007416,-0.007411,-0.007164,-0.007156,-0.007420,-0.007791,-0.007936,-0.007972,-0.007975,-0.008038,-0.008189,-0.008314,-0.008423,-0.008540,-0.008638,-0.008726,-0.008736,-0.008707,-0.008688,-0.008642,-0.008608,-0.008703,-0.008720,-0.008817,-0.008871,-0.009046,-0.009174,-0.009068,-0.009189,-0.009302,-0.009434,-0.009506,-0.009390,-0.009396,-0.009256,-0.009274,-0.009214,-0.009129,-0.009141,-0.009039,-0.009017,-0.008955,-0.008897,-0.008971,-0.008990,-0.009058,-0.009023,-0.008873,-0.008788,-0.008705,-0.008750,-0.008701,-0.008461,-0.008163,-0.007942,-0.008194,-0.008505,-0.008539,-0.008510,-0.008600,-0.008521,-0.008621,-0.008761,-0.008858,-0.008934,-0.008954,-0.008974,-0.008841,-0.008875,-0.008999,-0.009201,-0.009340,-0.009529,-0.009859,-0.010146,-0.010241,-0.010198,-0.010204,-0.010429,-0.010649,-0.010650,-0.010501,-0.010321,-0.010316,-0.010441,-0.010688,-0.010784,-0.010646,-0.010541,-0.010704,-0.010929,-0.010897,-0.010791,-0.010511,-0.010456,-0.010614,-0.010759,-0.010705,-0.010596,-0.010621,-0.010410,-0.010309,-0.010263,-0.010466,-0.010555,-0.010437,-0.010313,-0.010175,-0.010361,-0.010418,-0.010448,-0.010311,-0.010119,-0.010218,-0.010259,-0.010186,-0.009929,-0.009681,-0.009708,-0.009899,-0.010025,-0.009856,-0.009814,-0.009900,-0.009968,-0.010010,-0.010090,-0.010205,-0.010201,-0.010226,-0.010150,-0.010025,-0.010006,-0.010028,-0.010081,-0.010018,-0.010179,-0.010453,-0.010770,-0.011087,-0.011340,-0.011609,-0.011834,-0.011881,-0.011875,-0.011784,-0.011756,-0.011717,-0.011641,-0.011698,-0.011689,-0.011625,-0.011470,-0.011339,-0.011537,-0.011732,-0.011702,-0.011446,-0.011342,-0.011533,-0.011843,-0.012246,-0.012462,-0.012484,-0.012371,-0.012267,-0.012346,-0.012524,-0.012559,-0.012561,-0.012565,-0.012788,-0.012987,-0.012982,-0.012915,-0.012786,-0.012858,-0.012918,-0.012775,-0.012425,-0.012212,-0.012247,-0.012325,-0.012318,-0.011954,-0.011788,-0.011730,-0.011705,-0.011704,-0.011818,-0.011840,-0.011792,-0.011648,-0.011467,-0.011251,-0.011156,-0.011120,-0.010979,-0.010790,-0.010615,-0.010591,-0.010567,-0.010502,-0.010368,-0.010455,-0.010740,-0.011101,-0.011166,-0.010957,-0.010906,-0.011023,-0.011331,-0.011308,-0.010972,-0.010938,-0.010992,-0.011105,-0.011048,-0.010948,-0.011026,-0.010952,-0.011157,-0.011298,-0.011260,-0.011433,-0.011704,-0.011840,-0.011777,-0.011933,-0.012140,-0.012223,-0.012218,-0.011998,-0.012033,-0.012282,-0.012520,-0.012517,-0.012235,-0.012031,-0.011937,-0.011869,-0.011746,-0.011314,-0.011145,-0.011308,-0.011503,-0.011640,-0.011674,-0.011837,-0.012059,-0.011986,-0.011763,-0.011700,-0.011779,-0.011689,-0.011694,-0.011762,-0.011706,-0.011646,-0.011501,-0.011393,-0.011309,-0.011140,-0.011003,-0.010797,-0.010571,-0.010275,-0.009994,-0.010020,-0.010019,-0.010050,-0.009748,-0.009359,-0.009451,-0.009523,-0.009807,-0.009597,-0.009278,-0.009466,-0.009392,-0.009615,-0.009673,-0.009633,-0.009720,-0.009535,-0.009714,-0.009688,-0.009794,-0.009858,-0.009666,-0.009664,-0.009670,-0.009994,-0.010209,-0.010083,-0.009952,-0.009923,-0.010355,-0.010774,-0.010616,-0.010296,-0.010114,-0.010229,-0.010233,-0.009794,-0.009313,-0.009050,-0.009435,-0.009884,-0.009780,-0.009579,-0.009529,-0.010007,-0.010516,-0.010598,-0.010304,-0.010166,-0.010266,-0.010360,-0.010435,-0.010524,-0.010621,-0.010663,-0.010603,-0.010511,-0.010403,-0.010210,-0.010129,-0.010190,-0.010221,-0.010029,-0.009869,-0.009705,-0.009687,-0.009557,-0.009196,-0.008917,-0.008754,-0.008764,-0.008551,-0.008226,-0.008106,-0.008123,-0.008222,-0.008181,-0.008190,-0.008272,-0.008326,-0.008491,-0.008364,-0.008355,-0.008364,-0.008435,-0.008421,-0.008349,-0.008350,-0.008494,-0.008416,-0.008493,-0.008614,-0.008774,-0.009091,-0.009273,-0.009435,-0.009329,-0.009032,-0.008998,-0.008923,-0.008917,-0.008600,-0.008174,-0.008164,-0.008339,-0.008555,-0.008330,-0.007798,-0.007940,-0.008460,-0.008920,-0.008774,-0.008682,-0.008601,-0.008669,-0.008728,-0.008870,-0.009015,-0.008982,-0.009035,-0.008989,-0.008853,-0.008722,-0.008744,-0.008844,-0.008907,-0.008951,-0.008859,-0.008642,-0.008530,-0.008371,-0.008194,-0.007962,-0.007652,-0.007535,-0.007247,-0.006919,-0.006708,-0.006545,-0.006655,-0.006519,-0.006321,-0.006157,-0.006087,-0.006341,-0.006358,-0.006263,-0.006061,-0.006059,-0.006342,-0.006305,-0.006333,-0.006251,-0.006366,-0.006756,-0.007081,-0.007273,-0.007033,-0.007289,-0.007873,-0.007997,-0.007617,-0.006901,-0.006827,-0.007162,-0.007364,-0.006921,-0.006375,-0.006595,-0.007191,-0.007700,-0.007482,-0.007132,-0.007289,-0.007767,-0.008175,-0.008239,-0.007886,-0.007853,-0.007868,-0.007911,-0.007989,-0.008088,-0.008267,-0.008123,-0.007956,-0.008003,-0.008182,-0.008219,-0.008160,-0.008199,-0.008122,-0.007954,-0.007753,-0.007428,-0.007257,-0.007070,-0.006925,-0.006804,-0.006386,-0.006001,-0.005783,-0.005750,-0.005870,-0.005682,-0.005381,-0.005192,-0.005341,-0.005525,-0.005537,-0.005205,-0.005013,-0.005174,-0.005621,-0.005762,-0.005654,-0.005477,-0.005646,-0.006073,-0.006419,-0.006377,-0.006231,-0.006311,-0.006691,-0.007042,-0.006670,-0.006256,-0.006026,-0.006253,-0.006621,-0.006200,-0.006108,-0.006268,-0.006685,-0.007001,-0.006795,-0.006615,-0.006630,-0.007074,-0.007546,-0.007654,-0.007369,-0.007216,-0.007072,-0.007029,-0.007023,-0.007119,-0.007050,-0.006731,-0.006736,-0.006865,-0.006942,-0.006947,-0.006970,-0.006974,-0.006822,-0.006689,-0.006492,-0.006203,-0.006138,-0.005948,-0.005803,-0.005598,-0.005244,-0.005016,-0.004836,-0.004808,-0.004818,-0.004747,-0.004708,-0.004570,-0.004778,-0.004898,-0.005103,-0.005064,-0.004877,-0.004812,-0.004976,-0.004916,-0.004704,-0.004641,-0.004646,-0.004651,-0.004826,-0.004815,-0.004898,-0.004999,-0.005154,-0.005559,-0.005428,-0.005145,-0.004854,-0.005078,-0.005455,-0.005323,-0.005153,-0.005138,-0.005303,-0.005533,-0.005359,-0.005140,-0.005102,-0.005387,-0.005667,-0.005640,-0.005477,-0.005413,-0.005281,-0.005167,-0.005056,-0.004927,-0.004710,-0.004507,-0.004572,-0.004663,-0.004707,-0.004729,-0.004587,-0.004422,-0.004303,-0.004245,-0.004101,-0.003743,-0.003685,-0.003611,-0.003553,-0.003307,-0.003058,-0.003117,-0.003090,-0.003136,-0.003104,-0.003121,-0.003243,-0.003264,-0.003416,-0.003391,-0.003695,-0.003798,-0.003661,-0.003529,-0.003537,-0.003549,-0.003230,-0.003048,-0.002811,-0.002863,-0.003180,-0.003226,-0.003320,-0.003298,-0.003543,-0.003835,-0.003728,-0.003568,-0.003338,-0.003552,-0.003573,-0.003514,-0.003346,-0.003239,-0.003156,-0.003113,-0.003100,-0.002885,-0.002674,-0.002874,-0.003310,-0.003334,-0.003077,-0.003000,-0.003001,-0.002954,-0.002910,-0.002707,-0.002510,-0.002397,-0.002409,-0.002562,-0.002587,-0.002585,-0.002444,-0.002371,-0.002362,-0.002205,-0.002019,-0.001737,-0.001660,-0.001737,-0.001602,-0.001327,-0.001063,-0.001263,-0.001495,-0.001374,-0.001120,-0.001034,-0.001328,-0.001744,-0.001826,-0.001707,-0.001530,-0.001494,-0.001563,-0.001551,-0.001448,-0.001192,-0.000998,-0.001020,-0.001094,-0.001317,-0.001307,-0.001109,-0.001237,-0.001363,-0.001584,-0.001593,-0.001354,-0.001335,-0.001345,-0.001524,-0.001415,-0.001262,-0.001148,-0.001128,-0.001195,-0.001326,-0.001264,-0.001081,-0.000691,-0.000770,-0.001017,-0.001056,-0.001016,-0.000944,-0.000937,-0.000933,-0.000936,-0.000886,-0.000799,-0.000660,-0.000642,-0.000706,-0.000602,-0.000521,-0.000401,-0.000283,-0.000269,-0.000236,-0.000069,0.000173,0.000179,-0.000071,-0.000038,0.000176,0.000354,0.000216,-0.000194,-0.000256,-0.000060,0.000101,-0.000022,-0.000422,-0.000549,-0.000438,-0.000039,0.000180,0.000098,0.000187,0.000479,0.000838,0.001097,0.000944,0.000626,0.000259,0.000331,0.000544,0.000344,0.000211,-0.000091,-0.000117,0.000057,0.000011,0.000014,-0.000345,-0.000434,-0.000338,-0.000301,-0.000152,-0.000215,-0.000191,0.000016,0.000174,0.000484,0.000393,0.000363,0.000453,0.000440,0.000559,0.000655,0.000655,0.000752,0.000841,0.001041,0.001075,0.001177,0.001292,0.001376,0.001431,0.001437,0.001504,0.001491,0.001468,0.001463,0.001457,0.001519,0.001450,0.001285,0.001120,0.001024,0.001208,0.001248,0.001082,0.000890,0.000727,0.000823,0.000842,0.000752,0.000665,0.000695,0.001014,0.001308,0.001579,0.001925,0.002088,0.002247,0.002078,0.001735,0.001628,0.001596,0.001674,0.001476,0.001115,0.000975,0.000825,0.000947,0.000986,0.000745,0.000358,0.000199,0.000540,0.000744,0.000749,0.000798,0.000780,0.001123,0.001422,0.001661,0.001742,0.001775,0.001867,0.001970,0.001909,0.001905,0.001970,0.002102,0.002283,0.002269,0.002214,0.002282,0.002368,0.002300,0.002211,0.002129,0.002054,0.002106,0.002085,0.001949,0.001858,0.001942,0.002073,0.002010,0.001786,0.001657,0.001790,0.002027,0.002040,0.001787,0.001607,0.001640,0.001748,0.001687,0.001570,0.001457,0.001581,0.001846,0.001869,0.001795,0.001897,0.002079,0.002109,0.001640,0.001223,0.001110,0.001223,0.001276,0.000801,0.000453,0.000334,0.000432,0.000600,0.000080,-0.000466,-0.000578,-0.000079,0.000328,0.000240,0.000280,0.000532,0.000978,0.001446,0.001521,0.001579,0.001645,0.001734,0.001776,0.001654,0.001624,0.001603,0.001564,0.001561,0.001420,0.001391,0.001323,0.001229,0.001164,0.001035,0.000852,0.000646,0.000617,0.000550,0.000456,0.000393,0.000280,0.000187,0.000167,0.000100,0.000044,-0.000168,-0.000187,-0.000059,-0.000080,-0.000097,-0.000262,-0.000288,-0.000206,0.000013,0.000098,0.000048,0.000197,0.000355,0.000470,0.000652,0.000654,0.000641,0.000353,-0.000038,-0.000228,-0.000249,-0.000099,-0.000361,-0.000752,-0.000927,-0.000961,-0.000794,-0.001079,-0.001458,-0.001728,-0.001525,-0.001162,-0.001081,-0.000851,-0.000458,0.000181,0.000506,0.000467,0.000409,0.000467,0.000589,0.000520,0.000510,0.000477,0.000246,-0.000004,-0.000187,-0.000202,-0.000344,-0.000546,-0.000695,-0.000773,-0.000820,-0.001040,-0.001247,-0.001385,-0.001255,-0.001123,-0.001218,-0.001347,-0.001449,-0.001335,-0.001193,-0.001215,-0.001361,-0.001372,-0.001145,-0.001041,-0.001064,-0.001169,-0.001159,-0.000902,-0.000733,-0.000703,-0.000732,-0.000598,-0.000325,-0.000104,-0.000005,-0.000177,-0.000296,-0.000200,-0.000141,-0.000255,-0.000513,-0.000675,-0.000560,-0.000572,-0.000682,-0.000893,-0.001118,-0.001068,-0.001169,-0.001472,-0.001691,-0.001855,-0.001712,-0.001467,-0.001315,-0.001287,-0.001282,-0.001135,-0.001153,-0.001275,-0.001253,-0.001274,-0.001296,-0.001353,-0.001453,-0.001528,-0.001559,-0.001500,-0.001456,-0.001377,-0.001359,-0.001428,-0.001473,-0.001567,-0.001659,-0.001627,-0.001514,-0.001321,-0.001279,-0.001294,-0.001340,-0.001306,-0.001202,-0.001206,-0.001246,-0.001323,-0.001269,-0.001228,-0.001188,-0.001171,-0.001159,-0.001102,-0.001048,-0.000909,-0.000734,-0.000633,-0.000616,-0.000544,-0.000434,-0.000499,-0.000488,-0.000646,-0.000648,-0.000685,-0.000794,-0.000853,-0.001075,-0.001189,-0.001181,-0.001134,-0.001181,-0.001373,-0.001441,-0.001809,-0.002002,-0.002080,-0.002216,-0.002424,-0.002834,-0.002989,-0.002791,-0.002657,-0.002613,-0.002849,-0.002925,-0.002815,-0.002821,-0.002859,-0.002923,-0.002811,-0.002659,-0.002638,-0.002595,-0.002517,-0.002548,-0.002548,-0.002494,-0.002520,-0.002625,-0.002533,-0.002493,-0.002470,-0.002434,-0.002393,-0.002372,-0.002479,-0.002500,-0.002482,-0.002406,-0.002511,-0.002692,-0.002707,-0.002539,-0.002350,-0.002366,-0.002512,-0.002601,-0.002418,-0.002172,-0.002112,-0.002204,-0.002215,-0.002158,-0.002105,-0.002091,-0.002068,-0.002116,-0.002173,-0.002181,-0.002240,-0.002253,-0.002328,-0.002370,-0.002298,-0.002281,-0.002238,-0.002294,-0.002333,-0.002331,-0.002294,-0.002415,-0.002539,-0.002700,-0.002710,-0.002601,-0.002500,-0.002380,-0.002549,-0.002594,-0.002589,-0.002504,-0.002404,-0.002494,-0.002504,-0.002507,-0.002449,-0.002398,-0.002394,-0.002470,-0.002551,-0.002423,-0.002363,-0.002398,-0.002469,-0.002471,-0.002412,-0.002374,-0.002390,-0.002436,-0.002590,-0.002590,-0.002523,-0.002474,-0.002585,-0.002729,-0.002655,-0.002497,-0.002369,-0.002441,-0.002590,-0.002555,-0.002395,-0.002193,-0.002186,-0.002365,-0.002474,-0.002417,-0.002225,-0.002187,-0.002165,-0.002226,-0.002277,-0.002193,-0.002197,-0.002232,-0.002350,-0.002426,-0.002326,-0.002264,-0.002283,-0.002343,-0.002352,-0.002330,-0.002315,-0.002415,-0.002564,-0.002738,-0.002779,-0.002693,-0.002631,-0.002708,-0.002779,-0.002831,-0.002724,-0.002582,-0.002476,-0.002482,-0.002664,-0.002608,-0.002582,-0.002508,-0.002482,-0.002497,-0.002543,-0.002553,-0.002508,-0.002545,-0.002659,-0.002728,-0.002735,-0.002690,-0.002671,-0.002754,-0.002901,-0.002923,-0.002741,-0.002618,-0.002701,-0.002872,-0.002953,-0.002795,-0.002542,-0.002577,-0.002730,-0.002753,-0.002589,-0.002312,-0.002281,-0.002328,-0.002367,-0.002303,-0.002202,-0.002135,-0.002151,-0.002179,-0.002254,-0.002269,-0.002276,-0.002270,-0.002351,-0.002409,-0.002446,-0.002550,-0.002498,-0.002478,-0.002526,-0.002614,-0.002668,-0.002567,-0.002658,-0.002804,-0.002881,-0.002689,-0.002630,-0.002807,-0.002897,-0.002821,-0.002666,-0.002566,-0.002696,-0.002809,-0.002902,-0.002818,-0.002729,-0.002635,-0.002638,-0.002695,-0.002691,-0.002634,-0.002566,-0.002665,-0.002822,-0.002910,-0.002838,-0.002735,-0.002784,-0.002936,-0.003059,-0.002958,-0.002803,-0.002819,-0.002952,-0.003059,-0.002970,-0.002872,-0.002849,-0.002892,-0.002940,-0.002893,-0.002754,-0.002652,-0.002662,-0.002748,-0.002731,-0.002654,-0.002547,-0.002493,-0.002512,-0.002491,-0.002508,-0.002613,-0.002647,-0.002669,-0.002645,-0.002586,-0.002730,-0.002903,-0.002923,-0.002804,-0.002731,-0.002806,-0.002870,-0.002864,-0.002829,-0.002947,-0.003018,-0.003033,-0.003122,-0.003174,-0.003065,-0.003011,-0.002964,-0.002819,-0.002660,-0.002600,-0.002623,-0.002678,-0.002607,-0.002475,-0.002490,-0.002667,-0.002783,-0.002755,-0.002717,-0.002895,-0.002981,-0.003025,-0.003038,-0.002950,-0.002944,-0.002948,-0.003038,-0.003118,-0.003106,-0.003091,-0.003010,-0.003069,-0.003153,-0.003172,-0.003162,-0.003044,-0.003088,-0.003082,-0.003001,-0.003010,-0.003001,-0.003054,-0.002984,-0.002974,-0.002904,-0.002863,-0.002769,-0.002762,-0.002772,-0.002783,-0.002822,-0.002869,-0.002954,-0.002973,-0.003063,-0.003123,-0.003181,-0.003246,-0.003203,-0.003245,-0.003219,-0.003216,-0.003267,-0.003331,-0.003446,-0.003417,-0.003543,-0.003590,-0.003528,-0.003507,-0.003336,-0.003189,-0.002941,-0.002904,-0.003116,-0.003295,-0.003338,-0.003131,-0.003078,-0.003146,-0.003239,-0.003300,-0.003352,-0.003521,-0.003429,-0.003418,-0.003460,-0.003348,-0.003260,-0.003203,-0.003240,-0.003336,-0.003309,-0.003267,-0.003184,-0.003254,-0.003331,-0.003264,-0.003197,-0.003139,-0.003263,-0.003327,-0.003209,-0.003159,-0.003134,-0.003207,-0.003235,-0.003337,-0.003291,-0.003186,-0.003068,-0.003103,-0.003107,-0.003063,-0.003073,-0.003137,-0.003235,-0.003291,-0.003387,-0.003346,-0.003416,-0.003456,-0.003454,-0.003538,-0.003507,-0.003561,-0.003504,-0.003484,-0.003478,-0.003544,-0.003672,-0.003824,-0.003832,-0.003566,-0.003404,-0.003446,-0.003542,-0.003666,-0.003680,-0.003783,-0.003839,-0.003824,-0.003798,-0.003747,-0.003754,-0.003826,-0.003963,-0.004021,-0.003924,-0.003862,-0.003896,-0.003797,-0.003724,-0.003702,-0.003720,-0.003850,-0.003859,-0.003831,-0.003780,-0.003781,-0.003832,-0.003785,-0.003704,-0.003698,-0.003749,-0.003801,-0.003709,-0.003632,-0.003638,-0.003722,-0.003813,-0.003841,-0.003703,-0.003535,-0.003547,-0.003681,-0.003718,-0.003699,-0.003762,-0.003850,-0.003907,-0.003966,-0.004056,-0.004101,-0.004133,-0.004143,-0.004230,-0.004346,-0.004442,-0.004379,-0.004252,-0.004181,-0.004271,-0.004559,-0.004674,-0.004823,-0.004795,-0.004667,-0.004674,-0.004765,-0.004953,-0.004919,-0.004871,-0.004925,-0.004971,-0.005150,-0.005210,-0.005248,-0.005317,-0.005402,-0.005498,-0.005511,-0.005430,-0.005409,-0.005457,-0.005572,-0.005572,-0.005558,-0.005672,-0.005749,-0.005896,-0.005834,-0.005713,-0.005885,-0.005801,-0.006132,-0.005988,-0.005911,-0.006168,-0.006066,-0.006479,-0.006390,-0.006338,-0.006688,-0.006724,-0.007043