-0.001940,,-0.001798,-0.001785,-0.001766,-0.001713,-0.001692,-0.001695,-0.001669,-0.001721,-0.001732,-0.001804,-0.001895,-0.001889,-0.001892,-0.001871,-0.001852,-0.001852,-0.001830,-0.001787,-0.001747,-0.001744,-0.001780,-0.001805,-0.001814,-0.001795,-0.001737,-0.001707,-0.001676,-0.001651,-0.001630,-0.001606,-0.001591,-0.001572,-0.001557,-0.001546,-0.001532,-0.001528,-0.001523,-0.001512,-0.001503,-0.001497,-0.001487,-0.001476,-0.001466,-0.001456,-0.001444,-0.001427,-0.001410,-0.001384,-0.001360,-0.001345,-0.001328,-0.001295,-0.001259,-0.001220,-0.001182,-0.001138,-0.001196,-0.001246,-0.001380,-0.001440,-0.001435,-0.001412,-0.001373,-0.001355,-0.001318,-0.001283,-0.001233,-0.001207,-0.001186,-0.001171,-0.001203,-0.001265,-0.001328,-0.001421,-0.001500,-0.001498,-0.001486,-0.001496,-0.001492,-0.001448,-0.001414,-0.001371,-0.001310,-0.001268,-0.001271,-0.001302,-0.001337,-0.001354,-0.001297,-0.001266,-0.001235,-0.001213,-0.001184,-0.001161,-0.001142,-0.001124,-0.001115,-0.001111,-0.001102,-0.001091,-0.001083,-0.001077,-0.001070,-0.001063,-0.001052,-0.001044,-0.001037,-0.001025,-0.001008,-0.000986,-0.000965,-0.000944,-0.000931,-0.000903,-0.000868,-0.000828,-0.000784,-0.000758,-0.000776,-0.000838,-0.000872,-0.000913,-0.000985,-0.001047,-0.001088,-0.001056,-0.001037,-0.000983,-0.000938,-0.000911,-0.000872,-0.000859,-0.000793,-0.000751,-0.000836,-0.000915,-0.000953,-0.000978,-0.001023,-0.001077,-0.001083,-0.001043,-0.001003,-0.000981,-0.000947,-0.000894,-0.000833,-0.000776,-0.000734,-0.000777,-0.000811,-0.000840,-0.000837,-0.000783,-0.000756,-0.000732,-0.000707,-0.000686,-0.000664,-0.000648,-0.000639,-0.000629,-0.000625,-0.000624,-0.000615,-0.000612,-0.000610,-0.000605,-0.000598,-0.000593,-0.000585,-0.000564,-0.000521,-0.000481,-0.000446,-0.000421,-0.000403,-0.000364,-0.000332,-0.000304,-0.000260,-0.000220,-0.000223,-0.000281,-0.000369,-0.000437,-0.000472,-0.000491,-0.000516,-0.000475,-0.000477,-0.000452,-0.000383,-0.000350,-0.000319,-0.000281,-0.000222,-0.000194,-0.000313,-0.000433,-0.000515,-0.000484,-0.000473,-0.000525,-0.000595,-0.000598,-0.000558,-0.000507,-0.000453,-0.000393,-0.000343,-0.000288,-0.000228,-0.000221,-0.000255,-0.000284,-0.000304,-0.000291,-0.000225,-0.000186,-0.000165,-0.000141,-0.000112,-0.000097,-0.000085,-0.000054,-0.000032,-0.000018,0.000008,0.000031,0.000049,0.000070,0.000095,0.000120,0.000150,0.000193,0.000240,0.000287,0.000331,0.000362,0.000395,0.000442,0.000470,0.000492,0.000529,0.000586,0.000644,0.000683,0.000591,0.000509,0.000433,0.000382,0.000355,0.000345,0.000344,0.000348,0.000412,0.000456,0.000496,0.000517,0.000462,0.000472,0.000425,0.000329,0.000305,0.000303,0.000223,0.000167,0.000119,0.000101,0.000114,0.000139,0.000187,0.000231,0.000276,0.000330,0.000380,0.000440,0.000452,0.000410,0.000370,0.000346,0.000351,0.000370,0.000389,0.000415,0.000459,0.000490,0.000518,0.000565,0.000607,0.000643,0.000677,0.000709,0.000740,0.000772,0.000808,0.000846,0.000884,0.000928,0.000970,0.001013,0.001062,0.001109,0.001159,0.001218,0.001266,0.001321,0.001383,0.001445,0.001514,0.001592,0.001552,0.001479,0.001409,0.001343,0.001299,0.001248,0.001237,0.001242,0.001273,0.001305,0.001352,0.001336,0.001197,0.001223,0.001316,0.001322,0.001362,0.001418,0.001364,0.001317,0.001256,0.001208,0.001210,0.001234,0.001252,0.001268,0.001300,0.001350,0.001376,0.001418,0.001469,0.001453,0.001412,0.001382,0.001332,0.001332,0.001366,0.001399,0.001448,0.001491,0.001527,0.001568,0.001604,0.001641,0.001676,0.001711,0.001742,0.001774,0.001811,0.001847,0.001884,0.001922,0.001964,0.002006,0.002049,0.002093,0.002136,0.002184,0.002230,0.002287,0.002352,0.002407,0.002463,0.002537,0.002564,0.002520,0.002500,0.002452,0.002413,0.002370,0.002328,0.002339,0.002380,0.002437,0.002494,0.002499,0.002369,0.002370,0.002476,0.002526,0.002611,0.002703,0.002685,0.002613,0.002535,0.002525,0.002561,0.002567,0.002587,0.002594,0.002606,0.002646,0.002681,0.002720,0.002746,0.002777,0.002780,0.002725,0.002686,0.002656,0.002688,0.002737,0.002792,0.002841,0.002880,0.002920,0.002960,0.003002,0.003041,0.003082,0.003120,0.003158,0.003199,0.003240,0.003282,0.003328,0.003376,0.003426,0.003472,0.003519,0.003563,0.003613,0.003658,0.003705,0.003758,0.003817,0.003878,0.003937,0.004019,0.004024,0.003981,0.003934,0.003858,0.003825,0.003805,0.003817,0.003878,0.003935,0.003976,0.004050,0.003982,0.003918,0.003942,0.003972,0.004009,0.004028,0.004026,0.003952,0.003853,0.003831,0.003877,0.003902,0.003918,0.003934,0.003946,0.003976,0.003998,0.004024,0.004046,0.004070,0.004101,0.004090,0.004023,0.003962,0.003911,0.003926,0.003958,0.003991,0.004012,0.004031,0.004051,0.004073,0.004094,0.004118,0.004146,0.004176,0.004211,0.004242,0.004272,0.004307,0.004342,0.004385,0.004431,0.004486,0.004538,0.004603,0.004662,0.004709,0.004765,0.004835,0.004878,0.004875,0.004900,0.004902,0.004794,0.004778,0.004735,0.004716,0.004700,0.004633,0.004706,0.004747,0.004822,0.004919,0.004943,0.004908,0.004824,0.004788,0.004834,0.004850,0.004855,0.004895,0.004803,0.004819,0.004827,0.004837,0.004870,0.004885,0.004929,0.004956,0.004967,0.004995,0.005006,0.005046,0.005091,0.005126,0.005106,0.005050,0.005002,0.004933,0.004943,0.004984,0.005014,0.005031,0.005067,0.005070,0.005088,0.005112,0.005136,0.005147,0.005181,0.005199,0.005218,0.005262,0.005293,0.005329,0.005369,0.005409,0.005465,0.005514,0.005583,0.005644,0.005709,0.005786,0.005851,0.005877,0.005897,0.005868,0.005808,0.005766,0.005760,0.005743,0.005704,0.005690,0.005743,0.005844,0.005894,0.005893,0.005870,0.005809,0.005703,0.005600,0.005583,0.005631,0.005690,0.005774,0.005691,0.005687,0.005699,0.005734,0.005765,0.005792,0.005839,0.005872,0.005909,0.005967,0.005993,0.006012,0.006059,0.006096,0.006127,0.006096,0.006044,0.006005,0.005983,0.006021,0.006044,0.006072,0.006125,0.006162,0.006224,0.006251,0.006290,0.006331,0.006378,0.006427,0.006475,0.006536,0.006592,0.006650,0.006711,0.006774,0.006845,0.006900,0.006953,0.007023,0.007077,0.007149,0.007247,0.007352,0.007357,0.007322,0.007297,0.007266,0.007228,0.007184,0.007153,0.007189,0.007184,0.007211,0.007200,0.007180,0.007175,0.007084,0.006957,0.006849,0.006761,0.006837,0.006893,0.006958,0.006953,0.006889,0.006906,0.006966,0.007018,0.007076,0.007129,0.007187,0.007235,0.007284,0.007350,0.007415,0.007457,0.007520,0.007615,0.007641,0.007641,0.007642,0.007633,0.007618,0.007592,0.007569,0.007579,0.007652,0.007734,0.007760,0.007815,0.007878,0.007941,0.008029,0.008106,0.008182,0.008272,0.008364,0.008446,0.008526,0.008619,0.008720,0.008820,0.008953,0.009060,0.009161,0.009286,0.009401,0.009478,0.009477,0.009473,0.009452,0.009408,0.009374,0.009350,0.009354,0.009337,0.009362,0.009392,0.009355,0.009275,0.009187,0.009102,0.009010,0.008913,0.008934,0.009004,0.009091,0.009182,0.009192,0.009136,0.009164,0.009248,0.009323,0.009361,0.009454,0.009534,0.009536,0.009576,0.009633,0.009632,0.009653,0.009672,0.009656,0.009657,0.009612,0.009528,0.009427,0.009334,0.009307,0.009309,0.009359,0.009427,0.009442,0.009506,0.009578,0.009678,0.009784,0.009836,0.009857,0.009917,0.010019,0.010143,0.010287,0.010390,0.010520,0.010652,0.010794,0.010935,0.011061,0.011205,0.011291,0.011377,0.011382,0.011373,0.011383,0.011349,0.011328,0.011332,0.011312,0.011313,0.011348,0.011434,0.011466,0.011419,0.011394,0.011358,0.011286,0.011221,0.011147,0.011129,0.011258,0.011395,0.011488,0.011576,0.011701,0.011836,0.011927,0.011919,0.011958,0.011993,0.011950,0.011936,0.011921,0.011908,0.011915,0.011882,0.011852,0.011843,0.011817,0.011729,0.011614,0.011511,0.011422,0.011409,0.011423,0.011449,0.011412,0.011422,0.011426,0.011421,0.011428,0.011406,0.011368,0.011358,0.011375,0.011416,0.011481,0.011545,0.011591,0.011613,0.011648,0.011767,0.011884,0.012027,0.012074,0.012059,0.012030,0.012005,0.012033,0.012015,0.011998,0.012043,0.012065,0.012086,0.012091,0.012133,0.012227,0.012283,0.012349,0.012360,0.012302,0.012334,0.012297,0.012229,0.012325,0.012412,0.012504,0.012684,0.012800,0.012904,0.012985,0.012981,0.012979,0.012976,0.012942,0.012943,0.012928,0.012908,0.012907,0.012878,0.012874,0.012851,0.012825,0.012777,0.012683,0.012567,0.012464,0.012385,0.012396,0.012409,0.012381,0.012379,0.012363,0.012317,0.012301,0.012318,0.012347,0.012364,0.012375,0.012379,0.012391,0.012359,0.012345,0.012370,0.012411,0.012464,0.012471,0.012532,0.012588,0.012548,0.012521,0.012480,0.012464,0.012456,0.012425,0.012431,0.012430,0.012472,0.012531,0.012509,0.012529,0.012530,0.012593,0.012640,0.012572,0.012537,0.012468,0.012439,0.012444,0.012430,0.012565,0.012704,0.012815,0.012826,0.012821,0.012798,0.012781,0.012769,0.012732,0.012704,0.012673,0.012638,0.012570,0.012497,0.012460,0.012400,0.012344,0.012301,0.012177,0.012007,0.011843,0.011716,0.011615,0.011600,0.011556,0.011525,0.011502,0.011488,0.011470,0.011462,0.011459,0.011438,0.011399,0.011367,0.011341,0.011320,0.011273,0.011228,0.011224,0.011229,0.011227,0.011190,0.011114,0.011061,0.011007,0.010940,0.010847,0.010780,0.010716,0.010624,0.010550,0.010538,0.010576,0.010488,0.010472,0.010434,0.010412,0.010406,0.010333,0.010298,0.010258,0.010241,0.010231,0.010162,0.010210,0.010349,0.010496,0.010661,0.010719,0.010722,0.010747,0.010786,0.010809,0.010826,0.010834,0.010825,0.010765,0.010705,0.010672,0.010636,0.010611,0.010585,0.010547,0.010473,0.010351,0.010242,0.010093,0.009984,0.009901,0.009850,0.009841,0.009830,0.009767,0.009694,0.009638,0.009582,0.009522,0.009474,0.009422,0.009367,0.009343,0.009323,0.009313,0.009240,0.009200,0.009115,0.009015,0.008927,0.008838,0.008789,0.008700,0.008650,0.008621,0.008516,0.008460,0.008523,0.008551,0.008496,0.008550,0.008532,0.008499,0.008439,0.008379,0.008339,0.008266,0.008258,0.008245,0.008139,0.008052,0.008058,0.008172,0.008273,0.008413,0.008443,0.008411,0.008397,0.008425,0.008443,0.008486,0.008521,0.008570,0.008607,0.008653,0.008670,0.008695,0.008772,0.008782,0.008795,0.008764,0.008763,0.008730,0.008661,0.008659,0.008675,0.008694,0.008682,0.008681,0.008624,0.008572,0.008504,0.008448,0.008424,0.008382,0.008336,0.008308,0.008224,0.008138,0.008055,0.008006,0.007948,0.007888,0.007825,0.007759,0.007651,0.007570,0.007499,0.007420,0.007365,0.007301,0.007329,0.007416,0.007479,0.007468,0.007405,0.007358,0.007270,0.007198,0.007148,0.007090,0.007082,0.007079,0.007014,0.007018,0.007036,0.007138,0.007206,0.007313,0.007451,0.007488,0.007535,0.007563,0.007561,0.007594,0.007630,0.007675,0.007725,0.007805,0.007832,0.007835,0.007873,0.007864,0.007838,0.007816,0.007818,0.007786,0.007747,0.007746,0.007757,0.007794,0.007852,0.007895,0.007903,0.007918,0.007920,0.007906,0.007914,0.007893,0.007854,0.007861,0.007837,0.007799,0.007726,0.007647,0.007572,0.007523,0.007444,0.007407,0.007365,0.007279,0.007206,0.007196,0.007190,0.007137,0.007219,0.007321,0.007405,0.007381,0.007350,0.007325,0.007285,0.007268,0.007264,0.007205,0.007161,0.007226,0.007242,0.007253,0.007225,0.007303,0.007373,0.007485,0.007632,0.007738,0.007728,0.007723,0.007691,0.007644,0.007636,0.007642,0.007674,0.007744,0.007736,0.007675,0.007657,0.007644,0.007642,0.007658,0.007655,0.007605,0.007578,0.007532,0.007441,0.007387,0.007360,0.007323,0.007268,0.007235,0.007222,0.007203,0.007243,0.007265,0.007218,0.007191,0.007143,0.007116,0.007095,0.007057,0.007016,0.006977,0.006939,0.006902,0.006897,0.006866,0.006852,0.006890,0.006892,0.006868,0.006915,0.006934,0.006923,0.006908,0.006891,0.006863,0.006889,0.006884,0.006842,0.006791,0.006722,0.006735,0.006708,0.006679,0.006698,0.006748,0.006749,0.006804,0.006886,0.006929,0.006959,0.006933,0.006858,0.006802,0.006767,0.006748,0.006762,0.006804,0.006781,0.006709,0.006687,0.006693,0.006679,0.006664,0.006618,0.006551,0.006536,0.006482,0.006361,0.006301,0.006278,0.006273,0.006269,0.006262,0.006271,0.006311,0.006376,0.006362,0.006393,0.006394,0.006336,0.006279,0.006234,0.006181,0.006130,0.006071,0.006031,0.005953,0.005889,0.005853,0.005843,0.005820,0.005768,0.005715,0.005686,0.005675,0.005658,0.005651,0.005631,0.005589,0.005593,0.005556,0.005501,0.005455,0.005412,0.005428,0.005417,0.005360,0.005413,0.005433,0.005399,0.005346,0.005384,0.005466,0.005587,0.005711,0.005684,0.005637,0.005586,0.005570,0.005580,0.005601,0.005597,0.005582,0.005589,0.005588,0.005573,0.005547,0.005520,0.005495,0.005491,0.005468,0.005412,0.005398,0.005416,0.005453,0.005480,0.005491,0.005532,0.005577,0.005597,0.005511,0.005498,0.005447,0.005355,0.005280,0.005215,0.005132,0.005061,0.004995,0.004913,0.004832,0.004748,0.004686,0.004645,0.004605,0.004593,0.004595,0.004572,0.004546,0.004524,0.004483,0.004440,0.004394,0.004335,0.004277,0.004232,0.004182,0.004135,0.004156,0.004180,0.004076,0.004070,0.004066,0.004074,0.004023,0.004019,0.004113,0.004228,0.004372,0.004489,0.004466,0.004437,0.004426,0.004433,0.004422,0.004403,0.004387,0.004375,0.004343,0.004333,0.004301,0.004276,0.004249,0.004219,0.004192,0.004154,0.004081,0.004042,0.004024,0.004025,0.004015,0.004052,0.004096,0.004118,0.004085,0.003974,0.003865,0.003750,0.003666,0.003594,0.003501,0.003429,0.003361,0.003278,0.003225,0.003161,0.003115,0.003085,0.003066,0.003122,0.003215,0.003303,0.003302,0.003295,0.003274,0.003266,0.003240,0.003163,0.003107,0.003045,0.002976,0.002876,0.002762,0.002674,0.002601,0.002595,0.002575,0.002570,0.002498,0.002413,0.002453,0.002543,0.002660,0.002772,0.002850,0.002800,0.002764,0.002737,0.002687,0.002628,0.002584,0.002550,0.002521,0.002483,0.002464,0.002449,0.002439,0.002457,0.002483,0.002514,0.002493,0.002453,0.002432,0.002470,0.002523,0.002540,0.002601,0.002608,0.002583,0.002554,0.002514,0.002453,0.002399,0.002325,0.002248,0.002205,0.002163,0.002110,0.002053,0.001991,0.001926,0.001863,0.001792,0.001751,0.001749,0.001838,0.001842,0.001855,0.001877,0.001878,0.001817,0.001761,0.001638,0.001529,0.001430,0.001314,0.001202,0.001119,0.001148,0.001167,0.001135,0.001091,0.001016,0.000997,0.001005,0.001076,0.001167,0.001260,0.001388,0.001448,0.001420,0.001396,0.001379,0.001357,0.001348,0.001338,0.001352,0.001358,0.001397,0.001431,0.001470,0.001530,0.001563,0.001581,0.001626,0.001637,0.001634,0.001645,0.001743,0.001833,0.001898,0.001855,0.001736,0.001661,0.001557,0.001448,0.001377,0.001325,0.001273,0.001243,0.001210,0.001168,0.001118,0.001083,0.001026,0.000980,0.000953,0.000879,0.000809,0.000922,0.000962,0.001021,0.001089,0.001136,0.001133,0.001130,0.001179,0.001255,0.001232,0.001151,0.001092,0.001051,0.000978,0.000909,0.000881,0.000854,0.000830,0.000816,0.000823,0.000850,0.000897,0.000980,0.001072,0.001169,0.001205,0.001215,0.001240,0.001237,0.001241,0.001246,0.001273,0.001284,0.001286,0.001296,0.001291,0.001321,0.001355,0.001341,0.001339,0.001381,0.001356,0.001348,0.001393,0.001488,0.001552,0.001557,0.001531,0.001469,0.001391,0.001345,0.001291,0.001268,0.001245,0.001186,0.001176,0.001213,0.001198,0.001175,0.001156,0.001138,0.001143,0.001126,0.001077,0.001137,0.001182,0.001225,0.001275,0.001342,0.001380,0.001405,0.001447,0.001474,0.001436,0.001335,0.001289,0.001261,0.001245,0.001215,0.001173,0.001170,0.001167,0.001170,0.001167,0.001140,0.001143,0.001164,0.001200,0.001224,0.001219,0.001171,0.001139,0.001132,0.001117,0.001084,0.001067,0.001053,0.001055,0.001046,0.001052,0.001045,0.001076,0.001087,0.001112,0.001199,0.001276,0.001280,0.001283,0.001275,0.001297,0.001327,0.001342,0.001304,0.001232,0.001161,0.001078,0.001003,0.000938,0.000860,0.000826,0.000796,0.000734,0.000711,0.000672,0.000652,0.000625,0.000606,0.000579,0.000652,0.000670,0.000672,0.000676,0.000685,0.000704,0.000729,0.000742,0.000783,0.000762,0.000732,0.000752,0.000736,0.000722,0.000710,0.000687,0.000720,0.000745,0.000785,0.000837,0.000852,0.000837,0.000833,0.000867,0.000938,0.001032,0.001093,0.001127,0.001162,0.001216,0.001260,0.001301,0.001335,0.001388,0.001406,0.001427,0.001450,0.001483,0.001527,0.001556,0.001532,0.001503,0.001503,0.001508,0.001508,0.001509,0.001512,0.001453,0.001350,0.001235,0.001136,0.001044,0.000954,0.000861,0.000791,0.000741,0.000705,0.000627,0.000589,0.000586,0.000593,0.000587,0.000569,0.000536,0.000639,0.000687,0.000710,0.000707,0.000724,0.000742,0.000808,0.000862,0.000925,0.000934,0.000968,0.001016,0.001006,0.000965,0.000950,0.000952,0.000976,0.000994,0.001010,0.001031,0.001051,0.001037,0.001030,0.001026,0.001034,0.001085,0.001132,0.001135,0.001105,0.001106,0.001113,0.001116,0.001161,0.001185,0.001180,0.001182,0.001204,0.001191,0.001197,0.001164,0.001123,0.001077,0.001053,0.001071,0.001102,0.001163,0.001200,0.001151,0.001031,0.000925,0.000839,0.000749,0.000660,0.000560,0.000486,0.000432,0.000388,0.000381,0.000378,0.000335,0.000316,0.000301,0.000281,0.000234,0.000308,0.000375,0.000425,0.000410,0.000394,0.000421,0.000499,0.000550,0.000589,0.000630,0.000682,0.000735,0.000773,0.000741,0.000702,0.000691,0.000662,0.000627,0.000563,0.000489,0.000455,0.000494,0.000529,0.000552,0.000562,0.000594,0.000661,0.000703,0.000689,0.000678,0.000691,0.000653,0.000678,0.000716,0.000731,0.000787,0.000841,0.000885,0.000928,0.000957,0.000949,0.000943,0.000912,0.000936,0.000986,0.001011,0.001005,0.000939,0.000808,0.000685,0.000582,0.000502,0.000478,0.000474,0.000418,0.000329,0.000262,0.000194,0.000122,0.000039,-0.000041,-0.000085,-0.000129,-0.000211,-0.000278,-0.000290,-0.000298,-0.000368,-0.000437,-0.000432,-0.000417,-0.000445,-0.000437,-0.000465,-0.000486,-0.000445,-0.000382,-0.000402,-0.000453,-0.000445,-0.000457,-0.000474,-0.000511,-0.000522,-0.000483,-0.000447,-0.000433,-0.000340,-0.000224,-0.000117,-0.000020,0.000057,0.000084,0.000089,0.000145,0.000232,0.000222,0.000155,0.000084,0.000100,0.000125,0.000152,0.000164,0.000195,0.000219,0.000283,0.000391,0.000499,0.000607,0.000694,0.000751,0.000782,0.000735,0.000665,0.000574,0.000459,0.000375,0.000321,0.000277,0.000199,0.000157,0.000061,-0.000064,-0.000165,-0.000266,-0.000310,-0.000373,-0.000468,-0.000595,-0.000685,-0.000760,-0.000864,-0.000932,-0.000940,-0.000947,-0.000971,-0.000958,-0.000994,-0.001051,-0.001067,-0.001053,-0.001056,-0.001063,-0.001009,-0.000949,-0.000916,-0.000896,-0.000849,-0.000795,-0.000802,-0.000855,-0.000843,-0.000836,-0.000842,-0.000886,-0.000905,-0.000872,-0.000883,-0.000942,-0.000953,-0.000949,-0.001016,-0.000996,-0.000913,-0.000835,-0.000778,-0.000737,-0.000713,-0.000611,-0.000507,-0.000408,-0.000327,-0.000197,-0.000046,0.000079,0.000187,0.000261,0.000313,0.000310,0.000247,0.000151,0.000045,-0.000042,-0.000070,-0.000098,-0.000163,-0.000214,-0.000264,-0.000328,-0.000364,-0.000396,-0.000447,-0.000519,-0.000621,-0.000708,-0.000810,-0.000875,-0.000896,-0.000933,-0.000983,-0.000997,-0.000956,-0.000982,-0.001085,-0.001170,-0.001191,-0.001200,-0.001216,-0.001190,-0.001163,-0.001153,-0.001169,-0.001169,-0.001170,-0.001178,-0.001223,-0.001275,-0.001331,-0.001387,-0.001446,-0.001449,-0.001435,-0.001464,-0.001583,-0.001688,-0.001693,-0.001596,-0.001470,-0.001340,-0.001225,-0.001098,-0.000992,-0.000914,-0.000851,-0.000834,-0.000880,-0.000832,-0.000719,-0.000611,-0.000504,-0.000367,-0.000241,-0.000144,-0.000072,-0.000063,-0.000108,-0.000172,-0.000226,-0.000312,-0.000389,-0.000436,-0.000491,-0.000533,-0.000552,-0.000545,-0.000580,-0.000642,-0.000719,-0.000788,-0.000854,-0.000906,-0.000950,-0.000983,-0.001022,-0.001072,-0.001112,-0.001194,-0.001324,-0.001427,-0.001496,-0.001522,-0.001596,-0.001590,-0.001574,-0.001567,-0.001519,-0.001543,-0.001543,-0.001561,-0.001560,-0.001615,-0.001682,-0.001683,-0.001692,-0.001755,-0.001751,-0.001731,-0.001723,-0.001785,-0.001729,-0.001490,-0.001318,-0.001218,-0.001184,-0.001238,-0.001184,-0.001152,-0.001171,-0.001161,-0.001231,-0.001332,-0.001306,-0.001301,-0.001311,-0.001328,-0.001323,-0.001255,-0.001194,-0.001076,-0.001082,-0.001110,-0.001134,-0.001238,-0.001331,-0.001428,-0.001525,-0.001586,-0.001608,-0.001577,-0.001658,-0.001754,-0.001877,-0.001997,-0.002115,-0.002237,-0.002317,-0.002416,-0.002520,-0.002519,-0.002524,-0.002528,-0.002522,-0.002473,-0.002455,-0.002417,-0.002349,-0.002306,-0.002260,-0.002242,-0.002218,-0.002223,-0.002238,-0.002256,-0.002286,-0.002302,-0.002381,-0.002424,-0.002472,-0.002608,-0.002732,-0.002734,-0.002687,-0.002648,-0.002573,-0.002441,-0.002303,-0.002275,-0.002244,-0.002234,-0.002140,-0.002079,-0.002105,-0.002130,-0.002204,-0.002246,-0.002259,-0.002328,-0.002333,-0.002361,-0.002383,-0.002446,-0.002489,-0.002432,-0.002303,-0.002217,-0.002222,-0.002257,-0.002306,-0.002358,-0.002381,-0.002442,-0.002537,-0.002616,-0.002716,-0.002764,-0.002837,-0.002874,-0.002896,-0.002931,-0.002961,-0.003006,-0.003026,-0.002973,-0.002913,-0.002804,-0.002693,-0.002635,-0.002648,-0.002674,-0.002663,-0.002676,-0.002727,-0.002764,-0.002814,-0.002800,-0.002816,-0.002821,-0.002875,-0.002943,-0.003032,-0.003157,-0.003240,-0.003319,-0.003349,-0.003374,-0.003368,-0.003301,-0.003266,-0.003240,-0.003161,-0.003163,-0.003112,-0.003023,-0.002962,-0.002953,-0.002945,-0.002990,-0.003054,-0.003096,-0.003109,-0.003185,-0.003287,-0.003385,-0.003457,-0.003555,-0.003635,-0.003653,-0.003491,-0.003358,-0.003270,-0.003292,-0.003302,-0.003351,-0.003358,-0.003418,-0.003541,-0.003675,-0.003754,-0.003791,-0.003842,-0.003868,-0.003877,-0.003884,-0.003864,-0.003811,-0.003770,-0.003802,-0.003816,-0.003781,-0.003766,-0.003817,-0.003822,-0.003805,-0.003783,-0.003723,-0.003760,-0.003777,-0.003810,-0.003864,-0.003976,-0.004066,-0.004161,-0.004280,-0.004350,-0.004434,-0.004455,-0.004460,-0.004421,-0.004379,-0.004340,-0.004229,-0.004175,-0.004170,-0.004082,-0.004008,-0.003893,-0.003819,-0.003819,-0.003812,-0.003769,-0.003809,-0.003888,-0.003986,-0.004111,-0.004249,-0.004341,-0.004456,-0.004515,-0.004607,-0.004729,-0.004757,-0.004638,-0.004604,-0.004551,-0.004533,-0.004555,-0.004634,-0.004682,-0.004734,-0.004801,-0.004877,-0.004918,-0.004950,-0.004945,-0.004928,-0.004912,-0.004918,-0.004884,-0.004820,-0.004808,-0.004796,-0.004878,-0.004936,-0.004979,-0.005046,-0.005030,-0.004978,-0.004918,-0.004877,-0.004902,-0.004910,-0.004829,-0.004849,-0.004929,-0.004981,-0.005076,-0.005184,-0.005260,-0.005306,-0.005365,-0.005342,-0.005338,-0.005314,-0.005337,-0.005324,-0.005206,-0.005143,-0.005045,-0.004912,-0.004778,-0.004688,-0.004682,-0.004769,-0.004880,-0.004968,-0.005056,-0.005183,-0.005288,-0.005376,-0.005490,-0.005600,-0.005703,-0.005809,-0.005902,-0.005853,-0.005802,-0.005876,-0.005911,-0.005901,-0.005910,-0.005914,-0.005904,-0.005886,-0.005861,-0.005856,-0.005867,-0.005877,-0.005858,-0.005829,-0.005801,-0.005809,-0.005803,-0.005807,-0.005780,-0.005794,-0.005850,-0.005899,-0.005987,-0.006077,-0.006123,-0.006142,-0.006066,-0.005965,-0.005882,-0.005894,-0.005926,-0.005999,-0.006050,-0.006051,-0.006122,-0.006192,-0.006241,-0.006214,-0.006209,-0.006198,-0.006259,-0.006321,-0.006376,-0.006371,-0.006304,-0.006278,-0.006275,-0.006245,-0.006180,-0.006165,-0.006176,-0.006200,-0.006208,-0.006258,-0.006312,-0.006394,-0.006434,-0.006417,-0.006429,-0.006407,-0.006521,-0.006578,-0.006559,-0.006504,-0.006506,-0.006569,-0.006604,-0.006646,-0.006698,-0.006772,-0.006869,-0.006959,-0.007047,-0.007097,-0.007125,-0.007143,-0.007162,-0.007168,-0.007169,-0.007165,-0.007148,-0.007124,-0.007076,-0.007017,-0.006979,-0.006908,-0.006891,-0.006854,-0.006792,-0.006741,-0.006641,-0.006525,-0.006385,-0.006310,-0.006335,-0.006351,-0.006396,-0.006465,-0.006512,-0.006597,-0.006706,-0.006736,-0.006771,-0.006835,-0.006846,-0.006849,-0.006808,-0.006822,-0.006883,-0.006905,-0.006878,-0.006846,-0.006815,-0.006856,-0.006867,-0.006879,-0.006903,-0.006912,-0.006972,-0.007058,-0.007105,-0.007146,-0.007132,-0.007014,-0.007027,-0.007041,-0.007038,-0.007081,-0.007147,-0.007204,-0.007229,-0.007268,-0.007339,-0.007436,-0.007535,-0.007607,-0.007687,-0.007738,-0.007769,-0.007786,-0.007787,-0.007768,-0.007766,-0.007721,-0.007692,-0.007657,-0.007642,-0.007644,-0.007592,-0.007528,-0.007472,-0.007389,-0.007295,-0.007182,-0.007069,-0.006939,-0.006825,-0.006713,-0.006685,-0.006691,-0.006728,-0.006844,-0.006908,-0.006988,-0.007018,-0.007035,-0.007145,-0.007195,-0.007207,-0.007237,-0.007198,-0.007212,-0.007313,-0.007440,-0.007484,-0.007551,-0.007572,-0.007641,-0.007710,-0.007787,-0.007898,-0.007983,-0.008037,-0.008080,-0.008114,-0.008146,-0.008143,-0.008146,-0.008126,-0.008125,-0.008189,-0.008263,-0.008331,-0.008432,-0.008492,-0.008535,-0.008591,-0.008656,-0.008709,-0.008737,-0.008760,-0.008715,-0.008606,-0.008586,-0.008547,-0.008532,-0.008491,-0.008401,-0.008378,-0.008364,-0.008370,-0.008382,-0.008364,-0.008381,-0.008420,-0.008419,-0.008365,-0.008312,-0.008293,-0.008255,-0.008200,-0.008124,-0.008078,-0.008119,-0.008162,-0.008269,-0.008366,-0.008475,-0.008433,-0.008414,-0.008550,-0.008641,-0.008680,-0.008731,-0.008744,-0.008748,-0.008797,-0.008873,-0.008980,-0.009035,-0.009155,-0.009298,-0.009424,-0.009529,-0.009571,-0.009626,-0.009683,-0.009746,-0.009788,-0.009776,-0.009763,-0.009756,-0.009749,-0.009800,-0.009879,-0.009940,-0.010008,-0.010060,-0.010067,-0.010002,-0.009989,-0.009944,-0.009904,-0.009944,-0.010021,-0.009964,-0.009803,-0.009810,-0.009766,-0.009735,-0.009696,-0.009662,-0.009677,-0.009669,-0.009640,-0.009604,-0.009626,-0.009632,-0.009722,-0.009691,-0.009629,-0.009661,-0.009629,-0.009610,-0.009553,-0.009508,-0.009489,-0.009460,-0.009505,-0.009558,-0.009636,-0.009668,-0.009636,-0.009690,-0.009808,-0.009891,-0.009904,-0.009922,-0.009937,-0.009916,-0.009911,-0.009960,-0.009980,-0.009948,-0.010053,-0.010198,-0.010371,-0.010533,-0.010693,-0.010835,-0.010934,-0.010998,-0.011027,-0.011025,-0.011015,-0.010966,-0.010948,-0.010965,-0.010962,-0.010965,-0.010976,-0.010997,-0.011013,-0.010993,-0.010969,-0.010912,-0.010992,-0.011127,-0.011224,-0.011404,-0.011509,-0.011544,-0.011517,-0.011472,-0.011433,-0.011447,-0.011479,-0.011544,-0.011594,-0.011643,-0.011718,-0.011791,-0.011798,-0.011716,-0.011677,-0.011659,-0.011629,-0.011491,-0.011372,-0.011312,-0.011249,-0.011215,-0.011096,-0.011007,-0.010928,-0.010861,-0.010829,-0.010922,-0.010912,-0.010852,-0.010776,-0.010686,-0.010593,-0.010510,-0.010456,-0.010431,-0.010350,-0.010234,-0.010178,-0.010127,-0.010121,-0.010129,-0.010174,-0.010249,-0.010338,-0.010395,-0.010449,-0.010490,-0.010515,-0.010560,-0.010575,-0.010561,-0.010576,-0.010614,-0.010621,-0.010629,-0.010612,-0.010579,-0.010546,-0.010664,-0.010801,-0.010747,-0.010700,-0.010873,-0.011015,-0.011023,-0.011068,-0.011090,-0.011100,-0.011135,-0.011129,-0.011197,-0.011277,-0.011361,-0.011382,-0.011342,-0.011240,-0.011093,-0.010966,-0.010865,-0.010694,-0.010541,-0.010529,-0.010620,-0.010774,-0.010954,-0.011004,-0.010948,-0.010843,-0.010744,-0.010722,-0.010701,-0.010577,-0.010533,-0.010542,-0.010498,-0.010439,-0.010368,-0.010307,-0.010248,-0.010115,-0.009975,-0.009863,-0.009743,-0.009617,-0.009492,-0.009397,-0.009332,-0.009288,-0.009222,-0.009142,-0.009111,-0.009096,-0.009129,-0.009142,-0.009158,-0.009199,-0.009210,-0.009229,-0.009273,-0.009288,-0.009246,-0.009296,-0.009387,-0.009265,-0.009266,-0.009229,-0.009191,-0.009276,-0.009272,-0.009318,-0.009360,-0.009399,-0.009467,-0.009492,-0.009571,-0.009707,-0.009822,-0.009822,-0.009716,-0.009577,-0.009402,-0.009252,-0.009091,-0.008977,-0.009084,-0.009165,-0.009153,-0.009184,-0.009275,-0.009476,-0.009635,-0.009681,-0.009584,-0.009500,-0.009475,-0.009467,-0.009471,-0.009516,-0.009533,-0.009497,-0.009477,-0.009428,-0.009388,-0.009275,-0.009179,-0.009158,-0.009125,-0.009040,-0.008959,-0.008855,-0.008759,-0.008644,-0.008518,-0.008380,-0.008252,-0.008121,-0.007979,-0.007898,-0.007872,-0.007847,-0.007839,-0.007869,-0.007948,-0.008018,-0.008000,-0.008076,-0.007997,-0.007977,-0.007990,-0.008048,-0.007981,-0.007932,-0.007939,-0.007978,-0.007981,-0.008007,-0.008104,-0.008241,-0.008367,-0.008529,-0.008626,-0.008600,-0.008514,-0.008398,-0.008263,-0.008119,-0.007993,-0.008065,-0.008018,-0.007865,-0.007781,-0.007712,-0.007658,-0.007758,-0.007924,-0.008115,-0.008076,-0.008045,-0.007988,-0.007983,-0.007970,-0.008016,-0.008066,-0.008060,-0.008068,-0.008040,-0.007977,-0.007891,-0.007874,-0.007863,-0.007831,-0.007813,-0.007755,-0.007652,-0.007538,-0.007405,-0.007270,-0.007132,-0.006974,-0.006820,-0.006655,-0.006494,-0.006350,-0.006238,-0.006182,-0.006143,-0.006142,-0.006133,-0.006110,-0.006112,-0.006082,-0.006087,-0.006064,-0.006062,-0.006103,-0.006003,-0.006071,-0.006187,-0.006245,-0.006352,-0.006498,-0.006714,-0.006876,-0.007031,-0.007151,-0.007119,-0.007026,-0.006933,-0.006801,-0.006617,-0.006659,-0.006656,-0.006561,-0.006619,-0.006664,-0.006837,-0.006902,-0.006820,-0.006923,-0.007139,-0.007256,-0.007275,-0.007146,-0.007107,-0.007095,-0.007062,-0.007096,-0.007173,-0.007209,-0.007161,-0.007093,-0.007073,-0.007110,-0.007054,-0.007020,-0.007023,-0.006934,-0.006782,-0.006613,-0.006475,-0.006357,-0.006207,-0.006067,-0.005921,-0.005773,-0.005608,-0.005469,-0.005377,-0.005282,-0.005204,-0.005143,-0.005077,-0.005181,-0.005147,-0.005151,-0.005138,-0.005097,-0.005163,-0.005297,-0.005267,-0.005354,-0.005417,-0.005450,-0.005582,-0.005705,-0.005856,-0.005962,-0.006037,-0.006151,-0.006192,-0.006103,-0.006011,-0.005899,-0.005834,-0.005907,-0.005822,-0.005897,-0.005994,-0.005984,-0.006006,-0.006118,-0.006122,-0.006074,-0.006273,-0.006492,-0.006552,-0.006386,-0.006253,-0.006164,-0.006089,-0.006062,-0.006064,-0.005991,-0.005897,-0.005869,-0.005871,-0.005854,-0.005816,-0.005837,-0.005775,-0.005670,-0.005582,-0.005459,-0.005337,-0.005227,-0.005110,-0.005006,-0.004874,-0.004721,-0.004546,-0.004433,-0.004377,-0.004335,-0.004301,-0.004267,-0.004202,-0.004382,-0.004370,-0.004417,-0.004464,-0.004456,-0.004452,-0.004464,-0.004322,-0.004278,-0.004312,-0.004300,-0.004227,-0.004256,-0.004373,-0.004460,-0.004561,-0.004686,-0.004788,-0.004727,-0.004594,-0.004442,-0.004539,-0.004558,-0.004507,-0.004586,-0.004585,-0.004497,-0.004481,-0.004488,-0.004526,-0.004419,-0.004492,-0.004698,-0.004710,-0.004585,-0.004445,-0.004302,-0.004228,-0.004141,-0.004026,-0.003897,-0.003803,-0.003806,-0.003812,-0.003788,-0.003766,-0.003708,-0.003596,-0.003501,-0.003430,-0.003350,-0.003232,-0.003160,-0.003086,-0.003021,-0.002918,-0.002836,-0.002804,-0.002764,-0.002742,-0.002748,-0.002736,-0.002749,-0.002828,-0.003009,-0.002965,-0.002993,-0.003052,-0.003059,-0.003028,-0.002949,-0.002772,-0.002620,-0.002543,-0.002449,-0.002423,-0.002526,-0.002630,-0.002714,-0.002811,-0.002943,-0.003031,-0.002943,-0.002816,-0.002710,-0.002832,-0.002759,-0.002726,-0.002705,-0.002618,-0.002454,-0.002356,-0.002408,-0.002420,-0.002238,-0.002282,-0.002537,-0.002547,-0.002438,-0.002336,-0.002262,-0.002183,-0.002104,-0.002028,-0.001915,-0.001842,-0.001830,-0.001836,-0.001842,-0.001830,-0.001781,-0.001745,-0.001658,-0.001577,-0.001494,-0.001399,-0.001326,-0.001236,-0.001188,-0.001123,-0.001043,-0.001035,-0.000989,-0.000979,-0.000981,-0.001009,-0.001056,-0.001166,-0.001285,-0.001293,-0.001195,-0.001163,-0.001154,-0.001091,-0.000914,-0.000757,-0.000819,-0.000848,-0.000792,-0.000789,-0.000857,-0.000912,-0.000965,-0.000997,-0.001027,-0.001059,-0.001003,-0.000928,-0.000946,-0.001032,-0.000887,-0.000843,-0.000818,-0.000814,-0.000791,-0.000790,-0.000746,-0.000684,-0.000444,-0.000465,-0.000643,-0.000641,-0.000580,-0.000534,-0.000500,-0.000485,-0.000455,-0.000400,-0.000355,-0.000301,-0.000283,-0.000272,-0.000223,-0.000178,-0.000135,-0.000078,-0.000022,-0.000001,0.000070,0.000143,0.000181,0.000203,0.000238,0.000254,0.000254,0.000236,0.000215,0.000183,0.000146,0.000124,0.000096,0.000024,-0.000072,-0.000122,0.000064,0.000184,0.000250,0.000430,0.000665,0.000741,0.000689,0.000659,0.000608,0.000504,0.000398,0.000314,0.000265,0.000272,0.000246,0.000189,0.000160,0.000169,0.000113,-0.000006,0.000067,0.000077,0.000096,0.000142,0.000167,0.000258,0.000353,0.000483,0.000707,0.000645,0.000586,0.000635,0.000713,0.000771,0.000817,0.000833,0.000892,0.000976,0.001060,0.001083,0.001162,0.001215,0.001256,0.001265,0.001283,0.001318,0.001307,0.001305,0.001319,0.001332,0.001329,0.001274,0.001222,0.001188,0.001176,0.001169,0.001125,0.001072,0.001030,0.000994,0.000948,0.000879,0.000814,0.000731,0.000802,0.001007,0.001259,0.001521,0.001638,0.001635,0.001634,0.001624,0.001567,0.001469,0.001391,0.001312,0.001226,0.001144,0.001096,0.001047,0.001007,0.000932,0.000839,0.000677,0.000730,0.000906,0.000909,0.000944,0.001017,0.001048,0.001268,0.001470,0.001657,0.001649,0.001648,0.001717,0.001771,0.001772,0.001758,0.001787,0.001850,0.001909,0.001932,0.001923,0.001934,0.001949,0.001880,0.001841,0.001815,0.001741,0.001700,0.001677,0.001648,0.001638,0.001627,0.001595,0.001561,0.001545,0.001542,0.001542,0.001532,0.001528,0.001491,0.001445,0.001402,0.001336,0.001268,0.001239,0.001196,0.001230,0.001322,0.001386,0.001367,0.001387,0.001362,0.001307,0.001213,0.001095,0.000992,0.000877,0.000790,0.000739,0.000690,0.000592,0.000452,0.000343,0.000213,0.000055,0.000005,0.000234,0.000334,0.000358,0.000461,0.000636,0.000901,0.001162,0.001252,0.001236,0.001239,0.001273,0.001246,0.001209,0.001151,0.001093,0.001048,0.001002,0.000968,0.000918,0.000861,0.000795,0.000702,0.000627,0.000520,0.000392,0.000327,0.000254,0.000205,0.000188,0.000150,0.000078,0.000030,-0.000033,-0.000062,-0.000101,-0.000111,-0.000092,-0.000146,-0.000170,-0.000170,-0.000194,-0.000247,-0.000176,-0.000123,-0.000080,-0.000010,0.000050,0.000131,0.000236,0.000189,0.000098,-0.000002,-0.000107,-0.000198,-0.000282,-0.000345,-0.000408,-0.000496,-0.000584,-0.000703,-0.000753,-0.000849,-0.000982,-0.001167,-0.001163,-0.000986,-0.000813,-0.000552,-0.000280,-0.000014,0.000111,0.000119,0.000118,0.000133,0.000093,0.000027,-0.000002,-0.000056,-0.000179,-0.000343,-0.000449,-0.000533,-0.000630,-0.000699,-0.000757,-0.000823,-0.000932,-0.001034,-0.001077,-0.001120,-0.001116,-0.001109,-0.001097,-0.001089,-0.001108,-0.001124,-0.001106,-0.001059,-0.001035,-0.000994,-0.000952,-0.000942,-0.000922,-0.000890,-0.000874,-0.000829,-0.000768,-0.000724,-0.000665,-0.000560,-0.000482,-0.000383,-0.000286,-0.000348,-0.000418,-0.000471,-0.000511,-0.000551,-0.000609,-0.000670,-0.000727,-0.000807,-0.000861,-0.000916,-0.000990,-0.001096,-0.001230,-0.001392,-0.001522,-0.001553,-0.001461,-0.001291,-0.001132,-0.001149,-0.001198,-0.001174,-0.001181,-0.001200,-0.001223,-0.001257,-0.001296,-0.001328,-0.001369,-0.001434,-0.001469,-0.001450,-0.001404,-0.001347,-0.001328,-0.001356,-0.001411,-0.001450,-0.001458,-0.001425,-0.001369,-0.001306,-0.001261,-0.001222,-0.001215,-0.001197,-0.001170,-0.001151,-0.001134,-0.001151,-0.001137,-0.001138,-0.001130,-0.001108,-0.001083,-0.001059,-0.001007,-0.000945,-0.000885,-0.000835,-0.000781,-0.000736,-0.000688,-0.000786,-0.000837,-0.000881,-0.000930,-0.000998,-0.001102,-0.001194,-0.001242,-0.001310,-0.001351,-0.001369,-0.001455,-0.001542,-0.001514,-0.001712,-0.001850,-0.002024,-0.002159,-0.002262,-0.002380,-0.002470,-0.002520,-0.002536,-0.002514,-0.002519,-0.002557,-0.002618,-0.002642,-0.002628,-0.002575,-0.002517,-0.002514,-0.002480,-0.002439,-0.002377,-0.002380,-0.002412,-0.002377,-0.002359,-0.002392,-0.002360,-0.002346,-0.002329,-0.002282,-0.002248,-0.002243,-0.002264,-0.002265,-0.002268,-0.002263,-0.002291,-0.002304,-0.002295,-0.002270,-0.002245,-0.002225,-0.002194,-0.002190,-0.002173,-0.002145,-0.002103,-0.002060,-0.002021,-0.002028,-0.002053,-0.002045,-0.002009,-0.002006,-0.002046,-0.002086,-0.002110,-0.002118,-0.002125,-0.002140,-0.002136,-0.002126,-0.002112,-0.002107,-0.002097,-0.002163,-0.002178,-0.002237,-0.002285,-0.002310,-0.002359,-0.002364,-0.002336,-0.002299,-0.002319,-0.002362,-0.002382,-0.002357,-0.002344,-0.002322,-0.002311,-0.002316,-0.002304,-0.002319,-0.002289,-0.002289,-0.002314,-0.002281,-0.002280,-0.002276,-0.002270,-0.002257,-0.002265,-0.002266,-0.002258,-0.002244,-0.002276,-0.002303,-0.002309,-0.002296,-0.002302,-0.002297,-0.002288,-0.002274,-0.002246,-0.002222,-0.002200,-0.002195,-0.002186,-0.002159,-0.002125,-0.002116,-0.002147,-0.002174,-0.002149,-0.002116,-0.002058,-0.002042,-0.002073,-0.002097,-0.002098,-0.002088,-0.002096,-0.002111,-0.002126,-0.002110,-0.002087,-0.002063,-0.002026,-0.002096,-0.002145,-0.002196,-0.002242,-0.002285,-0.002343,-0.002384,-0.002384,-0.002402,-0.002385,-0.002400,-0.002433,-0.002409,-0.002399,-0.002399,-0.002416,-0.002405,-0.002404,-0.002384,-0.002379,-0.002341,-0.002364,-0.002377,-0.002370,-0.002394,-0.002406,-0.002420,-0.002428,-0.002434,-0.002442,-0.002436,-0.002446,-0.002454,-0.002430,-0.002417,-0.002406,-0.002395,-0.002398,-0.002401,-0.002372,-0.002333,-0.002301,-0.002265,-0.002256,-0.002233,-0.002185,-0.002122,-0.002100,-0.002099,-0.002129,-0.002098,-0.002065,-0.002059,-0.002088,-0.002131,-0.002143,-0.002132,-0.002157,-0.002178,-0.002206,-0.002236,-0.002229,-0.002216,-0.002230,-0.002293,-0.002329,-0.002336,-0.002372,-0.002404,-0.002449,-0.002433,-0.002471,-0.002506,-0.002485,-0.002453,-0.002492,-0.002525,-0.002552,-0.002562,-0.002591,-0.002596,-0.002593,-0.002519,-0.002491,-0.002502,-0.002510,-0.002518,-0.002503,-0.002521,-0.002545,-0.002564,-0.002579,-0.002584,-0.002583,-0.002583,-0.002593,-0.002608,-0.002608,-0.002598,-0.002582,-0.002572,-0.002583,-0.002608,-0.002591,-0.002553,-0.002510,-0.002509,-0.002508,-0.002486,-0.002465,-0.002445,-0.002428,-0.002420,-0.002400,-0.002375,-0.002350,-0.002347,-0.002370,-0.002407,-0.002423,-0.002418,-0.002433,-0.002443,-0.002463,-0.002495,-0.002486,-0.002469,-0.002482,-0.002503,-0.002503,-0.002509,-0.002535,-0.002616,-0.002656,-0.002679,-0.002740,-0.002788,-0.002739,-0.002705,-0.002717,-0.002660,-0.002584,-0.002542,-0.002494,-0.002496,-0.002505,-0.002499,-0.002525,-0.002573,-0.002593,-0.002625,-0.002667,-0.002724,-0.002725,-0.002713,-0.002742,-0.002759,-0.002734,-0.002720,-0.002731,-0.002755,-0.002786,-0.002779,-0.002765,-0.002758,-0.002761,-0.002790,-0.002793,-0.002778,-0.002749,-0.002717,-0.002706,-0.002717,-0.002736,-0.002734,-0.002692,-0.002700,-0.002660,-0.002644,-0.002605,-0.002593,-0.002601,-0.002603,-0.002618,-0.002647,-0.002676,-0.002700,-0.002739,-0.002758,-0.002770,-0.002775,-0.002780,-0.002830,-0.002846,-0.002865,-0.002901,-0.002963,-0.003027,-0.003055,-0.003095,-0.003139,-0.003123,-0.003064,-0.003014,-0.002946,-0.002878,-0.002867,-0.002872,-0.002934,-0.002982,-0.002982,-0.002993,-0.002974,-0.002985,-0.003022,-0.003083,-0.003152,-0.003113,-0.003084,-0.003078,-0.003056,-0.003009,-0.002998,-0.002985,-0.002976,-0.003000,-0.003002,-0.002988,-0.002976,-0.002955,-0.002970,-0.002976,-0.002972,-0.002969,-0.002954,-0.002948,-0.002961,-0.002964,-0.002966,-0.002946,-0.002999,-0.002987,-0.002955,-0.002912,-0.002896,-0.002890,-0.002881,-0.002902,-0.002936,-0.002962,-0.002987,-0.003037,-0.003046,-0.003062,-0.003072,-0.003078,-0.003141,-0.003168,-0.003197,-0.003213,-0.003255,-0.003287,-0.003339,-0.003358,-0.003392,-0.003385,-0.003306,-0.003265,-0.003274,-0.003299,-0.003360,-0.003440,-0.003515,-0.003550,-0.003553,-0.003549,-0.003581,-0.003586,-0.003576,-0.003614,-0.003634,-0.003643,-0.003620,-0.003587,-0.003547,-0.003516,-0.003529,-0.003527,-0.003521,-0.003545,-0.003557,-0.003547,-0.003535,-0.003503,-0.003513,-0.003517,-0.003510,-0.003521,-0.003513,-0.003511,-0.003528,-0.003526,-0.003538,-0.003535,-0.003557,-0.003555,-0.003515,-0.003508,-0.003528,-0.003551,-0.003597,-0.003658,-0.003697,-0.003710,-0.003741,-0.003806,-0.003839,-0.003863,-0.003886,-0.003928,-0.004001,-0.004064,-0.004084,-0.004088,-0.004115,-0.004173,-0.004274,-0.004356,-0.004446,-0.004500,-0.004491,-0.004489,-0.004567,-0.004645,-0.004677,-0.004712,-0.004749,-0.004805,-0.004866,-0.004940,-0.005038,-0.005093,-0.005142,-0.005161,-0.005187,-0.005208,-0.005206,-0.005218,-0.005257,-0.005292,-0.005340,-0.005378,-0.005416,-0.005444,-0.005483,-0.005495,-0.005513,-0.005513,-0.005562,-0.005603,-0.005629,-0.005671,-0.005704,-0.005744,-0.005817,-0.005885,-0.005983,-0.006075,-0.006156