-0.003109,,-0.002523,-0.002419,-0.002248,-0.001851,-0.001537,-0.001607,-0.000882,-0.001262,-0.001681,-0.001874,-0.002481,-0.002521,-0.002567,-0.002570,-0.002441,-0.002506,-0.002506,-0.002487,-0.002474,-0.002513,-0.002607,-0.002694,-0.002742,-0.002714,-0.002621,-0.002554,-0.002509,-0.002449,-0.002391,-0.002320,-0.002284,-0.002239,-0.002215,-0.002195,-0.002177,-0.002178,-0.002189,-0.002193,-0.002180,-0.002166,-0.002165,-0.002182,-0.002212,-0.002242,-0.002267,-0.002248,-0.002210,-0.002221,-0.002253,-0.002266,-0.002304,-0.002351,-0.002033,-0.001387,-0.001234,-0.000264,-0.001060,-0.001071,-0.001760,-0.002226,-0.002186,-0.002392,-0.002164,-0.002159,-0.001990,-0.001593,-0.001084,-0.000805,-0.000563,-0.000200,0.000082,-0.000455,-0.000990,-0.001055,-0.001740,-0.002011,-0.001974,-0.001945,-0.002115,-0.001988,-0.001967,-0.001946,-0.001900,-0.001880,-0.001937,-0.002041,-0.002117,-0.002153,-0.002061,-0.001992,-0.001923,-0.001877,-0.001788,-0.001710,-0.001676,-0.001619,-0.001600,-0.001588,-0.001578,-0.001576,-0.001580,-0.001589,-0.001590,-0.001593,-0.001606,-0.001627,-0.001662,-0.001695,-0.001673,-0.001647,-0.001711,-0.001722,-0.001810,-0.001798,-0.001540,-0.001105,-0.000786,-0.000688,-0.000335,-0.000395,-0.000535,-0.000747,-0.001250,-0.001422,-0.002058,-0.001832,-0.001885,-0.001616,-0.001576,-0.001409,-0.000762,-0.000251,-0.000117,0.000242,0.000242,-0.000076,-0.000470,-0.000549,-0.001118,-0.001332,-0.001423,-0.001462,-0.001356,-0.001399,-0.001369,-0.001333,-0.001282,-0.001229,-0.001215,-0.001336,-0.001414,-0.001490,-0.001477,-0.001363,-0.001301,-0.001243,-0.001150,-0.001057,-0.001020,-0.000960,-0.000946,-0.000923,-0.000908,-0.000905,-0.000905,-0.000917,-0.000930,-0.000952,-0.000977,-0.000999,-0.001018,-0.001035,-0.001000,-0.000983,-0.001017,-0.000975,-0.001039,-0.001084,-0.000915,-0.000514,-0.000057,0.000310,0.000389,0.000281,0.000006,-0.000414,-0.000764,-0.000525,-0.001265,-0.001050,-0.000988,-0.001056,-0.000797,-0.000782,-0.000079,0.000987,0.001240,0.001429,0.000683,0.000621,0.000231,0.000152,-0.000096,-0.000310,-0.000783,-0.000969,-0.000932,-0.000838,-0.000791,-0.000738,-0.000690,-0.000636,-0.000592,-0.000630,-0.000719,-0.000796,-0.000803,-0.000756,-0.000630,-0.000532,-0.000441,-0.000335,-0.000278,-0.000223,-0.000202,-0.000153,-0.000109,-0.000078,-0.000046,-0.000037,-0.000040,-0.000039,-0.000051,-0.000047,-0.000043,-0.000019,0.000008,0.000010,0.000078,0.000128,0.000130,0.000056,0.000031,0.000076,0.000537,0.001347,0.001350,0.001961,0.001523,0.001230,0.000855,0.000690,0.000317,-0.000002,0.000084,-0.000119,0.000661,0.000948,0.001176,0.001951,0.001711,0.001502,0.001241,0.001693,0.001707,0.001505,0.001044,0.000708,0.000201,0.000026,0.000001,-0.000001,0.000050,0.000079,0.000115,0.000164,0.000198,0.000249,0.000222,0.000133,0.000076,0.000055,0.000092,0.000175,0.000269,0.000362,0.000434,0.000482,0.000520,0.000583,0.000641,0.000693,0.000743,0.000782,0.000794,0.000813,0.000820,0.000827,0.000846,0.000886,0.000914,0.000945,0.001028,0.001053,0.001084,0.001129,0.001152,0.001138,0.001505,0.002327,0.002458,0.003072,0.003025,0.002797,0.002640,0.002173,0.001957,0.001401,0.001232,0.001223,0.002136,0.002599,0.002078,0.001864,0.001181,0.000841,0.000705,0.001694,0.002509,0.003009,0.002639,0.002210,0.001779,0.001607,0.001315,0.001427,0.001436,0.001417,0.001434,0.001472,0.001481,0.001507,0.001532,0.001480,0.001405,0.001347,0.001297,0.001342,0.001447,0.001558,0.001649,0.001708,0.001742,0.001780,0.001815,0.001854,0.001889,0.001919,0.001952,0.001974,0.001992,0.002002,0.002016,0.002045,0.002088,0.002156,0.002229,0.002244,0.002283,0.002344,0.002337,0.002285,0.002402,0.002951,0.003272,0.003513,0.004129,0.003941,0.004028,0.003761,0.003280,0.002940,0.002516,0.002556,0.003279,0.003981,0.003437,0.003227,0.002160,0.001562,0.001861,0.002412,0.003415,0.004370,0.004029,0.003714,0.003337,0.003086,0.003206,0.003120,0.003124,0.003102,0.003090,0.003109,0.003122,0.003134,0.003130,0.003146,0.003130,0.003031,0.002970,0.002955,0.003043,0.003185,0.003297,0.003396,0.003440,0.003463,0.003488,0.003505,0.003521,0.003550,0.003590,0.003648,0.003672,0.003678,0.003693,0.003733,0.003790,0.003868,0.003927,0.004001,0.004025,0.004038,0.004045,0.004053,0.004020,0.004196,0.004907,0.005132,0.005742,0.006049,0.005738,0.005660,0.004966,0.004581,0.004422,0.004312,0.004782,0.005642,0.005587,0.005872,0.004751,0.003973,0.004453,0.004462,0.005034,0.006059,0.005814,0.005374,0.004860,0.004545,0.004726,0.004756,0.004747,0.004730,0.004711,0.004717,0.004691,0.004672,0.004677,0.004686,0.004724,0.004688,0.004592,0.004506,0.004483,0.004572,0.004654,0.004758,0.004777,0.004767,0.004742,0.004718,0.004691,0.004684,0.004708,0.004749,0.004761,0.004758,0.004761,0.004770,0.004824,0.004874,0.004868,0.004975,0.004991,0.005000,0.005159,0.005467,0.005660,0.005767,0.006537,0.006778,0.006407,0.007124,0.006270,0.006580,0.006279,0.005504,0.005941,0.005082,0.005268,0.005769,0.006418,0.007274,0.006852,0.005861,0.005445,0.004840,0.005210,0.006680,0.005964,0.006518,0.005556,0.005839,0.005695,0.005559,0.005855,0.005722,0.005855,0.005942,0.005629,0.005843,0.005735,0.005726,0.005807,0.005906,0.005839,0.005749,0.005720,0.005650,0.005670,0.005727,0.005950,0.005764,0.005919,0.005830,0.005809,0.005774,0.005909,0.005685,0.005782,0.005800,0.005700,0.005799,0.005893,0.005851,0.005928,0.005894,0.006032,0.005961,0.006089,0.006456,0.006687,0.007121,0.007748,0.007942,0.008019,0.007921,0.007968,0.007873,0.007559,0.007177,0.006776,0.006804,0.007184,0.007669,0.008095,0.008763,0.008878,0.007963,0.006801,0.005682,0.005468,0.006618,0.006680,0.007326,0.006726,0.006576,0.006676,0.006659,0.006730,0.006574,0.006631,0.006776,0.006704,0.006803,0.006903,0.006740,0.006849,0.006912,0.006870,0.006844,0.006814,0.006811,0.006838,0.006829,0.006843,0.006798,0.006967,0.006818,0.007002,0.006966,0.006968,0.007005,0.007099,0.007156,0.007146,0.007213,0.007259,0.007276,0.007499,0.007536,0.007601,0.007782,0.007611,0.007654,0.007901,0.008700,0.008952,0.009608,0.009984,0.009926,0.009915,0.009706,0.009381,0.009519,0.008978,0.009495,0.009331,0.009656,0.010092,0.010270,0.010640,0.010163,0.008627,0.007468,0.006715,0.007130,0.007807,0.008442,0.008217,0.007802,0.007717,0.007828,0.007816,0.007992,0.007965,0.007858,0.007985,0.008080,0.007922,0.008113,0.008139,0.008105,0.008189,0.008389,0.008773,0.009278,0.009294,0.009374,0.008888,0.008734,0.008654,0.008310,0.008657,0.008533,0.008424,0.008612,0.008588,0.008603,0.008743,0.008891,0.009001,0.009062,0.009312,0.009365,0.009335,0.009785,0.009715,0.009927,0.010239,0.010710,0.011343,0.011675,0.012485,0.012640,0.012668,0.012712,0.012444,0.012359,0.011887,0.012130,0.012185,0.012452,0.013048,0.013147,0.012982,0.012587,0.011997,0.010958,0.009184,0.009404,0.010069,0.010606,0.011351,0.011132,0.010659,0.010460,0.010391,0.011005,0.011144,0.011044,0.011566,0.011694,0.011309,0.011683,0.011655,0.011587,0.011630,0.011867,0.012120,0.012134,0.012112,0.011779,0.011117,0.011060,0.010916,0.010410,0.010671,0.010285,0.010415,0.010763,0.010949,0.011012,0.010978,0.010721,0.010615,0.010777,0.010771,0.011216,0.011108,0.011414,0.011552,0.011793,0.012445,0.012666,0.013737,0.013831,0.014472,0.014749,0.014664,0.014869,0.014885,0.014577,0.014327,0.013881,0.014318,0.014443,0.014721,0.015337,0.015321,0.015218,0.015518,0.014922,0.012960,0.012313,0.011810,0.011823,0.012596,0.013313,0.013663,0.014084,0.014282,0.015126,0.015258,0.015147,0.015564,0.015316,0.015074,0.015035,0.015088,0.015122,0.015067,0.015110,0.015111,0.014894,0.014819,0.014610,0.014258,0.014338,0.014357,0.013995,0.014379,0.014075,0.014076,0.014361,0.014315,0.014205,0.014058,0.013683,0.013359,0.013322,0.013441,0.013648,0.013493,0.013226,0.013151,0.012897,0.013883,0.014263,0.015107,0.015388,0.015358,0.015573,0.015247,0.015156,0.015323,0.015079,0.015220,0.014653,0.014723,0.014698,0.014440,0.015389,0.015591,0.015556,0.016354,0.015578,0.015283,0.014633,0.012891,0.012990,0.013307,0.014077,0.015672,0.016089,0.016309,0.016897,0.016867,0.016690,0.016946,0.016722,0.016648,0.016531,0.016555,0.016592,0.016513,0.016506,0.016511,0.016427,0.016232,0.016118,0.015789,0.015692,0.015691,0.015520,0.015970,0.015885,0.015640,0.015560,0.015303,0.015180,0.015257,0.015306,0.015478,0.015744,0.015443,0.015466,0.015258,0.015121,0.015231,0.014863,0.015564,0.015824,0.015851,0.016478,0.016247,0.016397,0.016229,0.016016,0.015938,0.015361,0.015514,0.015386,0.015109,0.015531,0.014922,0.015586,0.015765,0.015862,0.016651,0.015710,0.015920,0.015884,0.013908,0.013552,0.013728,0.014466,0.016097,0.016991,0.017042,0.017232,0.017169,0.017123,0.017308,0.017170,0.017150,0.016956,0.016925,0.016837,0.016710,0.016739,0.016735,0.016649,0.016519,0.016194,0.015867,0.015459,0.015353,0.014996,0.015053,0.014863,0.014729,0.014521,0.014505,0.014561,0.014548,0.014541,0.014469,0.014343,0.014380,0.014176,0.014019,0.013940,0.013863,0.014129,0.014395,0.014442,0.014628,0.014578,0.014535,0.014363,0.014540,0.014438,0.014006,0.013611,0.013440,0.013238,0.012618,0.013467,0.012792,0.013048,0.013281,0.012973,0.013295,0.012819,0.012971,0.012990,0.012281,0.011238,0.009983,0.009962,0.011316,0.012558,0.013304,0.013697,0.013703,0.013629,0.013802,0.013845,0.013926,0.013957,0.014059,0.014019,0.013878,0.013881,0.013776,0.013649,0.013856,0.013720,0.013938,0.013759,0.013729,0.013173,0.012806,0.012644,0.012626,0.012565,0.012654,0.012597,0.012327,0.012204,0.012162,0.011943,0.011726,0.011606,0.011497,0.011713,0.011553,0.012219,0.012012,0.012156,0.012029,0.011901,0.011920,0.011291,0.011657,0.011594,0.010666,0.010486,0.010580,0.009714,0.009583,0.010551,0.010018,0.010646,0.010613,0.010686,0.010559,0.009972,0.010543,0.010313,0.010585,0.010091,0.008509,0.007463,0.007211,0.008227,0.009703,0.010300,0.010409,0.010298,0.010204,0.010376,0.010127,0.010308,0.010272,0.010520,0.010204,0.010303,0.010650,0.010358,0.010773,0.010427,0.011029,0.010886,0.010756,0.010872,0.010628,0.010745,0.010753,0.011269,0.011147,0.011605,0.011250,0.011194,0.011181,0.010850,0.011012,0.011326,0.011151,0.011374,0.011140,0.010963,0.010672,0.010670,0.010620,0.010772,0.010589,0.010758,0.010582,0.010361,0.010112,0.009144,0.008865,0.008343,0.008693,0.009109,0.009558,0.010016,0.009677,0.009701,0.009426,0.009022,0.009055,0.008814,0.008608,0.008728,0.008082,0.007073,0.005974,0.006572,0.007516,0.008602,0.009350,0.009678,0.009471,0.009443,0.009678,0.009308,0.009262,0.009635,0.009531,0.009764,0.010296,0.010147,0.010229,0.010097,0.010192,0.009876,0.009902,0.009883,0.009446,0.009472,0.009555,0.009703,0.009748,0.010255,0.010181,0.010244,0.010587,0.010453,0.010422,0.010668,0.010515,0.010931,0.010958,0.010990,0.010852,0.010853,0.010284,0.010578,0.010557,0.010307,0.010212,0.010283,0.009746,0.008874,0.009105,0.008474,0.009174,0.009342,0.010054,0.010002,0.009717,0.009826,0.009945,0.009380,0.009027,0.009332,0.008949,0.009219,0.009163,0.008423,0.007047,0.006992,0.007370,0.008778,0.010357,0.010764,0.010742,0.010853,0.010486,0.009977,0.009866,0.010277,0.010264,0.010397,0.010678,0.010308,0.010235,0.010365,0.010382,0.010255,0.010690,0.010774,0.010644,0.010883,0.010709,0.010564,0.010337,0.010265,0.009925,0.009553,0.009877,0.009957,0.010043,0.010528,0.010239,0.010389,0.010300,0.010275,0.010271,0.010195,0.010000,0.010009,0.010171,0.009752,0.009774,0.009989,0.009615,0.009573,0.009981,0.009372,0.009643,0.009840,0.009777,0.009391,0.009757,0.009600,0.009836,0.009917,0.009508,0.009628,0.009246,0.009045,0.008683,0.008469,0.008511,0.007577,0.007379,0.008048,0.009271,0.010391,0.010696,0.010622,0.010152,0.009853,0.009727,0.009974,0.009915,0.009883,0.010030,0.009814,0.009788,0.010174,0.010129,0.009950,0.010183,0.010063,0.009795,0.009814,0.009382,0.009243,0.009071,0.008774,0.008692,0.008608,0.008826,0.008549,0.009427,0.009430,0.009605,0.009872,0.009838,0.009724,0.009654,0.009530,0.009682,0.009387,0.009443,0.009316,0.009297,0.009351,0.009351,0.009352,0.009137,0.008639,0.008508,0.008601,0.008398,0.008240,0.008579,0.008273,0.008358,0.008364,0.007955,0.007765,0.007728,0.007319,0.007189,0.007278,0.008285,0.007284,0.006039,0.005390,0.005422,0.006586,0.008163,0.009053,0.009042,0.008633,0.008451,0.008542,0.008470,0.008530,0.008672,0.008617,0.008676,0.008655,0.008630,0.008465,0.008404,0.008238,0.008058,0.008071,0.007762,0.007831,0.007865,0.007725,0.007995,0.008355,0.008758,0.008545,0.009416,0.009087,0.009155,0.009260,0.009100,0.008876,0.008911,0.008774,0.008610,0.008654,0.008490,0.008383,0.008086,0.007705,0.007673,0.007538,0.007387,0.007649,0.007741,0.007681,0.007785,0.007787,0.007691,0.007622,0.007486,0.007051,0.006732,0.006901,0.006940,0.006132,0.006359,0.006378,0.006590,0.006030,0.005203,0.004074,0.003553,0.003820,0.005151,0.006817,0.007159,0.007148,0.007165,0.007182,0.007183,0.007263,0.007223,0.007057,0.007258,0.007070,0.007099,0.006966,0.006809,0.006836,0.006908,0.006884,0.006856,0.006640,0.006599,0.006482,0.006506,0.006507,0.006914,0.007414,0.007452,0.007620,0.007297,0.007014,0.006646,0.006243,0.006307,0.005990,0.005667,0.005717,0.005492,0.005552,0.005112,0.004523,0.004336,0.004000,0.004412,0.005230,0.005705,0.005677,0.006090,0.006165,0.006174,0.006446,0.006301,0.006399,0.006478,0.006623,0.005886,0.004593,0.004496,0.004673,0.004773,0.004812,0.004550,0.002845,0.001574,0.001595,0.002134,0.003538,0.004712,0.005096,0.005054,0.004981,0.004914,0.004798,0.004617,0.004560,0.004413,0.004314,0.004057,0.003780,0.003520,0.003472,0.003578,0.003585,0.003740,0.003672,0.003662,0.003668,0.003629,0.003761,0.003657,0.003912,0.004065,0.004225,0.004350,0.004325,0.004057,0.003794,0.003877,0.003544,0.003476,0.003551,0.003598,0.003697,0.003609,0.003428,0.003095,0.002429,0.002719,0.002876,0.003188,0.003348,0.003552,0.003734,0.004384,0.004005,0.004309,0.004224,0.003851,0.003679,0.002555,0.001667,0.001552,0.002247,0.002667,0.002211,0.002206,0.001298,0.000026,-0.000297,-0.000291,0.000162,0.001354,0.002167,0.002414,0.002244,0.002093,0.001924,0.001699,0.001571,0.001244,0.001385,0.001197,0.001196,0.001280,0.001310,0.001436,0.001464,0.001480,0.001586,0.001571,0.001599,0.001681,0.002530,0.002704,0.002961,0.003259,0.002909,0.002845,0.002562,0.002310,0.002144,0.002260,0.002007,0.001866,0.001684,0.001760,0.001430,0.001374,0.001564,0.000974,0.000193,0.000737,0.000436,0.000647,0.000846,0.001105,0.001087,0.000971,0.001034,0.001522,0.001858,0.002108,0.002530,0.002853,0.002505,0.002109,0.001978,0.001646,0.001340,0.001316,0.001131,0.000527,-0.000114,-0.000456,-0.000398,0.000265,0.000847,0.001185,0.001235,0.001203,0.001115,0.001025,0.001099,0.001118,0.001271,0.001228,0.001196,0.001162,0.001154,0.001167,0.001227,0.001405,0.001260,0.001220,0.000988,0.000822,0.000948,0.001318,0.001820,0.002113,0.002373,0.002296,0.002139,0.002045,0.001865,0.001833,0.001706,0.001500,0.001386,0.001499,0.001535,0.001567,0.001627,0.001289,0.000565,0.001050,0.000711,0.000908,0.001066,0.001217,0.001214,0.001282,0.001627,0.002048,0.002309,0.002729,0.002801,0.002485,0.002459,0.002474,0.002132,0.001950,0.001654,0.001750,0.001723,0.001513,0.001164,0.000743,0.000467,0.000543,0.001304,0.001727,0.001600,0.001393,0.001505,0.001585,0.001401,0.001305,0.001259,0.001232,0.001184,0.001106,0.001073,0.000887,0.000796,0.000786,0.000673,0.000937,0.001025,0.000823,0.000771,0.000967,0.001433,0.001709,0.002291,0.002322,0.002321,0.002225,0.002056,0.001922,0.001748,0.001633,0.001409,0.001283,0.001206,0.001182,0.001135,0.000747,-0.000077,0.000295,0.000113,0.000421,0.000415,0.000414,0.000367,0.000218,0.000364,0.000857,0.000493,0.000969,0.001191,0.000885,0.001000,0.001027,0.000565,0.000576,0.000155,0.000209,0.000357,0.000552,0.000637,0.000424,-0.000035,-0.000454,-0.000216,0.000459,0.001012,0.001190,0.001210,0.001135,0.001089,0.001254,0.001199,0.001470,0.001642,0.001702,0.001741,0.001756,0.001921,0.001968,0.001975,0.001942,0.001738,0.001551,0.001737,0.002205,0.002663,0.002777,0.003009,0.002754,0.002569,0.002404,0.002246,0.002057,0.001761,0.001675,0.001414,0.001208,0.001025,0.000958,0.001006,0.000634,-0.000313,0.000012,-0.000319,0.000056,0.000101,0.000198,0.000194,0.000062,0.000207,0.000716,0.000661,0.001055,0.001434,0.001438,0.001551,0.001511,0.001176,0.001115,0.000970,0.001028,0.001165,0.001383,0.001582,0.001716,0.001649,0.001171,0.000675,0.000828,0.001407,0.001773,0.001853,0.001874,0.001793,0.001624,0.001891,0.001974,0.001829,0.001816,0.001863,0.001776,0.001669,0.001692,0.001452,0.001258,0.000906,0.000657,0.000888,0.001493,0.002168,0.002379,0.002760,0.002594,0.002503,0.002400,0.002222,0.002036,0.001784,0.001350,0.001110,0.000851,0.000713,0.000689,0.000733,0.000367,-0.000509,-0.000333,-0.000883,-0.000574,-0.000330,-0.000067,-0.000075,-0.000238,-0.000094,0.000199,0.000260,0.000398,0.000649,0.000934,0.001210,0.001563,0.001653,0.001431,0.001798,0.001763,0.001593,0.001437,0.001224,0.001130,0.001194,0.000938,0.000316,-0.000093,0.000287,0.001041,0.001334,0.001147,0.001063,0.001299,0.001225,0.001244,0.001134,0.001065,0.000976,0.000931,0.001128,0.001355,0.001321,0.001167,0.001013,0.000958,0.001270,0.001728,0.002174,0.002477,0.002600,0.002441,0.002363,0.002262,0.002155,0.002165,0.002156,0.001966,0.001768,0.001592,0.001412,0.001266,0.001147,0.000897,0.000495,0.000240,-0.000361,-0.000465,-0.000404,-0.000415,-0.000668,-0.001032,-0.001108,-0.000489,-0.000749,-0.001060,-0.001038,-0.000740,-0.000758,-0.000563,-0.000170,-0.000485,-0.000462,-0.000711,-0.000720,-0.000684,-0.000971,-0.001124,-0.001095,-0.001299,-0.001321,-0.001581,-0.001558,-0.000888,-0.000287,-0.000020,0.000509,0.001226,0.001518,0.000842,0.000157,-0.000081,-0.000145,-0.000185,-0.000205,-0.000393,-0.000479,-0.000618,-0.000603,-0.000311,0.000166,0.000713,0.001372,0.001865,0.002142,0.002238,0.002246,0.002165,0.001962,0.001752,0.001634,0.001748,0.001542,0.001491,0.001416,0.001207,0.000938,0.000826,0.000916,0.000667,0.000351,-0.000008,-0.000319,-0.000756,-0.001128,-0.001277,-0.001305,-0.000945,-0.001034,-0.001347,-0.001514,-0.001570,-0.002040,-0.002371,-0.002270,-0.002299,-0.002217,-0.002273,-0.001924,-0.001421,-0.001406,-0.001310,-0.000913,-0.001062,-0.000940,-0.001100,-0.001750,-0.002111,-0.001418,-0.000394,-0.000166,-0.000005,-0.000291,-0.001544,-0.002461,-0.002093,-0.001466,-0.001218,-0.001551,-0.001951,-0.002098,-0.001928,-0.001806,-0.001790,-0.001733,-0.001490,-0.000981,-0.000417,0.000094,0.000688,0.001323,0.001584,0.001438,0.001184,0.000976,0.000683,0.000404,0.000270,0.000189,0.000052,-0.000121,-0.000048,0.000231,0.000568,0.000941,0.000627,0.000160,-0.000317,-0.000514,-0.000288,-0.000486,-0.001054,-0.000804,-0.000460,-0.000518,-0.000891,-0.001137,-0.001440,-0.001984,-0.002080,-0.001854,-0.001826,-0.001730,-0.001419,-0.001458,-0.001500,-0.001083,-0.000861,-0.001561,-0.001683,-0.001754,-0.002390,-0.002648,-0.001532,-0.000130,-0.000347,-0.001743,-0.003057,-0.003548,-0.003455,-0.003478,-0.003115,-0.002466,-0.002013,-0.001397,-0.001034,-0.000991,-0.001305,-0.001609,-0.001695,-0.001717,-0.001671,-0.001781,-0.001340,-0.000497,0.000225,0.000602,0.000883,0.000896,0.000518,0.000412,0.000155,-0.000142,-0.000381,-0.000492,-0.000347,-0.000006,0.000480,0.000649,0.000464,0.000032,-0.000182,-0.000157,-0.000260,-0.000387,-0.000340,-0.000315,-0.000099,-0.000081,-0.000329,-0.000586,-0.001143,-0.001893,-0.001680,-0.002135,-0.002310,-0.001912,-0.002162,-0.001716,-0.001980,-0.001715,-0.001579,-0.001916,-0.002591,-0.002334,-0.002208,-0.002835,-0.003040,-0.002075,-0.001767,-0.002749,-0.003650,-0.003784,-0.003011,-0.001858,-0.001859,-0.001371,-0.001155,-0.001378,-0.001293,-0.000439,-0.000395,-0.001219,-0.001336,-0.000868,-0.000741,-0.001177,-0.001590,-0.002075,-0.001483,-0.001683,-0.000947,-0.000350,-0.000612,-0.000330,-0.000726,-0.001228,-0.001500,-0.001648,-0.001593,-0.001119,-0.000398,-0.000368,-0.000584,-0.000920,-0.001288,-0.001578,-0.001957,-0.002446,-0.002500,-0.003248,-0.003436,-0.003557,-0.003773,-0.003887,-0.003879,-0.003786,-0.003788,-0.003448,-0.003205,-0.003132,-0.003068,-0.002768,-0.002715,-0.002913,-0.002719,-0.002691,-0.003010,-0.002480,-0.001971,-0.002558,-0.004251,-0.004770,-0.004831,-0.004992,-0.004901,-0.004545,-0.004533,-0.003599,-0.003732,-0.003434,-0.003405,-0.003036,-0.002612,-0.002318,-0.002635,-0.002630,-0.002250,-0.002054,-0.002135,-0.001985,-0.001679,-0.002295,-0.003109,-0.003345,-0.003294,-0.003086,-0.002948,-0.002735,-0.002701,-0.002751,-0.002659,-0.002598,-0.002688,-0.002762,-0.002349,-0.002750,-0.002939,-0.003103,-0.003252,-0.003359,-0.003450,-0.003734,-0.004010,-0.004700,-0.004578,-0.004257,-0.003927,-0.003586,-0.003130,-0.002727,-0.002821,-0.002585,-0.002461,-0.003052,-0.003297,-0.003674,-0.003317,-0.003354,-0.002968,-0.002744,-0.003016,-0.003455,-0.004528,-0.004523,-0.005140,-0.005504,-0.005628,-0.005989,-0.005672,-0.005088,-0.005705,-0.005042,-0.005103,-0.004829,-0.004894,-0.004368,-0.003807,-0.003610,-0.003980,-0.003996,-0.003312,-0.002884,-0.003187,-0.003092,-0.003107,-0.003985,-0.005181,-0.005344,-0.005798,-0.004744,-0.004619,-0.004123,-0.003905,-0.003671,-0.003431,-0.003238,-0.003426,-0.003789,-0.003879,-0.004239,-0.004388,-0.004602,-0.004848,-0.005040,-0.004889,-0.004592,-0.004610,-0.004359,-0.004116,-0.004183,-0.004356,-0.004573,-0.004772,-0.004929,-0.004869,-0.004530,-0.004045,-0.003881,-0.003241,-0.003523,-0.003695,-0.004158,-0.004315,-0.004621,-0.005268,-0.006089,-0.006804,-0.006623,-0.006580,-0.006631,-0.006584,-0.006673,-0.006894,-0.006720,-0.007115,-0.006440,-0.006009,-0.005450,-0.005160,-0.004937,-0.004540,-0.004062,-0.003641,-0.003414,-0.003927,-0.004686,-0.004980,-0.004806,-0.005178,-0.006013,-0.006367,-0.006518,-0.007579,-0.006668,-0.006296,-0.005560,-0.005145,-0.005155,-0.005198,-0.005086,-0.005074,-0.005297,-0.005634,-0.005867,-0.005768,-0.005777,-0.005990,-0.006222,-0.006305,-0.006066,-0.005203,-0.004178,-0.004007,-0.004523,-0.005093,-0.005591,-0.006097,-0.006372,-0.006326,-0.005746,-0.005955,-0.006140,-0.005437,-0.005097,-0.004977,-0.004920,-0.005175,-0.005463,-0.005756,-0.006376,-0.006677,-0.007176,-0.007039,-0.006785,-0.006747,-0.007286,-0.007998,-0.008152,-0.008279,-0.008037,-0.006929,-0.005417,-0.004060,-0.003699,-0.004616,-0.005031,-0.005049,-0.005428,-0.005792,-0.005882,-0.005810,-0.005692,-0.006211,-0.007400,-0.007466,-0.007529,-0.008189,-0.007975,-0.008123,-0.007976,-0.007901,-0.008118,-0.008156,-0.007858,-0.007449,-0.007274,-0.007345,-0.007274,-0.007088,-0.007003,-0.006912,-0.006885,-0.006998,-0.006867,-0.006619,-0.006274,-0.006086,-0.005622,-0.005467,-0.005888,-0.007175,-0.008488,-0.008815,-0.007784,-0.006388,-0.005606,-0.006257,-0.007120,-0.007695,-0.007357,-0.007051,-0.007596,-0.007794,-0.008136,-0.007730,-0.007444,-0.006901,-0.007408,-0.007329,-0.007327,-0.007533,-0.007679,-0.007664,-0.008204,-0.008253,-0.008163,-0.007683,-0.007048,-0.006906,-0.007022,-0.007388,-0.008362,-0.008926,-0.008524,-0.007676,-0.007425,-0.007486,-0.008544,-0.008565,-0.008442,-0.008562,-0.008393,-0.008382,-0.008276,-0.007929,-0.007705,-0.007875,-0.008229,-0.008515,-0.008800,-0.009073,-0.009064,-0.009161,-0.009266,-0.009257,-0.009231,-0.009375,-0.009524,-0.009501,-0.009668,-0.009502,-0.009010,-0.008619,-0.008660,-0.009166,-0.009632,-0.009705,-0.009389,-0.008061,-0.006796,-0.006964,-0.007084,-0.007300,-0.007291,-0.007009,-0.006717,-0.006907,-0.007387,-0.007322,-0.007763,-0.007972,-0.008047,-0.007400,-0.007148,-0.007847,-0.008512,-0.008500,-0.008518,-0.008660,-0.008872,-0.009004,-0.008912,-0.008326,-0.007749,-0.008168,-0.008920,-0.009450,-0.009827,-0.009400,-0.009526,-0.008901,-0.009013,-0.008786,-0.008758,-0.009057,-0.009210,-0.008924,-0.008690,-0.008430,-0.008399,-0.008618,-0.008919,-0.009241,-0.009480,-0.009601,-0.009948,-0.010062,-0.010074,-0.010240,-0.010436,-0.010209,-0.009841,-0.009847,-0.009842,-0.009867,-0.010029,-0.010224,-0.010491,-0.010577,-0.010483,-0.010121,-0.010023,-0.009352,-0.008250,-0.007330,-0.006632,-0.006604,-0.006974,-0.007238,-0.007495,-0.007223,-0.006910,-0.007036,-0.007537,-0.008394,-0.008645,-0.007698,-0.006835,-0.006736,-0.006854,-0.007425,-0.008171,-0.009076,-0.008970,-0.008624,-0.008578,-0.008909,-0.009466,-0.010034,-0.010203,-0.010109,-0.010286,-0.010542,-0.010036,-0.009658,-0.009653,-0.009542,-0.009584,-0.009839,-0.010131,-0.010296,-0.010125,-0.010100,-0.010467,-0.010851,-0.011188,-0.011508,-0.011353,-0.011298,-0.010779,-0.010778,-0.010938,-0.010834,-0.010523,-0.010189,-0.010225,-0.010459,-0.010191,-0.010461,-0.010329,-0.010757,-0.010971,-0.011048,-0.010917,-0.010653,-0.010714,-0.010496,-0.009869,-0.008543,-0.007966,-0.008356,-0.008301,-0.009048,-0.009918,-0.009484,-0.008601,-0.008810,-0.009600,-0.010362,-0.010692,-0.010320,-0.009853,-0.009284,-0.008729,-0.008531,-0.008515,-0.008892,-0.009699,-0.010567,-0.011109,-0.011420,-0.011674,-0.011968,-0.012148,-0.012236,-0.012325,-0.012340,-0.011902,-0.011399,-0.011356,-0.011738,-0.012230,-0.012508,-0.012851,-0.013008,-0.013106,-0.012958,-0.012208,-0.011936,-0.012527,-0.012355,-0.012080,-0.013023,-0.012276,-0.012244,-0.011844,-0.011655,-0.011510,-0.011715,-0.011998,-0.012164,-0.011998,-0.011753,-0.012542,-0.012001,-0.012681,-0.012794,-0.011965,-0.012506,-0.012141,-0.012084,-0.011561,-0.010844,-0.010586,-0.010577,-0.010635,-0.010971,-0.011352,-0.010616,-0.010050,-0.010849,-0.011977,-0.012310,-0.012117,-0.012068,-0.011992,-0.011655,-0.011059,-0.010324,-0.009777,-0.009423,-0.009333,-0.009484,-0.010038,-0.010945,-0.012118,-0.013081,-0.013569,-0.013784,-0.013941,-0.013775,-0.013781,-0.013772,-0.013816,-0.013949,-0.013998,-0.013643,-0.013368,-0.013815,-0.013991,-0.012952,-0.012700,-0.012068,-0.011588,-0.011939,-0.012225,-0.013367,-0.014566,-0.014847,-0.014107,-0.013809,-0.013684,-0.013977,-0.013886,-0.013895,-0.014472,-0.014989,-0.015193,-0.015497,-0.015881,-0.015632,-0.015996,-0.015858,-0.015810,-0.015147,-0.014787,-0.014703,-0.014936,-0.014911,-0.014479,-0.013977,-0.013079,-0.012621,-0.013335,-0.014225,-0.014513,-0.014568,-0.014532,-0.014284,-0.014074,-0.013903,-0.013575,-0.013285,-0.013187,-0.012664,-0.011880,-0.011323,-0.010822,-0.010711,-0.010942,-0.011390,-0.011862,-0.012211,-0.012512,-0.012741,-0.012895,-0.012947,-0.012765,-0.012863,-0.013185,-0.012812,-0.012508,-0.012666,-0.011460,-0.011867,-0.012046,-0.012016,-0.011779,-0.011507,-0.011801,-0.012304,-0.013182,-0.013499,-0.013223,-0.013551,-0.013739,-0.013813,-0.013504,-0.014143,-0.014832,-0.015537,-0.016087,-0.015978,-0.015606,-0.015420,-0.014656,-0.013887,-0.012854,-0.011560,-0.011194,-0.011659,-0.012905,-0.014066,-0.014239,-0.013914,-0.013195,-0.013866,-0.014314,-0.013530,-0.013199,-0.013925,-0.014545,-0.014561,-0.014491,-0.014449,-0.014453,-0.014485,-0.014389,-0.014253,-0.013999,-0.013399,-0.012734,-0.012357,-0.012245,-0.012237,-0.012148,-0.011735,-0.011073,-0.010807,-0.010604,-0.010656,-0.010597,-0.010619,-0.010510,-0.010050,-0.009952,-0.010142,-0.010788,-0.011066,-0.010150,-0.012113,-0.010831,-0.009982,-0.011187,-0.010278,-0.010461,-0.010448,-0.010303,-0.010634,-0.010735,-0.010632,-0.010825,-0.012138,-0.012819,-0.013571,-0.014387,-0.014045,-0.013452,-0.012007,-0.010902,-0.010728,-0.009871,-0.010218,-0.010091,-0.009142,-0.009257,-0.010263,-0.011015,-0.011826,-0.012115,-0.012257,-0.011904,-0.011056,-0.011034,-0.011885,-0.012933,-0.013310,-0.013308,-0.013319,-0.013271,-0.012785,-0.012135,-0.012110,-0.012359,-0.012571,-0.012860,-0.012942,-0.012871,-0.012729,-0.012531,-0.012297,-0.011938,-0.011484,-0.010594,-0.009979,-0.009672,-0.009405,-0.008842,-0.008416,-0.008429,-0.008826,-0.010199,-0.008873,-0.009489,-0.009178,-0.010192,-0.009486,-0.010067,-0.009620,-0.008968,-0.009031,-0.008882,-0.008399,-0.008138,-0.008167,-0.009013,-0.010210,-0.011171,-0.012006,-0.012409,-0.012321,-0.011182,-0.010164,-0.011231,-0.010063,-0.010371,-0.011196,-0.009842,-0.008231,-0.007779,-0.007450,-0.008842,-0.008871,-0.009577,-0.010599,-0.010779,-0.009819,-0.009387,-0.009948,-0.010863,-0.011316,-0.011499,-0.011539,-0.011022,-0.010363,-0.010160,-0.010075,-0.010180,-0.010801,-0.011355,-0.011548,-0.011569,-0.011514,-0.011344,-0.011163,-0.011026,-0.010894,-0.010431,-0.009546,-0.008816,-0.008310,-0.007972,-0.007858,-0.007705,-0.007497,-0.007545,-0.006980,-0.007321,-0.006649,-0.007465,-0.007698,-0.006377,-0.007080,-0.005751,-0.005982,-0.006273,-0.005778,-0.005916,-0.006199,-0.007371,-0.008494,-0.009551,-0.010515,-0.010861,-0.010100,-0.008819,-0.009496,-0.008114,-0.007431,-0.007802,-0.006577,-0.007456,-0.007245,-0.006708,-0.007526,-0.007573,-0.007825,-0.008328,-0.010044,-0.010310,-0.010128,-0.010181,-0.009493,-0.009213,-0.009895,-0.010582,-0.010438,-0.009608,-0.009362,-0.009626,-0.009529,-0.009874,-0.010700,-0.011157,-0.010999,-0.010735,-0.010527,-0.010418,-0.010316,-0.010109,-0.009924,-0.009602,-0.008928,-0.008226,-0.007860,-0.007550,-0.007218,-0.006590,-0.007101,-0.006192,-0.007283,-0.006881,-0.005876,-0.006115,-0.006019,-0.004944,-0.006340,-0.005829,-0.005635,-0.005882,-0.005621,-0.006010,-0.006096,-0.007009,-0.007821,-0.008219,-0.009090,-0.009407,-0.008466,-0.008379,-0.008369,-0.006278,-0.007459,-0.006695,-0.006799,-0.007070,-0.008038,-0.007272,-0.006255,-0.007297,-0.006844,-0.007199,-0.009968,-0.010551,-0.009964,-0.009827,-0.009385,-0.009130,-0.009551,-0.009562,-0.008828,-0.008278,-0.008343,-0.008070,-0.007988,-0.008946,-0.009753,-0.009707,-0.009662,-0.009624,-0.009441,-0.009216,-0.009064,-0.008965,-0.008920,-0.008473,-0.007528,-0.006645,-0.006422,-0.006524,-0.005857,-0.004907,-0.005801,-0.004004,-0.005818,-0.005863,-0.005997,-0.006642,-0.007392,-0.006556,-0.006768,-0.006024,-0.006126,-0.005875,-0.005639,-0.005059,-0.004496,-0.004883,-0.005557,-0.006337,-0.007220,-0.007729,-0.006471,-0.006825,-0.005590,-0.006000,-0.007070,-0.006308,-0.006541,-0.007045,-0.006990,-0.007004,-0.005196,-0.006364,-0.005976,-0.005878,-0.007433,-0.008382,-0.007966,-0.007461,-0.007444,-0.007781,-0.007848,-0.006990,-0.006002,-0.005794,-0.005854,-0.005845,-0.006319,-0.006938,-0.007079,-0.006869,-0.006784,-0.006579,-0.006311,-0.006192,-0.006124,-0.005681,-0.005083,-0.004733,-0.004345,-0.004058,-0.003898,-0.003539,-0.002973,-0.002918,-0.003841,-0.002590,-0.004025,-0.004035,-0.004371,-0.005176,-0.006139,-0.006342,-0.006501,-0.005476,-0.004561,-0.004012,-0.003523,-0.002987,-0.002995,-0.003015,-0.003626,-0.004993,-0.005205,-0.005359,-0.004442,-0.005609,-0.004034,-0.005448,-0.005555,-0.005811,-0.005357,-0.004724,-0.005004,-0.005015,-0.003321,-0.003543,-0.002935,-0.003239,-0.004843,-0.005213,-0.004833,-0.004626,-0.004601,-0.004803,-0.004931,-0.004437,-0.003646,-0.003133,-0.002985,-0.003316,-0.003816,-0.004216,-0.004370,-0.004412,-0.004221,-0.004044,-0.003844,-0.003577,-0.003339,-0.003098,-0.002584,-0.002304,-0.002118,-0.001915,-0.001524,-0.000945,-0.000551,-0.000690,-0.001326,-0.001855,-0.002222,-0.002995,-0.003166,-0.003465,-0.003055,-0.002506,-0.002794,-0.001792,-0.001780,-0.001802,-0.001263,-0.000815,-0.001368,-0.001717,-0.001872,-0.002265,-0.001908,-0.001729,-0.002453,-0.003251,-0.001592,-0.002967,-0.002130,-0.001738,-0.001763,-0.001903,-0.002581,-0.003734,-0.001551,-0.001837,-0.001031,-0.000952,-0.001799,-0.001842,-0.001515,-0.001425,-0.001623,-0.001794,-0.001813,-0.001815,-0.001529,-0.001504,-0.001780,-0.001706,-0.001698,-0.001875,-0.001691,-0.001257,-0.001202,-0.001021,-0.000584,-0.000457,-0.000487,-0.000172,0.000183,0.000432,0.000532,0.000583,0.000481,0.000470,0.000567,0.000557,-0.000172,-0.001125,-0.001052,-0.002612,-0.002782,-0.002051,-0.001179,-0.000563,0.000437,0.001127,0.001335,0.001703,0.001728,0.001342,0.000512,0.000163,0.000226,0.000546,0.000763,0.000840,-0.000125,-0.000332,0.000727,-0.000881,-0.000469,-0.000614,-0.001421,-0.001287,-0.002375,-0.001725,0.000140,-0.000756,0.000410,0.000050,-0.000358,-0.000283,0.000123,0.000261,-0.000071,-0.000353,0.000072,0.000270,0.000295,0.000431,0.000795,0.001218,0.001246,0.001332,0.001659,0.001802,0.001783,0.001787,0.001933,0.002121,0.002109,0.001908,0.001758,0.001650,0.001995,0.002197,0.002012,0.001872,0.001960,0.001982,0.001626,0.000377,-0.000416,-0.001678,-0.002012,-0.000767,0.000161,0.001312,0.002393,0.002650,0.002974,0.003397,0.003441,0.003138,0.002834,0.002325,0.002365,0.002070,0.002332,0.002233,0.002329,0.000890,0.000792,0.000016,-0.000289,0.000876,-0.000133,-0.001558,-0.000955,-0.000608,0.000575,0.000627,0.001708,0.001489,0.001571,0.002081,0.002268,0.001844,0.001734,0.001943,0.002338,0.002671,0.002666,0.002931,0.003227,0.003063,0.003092,0.003248,0.003077,0.002913,0.002810,0.002664,0.002652,0.002809,0.002835,0.002661,0.002550,0.002602,0.002700,0.002719,0.002702,0.002870,0.003082,0.003010,0.002686,0.002081,0.001620,0.001497,0.001258,0.001395,0.001438,0.002252,0.002455,0.003540,0.003665,0.003702,0.003468,0.003084,0.002737,0.002130,0.002098,0.002436,0.002576,0.002514,0.002327,0.000802,-0.000605,-0.000579,-0.001216,-0.001226,-0.001558,-0.002552,-0.002029,-0.000390,-0.000058,0.001132,0.001678,0.001741,0.001934,0.002325,0.002558,0.002520,0.002580,0.002548,0.002511,0.002612,0.002728,0.002646,0.002423,0.002294,0.002463,0.002179,0.001771,0.001692,0.001456,0.001211,0.001215,0.001246,0.001040,0.000841,0.000948,0.000801,0.000611,0.000406,0.000223,0.000106,0.000070,-0.000052,-0.000595,-0.000705,-0.001027,-0.000865,-0.000836,-0.001004,-0.000618,0.000101,0.000469,0.002193,0.002300,0.001971,0.001503,0.001106,0.000904,0.000820,0.000903,0.000885,0.000645,0.000672,0.000433,0.000399,-0.000891,-0.001970,-0.002978,-0.004584,-0.004546,-0.004304,-0.002613,-0.001535,-0.000765,0.000085,0.000237,0.000862,0.000941,0.000720,0.001120,0.001949,0.002196,0.001531,0.001189,0.001190,0.000919,0.000655,0.000496,0.000454,0.000120,-0.000462,-0.000921,-0.001206,-0.001244,-0.001425,-0.001592,-0.001433,-0.001330,-0.001549,-0.001729,-0.001757,-0.001600,-0.001449,-0.001468,-0.001700,-0.001898,-0.001899,-0.001553,-0.001678,-0.001847,-0.001907,-0.001786,-0.002012,-0.001442,-0.000640,-0.000269,0.000679,0.000473,0.000058,0.000096,0.000256,0.000295,0.000391,0.000286,-0.000002,-0.000146,0.000132,0.000335,0.000587,0.000466,-0.000775,-0.001788,-0.002644,-0.003535,-0.002555,-0.002003,-0.001802,-0.001536,-0.001669,-0.001430,-0.001223,-0.001105,-0.000999,-0.001347,-0.001421,-0.001198,-0.001615,-0.001867,-0.002027,-0.001866,-0.001346,-0.001012,-0.001066,-0.001227,-0.001570,-0.002127,-0.002510,-0.002384,-0.002124,-0.001768,-0.001442,-0.001332,-0.001326,-0.001314,-0.001357,-0.001248,-0.001188,-0.001341,-0.001535,-0.001527,-0.001562,-0.001660,-0.001603,-0.001921,-0.001984,-0.001674,-0.001578,-0.001339,-0.000354,-0.000202,0.000036,-0.000286,-0.000188,0.000097,0.000230,-0.000037,-0.000295,-0.000430,-0.000753,-0.000764,-0.000573,-0.000612,-0.000336,-0.000046,-0.000116,-0.000940,-0.001318,-0.001664,-0.001982,-0.002650,-0.003431,-0.003949,-0.004012,-0.003786,-0.003080,-0.002732,-0.003001,-0.003615,-0.004048,-0.003641,-0.003176,-0.003416,-0.003694,-0.003465,-0.002685,-0.002540,-0.002921,-0.002789,-0.002787,-0.003000,-0.003073,-0.003149,-0.003299,-0.003046,-0.002580,-0.002394,-0.002546,-0.002705,-0.002565,-0.002440,-0.002710,-0.003096,-0.003291,-0.003264,-0.003276,-0.003216,-0.003027,-0.003123,-0.003323,-0.003429,-0.003359,-0.002867,-0.002183,-0.002162,-0.002736,-0.002869,-0.002246,-0.001767,-0.001898,-0.002185,-0.002354,-0.002451,-0.002452,-0.002633,-0.002815,-0.002797,-0.002703,-0.002579,-0.002645,-0.002501,-0.002484,-0.002614,-0.002809,-0.003128,-0.003698,-0.003967,-0.003693,-0.003298,-0.002807,-0.002871,-0.003057,-0.003114,-0.003045,-0.002794,-0.002751,-0.002739,-0.002859,-0.002985,-0.002709,-0.002680,-0.002888,-0.002848,-0.002857,-0.002918,-0.002876,-0.002697,-0.002715,-0.002838,-0.002648,-0.002353,-0.002443,-0.002844,-0.003019,-0.003005,-0.003100,-0.003205,-0.003335,-0.003408,-0.003385,-0.003280,-0.003050,-0.003134,-0.003353,-0.003271,-0.002750,-0.002405,-0.002656,-0.002948,-0.003507,-0.003372,-0.002566,-0.002022,-0.002220,-0.002538,-0.002543,-0.002502,-0.002372,-0.002604,-0.002971,-0.003110,-0.003162,-0.002912,-0.002564,-0.002577,-0.002665,-0.002712,-0.002685,-0.002789,-0.003254,-0.003599,-0.003739,-0.003777,-0.003753,-0.003838,-0.004117,-0.004193,-0.003655,-0.002956,-0.002791,-0.002995,-0.003068,-0.003345,-0.003240,-0.002764,-0.002712,-0.002773,-0.002717,-0.002724,-0.002790,-0.002867,-0.002983,-0.003162,-0.003204,-0.003144,-0.003353,-0.003553,-0.003553,-0.003484,-0.003378,-0.003224,-0.003387,-0.003745,-0.003855,-0.003843,-0.003605,-0.003408,-0.003592,-0.003953,-0.003804,-0.003198,-0.002577,-0.002691,-0.003223,-0.003196,-0.002579,-0.002032,-0.002087,-0.002543,-0.002607,-0.002389,-0.002340,-0.002364,-0.002615,-0.003024,-0.003072,-0.002923,-0.003009,-0.003235,-0.003373,-0.003230,-0.003101,-0.003380,-0.003630,-0.003444,-0.003529,-0.003961,-0.003833,-0.003587,-0.003644,-0.003767,-0.003446,-0.003031,-0.003024,-0.003607,-0.004007,-0.003768,-0.003223,-0.002908,-0.002979,-0.003068,-0.002887,-0.002728,-0.002845,-0.003039,-0.003269,-0.003376,-0.003310,-0.003252,-0.003346,-0.003493,-0.003741,-0.003754,-0.003516,-0.003232,-0.003363,-0.003872,-0.004186,-0.003875,-0.003486,-0.003552,-0.003793,-0.003816,-0.003690,-0.003447,-0.003389,-0.003653,-0.003699,-0.003490,-0.003011,-0.002550,-0.002517,-0.002893,-0.003035,-0.002849,-0.002828,-0.002742,-0.002888,-0.003367,-0.003532,-0.003595,-0.003893,-0.003880,-0.003660,-0.003167,-0.002993,-0.003374,-0.003573,-0.003447,-0.003831,-0.004472,-0.004625,-0.004488,-0.004433,-0.004148,-0.003712,-0.003375,-0.003212,-0.003262,-0.003249,-0.003083,-0.002856,-0.002643,-0.002468,-0.002360,-0.002684,-0.003248,-0.003359,-0.003167,-0.003497,-0.003840,-0.003641,-0.003355,-0.003196,-0.003329,-0.003837,-0.003975,-0.003770,-0.003523,-0.003490,-0.003798,-0.004083,-0.004119,-0.004091,-0.003776,-0.003472,-0.003501,-0.003953,-0.004039,-0.003926,-0.003988,-0.004110,-0.004019,-0.003635,-0.003322,-0.003206,-0.003033,-0.002894,-0.002931,-0.002952,-0.003014,-0.003224,-0.003489,-0.003751,-0.004043,-0.004298,-0.004306,-0.004334,-0.004047,-0.003710,-0.003772,-0.003846,-0.003918,-0.004422,-0.004916,-0.005197,-0.005312,-0.005295,-0.004754,-0.003933,-0.003316,-0.003164,-0.003607,-0.003964,-0.004182,-0.004131,-0.003591,-0.002976,-0.002704,-0.003424,-0.004370,-0.004397,-0.004179,-0.004490,-0.004531,-0.004157,-0.003964,-0.003780,-0.003667,-0.003921,-0.004101,-0.004102,-0.003997,-0.003826,-0.003804,-0.003850,-0.003987,-0.004010,-0.003790,-0.003634,-0.003682,-0.003879,-0.003662,-0.003485,-0.003901,-0.004508,-0.004516,-0.004172,-0.003917,-0.003642,-0.003255,-0.003132,-0.003287,-0.003219,-0.003288,-0.003571,-0.003716,-0.003871,-0.004121,-0.004347,-0.004474,-0.004876,-0.004875,-0.004625,-0.004197,-0.003814,-0.003685,-0.003831,-0.004430,-0.005049,-0.004964,-0.004658,-0.004336,-0.003865,-0.003612,-0.004026,-0.004693,-0.005009,-0.004700,-0.004299,-0.004199,-0.004030,-0.003924,-0.004200,-0.004635,-0.004913,-0.005077,-0.005107,-0.004656,-0.004159,-0.004178,-0.004151,-0.004052,-0.004285,-0.004527,-0.004660,-0.004648,-0.004471,-0.004342,-0.004269,-0.004474,-0.004469,-0.004282,-0.004136,-0.004150,-0.004216,-0.004204,-0.004242,-0.004625,-0.004917,-0.004590,-0.004202,-0.003900,-0.003552,-0.003581,-0.004032,-0.004183,-0.003940,-0.003812,-0.004119,-0.004402,-0.004453,-0.004477,-0.004723,-0.005226,-0.005624,-0.005724,-0.005376,-0.004642,-0.004174,-0.004224,-0.004629,-0.005393,-0.005980,-0.005881,-0.005430,-0.005364,-0.005474,-0.005528,-0.005574,-0.005579,-0.005454,-0.005346,-0.005499,-0.005707,-0.005939,-0.006151,-0.006171,-0.006274,-0.006319,-0.006192,-0.006062,-0.005903,-0.005792,-0.005991,-0.006259,-0.006317,-0.006565,-0.006723,-0.006830,-0.006789,-0.006641,-0.006613,-0.006660,-0.006878,-0.006888,-0.006708,-0.006483,-0.006349,-0.006261,-0.007195,-0.007536,-0.005199,-0.008482