-0.005520,,-0.004747,-0.004641,-0.004536,-0.004335,-0.004300,-0.004327,-0.004135,-0.004349,-0.004259,-0.004555,-0.005110,-0.005138,-0.005160,-0.004978,-0.004808,-0.004768,-0.004626,-0.004444,-0.004341,-0.004479,-0.004804,-0.005010,-0.005082,-0.004926,-0.004553,-0.004339,-0.004132,-0.003954,-0.003831,-0.003716,-0.003662,-0.003617,-0.003610,-0.003641,-0.003668,-0.003744,-0.003804,-0.003832,-0.003860,-0.003889,-0.003886,-0.003861,-0.003836,-0.003814,-0.003780,-0.003709,-0.003613,-0.003450,-0.003303,-0.003229,-0.003219,-0.003191,-0.003163,-0.003082,-0.002889,-0.002432,-0.002644,-0.002746,-0.003592,-0.004016,-0.003989,-0.003760,-0.003366,-0.003206,-0.003025,-0.002889,-0.002769,-0.002710,-0.002551,-0.002366,-0.002434,-0.002684,-0.002883,-0.003341,-0.003873,-0.003802,-0.003668,-0.003710,-0.003649,-0.003392,-0.003268,-0.003115,-0.002901,-0.002823,-0.002985,-0.003254,-0.003480,-0.003551,-0.003172,-0.002944,-0.002721,-0.002570,-0.002393,-0.002277,-0.002199,-0.002146,-0.002173,-0.002240,-0.002283,-0.002311,-0.002348,-0.002402,-0.002439,-0.002453,-0.002431,-0.002402,-0.002375,-0.002325,-0.002242,-0.002123,-0.001981,-0.001839,-0.001827,-0.001796,-0.001751,-0.001660,-0.001489,-0.001343,-0.001418,-0.001764,-0.001859,-0.001936,-0.002250,-0.002551,-0.002825,-0.002612,-0.002509,-0.002208,-0.002026,-0.001910,-0.001819,-0.001765,-0.001334,-0.000968,-0.001405,-0.001888,-0.002004,-0.001996,-0.002266,-0.002521,-0.002578,-0.002397,-0.002150,-0.002043,-0.001915,-0.001723,-0.001507,-0.001342,-0.001248,-0.001604,-0.001842,-0.002012,-0.001962,-0.001595,-0.001390,-0.001209,-0.001039,-0.000915,-0.000801,-0.000734,-0.000748,-0.000781,-0.000853,-0.000932,-0.000960,-0.001009,-0.001057,-0.001076,-0.001065,-0.001047,-0.001002,-0.000882,-0.000641,-0.000419,-0.000219,-0.000088,-0.000068,-0.000005,-0.000035,-0.000081,0.000044,0.000279,0.000338,0.000066,-0.000426,-0.000773,-0.000886,-0.000903,-0.001049,-0.000742,-0.000790,-0.000695,-0.000375,-0.000289,-0.000198,-0.000034,0.000328,0.000698,0.000129,-0.000541,-0.001019,-0.000715,-0.000460,-0.000685,-0.001139,-0.001198,-0.000993,-0.000709,-0.000442,-0.000206,-0.000057,0.000098,0.000299,0.000230,-0.000048,-0.000230,-0.000309,-0.000184,0.000259,0.000533,0.000684,0.000852,0.001026,0.001118,0.001155,0.001241,0.001262,0.001231,0.001272,0.001317,0.001355,0.001415,0.001496,0.001589,0.001711,0.001914,0.002167,0.002441,0.002735,0.002966,0.003189,0.003368,0.003257,0.002998,0.002869,0.003004,0.003316,0.003746,0.003244,0.002891,0.002608,0.002526,0.002523,0.002530,0.002446,0.002273,0.002543,0.002652,0.002950,0.003155,0.002802,0.002907,0.002633,0.002063,0.001686,0.001700,0.001473,0.001193,0.000904,0.000847,0.000904,0.001062,0.001304,0.001488,0.001647,0.001815,0.001955,0.002165,0.002116,0.001828,0.001644,0.001576,0.001704,0.001916,0.002105,0.002300,0.002559,0.002736,0.002870,0.003055,0.003187,0.003270,0.003346,0.003428,0.003509,0.003609,0.003721,0.003847,0.003999,0.004204,0.004442,0.004747,0.005122,0.005493,0.005873,0.006176,0.006199,0.006112,0.006046,0.006036,0.006232,0.006831,0.006673,0.006391,0.006209,0.006070,0.006029,0.005679,0.005394,0.005172,0.005265,0.005438,0.005917,0.006037,0.005071,0.004841,0.005010,0.004716,0.004507,0.004507,0.004290,0.004166,0.003861,0.003570,0.003505,0.003692,0.003786,0.003850,0.003978,0.004148,0.004175,0.004287,0.004478,0.004338,0.004104,0.004001,0.003819,0.003947,0.004257,0.004508,0.004806,0.005039,0.005201,0.005352,0.005445,0.005520,0.005578,0.005648,0.005723,0.005813,0.005934,0.006056,0.006177,0.006323,0.006526,0.006786,0.007105,0.007463,0.007830,0.008150,0.008283,0.008317,0.008257,0.008085,0.008020,0.008368,0.008628,0.008451,0.008633,0.008640,0.008612,0.008368,0.007877,0.007774,0.007961,0.008234,0.008546,0.008668,0.007683,0.007232,0.007344,0.007063,0.007188,0.007496,0.007142,0.006738,0.006282,0.006213,0.006464,0.006518,0.006648,0.006683,0.006727,0.006874,0.006974,0.007086,0.007154,0.007298,0.007304,0.007040,0.006935,0.006895,0.007201,0.007559,0.007901,0.008181,0.008355,0.008489,0.008585,0.008653,0.008693,0.008762,0.008847,0.008966,0.009115,0.009276,0.009436,0.009610,0.009813,0.010089,0.010433,0.010860,0.011286,0.011699,0.011902,0.011834,0.011596,0.011348,0.011204,0.011257,0.011923,0.012272,0.012428,0.012621,0.012430,0.012406,0.012193,0.012059,0.012480,0.012862,0.012848,0.013168,0.012366,0.011638,0.011054,0.010692,0.010582,0.010373,0.009897,0.009376,0.008825,0.008680,0.009008,0.009135,0.009236,0.009307,0.009355,0.009465,0.009519,0.009594,0.009671,0.009774,0.009945,0.009921,0.009640,0.009442,0.009327,0.009554,0.009816,0.010037,0.010128,0.010168,0.010171,0.010153,0.010118,0.010111,0.010141,0.010221,0.010360,0.010531,0.010742,0.011027,0.011354,0.011762,0.012207,0.012661,0.012938,0.013175,0.013273,0.013140,0.013006,0.013034,0.012938,0.012564,0.012641,0.012865,0.012340,0.012660,0.012804,0.013120,0.013127,0.012216,0.012321,0.012355,0.012491,0.012790,0.012827,0.012633,0.011969,0.011251,0.011244,0.010936,0.010366,0.010599,0.010116,0.010334,0.010342,0.010436,0.010656,0.010709,0.010965,0.011052,0.011028,0.011167,0.011150,0.011383,0.011666,0.011868,0.011806,0.011644,0.011556,0.011291,0.011441,0.011711,0.011877,0.011886,0.012040,0.011910,0.011894,0.011924,0.011966,0.011920,0.012092,0.012138,0.012267,0.012655,0.013006,0.013442,0.013971,0.014402,0.014780,0.014911,0.015050,0.014968,0.014840,0.014947,0.015082,0.015072,0.015245,0.015276,0.015276,0.015440,0.015711,0.015710,0.015385,0.014896,0.014632,0.014979,0.015446,0.015467,0.015041,0.014525,0.013791,0.012975,0.012457,0.012230,0.012103,0.012214,0.011679,0.011697,0.011927,0.012158,0.012366,0.012460,0.012649,0.012726,0.012841,0.013152,0.013260,0.013305,0.013583,0.013767,0.013925,0.013769,0.013507,0.013387,0.013414,0.013715,0.013851,0.013907,0.014083,0.014144,0.014416,0.014398,0.014491,0.014639,0.014836,0.015052,0.015287,0.015613,0.015954,0.016414,0.017047,0.017772,0.018618,0.019166,0.019280,0.019340,0.019160,0.019179,0.019583,0.020513,0.020705,0.020640,0.020742,0.020756,0.020529,0.020146,0.019718,0.019756,0.019227,0.019094,0.018969,0.019033,0.019089,0.018258,0.017192,0.016086,0.015189,0.015225,0.015120,0.014978,0.014503,0.014138,0.014221,0.014563,0.014856,0.015197,0.015506,0.015952,0.016405,0.016815,0.017358,0.017934,0.018085,0.018147,0.018300,0.018079,0.017863,0.017953,0.018173,0.018365,0.018197,0.017901,0.017705,0.017955,0.018370,0.018247,0.018376,0.018617,0.018770,0.019118,0.019461,0.019829,0.020427,0.021208,0.022006,0.022786,0.023783,0.024823,0.025420,0.026140,0.026412,0.026544,0.027051,0.027822,0.028620,0.028804,0.029203,0.029541,0.029591,0.029317,0.028466,0.027828,0.027331,0.027435,0.027586,0.027685,0.028029,0.027786,0.026717,0.025070,0.023219,0.022648,0.022640,0.022971,0.023483,0.023411,0.023227,0.023510,0.024200,0.024861,0.025143,0.026068,0.026944,0.026906,0.027068,0.027444,0.026930,0.026464,0.026072,0.025578,0.025341,0.025111,0.024807,0.024351,0.023873,0.023651,0.023323,0.023200,0.023165,0.022535,0.022421,0.022575,0.023090,0.023782,0.024088,0.024126,0.024497,0.025341,0.026479,0.027894,0.028842,0.029950,0.030693,0.031347,0.031943,0.032321,0.033207,0.033540,0.034373,0.034615,0.035056,0.036042,0.036577,0.036601,0.036354,0.035569,0.034779,0.034071,0.034036,0.033700,0.033666,0.034737,0.035426,0.035302,0.034789,0.033960,0.032875,0.033159,0.033682,0.033595,0.033651,0.034675,0.036116,0.037249,0.037441,0.038158,0.038781,0.038418,0.038249,0.038106,0.037864,0.037770,0.037586,0.037449,0.037382,0.037294,0.036896,0.036260,0.035668,0.035085,0.034652,0.034245,0.033857,0.032885,0.032489,0.032196,0.031862,0.031692,0.031305,0.030781,0.030582,0.030886,0.031656,0.032808,0.033807,0.034166,0.033787,0.033203,0.033599,0.034067,0.035274,0.035533,0.035345,0.035154,0.035158,0.035957,0.036489,0.036675,0.037305,0.037337,0.036885,0.035905,0.035474,0.035814,0.035943,0.037493,0.039773,0.041025,0.042360,0.041268,0.038487,0.037689,0.037259,0.037129,0.037914,0.038440,0.039753,0.040900,0.041258,0.041694,0.041968,0.041762,0.041855,0.041795,0.041625,0.041528,0.041368,0.041423,0.041333,0.041214,0.040958,0.040382,0.039542,0.038816,0.038284,0.038371,0.038586,0.038368,0.038328,0.038073,0.037404,0.036875,0.036685,0.036727,0.036856,0.037051,0.037259,0.037637,0.037517,0.037297,0.037221,0.037149,0.037221,0.036733,0.036918,0.037342,0.036993,0.036919,0.036960,0.037548,0.038289,0.038500,0.038649,0.038419,0.038550,0.038671,0.037891,0.037797,0.037724,0.038680,0.041127,0.044452,0.047724,0.047243,0.043795,0.041297,0.038909,0.038685,0.039295,0.039799,0.040079,0.040389,0.040566,0.040818,0.041010,0.040918,0.040843,0.040611,0.040277,0.039734,0.039239,0.039018,0.038642,0.038300,0.038015,0.037241,0.036172,0.035168,0.034482,0.033971,0.033960,0.033575,0.033216,0.032872,0.032611,0.032363,0.032280,0.032332,0.032303,0.032186,0.032131,0.032067,0.032001,0.031624,0.031158,0.030999,0.030942,0.030875,0.030587,0.030012,0.029693,0.029588,0.029701,0.029957,0.030424,0.030504,0.029991,0.029373,0.029206,0.029377,0.028349,0.028012,0.027440,0.027142,0.027555,0.028141,0.029599,0.030577,0.030784,0.029826,0.027921,0.026790,0.026880,0.027212,0.028044,0.028565,0.028652,0.028948,0.029373,0.029598,0.029801,0.029969,0.030076,0.029890,0.029721,0.029630,0.029348,0.029068,0.028815,0.028484,0.028198,0.027605,0.027110,0.026170,0.025397,0.024677,0.024155,0.024088,0.024172,0.023914,0.023636,0.023574,0.023508,0.023328,0.023160,0.022846,0.022385,0.022143,0.021931,0.021848,0.021184,0.020885,0.020315,0.019699,0.019249,0.018998,0.019279,0.019375,0.019797,0.020193,0.019528,0.018911,0.019505,0.019628,0.018940,0.019357,0.019067,0.018716,0.018212,0.017742,0.018040,0.018357,0.019227,0.019423,0.018235,0.016963,0.016004,0.016239,0.016164,0.016353,0.016492,0.016355,0.016255,0.016437,0.016562,0.016997,0.017284,0.017681,0.017969,0.018448,0.018571,0.018553,0.019160,0.019244,0.019478,0.019238,0.019465,0.019447,0.018938,0.018893,0.019026,0.019377,0.019495,0.019825,0.019624,0.019461,0.019049,0.018643,0.018557,0.018376,0.018258,0.018386,0.017982,0.017437,0.016781,0.016285,0.015722,0.015292,0.015027,0.015003,0.014912,0.015280,0.015707,0.015585,0.015272,0.014547,0.014553,0.014946,0.015281,0.015054,0.014523,0.014267,0.013681,0.013194,0.012990,0.013096,0.013804,0.014279,0.013868,0.013447,0.013168,0.013096,0.012772,0.012685,0.012911,0.013148,0.013683,0.014152,0.014193,0.014122,0.014362,0.014524,0.014680,0.015205,0.015372,0.015312,0.015682,0.015698,0.015531,0.015372,0.015590,0.015550,0.015357,0.015396,0.015371,0.015573,0.016069,0.016535,0.016667,0.016966,0.017152,0.017076,0.017139,0.016989,0.016694,0.016828,0.016743,0.016627,0.016244,0.015772,0.015321,0.015199,0.014923,0.015115,0.015539,0.015775,0.015894,0.016100,0.016023,0.015202,0.015552,0.016015,0.016552,0.016232,0.015993,0.015848,0.015547,0.015506,0.015695,0.015905,0.016647,0.018530,0.019521,0.019065,0.017408,0.016651,0.016043,0.015809,0.015991,0.016389,0.016843,0.017148,0.017009,0.016790,0.016704,0.016700,0.016964,0.017763,0.017919,0.017494,0.017412,0.017269,0.017029,0.016869,0.016678,0.016241,0.016201,0.016225,0.015931,0.015928,0.016117,0.016182,0.015959,0.015778,0.015707,0.015576,0.016001,0.016383,0.016184,0.016163,0.015931,0.015816,0.015733,0.015585,0.015454,0.015336,0.015177,0.015073,0.015345,0.015584,0.015926,0.016513,0.016653,0.016458,0.017020,0.017031,0.016742,0.016375,0.016019,0.015604,0.015842,0.016092,0.016463,0.017118,0.017371,0.018379,0.019619,0.019986,0.019210,0.017564,0.016376,0.015619,0.015553,0.015281,0.015146,0.015206,0.015023,0.014860,0.014675,0.014600,0.014788,0.015297,0.015249,0.014693,0.014531,0.014614,0.014507,0.014399,0.014090,0.013618,0.013647,0.013628,0.013162,0.013068,0.013143,0.013329,0.013449,0.013383,0.013374,0.013563,0.014057,0.013871,0.014155,0.014297,0.014056,0.013847,0.013739,0.013577,0.013445,0.013234,0.013191,0.012862,0.012675,0.012873,0.013307,0.013518,0.013379,0.013176,0.013122,0.012949,0.012690,0.012503,0.012230,0.011922,0.012109,0.012005,0.012006,0.012116,0.011741,0.011731,0.012361,0.012951,0.013754,0.013701,0.013079,0.012022,0.011262,0.011077,0.011370,0.011672,0.011620,0.011473,0.011341,0.011234,0.011243,0.011398,0.011354,0.011187,0.011213,0.011210,0.011125,0.010960,0.010845,0.010768,0.010847,0.010851,0.010623,0.010686,0.010849,0.011107,0.011295,0.011268,0.011514,0.011939,0.012332,0.011832,0.011891,0.011767,0.011398,0.011157,0.010970,0.010665,0.010559,0.010589,0.010510,0.010444,0.010311,0.010179,0.010029,0.009773,0.009696,0.009698,0.009438,0.009199,0.009049,0.008787,0.008497,0.008223,0.007920,0.007679,0.007606,0.007327,0.006969,0.007182,0.007714,0.007367,0.007323,0.007577,0.008045,0.007708,0.007370,0.007398,0.007527,0.007800,0.007914,0.007930,0.007829,0.007820,0.007911,0.007909,0.007860,0.007876,0.007952,0.007850,0.007877,0.007769,0.007710,0.007702,0.007704,0.007779,0.007866,0.007776,0.007911,0.008117,0.008415,0.008664,0.009266,0.009979,0.010751,0.011277,0.011025,0.010602,0.010100,0.009755,0.009350,0.008684,0.008311,0.008106,0.007785,0.007712,0.007451,0.007000,0.006468,0.006014,0.006179,0.006620,0.006988,0.007062,0.007099,0.006967,0.006952,0.006813,0.006423,0.006430,0.006495,0.006350,0.005936,0.005583,0.005193,0.004491,0.004128,0.004067,0.004358,0.004453,0.004499,0.004261,0.004656,0.004990,0.005142,0.005258,0.005198,0.005230,0.005369,0.005429,0.005454,0.005602,0.005829,0.006132,0.006315,0.006498,0.006611,0.006701,0.006948,0.007314,0.007791,0.007877,0.007903,0.008164,0.008866,0.009596,0.009834,0.010418,0.010658,0.010766,0.010762,0.010498,0.010030,0.009478,0.008550,0.007503,0.006919,0.006389,0.005807,0.005375,0.005067,0.004706,0.004326,0.003906,0.003642,0.003484,0.003924,0.004185,0.004528,0.005011,0.005449,0.005340,0.005394,0.004833,0.004392,0.004176,0.003676,0.003322,0.002917,0.002780,0.002462,0.002033,0.001817,0.001514,0.001977,0.002634,0.002941,0.003340,0.003591,0.004092,0.004367,0.004385,0.004482,0.004661,0.004805,0.005044,0.005169,0.005422,0.005493,0.005975,0.006491,0.007052,0.007837,0.008429,0.008904,0.009495,0.009604,0.009605,0.009724,0.010660,0.011475,0.012681,0.012734,0.011699,0.011013,0.009943,0.008921,0.008184,0.007405,0.006459,0.005866,0.005255,0.004584,0.003930,0.003709,0.003328,0.002967,0.002834,0.002170,0.001177,0.001743,0.002328,0.003001,0.003674,0.004061,0.003824,0.003441,0.003610,0.004323,0.004476,0.003970,0.003644,0.003676,0.003387,0.002834,0.002511,0.002221,0.001945,0.002154,0.002882,0.003520,0.003737,0.004211,0.004619,0.005111,0.005371,0.005519,0.005682,0.005617,0.005512,0.005452,0.005631,0.005723,0.005756,0.005813,0.005762,0.006063,0.006587,0.006848,0.007230,0.008248,0.008570,0.008742,0.009181,0.009971,0.010574,0.010815,0.010913,0.010302,0.009354,0.008665,0.007932,0.007396,0.006637,0.005559,0.005007,0.004917,0.004511,0.004198,0.003977,0.003773,0.003769,0.003554,0.002829,0.003146,0.003596,0.003959,0.004311,0.004704,0.004761,0.004755,0.005081,0.005502,0.005353,0.004812,0.004754,0.004734,0.004753,0.004673,0.004340,0.004240,0.004102,0.004192,0.004499,0.004590,0.004704,0.004759,0.004784,0.004653,0.004307,0.004002,0.003755,0.003674,0.003537,0.003445,0.003326,0.003244,0.003247,0.003149,0.003175,0.003144,0.003504,0.003754,0.004144,0.005213,0.006057,0.006193,0.006158,0.005889,0.005939,0.006298,0.006894,0.006752,0.006322,0.005851,0.005271,0.004672,0.004025,0.003240,0.002852,0.002533,0.002005,0.001858,0.001724,0.001735,0.001552,0.001229,0.000548,0.000820,0.001027,0.001157,0.001179,0.001163,0.001229,0.001323,0.001330,0.001835,0.001656,0.001495,0.001911,0.001938,0.001829,0.001738,0.001369,0.001408,0.001276,0.001245,0.001486,0.001769,0.001939,0.002034,0.002177,0.002543,0.003156,0.003598,0.003990,0.004409,0.004810,0.005042,0.005101,0.005278,0.005518,0.005596,0.005726,0.005933,0.006345,0.006901,0.007352,0.007260,0.006891,0.006856,0.006966,0.007100,0.007428,0.007947,0.008021,0.007383,0.006702,0.006161,0.005651,0.005084,0.004412,0.003921,0.003550,0.003292,0.002773,0.002577,0.002743,0.002958,0.002889,0.002490,0.001617,0.002215,0.002818,0.003265,0.003141,0.002972,0.002862,0.003169,0.003410,0.003951,0.004027,0.004392,0.005160,0.005301,0.004899,0.004607,0.004407,0.004500,0.004566,0.004649,0.004824,0.005101,0.005218,0.005381,0.005508,0.005622,0.005804,0.005996,0.005970,0.005633,0.005650,0.005720,0.005779,0.005791,0.005765,0.005609,0.005504,0.005673,0.005813,0.006169,0.006195,0.006051,0.005527,0.005089,0.004995,0.005150,0.005834,0.006568,0.006703,0.005983,0.005500,0.005219,0.004936,0.004578,0.003975,0.003544,0.003294,0.003006,0.002957,0.002945,0.002640,0.002559,0.002456,0.002155,0.001292,0.001807,0.002507,0.003069,0.002848,0.002552,0.002676,0.003210,0.003499,0.003723,0.003881,0.004243,0.004713,0.004969,0.004555,0.004130,0.004067,0.003788,0.003625,0.003210,0.002545,0.002092,0.002329,0.002728,0.002989,0.003027,0.002942,0.003246,0.003337,0.003238,0.003307,0.003405,0.003079,0.003358,0.003754,0.004024,0.004538,0.005119,0.005722,0.006277,0.006735,0.006807,0.006597,0.006030,0.005930,0.006204,0.006497,0.006632,0.006284,0.005419,0.004628,0.004004,0.003664,0.003804,0.004017,0.003756,0.003246,0.002844,0.002388,0.001881,0.001304,0.000812,0.000659,0.000481,-0.000154,-0.000561,-0.000690,-0.000773,-0.001334,-0.001858,-0.001862,-0.001820,-0.002146,-0.002050,-0.002173,-0.002362,-0.002094,-0.001515,-0.001512,-0.001811,-0.001638,-0.001677,-0.001851,-0.002240,-0.002448,-0.002310,-0.002287,-0.002366,-0.001650,-0.000794,-0.000090,0.000288,0.000615,0.000472,0.000261,0.000462,0.000939,0.001121,0.001047,0.000774,0.000845,0.001035,0.001337,0.001584,0.002120,0.002485,0.003092,0.003911,0.004738,0.005672,0.006497,0.007049,0.007413,0.007214,0.006691,0.005901,0.004951,0.004366,0.004055,0.003775,0.003178,0.002924,0.002251,0.001306,0.000659,0.000074,-0.000113,-0.000457,-0.000934,-0.001592,-0.002099,-0.002665,-0.003475,-0.004034,-0.004205,-0.004232,-0.004324,-0.004222,-0.004383,-0.004772,-0.004829,-0.004580,-0.004473,-0.004495,-0.004145,-0.003838,-0.003748,-0.003788,-0.003590,-0.003222,-0.003370,-0.003960,-0.003659,-0.002996,-0.002594,-0.002626,-0.002962,-0.003112,-0.003806,-0.004228,-0.003851,-0.003444,-0.003330,-0.003348,-0.003253,-0.003010,-0.002675,-0.002446,-0.002348,-0.001855,-0.001200,-0.000461,0.000229,0.001200,0.002203,0.002978,0.003768,0.004651,0.005420,0.005645,0.005416,0.004912,0.004153,0.003452,0.003331,0.003177,0.002448,0.001774,0.001203,0.000662,0.000332,0.000060,-0.000137,-0.000421,-0.000659,-0.001133,-0.001914,-0.002527,-0.002949,-0.003315,-0.003572,-0.003634,-0.003168,-0.003055,-0.003639,-0.004282,-0.004377,-0.004251,-0.004289,-0.004177,-0.003877,-0.003737,-0.004000,-0.004182,-0.004243,-0.004406,-0.004681,-0.004304,-0.003942,-0.003943,-0.004185,-0.004641,-0.005042,-0.005576,-0.005962,-0.006214,-0.006063,-0.005437,-0.004776,-0.004004,-0.003502,-0.003100,-0.002729,-0.002511,-0.002180,-0.002022,-0.002167,-0.001668,-0.000648,0.000255,0.000827,0.001644,0.002384,0.003130,0.004096,0.004616,0.004386,0.003938,0.003737,0.003144,0.002440,0.001941,0.001375,0.000968,0.000810,0.000992,0.000886,0.000618,0.000283,-0.000059,-0.000618,-0.001145,-0.001460,-0.001650,-0.001935,-0.002198,-0.002429,-0.002873,-0.003645,-0.004239,-0.004547,-0.004521,-0.005027,-0.004976,-0.004835,-0.004862,-0.004629,-0.005102,-0.005187,-0.005025,-0.004890,-0.005058,-0.005013,-0.004631,-0.004566,-0.005148,-0.005926,-0.006358,-0.006551,-0.006459,-0.005854,-0.004364,-0.003161,-0.002513,-0.002181,-0.002588,-0.002601,-0.002698,-0.002932,-0.003100,-0.003349,-0.003427,-0.003147,-0.003111,-0.003090,-0.003264,-0.003423,-0.003222,-0.003081,-0.002270,-0.002227,-0.002263,-0.001873,-0.002302,-0.002691,-0.003236,-0.003963,-0.004517,-0.004647,-0.004522,-0.004991,-0.005447,-0.005885,-0.006315,-0.006741,-0.007284,-0.007626,-0.008164,-0.008853,-0.008883,-0.009023,-0.009228,-0.009257,-0.009004,-0.009019,-0.008922,-0.008569,-0.008353,-0.008240,-0.008236,-0.008109,-0.008157,-0.007909,-0.007362,-0.007127,-0.007587,-0.008537,-0.009315,-0.009779,-0.010482,-0.011133,-0.011375,-0.011038,-0.010800,-0.010384,-0.009666,-0.008706,-0.008535,-0.008253,-0.008228,-0.007696,-0.007198,-0.007304,-0.007697,-0.008149,-0.008417,-0.008557,-0.008882,-0.009065,-0.009258,-0.009626,-0.010279,-0.010634,-0.010330,-0.009615,-0.009124,-0.009145,-0.009402,-0.009345,-0.008918,-0.008476,-0.008634,-0.009308,-0.010046,-0.010795,-0.010951,-0.011101,-0.011256,-0.011433,-0.011632,-0.011681,-0.011622,-0.011328,-0.010692,-0.010225,-0.009588,-0.009041,-0.008847,-0.009175,-0.009668,-0.009782,-0.009794,-0.009891,-0.009783,-0.009769,-0.009633,-0.009947,-0.010425,-0.011039,-0.011404,-0.011738,-0.012364,-0.012763,-0.013358,-0.013582,-0.013775,-0.013971,-0.013767,-0.013718,-0.013755,-0.013356,-0.013167,-0.012614,-0.012157,-0.012074,-0.011809,-0.011188,-0.010988,-0.011061,-0.011206,-0.011512,-0.012454,-0.013804,-0.015140,-0.015855,-0.016341,-0.016642,-0.016543,-0.015580,-0.014681,-0.013805,-0.013678,-0.013650,-0.013488,-0.013143,-0.013296,-0.014152,-0.015252,-0.015999,-0.016078,-0.015874,-0.015446,-0.014967,-0.014525,-0.014108,-0.013744,-0.013543,-0.013910,-0.014228,-0.014022,-0.013829,-0.013817,-0.013407,-0.012801,-0.012288,-0.012176,-0.012757,-0.013187,-0.013717,-0.014295,-0.015475,-0.016709,-0.017492,-0.017604,-0.017333,-0.017197,-0.017157,-0.017161,-0.017206,-0.017453,-0.017697,-0.017270,-0.017118,-0.017264,-0.016921,-0.016322,-0.015139,-0.014186,-0.013838,-0.013708,-0.013876,-0.014351,-0.014597,-0.014743,-0.015082,-0.015933,-0.017186,-0.018618,-0.019587,-0.020135,-0.020298,-0.019781,-0.019156,-0.018931,-0.018285,-0.017546,-0.017109,-0.017098,-0.017318,-0.017595,-0.017970,-0.018498,-0.019003,-0.019233,-0.018794,-0.017400,-0.015676,-0.014809,-0.014649,-0.014930,-0.015764,-0.016797,-0.018065,-0.018873,-0.019030,-0.019040,-0.018691,-0.017781,-0.016544,-0.015927,-0.015869,-0.015961,-0.016191,-0.016962,-0.017947,-0.018693,-0.019092,-0.019049,-0.018409,-0.017823,-0.018117,-0.018748,-0.019856,-0.021091,-0.022165,-0.021979,-0.020063,-0.018022,-0.016586,-0.016244,-0.016567,-0.016692,-0.016826,-0.017087,-0.017014,-0.016874,-0.016757,-0.016801,-0.017198,-0.017898,-0.018713,-0.019460,-0.020244,-0.020992,-0.021382,-0.021047,-0.021143,-0.021894,-0.022268,-0.021952,-0.021508,-0.021220,-0.021029,-0.020729,-0.020427,-0.020363,-0.020468,-0.020698,-0.020680,-0.020024,-0.019056,-0.018337,-0.017358,-0.016499,-0.016237,-0.017273,-0.019712,-0.022477,-0.023287,-0.021663,-0.019739,-0.019268,-0.020050,-0.020954,-0.021189,-0.020791,-0.020463,-0.020965,-0.021553,-0.021360,-0.020951,-0.020118,-0.019448,-0.018945,-0.018847,-0.019000,-0.019736,-0.020777,-0.022080,-0.022980,-0.023236,-0.022758,-0.021601,-0.020527,-0.019758,-0.020052,-0.021168,-0.022568,-0.022868,-0.022139,-0.021193,-0.020904,-0.021872,-0.022639,-0.023476,-0.023746,-0.024644,-0.024995,-0.024557,-0.023663,-0.022824,-0.022577,-0.022706,-0.023024,-0.023330,-0.023559,-0.023586,-0.023495,-0.023517,-0.023414,-0.023219,-0.023236,-0.023452,-0.023694,-0.023875,-0.023923,-0.023541,-0.022857,-0.022463,-0.022776,-0.023835,-0.024714,-0.025019,-0.023770,-0.021518,-0.020590,-0.020611,-0.020819,-0.020446,-0.020001,-0.019301,-0.019046,-0.019542,-0.020186,-0.020741,-0.021342,-0.021524,-0.020655,-0.019969,-0.020292,-0.021439,-0.022778,-0.023313,-0.023782,-0.024695,-0.025354,-0.025188,-0.024184,-0.022427,-0.022030,-0.022805,-0.024089,-0.025206,-0.025679,-0.025509,-0.025336,-0.025353,-0.025369,-0.024972,-0.024224,-0.024424,-0.024190,-0.023402,-0.022724,-0.022232,-0.022095,-0.022176,-0.022423,-0.022789,-0.023106,-0.023398,-0.023702,-0.024007,-0.024251,-0.024561,-0.024646,-0.024272,-0.023813,-0.023737,-0.023599,-0.023892,-0.024421,-0.025178,-0.026115,-0.026718,-0.026972,-0.027109,-0.026526,-0.025180,-0.022858,-0.021043,-0.019620,-0.019373,-0.019470,-0.020048,-0.020345,-0.020017,-0.020175,-0.020947,-0.022154,-0.023226,-0.022637,-0.021093,-0.019902,-0.019572,-0.020271,-0.021445,-0.023445,-0.025233,-0.025452,-0.024516,-0.024205,-0.024418,-0.025738,-0.026810,-0.027215,-0.027440,-0.027580,-0.027251,-0.026460,-0.025578,-0.025110,-0.024491,-0.023911,-0.023393,-0.022807,-0.022440,-0.022192,-0.022303,-0.023000,-0.023796,-0.024689,-0.025613,-0.026123,-0.026431,-0.026723,-0.027259,-0.027620,-0.027224,-0.026782,-0.026447,-0.026503,-0.026716,-0.026465,-0.026672,-0.027305,-0.028210,-0.029222,-0.029852,-0.030227,-0.030529,-0.030297,-0.028854,-0.026251,-0.024232,-0.023404,-0.023410,-0.023506,-0.024299,-0.024921,-0.023928,-0.023615,-0.024758,-0.026527,-0.027564,-0.027808,-0.027344,-0.026165,-0.024609,-0.023667,-0.023070,-0.023151,-0.024344,-0.026490,-0.028606,-0.029873,-0.030721,-0.031420,-0.031985,-0.032218,-0.031882,-0.031381,-0.030416,-0.029034,-0.027886,-0.027196,-0.027012,-0.026979,-0.026996,-0.027191,-0.027395,-0.027692,-0.028144,-0.028182,-0.028281,-0.028837,-0.029659,-0.030312,-0.031191,-0.031739,-0.031502,-0.030388,-0.029347,-0.029106,-0.029243,-0.029590,-0.029553,-0.029198,-0.029316,-0.029672,-0.030086,-0.030339,-0.030587,-0.030604,-0.030991,-0.030862,-0.029805,-0.028704,-0.027377,-0.026698,-0.026296,-0.026159,-0.026278,-0.025666,-0.024655,-0.024596,-0.025996,-0.027798,-0.028980,-0.030159,-0.031263,-0.032073,-0.031696,-0.030111,-0.028322,-0.026785,-0.025840,-0.025628,-0.025905,-0.026507,-0.028526,-0.031126,-0.033159,-0.034269,-0.034797,-0.035065,-0.035053,-0.034915,-0.034593,-0.034287,-0.034088,-0.033615,-0.033343,-0.033925,-0.035142,-0.036070,-0.035891,-0.035258,-0.034395,-0.033034,-0.032017,-0.032028,-0.033522,-0.035451,-0.035600,-0.034930,-0.033875,-0.033014,-0.032107,-0.031021,-0.030137,-0.029648,-0.029437,-0.029424,-0.029344,-0.029244,-0.029337,-0.029503,-0.029439,-0.028949,-0.028462,-0.028209,-0.028228,-0.027836,-0.027276,-0.026804,-0.026011,-0.025201,-0.024874,-0.025479,-0.026224,-0.026747,-0.027202,-0.027959,-0.028625,-0.029270,-0.029948,-0.030359,-0.030602,-0.030688,-0.030423,-0.029744,-0.028795,-0.027959,-0.028145,-0.028939,-0.030141,-0.031223,-0.031875,-0.032263,-0.032536,-0.032580,-0.032663,-0.032747,-0.032666,-0.032427,-0.031760,-0.031032,-0.030844,-0.030782,-0.030618,-0.031275,-0.031569,-0.030591,-0.030055,-0.031258,-0.032332,-0.031928,-0.030741,-0.029882,-0.029279,-0.028210,-0.027180,-0.026446,-0.026146,-0.026422,-0.026899,-0.027950,-0.029149,-0.030393,-0.031248,-0.031234,-0.029812,-0.027672,-0.025977,-0.024783,-0.023801,-0.023040,-0.022669,-0.022462,-0.022458,-0.022945,-0.023501,-0.023462,-0.022973,-0.022792,-0.023116,-0.023626,-0.023564,-0.023802,-0.024283,-0.024899,-0.025351,-0.025792,-0.026395,-0.026913,-0.027007,-0.026935,-0.027255,-0.027821,-0.028554,-0.029142,-0.029368,-0.029167,-0.028824,-0.028274,-0.027322,-0.026393,-0.025266,-0.024172,-0.023196,-0.022982,-0.023579,-0.024074,-0.024678,-0.025254,-0.025671,-0.025549,-0.025869,-0.026714,-0.026254,-0.025408,-0.024266,-0.022883,-0.022405,-0.021606,-0.021011,-0.020921,-0.021296,-0.022159,-0.023216,-0.024748,-0.026363,-0.027548,-0.027759,-0.027185,-0.026027,-0.024588,-0.022984,-0.021143,-0.019514,-0.019480,-0.019569,-0.019207,-0.018957,-0.018957,-0.019555,-0.019961,-0.019757,-0.019630,-0.019944,-0.020550,-0.021078,-0.021294,-0.021547,-0.021937,-0.021895,-0.021661,-0.021484,-0.021681,-0.021591,-0.021808,-0.022436,-0.023120,-0.023757,-0.024699,-0.025615,-0.026545,-0.026955,-0.026742,-0.026041,-0.025156,-0.023872,-0.022098,-0.021126,-0.021049,-0.021306,-0.021255,-0.021486,-0.021973,-0.022864,-0.023740,-0.024802,-0.024606,-0.023937,-0.023279,-0.022851,-0.021419,-0.020059,-0.019238,-0.018761,-0.018579,-0.018872,-0.019612,-0.020652,-0.021587,-0.022393,-0.022692,-0.022572,-0.022506,-0.022441,-0.022064,-0.021104,-0.019573,-0.019124,-0.018553,-0.017904,-0.017477,-0.016863,-0.016286,-0.016541,-0.017033,-0.017574,-0.017402,-0.017570,-0.018003,-0.018523,-0.018694,-0.018814,-0.018847,-0.018709,-0.018757,-0.018630,-0.018606,-0.018712,-0.019053,-0.019358,-0.019500,-0.019754,-0.020090,-0.020314,-0.020618,-0.020853,-0.020948,-0.020789,-0.020442,-0.020138,-0.019698,-0.019196,-0.018654,-0.018000,-0.017562,-0.017265,-0.017452,-0.017895,-0.018547,-0.019065,-0.018694,-0.018045,-0.017580,-0.017367,-0.017000,-0.015805,-0.015525,-0.015512,-0.015577,-0.016251,-0.017334,-0.018949,-0.020291,-0.021435,-0.021996,-0.021797,-0.021240,-0.020481,-0.019521,-0.018166,-0.017842,-0.017448,-0.016683,-0.016522,-0.016355,-0.016692,-0.016829,-0.016561,-0.016968,-0.018032,-0.018504,-0.018270,-0.017846,-0.018067,-0.018354,-0.018184,-0.018041,-0.018225,-0.018598,-0.018525,-0.018644,-0.019157,-0.019703,-0.019760,-0.019798,-0.020228,-0.020236,-0.019766,-0.019319,-0.019112,-0.018915,-0.018373,-0.017978,-0.017821,-0.017871,-0.017842,-0.017877,-0.018024,-0.018029,-0.017928,-0.017522,-0.016795,-0.017196,-0.016932,-0.016934,-0.017048,-0.017090,-0.017180,-0.017372,-0.016718,-0.016479,-0.016440,-0.016406,-0.016888,-0.017688,-0.018851,-0.019617,-0.020135,-0.020748,-0.020712,-0.020048,-0.019401,-0.018936,-0.018584,-0.018634,-0.017938,-0.017558,-0.017067,-0.016414,-0.016011,-0.016659,-0.017203,-0.017197,-0.018141,-0.019180,-0.019406,-0.018715,-0.018281,-0.017994,-0.017428,-0.017152,-0.017171,-0.016881,-0.016667,-0.017266,-0.017871,-0.018219,-0.018374,-0.018651,-0.018948,-0.018732,-0.018838,-0.018744,-0.018611,-0.018350,-0.017808,-0.017475,-0.017287,-0.017074,-0.016494,-0.016115,-0.015860,-0.015878,-0.016046,-0.016111,-0.015905,-0.017096,-0.017228,-0.017505,-0.017581,-0.017545,-0.017785,-0.017677,-0.016311,-0.015460,-0.015162,-0.014979,-0.014668,-0.015067,-0.016100,-0.016618,-0.016775,-0.017306,-0.017943,-0.017996,-0.017638,-0.017022,-0.017323,-0.017209,-0.016591,-0.016565,-0.016107,-0.015330,-0.014666,-0.014322,-0.014672,-0.014327,-0.014378,-0.015516,-0.015785,-0.015621,-0.015252,-0.014497,-0.014057,-0.013903,-0.013774,-0.013530,-0.013841,-0.014577,-0.015202,-0.015550,-0.015776,-0.015927,-0.015779,-0.015674,-0.015676,-0.015288,-0.014378,-0.014021,-0.013464,-0.012932,-0.012264,-0.011776,-0.011634,-0.011443,-0.011089,-0.010843,-0.010489,-0.010379,-0.010807,-0.012380,-0.012820,-0.013715,-0.014656,-0.015085,-0.015126,-0.014546,-0.013275,-0.011928,-0.011101,-0.010209,-0.009728,-0.010442,-0.011099,-0.011357,-0.011773,-0.012630,-0.013485,-0.013364,-0.013004,-0.012591,-0.013671,-0.013353,-0.012908,-0.012774,-0.011736,-0.010162,-0.009301,-0.010043,-0.010224,-0.009181,-0.009446,-0.010906,-0.011343,-0.011361,-0.011203,-0.010793,-0.010094,-0.009606,-0.009540,-0.009463,-0.009783,-0.010288,-0.010731,-0.010991,-0.011149,-0.011149,-0.011362,-0.010703,-0.009999,-0.009283,-0.008353,-0.007836,-0.007203,-0.006869,-0.006403,-0.005848,-0.005721,-0.005461,-0.005384,-0.005359,-0.005368,-0.005538,-0.006364,-0.007506,-0.007979,-0.007671,-0.007950,-0.008452,-0.008165,-0.006654,-0.005022,-0.005548,-0.006001,-0.005490,-0.005212,-0.005391,-0.005455,-0.005843,-0.006453,-0.006943,-0.007137,-0.006440,-0.005545,-0.005446,-0.006301,-0.005608,-0.005705,-0.005983,-0.005898,-0.005534,-0.005487,-0.005360,-0.005030,-0.003235,-0.003286,-0.004642,-0.005022,-0.004982,-0.004827,-0.004677,-0.004533,-0.004498,-0.004440,-0.004329,-0.004287,-0.004398,-0.004224,-0.003915,-0.003549,-0.003092,-0.002694,-0.002378,-0.002161,-0.001616,-0.001180,-0.000900,-0.000760,-0.000682,-0.000798,-0.000893,-0.001082,-0.001283,-0.001363,-0.001420,-0.001325,-0.001291,-0.001639,-0.002280,-0.002634,-0.001477,-0.001084,-0.001260,-0.000423,0.001354,0.002061,0.001543,0.001107,0.000633,0.000094,-0.000419,-0.000878,-0.001287,-0.001385,-0.001396,-0.001406,-0.001202,-0.000906,-0.001469,-0.002676,-0.002062,-0.001897,-0.001671,-0.001253,-0.001426,-0.001087,-0.000720,0.000039,0.002224,0.001718,0.001016,0.001109,0.001603,0.001986,0.002305,0.002589,0.003119,0.003593,0.004179,0.004527,0.005127,0.005543,0.005909,0.006306,0.006781,0.007097,0.007238,0.007453,0.007847,0.008068,0.007827,0.006900,0.006028,0.005248,0.004630,0.004013,0.003438,0.003174,0.003160,0.003345,0.003702,0.003936,0.003862,0.003026,0.003115,0.004044,0.005416,0.007485,0.008455,0.008253,0.008146,0.007992,0.007353,0.006631,0.006264,0.005655,0.005081,0.004363,0.004242,0.004143,0.004241,0.003825,0.003260,0.002021,0.002667,0.004775,0.005234,0.005876,0.006197,0.005622,0.007216,0.009372,0.011864,0.011665,0.012195,0.013464,0.014179,0.014039,0.014062,0.014314,0.014291,0.014566,0.014977,0.014788,0.014686,0.014983,0.014839,0.014678,0.014539,0.014016,0.013439,0.013295,0.013357,0.013419,0.013165,0.012808,0.012492,0.012066,0.011390,0.010776,0.010450,0.010494,0.010365,0.010193,0.010392,0.010527,0.010460,0.010069,0.009071,0.008509,0.008710,0.009118,0.008821,0.009082,0.008795,0.008722,0.008109,0.007041,0.006013,0.005093,0.004550,0.004144,0.003839,0.003503,0.003018,0.002622,0.001998,0.000968,0.000738,0.003311,0.005346,0.005796,0.006343,0.007315,0.009268,0.013098,0.013785,0.012915,0.012582,0.012537,0.012147,0.011655,0.011027,0.010487,0.010285,0.010211,0.009952,0.009326,0.009116,0.008731,0.007959,0.007199,0.006342,0.005402,0.004677,0.004328,0.004066,0.003968,0.003721,0.003367,0.003105,0.002614,0.002392,0.002062,0.001851,0.001830,0.001438,0.001367,0.001593,0.001719,0.001600,0.002544,0.003086,0.002988,0.003081,0.003267,0.003891,0.005155,0.004637,0.004120,0.003378,0.002517,0.001679,0.000902,0.000354,-0.000066,-0.000472,-0.000754,-0.001170,-0.001138,-0.001657,-0.002637,-0.003965,-0.003685,-0.002083,-0.000737,0.001009,0.002646,0.005097,0.006725,0.006327,0.005535,0.004917,0.004414,0.003974,0.003457,0.002791,0.002065,0.001377,0.000882,0.000332,-0.000090,-0.000536,-0.000884,-0.001288,-0.001928,-0.002435,-0.002623,-0.002674,-0.002566,-0.002444,-0.002302,-0.002321,-0.002431,-0.002501,-0.002480,-0.002485,-0.002565,-0.002360,-0.002121,-0.002011,-0.001967,-0.001769,-0.001528,-0.000735,0.000321,0.000878,0.001052,0.001689,0.002303,0.003411,0.004615,0.003824,0.003058,0.002379,0.001613,0.000930,0.000290,-0.000255,-0.000568,-0.000899,-0.001103,-0.001409,-0.001724,-0.002369,-0.003511,-0.004686,-0.006061,-0.006740,-0.005935,-0.004374,-0.002575,-0.002055,-0.002506,-0.002458,-0.002695,-0.002874,-0.003042,-0.003308,-0.003491,-0.003655,-0.003866,-0.003957,-0.004058,-0.004005,-0.003784,-0.003703,-0.003746,-0.003943,-0.004167,-0.004225,-0.003953,-0.003600,-0.003315,-0.003010,-0.002813,-0.002673,-0.002634,-0.002558,-0.002438,-0.002369,-0.002325,-0.002447,-0.002361,-0.002335,-0.002347,-0.002044,-0.001503,-0.001008,-0.000162,0.000326,0.000478,0.000746,0.001263,0.001536,0.002059,0.001322,0.000763,0.000130,-0.000508,-0.001116,-0.001764,-0.002296,-0.002448,-0.002579,-0.002715,-0.003056,-0.003682,-0.004447,-0.004211,-0.005403,-0.006338,-0.007694,-0.008645,-0.008942,-0.008878,-0.008791,-0.009023,-0.009577,-0.010063,-0.010426,-0.010419,-0.010449,-0.010599,-0.010425,-0.009727,-0.008962,-0.008740,-0.008721,-0.008597,-0.008559,-0.008717,-0.008809,-0.008804,-0.008754,-0.008612,-0.008309,-0.008244,-0.008288,-0.008191,-0.007960,-0.007894,-0.008094,-0.008317,-0.008415,-0.008363,-0.008325,-0.008230,-0.008159,-0.008209,-0.008287,-0.008227,-0.007840,-0.007245,-0.006832,-0.006858,-0.007011,-0.006747,-0.006171,-0.005835,-0.005809,-0.005896,-0.005865,-0.005802,-0.005853,-0.006031,-0.006151,-0.006074,-0.005928,-0.005755,-0.005595,-0.005455,-0.005423,-0.005614,-0.005900,-0.006754,-0.007429,-0.007843,-0.007727,-0.007332,-0.007170,-0.007218,-0.007161,-0.006938,-0.006931,-0.006899,-0.006751,-0.006496,-0.006363,-0.006187,-0.005922,-0.005916,-0.005983,-0.006059,-0.006073,-0.006112,-0.006050,-0.005881,-0.005849,-0.005857,-0.005732,-0.005674,-0.005853,-0.006092,-0.006180,-0.006179,-0.006299,-0.006420,-0.006496,-0.006476,-0.006377,-0.006177,-0.006015,-0.005990,-0.005928,-0.005640,-0.005282,-0.005130,-0.005231,-0.005393,-0.005369,-0.005011,-0.004601,-0.004521,-0.004478,-0.004502,-0.004322,-0.004129,-0.004104,-0.004306,-0.004542,-0.004595,-0.004579,-0.004413,-0.004299,-0.004255,-0.004177,-0.004029,-0.003838,-0.004271,-0.004781,-0.005204,-0.005469,-0.005591,-0.005715,-0.005948,-0.006014,-0.005820,-0.005147,-0.004829,-0.004955,-0.005025,-0.005296,-0.005526,-0.005253,-0.004764,-0.004606,-0.004446,-0.004423,-0.004433,-0.004531,-0.004652,-0.004754,-0.004955,-0.005068,-0.005170,-0.005341,-0.005450,-0.005448,-0.005368,-0.005272,-0.005300,-0.005438,-0.005656,-0.005720,-0.005603,-0.005408,-0.005350,-0.005456,-0.005463,-0.005134,-0.004583,-0.004288,-0.004352,-0.004420,-0.003988,-0.003496,-0.003205,-0.003281,-0.003382,-0.003287,-0.003143,-0.003101,-0.003208,-0.003425,-0.003567,-0.003588,-0.003593,-0.003706,-0.003821,-0.003737,-0.003604,-0.003650,-0.004195,-0.004505,-0.004581,-0.004781,-0.004941,-0.004892,-0.004703,-0.004751,-0.004664,-0.004234,-0.003899,-0.004219,-0.004816,-0.005296,-0.005180,-0.004808,-0.004425,-0.004281,-0.003925,-0.003773,-0.003852,-0.003939,-0.004098,-0.004241,-0.004398,-0.004442,-0.004486,-0.004596,-0.004769,-0.004880,-0.004814,-0.004670,-0.004697,-0.004927,-0.005262,-0.005312,-0.005018,-0.004836,-0.004934,-0.005012,-0.004878,-0.004562,-0.004368,-0.004405,-0.004518,-0.004477,-0.004163,-0.003710,-0.003375,-0.003339,-0.003404,-0.003347,-0.003245,-0.003186,-0.003219,-0.003420,-0.003706,-0.003875,-0.004055,-0.004237,-0.004138,-0.003731,-0.003354,-0.003367,-0.003766,-0.003889,-0.003936,-0.004217,-0.004690,-0.004907,-0.004944,-0.004999,-0.004850,-0.004365,-0.004129,-0.004281,-0.004061,-0.003623,-0.003160,-0.002645,-0.002388,-0.002348,-0.002365,-0.002725,-0.003186,-0.003254,-0.003329,-0.003633,-0.003900,-0.003840,-0.003710,-0.003761,-0.004043,-0.004297,-0.004287,-0.004156,-0.004124,-0.004246,-0.004470,-0.004598,-0.004545,-0.004364,-0.004218,-0.004174,-0.004296,-0.004374,-0.004286,-0.004274,-0.004399,-0.004495,-0.004390,-0.003984,-0.003745,-0.003418,-0.003209,-0.003001,-0.002917,-0.002883,-0.002916,-0.003083,-0.003378,-0.003754,-0.004129,-0.004408,-0.004402,-0.004104,-0.003684,-0.003415,-0.003682,-0.003791,-0.004087,-0.004690,-0.005349,-0.005834,-0.005994,-0.005738,-0.005410,-0.004858,-0.004334,-0.004229,-0.004265,-0.004210,-0.004016,-0.003575,-0.003225,-0.003157,-0.003259,-0.003745,-0.004246,-0.004359,-0.004415,-0.004588,-0.004648,-0.004452,-0.004296,-0.004204,-0.004279,-0.004412,-0.004485,-0.004391,-0.004243,-0.004198,-0.004226,-0.004227,-0.004153,-0.003982,-0.003875,-0.003875,-0.003915,-0.003936,-0.003821,-0.003913,-0.004324,-0.004675,-0.004680,-0.004378,-0.004123,-0.003662,-0.003267,-0.003018,-0.002947,-0.002895,-0.002941,-0.003130,-0.003371,-0.003698,-0.004035,-0.004356,-0.004531,-0.004530,-0.004252,-0.003841,-0.003827,-0.003752,-0.003970,-0.004399,-0.005132,-0.005667,-0.005643,-0.005183,-0.004726,-0.004236,-0.003844,-0.003960,-0.004378,-0.004565,-0.004437,-0.004314,-0.004298,-0.004394,-0.004549,-0.004828,-0.005227,-0.005441,-0.005390,-0.005233,-0.004912,-0.004747,-0.004689,-0.004625,-0.004676,-0.004878,-0.005060,-0.005111,-0.005017,-0.004930,-0.004901,-0.004843,-0.004719,-0.004462,-0.004287,-0.004232,-0.004197,-0.004387,-0.004570,-0.004830,-0.005170,-0.005193,-0.004851,-0.004373,-0.003985,-0.003707,-0.003552,-0.003663,-0.003708,-0.003650,-0.003800,-0.004199,-0.004654,-0.004952,-0.005301,-0.005778,-0.006177,-0.006299,-0.006001,-0.005425,-0.005166,-0.005310,-0.005588,-0.006071,-0.006853,-0.007467,-0.007588,-0.007566,-0.007738,-0.007956,-0.007949,-0.007976,-0.008284,-0.008494,-0.008489,-0.008584,-0.008805,-0.009205,-0.009579,-0.009904,-0.010353,-0.010591,-0.010573,-0.010523,-0.010486,-0.010580,-0.010772,-0.011050,-0.011400,-0.011779,-0.012090,-0.012309,-0.012424,-0.012497,-0.012735,-0.012916,-0.012961,-0.012727,-0.012439,-0.012194,-0.011991,-0.012060,-0.012208,-0.012085,-0.011903,-0.012440,-0.013600,-0.014520,-0.015081