-0.015321,,-0.005809,-0.004601,-0.004776,-0.003212,-0.000834,-0.000660,0.000311,0.001759,0.000300,-0.002520,-0.004700,-0.005141,-0.004492,-0.004722,-0.004826,-0.004552,-0.004726,-0.004362,-0.004252,-0.004591,-0.005194,-0.005741,-0.006139,-0.006020,-0.005680,-0.005521,-0.005491,-0.005628,-0.005692,-0.005517,-0.005246,-0.004733,-0.004248,-0.003813,-0.003434,-0.003268,-0.003288,-0.003295,-0.003502,-0.003869,-0.004123,-0.004503,-0.004998,-0.005474,-0.005840,-0.005965,-0.005845,-0.005801,-0.005973,-0.006372,-0.006523,-0.006411,-0.006342,-0.003367,-0.000646,0.003767,0.003352,-0.001179,-0.004305,-0.005690,-0.005661,-0.005285,-0.005945,-0.004846,-0.003638,-0.004354,-0.001974,0.001066,0.003217,0.003949,0.004933,0.006114,0.001791,-0.002287,-0.001787,-0.002221,-0.003586,-0.003329,-0.003383,-0.003260,-0.002956,-0.002731,-0.002448,-0.002520,-0.002903,-0.003594,-0.004271,-0.004489,-0.004204,-0.003998,-0.003868,-0.003923,-0.003904,-0.003731,-0.003345,-0.002903,-0.002480,-0.002049,-0.001687,-0.001475,-0.001426,-0.001507,-0.001765,-0.002104,-0.002449,-0.002897,-0.003216,-0.003558,-0.003878,-0.003904,-0.004152,-0.004639,-0.005016,-0.005235,-0.004930,-0.003333,-0.000230,0.000916,0.000648,0.001668,0.002305,0.001258,-0.001887,-0.003473,-0.004542,-0.004085,-0.004850,-0.003702,-0.002665,-0.004271,-0.001984,0.002295,0.006880,0.006164,0.002998,0.004105,0.003527,0.000922,0.000001,-0.001679,-0.002399,-0.001570,-0.001583,-0.001764,-0.001516,-0.001134,-0.000852,-0.000742,-0.000741,-0.001614,-0.002313,-0.002676,-0.002885,-0.002429,-0.002186,-0.002126,-0.002105,-0.001862,-0.001418,-0.000986,-0.000561,-0.000167,0.000144,0.000323,0.000438,0.000379,0.000109,-0.000186,-0.000628,-0.001088,-0.001388,-0.001615,-0.001746,-0.001817,-0.002220,-0.002727,-0.002995,-0.003223,-0.003383,-0.002210,0.001033,0.004867,0.005553,0.003611,0.001873,0.001282,-0.000757,-0.000949,-0.001336,-0.002331,-0.002670,-0.002743,-0.002128,-0.001317,-0.000229,0.004703,0.010564,0.010753,0.005178,0.002232,0.003703,0.006273,0.003937,0.000719,-0.000685,-0.000929,-0.000521,-0.000356,-0.000180,0.000267,0.000468,0.000715,0.000919,0.000501,-0.000156,-0.000636,-0.000966,-0.000791,-0.000192,0.000104,0.000245,0.000570,0.000935,0.001311,0.001691,0.002105,0.002542,0.002904,0.003091,0.003151,0.002961,0.002706,0.002376,0.001950,0.001720,0.001560,0.001467,0.001334,0.001150,0.001084,0.001149,0.000710,-0.000124,-0.000274,0.000661,0.006276,0.010823,0.011085,0.008966,0.007015,0.005207,0.004024,0.003256,0.000942,0.000529,-0.000101,0.001172,0.004419,0.004639,0.007264,0.009681,0.012005,0.010140,0.006897,0.008525,0.009236,0.005521,0.003349,0.002523,0.001324,0.001602,0.001548,0.001785,0.002122,0.002366,0.002632,0.002845,0.002968,0.002624,0.001970,0.001356,0.001126,0.001316,0.001648,0.002054,0.002486,0.002825,0.003155,0.003370,0.003724,0.004163,0.004569,0.004812,0.004947,0.004904,0.004653,0.004404,0.004169,0.003992,0.003922,0.003882,0.003796,0.003862,0.003943,0.003783,0.003486,0.003397,0.003353,0.003203,0.007236,0.013050,0.015409,0.014936,0.013227,0.012613,0.010808,0.008576,0.006122,0.004283,0.003143,0.005861,0.010849,0.009446,0.007063,0.000894,0.005333,0.010924,0.004282,0.007143,0.011467,0.010557,0.008280,0.005452,0.004222,0.004842,0.004766,0.004862,0.005021,0.005205,0.005387,0.005498,0.005552,0.005626,0.005136,0.004308,0.003860,0.003430,0.003596,0.004303,0.004894,0.005377,0.005742,0.005905,0.006035,0.006308,0.006607,0.006808,0.006954,0.006834,0.006634,0.006509,0.006247,0.006109,0.006008,0.005881,0.005929,0.006231,0.006378,0.006103,0.005977,0.006086,0.005839,0.004947,0.006135,0.010999,0.013767,0.015199,0.016226,0.016438,0.015648,0.012259,0.009153,0.006978,0.005860,0.007879,0.013276,0.012579,0.008732,0.005389,0.001912,0.008609,0.009483,0.009543,0.015168,0.012105,0.008742,0.007732,0.007750,0.007823,0.007851,0.007892,0.008012,0.008192,0.008389,0.008532,0.008612,0.008496,0.008411,0.007921,0.007129,0.006667,0.006460,0.006986,0.007854,0.008583,0.009162,0.009505,0.009592,0.009718,0.009868,0.010018,0.010227,0.010183,0.009967,0.009848,0.009627,0.009389,0.009226,0.009082,0.009222,0.009491,0.009762,0.009859,0.009648,0.009184,0.008863,0.008792,0.008267,0.011150,0.016558,0.019926,0.022070,0.020976,0.018836,0.015669,0.011914,0.010429,0.010082,0.010075,0.014255,0.016628,0.015078,0.017959,0.023429,0.027149,0.023343,0.020713,0.017712,0.015323,0.011024,0.009530,0.009826,0.009845,0.010324,0.010482,0.010704,0.010878,0.011087,0.011127,0.011044,0.010909,0.010808,0.010712,0.010196,0.009368,0.008833,0.008610,0.009395,0.010183,0.010786,0.011189,0.011273,0.011240,0.011120,0.010982,0.010988,0.010837,0.010610,0.010497,0.010211,0.009984,0.009815,0.009711,0.009961,0.009854,0.009703,0.009857,0.009749,0.009556,0.010623,0.013366,0.013914,0.014300,0.020052,0.020265,0.019446,0.018096,0.017174,0.019319,0.014760,0.011573,0.010181,0.009794,0.010986,0.013887,0.017844,0.019639,0.020836,0.028740,0.019062,0.012182,0.012610,0.012791,0.012408,0.011164,0.010174,0.010850,0.010704,0.011248,0.012263,0.012327,0.012898,0.012278,0.011902,0.012628,0.012821,0.011933,0.011714,0.011930,0.011439,0.010741,0.010271,0.011235,0.011791,0.012973,0.013244,0.012980,0.012713,0.012904,0.012362,0.012448,0.012093,0.011196,0.011101,0.011194,0.010849,0.011106,0.011392,0.011366,0.010648,0.010661,0.010978,0.010661,0.011337,0.013516,0.015541,0.018497,0.021568,0.022387,0.020316,0.019263,0.020910,0.021037,0.016917,0.012656,0.011847,0.013982,0.017988,0.020612,0.023640,0.025315,0.022534,0.023015,0.026488,0.013037,0.012875,0.013085,0.012788,0.011956,0.012164,0.012090,0.012363,0.012771,0.013162,0.012858,0.013497,0.014563,0.014187,0.013964,0.014082,0.014068,0.014472,0.014316,0.013359,0.012948,0.013310,0.014122,0.014457,0.014326,0.013981,0.014965,0.015143,0.014690,0.014362,0.014361,0.014023,0.013762,0.013973,0.013911,0.013517,0.013577,0.013636,0.014303,0.015241,0.014792,0.014711,0.014378,0.013580,0.012754,0.016545,0.022688,0.024904,0.025256,0.026140,0.026341,0.025847,0.022110,0.021836,0.021577,0.022386,0.023397,0.023300,0.025428,0.028376,0.028969,0.026564,0.022460,0.021910,0.023084,0.018512,0.017271,0.015179,0.014690,0.013520,0.013397,0.013791,0.013968,0.014696,0.016084,0.016286,0.015513,0.016380,0.016772,0.016097,0.015934,0.016303,0.016033,0.015851,0.017537,0.022879,0.026202,0.024799,0.020887,0.017917,0.019385,0.019608,0.018030,0.017832,0.017653,0.017362,0.017369,0.016961,0.016590,0.017241,0.018423,0.018317,0.017969,0.018909,0.018349,0.018710,0.019737,0.019538,0.019485,0.021258,0.026427,0.029747,0.031435,0.034004,0.034887,0.034155,0.031860,0.031234,0.029827,0.028738,0.031150,0.034931,0.036787,0.035526,0.034515,0.036736,0.029815,0.028229,0.034160,0.029077,0.025240,0.028571,0.025245,0.020791,0.019316,0.020364,0.019664,0.020024,0.024799,0.027728,0.026187,0.028387,0.030122,0.028855,0.028274,0.029062,0.029106,0.029480,0.032635,0.035046,0.034383,0.032735,0.028297,0.024815,0.026797,0.025818,0.023152,0.021481,0.021267,0.023540,0.026749,0.026270,0.023283,0.021370,0.020419,0.021620,0.021820,0.022356,0.022390,0.022216,0.023040,0.023011,0.025625,0.027729,0.032062,0.035861,0.036810,0.038247,0.038986,0.038332,0.038695,0.038704,0.036726,0.032628,0.033426,0.038411,0.040622,0.040799,0.041710,0.040565,0.044322,0.045568,0.038468,0.043465,0.039562,0.031211,0.024021,0.022440,0.024745,0.030910,0.034056,0.034656,0.038916,0.041574,0.040878,0.040442,0.040953,0.040745,0.041021,0.042428,0.042741,0.042175,0.042472,0.041616,0.039793,0.039432,0.038407,0.037085,0.039694,0.039037,0.037506,0.037783,0.037661,0.038416,0.039835,0.038798,0.035901,0.033318,0.031021,0.030088,0.031178,0.033577,0.033965,0.028869,0.026047,0.024643,0.028711,0.035581,0.039735,0.040572,0.038873,0.038664,0.039403,0.037143,0.036139,0.037035,0.038697,0.037847,0.034282,0.034064,0.034583,0.037210,0.042087,0.039442,0.039006,0.045367,0.038185,0.039062,0.056476,0.040449,0.031044,0.026161,0.029871,0.034687,0.039892,0.041412,0.043359,0.043655,0.043463,0.043687,0.044478,0.044717,0.044427,0.045168,0.045962,0.045872,0.045100,0.045060,0.044116,0.042653,0.041358,0.040139,0.041581,0.042335,0.042480,0.044136,0.043791,0.040880,0.038490,0.037969,0.038863,0.039741,0.039408,0.041031,0.041918,0.039836,0.037638,0.036198,0.037846,0.036543,0.035094,0.038995,0.042023,0.042715,0.041725,0.041070,0.041293,0.039851,0.038443,0.036073,0.034401,0.037775,0.039499,0.039383,0.035429,0.033923,0.039062,0.042228,0.043215,0.038904,0.035399,0.036241,0.037472,0.046907,0.038839,0.040655,0.040259,0.041746,0.040774,0.040624,0.041731,0.043569,0.045167,0.045080,0.045403,0.045360,0.044516,0.044456,0.044548,0.044692,0.044583,0.044472,0.044290,0.042379,0.040328,0.038541,0.038549,0.038128,0.037547,0.036869,0.036437,0.035487,0.034250,0.034380,0.035401,0.035315,0.034251,0.032841,0.033104,0.033630,0.031975,0.030070,0.029706,0.031240,0.033665,0.034057,0.033379,0.033159,0.033665,0.032945,0.031926,0.032443,0.032210,0.029287,0.025736,0.029020,0.030816,0.030239,0.029540,0.028542,0.030858,0.031294,0.030296,0.028076,0.025674,0.026602,0.025089,0.025424,0.027079,0.017781,0.019985,0.024955,0.028357,0.027220,0.027205,0.028160,0.029388,0.030072,0.030542,0.031122,0.031526,0.031742,0.031158,0.030051,0.029758,0.028786,0.029505,0.030428,0.031434,0.031699,0.031737,0.029927,0.026514,0.024672,0.026138,0.027768,0.027042,0.025973,0.025181,0.024109,0.023584,0.023402,0.022071,0.020941,0.020109,0.021887,0.022315,0.023293,0.024519,0.024576,0.023975,0.022656,0.023248,0.022400,0.020531,0.021907,0.021645,0.015566,0.013928,0.017787,0.016736,0.016853,0.018664,0.020759,0.021757,0.020773,0.020780,0.018042,0.016228,0.017485,0.019183,0.016174,0.014709,0.012739,0.008591,0.011480,0.012157,0.017441,0.016974,0.016795,0.015985,0.016505,0.016814,0.016843,0.016163,0.016763,0.017176,0.015020,0.015827,0.016884,0.018266,0.016998,0.016787,0.019044,0.018864,0.017264,0.016017,0.017144,0.017760,0.019611,0.020459,0.021111,0.020950,0.019035,0.018410,0.018563,0.018010,0.019441,0.020786,0.020995,0.020042,0.019210,0.018449,0.018447,0.018477,0.019268,0.019471,0.019042,0.018827,0.017896,0.017219,0.013311,0.009643,0.009134,0.011752,0.015990,0.017230,0.018474,0.019274,0.018523,0.017297,0.014637,0.013061,0.013242,0.012043,0.008139,0.005524,0.010839,0.014131,0.005988,0.006460,0.008272,0.013079,0.015378,0.016891,0.015105,0.013363,0.013789,0.012709,0.013216,0.014986,0.014705,0.015599,0.017323,0.017646,0.015750,0.015274,0.016121,0.016157,0.016264,0.014787,0.012811,0.012719,0.014945,0.015760,0.015881,0.016594,0.016224,0.016550,0.017673,0.017035,0.017215,0.018100,0.019596,0.020449,0.020447,0.019306,0.019438,0.018563,0.017492,0.018730,0.019986,0.018424,0.016897,0.017803,0.014076,0.011164,0.011282,0.015437,0.019029,0.019883,0.020294,0.019692,0.018408,0.019425,0.020085,0.015264,0.011973,0.013099,0.013711,0.011516,0.013187,0.016910,0.014740,0.010030,0.010983,0.016625,0.020029,0.021109,0.020181,0.018765,0.017199,0.014954,0.016109,0.019907,0.020343,0.018987,0.018149,0.017485,0.017511,0.018802,0.018454,0.018287,0.020539,0.021240,0.019792,0.018864,0.019263,0.018999,0.017763,0.016862,0.015096,0.014664,0.017086,0.018588,0.019213,0.018874,0.018707,0.019186,0.019759,0.019820,0.019711,0.019381,0.018201,0.018506,0.018868,0.017164,0.016743,0.017775,0.016083,0.016402,0.018464,0.020306,0.020144,0.020426,0.018741,0.018155,0.019600,0.020762,0.021326,0.018579,0.015967,0.015184,0.014184,0.014833,0.013462,0.014475,0.019558,0.025905,0.013482,0.019577,0.022249,0.021773,0.020997,0.020149,0.017792,0.015356,0.016343,0.019494,0.019517,0.017413,0.016896,0.017467,0.018876,0.020232,0.018872,0.017763,0.019555,0.020259,0.018634,0.016653,0.015721,0.015922,0.015086,0.013760,0.012640,0.014171,0.014551,0.015344,0.017751,0.019250,0.019106,0.018865,0.018766,0.018575,0.017663,0.018012,0.018448,0.018032,0.017233,0.017155,0.017974,0.018506,0.017957,0.017563,0.017520,0.017414,0.017295,0.017751,0.016505,0.016842,0.018399,0.018491,0.017495,0.015616,0.013861,0.012666,0.011686,0.013204,0.012654,0.012344,0.013441,0.014157,0.011464,0.009032,0.009587,0.011680,0.017102,0.016515,0.015688,0.014420,0.014566,0.015636,0.015610,0.015413,0.015654,0.016232,0.016554,0.016516,0.015794,0.015120,0.015037,0.014045,0.013230,0.012582,0.012156,0.012829,0.012590,0.011961,0.012634,0.016171,0.016650,0.016503,0.017449,0.017858,0.017590,0.017602,0.017273,0.016668,0.016671,0.016800,0.017010,0.016769,0.016181,0.015928,0.015095,0.014265,0.014981,0.015502,0.015366,0.015728,0.016092,0.016145,0.016449,0.016773,0.016523,0.016528,0.015965,0.013104,0.010849,0.012502,0.014165,0.012709,0.009798,0.010299,0.008870,0.007642,0.005871,0.003283,0.005464,0.005512,0.008393,0.013293,0.012884,0.012607,0.012762,0.012867,0.012729,0.013016,0.012536,0.012474,0.012468,0.012269,0.012317,0.012469,0.012311,0.012383,0.012439,0.012455,0.011865,0.011571,0.011394,0.011219,0.010968,0.011811,0.015018,0.017693,0.018087,0.017231,0.016124,0.016164,0.015468,0.014544,0.014989,0.015030,0.015265,0.014922,0.014432,0.013929,0.010208,0.006443,0.007248,0.008462,0.009566,0.011731,0.011449,0.011768,0.013777,0.014607,0.014799,0.015232,0.016372,0.016724,0.015892,0.015885,0.015252,0.011374,0.008520,0.010667,0.008187,0.004698,0.006053,0.002785,-0.001825,0.002224,0.004580,0.007673,0.010751,0.010464,0.010651,0.010611,0.010209,0.009651,0.009609,0.009815,0.009868,0.009343,0.008693,0.008097,0.007909,0.008980,0.010126,0.010693,0.010284,0.009765,0.010191,0.010349,0.010066,0.009469,0.010774,0.013879,0.016614,0.017562,0.017181,0.016991,0.014427,0.012348,0.012661,0.013082,0.013274,0.013101,0.013529,0.014343,0.013206,0.010699,0.008026,0.005685,0.004343,0.006305,0.006301,0.008378,0.009827,0.012386,0.013829,0.012753,0.013165,0.013048,0.011141,0.011012,0.012381,0.008684,0.007029,0.009815,0.009167,0.003451,0.001177,0.001969,-0.004569,-0.002264,0.001819,0.001091,0.006444,0.008528,0.007652,0.006845,0.006688,0.006252,0.006373,0.004642,0.003281,0.003217,0.003358,0.003694,0.004108,0.004659,0.005406,0.005538,0.006086,0.006150,0.006068,0.004844,0.008599,0.017225,0.020524,0.020715,0.020068,0.018814,0.016597,0.015637,0.013905,0.013227,0.012481,0.012720,0.011411,0.011015,0.010772,0.007478,0.007684,0.010970,0.005233,-0.001482,-0.004524,0.001046,0.000474,0.002367,0.004250,0.001983,-0.000212,0.000569,0.006826,0.012212,0.011245,0.011400,0.013209,0.011534,0.008485,0.007942,0.007448,0.004425,0.002025,0.001037,0.000651,-0.000584,-0.001719,-0.000649,0.001219,0.004962,0.005479,0.005107,0.004477,0.003501,0.003970,0.003666,0.005683,0.005633,0.004798,0.004585,0.004187,0.005271,0.005993,0.005524,0.004061,0.004312,0.003595,0.000993,0.001876,0.004300,0.010793,0.018153,0.019637,0.017736,0.014702,0.014241,0.014816,0.014088,0.010263,0.006965,0.007972,0.011382,0.011086,0.007901,0.007104,0.009221,0.004462,0.000220,-0.001214,0.001267,0.000899,0.001650,0.002765,0.002515,0.001807,0.005212,0.009903,0.011067,0.010752,0.010481,0.010108,0.010360,0.009582,0.008283,0.006623,0.006075,0.006028,0.005098,0.003118,0.001271,0.003800,0.004587,0.002062,0.004518,0.006463,0.006186,0.004766,0.004890,0.006102,0.004886,0.005207,0.004512,0.004088,0.003014,0.001952,0.002134,0.001791,0.001819,0.001600,0.002009,0.003852,0.002066,0.000506,-0.000760,0.002800,0.008620,0.012163,0.013091,0.012377,0.012103,0.011560,0.009813,0.007541,0.006667,0.007998,0.007865,0.005052,0.004497,0.006056,0.008023,0.002906,-0.001570,-0.002825,0.000925,0.001560,0.000916,0.000090,-0.000200,-0.002093,0.000266,0.002903,0.000844,0.001746,0.004497,0.004617,0.004363,0.002349,0.000805,-0.000034,-0.000035,0.000508,0.001222,0.000757,-0.001059,-0.002631,-0.002201,-0.002875,-0.002630,0.001195,0.003034,0.003620,0.003960,0.001987,0.002158,0.003505,0.003013,0.005186,0.005313,0.005494,0.006901,0.008628,0.010008,0.008566,0.005650,0.004979,0.004308,0.004357,0.005804,0.011313,0.014800,0.014991,0.013630,0.012595,0.012484,0.012247,0.011067,0.009383,0.008947,0.009867,0.009286,0.006182,0.005229,0.007257,0.010060,0.003019,-0.002653,-0.004519,0.000173,0.003219,0.001739,-0.000970,-0.001299,-0.001375,0.000518,0.002459,0.002206,0.003730,0.008619,0.009969,0.007904,0.004324,0.003070,0.003557,0.004165,0.005422,0.007074,0.008473,0.008475,0.005188,0.004023,0.006654,0.003496,0.003080,0.007148,0.007261,0.005384,0.007339,0.009376,0.007098,0.008629,0.009266,0.007945,0.007708,0.009153,0.008787,0.009455,0.008411,0.004988,0.002484,0.000702,0.000693,0.002986,0.009773,0.013502,0.013238,0.012565,0.012771,0.013053,0.012534,0.011142,0.009944,0.008969,0.008650,0.008764,0.007712,0.005967,0.005792,0.008038,0.001059,-0.004275,-0.005214,-0.001886,0.001348,-0.000301,-0.001810,-0.001504,-0.002224,-0.000375,0.000964,-0.000198,0.001755,0.006555,0.009985,0.008917,0.009129,0.008824,0.009268,0.011624,0.011503,0.009211,0.007485,0.006810,0.005503,0.002391,0.002832,0.002900,-0.000230,0.000769,0.005044,0.006801,0.004985,0.004959,0.004279,0.004204,0.004422,0.003060,0.004077,0.004976,0.004037,0.005046,0.006170,0.004702,0.002451,0.000715,0.001654,0.006094,0.011390,0.013607,0.013634,0.012654,0.011476,0.010873,0.011113,0.011922,0.012463,0.011238,0.010018,0.010047,0.009371,0.007992,0.007600,0.008433,0.004323,0.001973,0.003113,0.002920,0.001333,-0.001845,-0.002478,-0.002614,-0.003323,-0.003242,-0.002095,-0.002203,-0.004582,-0.003672,0.000406,0.000532,-0.000635,0.000357,0.002285,0.001105,-0.001298,-0.001876,-0.001091,-0.001695,-0.002679,-0.004600,-0.006829,-0.003959,-0.002850,-0.005380,-0.002175,0.002198,0.003847,0.003597,0.005327,0.006101,0.004609,0.000605,0.000765,0.000408,-0.000070,-0.000516,-0.001832,-0.002777,-0.003870,-0.003204,-0.001902,0.001664,0.005749,0.010137,0.013776,0.015031,0.014271,0.012822,0.012575,0.013343,0.012560,0.011732,0.011143,0.010496,0.008891,0.007949,0.008000,0.007273,0.006517,0.006405,0.007174,0.006022,0.000596,-0.002080,-0.003261,-0.007128,-0.004554,-0.003849,-0.004152,-0.002348,-0.006334,-0.008812,-0.008504,-0.009080,-0.010131,-0.010337,-0.008076,-0.006089,-0.006845,-0.005824,-0.002066,-0.001099,-0.002514,-0.001516,-0.002957,-0.006515,-0.003055,-0.001567,-0.004586,-0.002133,0.003048,0.000457,-0.003372,0.000793,-0.001440,-0.006336,-0.003825,-0.003036,-0.002559,-0.002565,-0.004377,-0.004334,-0.004501,-0.003600,-0.004548,-0.004322,-0.003684,-0.002315,0.001957,0.005929,0.010099,0.012961,0.013083,0.010876,0.007918,0.007054,0.007169,0.005209,0.002032,0.001913,0.003186,0.002776,0.006292,0.005761,0.005456,0.006086,0.003845,0.004653,0.003434,-0.002299,-0.001580,-0.000870,-0.003236,-0.000898,0.005107,0.002972,-0.004104,-0.008471,-0.005972,-0.007445,-0.008735,-0.004570,-0.004414,-0.004517,-0.001887,0.000292,-0.002968,-0.002686,0.001786,-0.005754,-0.011476,-0.005625,-0.001682,-0.002995,-0.003282,0.000698,-0.001664,-0.005009,-0.009307,-0.012029,-0.007657,-0.008069,-0.007816,-0.003436,-0.001813,-0.000972,-0.000711,-0.000008,-0.002397,-0.003333,-0.003587,-0.004633,-0.004308,-0.003874,-0.001687,0.004884,0.010392,0.010192,0.009897,0.008870,0.007083,0.004924,0.001400,-0.000730,-0.000351,0.001626,0.004997,0.007014,0.006687,0.006328,0.006841,0.004929,0.002051,0.003372,0.001884,0.002148,0.004651,0.006780,0.008426,0.005387,0.001880,0.001111,-0.001615,-0.005063,-0.005922,-0.004842,-0.005091,-0.004212,-0.004172,-0.002852,-0.002211,-0.009379,-0.005098,-0.001702,-0.014145,-0.014204,-0.004449,-0.002925,-0.006826,-0.010855,-0.005612,-0.008001,-0.012413,-0.009394,-0.007275,-0.003574,-0.003311,-0.009007,-0.000708,0.001614,-0.007940,-0.002987,0.002075,-0.000551,0.000937,0.002911,0.000575,-0.002390,-0.004881,-0.004314,-0.002355,-0.000929,0.000170,0.002452,0.003021,0.002573,0.000135,-0.011091,-0.006558,-0.001554,-0.000228,0.003873,0.003708,0.003318,0.001177,-0.000555,-0.001845,-0.002986,-0.004676,-0.007357,-0.007819,-0.008039,-0.009458,-0.008761,-0.010105,-0.009949,-0.010500,-0.009963,-0.009888,-0.011131,-0.007027,-0.008254,-0.007825,-0.008234,-0.006609,-0.009205,-0.011033,-0.001185,-0.004139,-0.014958,-0.008381,-0.007656,-0.019441,-0.022795,-0.018747,-0.017514,-0.019811,-0.017519,-0.017746,-0.017490,-0.013837,-0.015975,-0.009885,-0.009359,-0.013648,-0.003706,-0.008499,-0.010779,-0.005639,-0.002648,0.001334,-0.003062,-0.004554,-0.007442,-0.011525,-0.013430,-0.011406,-0.009225,-0.017670,-0.017661,-0.013539,-0.018856,-0.007405,-0.003729,-0.007913,-0.009748,-0.008492,-0.007110,-0.010372,-0.010235,-0.009598,-0.012570,-0.014646,-0.013734,-0.014608,-0.015421,-0.013354,-0.010403,-0.008046,-0.007255,-0.005519,-0.003542,-0.003612,-0.005448,-0.005640,-0.005890,-0.008121,-0.007541,-0.006580,-0.005931,-0.006213,-0.008357,-0.008657,-0.010222,-0.018992,-0.019727,-0.019813,-0.021992,-0.021995,-0.023643,-0.022313,-0.022359,-0.022234,-0.022548,-0.021123,-0.016210,-0.014816,-0.017698,-0.016650,-0.010779,-0.010570,-0.014494,-0.009063,-0.005855,-0.007430,-0.011033,-0.011519,-0.014484,-0.018832,-0.021848,-0.027244,-0.017683,-0.021255,-0.024877,-0.015740,-0.016330,-0.012177,-0.009543,-0.012332,-0.016526,-0.015051,-0.015349,-0.018844,-0.019011,-0.018232,-0.020273,-0.020997,-0.014034,-0.014396,-0.015333,-0.011380,-0.012730,-0.011814,-0.015383,-0.013052,-0.011156,-0.012961,-0.006009,-0.006100,-0.006579,-0.005543,-0.004889,-0.008070,-0.009476,-0.012795,-0.019539,-0.018259,-0.025869,-0.029675,-0.031921,-0.026478,-0.024878,-0.030089,-0.025944,-0.023877,-0.025095,-0.025028,-0.021614,-0.021885,-0.018348,-0.015014,-0.015383,-0.010355,-0.010488,-0.014495,-0.009620,-0.011385,-0.019380,-0.017102,-0.019040,-0.018694,-0.020759,-0.024171,-0.026320,-0.028202,-0.025377,-0.029984,-0.027945,-0.019473,-0.020482,-0.021357,-0.020044,-0.021016,-0.020160,-0.019060,-0.024042,-0.022612,-0.022541,-0.022466,-0.020305,-0.012530,-0.011471,-0.010919,-0.006459,-0.007211,-0.010086,-0.013479,-0.017338,-0.016803,-0.018578,-0.032185,-0.014890,-0.011616,-0.019745,-0.009849,-0.009450,-0.011842,-0.010935,-0.013717,-0.017906,-0.020602,-0.026312,-0.024159,-0.020706,-0.029109,-0.021671,-0.021107,-0.028418,-0.026236,-0.026280,-0.027322,-0.019805,-0.013530,-0.015208,-0.010202,-0.005921,-0.013399,-0.020115,-0.015467,-0.019491,-0.019458,-0.016881,-0.019765,-0.018442,-0.017163,-0.020183,-0.024456,-0.026473,-0.023269,-0.025690,-0.028760,-0.026359,-0.025751,-0.026265,-0.027317,-0.029210,-0.027261,-0.023378,-0.025001,-0.026092,-0.021907,-0.023021,-0.024295,-0.021426,-0.018721,-0.021325,-0.012774,-0.008796,-0.010635,-0.010665,-0.015158,-0.016574,-0.019404,-0.022599,-0.021115,-0.021504,-0.017529,-0.017657,-0.016696,-0.021234,-0.030731,-0.028828,-0.023548,-0.026356,-0.029861,-0.020244,-0.022515,-0.017196,-0.014080,-0.015303,-0.014339,-0.015802,-0.016901,-0.018669,-0.024482,-0.025059,-0.023305,-0.021457,-0.021924,-0.017131,-0.018056,-0.025631,-0.020844,-0.029160,-0.027730,-0.023959,-0.029663,-0.019640,-0.020387,-0.025199,-0.030237,-0.029280,-0.030704,-0.033046,-0.027525,-0.028954,-0.027625,-0.025349,-0.026650,-0.030448,-0.030481,-0.030198,-0.032819,-0.029207,-0.027712,-0.027658,-0.028078,-0.027340,-0.027012,-0.030344,-0.027432,-0.024179,-0.026113,-0.025494,-0.027104,-0.026947,-0.031637,-0.034187,-0.020983,-0.026838,-0.023678,-0.012928,-0.018771,-0.017184,-0.014178,-0.017398,-0.017485,-0.013261,-0.015539,-0.018601,-0.016859,-0.014670,-0.013481,-0.017437,-0.016099,-0.014367,-0.016383,-0.022090,-0.026253,-0.025260,-0.027704,-0.031031,-0.023013,-0.025902,-0.036321,-0.022746,-0.025608,-0.038118,-0.030641,-0.032677,-0.041017,-0.035550,-0.030252,-0.034344,-0.035633,-0.029914,-0.029588,-0.030695,-0.024754,-0.024721,-0.022714,-0.022676,-0.024602,-0.023755,-0.026739,-0.027556,-0.025185,-0.026211,-0.029108,-0.027101,-0.025234,-0.026982,-0.028305,-0.023960,-0.026231,-0.028360,-0.028339,-0.034613,-0.033180,-0.038032,-0.040854,-0.040436,-0.035120,-0.027868,-0.025081,-0.015153,-0.017374,-0.012944,-0.013705,-0.019314,-0.012470,-0.017751,-0.017373,-0.015569,-0.023096,-0.016465,-0.013320,-0.018911,-0.012883,-0.009075,-0.011228,-0.017937,-0.016779,-0.019039,-0.024892,-0.027292,-0.026493,-0.026812,-0.033343,-0.033803,-0.042063,-0.049626,-0.044736,-0.034048,-0.034584,-0.036652,-0.025717,-0.023495,-0.027931,-0.026712,-0.021730,-0.022896,-0.023984,-0.022858,-0.020704,-0.023004,-0.025512,-0.022526,-0.026328,-0.025951,-0.025816,-0.028592,-0.023876,-0.028623,-0.026969,-0.027798,-0.027315,-0.025318,-0.031030,-0.033298,-0.036104,-0.040538,-0.043738,-0.046202,-0.048891,-0.052791,-0.047697,-0.028401,-0.026923,-0.026477,-0.018197,-0.015149,-0.024227,-0.027884,-0.015710,-0.028507,-0.037488,-0.021726,-0.027729,-0.035011,-0.028732,-0.033225,-0.021714,-0.016983,-0.015434,-0.011373,-0.015679,-0.015904,-0.019194,-0.024926,-0.031571,-0.040005,-0.041294,-0.043581,-0.046729,-0.048666,-0.046805,-0.035935,-0.036432,-0.038084,-0.029986,-0.029459,-0.030791,-0.031495,-0.026204,-0.028389,-0.030552,-0.024921,-0.029098,-0.031609,-0.024328,-0.024585,-0.030534,-0.030554,-0.029350,-0.033291,-0.030220,-0.030022,-0.030117,-0.032951,-0.032741,-0.037034,-0.041026,-0.040439,-0.036014,-0.035244,-0.042397,-0.046418,-0.047464,-0.045734,-0.040165,-0.036841,-0.030085,-0.030642,-0.025691,-0.022232,-0.029180,-0.023310,-0.018986,-0.025154,-0.029893,-0.022926,-0.025945,-0.036864,-0.038982,-0.036919,-0.033986,-0.030358,-0.024035,-0.021694,-0.016461,-0.012927,-0.014222,-0.014995,-0.019722,-0.024176,-0.030209,-0.038799,-0.046767,-0.050530,-0.046589,-0.046079,-0.049784,-0.048035,-0.046891,-0.044911,-0.038344,-0.038903,-0.037159,-0.034256,-0.035612,-0.042808,-0.048968,-0.029676,-0.028951,-0.036446,-0.036513,-0.038797,-0.039587,-0.043435,-0.051323,-0.047827,-0.041770,-0.043827,-0.047833,-0.050754,-0.046144,-0.040421,-0.037857,-0.038107,-0.038860,-0.040412,-0.036412,-0.032797,-0.035736,-0.031446,-0.030459,-0.029926,-0.025911,-0.028836,-0.025654,-0.021218,-0.024153,-0.024896,-0.020277,-0.025865,-0.029462,-0.029876,-0.030864,-0.031087,-0.030717,-0.029542,-0.030911,-0.031949,-0.026989,-0.027335,-0.026556,-0.021990,-0.023433,-0.023061,-0.025476,-0.028862,-0.035571,-0.044060,-0.049571,-0.050331,-0.046752,-0.046444,-0.052960,-0.048024,-0.034784,-0.037545,-0.031571,-0.027166,-0.029469,-0.031882,-0.029706,-0.023998,-0.032656,-0.048681,-0.024676,-0.038633,-0.047205,-0.037612,-0.054643,-0.048334,-0.040988,-0.046090,-0.049102,-0.038524,-0.033223,-0.033491,-0.032345,-0.031669,-0.032039,-0.031009,-0.030374,-0.033018,-0.044385,-0.037543,-0.041662,-0.039658,-0.025358,-0.025753,-0.021978,-0.022726,-0.026022,-0.018108,-0.018287,-0.026466,-0.023280,-0.020749,-0.024281,-0.026452,-0.026541,-0.026459,-0.027075,-0.027675,-0.028338,-0.028382,-0.027461,-0.027438,-0.027868,-0.026694,-0.027553,-0.029097,-0.031988,-0.034930,-0.038569,-0.040772,-0.040295,-0.044149,-0.042098,-0.026932,-0.023887,-0.028241,-0.022410,-0.019463,-0.025013,-0.022351,-0.024941,-0.022612,-0.025719,-0.031734,-0.021007,-0.028214,-0.032383,-0.024826,-0.031019,-0.026586,-0.021776,-0.030217,-0.028534,-0.022397,-0.025666,-0.027362,-0.025823,-0.026643,-0.027914,-0.026995,-0.026873,-0.043014,-0.034759,-0.030978,-0.031566,-0.041554,-0.018497,-0.017818,-0.019447,-0.018898,-0.021903,-0.015941,-0.015092,-0.019237,-0.018065,-0.017091,-0.020101,-0.023188,-0.024741,-0.023985,-0.021143,-0.022224,-0.022895,-0.019983,-0.021925,-0.024405,-0.023762,-0.026061,-0.026207,-0.026750,-0.027320,-0.027811,-0.027513,-0.028236,-0.030672,-0.032314,-0.031327,-0.025772,-0.026820,-0.027834,-0.021264,-0.018192,-0.020684,-0.021956,-0.024707,-0.024881,-0.023956,-0.028712,-0.026615,-0.032992,-0.033782,-0.024224,-0.028752,-0.027614,-0.018100,-0.021358,-0.022976,-0.020041,-0.023421,-0.025015,-0.023700,-0.025169,-0.026875,-0.025700,-0.025244,-0.023668,-0.023169,-0.020914,-0.021335,-0.020748,-0.014960,-0.013248,-0.007896,-0.016328,-0.021106,-0.013131,-0.013854,-0.016920,-0.017328,-0.014558,-0.016327,-0.020392,-0.020483,-0.018516,-0.018807,-0.018629,-0.014960,-0.017325,-0.019489,-0.019378,-0.021702,-0.024345,-0.024398,-0.024372,-0.024259,-0.023868,-0.023509,-0.021698,-0.020720,-0.021927,-0.020656,-0.019989,-0.023291,-0.023634,-0.022252,-0.021051,-0.019678,-0.017894,-0.018256,-0.019153,-0.018071,-0.019119,-0.015791,-0.021440,-0.021520,-0.012524,-0.015362,-0.016841,-0.016136,-0.013650,-0.020615,-0.021294,-0.020607,-0.022942,-0.023703,-0.023721,-0.023500,-0.024671,-0.020627,-0.022007,-0.018493,-0.014794,-0.018385,-0.016989,-0.017725,-0.018155,-0.007150,-0.017864,-0.019823,-0.015210,-0.022056,-0.018472,-0.016382,-0.020083,-0.019512,-0.017144,-0.017800,-0.018500,-0.021016,-0.017268,-0.014590,-0.021673,-0.020875,-0.020250,-0.024903,-0.026405,-0.026157,-0.025602,-0.025132,-0.024647,-0.024060,-0.021876,-0.019457,-0.019127,-0.017038,-0.015708,-0.016876,-0.016846,-0.019396,-0.023260,-0.021597,-0.024393,-0.021728,-0.020059,-0.017806,-0.014462,-0.015866,-0.017771,-0.015535,-0.018853,-0.019519,-0.015612,-0.025056,-0.022708,-0.017874,-0.025133,-0.021868,-0.020130,-0.023721,-0.023807,-0.021756,-0.021196,-0.018089,-0.022045,-0.020670,-0.018281,-0.026720,-0.023215,-0.022023,-0.021329,-0.006676,-0.018858,-0.021194,-0.016208,-0.025039,-0.023482,-0.020249,-0.022213,-0.022223,-0.018592,-0.018560,-0.020326,-0.017759,-0.012866,-0.016946,-0.020206,-0.015980,-0.020932,-0.024716,-0.023746,-0.024090,-0.024277,-0.024214,-0.023843,-0.023819,-0.021785,-0.019055,-0.019616,-0.017148,-0.013672,-0.014314,-0.014819,-0.011686,-0.015361,-0.015897,-0.019364,-0.024181,-0.025029,-0.029949,-0.022747,-0.019991,-0.024505,-0.023500,-0.018618,-0.019438,-0.023633,-0.021528,-0.018396,-0.014466,-0.017047,-0.019406,-0.017345,-0.018144,-0.020605,-0.021702,-0.018546,-0.018777,-0.026185,-0.024888,-0.024599,-0.028408,-0.031643,-0.026150,-0.021965,-0.018318,-0.020118,-0.018392,-0.018702,-0.017360,-0.019719,-0.020425,-0.018266,-0.018323,-0.015414,-0.016771,-0.015942,-0.010467,-0.011411,-0.015336,-0.015004,-0.015827,-0.020538,-0.021440,-0.020887,-0.022702,-0.024380,-0.022642,-0.021046,-0.020957,-0.021043,-0.014525,-0.013662,-0.013429,-0.010856,-0.011432,-0.009947,-0.003682,-0.006345,-0.010276,-0.011084,-0.010319,-0.012675,-0.015979,-0.017364,-0.016561,-0.020422,-0.023367,-0.019737,-0.022904,-0.035059,-0.025265,-0.015149,-0.022676,-0.017521,-0.013174,-0.016007,-0.017882,-0.017746,-0.015756,-0.017073,-0.023415,-0.024262,-0.020568,-0.021010,-0.024239,-0.026678,-0.016279,-0.012514,-0.012845,-0.011769,-0.007990,-0.012945,-0.014665,-0.013895,-0.013815,-0.014642,-0.014520,-0.012407,-0.013653,-0.011826,-0.009148,-0.010724,-0.010365,-0.013387,-0.017734,-0.017852,-0.021236,-0.021179,-0.021105,-0.020616,-0.019298,-0.018128,-0.013472,-0.015948,-0.013128,-0.008687,-0.009518,-0.006879,-0.004715,0.001802,0.003766,-0.001671,-0.007237,-0.009150,-0.008185,-0.009721,-0.012090,-0.013031,-0.010826,-0.014302,-0.013824,-0.013063,-0.013235,-0.011168,-0.011825,-0.006718,-0.006620,-0.008874,-0.009823,-0.011630,-0.011283,-0.005965,-0.008976,-0.012820,-0.010314,-0.009675,-0.009694,-0.007897,-0.012966,-0.010938,-0.010986,-0.010639,-0.007221,-0.004061,-0.003653,-0.008280,-0.007896,-0.006305,-0.007392,-0.005116,-0.007386,-0.008236,-0.004807,-0.009822,-0.007300,-0.005123,-0.011363,-0.010660,-0.007141,-0.010761,-0.012515,-0.006191,-0.007805,-0.009654,-0.006437,-0.003456,-0.003354,-0.003942,0.000212,0.000665,0.000063,0.000667,0.001656,0.005454,0.009955,0.005697,-0.004988,-0.007513,-0.007759,-0.009196,-0.010787,-0.009672,-0.005358,0.003651,0.010688,0.011157,0.010780,0.008893,0.005136,0.003766,0.002760,0.000325,-0.000163,-0.000166,0.004629,0.009500,-0.000036,-0.002814,0.000233,-0.001970,-0.002714,-0.004373,-0.006519,-0.006576,-0.008558,-0.003948,0.002588,0.001490,-0.001771,-0.003501,-0.001392,-0.001576,-0.003010,0.000141,0.000121,-0.004397,-0.000639,0.001873,0.001099,0.003426,0.002212,0.006774,0.006876,0.005689,0.007989,0.007924,0.008572,0.008963,0.009685,0.010780,0.008797,0.009130,0.010111,0.009477,0.010046,0.011408,0.012578,0.014011,0.015500,0.016563,0.005961,-0.003011,-0.006627,-0.008188,-0.006707,0.000864,0.011219,0.015448,0.016949,0.017467,0.016377,0.016425,0.016643,0.018084,0.014226,0.011994,0.010961,0.013065,0.014957,0.016796,0.006108,0.001515,0.003198,0.000118,0.001804,0.004409,-0.000442,-0.005066,-0.006168,0.004080,0.009385,0.008649,0.008749,0.008353,0.009576,0.009788,0.011241,0.011795,0.013399,0.016668,0.018925,0.018958,0.020071,0.020946,0.019645,0.021042,0.021147,0.019093,0.019756,0.018750,0.018142,0.017662,0.017153,0.016022,0.015089,0.014720,0.014825,0.015243,0.016255,0.017510,0.018165,0.018487,0.016693,0.018159,0.020110,0.012797,0.005446,0.003285,0.007966,0.012591,0.016539,0.017980,0.018665,0.018683,0.018410,0.017616,0.016002,0.014981,0.015991,0.017393,0.018049,0.017868,0.016917,0.017087,0.010726,0.001973,-0.002406,-0.004423,0.000525,-0.002980,-0.005686,-0.008984,-0.006879,0.006271,0.013972,0.014596,0.015780,0.017360,0.019215,0.019524,0.018944,0.019485,0.019500,0.018771,0.019444,0.019600,0.018591,0.019742,0.019065,0.019347,0.017193,0.015654,0.014837,0.012762,0.011519,0.009254,0.008003,0.008184,0.007181,0.006433,0.005215,0.005410,0.003958,0.003252,0.004489,0.003648,0.002117,0.001403,0.000038,-0.003768,-0.001826,-0.002134,-0.004212,-0.004713,0.005252,0.011936,0.013978,0.013240,0.012783,0.012212,0.011310,0.010951,0.010407,0.009759,0.010168,0.008579,0.009523,0.012112,0.013740,0.005858,-0.003210,-0.008984,-0.009796,-0.011164,-0.012800,-0.013093,-0.008543,-0.002354,0.009030,0.010470,-0.000560,0.010705,0.013773,0.013760,0.013349,0.012625,0.013441,0.012646,0.011446,0.010885,0.010166,0.009624,0.007065,0.006198,0.003785,0.001303,0.000844,-0.003667,-0.001155,-0.000392,-0.002769,-0.003306,-0.002370,-0.001632,-0.003239,-0.001654,-0.003002,-0.003936,-0.001622,-0.002907,-0.005129,-0.005329,-0.004782,-0.004311,-0.005577,-0.007698,-0.008204,-0.006713,-0.000809,0.006368,0.007437,0.007627,0.008499,0.006873,0.007411,0.007971,0.005296,0.002604,0.005722,0.007074,0.007578,0.010372,0.010489,0.010034,0.006069,-0.005651,-0.010712,-0.008838,-0.013307,-0.013047,-0.001435,-0.007996,-0.010717,-0.005009,-0.002341,-0.003256,-0.003158,0.001304,-0.000934,-0.003879,-0.000799,-0.003604,-0.002865,-0.000666,-0.001048,0.001385,0.002534,0.000481,-0.002809,-0.003104,-0.004507,-0.006196,-0.003572,-0.001935,-0.001462,-0.000036,-0.000914,0.000541,0.000372,0.000098,-0.000534,-0.001807,-0.000735,-0.003232,-0.002789,-0.004733,-0.006891,-0.004635,-0.005863,-0.008271,-0.006040,-0.002875,-0.002475,0.002399,0.006951,0.006348,0.006898,0.006773,0.005803,0.006793,0.003747,-0.003191,0.003199,-0.000465,-0.000862,0.005927,0.002109,0.001417,0.004348,0.002292,0.000820,-0.004887,-0.009313,-0.009243,-0.013584,-0.015197,-0.014422,-0.011452,-0.010915,-0.010640,-0.010056,-0.011445,-0.008950,-0.015828,-0.015998,-0.010651,-0.008783,-0.007186,-0.013848,-0.006979,-0.002662,-0.010263,-0.007420,-0.004647,-0.011288,-0.008416,-0.006804,-0.007439,-0.007823,-0.006171,-0.005175,-0.005025,-0.006426,-0.008744,-0.006994,-0.008663,-0.010345,-0.013046,-0.010352,-0.011003,-0.014226,-0.011730,-0.013254,-0.013197,-0.009484,-0.008521,-0.011307,-0.008436,-0.004525,-0.005354,-0.008908,-0.005892,-0.003065,-0.004355,-0.004744,-0.006403,-0.007140,-0.005977,-0.006058,-0.006065,-0.004708,-0.004977,-0.003314,-0.002864,-0.005722,-0.003214,-0.007057,-0.010025,-0.009080,-0.012227,-0.012010,-0.011112,-0.010630,-0.007926,-0.008582,-0.009256,-0.006387,-0.009449,-0.005504,-0.007349,-0.006815,-0.002536,-0.010582,-0.005157,-0.003660,-0.007837,-0.005061,-0.004287,-0.004610,-0.006053,-0.004415,-0.002540,-0.003304,-0.005085,-0.003810,-0.003398,-0.005857,-0.007680,-0.006359,-0.008365,-0.008419,-0.009041,-0.008358,-0.008284,-0.010668,-0.009225,-0.007593,-0.006449,-0.007468,-0.006874,-0.005415,-0.008028,-0.006461,-0.004472,-0.007239,-0.004228,-0.001094,-0.001697,-0.002527,-0.002471,-0.003585,-0.003193,-0.003174,-0.005988,-0.003531,-0.004455,-0.004670,-0.001302,-0.002775,-0.002549,-0.004790,-0.007275,-0.005137,-0.008835,-0.012106,-0.009717,-0.014889,-0.013790,-0.012575,-0.009692,-0.009326,-0.009605,-0.004684,-0.004206,-0.007018,-0.002649,-0.002701,-0.007721,-0.000602,-0.001666,-0.002340,-0.000953,-0.002184,-0.002324,-0.003652,-0.002971,-0.003785,-0.007267,-0.004973,-0.005427,-0.007916,-0.005649,-0.005450,-0.008035,-0.007392,-0.007189,-0.010678,-0.009211,-0.010139,-0.013461,-0.011043,-0.008849,-0.009503,-0.008748,-0.009538,-0.006818,-0.002156,-0.005268,-0.004452,-0.003557,-0.001818,0.000697,-0.001808,-0.002863,0.000135,-0.002405,-0.002784,-0.001513,-0.004053,-0.005312,-0.004724,-0.003378,-0.005783,-0.006303,-0.007711,-0.005357,-0.004234,-0.013076,-0.008060,-0.006273,-0.010275,-0.010986,-0.006856,-0.004688,-0.005832,-0.006615,-0.006912,-0.005440,-0.004202,-0.007254,-0.004323,-0.003944,-0.001122,-0.000123,-0.002123,-0.000972,-0.001444,-0.002160,-0.002524,-0.003116,-0.003939,-0.004394,-0.004729,-0.005413,-0.005307,-0.004996,-0.004774,-0.006903,-0.006698,-0.005783,-0.006860,-0.009574,-0.011705,-0.007024,-0.007280,-0.009014,-0.007873,-0.009617,-0.008878,-0.006844,-0.006926,-0.005210,-0.004158,-0.003489,-0.002488,-0.000016,-0.002071,-0.003094,-0.000099,-0.002700,-0.003409,-0.001565,-0.006467,-0.008096,-0.004892,-0.006860,-0.005321,-0.006458,-0.006099,-0.001129,-0.004528,-0.011306,-0.008828,-0.008374,-0.014903,-0.013263,-0.009143,-0.010051,-0.007357,-0.004863,-0.004809,-0.002291,-0.002112,-0.001923,0.000064,0.000990,0.001633,0.000820,0.000270,0.002222,-0.001777,-0.005377,-0.001415,-0.001681,-0.004613,-0.002458,-0.003946,-0.004331,-0.002621,-0.005893,-0.005076,-0.005482,-0.005887,-0.004313,-0.007937,-0.008255,-0.006692,-0.006698,-0.006927,-0.008545,-0.003973,-0.009897,-0.012619,-0.008199,-0.010324,-0.005905,-0.008581,-0.004543,-0.001959,-0.002219,-0.001472,0.000168,-0.000640,-0.001616,-0.001970,-0.004313,-0.005736,-0.007456,-0.008688,-0.009233,-0.007401,-0.006659,-0.007626,-0.003352,-0.005199,-0.009279,-0.007174,-0.010820,-0.014883,-0.015301,-0.010478,-0.010139,-0.006846,-0.003701,-0.004378,-0.001382,-0.005747,-0.005271,-0.001973,-0.002893,0.000221,-0.003068,-0.000603,0.000500,-0.008911,-0.008989,-0.003626,-0.005400,-0.008244,-0.003275,-0.004545,-0.005789,-0.003404,-0.006782,-0.005962,-0.005241,-0.006354,-0.004008,-0.005963,-0.005235,-0.004002,-0.006002,-0.005356,-0.005494,-0.001988,-0.005754,-0.011017,-0.005615,-0.008664,-0.009752,-0.011051,-0.005347,-0.003366,-0.004135,-0.001583,0.000521,-0.002754,-0.002673,-0.001774,-0.006045,-0.005157,-0.006928,-0.009454,-0.011132,-0.009966,-0.010374,-0.008804,-0.006239,-0.005382,-0.003427,-0.007717,-0.006289,-0.006436,-0.011879,-0.007743,-0.004150,-0.004729,-0.005718,-0.005399,-0.004873,-0.006061,-0.007617,-0.006171,-0.001451,-0.003088,-0.003486,-0.002589,-0.004924,-0.006853,-0.007866,-0.004458,-0.006318,-0.006457,-0.001869,-0.003399,-0.005199,-0.003473,-0.006740,-0.006369,-0.005555,-0.007745,-0.004975,-0.006647,-0.005621,-0.004051,-0.007322,-0.006015,-0.005513,-0.005790,-0.006424,-0.011861,-0.007612,-0.007568,-0.011455,-0.005573,-0.002696,-0.004216,-0.003133,-0.001293,-0.001691,-0.005059,-0.004607,-0.002905,-0.004858,-0.006979,-0.009675,-0.010531,-0.012725,-0.013914,-0.013380,-0.009273,-0.008513,-0.005494,-0.004367,-0.008570,-0.008758,-0.008692,-0.012043,-0.013789,-0.008072,-0.009073,-0.010552,-0.008819,-0.008703,-0.008284,-0.009988,-0.008225,-0.009908,-0.011757,-0.010144,-0.014180,-0.012089,-0.011171,-0.012467,-0.009579,-0.010031,-0.011571,-0.010489,-0.011663,-0.014793,-0.015257,-0.017370,-0.017574,-0.017393,-0.021761,-0.017825,-0.020764,-0.021091,-0.017643,-0.020558,-0.017158,-0.015462,-0.018902,-0.012256,-0.010099,-0.020519,-0.016936