-0.015017,,-0.005541,-0.004362,-0.004549,-0.002988,-0.000595,-0.000401,0.000583,0.002044,0.000583,-0.002244,-0.004438,-0.004900,-0.004264,-0.004530,-0.004667,-0.004422,-0.004646,-0.004339,-0.004248,-0.004534,-0.005039,-0.005505,-0.005848,-0.005757,-0.005471,-0.005329,-0.005294,-0.005421,-0.005472,-0.005290,-0.005025,-0.004531,-0.004068,-0.003653,-0.003287,-0.003122,-0.003136,-0.003137,-0.003336,-0.003690,-0.003931,-0.004300,-0.004778,-0.005231,-0.005576,-0.005688,-0.005565,-0.005528,-0.005713,-0.006129,-0.006292,-0.006190,-0.006128,-0.003149,-0.000415,0.004013,0.003612,-0.000904,-0.004016,-0.005397,-0.005374,-0.005014,-0.005699,-0.004634,-0.003461,-0.004205,-0.001840,0.001200,0.003365,0.004115,0.005117,0.006310,0.001990,-0.002094,-0.001613,-0.002071,-0.003458,-0.003221,-0.003323,-0.003247,-0.002973,-0.002790,-0.002551,-0.002616,-0.002925,-0.003516,-0.004101,-0.004280,-0.004046,-0.003861,-0.003746,-0.003790,-0.003766,-0.003585,-0.003200,-0.002771,-0.002364,-0.001950,-0.001601,-0.001397,-0.001353,-0.001430,-0.001677,-0.002000,-0.002330,-0.002764,-0.003071,-0.003398,-0.003705,-0.003720,-0.003960,-0.004443,-0.004824,-0.005054,-0.004758,-0.003165,-0.000067,0.001076,0.000815,0.001849,0.002496,0.001457,-0.001682,-0.003269,-0.004343,-0.003901,-0.004689,-0.003565,-0.002553,-0.004184,-0.001911,0.002368,0.006959,0.006258,0.003110,0.004227,0.003650,0.001036,0.000095,-0.001607,-0.002357,-0.001559,-0.001611,-0.001829,-0.001615,-0.001280,-0.001039,-0.000944,-0.000929,-0.001680,-0.002282,-0.002570,-0.002750,-0.002345,-0.002120,-0.002063,-0.002038,-0.001789,-0.001345,-0.000922,-0.000509,-0.000126,0.000177,0.000351,0.000459,0.000397,0.000135,-0.000145,-0.000571,-0.001017,-0.001307,-0.001529,-0.001658,-0.001727,-0.002125,-0.002622,-0.002887,-0.003123,-0.003289,-0.002122,0.001117,0.004948,0.005633,0.003700,0.001971,0.001386,-0.000652,-0.000844,-0.001231,-0.002235,-0.002583,-0.002667,-0.002071,-0.001282,-0.000213,0.004704,0.010563,0.010756,0.005189,0.002250,0.003719,0.006277,0.003919,0.000672,-0.000767,-0.001047,-0.000661,-0.000527,-0.000400,-0.000002,0.000173,0.000405,0.000593,0.000224,-0.000313,-0.000704,-0.000974,-0.000776,-0.000237,0.000040,0.000189,0.000520,0.000892,0.001269,0.001644,0.002047,0.002470,0.002818,0.002997,0.003053,0.002860,0.002611,0.002295,0.001883,0.001657,0.001499,0.001407,0.001274,0.001090,0.001028,0.001099,0.000651,-0.000188,-0.000339,0.000597,0.006211,0.010759,0.011023,0.008911,0.006965,0.005157,0.003977,0.003210,0.000891,0.000475,-0.000157,0.001105,0.004335,0.004540,0.007143,0.009543,0.011859,0.009994,0.006754,0.008379,0.009080,0.005346,0.003145,0.002285,0.001059,0.001311,0.001224,0.001427,0.001731,0.001945,0.002189,0.002396,0.002504,0.002233,0.001701,0.001184,0.001026,0.001222,0.001524,0.001907,0.002331,0.002674,0.003013,0.003228,0.003572,0.003991,0.004375,0.004605,0.004735,0.004693,0.004446,0.004207,0.003986,0.003811,0.003740,0.003702,0.003615,0.003675,0.003750,0.003590,0.003291,0.003199,0.003157,0.003012,0.007047,0.012862,0.015219,0.014747,0.013036,0.012417,0.010607,0.008371,0.005913,0.004065,0.002920,0.005636,0.010615,0.009202,0.006801,0.000611,0.005037,0.010628,0.003987,0.006844,0.011157,0.010227,0.007918,0.005051,0.003792,0.004379,0.004274,0.004350,0.004490,0.004643,0.004801,0.004912,0.004967,0.005040,0.004629,0.003934,0.003578,0.003234,0.003401,0.004043,0.004598,0.005063,0.005426,0.005593,0.005727,0.005988,0.006268,0.006457,0.006598,0.006485,0.006292,0.006172,0.005921,0.005791,0.005691,0.005568,0.005614,0.005907,0.006045,0.005767,0.005640,0.005752,0.005508,0.004628,0.005826,0.010695,0.013469,0.014901,0.015922,0.016126,0.015328,0.011929,0.008811,0.006628,0.005505,0.007518,0.012904,0.012195,0.008336,0.004975,0.001477,0.008161,0.009029,0.009082,0.014695,0.011612,0.008218,0.007166,0.007154,0.007195,0.007188,0.007194,0.007290,0.007445,0.007619,0.007754,0.007836,0.007743,0.007658,0.007245,0.006601,0.006230,0.006095,0.006586,0.007400,0.008088,0.008640,0.008976,0.009068,0.009193,0.009334,0.009481,0.009682,0.009637,0.009427,0.009314,0.009098,0.008869,0.008713,0.008573,0.008710,0.008969,0.009228,0.009319,0.009105,0.008645,0.008334,0.008278,0.007773,0.010672,0.016090,0.019461,0.021599,0.020498,0.018348,0.015170,0.011396,0.009894,0.009537,0.009523,0.013694,0.016058,0.014494,0.017366,0.022817,0.026517,0.022689,0.020039,0.017023,0.014611,0.010288,0.008763,0.009042,0.009029,0.009471,0.009596,0.009795,0.009951,0.010147,0.010195,0.010122,0.010005,0.009921,0.009852,0.009428,0.008744,0.008313,0.008147,0.008888,0.009626,0.010182,0.010563,0.010642,0.010609,0.010494,0.010359,0.010358,0.010206,0.009983,0.009873,0.009594,0.009378,0.009218,0.009118,0.009365,0.009249,0.009086,0.009231,0.009125,0.008945,0.010035,0.012805,0.013373,0.013784,0.019553,0.019772,0.018951,0.017594,0.016659,0.018786,0.014210,0.011007,0.009599,0.009200,0.010386,0.013274,0.017218,0.018997,0.020173,0.028053,0.018341,0.011429,0.011829,0.011982,0.011570,0.010296,0.009286,0.009926,0.009748,0.010254,0.011238,0.011279,0.011839,0.011227,0.010874,0.011609,0.011827,0.010958,0.010750,0.011057,0.010703,0.010083,0.009676,0.010585,0.011072,0.012222,0.012479,0.012205,0.011944,0.012150,0.011605,0.011693,0.011344,0.010449,0.010360,0.010462,0.010118,0.010378,0.010665,0.010629,0.009895,0.009893,0.010208,0.009905,0.010605,0.012819,0.014882,0.017868,0.020968,0.021801,0.019731,0.018673,0.020307,0.020419,0.016285,0.012005,0.011176,0.013296,0.017296,0.019915,0.022935,0.024603,0.021805,0.022259,0.025694,0.012196,0.011985,0.012156,0.011818,0.010952,0.011151,0.011053,0.011296,0.011666,0.012022,0.011694,0.012318,0.013389,0.013021,0.012815,0.012954,0.012949,0.013364,0.013223,0.012363,0.012074,0.012517,0.013355,0.013610,0.013427,0.013044,0.014012,0.014207,0.013740,0.013415,0.013406,0.013060,0.012787,0.012985,0.012915,0.012504,0.012548,0.012597,0.013249,0.014172,0.013714,0.013631,0.013310,0.012539,0.011753,0.015593,0.021778,0.024030,0.024409,0.025303,0.025508,0.025006,0.021259,0.020985,0.020717,0.021514,0.022510,0.022400,0.024523,0.027464,0.028046,0.025633,0.021511,0.020928,0.022057,0.017440,0.016153,0.014013,0.013495,0.012316,0.012172,0.012534,0.012678,0.013376,0.014739,0.014921,0.014141,0.015003,0.015400,0.014734,0.014579,0.014962,0.014687,0.014576,0.016364,0.021800,0.025182,0.023770,0.019746,0.016713,0.018150,0.018330,0.016741,0.016537,0.016340,0.016033,0.016019,0.015586,0.015191,0.015819,0.016983,0.016863,0.016492,0.017414,0.016845,0.017193,0.018212,0.018021,0.017993,0.019805,0.025019,0.028388,0.030111,0.032700,0.033597,0.032867,0.030568,0.029935,0.028523,0.027435,0.029841,0.033621,0.035481,0.034218,0.033207,0.035424,0.028495,0.026889,0.032789,0.027668,0.023786,0.027070,0.023710,0.019253,0.017768,0.018798,0.018076,0.018417,0.023175,0.026089,0.024546,0.026751,0.028490,0.027242,0.026675,0.027475,0.027552,0.027986,0.031142,0.033628,0.033055,0.031429,0.026964,0.023395,0.025296,0.024268,0.021590,0.019899,0.019669,0.021930,0.025114,0.024606,0.021582,0.019624,0.018639,0.019799,0.019949,0.020447,0.020452,0.020253,0.021061,0.021026,0.023656,0.025786,0.030155,0.033997,0.034978,0.036433,0.037188,0.036530,0.036884,0.036879,0.034884,0.030772,0.031554,0.036526,0.038730,0.038900,0.039820,0.038686,0.042446,0.043686,0.036565,0.041539,0.037605,0.029220,0.022008,0.020441,0.022764,0.028937,0.032084,0.032685,0.036941,0.039599,0.038912,0.038482,0.038998,0.038816,0.039105,0.040509,0.040873,0.040341,0.040608,0.039759,0.038041,0.037779,0.036825,0.035554,0.038080,0.037351,0.035769,0.036028,0.035902,0.036657,0.038062,0.037012,0.034091,0.031465,0.029135,0.028174,0.029229,0.031605,0.031974,0.026865,0.024034,0.022622,0.026695,0.033579,0.037753,0.038617,0.036941,0.036741,0.037481,0.035209,0.034186,0.035049,0.036672,0.035785,0.032190,0.031950,0.032454,0.035070,0.039953,0.037322,0.036895,0.043266,0.036087,0.036962,0.054379,0.038346,0.028936,0.024048,0.027762,0.032587,0.037802,0.039337,0.041287,0.041584,0.041397,0.041626,0.042412,0.042646,0.042357,0.043104,0.043941,0.043838,0.043055,0.043006,0.042106,0.040740,0.039540,0.038401,0.039872,0.040527,0.040619,0.042236,0.041869,0.038945,0.036539,0.036001,0.036872,0.037724,0.037370,0.038961,0.039820,0.037722,0.035517,0.034075,0.035718,0.034404,0.032953,0.036858,0.039899,0.040612,0.039640,0.038998,0.039227,0.037785,0.036367,0.033982,0.032294,0.035654,0.037373,0.037260,0.033313,0.031824,0.036987,0.040187,0.041204,0.036926,0.033455,0.034331,0.035590,0.045052,0.037003,0.038780,0.038363,0.039844,0.038875,0.038741,0.039859,0.041702,0.043308,0.043229,0.043555,0.043499,0.042678,0.042693,0.042860,0.043007,0.042912,0.042800,0.042603,0.040789,0.038882,0.037205,0.037277,0.036864,0.036194,0.035453,0.034985,0.034018,0.032771,0.032890,0.033897,0.033800,0.032721,0.031294,0.031555,0.032094,0.030459,0.028581,0.028244,0.029796,0.032238,0.032643,0.031987,0.031796,0.032324,0.031632,0.030639,0.031177,0.030957,0.028036,0.024472,0.027747,0.029541,0.028963,0.028265,0.027280,0.029620,0.030082,0.029115,0.026926,0.024558,0.025518,0.024023,0.024367,0.026029,0.016655,0.018803,0.023734,0.027111,0.025968,0.025958,0.026918,0.028145,0.028828,0.029314,0.029897,0.030350,0.030680,0.030180,0.029091,0.028797,0.027826,0.028555,0.029490,0.030599,0.030971,0.031075,0.029332,0.025912,0.024015,0.025447,0.027066,0.026341,0.025285,0.024516,0.023471,0.022968,0.022800,0.021489,0.020383,0.019582,0.021389,0.021839,0.022835,0.024072,0.024131,0.023531,0.022207,0.022784,0.021927,0.020051,0.021418,0.021150,0.015061,0.013410,0.017261,0.016213,0.016331,0.018140,0.020238,0.021253,0.020298,0.020333,0.017627,0.015852,0.017151,0.018872,0.015869,0.014420,0.012381,0.008183,0.011042,0.011707,0.016991,0.016531,0.016364,0.015568,0.016081,0.016394,0.016427,0.015738,0.016329,0.016748,0.014602,0.015408,0.016465,0.017834,0.016554,0.016360,0.018674,0.018568,0.017025,0.015805,0.016911,0.017503,0.019354,0.020201,0.020864,0.020717,0.018835,0.018230,0.018402,0.017865,0.019302,0.020656,0.020872,0.019918,0.019087,0.018319,0.018292,0.018308,0.019110,0.019310,0.018883,0.018685,0.017750,0.017062,0.013137,0.009455,0.008932,0.011547,0.015788,0.017026,0.018265,0.019070,0.018334,0.017125,0.014473,0.012902,0.013092,0.011896,0.007984,0.005366,0.010631,0.013874,0.005691,0.006142,0.007948,0.012762,0.015073,0.016593,0.014813,0.013065,0.013481,0.012401,0.012911,0.014666,0.014366,0.015255,0.016973,0.017285,0.015370,0.014894,0.015760,0.015830,0.015987,0.014561,0.012582,0.012438,0.014645,0.015452,0.015569,0.016261,0.015908,0.016245,0.017372,0.016725,0.016895,0.017770,0.019248,0.020095,0.020102,0.018963,0.019097,0.018219,0.017153,0.018379,0.019628,0.018070,0.016528,0.017414,0.013664,0.010730,0.010823,0.014954,0.018529,0.019365,0.019758,0.019156,0.017880,0.018910,0.019576,0.014760,0.011475,0.012606,0.013218,0.011031,0.012667,0.016352,0.014154,0.009428,0.010373,0.016022,0.019437,0.020532,0.019627,0.018226,0.016672,0.014439,0.015609,0.019408,0.019840,0.018490,0.017656,0.017002,0.017038,0.018334,0.017992,0.017843,0.020137,0.020900,0.019501,0.018568,0.018938,0.018642,0.017392,0.016485,0.014722,0.014291,0.016732,0.018231,0.018856,0.018522,0.018358,0.018853,0.019444,0.019509,0.019396,0.019050,0.017859,0.018145,0.018492,0.016773,0.016326,0.017337,0.015618,0.015913,0.017953,0.019773,0.019592,0.019858,0.018162,0.017582,0.019033,0.020210,0.020780,0.018032,0.015428,0.014649,0.013645,0.014304,0.012913,0.013908,0.018987,0.025334,0.012907,0.019006,0.021694,0.021238,0.020476,0.019652,0.017322,0.014902,0.015901,0.019064,0.019092,0.016989,0.016474,0.017053,0.018472,0.019834,0.018479,0.017375,0.019179,0.019902,0.018330,0.016395,0.015452,0.015625,0.014764,0.013430,0.012300,0.013870,0.014267,0.015067,0.017493,0.019010,0.018873,0.018645,0.018562,0.018382,0.017479,0.017821,0.018254,0.017831,0.017018,0.016915,0.017704,0.018208,0.017624,0.017204,0.017139,0.017005,0.016863,0.017300,0.016037,0.016365,0.017928,0.018036,0.017041,0.015151,0.013396,0.012196,0.011203,0.012722,0.012177,0.011869,0.012966,0.013671,0.010967,0.008536,0.009097,0.011193,0.016637,0.016072,0.015274,0.014035,0.014197,0.015269,0.015243,0.015053,0.015294,0.015874,0.016202,0.016173,0.015464,0.014800,0.014722,0.013737,0.012958,0.012369,0.011978,0.012639,0.012377,0.011760,0.012445,0.015992,0.016478,0.016333,0.017297,0.017721,0.017470,0.017514,0.017203,0.016598,0.016606,0.016740,0.016950,0.016703,0.016104,0.015828,0.014966,0.014107,0.014802,0.015308,0.015149,0.015482,0.015828,0.015862,0.016136,0.016438,0.016174,0.016172,0.015602,0.012726,0.010464,0.012113,0.013763,0.012303,0.009427,0.009946,0.008508,0.007256,0.005469,0.002872,0.005034,0.005069,0.007937,0.012841,0.012452,0.012200,0.012374,0.012493,0.012365,0.012660,0.012194,0.012140,0.012139,0.011946,0.012000,0.012163,0.012024,0.012118,0.012191,0.012235,0.011708,0.011437,0.011257,0.011080,0.010845,0.011652,0.014824,0.017510,0.017957,0.017128,0.016028,0.016078,0.015376,0.014450,0.014887,0.014932,0.015164,0.014816,0.014314,0.013790,0.010045,0.006249,0.007044,0.008255,0.009345,0.011492,0.011206,0.011518,0.013508,0.014324,0.014496,0.014920,0.016055,0.016403,0.015582,0.015587,0.014959,0.011083,0.008250,0.010419,0.007936,0.004438,0.005799,0.002514,-0.002137,0.001899,0.004227,0.007314,0.010405,0.010138,0.010355,0.010349,0.009982,0.009449,0.009413,0.009631,0.009691,0.009162,0.008509,0.007915,0.007732,0.008797,0.009937,0.010483,0.010100,0.009642,0.010090,0.010201,0.009874,0.009267,0.010526,0.013681,0.016525,0.017524,0.017139,0.016924,0.014332,0.012265,0.012577,0.012993,0.013166,0.012977,0.013382,0.014163,0.012999,0.010455,0.007765,0.005418,0.004066,0.006015,0.006011,0.008089,0.009532,0.012083,0.013532,0.012476,0.012903,0.012805,0.010935,0.010836,0.012225,0.008537,0.006847,0.009633,0.008989,0.003283,0.001025,0.001786,-0.004811,-0.002528,0.001555,0.000814,0.006164,0.008278,0.007436,0.006639,0.006491,0.006079,0.006202,0.004484,0.003135,0.003080,0.003235,0.003577,0.003974,0.004482,0.005219,0.005359,0.005881,0.005979,0.005946,0.004744,0.008419,0.016979,0.020294,0.020557,0.019998,0.018785,0.016620,0.015713,0.013973,0.013281,0.012507,0.012709,0.011344,0.010919,0.010656,0.007326,0.007500,0.010751,0.004994,-0.001729,-0.004777,0.000782,0.000201,0.002085,0.003960,0.001691,-0.000495,0.000306,0.006586,0.011998,0.011070,0.011258,0.013080,0.011402,0.008333,0.007782,0.007301,0.004286,0.001873,0.000864,0.000459,-0.000806,-0.001944,-0.000876,0.000986,0.004736,0.005281,0.004934,0.004323,0.003364,0.003831,0.003532,0.005554,0.005497,0.004665,0.004443,0.004048,0.005101,0.005795,0.005369,0.003930,0.004152,0.003475,0.000931,0.001834,0.004169,0.010637,0.018080,0.019628,0.017771,0.014774,0.014321,0.014905,0.014147,0.010296,0.007020,0.007970,0.011287,0.010999,0.007815,0.006970,0.009042,0.004239,-0.000037,-0.001501,0.000980,0.000600,0.001345,0.002447,0.002187,0.001490,0.004920,0.009645,0.010847,0.010552,0.010328,0.009949,0.010198,0.009397,0.008086,0.006425,0.005884,0.005846,0.004912,0.002924,0.001071,0.003588,0.004394,0.001882,0.004362,0.006348,0.006107,0.004721,0.004859,0.006082,0.004852,0.005176,0.004496,0.004065,0.002993,0.001917,0.002107,0.001715,0.001748,0.001530,0.001865,0.003658,0.001953,0.000473,-0.000749,0.002830,0.008698,0.012277,0.013234,0.012548,0.012288,0.011766,0.010024,0.007740,0.006877,0.008153,0.007989,0.005164,0.004522,0.006027,0.007946,0.002810,-0.001721,-0.003040,0.000697,0.001337,0.000701,-0.000116,-0.000367,-0.002235,0.000133,0.002811,0.000784,0.001702,0.004476,0.004589,0.004305,0.002246,0.000685,-0.000164,-0.000167,0.000381,0.001090,0.000614,-0.001202,-0.002753,-0.002305,-0.002971,-0.002727,0.001100,0.002934,0.003502,0.003821,0.001823,0.001970,0.003299,0.002824,0.005001,0.005121,0.005274,0.006649,0.008318,0.009654,0.008203,0.005327,0.004695,0.004050,0.004161,0.005661,0.011231,0.014758,0.014994,0.013680,0.012685,0.012597,0.012372,0.011202,0.009523,0.009051,0.009921,0.009316,0.006216,0.005217,0.007171,0.009916,0.002833,-0.002892,-0.004804,-0.000113,0.002956,0.001502,-0.001195,-0.001515,-0.001550,0.000332,0.002295,0.002044,0.003559,0.008439,0.009791,0.007706,0.004102,0.002844,0.003337,0.003960,0.005244,0.006914,0.008313,0.008308,0.005027,0.003843,0.006474,0.003318,0.002919,0.007010,0.007122,0.005270,0.007202,0.009218,0.006915,0.008388,0.008979,0.007634,0.007390,0.008805,0.008438,0.009088,0.008098,0.004754,0.002313,0.000577,0.000614,0.002975,0.009805,0.013575,0.013368,0.012748,0.012978,0.013265,0.012745,0.011338,0.010143,0.009142,0.008777,0.008829,0.007700,0.005897,0.005722,0.007931,0.000922,-0.004446,-0.005412,-0.002093,0.001154,-0.000469,-0.001947,-0.001627,-0.002346,-0.000536,0.000803,-0.000368,0.001568,0.006336,0.009750,0.008670,0.008900,0.008595,0.009038,0.011406,0.011307,0.009044,0.007334,0.006650,0.005261,0.002094,0.002514,0.002585,-0.000522,0.000516,0.004834,0.006636,0.004810,0.004769,0.004136,0.004025,0.004194,0.002818,0.003797,0.004689,0.003755,0.004784,0.005944,0.004547,0.002351,0.000691,0.001642,0.006079,0.011416,0.013673,0.013743,0.012827,0.011699,0.011127,0.011375,0.012128,0.012605,0.011400,0.010218,0.010228,0.009552,0.008173,0.007756,0.008548,0.004367,0.001948,0.003051,0.002849,0.001267,-0.001892,-0.002484,-0.002582,-0.003302,-0.003250,-0.002121,-0.002235,-0.004621,-0.003738,0.000309,0.000420,-0.000751,0.000218,0.002131,0.000944,-0.001470,-0.002043,-0.001233,-0.001825,-0.002830,-0.004742,-0.007010,-0.004189,-0.003112,-0.005626,-0.002320,0.002137,0.003813,0.003492,0.005129,0.005856,0.004385,0.000462,0.000639,0.000272,-0.000213,-0.000618,-0.001911,-0.002801,-0.003857,-0.003188,-0.001879,0.001689,0.005776,0.010157,0.013780,0.015048,0.014309,0.012906,0.012740,0.013546,0.012764,0.011906,0.011337,0.010694,0.009154,0.008316,0.008405,0.007691,0.006862,0.006692,0.007440,0.006271,0.000825,-0.001854,-0.003020,-0.006898,-0.004339,-0.003669,-0.004034,-0.002274,-0.006287,-0.008771,-0.008464,-0.009024,-0.010079,-0.010297,-0.008047,-0.006072,-0.006839,-0.005821,-0.002054,-0.001068,-0.002469,-0.001432,-0.002866,-0.006433,-0.002976,-0.001462,-0.004413,-0.001913,0.003307,0.000693,-0.003252,0.000858,-0.001395,-0.006295,-0.003763,-0.002996,-0.002567,-0.002608,-0.004426,-0.004403,-0.004546,-0.003611,-0.004525,-0.004313,-0.003705,-0.002336,0.001971,0.005978,0.010157,0.013044,0.013220,0.011060,0.008144,0.007304,0.007391,0.005436,0.002329,0.002260,0.003589,0.003229,0.006759,0.006214,0.005898,0.006497,0.004219,0.005008,0.003793,-0.001962,-0.001274,-0.000611,-0.003032,-0.000732,0.005239,0.003094,-0.003981,-0.008355,-0.005863,-0.007347,-0.008661,-0.004507,-0.004340,-0.004438,-0.001820,0.000348,-0.002897,-0.002610,0.001901,-0.005605,-0.011269,-0.005345,-0.001364,-0.002639,-0.002915,0.001077,-0.001329,-0.004743,-0.009114,-0.011910,-0.007535,-0.007965,-0.007687,-0.003297,-0.001714,-0.000885,-0.000621,0.000112,-0.002199,-0.003145,-0.003472,-0.004591,-0.004308,-0.003910,-0.001707,0.004940,0.010499,0.010311,0.009998,0.008971,0.007200,0.005083,0.001617,-0.000478,-0.000048,0.001969,0.005373,0.007364,0.007011,0.006645,0.007149,0.005214,0.002330,0.003635,0.002104,0.002302,0.004750,0.006848,0.008459,0.005408,0.001913,0.001136,-0.001576,-0.005040,-0.005872,-0.004776,-0.005025,-0.004138,-0.004093,-0.002740,-0.002075,-0.009220,-0.004912,-0.001483,-0.013887,-0.013907,-0.004121,-0.002589,-0.006483,-0.010489,-0.005235,-0.007692,-0.012157,-0.009159,-0.007032,-0.003341,-0.003007,-0.008649,-0.000401,0.001899,-0.007628,-0.002629,0.002493,-0.000100,0.001353,0.003303,0.000878,-0.002135,-0.004673,-0.004126,-0.002140,-0.000663,0.000497,0.002815,0.003410,0.002988,0.000573,-0.010638,-0.006076,-0.001036,0.000316,0.004395,0.004224,0.003858,0.001738,0.000011,-0.001294,-0.002449,-0.004199,-0.006910,-0.007411,-0.007701,-0.009188,-0.008529,-0.009897,-0.009749,-0.010250,-0.009676,-0.009577,-0.010822,-0.006716,-0.007927,-0.007461,-0.007807,-0.006152,-0.008731,-0.010567,-0.000717,-0.003643,-0.014441,-0.007843,-0.007095,-0.018860,-0.022196,-0.018155,-0.016938,-0.019277,-0.016981,-0.017216,-0.016946,-0.013251,-0.015384,-0.009351,-0.008845,-0.013068,-0.003055,-0.007804,-0.010053,-0.004888,-0.001879,0.002089,-0.002338,-0.003886,-0.006810,-0.010946,-0.012884,-0.010885,-0.008701,-0.017117,-0.017061,-0.012897,-0.018197,-0.006733,-0.003032,-0.007203,-0.009021,-0.007732,-0.006311,-0.009547,-0.009421,-0.008829,-0.011824,-0.013907,-0.013007,-0.013923,-0.014782,-0.012757,-0.009889,-0.007602,-0.006844,-0.005079,-0.003049,-0.003109,-0.004964,-0.005150,-0.005377,-0.007576,-0.006962,-0.005960,-0.005279,-0.005547,-0.007679,-0.007964,-0.009529,-0.018302,-0.019017,-0.019091,-0.021299,-0.021295,-0.022974,-0.021615,-0.021654,-0.021519,-0.021834,-0.020426,-0.015587,-0.014182,-0.017003,-0.015898,-0.009963,-0.009701,-0.013592,-0.008145,-0.004911,-0.006470,-0.010075,-0.010558,-0.013510,-0.017903,-0.020947,-0.026392,-0.016866,-0.020455,-0.024070,-0.014900,-0.015453,-0.011263,-0.008596,-0.011363,-0.015530,-0.014043,-0.014330,-0.017798,-0.017972,-0.017234,-0.019278,-0.020024,-0.013097,-0.013508,-0.014450,-0.010502,-0.011933,-0.011055,-0.014610,-0.012292,-0.010372,-0.012185,-0.005242,-0.005294,-0.005739,-0.004687,-0.004017,-0.007160,-0.008529,-0.011808,-0.018525,-0.017250,-0.024892,-0.028717,-0.030980,-0.025563,-0.023999,-0.029224,-0.025123,-0.023056,-0.024256,-0.024183,-0.020772,-0.021114,-0.017589,-0.014175,-0.014543,-0.009551,-0.009647,-0.013590,-0.008671,-0.010413,-0.018382,-0.016088,-0.018016,-0.017664,-0.019711,-0.023111,-0.025251,-0.027152,-0.024341,-0.028946,-0.026882,-0.018364,-0.019340,-0.020204,-0.018887,-0.019842,-0.018965,-0.017857,-0.022830,-0.021399,-0.021382,-0.021358,-0.019174,-0.011390,-0.010349,-0.009814,-0.005375,-0.006143,-0.009077,-0.012483,-0.016315,-0.015790,-0.017564,-0.031185,-0.013892,-0.010595,-0.018721,-0.008843,-0.008429,-0.010799,-0.009875,-0.012629,-0.016798,-0.019519,-0.025255,-0.023109,-0.019687,-0.028129,-0.020679,-0.020114,-0.027436,-0.025296,-0.025329,-0.026382,-0.018849,-0.012607,-0.014294,-0.009264,-0.005033,-0.012574,-0.019283,-0.014575,-0.018546,-0.018472,-0.015877,-0.018736,-0.017417,-0.016179,-0.019225,-0.023483,-0.025497,-0.022247,-0.024635,-0.027680,-0.025254,-0.024627,-0.025129,-0.026167,-0.028037,-0.026082,-0.022196,-0.023817,-0.024889,-0.020701,-0.021861,-0.023171,-0.020294,-0.017582,-0.020202,-0.011669,-0.007719,-0.009563,-0.009606,-0.014094,-0.015505,-0.018354,-0.021521,-0.019997,-0.020367,-0.016374,-0.016487,-0.015527,-0.020053,-0.029530,-0.027618,-0.022319,-0.025116,-0.028639,-0.019031,-0.021306,-0.015993,-0.012888,-0.014103,-0.013149,-0.014642,-0.015765,-0.017543,-0.023365,-0.023921,-0.022251,-0.020404,-0.020846,-0.016088,-0.017095,-0.024713,-0.019899,-0.028195,-0.026740,-0.022947,-0.028636,-0.018658,-0.019428,-0.024252,-0.029306,-0.028326,-0.029689,-0.031990,-0.026444,-0.027856,-0.026516,-0.024242,-0.025549,-0.029348,-0.029363,-0.029084,-0.031722,-0.028096,-0.026577,-0.026507,-0.026904,-0.026162,-0.025853,-0.029225,-0.026342,-0.023114,-0.025052,-0.024446,-0.026059,-0.025923,-0.030674,-0.033203,-0.019954,-0.025779,-0.022597,-0.011809,-0.017616,-0.016020,-0.012982,-0.016175,-0.016244,-0.012023,-0.014312,-0.017393,-0.015666,-0.013488,-0.012318,-0.016261,-0.014958,-0.013250,-0.015262,-0.020965,-0.025140,-0.024144,-0.026670,-0.029967,-0.021950,-0.024846,-0.035241,-0.021694,-0.024618,-0.037139,-0.029626,-0.031637,-0.039997,-0.034586,-0.029272,-0.033380,-0.034694,-0.028927,-0.028548,-0.029630,-0.023690,-0.023660,-0.021651,-0.021615,-0.023544,-0.022693,-0.025660,-0.026478,-0.024122,-0.025141,-0.028027,-0.026006,-0.024096,-0.025833,-0.027138,-0.022795,-0.025077,-0.027235,-0.027257,-0.033579,-0.032172,-0.037061,-0.039877,-0.039423,-0.034075,-0.026770,-0.023947,-0.013990,-0.016156,-0.011702,-0.012486,-0.018087,-0.011246,-0.016550,-0.016185,-0.014403,-0.021961,-0.015353,-0.012239,-0.017779,-0.011710,-0.007869,-0.009984,-0.016673,-0.015528,-0.017820,-0.023770,-0.026109,-0.025273,-0.025584,-0.032097,-0.032553,-0.040834,-0.048388,-0.043455,-0.032772,-0.033357,-0.035455,-0.024534,-0.022390,-0.026816,-0.025543,-0.020541,-0.021694,-0.022786,-0.021666,-0.019517,-0.021832,-0.024350,-0.021361,-0.025135,-0.024758,-0.024647,-0.027410,-0.022668,-0.027404,-0.025735,-0.026589,-0.026136,-0.024147,-0.029870,-0.032138,-0.034947,-0.039383,-0.042572,-0.045054,-0.047771,-0.051649,-0.046475,-0.027102,-0.025584,-0.025099,-0.016785,-0.013720,-0.022834,-0.026507,-0.014317,-0.027144,-0.036198,-0.020458,-0.026443,-0.033721,-0.027424,-0.031861,-0.020275,-0.015468,-0.013865,-0.009748,-0.014000,-0.014233,-0.017534,-0.023266,-0.029896,-0.038322,-0.039649,-0.041955,-0.045110,-0.047029,-0.045167,-0.034372,-0.034928,-0.036610,-0.028543,-0.028033,-0.029321,-0.029992,-0.024682,-0.026852,-0.029002,-0.023382,-0.027559,-0.030071,-0.022800,-0.023110,-0.029101,-0.029138,-0.027972,-0.031922,-0.028852,-0.028651,-0.028757,-0.031620,-0.031443,-0.035795,-0.039846,-0.039300,-0.034904,-0.034149,-0.041286,-0.045274,-0.046335,-0.044575,-0.038942,-0.035542,-0.028720,-0.029219,-0.024228,-0.020781,-0.027730,-0.021860,-0.017544,-0.023746,-0.028503,-0.021504,-0.024480,-0.035379,-0.037456,-0.035328,-0.032335,-0.028657,-0.022249,-0.019820,-0.014535,-0.011052,-0.012327,-0.013049,-0.017757,-0.022208,-0.028251,-0.036854,-0.044832,-0.048580,-0.044640,-0.044171,-0.047921,-0.046217,-0.045085,-0.043070,-0.036465,-0.036968,-0.035178,-0.032247,-0.033584,-0.040782,-0.046955,-0.027700,-0.027023,-0.034582,-0.034728,-0.037041,-0.037859,-0.041712,-0.049600,-0.046096,-0.040047,-0.042134,-0.046162,-0.049110,-0.044536,-0.038859,-0.036359,-0.036662,-0.037442,-0.039015,-0.035028,-0.031381,-0.034282,-0.029961,-0.028945,-0.028372,-0.024303,-0.027208,-0.024034,-0.019631,-0.022607,-0.023386,-0.018800,-0.024428,-0.028064,-0.028513,-0.029549,-0.029780,-0.029401,-0.028185,-0.029456,-0.030391,-0.025365,-0.025712,-0.024885,-0.020270,-0.021701,-0.021322,-0.023755,-0.027149,-0.033849,-0.042358,-0.047863,-0.048619,-0.045048,-0.044692,-0.051170,-0.046196,-0.032888,-0.035587,-0.029599,-0.025174,-0.027472,-0.029924,-0.027797,-0.022133,-0.030843,-0.046950,-0.023013,-0.037019,-0.045641,-0.036067,-0.053097,-0.046761,-0.039399,-0.044518,-0.047560,-0.036990,-0.031714,-0.032016,-0.030905,-0.030269,-0.030672,-0.029660,-0.029019,-0.031655,-0.043041,-0.036199,-0.040298,-0.038266,-0.023907,-0.024284,-0.020549,-0.021348,-0.024679,-0.016806,-0.017048,-0.025314,-0.022205,-0.019732,-0.023314,-0.025501,-0.025577,-0.025461,-0.026035,-0.026579,-0.027203,-0.027210,-0.026229,-0.026163,-0.026571,-0.025394,-0.026271,-0.027806,-0.030666,-0.033606,-0.037259,-0.039439,-0.038952,-0.042764,-0.040677,-0.025464,-0.022341,-0.026659,-0.020793,-0.017830,-0.023369,-0.020709,-0.023321,-0.021032,-0.024184,-0.030244,-0.019536,-0.026784,-0.031005,-0.023468,-0.029667,-0.025234,-0.020430,-0.028885,-0.027217,-0.021096,-0.024378,-0.026070,-0.024535,-0.025377,-0.026684,-0.025804,-0.025714,-0.041894,-0.033684,-0.029898,-0.030465,-0.040426,-0.017312,-0.016616,-0.018242,-0.017713,-0.020733,-0.014801,-0.014013,-0.018196,-0.017021,-0.016101,-0.019187,-0.022290,-0.023829,-0.023042,-0.020192,-0.021220,-0.021842,-0.018892,-0.020775,-0.023219,-0.022573,-0.024897,-0.025021,-0.025527,-0.026095,-0.026580,-0.026293,-0.027025,-0.029456,-0.031111,-0.030074,-0.024451,-0.025473,-0.026432,-0.019817,-0.016725,-0.019192,-0.020437,-0.023195,-0.023385,-0.022465,-0.027222,-0.025139,-0.031539,-0.032336,-0.022776,-0.027314,-0.026209,-0.016729,-0.020006,-0.021607,-0.018680,-0.022071,-0.023669,-0.022371,-0.023869,-0.025612,-0.024485,-0.024124,-0.022622,-0.022174,-0.019925,-0.020338,-0.019723,-0.013879,-0.012130,-0.006786,-0.015265,-0.020084,-0.012140,-0.012930,-0.016038,-0.016428,-0.013724,-0.015532,-0.019598,-0.019675,-0.017672,-0.017964,-0.017741,-0.014014,-0.016335,-0.018437,-0.018307,-0.020629,-0.023284,-0.023350,-0.023338,-0.023245,-0.022871,-0.022520,-0.020732,-0.019766,-0.020967,-0.019647,-0.018957,-0.022245,-0.022514,-0.021105,-0.019876,-0.018477,-0.016670,-0.017035,-0.017920,-0.016815,-0.017852,-0.014546,-0.020209,-0.020278,-0.011281,-0.014120,-0.015606,-0.014914,-0.012436,-0.019377,-0.020051,-0.019357,-0.021687,-0.022453,-0.022468,-0.022241,-0.023427,-0.019464,-0.020913,-0.017439,-0.013746,-0.017324,-0.015898,-0.016615,-0.017044,-0.006042,-0.016794,-0.018778,-0.014167,-0.021048,-0.017517,-0.015446,-0.019188,-0.018626,-0.016255,-0.016895,-0.017568,-0.020067,-0.016279,-0.013551,-0.020568,-0.019761,-0.019150,-0.023774,-0.025255,-0.025055,-0.024563,-0.024101,-0.023613,-0.023069,-0.020897,-0.018496,-0.018178,-0.016098,-0.014767,-0.015900,-0.015841,-0.018331,-0.022175,-0.020503,-0.023261,-0.020581,-0.018909,-0.016654,-0.013282,-0.014678,-0.016593,-0.014361,-0.017693,-0.018353,-0.014444,-0.023905,-0.021562,-0.016726,-0.023988,-0.020701,-0.018933,-0.022518,-0.022590,-0.020531,-0.019998,-0.016943,-0.020939,-0.019564,-0.017176,-0.025627,-0.022113,-0.020925,-0.020234,-0.005553,-0.017722,-0.020068,-0.015105,-0.023971,-0.022479,-0.019288,-0.021279,-0.021330,-0.017700,-0.017651,-0.019436,-0.016846,-0.011907,-0.015960,-0.019192,-0.014949,-0.019914,-0.023702,-0.022713,-0.023036,-0.023234,-0.023169,-0.022795,-0.022788,-0.020759,-0.018069,-0.018681,-0.016240,-0.012762,-0.013417,-0.013906,-0.010728,-0.014387,-0.014938,-0.018411,-0.023258,-0.024137,-0.029089,-0.021902,-0.019153,-0.023699,-0.022708,-0.017835,-0.018644,-0.022838,-0.020739,-0.017588,-0.013643,-0.016203,-0.018520,-0.016425,-0.017222,-0.019681,-0.020793,-0.017703,-0.017974,-0.025407,-0.024117,-0.023844,-0.027674,-0.030899,-0.025381,-0.021188,-0.017512,-0.019279,-0.017576,-0.017877,-0.016562,-0.018993,-0.019736,-0.017602,-0.017676,-0.014791,-0.016182,-0.015359,-0.009859,-0.010770,-0.014659,-0.014292,-0.015112,-0.019866,-0.020762,-0.020180,-0.021940,-0.023577,-0.021866,-0.020271,-0.020187,-0.020267,-0.013794,-0.013003,-0.012771,-0.010195,-0.010811,-0.009311,-0.003050,-0.005739,-0.009686,-0.010520,-0.009795,-0.012208,-0.015546,-0.016952,-0.016153,-0.020056,-0.023013,-0.019356,-0.022492,-0.034634,-0.024823,-0.014657,-0.022174,-0.017006,-0.012638,-0.015439,-0.017304,-0.017192,-0.015275,-0.016669,-0.023043,-0.023889,-0.020221,-0.020708,-0.023957,-0.026385,-0.015960,-0.012173,-0.012497,-0.011405,-0.007606,-0.012551,-0.014279,-0.013520,-0.013475,-0.014307,-0.014226,-0.012142,-0.013398,-0.011589,-0.008876,-0.010422,-0.010040,-0.013046,-0.017401,-0.017535,-0.020892,-0.020822,-0.020719,-0.020225,-0.018926,-0.017750,-0.013114,-0.015569,-0.012752,-0.008346,-0.009160,-0.006535,-0.004382,0.002124,0.004080,-0.001413,-0.007034,-0.008979,-0.008030,-0.009612,-0.012018,-0.012958,-0.010730,-0.014214,-0.013731,-0.012946,-0.013091,-0.010997,-0.011623,-0.006471,-0.006355,-0.008605,-0.009540,-0.011325,-0.010998,-0.005745,-0.008805,-0.012678,-0.010196,-0.009559,-0.009618,-0.007886,-0.012988,-0.010948,-0.010964,-0.010599,-0.007165,-0.003986,-0.003540,-0.008144,-0.007739,-0.006127,-0.007248,-0.004978,-0.007258,-0.008117,-0.004702,-0.009741,-0.007207,-0.005003,-0.011237,-0.010487,-0.006945,-0.010551,-0.012256,-0.005886,-0.007463,-0.009353,-0.006173,-0.003209,-0.003113,-0.003704,0.000484,0.000887,0.000252,0.000835,0.001775,0.005546,0.010008,0.005696,-0.005039,-0.007601,-0.007857,-0.009318,-0.010919,-0.009778,-0.005451,0.003567,0.010617,0.011092,0.010726,0.008872,0.005160,0.003831,0.002858,0.000416,-0.000075,-0.000059,0.004749,0.009578,-0.000014,-0.002865,0.000168,-0.002048,-0.002831,-0.004552,-0.006747,-0.006806,-0.008757,-0.004145,0.002409,0.001326,-0.001929,-0.003628,-0.001484,-0.001658,-0.003090,0.000072,0.000071,-0.004465,-0.000705,0.001792,0.001054,0.003371,0.002149,0.006743,0.006870,0.005672,0.007987,0.007946,0.008598,0.008956,0.009645,0.010719,0.008773,0.009115,0.010075,0.009396,0.009920,0.011265,0.012394,0.013780,0.015227,0.016249,0.005616,-0.003374,-0.006995,-0.008567,-0.007089,0.000492,0.010867,0.015119,0.016633,0.017146,0.016040,0.016111,0.016367,0.017843,0.013966,0.011723,0.010698,0.012802,0.014673,0.016482,0.005749,0.001131,0.002792,-0.000311,0.001334,0.003880,-0.001024,-0.005659,-0.006743,0.003512,0.008843,0.008127,0.008238,0.007898,0.009185,0.009439,0.010950,0.011549,0.013175,0.016449,0.018671,0.018709,0.019830,0.020685,0.019368,0.020802,0.020932,0.018886,0.019568,0.018579,0.017953,0.017463,0.016932,0.015789,0.014858,0.014481,0.014548,0.014924,0.015882,0.017096,0.017716,0.018048,0.016269,0.017711,0.019651,0.012364,0.005029,0.002877,0.007572,0.012210,0.016215,0.017717,0.018441,0.018483,0.018211,0.017443,0.015860,0.014866,0.015898,0.017297,0.017930,0.017714,0.016741,0.016917,0.010499,0.001732,-0.002682,-0.004707,0.000210,-0.003337,-0.006063,-0.009379,-0.007293,0.005856,0.013577,0.014210,0.015429,0.017050,0.018953,0.019322,0.018804,0.019394,0.019447,0.018738,0.019390,0.019521,0.018508,0.019623,0.018951,0.019266,0.017144,0.015633,0.014845,0.012798,0.011534,0.009242,0.007942,0.008117,0.007132,0.006374,0.005168,0.005330,0.003826,0.003065,0.004270,0.003495,0.001999,0.001288,-0.000059,-0.003828,-0.001891,-0.002191,-0.004242,-0.004734,0.005276,0.012025,0.014112,0.013417,0.012966,0.012405,0.011509,0.011153,0.010620,0.009975,0.010362,0.008744,0.009654,0.012223,0.013754,0.005837,-0.003236,-0.009000,-0.009829,-0.011219,-0.012866,-0.013198,-0.008686,-0.002501,0.008892,0.010320,-0.000680,0.010602,0.013684,0.013699,0.013311,0.012618,0.013467,0.012710,0.011509,0.010944,0.010183,0.009614,0.007028,0.006172,0.003822,0.001387,0.000946,-0.003554,-0.001053,-0.000317,-0.002720,-0.003235,-0.002276,-0.001535,-0.003178,-0.001616,-0.002972,-0.003936,-0.001615,-0.002875,-0.005059,-0.005232,-0.004659,-0.004179,-0.005489,-0.007630,-0.008138,-0.006657,-0.000733,0.006484,0.007585,0.007823,0.008703,0.007088,0.007638,0.008209,0.005560,0.002880,0.005984,0.007329,0.007805,0.010583,0.010657,0.010186,0.006253,-0.005466,-0.010545,-0.008691,-0.013199,-0.012981,-0.001380,-0.007930,-0.010652,-0.004975,-0.002303,-0.003209,-0.003109,0.001348,-0.000883,-0.003803,-0.000682,-0.003454,-0.002701,-0.000517,-0.000958,0.001451,0.002582,0.000561,-0.002666,-0.002907,-0.004316,-0.006029,-0.003416,-0.001801,-0.001344,0.000067,-0.000823,0.000617,0.000428,0.000165,-0.000470,-0.001717,-0.000632,-0.003114,-0.002644,-0.004579,-0.006746,-0.004501,-0.005761,-0.008184,-0.005956,-0.002779,-0.002367,0.002544,0.007120,0.006563,0.007123,0.007019,0.006076,0.007090,0.004075,-0.002845,0.003533,-0.000132,-0.000549,0.006238,0.002438,0.001747,0.004573,0.002629,0.001205,-0.004458,-0.008867,-0.008794,-0.013126,-0.014730,-0.013936,-0.010930,-0.010365,-0.010065,-0.009450,-0.010828,-0.008343,-0.015264,-0.015471,-0.010171,-0.008345,-0.006788,-0.013482,-0.006646,-0.002363,-0.009999,-0.007188,-0.004439,-0.011103,-0.008241,-0.006639,-0.007282,-0.007667,-0.006020,-0.005035,-0.004898,-0.006313,-0.008648,-0.006915,-0.008604,-0.010309,-0.013027,-0.010347,-0.011017,-0.014248,-0.011760,-0.013293,-0.013236,-0.009524,-0.008566,-0.011352,-0.008476,-0.004560,-0.005390,-0.008947,-0.005940,-0.003126,-0.004431,-0.004836,-0.006515,-0.007264,-0.006114,-0.006210,-0.006228,-0.004878,-0.005157,-0.003503,-0.003060,-0.005839,-0.003275,-0.007071,-0.010004,-0.009037,-0.012149,-0.011892,-0.010980,-0.010497,-0.007760,-0.008382,-0.009072,-0.006241,-0.009336,-0.005411,-0.007284,-0.006770,-0.002499,-0.010553,-0.005148,-0.003675,-0.007869,-0.005106,-0.004342,-0.004668,-0.006113,-0.004475,-0.002596,-0.003355,-0.005133,-0.003862,-0.003454,-0.005918,-0.007751,-0.006442,-0.008461,-0.008531,-0.009169,-0.008498,-0.008430,-0.010817,-0.009374,-0.007739,-0.006589,-0.007603,-0.007010,-0.005551,-0.008164,-0.006596,-0.004609,-0.007382,-0.004380,-0.001258,-0.001875,-0.002722,-0.002682,-0.003808,-0.003426,-0.003412,-0.006230,-0.003776,-0.004705,-0.004927,-0.001563,-0.002942,-0.002661,-0.004865,-0.007325,-0.005179,-0.008857,-0.012099,-0.009693,-0.014854,-0.013734,-0.012467,-0.009543,-0.009184,-0.009439,-0.004486,-0.004038,-0.006912,-0.002569,-0.002642,-0.007671,-0.000556,-0.001634,-0.002315,-0.000939,-0.002176,-0.002322,-0.003651,-0.002973,-0.003789,-0.007271,-0.004985,-0.005450,-0.007946,-0.005688,-0.005496,-0.008088,-0.007450,-0.007250,-0.010744,-0.009280,-0.010214,-0.013545,-0.011136,-0.008948,-0.009612,-0.008867,-0.009663,-0.006945,-0.002280,-0.005389,-0.004573,-0.003679,-0.001942,0.000566,-0.001949,-0.003015,-0.000028,-0.002579,-0.002962,-0.001697,-0.004243,-0.005504,-0.004917,-0.003569,-0.005907,-0.006379,-0.007759,-0.005376,-0.004221,-0.013058,-0.008042,-0.006220,-0.010176,-0.010878,-0.006752,-0.004554,-0.005668,-0.006409,-0.006700,-0.005257,-0.004071,-0.007156,-0.004258,-0.003868,-0.001025,-0.000044,-0.002058,-0.000920,-0.001400,-0.002121,-0.002482,-0.003072,-0.003899,-0.004358,-0.004702,-0.005395,-0.005296,-0.004995,-0.004779,-0.006911,-0.006708,-0.005793,-0.006872,-0.009587,-0.011726,-0.007053,-0.007316,-0.009060,-0.007933,-0.009688,-0.008958,-0.006934,-0.007019,-0.005304,-0.004254,-0.003587,-0.002588,-0.000122,-0.002185,-0.003215,-0.000227,-0.002841,-0.003555,-0.001721,-0.006632,-0.008261,-0.005051,-0.007007,-0.005411,-0.006513,-0.006139,-0.001145,-0.004507,-0.011271,-0.008785,-0.008291,-0.014799,-0.013169,-0.009025,-0.009880,-0.007224,-0.004780,-0.004751,-0.002258,-0.002070,-0.001860,0.000128,0.001080,0.001742,0.000895,0.000317,0.002260,-0.001749,-0.005350,-0.001380,-0.001640,-0.004566,-0.002408,-0.003900,-0.004293,-0.002588,-0.005863,-0.005052,-0.005464,-0.005879,-0.004314,-0.007947,-0.008272,-0.006716,-0.006730,-0.006960,-0.008577,-0.004007,-0.009935,-0.012664,-0.008255,-0.010388,-0.005977,-0.008665,-0.004638,-0.002061,-0.002332,-0.001595,0.000038,-0.000776,-0.001758,-0.002111,-0.004458,-0.005888,-0.007608,-0.008832,-0.009364,-0.007442,-0.006654,-0.007593,-0.003290,-0.005113,-0.009167,-0.007045,-0.010697,-0.014714,-0.015114,-0.010306,-0.009983,-0.006715,-0.003594,-0.004286,-0.001284,-0.005623,-0.005105,-0.001793,-0.002714,0.000389,-0.002941,-0.000509,0.000585,-0.008828,-0.008904,-0.003532,-0.005298,-0.008139,-0.003166,-0.004438,-0.005686,-0.003307,-0.006696,-0.005888,-0.005180,-0.006312,-0.003980,-0.005944,-0.005219,-0.003986,-0.005978,-0.005320,-0.005450,-0.001942,-0.005713,-0.010985,-0.005596,-0.008664,-0.009771,-0.011091,-0.005406,-0.003440,-0.004221,-0.001674,0.000431,-0.002842,-0.002756,-0.001854,-0.006127,-0.005246,-0.007029,-0.009561,-0.011237,-0.009984,-0.010329,-0.008702,-0.006086,-0.005190,-0.003202,-0.007492,-0.006109,-0.006292,-0.011766,-0.007650,-0.004058,-0.004609,-0.005553,-0.005190,-0.004640,-0.005838,-0.007375,-0.005919,-0.001204,-0.002847,-0.003271,-0.002406,-0.004745,-0.006667,-0.007673,-0.004257,-0.006112,-0.006252,-0.001665,-0.003204,-0.005016,-0.003308,-0.006600,-0.006254,-0.005460,-0.007667,-0.004905,-0.006575,-0.005539,-0.003954,-0.007206,-0.005882,-0.005368,-0.005646,-0.006292,-0.011745,-0.007518,-0.007496,-0.011405,-0.005543,-0.002679,-0.004210,-0.003132,-0.001290,-0.001684,-0.005045,-0.004579,-0.002858,-0.004797,-0.006898,-0.009584,-0.010428,-0.012600,-0.013713,-0.013111,-0.008961,-0.008170,-0.005096,-0.003920,-0.008097,-0.008261,-0.008164,-0.011467,-0.013189,-0.007469,-0.008407,-0.009840,-0.008100,-0.007980,-0.007559,-0.009251,-0.007469,-0.009131,-0.010949,-0.009333,-0.013395,-0.011295,-0.010365,-0.011660,-0.008764,-0.009205,-0.010740,-0.009656,-0.010825,-0.013943,-0.014405,-0.016520,-0.016725,-0.016544,-0.020914,-0.016980,-0.019913,-0.020231,-0.016777,-0.019679,-0.016261,-0.014553,-0.017987,-0.011338,-0.009183,-0.019608,-0.016030