-0.002884,,-0.002889,-0.002585,-0.002279,-0.001885,-0.001746,-0.001520,-0.001118,-0.001535,-0.002166,-0.002646,-0.002909,-0.002898,-0.002859,-0.002752,-0.002774,-0.002788,-0.002778,-0.002748,-0.002717,-0.002739,-0.002825,-0.002887,-0.002900,-0.002840,-0.002721,-0.002651,-0.002586,-0.002519,-0.002451,-0.002382,-0.002348,-0.002325,-0.002298,-0.002283,-0.002274,-0.002288,-0.002304,-0.002299,-0.002270,-0.002268,-0.002277,-0.002297,-0.002328,-0.002368,-0.002385,-0.002345,-0.002292,-0.002325,-0.002404,-0.002441,-0.002447,-0.002470,-0.001827,-0.001261,-0.000506,-0.000403,-0.001105,-0.001772,-0.002355,-0.002454,-0.002456,-0.002481,-0.002423,-0.002375,-0.002010,-0.001667,-0.001281,-0.000774,-0.000491,-0.000249,-0.000201,-0.000889,-0.001523,-0.001983,-0.002212,-0.002256,-0.002334,-0.002378,-0.002322,-0.002262,-0.002247,-0.002215,-0.002154,-0.002121,-0.002174,-0.002244,-0.002297,-0.002287,-0.002170,-0.002089,-0.002011,-0.001955,-0.001856,-0.001784,-0.001741,-0.001711,-0.001696,-0.001694,-0.001697,-0.001704,-0.001712,-0.001721,-0.001713,-0.001718,-0.001726,-0.001756,-0.001797,-0.001815,-0.001764,-0.001762,-0.001825,-0.001908,-0.001973,-0.001855,-0.001439,-0.000836,-0.000594,-0.000567,-0.000427,-0.000420,-0.000584,-0.001201,-0.001647,-0.002050,-0.002231,-0.002146,-0.001930,-0.001907,-0.001792,-0.001632,-0.000795,0.000042,0.000103,-0.000084,-0.000258,-0.000512,-0.000673,-0.001274,-0.001796,-0.001751,-0.001747,-0.001767,-0.001714,-0.001683,-0.001664,-0.001613,-0.001540,-0.001478,-0.001466,-0.001560,-0.001624,-0.001640,-0.001592,-0.001470,-0.001391,-0.001326,-0.001221,-0.001142,-0.001095,-0.001066,-0.001052,-0.001034,-0.001033,-0.001045,-0.001060,-0.001070,-0.001083,-0.001094,-0.001109,-0.001129,-0.001150,-0.001160,-0.001119,-0.001123,-0.001132,-0.001124,-0.001180,-0.001194,-0.000908,-0.000298,0.000332,0.000545,0.000332,-0.000041,-0.000302,-0.000828,-0.000929,-0.001032,-0.001386,-0.001387,-0.001231,-0.001134,-0.001160,-0.000974,0.000250,0.001307,0.001487,0.000719,-0.000107,-0.000127,0.000135,-0.000024,-0.000653,-0.001198,-0.001336,-0.001281,-0.001224,-0.001150,-0.001090,-0.001016,-0.000956,-0.000898,-0.000847,-0.000868,-0.000937,-0.000940,-0.000921,-0.000858,-0.000711,-0.000604,-0.000504,-0.000416,-0.000361,-0.000335,-0.000313,-0.000264,-0.000227,-0.000207,-0.000195,-0.000195,-0.000191,-0.000186,-0.000176,-0.000171,-0.000166,-0.000130,-0.000124,-0.000111,-0.000033,0.000056,0.000024,-0.000108,-0.000157,0.000017,0.000973,0.001684,0.001889,0.001708,0.001285,0.000876,0.000586,0.000400,-0.000056,-0.000269,-0.000318,0.000032,0.000692,0.001026,0.001324,0.001786,0.001883,0.001188,0.001318,0.001727,0.001413,0.000953,0.000442,-0.000120,-0.000285,-0.000347,-0.000342,-0.000299,-0.000250,-0.000202,-0.000152,-0.000097,-0.000049,0.000023,0.000018,-0.000027,-0.000052,-0.000050,0.000013,0.000111,0.000196,0.000271,0.000328,0.000369,0.000409,0.000465,0.000525,0.000574,0.000619,0.000643,0.000658,0.000668,0.000682,0.000709,0.000742,0.000780,0.000801,0.000847,0.000923,0.000958,0.000975,0.001014,0.001049,0.001069,0.001792,0.002636,0.003067,0.003154,0.002871,0.002678,0.002373,0.001988,0.001464,0.001039,0.000857,0.001226,0.002488,0.002805,0.001659,0.001179,0.001538,0.001100,0.001583,0.002547,0.002768,0.002653,0.002207,0.001469,0.001199,0.001066,0.001088,0.001136,0.001133,0.001135,0.001174,0.001214,0.001235,0.001280,0.001328,0.001313,0.001263,0.001240,0.001217,0.001276,0.001390,0.001476,0.001544,0.001587,0.001616,0.001653,0.001690,0.001736,0.001766,0.001799,0.001837,0.001844,0.001861,0.001885,0.001911,0.001947,0.001993,0.002073,0.002137,0.002143,0.002160,0.002220,0.002241,0.002160,0.002415,0.003169,0.003621,0.003921,0.004064,0.004033,0.003950,0.003485,0.002882,0.002410,0.002222,0.002431,0.003643,0.004179,0.003170,0.002375,0.002265,0.002130,0.002621,0.003677,0.004511,0.004197,0.003368,0.003020,0.002871,0.002826,0.002828,0.002823,0.002833,0.002822,0.002825,0.002856,0.002875,0.002910,0.002926,0.002973,0.002978,0.002908,0.002885,0.002883,0.002996,0.003125,0.003227,0.003283,0.003310,0.003326,0.003351,0.003376,0.003406,0.003453,0.003514,0.003539,0.003549,0.003570,0.003602,0.003651,0.003716,0.003790,0.003862,0.003921,0.003930,0.003927,0.003927,0.003961,0.003923,0.004389,0.005166,0.005683,0.006078,0.006005,0.005708,0.005246,0.004558,0.004154,0.004153,0.004272,0.004977,0.005815,0.005914,0.005237,0.004702,0.004885,0.005193,0.005473,0.006370,0.006118,0.005044,0.004552,0.004301,0.004377,0.004441,0.004460,0.004459,0.004454,0.004454,0.004472,0.004446,0.004454,0.004486,0.004537,0.004581,0.004576,0.004493,0.004431,0.004426,0.004512,0.004600,0.004636,0.004634,0.004612,0.004584,0.004566,0.004560,0.004572,0.004618,0.004636,0.004637,0.004639,0.004648,0.004680,0.004748,0.004770,0.004786,0.004858,0.004899,0.004938,0.005170,0.005638,0.005845,0.006022,0.006838,0.006911,0.006838,0.006616,0.006287,0.006488,0.005915,0.005414,0.005223,0.004851,0.005160,0.005956,0.006932,0.007292,0.006492,0.005842,0.005925,0.005594,0.006389,0.006294,0.005864,0.005580,0.005345,0.005389,0.005324,0.005370,0.005520,0.005532,0.005650,0.005520,0.005411,0.005545,0.005635,0.005592,0.005609,0.005761,0.005801,0.005685,0.005576,0.005540,0.005534,0.005708,0.005760,0.005697,0.005671,0.005692,0.005647,0.005698,0.005691,0.005593,0.005626,0.005653,0.005623,0.005706,0.005763,0.005809,0.005762,0.005758,0.005863,0.005887,0.006085,0.006502,0.006932,0.007490,0.008023,0.008206,0.008003,0.007781,0.007858,0.007842,0.007363,0.006604,0.006277,0.006790,0.007402,0.007844,0.008509,0.009059,0.008560,0.007419,0.006545,0.005923,0.006549,0.007177,0.006699,0.006496,0.006247,0.006372,0.006322,0.006360,0.006387,0.006280,0.006351,0.006526,0.006550,0.006592,0.006546,0.006589,0.006721,0.006767,0.006735,0.006695,0.006723,0.006794,0.006719,0.006670,0.006563,0.006672,0.006773,0.006745,0.006768,0.006794,0.006834,0.006859,0.006946,0.007014,0.006996,0.007024,0.007061,0.007188,0.007399,0.007434,0.007514,0.007544,0.007500,0.007448,0.008085,0.009030,0.009586,0.009877,0.010009,0.010001,0.009910,0.009414,0.009263,0.009121,0.009164,0.009393,0.009400,0.009778,0.010338,0.010654,0.010530,0.009418,0.007741,0.007426,0.007559,0.008036,0.008469,0.007874,0.007512,0.007381,0.007399,0.007448,0.007519,0.007686,0.007701,0.007589,0.007713,0.007815,0.007788,0.007852,0.007946,0.007971,0.008088,0.008378,0.009122,0.009612,0.009534,0.008991,0.008408,0.008407,0.008392,0.008279,0.008310,0.008289,0.008324,0.008404,0.008402,0.008427,0.008567,0.008803,0.008900,0.008925,0.009136,0.009151,0.009296,0.009551,0.009678,0.009841,0.010208,0.011041,0.011708,0.012182,0.012673,0.012859,0.012828,0.012522,0.012351,0.012071,0.011842,0.012022,0.012514,0.013055,0.013216,0.013090,0.012979,0.012368,0.011265,0.010080,0.009781,0.010222,0.010926,0.011545,0.010889,0.010270,0.010306,0.010224,0.010262,0.010870,0.011236,0.011191,0.011440,0.011551,0.011546,0.011562,0.011606,0.011648,0.011749,0.012059,0.012402,0.012382,0.012099,0.011450,0.010771,0.010779,0.010642,0.010374,0.010155,0.010043,0.010375,0.010871,0.011049,0.010851,0.010555,0.010320,0.010447,0.010547,0.010761,0.010912,0.010975,0.011226,0.011385,0.011930,0.012419,0.013200,0.013948,0.014306,0.014681,0.014853,0.014817,0.014890,0.014784,0.014498,0.013878,0.013804,0.014433,0.014866,0.015137,0.015403,0.015444,0.015397,0.015485,0.013958,0.012605,0.012498,0.012517,0.012697,0.012853,0.013046,0.013812,0.014381,0.014643,0.015213,0.015486,0.015508,0.015430,0.015264,0.015161,0.015138,0.015244,0.015340,0.015283,0.015274,0.015197,0.015012,0.014887,0.014642,0.014371,0.014463,0.014369,0.014204,0.014215,0.014133,0.014261,0.014479,0.014450,0.014174,0.013787,0.013364,0.013124,0.013171,0.013487,0.013682,0.013246,0.012847,0.012562,0.013096,0.014149,0.014988,0.015483,0.015432,0.015420,0.015511,0.015231,0.015094,0.015022,0.015170,0.014988,0.014554,0.014465,0.014425,0.014832,0.015744,0.015752,0.015825,0.016127,0.015592,0.014727,0.014028,0.013756,0.013611,0.014175,0.015028,0.015732,0.016359,0.016718,0.016990,0.016951,0.016905,0.016886,0.016816,0.016746,0.016654,0.016684,0.016793,0.016751,0.016665,0.016630,0.016530,0.016375,0.016134,0.015851,0.015868,0.015780,0.015820,0.016059,0.016021,0.015702,0.015362,0.015181,0.015249,0.015387,0.015405,0.015624,0.015738,0.015522,0.015251,0.014985,0.015154,0.015088,0.014981,0.015590,0.016069,0.016388,0.016416,0.016311,0.016377,0.016177,0.015949,0.015509,0.015114,0.015299,0.015389,0.015493,0.015204,0.014961,0.015662,0.016135,0.016548,0.016387,0.015670,0.015873,0.015021,0.013953,0.014352,0.014846,0.016180,0.016968,0.017157,0.017148,0.017217,0.017286,0.017433,0.017438,0.017349,0.017241,0.017083,0.017048,0.017035,0.016981,0.016973,0.016915,0.016817,0.016578,0.016215,0.015778,0.015568,0.015358,0.015107,0.014962,0.014821,0.014651,0.014474,0.014471,0.014599,0.014635,0.014517,0.014292,0.014247,0.014310,0.014109,0.013824,0.013696,0.013878,0.014344,0.014558,0.014546,0.014534,0.014597,0.014501,0.014360,0.014438,0.014353,0.013787,0.013055,0.013075,0.013105,0.013111,0.013054,0.012801,0.013147,0.013259,0.013216,0.013023,0.012738,0.012850,0.012727,0.011853,0.010753,0.010460,0.011095,0.012622,0.013266,0.013434,0.013470,0.013502,0.013658,0.013788,0.013868,0.013936,0.014036,0.014159,0.014108,0.013941,0.013886,0.013722,0.013762,0.013825,0.013988,0.014038,0.013971,0.013663,0.012997,0.012481,0.012488,0.012690,0.012671,0.012544,0.012376,0.012174,0.012057,0.011982,0.011740,0.011506,0.011300,0.011519,0.011613,0.011846,0.012141,0.012172,0.012099,0.011819,0.011818,0.011596,0.011192,0.011389,0.011282,0.010310,0.009790,0.009920,0.009730,0.009869,0.010124,0.010388,0.010706,0.010623,0.010639,0.010174,0.010066,0.010126,0.010527,0.010586,0.009190,0.007945,0.007890,0.008095,0.009608,0.010232,0.010112,0.010096,0.010034,0.010034,0.009991,0.010100,0.010064,0.010168,0.010306,0.010062,0.010225,0.010385,0.010600,0.010470,0.010501,0.010916,0.010927,0.010746,0.010519,0.010543,0.010611,0.010969,0.011203,0.011396,0.011461,0.011163,0.011015,0.010964,0.010820,0.011067,0.011299,0.011367,0.011213,0.010951,0.010681,0.010560,0.010523,0.010651,0.010660,0.010575,0.010559,0.010312,0.010128,0.009418,0.008506,0.007899,0.008272,0.009088,0.009499,0.009838,0.009966,0.009783,0.009572,0.009158,0.008755,0.008742,0.008611,0.008391,0.008064,0.007392,0.006992,0.006966,0.007380,0.008450,0.008780,0.009342,0.009604,0.009223,0.009363,0.009206,0.009008,0.009146,0.009481,0.009544,0.009828,0.010156,0.010251,0.009971,0.009835,0.009871,0.009791,0.009829,0.009634,0.009254,0.009117,0.009471,0.009708,0.009874,0.010074,0.010086,0.010226,0.010477,0.010356,0.010331,0.010418,0.010673,0.010926,0.010982,0.010748,0.010701,0.010455,0.010134,0.010271,0.010449,0.010207,0.009858,0.009891,0.009198,0.008505,0.008090,0.008716,0.009500,0.009850,0.010042,0.009890,0.009626,0.009761,0.009880,0.009154,0.008700,0.008696,0.008933,0.009205,0.008568,0.007985,0.007633,0.007719,0.008591,0.010115,0.010547,0.010713,0.010796,0.010463,0.010079,0.009615,0.009726,0.010334,0.010542,0.010510,0.010373,0.010181,0.010150,0.010364,0.010324,0.010281,0.010711,0.010938,0.010816,0.010587,0.010498,0.010387,0.010132,0.009892,0.009472,0.009293,0.009719,0.010004,0.010262,0.010250,0.010126,0.010167,0.010224,0.010201,0.010133,0.010005,0.009817,0.009846,0.009891,0.009578,0.009480,0.009647,0.009382,0.009398,0.009412,0.009637,0.009783,0.009878,0.009567,0.009397,0.009590,0.009795,0.010033,0.009741,0.009250,0.009131,0.008953,0.008650,0.008369,0.008890,0.008274,0.008032,0.008616,0.009302,0.010407,0.010740,0.010553,0.010266,0.009928,0.009398,0.009427,0.009940,0.010055,0.009807,0.009650,0.009632,0.009903,0.010228,0.010023,0.009735,0.009948,0.010022,0.009788,0.009360,0.009038,0.008935,0.008715,0.008444,0.008167,0.008442,0.008520,0.008709,0.009269,0.009606,0.009703,0.009692,0.009633,0.009577,0.009356,0.009346,0.009399,0.009300,0.009121,0.008992,0.009092,0.009225,0.009164,0.008996,0.008621,0.008464,0.008449,0.008513,0.008255,0.008236,0.008433,0.008422,0.008352,0.008068,0.007498,0.007511,0.007321,0.006775,0.007031,0.008042,0.007875,0.006692,0.006189,0.006012,0.006569,0.008262,0.008801,0.008890,0.008533,0.008218,0.008184,0.008343,0.008380,0.008401,0.008435,0.008498,0.008510,0.008532,0.008388,0.008184,0.008107,0.007919,0.007767,0.007620,0.007500,0.007591,0.007561,0.007529,0.007708,0.008470,0.008679,0.008743,0.009043,0.009073,0.009037,0.009001,0.008857,0.008674,0.008589,0.008479,0.008468,0.008419,0.008221,0.008014,0.007691,0.007405,0.007396,0.007419,0.007488,0.007626,0.007710,0.007712,0.007722,0.007721,0.007613,0.007479,0.007211,0.006765,0.006254,0.006507,0.006492,0.005913,0.006065,0.006166,0.006146,0.005458,0.004541,0.004127,0.004199,0.004943,0.006608,0.006846,0.006841,0.006802,0.006829,0.006877,0.006881,0.006934,0.006800,0.006768,0.006837,0.006715,0.006609,0.006512,0.006465,0.006503,0.006501,0.006462,0.006324,0.006178,0.006101,0.006071,0.006051,0.006152,0.006814,0.007411,0.007553,0.007394,0.006994,0.006752,0.006469,0.006242,0.006161,0.005916,0.005787,0.005751,0.005639,0.005479,0.004892,0.004260,0.003926,0.004127,0.005033,0.005468,0.005535,0.005642,0.006029,0.006196,0.006225,0.006195,0.006226,0.006357,0.006441,0.006077,0.005025,0.004301,0.004419,0.004336,0.004506,0.004563,0.003254,0.002173,0.002114,0.002371,0.003182,0.004510,0.004607,0.004529,0.004532,0.004527,0.004438,0.004246,0.004146,0.004133,0.004070,0.003940,0.003674,0.003420,0.003334,0.003485,0.003619,0.003674,0.003737,0.003648,0.003661,0.003664,0.003689,0.003638,0.003703,0.004131,0.004540,0.004743,0.004688,0.004546,0.004250,0.004104,0.004000,0.003850,0.003870,0.003914,0.003934,0.003931,0.003787,0.003484,0.002710,0.002279,0.002773,0.002690,0.002711,0.003122,0.003427,0.003949,0.004216,0.004063,0.004099,0.003901,0.003831,0.003131,0.002058,0.001868,0.002250,0.002568,0.002312,0.001965,0.001562,0.000294,-0.000091,0.000141,0.000223,0.001183,0.002063,0.002218,0.002137,0.001955,0.001857,0.001747,0.001694,0.001478,0.001342,0.001375,0.001372,0.001424,0.001531,0.001632,0.001707,0.001723,0.001835,0.001884,0.001920,0.001833,0.002200,0.003015,0.003392,0.003570,0.003567,0.003399,0.003152,0.002914,0.002697,0.002684,0.002602,0.002425,0.002199,0.002226,0.002158,0.001809,0.001816,0.001980,0.001060,0.000344,0.000729,0.000426,0.000501,0.000975,0.001340,0.001211,0.000843,0.001047,0.001952,0.002442,0.002568,0.002817,0.002895,0.002421,0.001919,0.001730,0.001477,0.001267,0.001052,0.000710,0.000250,-0.000011,0.000019,0.000365,0.000995,0.001291,0.001328,0.001443,0.001413,0.001308,0.001241,0.001462,0.001554,0.001575,0.001566,0.001458,0.001423,0.001441,0.001405,0.001558,0.001590,0.001296,0.001156,0.001211,0.001137,0.001255,0.002054,0.002698,0.002955,0.002914,0.002719,0.002544,0.002470,0.002433,0.002282,0.002026,0.001841,0.001942,0.002156,0.002076,0.001897,0.001982,0.001345,0.000788,0.000949,0.000875,0.000890,0.001060,0.001283,0.001338,0.001399,0.001858,0.002475,0.002942,0.002987,0.002735,0.002562,0.002660,0.002407,0.002012,0.001782,0.001718,0.001808,0.001742,0.001449,0.001099,0.000948,0.001032,0.001561,0.002050,0.001804,0.001612,0.001665,0.001888,0.001619,0.001539,0.001517,0.001506,0.001414,0.001278,0.001195,0.001103,0.000896,0.000937,0.000880,0.000936,0.001128,0.001256,0.000999,0.000825,0.001390,0.002023,0.002559,0.002752,0.002710,0.002602,0.002482,0.002345,0.002067,0.001860,0.001814,0.001703,0.001550,0.001409,0.001399,0.001469,0.000705,-0.000029,0.000151,0.000345,0.000431,0.000353,0.000344,0.000340,0.000187,0.000615,0.000957,0.001002,0.001157,0.001288,0.001250,0.001321,0.000997,0.000654,0.000445,0.000300,0.000396,0.000658,0.000870,0.000759,0.000384,0.000035,0.000074,0.000663,0.001137,0.001318,0.001306,0.001392,0.001303,0.001321,0.001314,0.001668,0.001862,0.001922,0.001968,0.001941,0.002051,0.002268,0.002210,0.002061,0.001815,0.001635,0.001651,0.001995,0.002744,0.003151,0.003318,0.003130,0.002894,0.002732,0.002582,0.002425,0.002084,0.001806,0.001798,0.001568,0.001295,0.001090,0.001103,0.001327,0.000507,-0.000406,-0.000390,-0.000023,0.000388,0.000475,0.000403,0.000225,0.000170,0.000668,0.001118,0.001020,0.001280,0.001793,0.001972,0.001813,0.001464,0.001220,0.001122,0.001191,0.001328,0.001554,0.001842,0.001996,0.001959,0.001683,0.001129,0.001151,0.001772,0.002040,0.002074,0.002004,0.002066,0.001847,0.002121,0.002242,0.002062,0.002013,0.002095,0.002006,0.001900,0.001908,0.001863,0.001630,0.001172,0.000711,0.000678,0.001204,0.002152,0.002725,0.002931,0.002832,0.002744,0.002684,0.002503,0.002247,0.002036,0.001690,0.001341,0.001136,0.001001,0.000846,0.000762,0.000930,0.000265,-0.000596,-0.000880,-0.000508,0.000094,0.000303,0.000186,-0.000017,0.000048,0.000344,0.000486,0.000540,0.000659,0.001047,0.001582,0.001811,0.001845,0.001681,0.001827,0.002058,0.002001,0.001737,0.001482,0.001356,0.001344,0.001281,0.000748,0.000240,0.000518,0.001221,0.001540,0.001366,0.001252,0.001293,0.001307,0.001230,0.001053,0.001055,0.001037,0.000995,0.001209,0.001494,0.001589,0.001555,0.001357,0.001149,0.001232,0.001769,0.002419,0.002821,0.002942,0.002818,0.002665,0.002506,0.002326,0.002278,0.002320,0.002189,0.001932,0.001723,0.001649,0.001444,0.001180,0.001150,0.000886,0.000385,-0.000206,-0.000103,0.000103,-0.000109,-0.000528,-0.000656,-0.000805,-0.000700,-0.000409,-0.000704,-0.001193,-0.001046,-0.000430,-0.000307,-0.000319,-0.000285,-0.000231,-0.000337,-0.000708,-0.000807,-0.000741,-0.000942,-0.001153,-0.001201,-0.001210,-0.001376,-0.001535,-0.000815,-0.000156,-0.000001,0.000194,0.000995,0.001283,0.000839,0.000203,0.000052,-0.000106,-0.000302,-0.000248,-0.000373,-0.000529,-0.000671,-0.000664,-0.000493,0.000016,0.000701,0.001392,0.002052,0.002407,0.002619,0.002642,0.002484,0.002272,0.002168,0.001996,0.001857,0.001845,0.001651,0.001579,0.001479,0.001238,0.001057,0.001045,0.001002,0.000669,0.000450,0.000236,-0.000330,-0.000919,-0.000941,-0.000973,-0.001071,-0.000735,-0.000919,-0.001406,-0.001583,-0.001591,-0.001972,-0.002314,-0.002258,-0.001977,-0.002023,-0.002181,-0.001807,-0.001222,-0.001156,-0.001128,-0.000950,-0.000866,-0.000798,-0.001416,-0.001879,-0.001373,-0.000448,-0.000354,-0.000600,-0.000433,-0.001531,-0.002480,-0.002172,-0.001615,-0.001425,-0.001587,-0.002200,-0.002314,-0.002197,-0.001957,-0.001980,-0.001906,-0.001677,-0.001362,-0.000720,-0.000053,0.000704,0.001431,0.001905,0.001914,0.001642,0.001357,0.001103,0.000817,0.000642,0.000554,0.000452,0.000350,0.000349,0.000550,0.000788,0.001191,0.000930,0.000620,0.000160,-0.000215,-0.000035,-0.000060,-0.000880,-0.001129,-0.000409,0.000055,-0.000353,-0.000961,-0.001182,-0.001504,-0.002014,-0.001932,-0.001666,-0.001463,-0.001404,-0.001392,-0.001348,-0.001168,-0.000884,-0.001238,-0.001558,-0.001465,-0.002128,-0.002367,-0.001686,-0.000237,-0.000283,-0.001629,-0.002954,-0.003701,-0.003580,-0.003539,-0.003335,-0.002506,-0.002179,-0.001776,-0.001296,-0.001088,-0.001452,-0.001712,-0.001698,-0.001811,-0.001821,-0.001887,-0.001680,-0.000828,0.000327,0.001028,0.001198,0.001231,0.001079,0.000801,0.000619,0.000424,0.000093,-0.000147,0.000021,0.000407,0.000715,0.000961,0.000903,0.000517,0.000216,0.000209,0.000109,-0.000105,-0.000161,-0.000239,0.000038,0.000256,0.000015,-0.000515,-0.000833,-0.001368,-0.001844,-0.001854,-0.002190,-0.002024,-0.001866,-0.001821,-0.001752,-0.001836,-0.001459,-0.001594,-0.002381,-0.002208,-0.001732,-0.002436,-0.002808,-0.002166,-0.001318,-0.002794,-0.004351,-0.003902,-0.003089,-0.002015,-0.001340,-0.001376,-0.001117,-0.001186,-0.001457,-0.000637,-0.000320,-0.001219,-0.001165,-0.000620,-0.000474,-0.000882,-0.001479,-0.002179,-0.002127,-0.001414,-0.001117,-0.000445,-0.000126,-0.000073,-0.000081,-0.000438,-0.000995,-0.001320,-0.001363,-0.000644,-0.000336,-0.000104,-0.000291,-0.000603,-0.000979,-0.001341,-0.001540,-0.002093,-0.002541,-0.002911,-0.003517,-0.003713,-0.003834,-0.003904,-0.003988,-0.003903,-0.003617,-0.003444,-0.003154,-0.003145,-0.003051,-0.002729,-0.002662,-0.002714,-0.002978,-0.002526,-0.002900,-0.002658,-0.001918,-0.002252,-0.003872,-0.004373,-0.004328,-0.004616,-0.005153,-0.004560,-0.004055,-0.003583,-0.003311,-0.003406,-0.003278,-0.002945,-0.002695,-0.002056,-0.002401,-0.002671,-0.002209,-0.002336,-0.002003,-0.001832,-0.001424,-0.001815,-0.003122,-0.003734,-0.003457,-0.002918,-0.002722,-0.002497,-0.002396,-0.002546,-0.002244,-0.001960,-0.002060,-0.002343,-0.002559,-0.002644,-0.003011,-0.003118,-0.003234,-0.003405,-0.003313,-0.003538,-0.003992,-0.004480,-0.004680,-0.004546,-0.004144,-0.003711,-0.003520,-0.003199,-0.002859,-0.002751,-0.002675,-0.002975,-0.003444,-0.003575,-0.003560,-0.003384,-0.003324,-0.002965,-0.003046,-0.003404,-0.004257,-0.004510,-0.004566,-0.005223,-0.005430,-0.005545,-0.005610,-0.005130,-0.004970,-0.004892,-0.004816,-0.004735,-0.004641,-0.004360,-0.003758,-0.003521,-0.003804,-0.004003,-0.003370,-0.002883,-0.003066,-0.003295,-0.003121,-0.003341,-0.004827,-0.005774,-0.005828,-0.004959,-0.004131,-0.004018,-0.003647,-0.003781,-0.003253,-0.002811,-0.002916,-0.003579,-0.003909,-0.004158,-0.004402,-0.004520,-0.004722,-0.004950,-0.004880,-0.004585,-0.004491,-0.004533,-0.004153,-0.004184,-0.004312,-0.004619,-0.004949,-0.005041,-0.005086,-0.004606,-0.004353,-0.004155,-0.003640,-0.003731,-0.004112,-0.004379,-0.004452,-0.004841,-0.005072,-0.005891,-0.006434,-0.006418,-0.006193,-0.006309,-0.006574,-0.006293,-0.006520,-0.006722,-0.006726,-0.006418,-0.005998,-0.005566,-0.005034,-0.004883,-0.004489,-0.004197,-0.003866,-0.003542,-0.003705,-0.004392,-0.004666,-0.004953,-0.004795,-0.005217,-0.006465,-0.006841,-0.007006,-0.006865,-0.006262,-0.005643,-0.004950,-0.005018,-0.004922,-0.004884,-0.004920,-0.005295,-0.005568,-0.005926,-0.005794,-0.005783,-0.005989,-0.006176,-0.006282,-0.006172,-0.005708,-0.004752,-0.004665,-0.004903,-0.005412,-0.006023,-0.006466,-0.006520,-0.006300,-0.005697,-0.005711,-0.006268,-0.005514,-0.005271,-0.005532,-0.005270,-0.005436,-0.005760,-0.005963,-0.006188,-0.006516,-0.006724,-0.007058,-0.006646,-0.006800,-0.007318,-0.007560,-0.008053,-0.008347,-0.008021,-0.007172,-0.005826,-0.004263,-0.003726,-0.004582,-0.005149,-0.004998,-0.005323,-0.005608,-0.005606,-0.005593,-0.005470,-0.005694,-0.006940,-0.008164,-0.007933,-0.007668,-0.007909,-0.008093,-0.007956,-0.007966,-0.008162,-0.008216,-0.007972,-0.007514,-0.007277,-0.007347,-0.007367,-0.007134,-0.007103,-0.007074,-0.006969,-0.007129,-0.007091,-0.006667,-0.006337,-0.006515,-0.006112,-0.006054,-0.006445,-0.007350,-0.008509,-0.008676,-0.008015,-0.006788,-0.006045,-0.006230,-0.006954,-0.007476,-0.007090,-0.006941,-0.007391,-0.007862,-0.007763,-0.007726,-0.007375,-0.006977,-0.007389,-0.007897,-0.007986,-0.007758,-0.007958,-0.008328,-0.008370,-0.008257,-0.008108,-0.007542,-0.007156,-0.007033,-0.007434,-0.007417,-0.008131,-0.008783,-0.008466,-0.007799,-0.007028,-0.007474,-0.008517,-0.009002,-0.008586,-0.008319,-0.008403,-0.008255,-0.008157,-0.007916,-0.007698,-0.007875,-0.008150,-0.008478,-0.008685,-0.009003,-0.009029,-0.009164,-0.009332,-0.009382,-0.009368,-0.009484,-0.009709,-0.009692,-0.009617,-0.009715,-0.009275,-0.008888,-0.008812,-0.009149,-0.009596,-0.009495,-0.009352,-0.008484,-0.007107,-0.007168,-0.007288,-0.007277,-0.007376,-0.007032,-0.006918,-0.007117,-0.007539,-0.007510,-0.007860,-0.008080,-0.008253,-0.007911,-0.007712,-0.007979,-0.008580,-0.008819,-0.008661,-0.008662,-0.008807,-0.008775,-0.008821,-0.008484,-0.007707,-0.007915,-0.008763,-0.008937,-0.009593,-0.009630,-0.009166,-0.008796,-0.008798,-0.008751,-0.008642,-0.008803,-0.009143,-0.008918,-0.008649,-0.008467,-0.008497,-0.008806,-0.008987,-0.009239,-0.009476,-0.009684,-0.010026,-0.010274,-0.010269,-0.010371,-0.010599,-0.010511,-0.010099,-0.009973,-0.010084,-0.009969,-0.010173,-0.010148,-0.010346,-0.010462,-0.010191,-0.010023,-0.009719,-0.009402,-0.008414,-0.007610,-0.007044,-0.006758,-0.007259,-0.007211,-0.007649,-0.007449,-0.006947,-0.007225,-0.007566,-0.008208,-0.008794,-0.007945,-0.007228,-0.007206,-0.007335,-0.007512,-0.008228,-0.009022,-0.008987,-0.008567,-0.008439,-0.008765,-0.009171,-0.009685,-0.009970,-0.009730,-0.009817,-0.010126,-0.010138,-0.009502,-0.009547,-0.009740,-0.009618,-0.009665,-0.010200,-0.010459,-0.010387,-0.010366,-0.010660,-0.011084,-0.011386,-0.011900,-0.011872,-0.011390,-0.011320,-0.010987,-0.011221,-0.011079,-0.010738,-0.010560,-0.010282,-0.010623,-0.010471,-0.010330,-0.010324,-0.010423,-0.010644,-0.010762,-0.010653,-0.010333,-0.010301,-0.010352,-0.009911,-0.008806,-0.008317,-0.008465,-0.008682,-0.008740,-0.009820,-0.009726,-0.008574,-0.008748,-0.009440,-0.009952,-0.010403,-0.010267,-0.009754,-0.009647,-0.009003,-0.009042,-0.008964,-0.009273,-0.009882,-0.010468,-0.010986,-0.011195,-0.011433,-0.011649,-0.011801,-0.011891,-0.012013,-0.012132,-0.011910,-0.011403,-0.011488,-0.011725,-0.011945,-0.012385,-0.012996,-0.013487,-0.013318,-0.013569,-0.012952,-0.011830,-0.012098,-0.013302,-0.013013,-0.012645,-0.012707,-0.012330,-0.012120,-0.011877,-0.011774,-0.011866,-0.012070,-0.012169,-0.011937,-0.011610,-0.012012,-0.012498,-0.012275,-0.012273,-0.011968,-0.011916,-0.012015,-0.011901,-0.011566,-0.011139,-0.010662,-0.010824,-0.010705,-0.010975,-0.011416,-0.011014,-0.010234,-0.010651,-0.011772,-0.012055,-0.011803,-0.011723,-0.011723,-0.011562,-0.011085,-0.010552,-0.010059,-0.010016,-0.009745,-0.009916,-0.010257,-0.010936,-0.011900,-0.012773,-0.013237,-0.013356,-0.013582,-0.013710,-0.013528,-0.013516,-0.013662,-0.013706,-0.013709,-0.013596,-0.013559,-0.013904,-0.014331,-0.013692,-0.012465,-0.011967,-0.011597,-0.011522,-0.012345,-0.013352,-0.014374,-0.014834,-0.014335,-0.013876,-0.013864,-0.013921,-0.013966,-0.013828,-0.014025,-0.014668,-0.015345,-0.015575,-0.015707,-0.015582,-0.015807,-0.016110,-0.015907,-0.015299,-0.015188,-0.014880,-0.015373,-0.015230,-0.014995,-0.014522,-0.013808,-0.013063,-0.013741,-0.014349,-0.014532,-0.014620,-0.014486,-0.014274,-0.014027,-0.013883,-0.013575,-0.013221,-0.013168,-0.013012,-0.012091,-0.011699,-0.011162,-0.010955,-0.011080,-0.011399,-0.011686,-0.011848,-0.011979,-0.012195,-0.012442,-0.012636,-0.012493,-0.012339,-0.012591,-0.012785,-0.012675,-0.013100,-0.012236,-0.011366,-0.011875,-0.012850,-0.012370,-0.011024,-0.011578,-0.012559,-0.012798,-0.013457,-0.013305,-0.013334,-0.013757,-0.013745,-0.013404,-0.013660,-0.014741,-0.015553,-0.016063,-0.016192,-0.015849,-0.015660,-0.015471,-0.014512,-0.013056,-0.011596,-0.010890,-0.010909,-0.012374,-0.014020,-0.014725,-0.014655,-0.013791,-0.014195,-0.014986,-0.014083,-0.013550,-0.014191,-0.014660,-0.014669,-0.014524,-0.014514,-0.014472,-0.014498,-0.014445,-0.014288,-0.014034,-0.013634,-0.012922,-0.012529,-0.012354,-0.012241,-0.012005,-0.011585,-0.010918,-0.010394,-0.010242,-0.010160,-0.010127,-0.010187,-0.010226,-0.010115,-0.010391,-0.010670,-0.010078,-0.010898,-0.011195,-0.011420,-0.011845,-0.010426,-0.010418,-0.010740,-0.010287,-0.010516,-0.010421,-0.010513,-0.010859,-0.010737,-0.010578,-0.011650,-0.012997,-0.013689,-0.014310,-0.014393,-0.013912,-0.013130,-0.011337,-0.009963,-0.009756,-0.010183,-0.010036,-0.009155,-0.008343,-0.009471,-0.010856,-0.012284,-0.012455,-0.012658,-0.012720,-0.011751,-0.011450,-0.012223,-0.013021,-0.013310,-0.013306,-0.013222,-0.013393,-0.013092,-0.012509,-0.012404,-0.012667,-0.012651,-0.012992,-0.012978,-0.012872,-0.012721,-0.012506,-0.012303,-0.012003,-0.011522,-0.010641,-0.009833,-0.009366,-0.009119,-0.008616,-0.008074,-0.008524,-0.008691,-0.009475,-0.009699,-0.009579,-0.009047,-0.009573,-0.009904,-0.009784,-0.009503,-0.008943,-0.008994,-0.008767,-0.008210,-0.008020,-0.007964,-0.008337,-0.009807,-0.011228,-0.012061,-0.012619,-0.012633,-0.012062,-0.010414,-0.009923,-0.010547,-0.010650,-0.010900,-0.010716,-0.009222,-0.007707,-0.006798,-0.007701,-0.009481,-0.009709,-0.010857,-0.011319,-0.010515,-0.009801,-0.010260,-0.011101,-0.011319,-0.011480,-0.011538,-0.011376,-0.010694,-0.010653,-0.010580,-0.010479,-0.010931,-0.011448,-0.011554,-0.011541,-0.011471,-0.011330,-0.011157,-0.011013,-0.010910,-0.010666,-0.009875,-0.009065,-0.008479,-0.007814,-0.007402,-0.007456,-0.007197,-0.007278,-0.007104,-0.007248,-0.007029,-0.006781,-0.007505,-0.007180,-0.006482,-0.005968,-0.006045,-0.005956,-0.005486,-0.005474,-0.005880,-0.006538,-0.007798,-0.009487,-0.010494,-0.010868,-0.010886,-0.009423,-0.008380,-0.008594,-0.008077,-0.007625,-0.006926,-0.006486,-0.007777,-0.007809,-0.006856,-0.006529,-0.007667,-0.008444,-0.010191,-0.010471,-0.010384,-0.010490,-0.009898,-0.009436,-0.009962,-0.010621,-0.010614,-0.010026,-0.009579,-0.010109,-0.009856,-0.009944,-0.010812,-0.011114,-0.010981,-0.010737,-0.010505,-0.010329,-0.010207,-0.010082,-0.009913,-0.009724,-0.009172,-0.008594,-0.008345,-0.007957,-0.007674,-0.006696,-0.006265,-0.006344,-0.006345,-0.006816,-0.006328,-0.005382,-0.005751,-0.005790,-0.005702,-0.006250,-0.005983,-0.005536,-0.005431,-0.005567,-0.005980,-0.006505,-0.007044,-0.007988,-0.009284,-0.009708,-0.009161,-0.008017,-0.008141,-0.007480,-0.006852,-0.006788,-0.007314,-0.006831,-0.007072,-0.008043,-0.007039,-0.005755,-0.006339,-0.007300,-0.009883,-0.010560,-0.010164,-0.009976,-0.009640,-0.009249,-0.009524,-0.009730,-0.009132,-0.008581,-0.008683,-0.008694,-0.008208,-0.009077,-0.009797,-0.009667,-0.009615,-0.009574,-0.009430,-0.009182,-0.008974,-0.008866,-0.008835,-0.008689,-0.007805,-0.006899,-0.006685,-0.006684,-0.006685,-0.005308,-0.004961,-0.004882,-0.005003,-0.005497,-0.005827,-0.005843,-0.006730,-0.007132,-0.006492,-0.005957,-0.006324,-0.006314,-0.005380,-0.004781,-0.004663,-0.004564,-0.004789,-0.005775,-0.007323,-0.008432,-0.007142,-0.006113,-0.006334,-0.005986,-0.005975,-0.006418,-0.006660,-0.006628,-0.006199,-0.006799,-0.006228,-0.004999,-0.004954,-0.006024,-0.007352,-0.008383,-0.008324,-0.007603,-0.007589,-0.007741,-0.007907,-0.007382,-0.006308,-0.006156,-0.006227,-0.006075,-0.006337,-0.006989,-0.007007,-0.006773,-0.006611,-0.006419,-0.006046,-0.005954,-0.005826,-0.005553,-0.004952,-0.004702,-0.004472,-0.003972,-0.004019,-0.003852,-0.003409,-0.002463,-0.003085,-0.003527,-0.003498,-0.003907,-0.004388,-0.004920,-0.005903,-0.006563,-0.006517,-0.005688,-0.005026,-0.003865,-0.002808,-0.002418,-0.002500,-0.002583,-0.002627,-0.004208,-0.005454,-0.005970,-0.004627,-0.004653,-0.004891,-0.004619,-0.004794,-0.005548,-0.005831,-0.004763,-0.003740,-0.004772,-0.004516,-0.002749,-0.001947,-0.003508,-0.004882,-0.005255,-0.005057,-0.004747,-0.004655,-0.004722,-0.004896,-0.004543,-0.003790,-0.003330,-0.003071,-0.003214,-0.003625,-0.003843,-0.004123,-0.004059,-0.003869,-0.003716,-0.003510,-0.003319,-0.002989,-0.002866,-0.002549,-0.002128,-0.002127,-0.001743,-0.001525,-0.001071,-0.000509,-0.000135,-0.000656,-0.001930,-0.002440,-0.002477,-0.002731,-0.003442,-0.003988,-0.002871,-0.001780,-0.001642,-0.001730,-0.001300,-0.000819,-0.000530,-0.000775,-0.001340,-0.001379,-0.001761,-0.002225,-0.002130,-0.001518,-0.002582,-0.002704,-0.002232,-0.001983,-0.001597,-0.001686,-0.001795,-0.001884,-0.003431,-0.002935,-0.000983,-0.000261,-0.001130,-0.001784,-0.001799,-0.001668,-0.001456,-0.001561,-0.001744,-0.001605,-0.001719,-0.001464,-0.001249,-0.001670,-0.001569,-0.001480,-0.001676,-0.001554,-0.001006,-0.000958,-0.000875,-0.000473,-0.000287,-0.000344,-0.000101,0.000451,0.000648,0.000641,0.000839,0.000715,0.000579,0.000714,0.001026,0.000854,-0.000713,-0.001822,-0.001969,-0.002386,-0.002801,-0.002124,-0.000470,0.000899,0.001411,0.001710,0.002134,0.002071,0.001699,0.000987,0.000267,0.000273,0.000450,0.000399,0.000552,0.000814,-0.000114,-0.000321,-0.000450,-0.000691,-0.000506,-0.001136,-0.001395,-0.001644,-0.002400,-0.000997,0.000391,0.000442,-0.000014,-0.000266,-0.000223,-0.000004,0.000294,0.000094,-0.000207,0.000122,0.000514,0.000409,0.000716,0.000877,0.001365,0.001526,0.001435,0.001853,0.001963,0.002060,0.002055,0.002158,0.002384,0.002525,0.002404,0.002258,0.002107,0.002338,0.002581,0.002421,0.002183,0.002225,0.002270,0.002244,0.001424,-0.000202,-0.001683,-0.002533,-0.001743,0.000131,0.001614,0.002521,0.002992,0.003230,0.003514,0.003515,0.003442,0.003294,0.002651,0.002456,0.002154,0.002279,0.002316,0.002686,0.001845,0.000055,-0.000410,0.000125,0.000444,0.000329,-0.000691,-0.001515,-0.001202,0.000083,0.001379,0.001741,0.001569,0.001833,0.002272,0.002534,0.002230,0.002073,0.002398,0.002696,0.003069,0.003117,0.003213,0.003669,0.003431,0.003409,0.003745,0.003475,0.003381,0.003320,0.003161,0.003094,0.003239,0.003303,0.003162,0.003007,0.003038,0.003117,0.003114,0.003089,0.003125,0.003380,0.003369,0.003064,0.002709,0.002426,0.001791,0.001275,0.001597,0.001925,0.002401,0.002833,0.003612,0.003864,0.003858,0.003664,0.003403,0.003057,0.002532,0.002376,0.002650,0.002787,0.002598,0.002582,0.001918,-0.000396,-0.001861,-0.001055,-0.000928,-0.001321,-0.002112,-0.002815,-0.001341,0.000345,0.001549,0.002048,0.002115,0.002552,0.002733,0.003013,0.003002,0.002997,0.003066,0.002933,0.002929,0.003133,0.003003,0.002904,0.002634,0.002850,0.002781,0.002123,0.002261,0.001942,0.001630,0.001537,0.001558,0.001362,0.001157,0.001133,0.001171,0.000820,0.000498,0.000420,0.000206,0.000201,0.000322,-0.000070,-0.000680,-0.000628,-0.000590,-0.000548,-0.000641,-0.000828,-0.000020,0.000977,0.002184,0.002521,0.002297,0.001934,0.001563,0.001326,0.001264,0.001260,0.001213,0.000993,0.000785,0.000637,0.000781,0.000213,-0.002013,-0.003330,-0.004414,-0.004912,-0.004758,-0.003586,-0.001455,-0.000120,0.000554,0.000804,0.001432,0.001604,0.001234,0.001453,0.002161,0.002453,0.001872,0.001421,0.001531,0.001109,0.000826,0.000596,0.000489,0.000279,-0.000327,-0.000652,-0.001087,-0.001097,-0.001234,-0.001526,-0.001367,-0.001254,-0.001433,-0.001707,-0.001628,-0.001584,-0.001570,-0.001401,-0.001629,-0.001702,-0.001688,-0.001579,-0.001439,-0.001476,-0.001707,-0.001670,-0.001694,-0.001763,-0.000807,0.000333,0.001000,0.001042,0.000704,0.000663,0.000791,0.000808,0.000871,0.000816,0.000491,0.000296,0.000507,0.000638,0.000675,0.000955,0.000089,-0.001511,-0.002669,-0.003795,-0.003217,-0.001527,-0.001160,-0.001142,-0.001051,-0.001053,-0.000925,-0.000861,-0.000880,-0.001115,-0.001307,-0.001048,-0.001405,-0.001815,-0.001910,-0.002053,-0.001585,-0.001218,-0.001227,-0.001374,-0.001522,-0.002053,-0.002507,-0.002434,-0.002141,-0.001881,-0.001471,-0.001427,-0.001457,-0.001438,-0.001373,-0.001221,-0.001282,-0.001187,-0.001434,-0.001449,-0.001319,-0.001442,-0.001475,-0.001644,-0.001705,-0.001493,-0.001322,-0.001358,-0.000543,0.000444,0.000441,0.000334,0.000310,0.000567,0.000785,0.000547,0.000187,0.000118,-0.000227,-0.000524,-0.000154,-0.000392,-0.000217,0.000044,-0.000223,-0.000376,-0.000987,-0.001381,-0.001591,-0.002175,-0.002876,-0.003503,-0.003738,-0.003521,-0.003130,-0.002721,-0.002987,-0.003413,-0.003881,-0.003722,-0.003071,-0.003314,-0.003511,-0.003557,-0.002815,-0.002539,-0.003107,-0.002919,-0.002632,-0.003136,-0.003047,-0.003120,-0.003410,-0.003227,-0.002816,-0.002540,-0.002712,-0.002787,-0.002802,-0.002521,-0.002739,-0.003070,-0.003259,-0.003248,-0.003178,-0.003216,-0.002908,-0.002982,-0.003111,-0.003216,-0.003188,-0.002950,-0.002312,-0.002119,-0.002576,-0.002852,-0.002354,-0.001816,-0.001864,-0.002146,-0.002341,-0.002414,-0.002402,-0.002623,-0.002782,-0.002823,-0.002750,-0.002717,-0.002723,-0.002948,-0.002632,-0.002793,-0.002988,-0.003036,-0.003573,-0.003805,-0.003599,-0.003155,-0.002816,-0.002752,-0.003005,-0.002970,-0.003030,-0.002790,-0.002678,-0.002837,-0.002714,-0.003026,-0.002735,-0.002584,-0.003045,-0.002792,-0.002833,-0.002876,-0.002930,-0.002743,-0.002795,-0.002929,-0.002886,-0.002507,-0.002578,-0.002916,-0.003147,-0.003030,-0.003146,-0.003227,-0.003311,-0.003427,-0.003357,-0.003283,-0.003038,-0.003050,-0.003254,-0.003249,-0.002840,-0.002354,-0.002574,-0.002999,-0.003298,-0.003482,-0.002839,-0.002225,-0.002337,-0.002682,-0.002739,-0.002615,-0.002533,-0.002635,-0.003019,-0.003122,-0.003169,-0.003171,-0.002709,-0.002731,-0.002691,-0.002762,-0.002763,-0.002776,-0.003150,-0.003505,-0.003456,-0.003687,-0.003622,-0.003607,-0.003861,-0.003909,-0.003699,-0.002974,-0.002868,-0.003038,-0.003164,-0.003191,-0.003401,-0.002770,-0.002830,-0.002962,-0.002779,-0.002863,-0.002879,-0.002956,-0.003046,-0.003162,-0.003301,-0.003145,-0.003277,-0.003591,-0.003541,-0.003512,-0.003477,-0.003316,-0.003361,-0.003732,-0.003824,-0.003743,-0.003637,-0.003322,-0.003434,-0.003741,-0.003752,-0.003209,-0.002739,-0.002529,-0.003151,-0.003170,-0.002723,-0.002219,-0.002128,-0.002564,-0.002785,-0.002463,-0.002486,-0.002485,-0.002595,-0.003035,-0.003140,-0.002910,-0.002956,-0.003211,-0.003397,-0.003235,-0.003215,-0.003128,-0.003626,-0.003372,-0.003448,-0.003823,-0.003828,-0.003547,-0.003615,-0.003741,-0.003611,-0.003170,-0.003176,-0.003528,-0.004101,-0.003808,-0.003345,-0.003029,-0.003051,-0.003266,-0.003026,-0.002934,-0.003022,-0.003150,-0.003319,-0.003421,-0.003401,-0.003289,-0.003348,-0.003505,-0.003697,-0.003784,-0.003642,-0.003377,-0.003336,-0.003820,-0.004129,-0.004017,-0.003517,-0.003502,-0.003718,-0.003710,-0.003646,-0.003538,-0.003394,-0.003576,-0.003621,-0.003504,-0.003143,-0.002749,-0.002627,-0.002939,-0.003198,-0.002994,-0.003009,-0.002935,-0.002930,-0.003433,-0.003627,-0.003474,-0.003784,-0.003880,-0.003668,-0.003390,-0.002985,-0.003321,-0.003518,-0.003386,-0.003600,-0.004314,-0.004469,-0.004378,-0.004335,-0.004153,-0.003833,-0.003665,-0.003359,-0.003410,-0.003419,-0.003248,-0.003035,-0.002906,-0.002740,-0.002699,-0.002743,-0.003381,-0.003588,-0.003272,-0.003482,-0.003906,-0.003751,-0.003459,-0.003336,-0.003324,-0.003801,-0.003979,-0.003841,-0.003655,-0.003465,-0.003761,-0.004051,-0.004140,-0.004130,-0.003833,-0.003514,-0.003428,-0.003755,-0.004073,-0.003702,-0.004010,-0.003901,-0.004011,-0.003657,-0.003369,-0.003355,-0.003208,-0.003072,-0.003085,-0.003139,-0.003091,-0.003329,-0.003523,-0.003753,-0.003919,-0.004138,-0.004230,-0.004153,-0.004006,-0.003717,-0.003792,-0.004076,-0.003905,-0.004361,-0.004847,-0.005052,-0.005152,-0.005174,-0.004882,-0.004155,-0.003719,-0.003317,-0.003679,-0.004067,-0.004083,-0.004295,-0.003813,-0.003380,-0.003080,-0.003327,-0.004482,-0.004478,-0.004195,-0.004412,-0.004639,-0.004251,-0.004110,-0.003981,-0.003707,-0.003940,-0.004148,-0.004120,-0.004106,-0.003787,-0.003843,-0.003904,-0.003959,-0.004066,-0.003895,-0.003691,-0.003763,-0.003852,-0.003887,-0.003371,-0.003933,-0.004330,-0.004430,-0.004092,-0.003896,-0.003795,-0.003428,-0.003270,-0.003413,-0.003414,-0.003283,-0.003676,-0.003714,-0.003839,-0.003989,-0.004146,-0.004360,-0.004510,-0.004704,-0.004461,-0.004375,-0.003971,-0.003925,-0.003906,-0.004382,-0.005090,-0.004986,-0.004613,-0.004478,-0.004105,-0.003786,-0.003916,-0.004631,-0.004983,-0.004812,-0.004382,-0.004405,-0.004365,-0.004140,-0.004385,-0.004656,-0.004984,-0.005062,-0.005089,-0.004874,-0.004369,-0.004445,-0.004443,-0.004190,-0.004352,-0.004624,-0.004668,-0.004755,-0.004387,-0.004390,-0.004333,-0.004318,-0.004459,-0.004328,-0.004144,-0.004271,-0.004218,-0.004301,-0.004173,-0.004472,-0.004851,-0.004499,-0.004151,-0.004007,-0.003722,-0.003617,-0.004028,-0.004310,-0.004122,-0.003866,-0.004194,-0.004382,-0.004423,-0.004347,-0.004489,-0.004816,-0.005212,-0.005425,-0.005292,-0.004794,-0.004224,-0.004389,-0.004581,-0.005219,-0.005828,-0.005847,-0.005328,-0.005333,-0.005592,-0.005604,-0.005668,-0.005679,-0.005643,-0.005535,-0.005540,-0.005855,-0.005897,-0.006264,-0.006210,-0.006278,-0.006476,-0.006339,-0.006140,-0.006121,-0.006006,-0.006189,-0.006382,-0.006476,-0.006524,-0.006818,-0.006821,-0.006881,-0.006501,-0.006587,-0.006650,-0.006688,-0.006806,-0.006704,-0.006446,-0.006488,-0.006335,-0.006553,-0.008139,-0.006737,-0.006338,-0.009074