-0.010925,,-0.007339,-0.007815,-0.008565,-0.008028,-0.007217,-0.007248,-0.003418,-0.006050,-0.001974,0.000152,-0.006829,-0.007548,-0.007969,-0.007938,-0.007262,-0.007108,-0.006944,-0.006551,-0.006217,-0.006157,-0.006275,-0.006320,-0.006323,-0.006143,-0.005811,-0.005440,-0.005359,-0.005510,-0.005792,-0.005966,-0.006038,-0.005756,-0.005898,-0.006319,-0.006463,-0.006335,-0.006192,-0.005676,-0.000235,-0.000494,0.004172,-0.001535,-0.005133,-0.006161,-0.006978,-0.006644,-0.007582,-0.008238,-0.008451,-0.008110,-0.009016,-0.006393,-0.003307,-0.002436,-0.002661,0.004624,0.002665,0.011261,-0.002163,-0.004855,-0.006174,-0.008022,-0.006397,-0.006985,-0.007101,-0.007065,-0.006303,-0.006357,-0.005617,-0.001913,0.000997,-0.000201,0.004128,0.002760,-0.005582,-0.006295,-0.005874,-0.005653,-0.006119,-0.005524,-0.005187,-0.004827,-0.004338,-0.004001,-0.004012,-0.004216,-0.004429,-0.004487,-0.004191,-0.003917,-0.003798,-0.003823,-0.003958,-0.004114,-0.004013,-0.004367,-0.004824,-0.005045,-0.005015,-0.004027,-0.001618,0.000896,-0.000610,-0.000124,0.001412,0.000192,-0.001856,-0.005083,-0.005027,-0.006378,-0.006262,-0.006542,-0.007182,-0.006815,-0.008361,-0.005419,0.000194,0.001669,0.002968,0.000071,0.002171,0.003363,-0.000098,-0.002432,-0.005976,-0.005708,-0.006342,-0.005896,-0.005717,-0.005878,-0.005336,-0.006363,-0.005192,0.006300,0.006580,-0.000497,-0.001962,0.000436,-0.001532,-0.003674,-0.005470,-0.004963,-0.004049,-0.004084,-0.003671,-0.003236,-0.002792,-0.002295,-0.001916,-0.002137,-0.002395,-0.002667,-0.002635,-0.002266,-0.002089,-0.001914,-0.001957,-0.002148,-0.002214,-0.002624,-0.002849,-0.002928,-0.003304,-0.003034,-0.000728,0.002724,0.004307,0.002452,0.000356,-0.000541,-0.001098,-0.003832,-0.002091,-0.003912,-0.005219,-0.004616,-0.005439,-0.005438,-0.005602,-0.004534,0.001830,0.004084,0.006179,0.005325,0.003774,0.003519,0.002632,-0.001291,-0.005301,-0.003185,-0.004404,-0.005311,-0.004257,-0.004439,-0.004559,-0.004918,-0.003333,0.010678,0.012254,0.006279,-0.003786,-0.002829,0.001762,0.003290,-0.002575,-0.003998,-0.003447,-0.002690,-0.002222,-0.001744,-0.001330,-0.000801,-0.000226,-0.000097,-0.000347,-0.000719,-0.000854,-0.000723,-0.000311,0.000029,0.000117,0.000096,-0.000166,-0.000120,-0.000030,-0.000103,-0.001040,-0.001683,-0.001002,0.000952,0.009156,0.007511,0.006443,0.004113,0.002755,0.001310,0.000879,0.000065,-0.002418,-0.001896,-0.002558,-0.000903,0.001983,-0.000505,0.002797,0.005118,0.004411,0.013504,0.010223,0.009560,0.006140,0.001908,-0.000253,-0.000374,-0.001618,-0.003260,-0.002691,-0.002769,-0.001468,0.002545,-0.000583,0.005161,0.012417,0.007060,0.001166,0.005044,0.004444,0.002455,-0.000641,-0.001825,-0.001459,-0.001215,-0.000671,-0.000264,0.000170,0.000701,0.001172,0.001602,0.001642,0.001266,0.000853,0.000693,0.000763,0.000981,0.001204,0.001359,0.001297,0.001502,0.001425,0.001169,0.000864,0.000864,0.000870,0.001208,0.008373,0.010169,0.009469,0.008398,0.006652,0.007050,0.004410,0.002911,0.000594,-0.000091,-0.000449,0.004144,0.009906,0.003336,0.002345,0.004399,0.007459,0.009072,0.009493,0.008960,0.010978,0.007774,0.006431,0.002426,0.001767,0.000602,0.000388,-0.000112,0.002899,0.015304,0.001190,-0.001125,0.002189,0.002311,0.001554,0.006194,0.005038,0.005797,0.004061,0.001597,0.000826,0.001478,0.001941,0.002260,0.002595,0.002965,0.003225,0.003395,0.003551,0.003352,0.002815,0.002495,0.002107,0.002025,0.002300,0.002571,0.002953,0.003415,0.003281,0.002920,0.002898,0.002910,0.002407,0.001785,0.004782,0.010000,0.008433,0.010130,0.010146,0.009941,0.008725,0.004742,0.002830,0.001863,0.001759,0.005092,0.012320,0.006585,0.004561,0.006569,0.003574,0.006433,0.022130,0.013062,0.012003,0.008357,0.007471,0.007232,0.003753,0.002847,0.002749,0.002459,0.004111,0.016494,0.004576,0.000949,0.002599,0.001471,0.002115,0.011093,0.011482,0.009046,0.004367,0.003469,0.004395,0.004421,0.004797,0.005151,0.005376,0.005686,0.005900,0.006015,0.006043,0.006002,0.005684,0.005123,0.004686,0.004295,0.004360,0.004722,0.005371,0.005970,0.006302,0.006214,0.005759,0.005258,0.005126,0.005207,0.004763,0.010375,0.014079,0.014119,0.015640,0.012555,0.011321,0.008215,0.005284,0.005491,0.005787,0.005795,0.012667,0.012373,0.011662,0.013752,0.018950,0.040706,0.067876,0.036341,0.018440,0.013449,0.008241,0.008065,0.006121,0.004391,0.004896,0.005526,0.004945,0.012272,0.010910,0.006456,0.007661,0.006584,0.010606,0.031560,0.017136,0.012838,0.006655,0.005481,0.006314,0.006882,0.007142,0.007548,0.007832,0.008067,0.008201,0.008275,0.008192,0.007986,0.007822,0.007449,0.006767,0.006165,0.005718,0.005862,0.006460,0.006445,0.006639,0.006921,0.006487,0.006405,0.008193,0.010702,0.008763,0.010750,0.018012,0.011187,0.012931,0.010529,0.010696,0.013483,0.005475,0.006242,0.005127,0.004755,0.007997,0.010819,0.014140,0.015469,0.016438,0.024275,0.043755,0.017505,0.011297,0.008723,0.009089,0.007854,0.011847,0.005376,0.005238,0.005591,0.005558,0.007265,0.010957,0.015366,0.019811,0.007593,0.011289,0.018132,0.007213,0.012418,0.006742,0.007315,0.006689,0.007324,0.007657,0.008976,0.008923,0.009455,0.009400,0.010461,0.008638,0.009764,0.009307,0.008482,0.008547,0.007985,0.007447,0.007781,0.007613,0.007874,0.007381,0.007854,0.008814,0.007616,0.009197,0.011542,0.012769,0.015547,0.016967,0.014967,0.011811,0.012661,0.014648,0.012320,0.008137,0.005751,0.007614,0.010310,0.012513,0.014054,0.016404,0.017193,0.016392,0.017487,0.023534,0.014837,0.017557,0.005697,0.009039,0.013931,0.011585,0.007393,0.005617,0.007667,0.009747,0.012233,0.016535,0.020962,0.024059,0.017329,0.009187,0.008903,0.008356,0.014471,0.008000,0.008108,0.008815,0.009717,0.009100,0.009015,0.009360,0.011347,0.010550,0.011062,0.011554,0.011051,0.010616,0.010591,0.011065,0.010516,0.009329,0.009191,0.009073,0.010567,0.011597,0.010097,0.010918,0.009784,0.009703,0.009226,0.016335,0.019201,0.017849,0.017969,0.018011,0.017272,0.016175,0.012062,0.015467,0.013746,0.016209,0.016581,0.015644,0.019733,0.020369,0.018775,0.016877,0.018306,0.024873,0.029414,0.028029,0.018953,0.014417,0.014871,0.010034,0.013875,0.011770,0.014516,0.015427,0.016008,0.024142,0.025318,0.025934,0.022982,0.007594,0.009703,0.010796,0.013027,0.013168,0.013033,0.018786,0.017865,0.015084,0.011649,0.010791,0.015063,0.013233,0.012109,0.013070,0.013093,0.012689,0.012445,0.011860,0.011716,0.012054,0.012640,0.012363,0.017114,0.017600,0.013905,0.013508,0.013449,0.014032,0.013438,0.015671,0.021661,0.020557,0.022054,0.023763,0.022185,0.021224,0.019609,0.021357,0.018535,0.019661,0.024658,0.026924,0.027368,0.025427,0.025013,0.025150,0.021137,0.028530,0.030754,0.033603,0.056162,0.041399,0.025708,0.018170,0.021629,0.019327,0.017081,0.027662,0.036159,0.034516,0.032833,0.038911,0.033626,0.020561,0.020515,0.020761,0.019755,0.027635,0.031988,0.027149,0.023719,0.022727,0.018989,0.016403,0.021910,0.021879,0.019027,0.016975,0.021656,0.023778,0.024418,0.021609,0.019101,0.017734,0.017912,0.023881,0.023534,0.021965,0.019693,0.015999,0.016334,0.018250,0.019877,0.019048,0.024509,0.025142,0.026420,0.029434,0.026937,0.024734,0.025694,0.024145,0.023681,0.020011,0.025944,0.030378,0.028918,0.030186,0.030907,0.032246,0.030975,0.038079,0.032281,0.038338,0.056943,0.036655,0.022597,0.026546,0.027473,0.030955,0.025965,0.031233,0.046517,0.041684,0.041970,0.046226,0.044263,0.041298,0.048921,0.031199,0.031164,0.033321,0.033629,0.030183,0.029193,0.031971,0.036132,0.033383,0.038055,0.043929,0.039816,0.039167,0.039233,0.040588,0.040145,0.038520,0.037973,0.035707,0.032581,0.033917,0.032530,0.032874,0.032944,0.024758,0.024681,0.031572,0.031187,0.035212,0.037772,0.036036,0.037180,0.041077,0.036150,0.028959,0.028478,0.027154,0.029415,0.027803,0.027532,0.029450,0.025014,0.029995,0.032320,0.030550,0.040736,0.043640,0.037196,0.036632,0.049372,0.042694,0.032516,0.025416,0.030157,0.037061,0.033549,0.030718,0.035891,0.034089,0.039654,0.048480,0.036669,0.044488,0.044621,0.033929,0.037152,0.036385,0.032373,0.035620,0.033673,0.034674,0.041716,0.042128,0.045815,0.048602,0.044271,0.046475,0.045244,0.043198,0.040571,0.040392,0.044090,0.045102,0.042230,0.043761,0.043466,0.037945,0.036312,0.034513,0.036746,0.039513,0.035816,0.043753,0.048010,0.043092,0.036655,0.035701,0.036735,0.036301,0.036209,0.031183,0.038361,0.040270,0.034777,0.035195,0.029000,0.036567,0.037643,0.036152,0.049584,0.042930,0.039505,0.043284,0.039607,0.048088,0.086935,0.072794,0.066235,0.035932,0.041437,0.035016,0.038260,0.033265,0.036162,0.049680,0.043603,0.048412,0.039269,0.034808,0.040018,0.032764,0.033467,0.038548,0.043341,0.041474,0.044530,0.042329,0.044563,0.047763,0.046910,0.048178,0.047078,0.046300,0.043450,0.043554,0.046465,0.046205,0.044492,0.044154,0.045185,0.043602,0.036529,0.035358,0.033934,0.039764,0.038583,0.036211,0.034747,0.035243,0.033698,0.031166,0.033465,0.036289,0.032993,0.027241,0.024907,0.033286,0.031700,0.028927,0.027075,0.027979,0.035798,0.038683,0.035713,0.032528,0.032486,0.036960,0.031946,0.031221,0.035456,0.026609,0.022549,0.027942,0.034744,0.023243,0.026711,0.025628,0.025330,0.034035,0.029017,0.029705,0.026844,0.026145,0.028119,0.023598,0.020227,0.019248,0.021791,0.026184,0.031207,0.030118,0.029375,0.028427,0.026026,0.027046,0.029966,0.030568,0.028828,0.029242,0.030218,0.028169,0.027292,0.027871,0.023883,0.026717,0.026017,0.033329,0.031297,0.034669,0.029685,0.024118,0.023326,0.027106,0.029258,0.023859,0.022907,0.025079,0.020508,0.015408,0.018470,0.019020,0.014495,0.017422,0.025169,0.022460,0.028420,0.028310,0.028156,0.022718,0.020310,0.028262,0.022492,0.018708,0.025883,0.016790,0.002136,0.006405,0.017991,0.009665,0.015296,0.017199,0.019592,0.020958,0.016905,0.020922,0.012608,0.014940,0.017855,0.016746,0.014127,0.008988,0.011589,0.008836,0.014461,0.018774,0.015300,0.014068,0.014572,0.015365,0.015824,0.018418,0.017973,0.018146,0.018615,0.016521,0.015320,0.018027,0.016337,0.020285,0.016855,0.017963,0.020471,0.016749,0.015678,0.015600,0.018317,0.018156,0.023456,0.021094,0.024848,0.021750,0.017290,0.015819,0.014868,0.014172,0.025211,0.027041,0.025897,0.024966,0.024454,0.021558,0.021963,0.018615,0.022302,0.020663,0.018214,0.019270,0.016529,0.021005,0.006085,-0.004017,-0.001934,0.007773,0.020370,0.019546,0.025075,0.021530,0.017876,0.016763,0.010042,0.011780,0.014380,0.009690,0.011139,0.009405,0.011359,0.007944,0.009075,0.012289,0.011706,0.013984,0.015157,0.012808,0.011427,0.013781,0.012750,0.012056,0.014566,0.015303,0.014204,0.018035,0.017628,0.017323,0.014391,0.017075,0.017757,0.016175,0.016790,0.014981,0.011818,0.012894,0.019430,0.016953,0.016031,0.017779,0.016918,0.014913,0.017576,0.013806,0.022169,0.022858,0.026698,0.027324,0.025819,0.021512,0.027430,0.020317,0.014364,0.021118,0.023037,0.017128,0.016619,0.025071,0.010357,0.004124,0.002952,0.017020,0.023071,0.024288,0.025809,0.021338,0.018463,0.023877,0.020474,0.012480,0.015497,0.015257,0.016590,0.012023,0.013938,0.011932,0.012395,0.013286,0.017979,0.022739,0.025869,0.023008,0.020347,0.019538,0.016177,0.013214,0.017634,0.022452,0.017607,0.019762,0.018610,0.018211,0.018459,0.022073,0.018780,0.020851,0.029169,0.025430,0.021744,0.020972,0.024605,0.020999,0.016661,0.017559,0.014159,0.013779,0.024658,0.023255,0.025866,0.022814,0.024239,0.024226,0.026352,0.027154,0.027239,0.025259,0.018005,0.022411,0.021356,0.014830,0.019247,0.022403,0.017117,0.024267,0.032869,0.029271,0.027584,0.030668,0.019332,0.022970,0.026574,0.025083,0.024483,0.017370,0.018406,0.016840,0.013320,0.014333,0.016434,0.018663,0.019740,0.022443,0.022088,0.025975,0.027365,0.023940,0.022935,0.019769,0.015853,0.012427,0.016661,0.022042,0.018613,0.014565,0.018229,0.021033,0.024562,0.025616,0.019157,0.019974,0.027392,0.022427,0.020153,0.017831,0.016968,0.017782,0.015149,0.014808,0.013602,0.019478,0.015250,0.019740,0.026180,0.026009,0.024674,0.023561,0.025128,0.025735,0.021654,0.024733,0.022278,0.019656,0.018587,0.018682,0.023015,0.022167,0.022918,0.024483,0.023805,0.016856,0.015225,0.018274,0.012703,0.021489,0.024465,0.021115,0.018142,0.014704,0.013779,0.014390,0.010142,0.013500,0.014935,0.018058,0.013645,0.009637,0.008582,0.010123,0.016091,0.016458,0.015236,0.014414,0.013889,0.011516,0.013398,0.016246,0.018161,0.016077,0.017818,0.019432,0.018684,0.018207,0.016950,0.015972,0.016039,0.014155,0.014089,0.014029,0.013662,0.014832,0.012978,0.012069,0.014326,0.026375,0.017545,0.021003,0.025019,0.023593,0.023167,0.024843,0.022911,0.021559,0.023368,0.021964,0.019632,0.018818,0.021464,0.020036,0.015399,0.013342,0.021131,0.020065,0.019089,0.020017,0.014910,0.012310,0.012520,0.015838,0.019457,0.020137,0.017354,0.011063,0.010030,0.018212,0.012190,0.009994,0.009713,0.011520,0.009072,0.006178,0.005609,0.005653,0.007854,0.011123,0.011676,0.011298,0.010990,0.010867,0.011414,0.011269,0.012541,0.016617,0.015531,0.016399,0.015366,0.014442,0.015214,0.013918,0.013757,0.014821,0.013431,0.014143,0.012813,0.012714,0.011362,0.007380,0.006168,0.008821,0.019173,0.020687,0.021861,0.018673,0.019088,0.023774,0.018848,0.019403,0.023489,0.021676,0.023868,0.021408,0.021981,0.017909,0.004076,0.001098,0.006241,0.010439,0.011589,0.014955,0.007378,0.003287,0.009117,0.008280,0.012608,0.017476,0.020677,0.019815,0.018883,0.021339,0.010783,0.009508,0.008565,0.010791,0.009639,0.005434,0.003146,0.003778,0.005890,0.007044,0.010334,0.009348,0.008695,0.010011,0.009476,0.009088,0.008631,0.010580,0.014402,0.015948,0.015987,0.014549,0.013324,0.009941,0.010860,0.012260,0.011590,0.011825,0.010659,0.010994,0.012395,0.009471,0.007106,0.002116,0.004215,0.010134,0.018936,0.019907,0.022263,0.022668,0.015959,0.017840,0.019970,0.021011,0.021901,0.021046,0.021977,0.021385,0.007638,0.001373,0.000303,0.003257,0.001849,0.001639,0.002775,0.002675,-0.000712,0.009511,0.006329,0.007587,0.015533,0.014336,0.015510,0.008051,0.007278,0.009170,0.005175,0.006555,0.004495,0.003425,0.001578,0.001048,0.001492,0.001805,0.003803,0.006212,0.005275,0.005665,0.003964,0.011525,0.016884,0.014222,0.016747,0.015439,0.014458,0.013091,0.013264,0.011790,0.013017,0.011213,0.011211,0.009769,0.012238,0.008862,0.006440,0.012279,0.014879,0.013030,0.005536,0.011701,0.016151,0.015877,0.015977,0.018154,0.008873,0.013991,0.017509,0.024536,0.016162,0.020526,0.017947,0.008185,0.019162,0.020637,-0.003722,-0.001444,-0.002986,-0.002180,-0.000079,0.001916,-0.002072,-0.008690,-0.009258,-0.002796,0.013251,0.012670,0.007300,0.011919,0.011123,0.004605,0.003543,0.005527,0.004703,0.002842,0.001958,0.001177,0.000655,0.000196,0.001669,0.001827,0.002536,0.003572,0.002714,0.003264,0.007511,0.018855,0.019534,0.018923,0.016209,0.014348,0.014040,0.014013,0.013369,0.009123,0.007969,0.010996,0.012009,0.008057,0.004257,0.005045,0.005884,-0.004474,0.006590,0.013348,0.015776,0.013109,0.010531,0.016496,0.016747,0.013700,0.010111,0.011370,0.014413,0.021554,0.016181,0.007910,0.009020,0.016461,-0.002066,-0.001766,-0.001059,-0.000405,-0.000452,0.000234,0.000225,-0.001522,-0.003996,-0.000037,0.009224,0.009941,0.008088,0.007693,0.007504,0.009174,0.004852,0.005000,0.004118,0.003928,0.003681,0.002544,0.001538,0.000373,0.001241,0.002224,0.003722,0.003993,0.001055,-0.000198,0.002175,0.008338,0.010197,0.011792,0.010715,0.009555,0.008513,0.006846,0.005248,0.003432,0.004444,0.005690,0.004785,0.003006,0.004073,0.004094,0.002038,-0.007859,-0.002320,0.003353,0.013707,0.013506,0.012216,0.013222,0.011877,0.008156,0.006944,0.011726,0.011979,0.010223,0.007188,0.006642,0.012219,0.014317,-0.006691,-0.005592,-0.004669,-0.003293,-0.002873,-0.002683,-0.002571,-0.003060,-0.006089,-0.003800,-0.004624,-0.003283,0.001770,0.004837,0.002434,0.001430,-0.001367,0.000350,0.000352,0.001509,0.002391,0.003324,0.003218,0.003294,0.001694,-0.001001,-0.000716,0.001314,0.001467,0.002069,0.005534,0.010807,0.009032,0.008185,0.007991,0.008275,0.008431,0.008057,0.007443,0.006696,0.009992,0.010023,0.006553,0.003926,0.004421,0.005603,0.005596,-0.001506,0.012016,0.012242,0.016141,0.014012,0.010862,0.010411,0.009911,0.008566,0.005998,0.009594,0.010244,0.007587,0.006464,0.005323,0.009558,0.013705,-0.005627,-0.003621,-0.002287,0.000743,0.002343,0.001305,-0.000032,0.000124,0.000044,0.004489,-0.001274,-0.003877,0.005089,0.012895,0.006956,0.006049,0.004670,0.003329,0.004000,0.004355,0.004698,0.006817,0.008302,0.006880,0.006794,0.002437,-0.000436,0.000885,0.000975,0.001977,0.005255,0.011378,0.009816,0.010962,0.011654,0.011402,0.010861,0.010557,0.009451,0.009776,0.008430,0.008833,0.007671,0.004150,0.001778,0.002685,0.004575,-0.001678,0.011738,0.010396,0.011372,0.011163,0.009842,0.009968,0.008663,0.005415,0.007644,0.005892,0.004612,0.007073,0.006202,0.002617,0.003931,0.014858,-0.002494,-0.001510,0.001380,0.004175,0.003661,-0.000409,-0.001816,-0.000981,-0.000413,-0.000109,-0.002335,-0.006393,-0.003760,0.007725,0.010921,0.003035,0.004914,0.004095,0.006877,0.010041,0.006529,0.005273,0.006008,0.006077,0.007171,0.005370,0.001872,0.000151,0.001178,0.004315,0.008084,0.011171,0.009645,0.009210,0.008744,0.007879,0.007767,0.008041,0.007958,0.007893,0.007053,0.006744,0.007014,0.005153,0.003154,0.003443,0.006161,0.008960,0.016877,0.017443,0.014229,0.009124,0.007831,0.009811,0.011250,0.008940,0.010072,0.007988,0.006452,0.007387,0.007747,0.005919,0.005107,0.011348,0.002138,-0.001689,-0.001279,0.004682,-0.000029,-0.004457,-0.005706,-0.003399,-0.006740,-0.004694,-0.003748,-0.007935,-0.011932,-0.006288,0.000977,-0.002787,-0.001449,0.002625,0.004197,0.000964,-0.002667,-0.001910,-0.001270,-0.002642,-0.002684,-0.003123,-0.003355,-0.004354,-0.002531,0.000328,0.002965,0.006159,0.011477,0.012429,0.011360,0.008094,0.007323,0.007865,0.007689,0.005288,0.004908,0.003628,0.002148,0.001905,0.002203,0.002727,0.003889,0.006999,0.011874,0.018071,0.020886,0.016850,0.011464,0.010294,0.012433,0.013514,0.010068,0.010293,0.008724,0.004104,0.004430,0.006512,0.005814,0.003338,0.004995,0.005076,0.007174,0.005868,-0.001322,-0.005909,-0.005831,-0.002871,-0.005591,-0.001089,0.000410,-0.003378,-0.009233,-0.012601,-0.010123,-0.006464,-0.004445,-0.003456,-0.000685,-0.004427,-0.009352,-0.005914,-0.002041,-0.004308,-0.003845,-0.004913,-0.004110,-0.006295,-0.007029,-0.005913,-0.003895,-0.002944,-0.001978,0.002962,0.003394,0.004059,0.005432,0.005335,0.003807,0.003107,0.002029,0.001155,-0.000899,-0.001370,-0.000565,0.000297,0.000473,0.002527,0.002200,0.003215,0.006412,0.010333,0.015344,0.017041,0.012106,0.008221,0.005990,0.006584,0.009486,0.006841,0.001303,-0.000282,0.002478,0.003170,0.008046,0.002776,0.007311,0.007429,0.005834,0.001697,0.000651,-0.001059,-0.002588,-0.003976,-0.003792,0.009356,0.015455,-0.006491,-0.012421,-0.009429,-0.003265,-0.003544,-0.005871,-0.006166,-0.008369,-0.006740,-0.006214,-0.006613,-0.004675,-0.004394,-0.003828,-0.003546,-0.005169,-0.006383,-0.005216,-0.001082,-0.002412,-0.005614,-0.007289,-0.004260,0.002203,0.001825,-0.000500,0.001230,-0.000134,-0.000942,-0.000583,-0.001395,-0.003877,-0.003561,-0.000684,0.000675,0.001968,0.002417,0.001915,0.001238,0.001805,0.012480,0.016198,0.009098,0.013261,0.009460,0.007018,0.007482,0.002385,-0.000657,0.003001,0.009302,0.009574,0.009678,0.010059,0.010786,0.007846,0.004417,0.001538,0.002772,-0.001347,0.000786,0.004075,0.003178,0.003033,-0.000369,-0.008115,-0.008992,-0.012053,-0.006573,-0.005271,-0.008775,-0.006120,-0.004885,-0.006485,-0.007302,-0.006392,-0.004157,-0.006815,-0.010386,-0.002489,-0.001320,-0.004203,-0.005140,-0.000067,-0.006491,-0.009618,-0.010539,-0.005822,-0.005013,-0.001582,-0.000338,-0.000388,0.000617,-0.001718,-0.005009,-0.008966,-0.011536,-0.002916,-0.005165,0.004458,0.004796,0.001232,-0.000371,-0.003483,-0.002106,-0.002402,-0.007045,0.003865,0.001969,0.007667,0.009561,-0.002919,-0.008703,-0.008387,0.008327,0.005088,0.005320,0.004178,0.004218,-0.000293,-0.003940,-0.002831,-0.004075,-0.008749,-0.010467,-0.007324,-0.011999,-0.012074,-0.005561,-0.005670,-0.016555,-0.017202,-0.015475,-0.012773,-0.015051,-0.014099,-0.014479,-0.014693,-0.012537,-0.014399,-0.012975,-0.011449,-0.014006,-0.004906,-0.009644,-0.016044,-0.008317,-0.006533,-0.006312,-0.011766,-0.011749,-0.010442,-0.012284,-0.010302,-0.011327,-0.012254,-0.016463,-0.015262,-0.008661,-0.013979,-0.017475,-0.016326,-0.019065,-0.010966,-0.001596,0.002741,-0.001640,-0.008372,-0.010706,-0.012641,-0.011735,-0.010763,-0.012966,-0.015167,-0.015633,-0.011157,0.003017,0.004835,0.000571,-0.005751,-0.005718,-0.006004,-0.006763,-0.006909,-0.011130,-0.010468,-0.010543,-0.012182,-0.011386,-0.010450,-0.009686,-0.010488,-0.013881,-0.014432,-0.013949,-0.014706,-0.012955,-0.014288,-0.013431,-0.015386,-0.015818,-0.016372,-0.015076,-0.015026,-0.015885,-0.015172,-0.012660,-0.011555,-0.015083,-0.019451,-0.012966,-0.011132,-0.011661,-0.011123,-0.012042,-0.013397,-0.016078,-0.017208,-0.019015,-0.018272,-0.019079,-0.024852,-0.014012,-0.019306,-0.017352,-0.016102,-0.014901,-0.014286,-0.012491,-0.011004,-0.011313,-0.015816,-0.021470,-0.024536,-0.023741,-0.016341,-0.017276,-0.019021,-0.015893,-0.013388,0.000572,0.000381,-0.010430,-0.013328,-0.017001,-0.012189,-0.012060,-0.011317,-0.008923,-0.008253,-0.008922,-0.009666,-0.008941,-0.011618,-0.009987,-0.017475,-0.024657,-0.025568,-0.021824,-0.020833,-0.021267,-0.017915,-0.016368,-0.016695,-0.016351,-0.016970,-0.016298,-0.016266,-0.016437,-0.020192,-0.018958,-0.017778,-0.015236,-0.011564,-0.012896,-0.023300,-0.018538,-0.019343,-0.020436,-0.019145,-0.019743,-0.019956,-0.023025,-0.025014,-0.023836,-0.020086,-0.012452,-0.021082,-0.020055,-0.017861,-0.015038,-0.015576,-0.017883,-0.020685,-0.015114,-0.019902,-0.024359,-0.025399,-0.027892,-0.025199,-0.019987,-0.008031,-0.008302,-0.007525,-0.007029,-0.009686,-0.015097,-0.021520,-0.029521,-0.020586,-0.018706,-0.029298,-0.017106,-0.013594,-0.014187,-0.009744,-0.008938,-0.009726,-0.011991,-0.015719,-0.025395,-0.026010,-0.027536,-0.019053,-0.014156,-0.019355,-0.020831,-0.018870,-0.021441,-0.025326,-0.026359,-0.019921,-0.010504,-0.009378,-0.015114,-0.020876,-0.014421,-0.019127,-0.022636,-0.023908,-0.026638,-0.021177,-0.019890,-0.020649,-0.021831,-0.020436,-0.019710,-0.016402,-0.016355,-0.015529,-0.016361,-0.018192,-0.021902,-0.022898,-0.018729,-0.016541,-0.017238,-0.019489,-0.018467,-0.022572,-0.023227,-0.019443,-0.023335,-0.027664,-0.024817,-0.020402,-0.023388,-0.017259,-0.014326,-0.012447,-0.015035,-0.033219,-0.039765,-0.033708,-0.017006,-0.011831,-0.014136,-0.025181,-0.035698,-0.023884,-0.017206,-0.019266,-0.026772,-0.025902,-0.028485,-0.024728,-0.020155,-0.019431,-0.015779,-0.011661,-0.011412,-0.009615,-0.014580,-0.018981,-0.021662,-0.029346,-0.024700,-0.021765,-0.015132,-0.018422,-0.013417,-0.021567,-0.032134,-0.036041,-0.030358,-0.017492,-0.016908,-0.022902,-0.026062,-0.024759,-0.025972,-0.030167,-0.028556,-0.028265,-0.025523,-0.020316,-0.023211,-0.025747,-0.026670,-0.025926,-0.021961,-0.023710,-0.025865,-0.026767,-0.025390,-0.022779,-0.024155,-0.026245,-0.026985,-0.025754,-0.028458,-0.024935,-0.022077,-0.022647,-0.027411,-0.037064,-0.038092,-0.038836,-0.034292,-0.016643,-0.020334,-0.023213,-0.023867,-0.028640,-0.022047,-0.018415,-0.017899,-0.020938,-0.017855,-0.021326,-0.022518,-0.022597,-0.016365,-0.011674,-0.012117,-0.016275,-0.018131,-0.016165,-0.019295,-0.022782,-0.024064,-0.027681,-0.026075,-0.015199,-0.017627,-0.029753,-0.024107,-0.030442,-0.033493,-0.032157,-0.028515,-0.032624,-0.029154,-0.026138,-0.027732,-0.034108,-0.029690,-0.026022,-0.019678,-0.017101,-0.021419,-0.021613,-0.024682,-0.025908,-0.022582,-0.022784,-0.024057,-0.022820,-0.022992,-0.026436,-0.027452,-0.023827,-0.021875,-0.023220,-0.021668,-0.027326,-0.027620,-0.033230,-0.036147,-0.037616,-0.040955,-0.040977,-0.043986,-0.031261,-0.023815,-0.019476,-0.015549,-0.022319,-0.018870,-0.025382,-0.024249,-0.017430,-0.019769,-0.020755,-0.024905,-0.036916,-0.022183,-0.014786,-0.010625,-0.009964,-0.008220,-0.012091,-0.027053,-0.025619,-0.022068,-0.017469,-0.018000,-0.022424,-0.030049,-0.037404,-0.034755,-0.030925,-0.031596,-0.034620,-0.021810,-0.020286,-0.023907,-0.023781,-0.020446,-0.021999,-0.020818,-0.018880,-0.018393,-0.020646,-0.022609,-0.020490,-0.023297,-0.025232,-0.022021,-0.022488,-0.018333,-0.025774,-0.026524,-0.023383,-0.026194,-0.023957,-0.029330,-0.028021,-0.029817,-0.033366,-0.037456,-0.043811,-0.047058,-0.048843,-0.043265,-0.047136,-0.049746,-0.043654,-0.022376,-0.018878,-0.019187,-0.022733,-0.020757,-0.038742,-0.040627,-0.019944,-0.022614,-0.030764,-0.033375,-0.037602,-0.035971,-0.026008,-0.024889,-0.011215,-0.012377,-0.008456,-0.011290,-0.015488,-0.023927,-0.029502,-0.025932,-0.029694,-0.034859,-0.035723,-0.036737,-0.036373,-0.034623,-0.031530,-0.020140,-0.021385,-0.024475,-0.023607,-0.023133,-0.023098,-0.025957,-0.022372,-0.029346,-0.032942,-0.025795,-0.023724,-0.027713,-0.025613,-0.026530,-0.033379,-0.031605,-0.029832,-0.026626,-0.026699,-0.030190,-0.037458,-0.041608,-0.044308,-0.033595,-0.032101,-0.042319,-0.041521,-0.051437,-0.040918,-0.043216,-0.041606,-0.039019,-0.033659,-0.029671,-0.023022,-0.027525,-0.025036,-0.024983,-0.030319,-0.025231,-0.019922,-0.022997,-0.031714,-0.035666,-0.033293,-0.034276,-0.034997,-0.033441,-0.028179,-0.021460,-0.015816,-0.015623,-0.013905,-0.014835,-0.014390,-0.016241,-0.024115,-0.033740,-0.036797,-0.033723,-0.034394,-0.035911,-0.033531,-0.032802,-0.035486,-0.033254,-0.029832,-0.025570,-0.022326,-0.023850,-0.035648,-0.041395,-0.039421,-0.045749,-0.045491,-0.030537,-0.029535,-0.032930,-0.044327,-0.055260,-0.044908,-0.037120,-0.040110,-0.043406,-0.048654,-0.044439,-0.039032,-0.030601,-0.016945,-0.021997,-0.020610,-0.028107,-0.033607,-0.036605,-0.036466,-0.030397,-0.027997,-0.024714,-0.027322,-0.026685,-0.026748,-0.025342,-0.023948,-0.019747,-0.024006,-0.026943,-0.027658,-0.028861,-0.029785,-0.029880,-0.028627,-0.029627,-0.028604,-0.028599,-0.028293,-0.029860,-0.023985,-0.023344,-0.019050,-0.020297,-0.021972,-0.025760,-0.032430,-0.036744,-0.036482,-0.036242,-0.036052,-0.041683,-0.042725,-0.036705,-0.033629,-0.030693,-0.023567,-0.028846,-0.024436,-0.023662,-0.023596,-0.032139,-0.038223,-0.023474,-0.029767,-0.044164,-0.035044,-0.046885,-0.038286,-0.036626,-0.045423,-0.046160,-0.034773,-0.030140,-0.024342,-0.024305,-0.032203,-0.032754,-0.017483,-0.015908,-0.038475,-0.055217,-0.072712,-0.051861,-0.042098,-0.029520,-0.026823,-0.026082,-0.024110,-0.024893,-0.020530,-0.022515,-0.027093,-0.023269,-0.020301,-0.024000,-0.025703,-0.024582,-0.020705,-0.012819,-0.013032,-0.024161,-0.025908,-0.028254,-0.025722,-0.024255,-0.022874,-0.023602,-0.023140,-0.024904,-0.028408,-0.032153,-0.031690,-0.031609,-0.034763,-0.036489,-0.034819,-0.031480,-0.027691,-0.021396,-0.017459,-0.026511,-0.022893,-0.024003,-0.023794,-0.023799,-0.029210,-0.021189,-0.026880,-0.035084,-0.024682,-0.026284,-0.023997,-0.022816,-0.027763,-0.026707,-0.022773,-0.020730,-0.019837,-0.025736,-0.025730,-0.027034,-0.027169,-0.026883,-0.041343,-0.032705,-0.031067,-0.051226,-0.061336,-0.044235,-0.022616,-0.021385,-0.020200,-0.023079,-0.020829,-0.021288,-0.022789,-0.018308,-0.016411,-0.018666,-0.009152,-0.017259,-0.022365,-0.020999,-0.018029,-0.001807,-0.004053,-0.016956,-0.019967,-0.018687,-0.020240,-0.020806,-0.020254,-0.020039,-0.020810,-0.022081,-0.023046,-0.025817,-0.024676,-0.025194,-0.027447,-0.031398,-0.026663,-0.020381,-0.018986,-0.022563,-0.024123,-0.021986,-0.022739,-0.022436,-0.027480,-0.029581,-0.030928,-0.029670,-0.021855,-0.028988,-0.032720,-0.022578,-0.020774,-0.021324,-0.020848,-0.018362,-0.022572,-0.021354,-0.022083,-0.021701,-0.031575,-0.027568,-0.023692,-0.024180,-0.023226,-0.021270,-0.018142,-0.007672,-0.010283,-0.014808,-0.019085,-0.022440,-0.016975,-0.020072,-0.021953,-0.018888,-0.015566,-0.011430,-0.018786,-0.020045,-0.020090,-0.019923,-0.019439,-0.012614,-0.000200,0.003335,-0.014954,-0.015480,-0.018103,-0.018767,-0.018535,-0.018254,-0.018491,-0.019396,-0.019637,-0.020079,-0.020447,-0.018626,-0.016189,-0.018470,-0.020572,-0.021561,-0.024618,-0.022589,-0.022168,-0.019823,-0.019716,-0.019115,-0.021295,-0.023076,-0.022211,-0.020142,-0.011107,-0.014954,-0.017394,-0.016216,-0.014910,-0.019110,-0.019734,-0.017764,-0.019576,-0.019434,-0.019297,-0.022530,-0.021778,-0.021960,-0.019495,-0.016628,-0.016740,-0.016444,-0.007083,0.000172,-0.006812,-0.017774,-0.018480,-0.021751,-0.016999,-0.021422,-0.020773,-0.020429,-0.018399,-0.017848,-0.016471,-0.015869,-0.018684,-0.012906,-0.016777,-0.016147,-0.015018,0.007109,-0.012987,-0.018229,-0.022911,-0.020437,-0.019871,-0.020225,-0.020319,-0.020109,-0.020184,-0.020841,-0.020926,-0.019017,-0.016518,-0.016809,-0.015719,-0.015972,-0.021705,-0.022494,-0.025437,-0.023702,-0.025481,-0.024940,-0.020798,-0.018503,-0.018117,-0.016043,-0.014236,-0.014679,-0.012766,-0.017499,-0.016731,-0.017005,-0.018828,-0.020399,-0.018139,-0.019506,-0.019930,-0.018688,-0.015115,-0.022781,-0.017597,-0.018718,-0.016037,-0.021055,-0.018703,-0.015014,-0.026505,-0.025755,-0.020350,-0.020370,-0.016724,-0.022997,-0.023345,-0.021764,-0.019588,-0.021042,-0.017348,-0.018189,-0.022444,-0.019703,-0.014857,-0.017928,-0.018700,0.005663,0.004688,-0.021807,-0.021770,-0.021407,-0.020870,-0.020574,-0.019911,-0.019602,-0.020224,-0.020553,-0.021015,-0.018215,-0.015438,-0.015558,-0.014556,-0.009838,-0.016826,-0.013915,-0.014860,-0.020509,-0.021992,-0.026178,-0.022671,-0.023984,-0.025342,-0.022074,-0.016890,-0.016632,-0.022432,-0.019926,-0.016269,-0.017133,-0.009112,-0.019106,-0.016888,-0.017076,-0.022958,-0.019504,-0.017094,-0.020153,-0.024260,-0.021542,-0.022964,-0.027160,-0.030117,-0.018644,-0.033894,-0.035370,-0.021568,-0.018517,-0.019327,-0.019704,-0.020669,-0.017251,-0.017203,-0.018863,-0.017725,-0.021173,-0.020548,-0.016470,-0.015795,-0.015706,-0.016063,-0.013480,0.006032,-0.018665,-0.019577,-0.020116,-0.021688,-0.017930,-0.018978,-0.020384,-0.019744,-0.015975,-0.013970,-0.014780,-0.012443,-0.011602,-0.008550,-0.003989,-0.014335,-0.012855,-0.012606,-0.014145,-0.015315,-0.017011,-0.017728,-0.018584,-0.019397,-0.020068,-0.015342,-0.013650,-0.027509,-0.028063,-0.023814,-0.022552,-0.001690,-0.017175,-0.016191,-0.014545,-0.013718,-0.014992,-0.016743,-0.021871,-0.023292,-0.020250,-0.022012,-0.028990,-0.018202,-0.000150,-0.020617,-0.035210,-0.015625,-0.011823,-0.016057,-0.017460,-0.016106,-0.010640,-0.015484,-0.015721,-0.015717,-0.018309,-0.018416,-0.014884,-0.011441,-0.011336,-0.013563,-0.013462,0.002834,-0.018154,-0.020196,-0.017788,-0.017708,-0.016633,-0.017056,-0.016328,-0.016619,-0.014422,-0.009688,-0.011736,-0.009257,-0.007062,-0.002886,-0.004863,-0.011926,-0.012732,-0.011634,-0.013175,-0.015974,-0.016022,-0.013642,-0.006591,-0.012394,-0.014096,-0.014460,-0.021755,-0.016278,-0.009556,-0.004577,0.002918,-0.004457,-0.013822,-0.013393,-0.007547,-0.004541,-0.013652,-0.015336,-0.013124,-0.007277,-0.012590,-0.013387,-0.012269,-0.004532,-0.007913,-0.010824,-0.006779,-0.012648,-0.008160,-0.011672,-0.012070,-0.008227,-0.003275,-0.009236,-0.008609,-0.009353,-0.007727,-0.010805,-0.009601,-0.008651,-0.012669,-0.012261,-0.007135,0.008228,-0.011485,-0.008722,-0.009038,-0.009143,-0.005375,-0.005097,-0.005204,-0.005299,-0.003363,-0.002044,-0.002002,-0.002667,-0.001309,0.001356,0.000042,-0.008676,-0.011579,-0.009928,-0.010394,-0.011679,-0.011024,-0.007562,0.001517,0.004179,0.004410,0.000649,0.000183,0.003746,0.002549,0.002099,0.011927,0.011635,-0.001942,-0.005303,0.001140,0.000438,-0.011061,-0.008254,-0.003128,0.014192,0.016729,0.015671,0.011936,0.007133,-0.000036,0.008550,0.000849,-0.003290,-0.003064,-0.004390,-0.004743,0.005835,0.007996,-0.003628,-0.002902,-0.004734,-0.003610,-0.001690,-0.005294,-0.003529,-0.003503,-0.001858,0.010638,0.005441,0.001846,0.002434,0.003822,0.004976,0.006528,0.005899,0.004343,0.005821,0.006549,0.005859,0.006153,0.006062,0.007610,0.008955,0.008036,0.008941,-0.002482,-0.002976,-0.002016,-0.000209,0.005272,0.016391,0.019438,0.017133,0.023602,0.021496,0.019772,0.023338,0.023941,0.022446,0.021197,0.020985,0.021880,0.005280,0.003003,0.003832,-0.006983,-0.004646,0.013865,0.011829,0.016738,0.022236,0.009795,0.005915,0.013769,0.026721,0.023442,0.007240,0.009770,0.007707,0.016595,0.015347,0.021981,0.005106,0.005843,0.011686,0.011655,0.009453,0.011618,0.010186,0.007921,0.010595,0.023206,0.014190,0.013000,0.014449,0.016544,0.017186,0.015628,0.012434,0.014052,0.016784,0.019471,0.019385,0.019869,0.021678,0.021007,0.023155,0.022726,0.024277,0.024487,0.014607,0.015692,0.017905,0.022529,0.019889,0.025605,0.023274,0.025140,0.024955,0.024980,0.026120,0.025451,0.024441,0.025647,0.025427,0.033083,0.030058,0.011399,0.009652,0.001917,0.007559,0.003791,0.023546,0.015757,0.015012,0.011002,0.009813,0.017188,0.025033,0.026070,0.026396,0.029167,0.031713,0.025905,0.022930,0.024759,0.010329,0.005183,0.006805,0.009117,0.007257,0.005706,0.005904,0.005813,0.009540,0.028482,0.017511,0.014048,0.023027,0.025429,0.021818,0.023010,0.022583,0.022392,0.022521,0.021470,0.019876,0.020805,0.019823,0.022424,0.019690,0.017857,0.018470,0.013689,0.009218,0.007779,0.005311,0.002906,0.002122,0.013354,0.009113,0.010318,0.009898,0.008364,0.008735,0.006907,0.006550,0.007435,0.007924,0.003664,0.003368,0.005955,0.006831,0.006172,-0.005775,-0.008462,0.016962,0.009353,0.007785,0.008003,0.011164,0.023155,0.019731,0.019339,0.014977,0.015302,0.017511,0.011457,0.012308,0.015373,0.018542,0.002818,-0.000612,-0.002633,-0.002281,-0.003402,-0.003711,-0.003108,0.023480,0.014634,0.026205,0.018839,0.015065,0.021620,0.018772,0.012670,0.010938,0.012365,0.014428,0.009675,0.007378,0.006050,0.004792,0.005130,0.001761,-0.003743,-0.003633,-0.004138,-0.004998,-0.007344,-0.008749,-0.008046,-0.006039,0.004236,0.004877,0.004361,0.005019,0.004460,0.003124,0.001740,0.000472,0.000255,-0.000573,0.000685,0.000904,-0.000636,0.000087,0.001412,-0.000260,-0.004903,0.007318,0.009834,0.009054,0.015784,0.019379,0.014322,0.006203,0.000379,0.003631,0.006020,0.011649,0.012018,0.012620,0.011062,0.007919,0.011552,-0.004812,-0.010063,-0.009651,-0.010378,-0.003068,0.015847,-0.002683,-0.001979,-0.001216,-0.002998,-0.003869,-0.004453,-0.004193,-0.004199,-0.002136,-0.002945,-0.002805,-0.002483,-0.003408,-0.000819,-0.000347,0.000009,-0.002433,-0.003471,-0.006002,-0.007547,-0.006480,-0.008600,-0.009655,-0.006660,-0.005039,0.002821,0.003995,0.004690,0.004309,0.002244,0.002410,0.001153,0.000264,-0.001173,-0.004271,-0.003734,-0.005212,-0.008964,-0.002806,-0.005749,-0.003876,0.000666,0.011593,0.012261,0.011715,0.009314,0.012426,0.009624,0.006508,0.001022,-0.003052,-0.004005,-0.004002,0.002786,0.000815,0.000282,-0.003674,-0.006507,0.003537,-0.004473,-0.008836,-0.011701,-0.007401,-0.006354,-0.011670,-0.011938,-0.008171,-0.012089,-0.009592,-0.010429,-0.013676,-0.013478,-0.010918,-0.007544,-0.010233,-0.010701,-0.011792,-0.007002,-0.008096,-0.012096,-0.012593,-0.010879,-0.012662,-0.014221,-0.011077,-0.013525,-0.014707,-0.015371,-0.014649,-0.014115,-0.008303,-0.007228,-0.010635,-0.015379,-0.011345,-0.008112,-0.009164,-0.010245,-0.011405,-0.010603,-0.009489,-0.010654,-0.011215,-0.011045,-0.009436,-0.007926,-0.005782,-0.008179,-0.006475,-0.005454,-0.005206,-0.004408,-0.009313,-0.012468,-0.012718,-0.009689,-0.007886,-0.006861,-0.009024,-0.007579,-0.009171,-0.006848,-0.006933,-0.008124,-0.006374,-0.011363,-0.008466,-0.007354,-0.012067,-0.009147,-0.008691,-0.008450,-0.009512,-0.008192,-0.007495,-0.008209,-0.007954,-0.004839,-0.005939,-0.006712,-0.009819,-0.006886,-0.007393,-0.009431,-0.008233,-0.008993,-0.008837,-0.009396,-0.006629,-0.006942,-0.009318,-0.010672,-0.007580,-0.005901,-0.007007,-0.009560,-0.010367,-0.012958,-0.008364,-0.005172,-0.006449,-0.007460,-0.007435,-0.006100,-0.005591,-0.006047,-0.008096,-0.007100,-0.005475,-0.005921,-0.004842,-0.006065,-0.006536,-0.005330,-0.003707,-0.003135,-0.005598,-0.009856,-0.007575,-0.009162,-0.008241,-0.008476,-0.011410,-0.011721,-0.011045,-0.003608,-0.003367,-0.003734,-0.005159,-0.005488,-0.009878,-0.004889,-0.005876,-0.006199,-0.005765,-0.006352,-0.006318,-0.007729,-0.008061,-0.007964,-0.007598,-0.006406,-0.006630,-0.009416,-0.007972,-0.008561,-0.005954,-0.005322,-0.005528,-0.007053,-0.008481,-0.008091,-0.008683,-0.006233,-0.007696,-0.011562,-0.012623,-0.008548,-0.007232,-0.004999,-0.010926,-0.011026,-0.007119,-0.004401,-0.005022,-0.007429,-0.008752,-0.005816,-0.005310,-0.005634,-0.006015,-0.008088,-0.007045,-0.005282,-0.004659,-0.007757,-0.008458,-0.004501,-0.003991,-0.002665,-0.009101,-0.005890,-0.004619,-0.007517,-0.007466,-0.005149,-0.007180,-0.008327,-0.006623,-0.003013,-0.003687,-0.004954,-0.009833,-0.008556,-0.005675,-0.005635,-0.003659,-0.006573,-0.005871,-0.005113,-0.004241,-0.005226,-0.007046,-0.007636,-0.006471,-0.006326,-0.006851,-0.009127,-0.008930,-0.007904,-0.005986,-0.004513,-0.004482,-0.006672,-0.008497,-0.008371,-0.004736,-0.005931,-0.009305,-0.009720,-0.008762,-0.007126,-0.006469,-0.009370,-0.010533,-0.010069,-0.006776,-0.004136,-0.004843,-0.007259,-0.008743,-0.005069,-0.005765,-0.006121,-0.004726,-0.006660,-0.007687,-0.006469,-0.009543,-0.010194,-0.007755,-0.004937,-0.001222,-0.004015,-0.006858,-0.005768,-0.004888,-0.009612,-0.009297,-0.008352,-0.010562,-0.010094,-0.006289,-0.006748,-0.005816,-0.005995,-0.005884,-0.003953,-0.003956,-0.003628,-0.001669,-0.002674,-0.004532,-0.007505,-0.008378,-0.005985,-0.006631,-0.008992,-0.007180,-0.004849,-0.004523,-0.004029,-0.007128,-0.007114,-0.005209,-0.003943,-0.002286,-0.003959,-0.006790,-0.006675,-0.006285,-0.005743,-0.006141,-0.005768,-0.007445,-0.011394,-0.006147,-0.011912,-0.010262,-0.012526,-0.009013,-0.005706,-0.006913,-0.006302,-0.005704,-0.005568,-0.005174,-0.003466,-0.004234,-0.005431,-0.007963,-0.007920,-0.011030,-0.010891,-0.011579,-0.009506,-0.005961,-0.005023,-0.005796,-0.003218,-0.005442,-0.007898,-0.008502,-0.010024,-0.011499,-0.011289,-0.006165,-0.005223,-0.004310,-0.006113,-0.008149,-0.006134,-0.009354,-0.006213,-0.003033,-0.003112,-0.004482,-0.012903,-0.011373,-0.009027,-0.010321,-0.011235,-0.006773,-0.005064,-0.006588,-0.006193,-0.007886,-0.009562,-0.006328,-0.006738,-0.003559,-0.004016,-0.007704,-0.007085,-0.007616,-0.007295,-0.006655,-0.006646,-0.007293,-0.010142,-0.003648,-0.008357,-0.012025,-0.014121,-0.011318,-0.008101,-0.007942,-0.005225,-0.004083,-0.005322,-0.005060,-0.002830,-0.005909,-0.005330,-0.007052,-0.007136,-0.010088,-0.012336,-0.013526,-0.014047,-0.009988,-0.008670,-0.003560,-0.003307,-0.002949,-0.004031,-0.008673,-0.009915,-0.007602,-0.007769,-0.005090,-0.003937,-0.005451,-0.009850,-0.012384,-0.010445,-0.006931,-0.005741,-0.005191,-0.002562,-0.005313,-0.008147,-0.009209,-0.008755,-0.010185,-0.008887,-0.004367,-0.004848,-0.007783,-0.007138,-0.007866,-0.007826,-0.006810,-0.009433,-0.005588,-0.006019,-0.006826,-0.008314,-0.010537,-0.009723,-0.007145,-0.007653,-0.007487,-0.009445,-0.006819,-0.009164,-0.015446,-0.012100,-0.009730,-0.007031,-0.004692,-0.004383,-0.005445,-0.007603,-0.006051,-0.003295,-0.005934,-0.006585,-0.008251,-0.007066,-0.010414,-0.014237,-0.015120,-0.014295,-0.011988,-0.007337,-0.002748,-0.004016,-0.004481,-0.006104,-0.009088,-0.011478,-0.007798,-0.007098,-0.007114,-0.006561,-0.008187,-0.009718,-0.009587,-0.008371,-0.006565,-0.007110,-0.006182,-0.009139,-0.009655,-0.010937,-0.012094,-0.009676,-0.009389,-0.011025,-0.008894,-0.010250,-0.011145,-0.012639,-0.012247,-0.014924,-0.015005,-0.019215,-0.015591,-0.016199,-0.017116,-0.018013,-0.019331,-0.017703,-0.013553,-0.014994,-0.013820,-0.014368,-0.014728,-0.014749,-0.009734,-0.022601,-0.020615,-0.019713,-0.019789,-0.019602,-0.019396,-0.019821,-0.018721,-0.018561,-0.017562,-0.016394,-0.017927,-0.017075,-0.018505