-0.005211,,-0.005249,-0.005287,-0.005326,-0.001602,-0.001579,-0.001572,-0.001560,-0.001538,-0.001531,-0.001529,-0.001509,-0.001526,-0.001524,-0.001547,-0.001576,-0.001563,-0.001560,-0.001541,-0.001525,-0.001519,-0.001494,-0.001456,-0.001420,-0.001414,-0.001440,-0.001460,-0.001468,-0.001456,-0.001413,-0.001392,-0.001369,-0.001350,-0.001336,-0.001320,-0.001310,-0.001298,-0.001287,-0.001279,-0.001270,-0.001269,-0.001266,-0.001260,-0.001255,-0.001254,-0.001249,-0.001243,-0.001238,-0.001233,-0.001229,-0.001221,-0.001215,-0.001203,-0.001196,-0.001192,-0.001190,-0.001182,-0.001175,-0.001168,-0.001164,-0.001159,-0.001195,-0.001227,-0.001292,-0.001323,-0.001325,-0.001317,-0.001304,-0.001298,-0.001284,-0.001271,-0.001255,-0.001241,-0.001226,-0.001214,-0.001221,-0.001239,-0.001259,-0.001290,-0.001310,-0.001292,-0.001277,-0.001279,-0.001263,-0.001227,-0.001197,-0.001158,-0.001107,-0.001072,-0.001073,-0.001097,-0.001126,-0.001142,-0.001102,-0.001081,-0.001059,-0.001043,-0.001023,-0.001007,-0.000995,-0.000982,-0.000976,-0.000973,-0.000967,-0.000960,-0.000955,-0.000952,-0.000949,-0.000945,-0.000940,-0.000936,-0.000934,-0.000929,-0.000920,-0.000910,-0.000902,-0.000895,-0.000894,-0.000884,-0.000876,-0.000867,-0.000858,-0.000858,-0.000877,-0.000916,-0.000941,-0.000969,-0.001009,-0.001042,-0.001065,-0.001054,-0.001046,-0.001027,-0.001010,-0.000997,-0.000987,-0.000983,-0.000951,-0.000931,-0.000962,-0.000991,-0.000997,-0.000995,-0.001005,-0.001015,-0.001002,-0.000975,-0.000939,-0.000911,-0.000881,-0.000836,-0.000784,-0.000738,-0.000705,-0.000739,-0.000767,-0.000792,-0.000794,-0.000758,-0.000739,-0.000723,-0.000705,-0.000690,-0.000675,-0.000665,-0.000657,-0.000650,-0.000647,-0.000647,-0.000640,-0.000637,-0.000636,-0.000633,-0.000629,-0.000627,-0.000622,-0.000609,-0.000579,-0.000552,-0.000531,-0.000520,-0.000515,-0.000498,-0.000489,-0.000484,-0.000473,-0.000467,-0.000479,-0.000515,-0.000565,-0.000605,-0.000629,-0.000644,-0.000662,-0.000650,-0.000654,-0.000649,-0.000624,-0.000610,-0.000599,-0.000588,-0.000568,-0.000551,-0.000592,-0.000633,-0.000651,-0.000625,-0.000606,-0.000617,-0.000630,-0.000616,-0.000588,-0.000547,-0.000500,-0.000451,-0.000409,-0.000366,-0.000320,-0.000317,-0.000345,-0.000371,-0.000393,-0.000389,-0.000343,-0.000315,-0.000302,-0.000284,-0.000263,-0.000253,-0.000242,-0.000218,-0.000200,-0.000189,-0.000167,-0.000148,-0.000132,-0.000114,-0.000094,-0.000075,-0.000053,-0.000021,0.000013,0.000045,0.000075,0.000093,0.000109,0.000135,0.000146,0.000152,0.000162,0.000179,0.000198,0.000210,0.000163,0.000118,0.000076,0.000044,0.000027,0.000016,0.000012,0.000009,0.000031,0.000045,0.000061,0.000070,0.000050,0.000059,0.000040,0.000004,-0.000013,-0.000011,-0.000024,-0.000031,-0.000034,-0.000024,-0.000011,0.000017,0.000059,0.000097,0.000137,0.000181,0.000222,0.000268,0.000277,0.000241,0.000208,0.000185,0.000184,0.000196,0.000209,0.000230,0.000266,0.000293,0.000318,0.000357,0.000391,0.000421,0.000449,0.000476,0.000501,0.000528,0.000558,0.000587,0.000617,0.000649,0.000680,0.000711,0.000746,0.000779,0.000811,0.000852,0.000881,0.000913,0.000948,0.000979,0.001014,0.001052,0.001038,0.001008,0.000977,0.000947,0.000929,0.000911,0.000914,0.000923,0.000936,0.000954,0.000976,0.000981,0.000945,0.000957,0.000980,0.000973,0.000960,0.000964,0.000948,0.000942,0.000933,0.000932,0.000946,0.000969,0.000990,0.001009,0.001041,0.001086,0.001109,0.001144,0.001185,0.001173,0.001142,0.001117,0.001077,0.001076,0.001102,0.001130,0.001173,0.001212,0.001247,0.001284,0.001317,0.001349,0.001379,0.001409,0.001436,0.001463,0.001493,0.001524,0.001553,0.001583,0.001615,0.001647,0.001681,0.001714,0.001745,0.001783,0.001816,0.001854,0.001897,0.001930,0.001960,0.001993,0.002007,0.001992,0.001988,0.001973,0.001966,0.001959,0.001950,0.001965,0.001991,0.002033,0.002068,0.002082,0.002055,0.002062,0.002091,0.002094,0.002102,0.002109,0.002087,0.002065,0.002045,0.002050,0.002083,0.002101,0.002127,0.002140,0.002157,0.002196,0.002228,0.002263,0.002286,0.002310,0.002313,0.002272,0.002241,0.002219,0.002244,0.002285,0.002333,0.002378,0.002416,0.002455,0.002493,0.002532,0.002566,0.002601,0.002633,0.002664,0.002697,0.002731,0.002765,0.002801,0.002838,0.002876,0.002911,0.002946,0.002979,0.003016,0.003048,0.003080,0.003112,0.003144,0.003174,0.003200,0.003236,0.003241,0.003225,0.003208,0.003180,0.003175,0.003176,0.003190,0.003223,0.003257,0.003293,0.003340,0.003331,0.003323,0.003321,0.003308,0.003297,0.003276,0.003250,0.003225,0.003201,0.003200,0.003242,0.003265,0.003290,0.003312,0.003331,0.003363,0.003387,0.003412,0.003435,0.003455,0.003479,0.003472,0.003423,0.003377,0.003339,0.003353,0.003383,0.003416,0.003442,0.003468,0.003492,0.003517,0.003540,0.003563,0.003587,0.003612,0.003639,0.003665,0.003690,0.003717,0.003742,0.003774,0.003807,0.003847,0.003885,0.003930,0.003968,0.003995,0.004024,0.004060,0.004084,0.004085,0.004097,0.004099,0.004055,0.004051,0.004037,0.004032,0.004030,0.004008,0.004049,0.004079,0.004125,0.004179,0.004206,0.004213,0.004189,0.004166,0.004154,0.004128,0.004109,0.004130,0.004101,0.004116,0.004135,0.004149,0.004178,0.004200,0.004236,0.004265,0.004284,0.004312,0.004330,0.004357,0.004390,0.004422,0.004411,0.004364,0.004326,0.004279,0.004291,0.004327,0.004356,0.004378,0.004410,0.004425,0.004445,0.004466,0.004488,0.004502,0.004527,0.004544,0.004557,0.004587,0.004609,0.004635,0.004659,0.004687,0.004727,0.004760,0.004800,0.004835,0.004873,0.004912,0.004949,0.004967,0.004984,0.004979,0.004958,0.004948,0.004953,0.004953,0.004951,0.004961,0.004999,0.005052,0.005089,0.005104,0.005103,0.005092,0.005071,0.005041,0.005024,0.005022,0.005019,0.005041,0.005018,0.005019,0.005035,0.005064,0.005100,0.005130,0.005172,0.005207,0.005240,0.005283,0.005306,0.005329,0.005367,0.005395,0.005417,0.005393,0.005356,0.005325,0.005305,0.005334,0.005359,0.005391,0.005436,0.005468,0.005512,0.005539,0.005571,0.005599,0.005634,0.005672,0.005707,0.005751,0.005794,0.005837,0.005877,0.005921,0.005968,0.006006,0.006046,0.006088,0.006120,0.006159,0.006213,0.006265,0.006277,0.006272,0.006271,0.006270,0.006268,0.006260,0.006261,0.006291,0.006308,0.006338,0.006353,0.006361,0.006377,0.006356,0.006326,0.006307,0.006292,0.006303,0.006306,0.006316,0.006297,0.006282,0.006299,0.006345,0.006390,0.006436,0.006482,0.006526,0.006561,0.006601,0.006644,0.006679,0.006707,0.006744,0.006800,0.006805,0.006791,0.006771,0.006745,0.006730,0.006739,0.006749,0.006777,0.006833,0.006886,0.006915,0.006952,0.006988,0.007030,0.007088,0.007136,0.007184,0.007237,0.007290,0.007342,0.007396,0.007453,0.007515,0.007585,0.007665,0.007731,0.007794,0.007866,0.007929,0.007974,0.007986,0.007992,0.007994,0.007994,0.007998,0.008008,0.008028,0.008041,0.008072,0.008101,0.008100,0.008087,0.008074,0.008056,0.008042,0.008032,0.008050,0.008062,0.008085,0.008108,0.008103,0.008107,0.008142,0.008196,0.008248,0.008279,0.008335,0.008385,0.008401,0.008435,0.008468,0.008475,0.008494,0.008504,0.008490,0.008492,0.008456,0.008397,0.008342,0.008299,0.008303,0.008327,0.008367,0.008411,0.008434,0.008471,0.008508,0.008560,0.008619,0.008650,0.008667,0.008704,0.008759,0.008828,0.008905,0.008961,0.009030,0.009105,0.009180,0.009251,0.009314,0.009384,0.009429,0.009469,0.009475,0.009474,0.009488,0.009482,0.009486,0.009507,0.009519,0.009538,0.009569,0.009622,0.009653,0.009649,0.009659,0.009665,0.009657,0.009653,0.009656,0.009657,0.009698,0.009740,0.009759,0.009795,0.009861,0.009933,0.009983,0.009987,0.010012,0.010035,0.010024,0.010029,0.010025,0.010020,0.010029,0.010003,0.009983,0.009983,0.009969,0.009908,0.009830,0.009754,0.009689,0.009687,0.009701,0.009722,0.009713,0.009720,0.009722,0.009722,0.009727,0.009720,0.009707,0.009707,0.009719,0.009742,0.009776,0.009806,0.009829,0.009844,0.009862,0.009914,0.009965,0.010026,0.010048,0.010043,0.010033,0.010028,0.010054,0.010057,0.010065,0.010102,0.010129,0.010156,0.010172,0.010205,0.010258,0.010294,0.010334,0.010357,0.010352,0.010381,0.010384,0.010377,0.010413,0.010420,0.010434,0.010474,0.010515,0.010573,0.010616,0.010624,0.010630,0.010632,0.010620,0.010625,0.010618,0.010605,0.010607,0.010583,0.010575,0.010557,0.010540,0.010501,0.010425,0.010336,0.010252,0.010186,0.010188,0.010190,0.010176,0.010172,0.010162,0.010139,0.010128,0.010130,0.010137,0.010137,0.010138,0.010136,0.010136,0.010118,0.010107,0.010115,0.010130,0.010150,0.010151,0.010173,0.010193,0.010174,0.010161,0.010142,0.010136,0.010142,0.010138,0.010149,0.010154,0.010174,0.010197,0.010181,0.010183,0.010179,0.010198,0.010214,0.010183,0.010168,0.010138,0.010119,0.010124,0.010095,0.010110,0.010135,0.010144,0.010141,0.010144,0.010145,0.010146,0.010148,0.010137,0.010133,0.010132,0.010122,0.010089,0.010046,0.010026,0.009993,0.009966,0.009949,0.009873,0.009761,0.009653,0.009564,0.009495,0.009488,0.009469,0.009456,0.009445,0.009437,0.009426,0.009416,0.009405,0.009389,0.009363,0.009340,0.009316,0.009291,0.009255,0.009220,0.009204,0.009190,0.009176,0.009146,0.009101,0.009068,0.009034,0.008996,0.008945,0.008908,0.008877,0.008839,0.008807,0.008800,0.008805,0.008757,0.008740,0.008714,0.008695,0.008687,0.008653,0.008637,0.008622,0.008621,0.008623,0.008592,0.008607,0.008628,0.008652,0.008689,0.008715,0.008723,0.008749,0.008778,0.008799,0.008816,0.008830,0.008829,0.008790,0.008751,0.008735,0.008720,0.008711,0.008698,0.008678,0.008622,0.008539,0.008464,0.008370,0.008307,0.008270,0.008247,0.008241,0.008231,0.008196,0.008156,0.008120,0.008083,0.008042,0.008006,0.007968,0.007928,0.007900,0.007873,0.007849,0.007799,0.007763,0.007709,0.007651,0.007600,0.007549,0.007522,0.007484,0.007460,0.007447,0.007405,0.007382,0.007407,0.007408,0.007376,0.007389,0.007370,0.007344,0.007308,0.007274,0.007248,0.007206,0.007206,0.007201,0.007147,0.007126,0.007111,0.007112,0.007116,0.007133,0.007140,0.007126,0.007115,0.007131,0.007150,0.007178,0.007200,0.007234,0.007260,0.007282,0.007292,0.007303,0.007335,0.007336,0.007332,0.007299,0.007273,0.007235,0.007186,0.007175,0.007176,0.007176,0.007164,0.007153,0.007119,0.007082,0.007042,0.007007,0.006984,0.006953,0.006920,0.006893,0.006844,0.006795,0.006747,0.006718,0.006681,0.006639,0.006600,0.006560,0.006501,0.006460,0.006432,0.006403,0.006386,0.006365,0.006382,0.006411,0.006430,0.006418,0.006380,0.006347,0.006299,0.006261,0.006236,0.006209,0.006206,0.006210,0.006183,0.006195,0.006215,0.006235,0.006219,0.006223,0.006248,0.006266,0.006286,0.006305,0.006318,0.006333,0.006360,0.006386,0.006414,0.006454,0.006464,0.006464,0.006476,0.006470,0.006457,0.006439,0.006425,0.006391,0.006353,0.006337,0.006337,0.006346,0.006360,0.006368,0.006368,0.006364,0.006355,0.006338,0.006332,0.006314,0.006287,0.006277,0.006254,0.006223,0.006179,0.006133,0.006089,0.006056,0.006016,0.005992,0.005964,0.005923,0.005894,0.005895,0.005899,0.005885,0.005925,0.005964,0.005995,0.005980,0.005958,0.005941,0.005917,0.005904,0.005895,0.005865,0.005842,0.005872,0.005873,0.005878,0.005880,0.005897,0.005885,0.005881,0.005890,0.005896,0.005889,0.005883,0.005863,0.005841,0.005831,0.005828,0.005833,0.005853,0.005834,0.005793,0.005768,0.005745,0.005729,0.005721,0.005702,0.005657,0.005615,0.005565,0.005507,0.005474,0.005454,0.005430,0.005398,0.005375,0.005357,0.005335,0.005340,0.005337,0.005305,0.005282,0.005250,0.005225,0.005205,0.005178,0.005150,0.005120,0.005091,0.005065,0.005055,0.005040,0.005037,0.005057,0.005062,0.005056,0.005080,0.005081,0.005069,0.005055,0.005035,0.005013,0.005012,0.004997,0.004966,0.004932,0.004898,0.004901,0.004877,0.004859,0.004856,0.004852,0.004841,0.004818,0.004788,0.004752,0.004724,0.004706,0.004673,0.004640,0.004619,0.004611,0.004614,0.004625,0.004606,0.004565,0.004546,0.004537,0.004521,0.004506,0.004481,0.004446,0.004430,0.004387,0.004316,0.004281,0.004265,0.004261,0.004255,0.004249,0.004242,0.004250,0.004269,0.004250,0.004247,0.004233,0.004192,0.004151,0.004116,0.004078,0.004043,0.004003,0.003968,0.003917,0.003877,0.003857,0.003854,0.003846,0.003826,0.003809,0.003802,0.003792,0.003779,0.003768,0.003749,0.003717,0.003701,0.003670,0.003631,0.003596,0.003571,0.003569,0.003550,0.003517,0.003514,0.003503,0.003494,0.003462,0.003428,0.003406,0.003400,0.003395,0.003372,0.003345,0.003323,0.003314,0.003319,0.003327,0.003323,0.003316,0.003318,0.003318,0.003309,0.003290,0.003272,0.003256,0.003248,0.003225,0.003180,0.003156,0.003156,0.003169,0.003173,0.003171,0.003182,0.003193,0.003195,0.003147,0.003127,0.003091,0.003035,0.002987,0.002945,0.002896,0.002854,0.002813,0.002765,0.002717,0.002675,0.002647,0.002631,0.002615,0.002610,0.002609,0.002596,0.002582,0.002570,0.002551,0.002531,0.002507,0.002476,0.002448,0.002426,0.002398,0.002378,0.002394,0.002406,0.002358,0.002339,0.002344,0.002356,0.002339,0.002324,0.002328,0.002329,0.002344,0.002353,0.002345,0.002326,0.002324,0.002334,0.002332,0.002329,0.002327,0.002329,0.002320,0.002316,0.002308,0.002302,0.002289,0.002272,0.002258,0.002238,0.002197,0.002180,0.002179,0.002188,0.002191,0.002228,0.002269,0.002291,0.002277,0.002229,0.002176,0.002119,0.002074,0.002029,0.001974,0.001925,0.001878,0.001821,0.001776,0.001734,0.001703,0.001683,0.001668,0.001684,0.001716,0.001740,0.001744,0.001746,0.001743,0.001744,0.001739,0.001713,0.001696,0.001677,0.001656,0.001625,0.001600,0.001583,0.001551,0.001544,0.001558,0.001574,0.001560,0.001555,0.001570,0.001572,0.001592,0.001614,0.001629,0.001624,0.001628,0.001634,0.001627,0.001617,0.001618,0.001624,0.001629,0.001630,0.001643,0.001658,0.001667,0.001685,0.001705,0.001729,0.001721,0.001695,0.001686,0.001719,0.001761,0.001783,0.001832,0.001837,0.001806,0.001776,0.001746,0.001710,0.001677,0.001622,0.001566,0.001527,0.001490,0.001443,0.001394,0.001348,0.001303,0.001263,0.001222,0.001201,0.001200,0.001237,0.001263,0.001291,0.001320,0.001338,0.001328,0.001318,0.001279,0.001247,0.001222,0.001187,0.001161,0.001141,0.001154,0.001159,0.001163,0.001170,0.001161,0.001185,0.001228,0.001258,0.001280,0.001314,0.001359,0.001392,0.001400,0.001411,0.001426,0.001432,0.001442,0.001449,0.001467,0.001480,0.001504,0.001526,0.001552,0.001587,0.001604,0.001612,0.001636,0.001632,0.001619,0.001618,0.001679,0.001740,0.001775,0.001749,0.001680,0.001629,0.001563,0.001493,0.001449,0.001411,0.001378,0.001360,0.001345,0.001316,0.001276,0.001246,0.001206,0.001167,0.001133,0.001081,0.001034,0.001067,0.001104,0.001144,0.001182,0.001211,0.001215,0.001217,0.001240,0.001271,0.001260,0.001223,0.001203,0.001201,0.001193,0.001185,0.001188,0.001193,0.001202,0.001220,0.001249,0.001279,0.001299,0.001326,0.001360,0.001401,0.001425,0.001439,0.001456,0.001456,0.001457,0.001459,0.001462,0.001469,0.001467,0.001471,0.001465,0.001481,0.001499,0.001484,0.001476,0.001502,0.001492,0.001482,0.001493,0.001553,0.001583,0.001553,0.001516,0.001469,0.001416,0.001386,0.001349,0.001329,0.001310,0.001268,0.001263,0.001282,0.001257,0.001227,0.001211,0.001198,0.001194,0.001175,0.001143,0.001147,0.001170,0.001195,0.001223,0.001263,0.001286,0.001301,0.001322,0.001332,0.001313,0.001267,0.001262,0.001263,0.001274,0.001284,0.001287,0.001301,0.001314,0.001332,0.001349,0.001349,0.001357,0.001358,0.001355,0.001342,0.001328,0.001313,0.001296,0.001292,0.001282,0.001278,0.001270,0.001263,0.001267,0.001266,0.001276,0.001272,0.001296,0.001303,0.001313,0.001367,0.001411,0.001402,0.001385,0.001369,0.001366,0.001354,0.001340,0.001308,0.001262,0.001221,0.001172,0.001127,0.001093,0.001052,0.001042,0.001026,0.000991,0.000983,0.000963,0.000955,0.000942,0.000937,0.000930,0.000950,0.000955,0.000958,0.000966,0.000972,0.000984,0.001002,0.001007,0.001027,0.001022,0.001013,0.001029,0.001027,0.001030,0.001031,0.001029,0.001047,0.001060,0.001079,0.001106,0.001112,0.001104,0.001098,0.001099,0.001110,0.001133,0.001158,0.001178,0.001206,0.001238,0.001264,0.001287,0.001299,0.001313,0.001316,0.001325,0.001334,0.001352,0.001376,0.001386,0.001369,0.001346,0.001343,0.001335,0.001322,0.001306,0.001294,0.001254,0.001198,0.001135,0.001079,0.001026,0.000975,0.000924,0.000892,0.000873,0.000852,0.000811,0.000795,0.000801,0.000811,0.000809,0.000805,0.000796,0.000831,0.000836,0.000832,0.000817,0.000818,0.000816,0.000843,0.000857,0.000882,0.000895,0.000916,0.000938,0.000934,0.000919,0.000912,0.000911,0.000920,0.000921,0.000922,0.000927,0.000934,0.000927,0.000932,0.000937,0.000946,0.000955,0.000954,0.000951,0.000932,0.000940,0.000948,0.000961,0.000985,0.001009,0.001018,0.001021,0.001035,0.001032,0.001037,0.001009,0.000972,0.000932,0.000909,0.000905,0.000901,0.000912,0.000916,0.000875,0.000803,0.000744,0.000694,0.000645,0.000604,0.000554,0.000522,0.000502,0.000487,0.000488,0.000488,0.000460,0.000448,0.000431,0.000414,0.000391,0.000407,0.000406,0.000400,0.000365,0.000336,0.000332,0.000358,0.000367,0.000378,0.000389,0.000410,0.000426,0.000432,0.000406,0.000386,0.000380,0.000363,0.000344,0.000314,0.000281,0.000272,0.000311,0.000349,0.000382,0.000407,0.000422,0.000430,0.000428,0.000415,0.000421,0.000428,0.000404,0.000427,0.000465,0.000491,0.000537,0.000578,0.000611,0.000629,0.000640,0.000630,0.000619,0.000587,0.000591,0.000606,0.000599,0.000582,0.000534,0.000450,0.000374,0.000312,0.000272,0.000279,0.000299,0.000282,0.000245,0.000223,0.000193,0.000157,0.000118,0.000083,0.000066,0.000049,0.000014,-0.000028,-0.000064,-0.000089,-0.000140,-0.000190,-0.000204,-0.000215,-0.000244,-0.000256,-0.000277,-0.000292,-0.000281,-0.000264,-0.000282,-0.000306,-0.000305,-0.000311,-0.000318,-0.000334,-0.000339,-0.000315,-0.000285,-0.000270,-0.000214,-0.000144,-0.000081,-0.000039,-0.000043,-0.000059,-0.000069,-0.000034,0.000019,0.000050,0.000052,0.000031,0.000041,0.000062,0.000085,0.000087,0.000107,0.000115,0.000150,0.000205,0.000259,0.000308,0.000345,0.000373,0.000390,0.000365,0.000326,0.000275,0.000213,0.000174,0.000149,0.000135,0.000101,0.000085,0.000039,-0.000033,-0.000087,-0.000139,-0.000151,-0.000176,-0.000223,-0.000287,-0.000341,-0.000387,-0.000447,-0.000489,-0.000512,-0.000526,-0.000535,-0.000535,-0.000549,-0.000579,-0.000595,-0.000601,-0.000613,-0.000629,-0.000621,-0.000609,-0.000604,-0.000604,-0.000594,-0.000579,-0.000587,-0.000621,-0.000621,-0.000615,-0.000616,-0.000633,-0.000664,-0.000688,-0.000721,-0.000735,-0.000697,-0.000662,-0.000639,-0.000608,-0.000582,-0.000540,-0.000489,-0.000445,-0.000410,-0.000353,-0.000300,-0.000251,-0.000206,-0.000137,-0.000059,0.000007,0.000057,0.000088,0.000109,0.000102,0.000066,0.000018,-0.000039,-0.000087,-0.000096,-0.000109,-0.000156,-0.000199,-0.000244,-0.000302,-0.000343,-0.000379,-0.000421,-0.000468,-0.000508,-0.000552,-0.000610,-0.000653,-0.000680,-0.000695,-0.000704,-0.000712,-0.000702,-0.000716,-0.000763,-0.000809,-0.000831,-0.000845,-0.000858,-0.000860,-0.000860,-0.000868,-0.000881,-0.000882,-0.000890,-0.000899,-0.000924,-0.000941,-0.000978,-0.001027,-0.001057,-0.001084,-0.001110,-0.001147,-0.001164,-0.001157,-0.001121,-0.001050,-0.000990,-0.000916,-0.000867,-0.000821,-0.000761,-0.000719,-0.000681,-0.000664,-0.000679,-0.000646,-0.000581,-0.000511,-0.000449,-0.000371,-0.000315,-0.000289,-0.000272,-0.000276,-0.000299,-0.000334,-0.000371,-0.000427,-0.000487,-0.000531,-0.000580,-0.000626,-0.000670,-0.000690,-0.000720,-0.000759,-0.000798,-0.000828,-0.000870,-0.000910,-0.000936,-0.000952,-0.000973,-0.000998,-0.001022,-0.001065,-0.001130,-0.001167,-0.001196,-0.001202,-0.001236,-0.001236,-0.001224,-0.001220,-0.001195,-0.001204,-0.001207,-0.001211,-0.001219,-0.001240,-0.001270,-0.001300,-0.001327,-0.001354,-0.001370,-0.001390,-0.001399,-0.001372,-0.001303,-0.001189,-0.001112,-0.001064,-0.001066,-0.001101,-0.001074,-0.001051,-0.001059,-0.001077,-0.001111,-0.001139,-0.001136,-0.001146,-0.001135,-0.001127,-0.001102,-0.001056,-0.001021,-0.000976,-0.000986,-0.001009,-0.001031,-0.001092,-0.001154,-0.001221,-0.001290,-0.001346,-0.001380,-0.001392,-0.001433,-0.001482,-0.001533,-0.001584,-0.001636,-0.001697,-0.001732,-0.001781,-0.001828,-0.001818,-0.001803,-0.001804,-0.001805,-0.001776,-0.001771,-0.001753,-0.001727,-0.001705,-0.001683,-0.001667,-0.001657,-0.001668,-0.001670,-0.001681,-0.001688,-0.001713,-0.001750,-0.001782,-0.001819,-0.001860,-0.001893,-0.001915,-0.001911,-0.001899,-0.001854,-0.001804,-0.001745,-0.001742,-0.001747,-0.001750,-0.001708,-0.001688,-0.001719,-0.001760,-0.001800,-0.001835,-0.001866,-0.001892,-0.001895,-0.001899,-0.001898,-0.001903,-0.001886,-0.001840,-0.001769,-0.001724,-0.001732,-0.001773,-0.001824,-0.001869,-0.001911,-0.001972,-0.002041,-0.002106,-0.002168,-0.002199,-0.002229,-0.002243,-0.002247,-0.002260,-0.002278,-0.002304,-0.002302,-0.002272,-0.002248,-0.002191,-0.002137,-0.002112,-0.002124,-0.002139,-0.002129,-0.002119,-0.002125,-0.002123,-0.002130,-0.002122,-0.002126,-0.002129,-0.002155,-0.002190,-0.002225,-0.002274,-0.002309,-0.002368,-0.002403,-0.002421,-0.002438,-0.002418,-0.002430,-0.002434,-0.002419,-0.002438,-0.002432,-0.002393,-0.002383,-0.002411,-0.002443,-0.002490,-0.002539,-0.002586,-0.002630,-0.002684,-0.002735,-0.002782,-0.002819,-0.002862,-0.002883,-0.002889,-0.002821,-0.002769,-0.002739,-0.002762,-0.002797,-0.002834,-0.002866,-0.002918,-0.002992,-0.003069,-0.003121,-0.003143,-0.003170,-0.003184,-0.003187,-0.003195,-0.003195,-0.003168,-0.003140,-0.003161,-0.003181,-0.003141,-0.003122,-0.003146,-0.003145,-0.003145,-0.003134,-0.003115,-0.003132,-0.003139,-0.003145,-0.003142,-0.003171,-0.003203,-0.003248,-0.003296,-0.003332,-0.003363,-0.003394,-0.003429,-0.003433,-0.003420,-0.003404,-0.003358,-0.003345,-0.003362,-0.003353,-0.003352,-0.003310,-0.003291,-0.003325,-0.003338,-0.003338,-0.003379,-0.003440,-0.003503,-0.003568,-0.003641,-0.003715,-0.003790,-0.003843,-0.003907,-0.003980,-0.004013,-0.003981,-0.003991,-0.003998,-0.004021,-0.004061,-0.004111,-0.004158,-0.004198,-0.004244,-0.004284,-0.004308,-0.004326,-0.004334,-0.004319,-0.004303,-0.004313,-0.004302,-0.004277,-0.004291,-0.004287,-0.004297,-0.004289,-0.004273,-0.004283,-0.004254,-0.004222,-0.004195,-0.004185,-0.004199,-0.004200,-0.004181,-0.004184,-0.004211,-0.004240,-0.004275,-0.004323,-0.004352,-0.004375,-0.004404,-0.004395,-0.004395,-0.004410,-0.004420,-0.004401,-0.004341,-0.004314,-0.004281,-0.004260,-0.004230,-0.004215,-0.004235,-0.004255,-0.004268,-0.004306,-0.004366,-0.004434,-0.004502,-0.004566,-0.004644,-0.004717,-0.004767,-0.004810,-0.004856,-0.004843,-0.004838,-0.004889,-0.004936,-0.004968,-0.004995,-0.005015,-0.005036,-0.005058,-0.005071,-0.005081,-0.005093,-0.005111,-0.005112,-0.005091,-0.005070,-0.005076,-0.005065,-0.005072,-0.005067,-0.005072,-0.005084,-0.005109,-0.005128,-0.005131,-0.005105,-0.005088,-0.005068,-0.005042,-0.005016,-0.005000,-0.004976,-0.004987,-0.005020,-0.005057,-0.005109,-0.005154,-0.005184,-0.005199,-0.005201,-0.005220,-0.005266,-0.005292,-0.005312,-0.005297,-0.005241,-0.005197,-0.005159,-0.005144,-0.005107,-0.005113,-0.005150,-0.005174,-0.005169,-0.005172,-0.005202,-0.005237,-0.005278,-0.005316,-0.005353,-0.005362,-0.005403,-0.005419,-0.005412,-0.005400,-0.005419,-0.005468,-0.005516,-0.005564,-0.005616,-0.005670,-0.005724,-0.005777,-0.005832,-0.005867,-0.005886,-0.005908,-0.005921,-0.005927,-0.005934,-0.005934,-0.005921,-0.005904,-0.005879,-0.005853,-0.005836,-0.005810,-0.005810,-0.005777,-0.005723,-0.005698,-0.005668,-0.005630,-0.005586,-0.005563,-0.005549,-0.005547,-0.005579,-0.005628,-0.005674,-0.005724,-0.005773,-0.005769,-0.005780,-0.005804,-0.005800,-0.005798,-0.005766,-0.005749,-0.005758,-0.005747,-0.005721,-0.005707,-0.005686,-0.005723,-0.005751,-0.005781,-0.005825,-0.005851,-0.005867,-0.005907,-0.005963,-0.006012,-0.006032,-0.006000,-0.006032,-0.006053,-0.006071,-0.006119,-0.006177,-0.006232,-0.006279,-0.006324,-0.006378,-0.006435,-0.006485,-0.006527,-0.006572,-0.006603,-0.006620,-0.006628,-0.006630,-0.006627,-0.006631,-0.006603,-0.006604,-0.006596,-0.006590,-0.006590,-0.006561,-0.006511,-0.006490,-0.006446,-0.006414,-0.006393,-0.006359,-0.006329,-0.006302,-0.006287,-0.006298,-0.006306,-0.006320,-0.006371,-0.006417,-0.006456,-0.006485,-0.006494,-0.006537,-0.006546,-0.006534,-0.006558,-0.006572,-0.006575,-0.006609,-0.006653,-0.006643,-0.006636,-0.006627,-0.006697,-0.006762,-0.006816,-0.006878,-0.006931,-0.006970,-0.007018,-0.007077,-0.007116,-0.007137,-0.007164,-0.007185,-0.007181,-0.007224,-0.007284,-0.007336,-0.007397,-0.007448,-0.007488,-0.007521,-0.007551,-0.007578,-0.007600,-0.007620,-0.007607,-0.007564,-0.007548,-0.007534,-0.007520,-0.007512,-0.007460,-0.007447,-0.007438,-0.007433,-0.007447,-0.007446,-0.007456,-0.007495,-0.007509,-0.007496,-0.007497,-0.007523,-0.007530,-0.007521,-0.007514,-0.007519,-0.007526,-0.007525,-0.007569,-0.007622,-0.007666,-0.007655,-0.007666,-0.007717,-0.007745,-0.007771,-0.007819,-0.007858,-0.007887,-0.007914,-0.007969,-0.007993,-0.007984,-0.008004,-0.008046,-0.008101,-0.008158,-0.008190,-0.008230,-0.008279,-0.008341,-0.008391,-0.008401,-0.008412,-0.008431,-0.008444,-0.008464,-0.008511,-0.008560,-0.008613,-0.008657,-0.008676,-0.008666,-0.008664,-0.008663,-0.008665,-0.008682,-0.008711,-0.008688,-0.008613,-0.008612,-0.008606,-0.008599,-0.008581,-0.008550,-0.008556,-0.008546,-0.008532,-0.008531,-0.008550,-0.008567,-0.008626,-0.008639,-0.008634,-0.008675,-0.008684,-0.008691,-0.008680,-0.008678,-0.008675,-0.008655,-0.008657,-0.008686,-0.008716,-0.008726,-0.008705,-0.008732,-0.008759,-0.008777,-0.008802,-0.008841,-0.008867,-0.008863,-0.008874,-0.008925,-0.008931,-0.008876,-0.008888,-0.008933,-0.008976,-0.009013,-0.009048,-0.009085,-0.009122,-0.009167,-0.009201,-0.009211,-0.009213,-0.009199,-0.009197,-0.009219,-0.009237,-0.009268,-0.009304,-0.009332,-0.009343,-0.009341,-0.009345,-0.009335,-0.009378,-0.009444,-0.009487,-0.009553,-0.009580,-0.009585,-0.009579,-0.009574,-0.009554,-0.009544,-0.009557,-0.009595,-0.009621,-0.009641,-0.009675,-0.009718,-0.009729,-0.009687,-0.009672,-0.009677,-0.009671,-0.009619,-0.009575,-0.009540,-0.009517,-0.009485,-0.009430,-0.009384,-0.009342,-0.009296,-0.009253,-0.009255,-0.009224,-0.009186,-0.009140,-0.009100,-0.009057,-0.009023,-0.009007,-0.009021,-0.008984,-0.008906,-0.008876,-0.008859,-0.008834,-0.008817,-0.008801,-0.008800,-0.008815,-0.008823,-0.008845,-0.008866,-0.008883,-0.008921,-0.008942,-0.008954,-0.008980,-0.009017,-0.009040,-0.009051,-0.009034,-0.009013,-0.008984,-0.009018,-0.009057,-0.009022,-0.008995,-0.009038,-0.009076,-0.009080,-0.009093,-0.009113,-0.009116,-0.009122,-0.009126,-0.009181,-0.009223,-0.009257,-0.009275,-0.009273,-0.009234,-0.009165,-0.009106,-0.009054,-0.008970,-0.008901,-0.008895,-0.008930,-0.009003,-0.009065,-0.009073,-0.009035,-0.008972,-0.008902,-0.008832,-0.008787,-0.008726,-0.008675,-0.008632,-0.008594,-0.008570,-0.008541,-0.008517,-0.008500,-0.008424,-0.008350,-0.008301,-0.008252,-0.008197,-0.008139,-0.008077,-0.008033,-0.008008,-0.007979,-0.007947,-0.007946,-0.007947,-0.007967,-0.007978,-0.007993,-0.008022,-0.008032,-0.008042,-0.008038,-0.008013,-0.007984,-0.007990,-0.008006,-0.007936,-0.007923,-0.007905,-0.007869,-0.007895,-0.007900,-0.007914,-0.007931,-0.007941,-0.007964,-0.007975,-0.008012,-0.008072,-0.008134,-0.008150,-0.008106,-0.008044,-0.007970,-0.007895,-0.007813,-0.007755,-0.007793,-0.007816,-0.007814,-0.007831,-0.007869,-0.007936,-0.007996,-0.007987,-0.007923,-0.007837,-0.007799,-0.007793,-0.007746,-0.007707,-0.007685,-0.007661,-0.007667,-0.007653,-0.007638,-0.007579,-0.007522,-0.007489,-0.007443,-0.007382,-0.007313,-0.007255,-0.007207,-0.007150,-0.007089,-0.007019,-0.006957,-0.006899,-0.006833,-0.006795,-0.006782,-0.006764,-0.006767,-0.006780,-0.006795,-0.006802,-0.006785,-0.006804,-0.006749,-0.006722,-0.006710,-0.006732,-0.006702,-0.006686,-0.006696,-0.006706,-0.006709,-0.006726,-0.006767,-0.006829,-0.006878,-0.006936,-0.006977,-0.006968,-0.006920,-0.006868,-0.006807,-0.006728,-0.006660,-0.006680,-0.006651,-0.006577,-0.006539,-0.006509,-0.006478,-0.006503,-0.006555,-0.006614,-0.006583,-0.006509,-0.006458,-0.006468,-0.006439,-0.006411,-0.006403,-0.006402,-0.006417,-0.006416,-0.006386,-0.006337,-0.006294,-0.006261,-0.006208,-0.006155,-0.006092,-0.006025,-0.005956,-0.005880,-0.005809,-0.005736,-0.005651,-0.005573,-0.005491,-0.005422,-0.005344,-0.005273,-0.005246,-0.005222,-0.005221,-0.005224,-0.005214,-0.005206,-0.005179,-0.005169,-0.005144,-0.005135,-0.005149,-0.005111,-0.005139,-0.005174,-0.005205,-0.005261,-0.005326,-0.005428,-0.005503,-0.005574,-0.005621,-0.005611,-0.005579,-0.005548,-0.005486,-0.005392,-0.005394,-0.005377,-0.005324,-0.005334,-0.005348,-0.005400,-0.005403,-0.005351,-0.005380,-0.005455,-0.005491,-0.005446,-0.005364,-0.005329,-0.005314,-0.005306,-0.005319,-0.005335,-0.005346,-0.005327,-0.005288,-0.005256,-0.005232,-0.005178,-0.005118,-0.005076,-0.005018,-0.004929,-0.004826,-0.004744,-0.004677,-0.004593,-0.004521,-0.004447,-0.004373,-0.004295,-0.004218,-0.004157,-0.004096,-0.004048,-0.004011,-0.003984,-0.004029,-0.004023,-0.004029,-0.004028,-0.004015,-0.004037,-0.004080,-0.004057,-0.004073,-0.004092,-0.004109,-0.004162,-0.004221,-0.004284,-0.004325,-0.004368,-0.004421,-0.004425,-0.004389,-0.004347,-0.004279,-0.004234,-0.004248,-0.004194,-0.004206,-0.004212,-0.004193,-0.004183,-0.004210,-0.004202,-0.004174,-0.004238,-0.004300,-0.004259,-0.004162,-0.004081,-0.004019,-0.003974,-0.003958,-0.003945,-0.003895,-0.003848,-0.003822,-0.003789,-0.003749,-0.003701,-0.003649,-0.003586,-0.003531,-0.003479,-0.003409,-0.003346,-0.003293,-0.003236,-0.003189,-0.003125,-0.003051,-0.002975,-0.002917,-0.002866,-0.002831,-0.002808,-0.002782,-0.002743,-0.002798,-0.002765,-0.002769,-0.002774,-0.002765,-0.002758,-0.002755,-0.002698,-0.002670,-0.002665,-0.002652,-0.002625,-0.002641,-0.002683,-0.002717,-0.002757,-0.002804,-0.002824,-0.002780,-0.002714,-0.002614,-0.002616,-0.002595,-0.002560,-0.002578,-0.002550,-0.002495,-0.002483,-0.002480,-0.002487,-0.002439,-0.002461,-0.002525,-0.002493,-0.002393,-0.002307,-0.002219,-0.002151,-0.002088,-0.002017,-0.001958,-0.001914,-0.001889,-0.001870,-0.001837,-0.001793,-0.001727,-0.001665,-0.001617,-0.001588,-0.001556,-0.001501,-0.001466,-0.001439,-0.001423,-0.001381,-0.001329,-0.001309,-0.001287,-0.001253,-0.001247,-0.001225,-0.001213,-0.001234,-0.001292,-0.001247,-0.001222,-0.001214,-0.001187,-0.001148,-0.001089,-0.001005,-0.000948,-0.000908,-0.000873,-0.000874,-0.000933,-0.000983,-0.001027,-0.001072,-0.001120,-0.001154,-0.001108,-0.001033,-0.000956,-0.000988,-0.000956,-0.000939,-0.000917,-0.000872,-0.000802,-0.000762,-0.000778,-0.000784,-0.000715,-0.000733,-0.000802,-0.000782,-0.000722,-0.000656,-0.000608,-0.000547,-0.000492,-0.000446,-0.000395,-0.000370,-0.000358,-0.000350,-0.000330,-0.000302,-0.000271,-0.000252,-0.000220,-0.000194,-0.000162,-0.000125,-0.000102,-0.000068,-0.000058,-0.000035,0.000001,0.000006,0.000023,0.000028,0.000028,0.000021,0.000012,-0.000020,-0.000052,-0.000041,0.000021,0.000052,0.000069,0.000108,0.000195,0.000260,0.000229,0.000209,0.000211,0.000193,0.000153,0.000130,0.000105,0.000078,0.000056,0.000046,0.000089,0.000138,0.000134,0.000095,0.000153,0.000177,0.000201,0.000223,0.000244,0.000259,0.000292,0.000315,0.000414,0.000403,0.000347,0.000355,0.000384,0.000425,0.000457,0.000486,0.000516,0.000547,0.000580,0.000602,0.000606,0.000621,0.000630,0.000645,0.000664,0.000672,0.000675,0.000678,0.000709,0.000739,0.000761,0.000772,0.000783,0.000773,0.000778,0.000774,0.000762,0.000756,0.000743,0.000736,0.000724,0.000694,0.000659,0.000648,0.000734,0.000787,0.000811,0.000888,0.000983,0.001006,0.000977,0.000949,0.000904,0.000851,0.000804,0.000765,0.000745,0.000737,0.000720,0.000701,0.000708,0.000725,0.000715,0.000674,0.000727,0.000754,0.000790,0.000839,0.000862,0.000905,0.000954,0.001016,0.001121,0.001110,0.001093,0.001113,0.001152,0.001185,0.001212,0.001229,0.001262,0.001289,0.001326,0.001332,0.001357,0.001373,0.001374,0.001371,0.001378,0.001380,0.001373,0.001368,0.001378,0.001384,0.001380,0.001343,0.001311,0.001288,0.001275,0.001259,0.001227,0.001206,0.001187,0.001167,0.001145,0.001113,0.001079,0.001044,0.001077,0.001163,0.001262,0.001358,0.001388,0.001368,0.001354,0.001340,0.001302,0.001256,0.001216,0.001183,0.001146,0.001099,0.001075,0.001051,0.001038,0.001009,0.000975,0.000924,0.000960,0.001037,0.001060,0.001105,0.001142,0.001152,0.001240,0.001332,0.001409,0.001407,0.001402,0.001410,0.001422,0.001412,0.001401,0.001400,0.001406,0.001423,0.001417,0.001400,0.001391,0.001381,0.001339,0.001300,0.001264,0.001221,0.001185,0.001163,0.001139,0.001124,0.001104,0.001078,0.001055,0.001040,0.001029,0.001023,0.001016,0.001014,0.000986,0.000953,0.000936,0.000909,0.000869,0.000836,0.000809,0.000818,0.000850,0.000859,0.000829,0.000817,0.000786,0.000768,0.000729,0.000682,0.000636,0.000583,0.000544,0.000512,0.000480,0.000433,0.000368,0.000328,0.000275,0.000223,0.000211,0.000305,0.000368,0.000388,0.000432,0.000502,0.000604,0.000714,0.000740,0.000716,0.000697,0.000679,0.000645,0.000603,0.000557,0.000513,0.000476,0.000451,0.000429,0.000396,0.000376,0.000340,0.000289,0.000233,0.000173,0.000110,0.000056,0.000027,0.000006,0.000004,-0.000012,-0.000042,-0.000063,-0.000096,-0.000103,-0.000103,-0.000088,-0.000063,-0.000088,-0.000101,-0.000101,-0.000112,-0.000139,-0.000120,-0.000104,-0.000092,-0.000065,-0.000047,-0.000026,-0.000001,-0.000043,-0.000073,-0.000108,-0.000148,-0.000190,-0.000237,-0.000276,-0.000312,-0.000355,-0.000398,-0.000456,-0.000469,-0.000516,-0.000579,-0.000651,-0.000646,-0.000562,-0.000487,-0.000381,-0.000274,-0.000177,-0.000141,-0.000158,-0.000191,-0.000221,-0.000261,-0.000307,-0.000351,-0.000405,-0.000466,-0.000532,-0.000578,-0.000622,-0.000645,-0.000663,-0.000670,-0.000687,-0.000730,-0.000765,-0.000779,-0.000792,-0.000786,-0.000767,-0.000745,-0.000744,-0.000752,-0.000752,-0.000729,-0.000703,-0.000683,-0.000649,-0.000620,-0.000601,-0.000594,-0.000589,-0.000589,-0.000572,-0.000539,-0.000520,-0.000501,-0.000457,-0.000427,-0.000398,-0.000376,-0.000422,-0.000458,-0.000493,-0.000533,-0.000571,-0.000615,-0.000658,-0.000693,-0.000737,-0.000775,-0.000822,-0.000864,-0.000919,-0.000994,-0.001059,-0.001112,-0.001124,-0.001070,-0.001001,-0.000949,-0.000965,-0.001007,-0.001018,-0.001043,-0.001070,-0.001096,-0.001118,-0.001138,-0.001165,-0.001204,-0.001239,-0.001262,-0.001259,-0.001227,-0.001201,-0.001177,-0.001177,-0.001196,-0.001214,-0.001205,-0.001185,-0.001168,-0.001143,-0.001123,-0.001107,-0.001094,-0.001076,-0.001051,-0.001038,-0.001025,-0.001029,-0.001021,-0.001014,-0.001016,-0.001010,-0.000998,-0.000988,-0.000960,-0.000940,-0.000926,-0.000916,-0.000901,-0.000900,-0.000897,-0.000947,-0.000982,-0.001021,-0.001065,-0.001110,-0.001163,-0.001213,-0.001244,-0.001279,-0.001299,-0.001322,-0.001359,-0.001418,-0.001371,-0.001464,-0.001531,-0.001619,-0.001694,-0.001753,-0.001811,-0.001864,-0.001907,-0.001943,-0.001964,-0.001989,-0.002020,-0.002041,-0.002047,-0.002038,-0.002025,-0.002006,-0.001991,-0.001973,-0.001958,-0.001942,-0.001935,-0.001930,-0.001915,-0.001905,-0.001905,-0.001895,-0.001884,-0.001869,-0.001851,-0.001835,-0.001825,-0.001818,-0.001810,-0.001804,-0.001799,-0.001796,-0.001793,-0.001788,-0.001780,-0.001771,-0.001763,-0.001757,-0.001753,-0.001749,-0.001743,-0.001736,-0.001728,-0.001720,-0.001716,-0.001715,-0.001714,-0.001712,-0.001712,-0.001717,-0.001725,-0.001730,-0.001732,-0.001733,-0.001732,-0.001727,-0.001723,-0.001717,-0.001710,-0.001700,-0.001732,-0.001749,-0.001773,-0.001794,-0.001809,-0.001832,-0.001854,-0.001863,-0.001865,-0.001887,-0.001913,-0.001919,-0.001907,-0.001895,-0.001885,-0.001872,-0.001863,-0.001857,-0.001854,-0.001847,-0.001842,-0.001838,-0.001829,-0.001821,-0.001817,-0.001813,-0.001808,-0.001804,-0.001797,-0.001788,-0.001777,-0.001774,-0.001771,-0.001766,-0.001760,-0.001756,-0.001751,-0.001746,-0.001738,-0.001730,-0.001722,-0.001716,-0.001712,-0.001707,-0.001700,-0.001695,-0.001693,-0.001696,-0.001700,-0.001689,-0.001680,-0.001670,-0.001661,-0.001657,-0.001654,-0.001648,-0.001640,-0.001636,-0.001633,-0.001629,-0.001622,-0.001612,-0.001600,-0.001586,-0.001626,-0.001658,-0.001690,-0.001719,-0.001740,-0.001765,-0.001791,-0.001808,-0.001825,-0.001830,-0.001855,-0.001891,-0.001904,-0.001929,-0.001959,-0.001959,-0.001937,-0.001925,-0.001910,-0.001903,-0.001900,-0.001897,-0.001895,-0.001888,-0.001888,-0.001885,-0.001881,-0.001875,-0.001869,-0.001866,-0.001865,-0.001862,-0.001860,-0.001854,-0.001849,-0.001844,-0.001840,-0.001836,-0.001831,-0.001823,-0.001813,-0.001805,-0.001797,-0.001791,-0.001785,-0.001777,-0.001769,-0.001765,-0.001763,-0.001765,-0.001765,-0.001764,-0.001764,-0.001766,-0.001771,-0.001772,-0.001771,-0.001772,-0.001775,-0.001780,-0.001784,-0.001783,-0.001782,-0.001786,-0.001827,-0.001858,-0.001880,-0.001906,-0.001936,-0.001957,-0.001971,-0.001995,-0.002023,-0.002026,-0.002023,-0.002054,-0.002088,-0.002124,-0.002145,-0.002150,-0.002135,-0.002123,-0.002097,-0.002094,-0.002102,-0.002097,-0.002090,-0.002082,-0.002080,-0.002078,-0.002076,-0.002073,-0.002071,-0.002068,-0.002065,-0.002064,-0.002066,-0.002065,-0.002063,-0.002061,-0.002059,-0.002058,-0.002059,-0.002056,-0.002049,-0.002039,-0.002034,-0.002032,-0.002030,-0.002029,-0.002026,-0.002020,-0.002015,-0.002014,-0.002014,-0.002014,-0.002015,-0.002018,-0.002021,-0.002023,-0.002023,-0.002021,-0.002019,-0.002020,-0.002019,-0.002014,-0.002013,-0.002021,-0.002053,-0.002077,-0.002095,-0.002119,-0.002155,-0.002184,-0.002208,-0.002244,-0.002270,-0.002261,-0.002264,-0.002298,-0.002285,-0.002251,-0.002224,-0.002194,-0.002187,-0.002193,-0.002196,-0.002217,-0.002243,-0.002244,-0.002241,-0.002243,-0.002243,-0.002236,-0.002229,-0.002228,-0.002227,-0.002222,-0.002215,-0.002213,-0.002217,-0.002220,-0.002220,-0.002220,-0.002219,-0.002220,-0.002225,-0.002226,-0.002224,-0.002215,-0.002207,-0.002205,-0.002207,-0.002210,-0.002212,-0.002209,-0.002208,-0.002203,-0.002202,-0.002200,-0.002200,-0.002202,-0.002203,-0.002205,-0.002209,-0.002214,-0.002219,-0.002224,-0.002225,-0.002225,-0.002229,-0.002240,-0.002293,-0.002329,-0.002366,-0.002407,-0.002446,-0.002482,-0.002508,-0.002517,-0.002550,-0.002558,-0.002542,-0.002541,-0.002532,-0.002520,-0.002515,-0.002514,-0.002530,-0.002555,-0.002567,-0.002579,-0.002589,-0.002590,-0.002593,-0.002597,-0.002600,-0.002592,-0.002582,-0.002572,-0.002563,-0.002554,-0.002550,-0.002542,-0.002539,-0.002541,-0.002543,-0.002543,-0.002541,-0.002540,-0.002546,-0.002550,-0.002551,-0.002551,-0.002551,-0.002550,-0.002550,-0.002550,-0.002550,-0.002550,-0.002556,-0.002554,-0.002552,-0.002552,-0.002556,-0.002560,-0.002564,-0.002570,-0.002577,-0.002585,-0.002594,-0.002604,-0.002609,-0.002613,-0.002620,-0.002632,-0.002688,-0.002733,-0.002784,-0.002836,-0.002886,-0.002929,-0.002957,-0.002959,-0.002961,-0.002944,-0.002918,-0.002918,-0.002938,-0.002976,-0.003023,-0.003070,-0.003109,-0.003151,-0.003181,-0.003200,-0.003216,-0.003214,-0.003201,-0.003204,-0.003208,-0.003214,-0.003214,-0.003210,-0.003206,-0.003204,-0.003204,-0.003202,-0.003203,-0.003210,-0.003218,-0.003223,-0.003227,-0.003232,-0.003245,-0.003258,-0.003267,-0.003283,-0.003297,-0.003309,-0.003320,-0.003329,-0.003341,-0.003352,-0.003368,-0.003382,-0.003396,-0.003416,-0.003439,-0.003462,-0.003485,-0.003509,-0.003530,-0.003546,-0.003564,-0.003585,-0.003603,-0.003620,-0.003641,-0.003669,-0.003731,-0.003796,-0.003848,-0.003893,-0.003947,-0.004003,-0.004052,-0.004095,-0.004140,-0.004181,-0.004203,-0.004236,-0.004295,-0.004351,-0.004386,-0.004415,-0.004446,-0.004489,-0.004532,-0.004579,-0.004635,-0.004676,-0.004700,-0.004721,-0.004737,-0.004747,-0.004753,-0.004765,-0.004783,-0.004799,-0.004811,-0.004825,-0.004841,-0.004856,-0.004873,-0.004888,-0.004901,-0.004916,-0.004941,-0.004966,-0.004988,-0.005016,-0.005043,-0.005073,-0.005106