-0.002148,,-0.002128,-0.002172,-0.002247,-0.002255,-0.002292,-0.002298,-0.002274,-0.002324,-0.002319,-0.002355,-0.002386,-0.002357,-0.002362,-0.002335,-0.002315,-0.002280,-0.002228,-0.002167,-0.002103,-0.002085,-0.002083,-0.002090,-0.002097,-0.002073,-0.002016,-0.001959,-0.001923,-0.001918,-0.001908,-0.001907,-0.001859,-0.001849,-0.001862,-0.001844,-0.001829,-0.001733,-0.001743,-0.001789,-0.001795,-0.001780,-0.001609,-0.001603,-0.001656,-0.001712,-0.001735,-0.001618,-0.001526,-0.001431,-0.001387,-0.001377,-0.001400,-0.001433,-0.001409,-0.001404,-0.001394,-0.001345,-0.001363,-0.001439,-0.001617,-0.001687,-0.001578,-0.001506,-0.001544,-0.001587,-0.001580,-0.001652,-0.001743,-0.001758,-0.001780,-0.001820,-0.001844,-0.001871,-0.001908,-0.001963,-0.002001,-0.001961,-0.001922,-0.001932,-0.001916,-0.001861,-0.001790,-0.001697,-0.001610,-0.001552,-0.001548,-0.001556,-0.001554,-0.001571,-0.001523,-0.001508,-0.001465,-0.001415,-0.001407,-0.001425,-0.001437,-0.001393,-0.001316,-0.001322,-0.001354,-0.001376,-0.001315,-0.001203,-0.001197,-0.001232,-0.001285,-0.001232,-0.001128,-0.001123,-0.001114,-0.001120,-0.001077,-0.000958,-0.000875,-0.000875,-0.001006,-0.001091,-0.000965,-0.000853,-0.000923,-0.001106,-0.001176,-0.001138,-0.001145,-0.001241,-0.001228,-0.001144,-0.001166,-0.001172,-0.001179,-0.001223,-0.001285,-0.001354,-0.001363,-0.001361,-0.001429,-0.001493,-0.001498,-0.001489,-0.001513,-0.001530,-0.001498,-0.001447,-0.001385,-0.001349,-0.001296,-0.001194,-0.001086,-0.000991,-0.000944,-0.000996,-0.000996,-0.000998,-0.000985,-0.000957,-0.000959,-0.000912,-0.000871,-0.000859,-0.000899,-0.000924,-0.000856,-0.000782,-0.000759,-0.000838,-0.000877,-0.000795,-0.000703,-0.000649,-0.000740,-0.000797,-0.000737,-0.000675,-0.000537,-0.000525,-0.000492,-0.000388,-0.000332,-0.000261,-0.000400,-0.000544,-0.000422,-0.000209,-0.000172,-0.000429,-0.000644,-0.000637,-0.000477,-0.000430,-0.000530,-0.000559,-0.000595,-0.000620,-0.000642,-0.000659,-0.000683,-0.000766,-0.000827,-0.000847,-0.000929,-0.001012,-0.001045,-0.000995,-0.000959,-0.000978,-0.000999,-0.000959,-0.000896,-0.000824,-0.000747,-0.000659,-0.000553,-0.000450,-0.000363,-0.000361,-0.000395,-0.000392,-0.000397,-0.000393,-0.000357,-0.000336,-0.000288,-0.000255,-0.000256,-0.000311,-0.000319,-0.000194,-0.000111,-0.000099,-0.000163,-0.000175,-0.000048,0.000068,0.000145,0.000091,0.000064,0.000129,0.000250,0.000367,0.000458,0.000530,0.000550,0.000638,0.000660,0.000591,0.000557,0.000619,0.000685,0.000681,0.000565,0.000443,0.000470,0.000483,0.000424,0.000459,0.000488,0.000434,0.000396,0.000354,0.000300,0.000195,0.000077,0.000027,-0.000050,-0.000147,-0.000194,-0.000192,-0.000206,-0.000221,-0.000236,-0.000211,-0.000176,-0.000115,-0.000047,0.000012,0.000096,0.000198,0.000292,0.000364,0.000366,0.000331,0.000310,0.000297,0.000277,0.000247,0.000264,0.000308,0.000376,0.000372,0.000338,0.000426,0.000541,0.000652,0.000646,0.000588,0.000669,0.000807,0.000974,0.000969,0.000891,0.000935,0.001055,0.001231,0.001314,0.001325,0.001316,0.001425,0.001601,0.001600,0.001451,0.001376,0.001456,0.001591,0.001515,0.001273,0.001231,0.001321,0.001340,0.001374,0.001482,0.001531,0.001544,0.001525,0.001496,0.001434,0.001294,0.001203,0.001185,0.001136,0.001075,0.001059,0.001031,0.001018,0.000992,0.000987,0.001015,0.001063,0.001101,0.001124,0.001186,0.001275,0.001336,0.001402,0.001451,0.001433,0.001395,0.001373,0.001311,0.001273,0.001293,0.001328,0.001401,0.001449,0.001442,0.001483,0.001564,0.001663,0.001720,0.001688,0.001720,0.001828,0.001950,0.002008,0.001966,0.001997,0.002082,0.002198,0.002270,0.002319,0.002337,0.002366,0.002543,0.002615,0.002586,0.002514,0.002401,0.002464,0.002501,0.002431,0.002426,0.002331,0.002319,0.002456,0.002620,0.002759,0.002841,0.002881,0.002881,0.002826,0.002682,0.002624,0.002623,0.002565,0.002537,0.002529,0.002481,0.002447,0.002405,0.002400,0.002455,0.002485,0.002530,0.002555,0.002581,0.002651,0.002715,0.002782,0.002827,0.002855,0.002851,0.002785,0.002736,0.002696,0.002711,0.002751,0.002816,0.002874,0.002918,0.002940,0.002994,0.003080,0.003159,0.003220,0.003221,0.003274,0.003372,0.003470,0.003543,0.003554,0.003593,0.003684,0.003734,0.003842,0.003970,0.004015,0.004111,0.004147,0.004159,0.004174,0.004061,0.004051,0.004100,0.004128,0.004113,0.003947,0.003923,0.004106,0.004312,0.004464,0.004588,0.004580,0.004525,0.004500,0.004346,0.004260,0.004190,0.004092,0.004021,0.003962,0.003918,0.003870,0.003823,0.003798,0.003858,0.003918,0.003953,0.003990,0.004005,0.004053,0.004131,0.004171,0.004211,0.004214,0.004226,0.004247,0.004160,0.004083,0.003979,0.003962,0.004047,0.004080,0.004124,0.004105,0.004107,0.004229,0.004272,0.004351,0.004308,0.004321,0.004505,0.004554,0.004628,0.004532,0.004568,0.004842,0.004894,0.004944,0.004976,0.005007,0.005168,0.005202,0.005143,0.005112,0.004986,0.005051,0.005133,0.005034,0.004822,0.004629,0.004773,0.004984,0.005114,0.005162,0.005248,0.005247,0.005227,0.005258,0.005199,0.005105,0.005033,0.004969,0.004942,0.004845,0.004794,0.004828,0.004803,0.004824,0.004817,0.004854,0.004925,0.004952,0.005008,0.005061,0.005104,0.005156,0.005163,0.005203,0.005236,0.005295,0.005296,0.005173,0.005100,0.005024,0.005042,0.005121,0.005125,0.005127,0.005188,0.005262,0.005323,0.005324,0.005359,0.005415,0.005533,0.005612,0.005565,0.005555,0.005623,0.005833,0.005984,0.005977,0.006003,0.006013,0.006138,0.006266,0.006276,0.006227,0.006028,0.006000,0.006084,0.006102,0.006101,0.005857,0.005788,0.005861,0.005976,0.006138,0.006191,0.006242,0.006206,0.006145,0.006045,0.005978,0.005919,0.005791,0.005717,0.005714,0.005714,0.005725,0.005658,0.005655,0.005689,0.005738,0.005812,0.005842,0.005899,0.005979,0.006010,0.006097,0.006141,0.006178,0.006237,0.006222,0.006256,0.006236,0.006201,0.006146,0.006059,0.006116,0.006144,0.006229,0.006346,0.006359,0.006415,0.006435,0.006563,0.006695,0.006742,0.006811,0.006858,0.007027,0.007124,0.007097,0.007276,0.007493,0.007661,0.007689,0.007626,0.007736,0.007856,0.007854,0.007791,0.007617,0.007602,0.007727,0.007745,0.007661,0.007388,0.007218,0.007273,0.007445,0.007514,0.007528,0.007504,0.007421,0.007384,0.007258,0.007123,0.006989,0.006912,0.006963,0.006984,0.007004,0.006882,0.006793,0.006950,0.007118,0.007187,0.007167,0.007188,0.007348,0.007458,0.007567,0.007666,0.007737,0.007819,0.007815,0.007824,0.007813,0.007779,0.007755,0.007701,0.007663,0.007646,0.007673,0.007793,0.007878,0.007984,0.008051,0.008143,0.008306,0.008415,0.008526,0.008607,0.008772,0.008955,0.009042,0.009172,0.009334,0.009535,0.009702,0.009813,0.009918,0.009987,0.010107,0.010159,0.010063,0.009970,0.010016,0.010159,0.010127,0.009978,0.009770,0.009633,0.009673,0.009817,0.009927,0.009889,0.009910,0.009896,0.009788,0.009648,0.009526,0.009521,0.009534,0.009517,0.009602,0.009608,0.009544,0.009657,0.009802,0.009847,0.009812,0.009805,0.009954,0.010106,0.010158,0.010115,0.010052,0.010071,0.010108,0.010036,0.009939,0.009815,0.009696,0.009640,0.009535,0.009495,0.009513,0.009598,0.009673,0.009715,0.009772,0.009848,0.010025,0.010178,0.010306,0.010389,0.010443,0.010619,0.010834,0.011038,0.011237,0.011406,0.011593,0.011783,0.011928,0.011968,0.012107,0.012229,0.012223,0.012085,0.011914,0.012071,0.012235,0.012186,0.012037,0.011819,0.011759,0.012018,0.012194,0.012249,0.012325,0.012322,0.012271,0.012194,0.012197,0.012291,0.012343,0.012335,0.012448,0.012551,0.012553,0.012632,0.012732,0.012807,0.012865,0.012882,0.012965,0.012983,0.012935,0.012905,0.012858,0.012859,0.012845,0.012735,0.012734,0.012719,0.012611,0.012475,0.012272,0.012218,0.012226,0.012203,0.012115,0.011969,0.011969,0.012060,0.012136,0.012154,0.012060,0.012034,0.012047,0.012085,0.012171,0.012257,0.012433,0.012573,0.012623,0.012656,0.012636,0.012649,0.012711,0.012851,0.012971,0.012827,0.012536,0.012461,0.012681,0.012866,0.012920,0.012736,0.012560,0.012720,0.012902,0.013175,0.013393,0.013414,0.013498,0.013509,0.013519,0.013667,0.013697,0.013699,0.013800,0.013806,0.013794,0.013862,0.013934,0.014010,0.014054,0.014076,0.014115,0.014116,0.014056,0.014056,0.014058,0.014015,0.014023,0.013928,0.013921,0.013912,0.013850,0.013906,0.013752,0.013525,0.013382,0.013280,0.013429,0.013358,0.013243,0.013294,0.013349,0.013419,0.013249,0.013153,0.013260,0.013322,0.013406,0.013315,0.013269,0.013320,0.013404,0.013578,0.013440,0.013274,0.013236,0.013279,0.013534,0.013474,0.013282,0.013131,0.013070,0.013348,0.013509,0.013505,0.013413,0.013363,0.013388,0.013531,0.013816,0.013891,0.014071,0.014193,0.014170,0.014188,0.014138,0.014102,0.014148,0.014109,0.014099,0.014122,0.014100,0.014068,0.014026,0.013998,0.013997,0.013955,0.013912,0.013870,0.013835,0.013753,0.013611,0.013512,0.013476,0.013416,0.013288,0.013166,0.013056,0.012903,0.012744,0.012567,0.012431,0.012441,0.012416,0.012410,0.012387,0.012378,0.012324,0.012233,0.012278,0.012318,0.012363,0.012273,0.012108,0.012158,0.012173,0.012170,0.012026,0.011890,0.011885,0.011746,0.011688,0.011693,0.011559,0.011376,0.011228,0.011195,0.011292,0.011258,0.011117,0.011000,0.010915,0.010905,0.010997,0.011139,0.011273,0.011343,0.011328,0.011370,0.011383,0.011386,0.011395,0.011379,0.011416,0.011466,0.011500,0.011512,0.011567,0.011624,0.011729,0.011752,0.011696,0.011652,0.011678,0.011757,0.011701,0.011584,0.011508,0.011445,0.011415,0.011322,0.011267,0.011166,0.011002,0.010906,0.010720,0.010592,0.010509,0.010487,0.010494,0.010407,0.010283,0.010230,0.010241,0.010263,0.010217,0.010027,0.009927,0.009904,0.009924,0.009858,0.009581,0.009556,0.009534,0.009314,0.009167,0.009079,0.009059,0.008978,0.008966,0.008872,0.008780,0.008883,0.008888,0.008869,0.008698,0.008526,0.008676,0.008765,0.008892,0.008896,0.008933,0.008949,0.008881,0.008948,0.008883,0.008767,0.008747,0.008737,0.008796,0.008715,0.008703,0.008775,0.008850,0.008840,0.008815,0.008891,0.008991,0.009096,0.009149,0.009224,0.009299,0.009305,0.009383,0.009445,0.009429,0.009476,0.009504,0.009543,0.009502,0.009330,0.009291,0.009364,0.009379,0.009400,0.009308,0.009185,0.009133,0.009117,0.009088,0.008908,0.008764,0.008733,0.008769,0.008695,0.008469,0.008335,0.008321,0.008207,0.007977,0.007733,0.007799,0.007986,0.007938,0.007709,0.007439,0.007502,0.007803,0.007850,0.007635,0.007327,0.007201,0.007334,0.007525,0.007679,0.007642,0.007586,0.007617,0.007729,0.007749,0.007680,0.007737,0.007782,0.007869,0.007799,0.007691,0.007709,0.007879,0.007994,0.007999,0.007986,0.007963,0.008056,0.008171,0.008236,0.008255,0.008243,0.008322,0.008377,0.008380,0.008392,0.008375,0.008426,0.008482,0.008444,0.008411,0.008448,0.008476,0.008549,0.008568,0.008536,0.008500,0.008541,0.008555,0.008496,0.008335,0.008138,0.008240,0.008354,0.008242,0.008011,0.007863,0.007748,0.007716,0.007688,0.007663,0.007668,0.007623,0.007613,0.007541,0.007441,0.007539,0.007790,0.007745,0.007547,0.007381,0.007337,0.007576,0.007825,0.008004,0.008048,0.008019,0.008059,0.008240,0.008369,0.008321,0.008242,0.008301,0.008326,0.008306,0.008272,0.008356,0.008440,0.008465,0.008456,0.008332,0.008333,0.008452,0.008513,0.008547,0.008482,0.008441,0.008437,0.008457,0.008468,0.008368,0.008294,0.008237,0.008185,0.008106,0.008044,0.008028,0.008003,0.007977,0.007903,0.007865,0.007917,0.007907,0.007901,0.007804,0.007693,0.007746,0.007800,0.007716,0.007526,0.007435,0.007357,0.007465,0.007574,0.007438,0.007315,0.007300,0.007453,0.007514,0.007442,0.007324,0.007372,0.007600,0.007540,0.007342,0.007128,0.007143,0.007434,0.007704,0.007812,0.007775,0.007845,0.008051,0.008123,0.008020,0.007898,0.007881,0.007935,0.007879,0.007733,0.007672,0.007645,0.007648,0.007618,0.007490,0.007455,0.007486,0.007504,0.007477,0.007441,0.007419,0.007336,0.007324,0.007271,0.007238,0.007225,0.007116,0.007097,0.007061,0.006965,0.006968,0.007049,0.007127,0.007058,0.007041,0.007072,0.007107,0.007134,0.007023,0.007023,0.007003,0.006924,0.006879,0.006738,0.006645,0.006550,0.006514,0.006551,0.006388,0.006249,0.006185,0.006184,0.006311,0.006287,0.006154,0.005979,0.005987,0.006075,0.006010,0.005989,0.005836,0.005757,0.005861,0.006046,0.006255,0.006372,0.006549,0.006574,0.006538,0.006528,0.006524,0.006523,0.006437,0.006331,0.006322,0.006316,0.006280,0.006223,0.006157,0.006198,0.006225,0.006222,0.006169,0.006131,0.006197,0.006225,0.006254,0.006197,0.006179,0.006236,0.006229,0.006272,0.006321,0.006263,0.006227,0.006296,0.006353,0.006328,0.006304,0.006276,0.006256,0.006276,0.006192,0.006103,0.006022,0.005907,0.005860,0.005751,0.005565,0.005566,0.005566,0.005553,0.005414,0.005190,0.005172,0.005188,0.005263,0.005175,0.004984,0.004888,0.004703,0.004634,0.004721,0.004715,0.004559,0.004293,0.004206,0.004374,0.004519,0.004702,0.004852,0.005010,0.004975,0.004965,0.005044,0.005043,0.005005,0.004989,0.004971,0.004984,0.004986,0.004968,0.004909,0.004849,0.004884,0.004924,0.004943,0.004857,0.004775,0.004822,0.004837,0.004860,0.004776,0.004673,0.004658,0.004603,0.004599,0.004598,0.004539,0.004503,0.004445,0.004479,0.004487,0.004464,0.004453,0.004488,0.004566,0.004509,0.004405,0.004299,0.004272,0.004241,0.004130,0.004128,0.004077,0.004029,0.003948,0.003809,0.003779,0.003809,0.003821,0.003770,0.003716,0.003652,0.003493,0.003412,0.003499,0.003548,0.003336,0.003109,0.002910,0.002782,0.002887,0.003041,0.003186,0.003235,0.003216,0.003160,0.003168,0.003175,0.003090,0.003029,0.002958,0.002880,0.002863,0.002845,0.002837,0.002761,0.002742,0.002776,0.002783,0.002783,0.002758,0.002791,0.002811,0.002835,0.002866,0.002876,0.002900,0.002867,0.002874,0.002946,0.003011,0.003070,0.003029,0.003076,0.003162,0.003164,0.003281,0.003297,0.003273,0.003236,0.003145,0.003158,0.003143,0.003045,0.002995,0.002868,0.002754,0.002599,0.002348,0.002246,0.002172,0.002182,0.002112,0.001947,0.001854,0.001805,0.001812,0.001755,0.001784,0.001931,0.001847,0.001719,0.001509,0.001281,0.001177,0.001174,0.001209,0.001194,0.001279,0.001340,0.001313,0.001287,0.001187,0.001179,0.001262,0.001297,0.001303,0.001288,0.001327,0.001419,0.001520,0.001578,0.001547,0.001570,0.001666,0.001799,0.001881,0.001865,0.001880,0.001951,0.002042,0.002127,0.002202,0.002171,0.002219,0.002309,0.002271,0.002218,0.002177,0.002217,0.002375,0.002357,0.002252,0.001991,0.001799,0.001815,0.001835,0.001890,0.001820,0.001604,0.001425,0.001454,0.001469,0.001408,0.001337,0.001273,0.001210,0.001108,0.001077,0.001275,0.001347,0.001252,0.001214,0.001299,0.001352,0.001261,0.001158,0.001011,0.000858,0.000829,0.000885,0.000964,0.000956,0.000939,0.000975,0.001036,0.001090,0.001084,0.001110,0.001182,0.001267,0.001331,0.001355,0.001388,0.001480,0.001589,0.001638,0.001566,0.001534,0.001590,0.001654,0.001675,0.001571,0.001536,0.001616,0.001741,0.001841,0.001811,0.001824,0.001984,0.002033,0.002021,0.001923,0.001982,0.002118,0.002079,0.002018,0.001834,0.001731,0.001789,0.001790,0.001801,0.001733,0.001578,0.001517,0.001618,0.001574,0.001440,0.001411,0.001464,0.001527,0.001471,0.001432,0.001495,0.001588,0.001645,0.001611,0.001537,0.001545,0.001625,0.001657,0.001550,0.001318,0.001219,0.001301,0.001383,0.001405,0.001435,0.001511,0.001533,0.001564,0.001540,0.001520,0.001514,0.001541,0.001545,0.001473,0.001389,0.001387,0.001399,0.001374,0.001263,0.001188,0.001234,0.001315,0.001361,0.001308,0.001310,0.001417,0.001451,0.001486,0.001492,0.001590,0.001826,0.001931,0.001860,0.001706,0.001671,0.001767,0.001711,0.001605,0.001418,0.001295,0.001327,0.001292,0.001229,0.001116,0.000938,0.000888,0.000906,0.000823,0.000718,0.000620,0.000659,0.000713,0.000647,0.000640,0.000676,0.000688,0.000779,0.000854,0.000803,0.000738,0.000747,0.000802,0.000880,0.000802,0.000685,0.000714,0.000804,0.000887,0.000943,0.000981,0.001035,0.001122,0.001164,0.001223,0.001247,0.001254,0.001274,0.001281,0.001333,0.001416,0.001477,0.001539,0.001564,0.001669,0.001813,0.001905,0.001884,0.001782,0.001793,0.001889,0.001913,0.001915,0.001935,0.002039,0.002127,0.002043,0.001911,0.001746,0.001768,0.001876,0.001763,0.001508,0.001247,0.001178,0.001241,0.001148,0.000981,0.000839,0.000746,0.000715,0.000707,0.000650,0.000649,0.000711,0.000806,0.000848,0.000829,0.000861,0.000969,0.000987,0.001033,0.001129,0.001190,0.001128,0.001076,0.001043,0.001159,0.001298,0.001337,0.001336,0.001273,0.001278,0.001353,0.001467,0.001542,0.001489,0.001492,0.001524,0.001551,0.001483,0.001473,0.001471,0.001510,0.001582,0.001542,0.001453,0.001367,0.001439,0.001572,0.001631,0.001615,0.001548,0.001559,0.001635,0.001655,0.001630,0.001660,0.001697,0.001730,0.001617,0.001472,0.001348,0.001374,0.001457,0.001338,0.001097,0.000851,0.000854,0.000884,0.000710,0.000524,0.000422,0.000406,0.000374,0.000377,0.000437,0.000504,0.000585,0.000650,0.000670,0.000672,0.000694,0.000809,0.000850,0.000888,0.000936,0.000988,0.000978,0.000959,0.000908,0.000962,0.001108,0.001146,0.001034,0.000925,0.000898,0.000946,0.000963,0.000937,0.000894,0.000854,0.000843,0.000866,0.000924,0.000903,0.000877,0.000909,0.000954,0.000934,0.000868,0.000855,0.000945,0.001048,0.001070,0.001136,0.001218,0.001293,0.001392,0.001487,0.001603,0.001697,0.001759,0.001749,0.001666,0.001540,0.001511,0.001550,0.001495,0.001316,0.001086,0.000929,0.000852,0.000702,0.000447,0.000313,0.000346,0.000319,0.000262,0.000178,0.000111,0.000044,0.000019,0.000029,0.000002,-0.000076,-0.000165,-0.000114,-0.000156,-0.000330,-0.000402,-0.000363,-0.000318,-0.000368,-0.000466,-0.000467,-0.000452,-0.000477,-0.000512,-0.000496,-0.000495,-0.000476,-0.000489,-0.000525,-0.000418,-0.000289,-0.000207,-0.000214,-0.000206,-0.000222,-0.000143,-0.000044,0.000039,0.000079,0.000048,0.000048,0.000025,0.000089,0.000176,0.000267,0.000330,0.000340,0.000401,0.000521,0.000702,0.000813,0.000945,0.001006,0.001058,0.001131,0.001206,0.001301,0.001331,0.001257,0.001171,0.001102,0.000995,0.000838,0.000642,0.000512,0.000425,0.000321,0.000254,0.000184,0.000057,-0.000129,-0.000274,-0.000357,-0.000418,-0.000504,-0.000635,-0.000680,-0.000741,-0.000931,-0.001035,-0.001037,-0.001017,-0.000991,-0.001008,-0.000966,-0.001041,-0.001108,-0.001002,-0.000864,-0.000825,-0.000980,-0.001013,-0.001006,-0.000888,-0.000608,-0.000557,-0.000722,-0.000928,-0.001083,-0.001115,-0.001118,-0.001134,-0.001192,-0.001269,-0.001278,-0.001372,-0.001402,-0.001347,-0.001257,-0.001152,-0.001077,-0.000982,-0.000858,-0.000730,-0.000632,-0.000496,-0.000233,-0.000010,0.000119,0.000201,0.000315,0.000510,0.000643,0.000706,0.000671,0.000593,0.000617,0.000663,0.000665,0.000550,0.000369,0.000268,0.000267,0.000224,0.000180,0.000056,-0.000128,-0.000262,-0.000363,-0.000468,-0.000626,-0.000636,-0.000597,-0.000718,-0.000858,-0.000994,-0.000979,-0.000935,-0.000916,-0.000899,-0.001091,-0.001101,-0.000944,-0.000916,-0.001159,-0.001409,-0.001273,-0.001171,-0.001139,-0.001177,-0.001224,-0.001243,-0.001351,-0.001470,-0.001569,-0.001694,-0.001799,-0.001839,-0.001792,-0.001792,-0.001796,-0.001776,-0.001790,-0.001749,-0.001633,-0.001489,-0.001307,-0.001225,-0.001197,-0.001104,-0.000949,-0.000761,-0.000632,-0.000538,-0.000396,-0.000222,-0.000013,0.000111,0.000189,0.000250,0.000301,0.000414,0.000472,0.000449,0.000361,0.000235,0.000210,0.000197,0.000168,-0.000001,-0.000206,-0.000221,-0.000258,-0.000290,-0.000445,-0.000633,-0.000652,-0.000769,-0.000825,-0.000913,-0.001139,-0.001246,-0.001194,-0.001152,-0.001302,-0.001648,-0.001692,-0.001498,-0.001445,-0.001662,-0.001903,-0.001835,-0.001651,-0.001443,-0.001319,-0.001467,-0.001723,-0.001780,-0.001769,-0.001667,-0.001653,-0.001794,-0.001694,-0.001510,-0.001464,-0.001500,-0.001482,-0.001435,-0.001418,-0.001187,-0.001008,-0.000985,-0.001047,-0.001139,-0.001060,-0.001078,-0.001172,-0.001234,-0.001270,-0.001181,-0.001124,-0.001002,-0.000955,-0.000912,-0.000802,-0.000825,-0.000665,-0.000629,-0.000722,-0.000858,-0.001073,-0.001139,-0.001254,-0.001442,-0.001663,-0.001843,-0.001847,-0.001964,-0.002081,-0.002363,-0.002585,-0.002534,-0.002577,-0.002573,-0.002784,-0.002883,-0.002672,-0.002491,-0.002419,-0.002693,-0.002807,-0.002589,-0.002366,-0.002385,-0.002593,-0.002702,-0.002599,-0.002585,-0.002521,-0.002610,-0.002686,-0.002574,-0.002636,-0.002651,-0.002555,-0.002474,-0.002360,-0.002491,-0.002552,-0.002465,-0.002278,-0.002094,-0.002120,-0.002119,-0.002278,-0.002270,-0.002103,-0.001912,-0.001915,-0.002218,-0.002411,-0.002464,-0.002433,-0.002359,-0.002462,-0.002539,-0.002554,-0.002447,-0.002294,-0.002235,-0.002118,-0.002040,-0.002087,-0.002204,-0.002341,-0.002439,-0.002536,-0.002588,-0.002705,-0.002880,-0.002968,-0.003015,-0.002999,-0.003086,-0.003173,-0.003089,-0.003094,-0.003130,-0.003204,-0.003200,-0.003181,-0.003212,-0.003094,-0.003064,-0.003038,-0.003103,-0.003176,-0.003221,-0.003370,-0.003467,-0.003399,-0.003353,-0.003369,-0.003463,-0.003473,-0.003316,-0.003214,-0.003326,-0.003400,-0.003280,-0.003151,-0.003097,-0.003151,-0.003197,-0.003148,-0.003029,-0.002955,-0.002944,-0.003103,-0.003219,-0.002989,-0.002871,-0.002963,-0.003200,-0.003391,-0.003443,-0.003403,-0.003332,-0.003409,-0.003454,-0.003529,-0.003480,-0.003444,-0.003435,-0.003447,-0.003397,-0.003365,-0.003406,-0.003478,-0.003596,-0.003660,-0.003607,-0.003680,-0.003809,-0.003948,-0.003968,-0.003931,-0.003944,-0.003994,-0.004083,-0.004180,-0.004161,-0.004002,-0.004005,-0.004115,-0.004249,-0.004223,-0.004182,-0.004347,-0.004447,-0.004624,-0.004656,-0.004701,-0.004755,-0.004655,-0.004609,-0.004548,-0.004615,-0.004639,-0.004584,-0.004499,-0.004452,-0.004493,-0.004507,-0.004445,-0.004358,-0.004247,-0.004182,-0.004089,-0.003923,-0.004008,-0.004171,-0.004270,-0.004111,-0.003873,-0.003992,-0.004175,-0.004218,-0.004240,-0.004285,-0.004321,-0.004389,-0.004527,-0.004531,-0.004477,-0.004447,-0.004539,-0.004689,-0.004744,-0.004602,-0.004618,-0.004690,-0.004839,-0.004929,-0.004902,-0.004915,-0.004986,-0.005034,-0.005031,-0.005178,-0.005332,-0.005458,-0.005441,-0.005462,-0.005656,-0.005651,-0.005448,-0.005356,-0.005342,-0.005370,-0.005436,-0.005333,-0.005318,-0.005427,-0.005594,-0.005757,-0.005674,-0.005589,-0.005559,-0.005583,-0.005558,-0.005481,-0.005508,-0.005610,-0.005699,-0.005657,-0.005522,-0.005454,-0.005349,-0.005303,-0.005347,-0.005344,-0.005244,-0.005074,-0.005202,-0.005374,-0.005375,-0.005199,-0.004985,-0.005098,-0.005385,-0.005548,-0.005646,-0.005727,-0.005755,-0.005850,-0.006014,-0.006106,-0.006118,-0.006147,-0.006189,-0.006235,-0.006137,-0.006009,-0.006054,-0.006117,-0.006162,-0.006059,-0.005955,-0.006097,-0.006298,-0.006382,-0.006147,-0.005880,-0.005906,-0.006268,-0.006654,-0.006773,-0.006632,-0.006386,-0.006371,-0.006499,-0.006692,-0.006707,-0.006652,-0.006550,-0.006438,-0.006494,-0.006563,-0.006595,-0.006440,-0.006241,-0.006184,-0.006204,-0.006360,-0.006386,-0.006393,-0.006590,-0.006760,-0.006970,-0.007083,-0.007065,-0.007002,-0.006863,-0.006854,-0.006886,-0.006992,-0.006973,-0.006942,-0.006868,-0.006715,-0.006631,-0.006576,-0.006644,-0.006719,-0.006742,-0.006804,-0.006850,-0.006859,-0.006831,-0.006878,-0.006876,-0.006845,-0.006980,-0.007020,-0.007038,-0.006999,-0.007034,-0.007177,-0.007268,-0.007360,-0.007369,-0.007408,-0.007616,-0.007783,-0.007930,-0.007878,-0.007695,-0.007665,-0.007730,-0.007912,-0.007943,-0.007744,-0.007557,-0.007403,-0.007310,-0.007217,-0.007217,-0.007191,-0.007174,-0.007075,-0.006822,-0.006767,-0.006923,-0.007065,-0.006974,-0.006807,-0.006766,-0.006936,-0.007112,-0.007244,-0.007284,-0.007380,-0.007580,-0.007701,-0.007797,-0.007647,-0.007524,-0.007592,-0.007550,-0.007520,-0.007437,-0.007376,-0.007345,-0.007335,-0.007308,-0.007292,-0.007234,-0.007204,-0.007228,-0.007312,-0.007307,-0.007301,-0.007308,-0.007356,-0.007415,-0.007373,-0.007479,-0.007582,-0.007632,-0.007717,-0.007798,-0.007942,-0.008093,-0.008145,-0.008298,-0.008398,-0.008451,-0.008499,-0.008518,-0.008642,-0.008618,-0.008628,-0.008536,-0.008408,-0.008402,-0.008189,-0.008138,-0.007972,-0.007753,-0.007562,-0.007324,-0.007313,-0.007389,-0.007368,-0.007216,-0.007051,-0.007002,-0.007043,-0.007103,-0.007113,-0.007150,-0.007142,-0.006984,-0.007064,-0.007303,-0.007577,-0.007753,-0.007768,-0.007855,-0.007865,-0.007911,-0.007983,-0.007996,-0.008011,-0.008082,-0.008162,-0.008081,-0.007986,-0.007920,-0.007956,-0.008036,-0.008197,-0.008227,-0.008317,-0.008384,-0.008512,-0.008678,-0.008657,-0.008770,-0.008882,-0.009004,-0.009056,-0.009046,-0.009217,-0.009292,-0.009398,-0.009435,-0.009432,-0.009493,-0.009472,-0.009498,-0.009479,-0.009444,-0.009432,-0.009381,-0.009342,-0.009195,-0.009003,-0.008927,-0.008779,-0.008747,-0.008642,-0.008427,-0.008253,-0.008086,-0.008266,-0.008558,-0.008537,-0.008426,-0.008443,-0.008457,-0.008549,-0.008547,-0.008511,-0.008534,-0.008514,-0.008497,-0.008449,-0.008534,-0.008642,-0.008764,-0.008918,-0.009098,-0.009328,-0.009525,-0.009630,-0.009656,-0.009691,-0.009858,-0.010033,-0.009986,-0.009840,-0.009739,-0.009818,-0.009990,-0.010206,-0.010258,-0.010150,-0.010088,-0.010295,-0.010648,-0.010775,-0.010753,-0.010596,-0.010623,-0.010713,-0.010741,-0.010854,-0.011103,-0.011099,-0.010870,-0.010797,-0.010771,-0.010926,-0.010974,-0.010868,-0.010823,-0.010666,-0.010616,-0.010610,-0.010476,-0.010397,-0.010279,-0.010143,-0.010125,-0.010019,-0.009771,-0.009596,-0.009651,-0.009840,-0.010032,-0.009871,-0.009782,-0.009930,-0.010039,-0.010057,-0.010021,-0.010024,-0.009967,-0.009921,-0.009825,-0.009755,-0.009757,-0.009732,-0.009740,-0.009786,-0.009896,-0.010049,-0.010263,-0.010547,-0.010757,-0.010926,-0.011099,-0.011213,-0.011225,-0.011098,-0.011137,-0.011272,-0.011313,-0.011363,-0.011362,-0.011350,-0.011263,-0.011222,-0.011491,-0.011738,-0.011765,-0.011617,-0.011392,-0.011331,-0.011478,-0.011673,-0.011819,-0.011933,-0.011930,-0.011908,-0.012083,-0.012244,-0.012326,-0.012361,-0.012368,-0.012600,-0.012709,-0.012620,-0.012615,-0.012645,-0.012681,-0.012681,-0.012595,-0.012511,-0.012472,-0.012569,-0.012716,-0.012839,-0.012689,-0.012582,-0.012591,-0.012642,-0.012636,-0.012569,-0.012525,-0.012458,-0.012345,-0.012173,-0.011939,-0.011803,-0.011709,-0.011504,-0.011313,-0.011239,-0.011184,-0.011111,-0.010997,-0.010842,-0.010826,-0.010956,-0.011143,-0.011185,-0.010932,-0.010735,-0.010755,-0.010926,-0.010866,-0.010590,-0.010518,-0.010528,-0.010629,-0.010622,-0.010685,-0.010856,-0.010929,-0.011045,-0.011021,-0.011168,-0.011480,-0.011506,-0.011482,-0.011522,-0.011684,-0.011822,-0.011869,-0.011936,-0.011857,-0.011799,-0.011902,-0.012071,-0.012133,-0.012013,-0.011985,-0.012064,-0.012147,-0.012159,-0.012005,-0.012065,-0.012099,-0.012042,-0.011903,-0.011679,-0.011718,-0.011941,-0.012058,-0.012010,-0.011922,-0.011982,-0.012056,-0.012192,-0.012364,-0.012398,-0.012390,-0.012272,-0.012132,-0.011981,-0.011804,-0.011711,-0.011510,-0.011309,-0.011089,-0.010890,-0.010916,-0.010858,-0.010808,-0.010568,-0.010166,-0.010081,-0.010012,-0.010035,-0.009692,-0.009280,-0.009283,-0.009155,-0.009305,-0.009330,-0.009355,-0.009557,-0.009347,-0.009427,-0.009731,-0.009925,-0.010017,-0.010015,-0.009915,-0.009831,-0.010103,-0.010195,-0.010098,-0.010029,-0.009872,-0.010173,-0.010381,-0.010084,-0.009952,-0.010062,-0.010347,-0.010521,-0.010321,-0.010106,-0.009945,-0.009974,-0.010175,-0.010183,-0.009965,-0.009676,-0.009729,-0.009841,-0.009909,-0.009858,-0.009873,-0.010148,-0.010367,-0.010519,-0.010641,-0.010772,-0.010937,-0.011009,-0.010954,-0.010794,-0.010595,-0.010560,-0.010627,-0.010611,-0.010472,-0.010392,-0.010304,-0.010341,-0.010295,-0.010067,-0.009842,-0.009682,-0.009704,-0.009533,-0.009170,-0.008924,-0.008775,-0.008720,-0.008504,-0.008326,-0.008265,-0.008317,-0.008281,-0.008258,-0.008327,-0.008308,-0.008235,-0.008370,-0.008423,-0.008378,-0.008456,-0.008440,-0.008507,-0.008423,-0.008371,-0.008487,-0.008527,-0.008574,-0.008657,-0.008734,-0.008934,-0.009025,-0.009160,-0.009050,-0.008518,-0.008540,-0.009052,-0.009347,-0.009146,-0.008761,-0.008611,-0.008615,-0.008626,-0.008527,-0.008735,-0.008779,-0.008751,-0.008879,-0.008980,-0.009038,-0.009048,-0.009161,-0.009236,-0.009129,-0.008978,-0.008962,-0.009098,-0.009140,-0.009162,-0.009130,-0.009050,-0.009089,-0.009078,-0.008984,-0.008813,-0.008599,-0.008548,-0.008364,-0.008141,-0.007994,-0.007834,-0.007800,-0.007503,-0.007126,-0.006820,-0.006632,-0.006703,-0.006638,-0.006462,-0.006233,-0.006120,-0.006239,-0.006367,-0.006333,-0.006137,-0.006240,-0.006448,-0.006480,-0.006447,-0.006089,-0.006160,-0.006596,-0.006814,-0.006854,-0.006512,-0.006686,-0.007256,-0.007309,-0.006977,-0.006816,-0.007038,-0.007459,-0.007664,-0.007397,-0.007330,-0.007256,-0.007122,-0.007390,-0.007652,-0.007543,-0.007616,-0.007743,-0.007964,-0.008051,-0.008008,-0.008158,-0.008192,-0.008190,-0.008172,-0.008189,-0.008240,-0.008233,-0.008280,-0.008320,-0.008338,-0.008344,-0.008166,-0.008038,-0.007938,-0.007869,-0.007784,-0.007463,-0.007219,-0.007067,-0.007023,-0.007060,-0.006852,-0.006526,-0.006249,-0.006018,-0.006015,-0.005872,-0.005440,-0.005239,-0.005192,-0.005243,-0.005445,-0.005294,-0.005053,-0.005353,-0.005613,-0.005747,-0.005589,-0.005379,-0.005477,-0.005740,-0.006029,-0.006040,-0.005947,-0.005950,-0.006221,-0.006411,-0.006328,-0.006234,-0.006237,-0.006728,-0.007043,-0.006629,-0.006468,-0.006555,-0.006591,-0.006635,-0.006806,-0.006950,-0.006994,-0.007030,-0.007112,-0.007212,-0.007316,-0.007263,-0.007171,-0.007317,-0.007365,-0.007329,-0.007284,-0.007250,-0.007270,-0.007217,-0.007174,-0.007056,-0.006853,-0.006820,-0.006682,-0.006551,-0.006398,-0.006120,-0.005972,-0.005819,-0.005771,-0.005700,-0.005571,-0.005505,-0.005415,-0.005203,-0.005191,-0.005219,-0.004955,-0.004707,-0.004601,-0.004598,-0.004770,-0.004656,-0.004473,-0.004645,-0.004772,-0.004868,-0.004673,-0.004625,-0.004654,-0.004631,-0.004788,-0.004881,-0.004957,-0.004952,-0.004893,-0.005163,-0.005234,-0.004964,-0.004922,-0.005336,-0.005579,-0.005304,-0.004972,-0.004995,-0.005113,-0.004932,-0.004946,-0.005200,-0.005303,-0.005308,-0.005348,-0.005375,-0.005414,-0.005267,-0.005221,-0.005410,-0.005439,-0.005346,-0.005279,-0.005122,-0.004980,-0.004850,-0.004721,-0.004563,-0.004287,-0.004205,-0.004112,-0.003999,-0.003774,-0.003503,-0.003470,-0.003405,-0.003438,-0.003371,-0.003337,-0.003403,-0.003307,-0.003161,-0.003228,-0.003467,-0.003433,-0.003318,-0.003294,-0.003384,-0.003632,-0.003519,-0.003456,-0.003479,-0.003414,-0.003363,-0.003132,-0.003033,-0.002847,-0.002842,-0.002886,-0.002982,-0.003114,-0.003033,-0.002954,-0.003155,-0.003262,-0.003116,-0.003117,-0.003378,-0.003495,-0.003262,-0.002841,-0.002852,-0.002997,-0.002862,-0.002918,-0.002972,-0.002999,-0.003002,-0.003012,-0.003100,-0.003035,-0.002836,-0.002816,-0.002957,-0.003035,-0.002934,-0.002824,-0.002663,-0.002526,-0.002495,-0.002341,-0.002163,-0.001947,-0.001869,-0.001929,-0.001789,-0.001561,-0.001357,-0.001478,-0.001641,-0.001512,-0.001258,-0.001104,-0.001263,-0.001414,-0.001307,-0.001219,-0.001238,-0.001278,-0.001299,-0.001401,-0.001601,-0.001610,-0.001238,-0.001129,-0.001331,-0.001454,-0.001166,-0.000870,-0.000901,-0.000922,-0.000961,-0.000823,-0.000813,-0.001021,-0.000993,-0.000962,-0.001221,-0.001218,-0.001024,-0.001014,-0.001165,-0.001277,-0.001230,-0.000993,-0.001024,-0.001114,-0.000851,-0.000869,-0.000996,-0.000950,-0.000963,-0.000979,-0.000996,-0.000991,-0.000787,-0.000720,-0.000803,-0.000869,-0.000775,-0.000677,-0.000569,-0.000460,-0.000409,-0.000319,-0.000166,0.000030,0.000042,-0.000109,-0.000074,0.000119,0.000330,0.000290,-0.000020,-0.000055,0.000167,0.000348,0.000297,0.000080,0.000146,0.000257,0.000206,0.000149,0.000063,-0.000100,-0.000221,0.000080,0.000532,0.000548,0.000377,0.000254,0.000610,0.000947,0.000801,0.000713,0.000575,0.000599,0.000657,0.000490,0.000509,0.000302,-0.000096,-0.000149,-0.000070,-0.000028,-0.000155,-0.000264,-0.000192,-0.000119,-0.000215,-0.000189,0.000117,0.000116,0.000045,0.000200,0.000255,0.000323,0.000406,0.000509,0.000789,0.000796,0.000839,0.000956,0.001080,0.001200,0.001257,0.001354,0.001422,0.001477,0.001566,0.001593,0.001694,0.001720,0.001660,0.001608,0.001591,0.001765,0.001811,0.001669,0.001529,0.001421,0.001536,0.001579,0.001535,0.001501,0.001312,0.001149,0.000992,0.000891,0.001103,0.001405,0.001631,0.001563,0.001432,0.001468,0.001600,0.001888,0.001922,0.001829,0.001757,0.001616,0.001691,0.001744,0.001535,0.001295,0.000911,0.000824,0.000991,0.000932,0.000807,0.000793,0.000821,0.000728,0.000746,0.000930,0.001133,0.001292,0.001401,0.001522,0.001623,0.001701,0.001924,0.002205,0.002358,0.002367,0.002444,0.002568,0.002619,0.002589,0.002561,0.002564,0.002663,0.002707,0.002631,0.002566,0.002641,0.002759,0.002678,0.002472,0.002336,0.002398,0.002541,0.002497,0.002268,0.002131,0.002164,0.002281,0.002251,0.002163,0.002107,0.002112,0.002160,0.002104,0.002088,0.002130,0.002304,0.002364,0.002066,0.001821,0.001777,0.001938,0.002045,0.001669,0.001368,0.001324,0.001455,0.001617,0.001177,0.000766,0.000566,0.000448,0.000512,0.000456,0.000353,0.000268,0.000269,0.000303,0.000397,0.000654,0.000791,0.001079,0.001372,0.001441,0.001588,0.001744,0.001927,0.002163,0.002138,0.002124,0.002073,0.002033,0.002010,0.001904,0.001780,0.001633,0.001618,0.001575,0.001488,0.001381,0.001268,0.001173,0.001089,0.000967,0.000819,0.000568,0.000442,0.000415,0.000347,0.000315,0.000128,0.000078,0.000174,0.000208,0.000197,0.000131,0.000216,0.000332,0.000333,0.000363,0.000545,0.000683,0.000516,0.000367,0.000363,0.000437,0.000640,0.000479,0.000224,0.000142,0.000092,0.000165,-0.000073,-0.000318,-0.000442,-0.000483,-0.000672,-0.000962,-0.001123,-0.001174,-0.000986,-0.000696,-0.000504,-0.000405,-0.000336,-0.000033,0.000233,0.000447,0.000663,0.000741,0.000827,0.000815,0.000823,0.000689,0.000487,0.000310,0.000170,0.000098,-0.000141,-0.000412,-0.000631,-0.000646,-0.000652,-0.000808,-0.000961,-0.001061,-0.001009,-0.000999,-0.001129,-0.001289,-0.001366,-0.001233,-0.001150,-0.001154,-0.001265,-0.001275,-0.001097,-0.000956,-0.000884,-0.000907,-0.000863,-0.000660,-0.000525,-0.000504,-0.000436,-0.000330,-0.000141,0.000055,0.000093,0.000002,0.000033,0.000224,0.000309,0.000264,0.000043,-0.000151,-0.000084,-0.000103,-0.000277,-0.000441,-0.000709,-0.000934,-0.001092,-0.001207,-0.001192,-0.001050,-0.000948,-0.001025,-0.001122,-0.001129,-0.001117,-0.001016,-0.000952,-0.000908,-0.000966,-0.001065,-0.001077,-0.001164,-0.001219,-0.001283,-0.001360,-0.001382,-0.001467,-0.001609,-0.001679,-0.001677,-0.001577,-0.001523,-0.001503,-0.001491,-0.001473,-0.001438,-0.001485,-0.001495,-0.001495,-0.001443,-0.001368,-0.001297,-0.001269,-0.001257,-0.001167,-0.001116,-0.001020,-0.000876,-0.000824,-0.000829,-0.000776,-0.000715,-0.000591,-0.000397,-0.000400,-0.000275,-0.000173,-0.000127,-0.000048,-0.000155,-0.000198,-0.000176,-0.000212,-0.000284,-0.000471,-0.000653,-0.000894,-0.001056,-0.001062,-0.001140,-0.001326,-0.001624,-0.001738,-0.001620,-0.001627,-0.001575,-0.001915,-0.002047,-0.002073,-0.002186,-0.002326,-0.002517,-0.002554,-0.002525,-0.002569,-0.002584,-0.002612,-0.002690,-0.002711,-0.002707,-0.002713,-0.002758,-0.002683,-0.002651,-0.002645,-0.002635,-0.002631,-0.002611,-0.002671,-0.002663,-0.002642,-0.002596,-0.002652,-0.002761,-0.002752,-0.002627,-0.002478,-0.002490,-0.002593,-0.002635,-0.002470,-0.002255,-0.002209,-0.002295,-0.002317,-0.002252,-0.002164,-0.002123,-0.002122,-0.002162,-0.002176,-0.002124,-0.002129,-0.002141,-0.002193,-0.002223,-0.002185,-0.002200,-0.002195,-0.002266,-0.002324,-0.002309,-0.002313,-0.002399,-0.002486,-0.002588,-0.002560,-0.002444,-0.002353,-0.002259,-0.002316,-0.002326,-0.002311,-0.002274,-0.002221,-0.002322,-0.002361,-0.002410,-0.002383,-0.002345,-0.002404,-0.002507,-0.002589,-0.002499,-0.002441,-0.002458,-0.002504,-0.002516,-0.002473,-0.002449,-0.002472,-0.002528,-0.002638,-0.002626,-0.002575,-0.002553,-0.002642,-0.002754,-0.002702,-0.002592,-0.002500,-0.002557,-0.002672,-0.002628,-0.002490,-0.002320,-0.002313,-0.002440,-0.002478,-0.002385,-0.002251,-0.002251,-0.002275,-0.002348,-0.002383,-0.002287,-0.002286,-0.002338,-0.002441,-0.002494,-0.002403,-0.002361,-0.002386,-0.002452,-0.002480,-0.002419,-0.002359,-0.002380,-0.002457,-0.002548,-0.002512,-0.002402,-0.002322,-0.002348,-0.002388,-0.002452,-0.002369,-0.002283,-0.002224,-0.002233,-0.002394,-0.002402,-0.002399,-0.002367,-0.002362,-0.002430,-0.002519,-0.002560,-0.002573,-0.002642,-0.002732,-0.002755,-0.002753,-0.002703,-0.002685,-0.002761,-0.002867,-0.002879,-0.002753,-0.002684,-0.002760,-0.002896,-0.002949,-0.002825,-0.002649,-0.002705,-0.002834,-0.002853,-0.002702,-0.002470,-0.002449,-0.002499,-0.002524,-0.002442,-0.002305,-0.002232,-0.002244,-0.002277,-0.002308,-0.002272,-0.002247,-0.002254,-0.002327,-0.002371,-0.002380,-0.002452,-0.002426,-0.002429,-0.002467,-0.002489,-0.002519,-0.002445,-0.002491,-0.002568,-0.002588,-0.002437,-0.002356,-0.002469,-0.002543,-0.002563,-0.002459,-0.002369,-0.002466,-0.002590,-0.002685,-0.002644,-0.002608,-0.002623,-0.002647,-0.002670,-0.002690,-0.002696,-0.002714,-0.002813,-0.002934,-0.002974,-0.002907,-0.002799,-0.002840,-0.002976,-0.003060,-0.002957,-0.002833,-0.002859,-0.002970,-0.003062,-0.002984,-0.002891,-0.002891,-0.002961,-0.003032,-0.002989,-0.002850,-0.002758,-0.002771,-0.002839,-0.002822,-0.002759,-0.002661,-0.002605,-0.002618,-0.002595,-0.002592,-0.002643,-0.002653,-0.002673,-0.002665,-0.002622,-0.002722,-0.002846,-0.002880,-0.002800,-0.002743,-0.002782,-0.002837,-0.002839,-0.002771,-0.002782,-0.002785,-0.002752,-0.002761,-0.002759,-0.002715,-0.002739,-0.002721,-0.002664,-0.002620,-0.002657,-0.002746,-0.002819,-0.002806,-0.002748,-0.002729,-0.002832,-0.002962,-0.002917,-0.002820,-0.002881,-0.002920,-0.002974,-0.002995,-0.002924,-0.002967,-0.003040,-0.003114,-0.003135,-0.003109,-0.003101,-0.003044,-0.003095,-0.003160,-0.003148,-0.003136,-0.003051,-0.003126,-0.003156,-0.003085,-0.003065,-0.003020,-0.003050,-0.003004,-0.002993,-0.002953,-0.002909,-0.002841,-0.002821,-0.002826,-0.002839,-0.002867,-0.002898,-0.002947,-0.002947,-0.002997,-0.003037,-0.003080,-0.003133,-0.003100,-0.003093,-0.003068,-0.003049,-0.003040,-0.003030,-0.003079,-0.003041,-0.003128,-0.003143,-0.003119,-0.003221,-0.003161,-0.003129,-0.003020,-0.003048,-0.003247,-0.003356,-0.003350,-0.003218,-0.003189,-0.003229,-0.003301,-0.003333,-0.003309,-0.003390,-0.003345,-0.003397,-0.003491,-0.003427,-0.003397,-0.003385,-0.003430,-0.003493,-0.003455,-0.003414,-0.003341,-0.003388,-0.003437,-0.003344,-0.003272,-0.003222,-0.003319,-0.003372,-0.003278,-0.003233,-0.003196,-0.003256,-0.003275,-0.003318,-0.003290,-0.003218,-0.003147,-0.003165,-0.003166,-0.003127,-0.003127,-0.003158,-0.003227,-0.003259,-0.003296,-0.003248,-0.003292,-0.003333,-0.003326,-0.003332,-0.003289,-0.003301,-0.003220,-0.003172,-0.003157,-0.003193,-0.003301,-0.003394,-0.003429,-0.003365,-0.003325,-0.003412,-0.003511,-0.003624,-0.003636,-0.003678,-0.003682,-0.003665,-0.003620,-0.003516,-0.003521,-0.003619,-0.003770,-0.003863,-0.003844,-0.003868,-0.003984,-0.003977,-0.003954,-0.003956,-0.003975,-0.004049,-0.004038,-0.003998,-0.003951,-0.003961,-0.004003,-0.003929,-0.003837,-0.003820,-0.003820,-0.003828,-0.003746,-0.003684,-0.003683,-0.003734,-0.003794,-0.003795,-0.003692,-0.003573,-0.003579,-0.003659,-0.003658,-0.003614,-0.003632,-0.003684,-0.003750,-0.003803,-0.003845,-0.003861,-0.003895,-0.003915,-0.003969,-0.004003,-0.004015,-0.003955,-0.003863,-0.003811,-0.003852,-0.004026,-0.004078,-0.004148,-0.004116,-0.004107,-0.004211,-0.004286,-0.004427,-0.004456,-0.004489,-0.004580,-0.004623,-0.004786,-0.004832,-0.004813,-0.004873,-0.004987,-0.005144,-0.005172,-0.005129,-0.005166,-0.005255,-0.005386,-0.005422,-0.005473,-0.005609,-0.005683,-0.005811,-0.005778,-0.005682,-0.005801,-0.005740,-0.005936,-0.005801,-0.005706,-0.005898,-0.005775,-0.006085,-0.005974,-0.005917,-0.006148,-0.006124,-0.006374,-0.006611,-0.006707,-0.006636,-0.006842,-0.006940,-0.006941,-0.006957,-0.006854,-0.006888,-0.006925