-0.002062,,-0.001575,-0.001202,-0.001048,-0.000864,-0.000507,-0.000745,-0.001430,-0.001971,-0.002134,-0.002108,-0.002071,-0.002001,-0.002041,-0.002078,-0.002125,-0.002177,-0.002202,-0.002191,-0.002193,-0.002243,-0.002323,-0.002371,-0.002384,-0.002365,-0.002311,-0.002275,-0.002215,-0.002150,-0.002108,-0.002081,-0.002060,-0.002034,-0.002013,-0.002003,-0.001997,-0.001998,-0.001972,-0.001949,-0.001951,-0.001981,-0.002020,-0.002060,-0.002075,-0.002035,-0.001974,-0.002000,-0.002089,-0.002119,-0.002107,-0.002131,-0.001588,-0.000977,-0.000297,-0.000162,-0.000760,-0.001440,-0.001856,-0.001904,-0.001900,-0.001963,-0.001930,-0.001856,-0.001548,-0.001071,-0.000543,-0.000061,0.000170,0.000336,0.000427,-0.000173,-0.000867,-0.001183,-0.001317,-0.001481,-0.001602,-0.001638,-0.001622,-0.001636,-0.001659,-0.001671,-0.001679,-0.001667,-0.001657,-0.001664,-0.001708,-0.001756,-0.001798,-0.001816,-0.001754,-0.001716,-0.001639,-0.001567,-0.001515,-0.001487,-0.001463,-0.001438,-0.001425,-0.001425,-0.001420,-0.001411,-0.001395,-0.001398,-0.001415,-0.001450,-0.001495,-0.001528,-0.001494,-0.001485,-0.001544,-0.001629,-0.001690,-0.001606,-0.001232,-0.000640,-0.000375,-0.000401,-0.000276,-0.000145,-0.000253,-0.000802,-0.001216,-0.001511,-0.001653,-0.001658,-0.001419,-0.001326,-0.001223,-0.000973,-0.000144,0.000705,0.000712,0.000343,0.000297,0.000205,-0.000001,-0.000500,-0.001015,-0.001044,-0.000957,-0.001016,-0.001054,-0.001051,-0.001066,-0.001082,-0.001084,-0.001057,-0.001047,-0.001041,-0.001042,-0.001111,-0.001147,-0.001169,-0.001163,-0.001101,-0.001017,-0.000932,-0.000881,-0.000856,-0.000832,-0.000805,-0.000780,-0.000758,-0.000756,-0.000756,-0.000754,-0.000770,-0.000804,-0.000839,-0.000872,-0.000904,-0.000904,-0.000919,-0.000925,-0.000903,-0.000928,-0.000977,-0.000751,-0.000149,0.000475,0.000677,0.000468,0.000158,0.000007,-0.000381,-0.000521,-0.000559,-0.000842,-0.000985,-0.000814,-0.000619,-0.000593,-0.000450,0.000651,0.001884,0.002187,0.001408,0.000623,0.000660,0.000985,0.000731,0.000003,-0.000518,-0.000581,-0.000500,-0.000490,-0.000507,-0.000531,-0.000533,-0.000508,-0.000476,-0.000471,-0.000465,-0.000451,-0.000457,-0.000489,-0.000510,-0.000519,-0.000487,-0.000362,-0.000258,-0.000208,-0.000175,-0.000141,-0.000109,-0.000071,-0.000014,0.000018,0.000019,0.000030,0.000032,0.000018,0.000000,-0.000016,-0.000011,-0.000018,-0.000008,0.000068,0.000179,0.000168,0.000009,-0.000067,0.000110,0.000977,0.001730,0.001887,0.001635,0.001339,0.001050,0.000838,0.000709,0.000317,0.000042,-0.000036,0.000297,0.000951,0.001378,0.001668,0.002057,0.002226,0.001447,0.001096,0.001647,0.001855,0.001474,0.001069,0.000633,0.000402,0.000327,0.000301,0.000277,0.000258,0.000242,0.000251,0.000261,0.000269,0.000290,0.000298,0.000336,0.000336,0.000286,0.000254,0.000259,0.000311,0.000381,0.000418,0.000444,0.000492,0.000532,0.000579,0.000647,0.000711,0.000750,0.000772,0.000781,0.000781,0.000782,0.000793,0.000814,0.000829,0.000870,0.000940,0.000981,0.000987,0.000995,0.001013,0.001012,0.001604,0.002460,0.002890,0.002871,0.002655,0.002549,0.002364,0.002061,0.001600,0.001192,0.001006,0.001378,0.002573,0.003167,0.002145,0.001065,0.001077,0.000534,0.000220,0.001083,0.002115,0.002572,0.002543,0.002007,0.001692,0.001633,0.001635,0.001605,0.001579,0.001531,0.001511,0.001486,0.001486,0.001507,0.001483,0.001491,0.001523,0.001485,0.001442,0.001435,0.001420,0.001465,0.001526,0.001559,0.001602,0.001639,0.001674,0.001721,0.001758,0.001790,0.001831,0.001853,0.001861,0.001867,0.001877,0.001897,0.001933,0.002009,0.002082,0.002094,0.002104,0.002151,0.002160,0.002052,0.002210,0.002914,0.003424,0.003627,0.003740,0.003804,0.003760,0.003397,0.002849,0.002390,0.002264,0.002529,0.003631,0.004351,0.003526,0.002269,0.001656,0.001164,0.001047,0.001753,0.002909,0.003387,0.003224,0.003207,0.003298,0.003302,0.003232,0.003184,0.003154,0.003113,0.003089,0.003056,0.003022,0.003020,0.003008,0.003011,0.003013,0.003029,0.003023,0.002971,0.002970,0.002990,0.003065,0.003127,0.003175,0.003203,0.003225,0.003243,0.003263,0.003290,0.003338,0.003382,0.003400,0.003406,0.003417,0.003444,0.003500,0.003576,0.003655,0.003722,0.003734,0.003715,0.003701,0.003723,0.003667,0.004025,0.004773,0.005309,0.005604,0.005579,0.005363,0.004990,0.004432,0.004029,0.004008,0.004203,0.004861,0.005667,0.005932,0.005202,0.004051,0.003448,0.003378,0.003377,0.004150,0.004772,0.004617,0.004554,0.004635,0.004725,0.004707,0.004684,0.004663,0.004629,0.004591,0.004560,0.004499,0.004468,0.004456,0.004471,0.004478,0.004487,0.004502,0.004484,0.004452,0.004442,0.004437,0.004466,0.004486,0.004483,0.004459,0.004431,0.004411,0.004404,0.004433,0.004461,0.004465,0.004460,0.004461,0.004475,0.004534,0.004558,0.004555,0.004604,0.004641,0.004647,0.004819,0.005255,0.005465,0.005522,0.006209,0.006482,0.006356,0.006132,0.005984,0.006178,0.005798,0.005227,0.005043,0.004918,0.005078,0.005752,0.006768,0.007283,0.006490,0.005179,0.004497,0.003743,0.004251,0.005057,0.005561,0.005638,0.005660,0.005701,0.005623,0.005598,0.005695,0.005686,0.005733,0.005626,0.005485,0.005526,0.005591,0.005490,0.005419,0.005517,0.005627,0.005632,0.005553,0.005533,0.005484,0.005515,0.005578,0.005554,0.005499,0.005532,0.005507,0.005526,0.005524,0.005433,0.005416,0.005458,0.005447,0.005487,0.005547,0.005594,0.005546,0.005541,0.005623,0.005651,0.005786,0.006153,0.006552,0.006999,0.007474,0.007679,0.007486,0.007282,0.007446,0.007566,0.007147,0.006410,0.006044,0.006522,0.007271,0.007682,0.008090,0.008661,0.008466,0.007243,0.005802,0.004534,0.004494,0.005370,0.005829,0.006196,0.006428,0.006657,0.006603,0.006565,0.006517,0.006389,0.006364,0.006505,0.006534,0.006522,0.006485,0.006493,0.006530,0.006534,0.006475,0.006489,0.006624,0.006738,0.006677,0.006525,0.006358,0.006460,0.006566,0.006558,0.006543,0.006569,0.006618,0.006642,0.006724,0.006790,0.006778,0.006781,0.006806,0.006920,0.007123,0.007175,0.007199,0.007228,0.007190,0.007086,0.007610,0.008525,0.009032,0.009164,0.009299,0.009386,0.009345,0.008933,0.008761,0.008724,0.008779,0.008915,0.008969,0.009243,0.009757,0.010145,0.010102,0.009306,0.007550,0.006360,0.005905,0.005982,0.006677,0.007082,0.007321,0.007537,0.007659,0.007623,0.007644,0.007759,0.007731,0.007529,0.007554,0.007666,0.007617,0.007604,0.007683,0.007665,0.007656,0.007924,0.008713,0.009287,0.009235,0.008662,0.008033,0.007995,0.008110,0.007974,0.007927,0.007988,0.008027,0.008088,0.008098,0.008073,0.008185,0.008434,0.008538,0.008529,0.008707,0.008777,0.008878,0.009103,0.009225,0.009278,0.009563,0.010309,0.010930,0.011291,0.011700,0.011975,0.011982,0.011723,0.011574,0.011361,0.011162,0.011271,0.011664,0.012089,0.012314,0.012324,0.012206,0.011727,0.010874,0.009473,0.008350,0.008163,0.008662,0.009576,0.009852,0.009821,0.010055,0.010070,0.009963,0.010433,0.010854,0.010705,0.010741,0.010889,0.010825,0.010723,0.010795,0.010829,0.010879,0.011186,0.011543,0.011593,0.011436,0.010910,0.010263,0.010194,0.010135,0.009864,0.009613,0.009565,0.009860,0.010343,0.010509,0.010251,0.009965,0.009828,0.009970,0.010083,0.010242,0.010374,0.010468,0.010673,0.010810,0.011226,0.011681,0.012343,0.012989,0.013320,0.013581,0.013804,0.013831,0.013880,0.013860,0.013659,0.013043,0.012825,0.013389,0.013883,0.014038,0.014249,0.014409,0.014325,0.014517,0.013449,0.011586,0.010594,0.010227,0.010140,0.010642,0.011660,0.012939,0.013665,0.013789,0.014138,0.014456,0.014435,0.014292,0.014187,0.014045,0.013954,0.014032,0.014091,0.014047,0.014053,0.013955,0.013774,0.013765,0.013716,0.013510,0.013577,0.013460,0.013150,0.013100,0.013125,0.013243,0.013458,0.013486,0.013212,0.012867,0.012549,0.012360,0.012428,0.012753,0.012969,0.012578,0.012126,0.011881,0.012363,0.013333,0.014116,0.014461,0.014380,0.014358,0.014510,0.014337,0.014131,0.014109,0.014360,0.014192,0.013652,0.013466,0.013506,0.013808,0.014586,0.014767,0.014743,0.014966,0.014732,0.013948,0.012831,0.011857,0.011048,0.011216,0.012551,0.014168,0.015316,0.015786,0.015926,0.015798,0.015660,0.015632,0.015633,0.015517,0.015358,0.015358,0.015442,0.015424,0.015325,0.015262,0.015209,0.015120,0.015022,0.014875,0.014906,0.014854,0.014738,0.014849,0.014925,0.014620,0.014255,0.014116,0.014208,0.014346,0.014363,0.014558,0.014735,0.014567,0.014278,0.014078,0.014254,0.014235,0.014057,0.014521,0.015108,0.015373,0.015317,0.015253,0.015343,0.015246,0.015036,0.014642,0.014319,0.014485,0.014581,0.014517,0.014145,0.013916,0.014566,0.015177,0.015515,0.015353,0.014633,0.014784,0.014478,0.013004,0.012233,0.012182,0.013164,0.014460,0.015464,0.015926,0.016203,0.016247,0.016259,0.016201,0.016075,0.015918,0.015734,0.015679,0.015730,0.015732,0.015679,0.015618,0.015562,0.015346,0.015114,0.014907,0.014796,0.014631,0.014379,0.014125,0.013966,0.013849,0.013681,0.013661,0.013812,0.013891,0.013794,0.013605,0.013591,0.013711,0.013586,0.013303,0.013184,0.013379,0.013808,0.014029,0.013976,0.013934,0.014054,0.014010,0.013858,0.013943,0.013985,0.013495,0.012791,0.012776,0.012805,0.012648,0.012468,0.012309,0.012590,0.012802,0.012772,0.012521,0.012276,0.012399,0.012478,0.011741,0.010131,0.008904,0.008766,0.010141,0.011559,0.012392,0.012836,0.013122,0.013245,0.013278,0.013282,0.013284,0.013333,0.013441,0.013473,0.013348,0.013220,0.013043,0.013058,0.013160,0.013343,0.013463,0.013514,0.013261,0.012680,0.012164,0.012119,0.012354,0.012373,0.012230,0.012128,0.012016,0.011933,0.011905,0.011735,0.011502,0.011298,0.011487,0.011608,0.011759,0.012007,0.012118,0.012022,0.011781,0.011817,0.011716,0.011356,0.011473,0.011530,0.010650,0.010007,0.010215,0.010064,0.009835,0.009972,0.010318,0.010566,0.010515,0.010553,0.010165,0.010001,0.010157,0.010601,0.010790,0.009632,0.007785,0.006798,0.006391,0.007580,0.009048,0.009798,0.010086,0.010249,0.010323,0.010249,0.010232,0.010145,0.010196,0.010298,0.010069,0.010108,0.010321,0.010556,0.010383,0.010332,0.010760,0.010989,0.010831,0.010600,0.010658,0.010719,0.010959,0.011177,0.011368,0.011428,0.011203,0.011032,0.011017,0.010903,0.011062,0.011330,0.011426,0.011259,0.011043,0.010819,0.010697,0.010637,0.010754,0.010834,0.010788,0.010793,0.010702,0.010575,0.009947,0.009094,0.008452,0.008637,0.009254,0.009525,0.009677,0.009818,0.009727,0.009502,0.009186,0.008890,0.008913,0.008924,0.008747,0.008589,0.008073,0.006959,0.005830,0.005489,0.006683,0.008029,0.009212,0.009889,0.009588,0.009414,0.009396,0.009262,0.009290,0.009614,0.009664,0.009807,0.010152,0.010350,0.010072,0.009907,0.010020,0.010028,0.009998,0.009824,0.009477,0.009294,0.009604,0.009875,0.009996,0.010158,0.010225,0.010330,0.010595,0.010559,0.010461,0.010514,0.010777,0.011018,0.011107,0.010927,0.010893,0.010755,0.010477,0.010557,0.010821,0.010616,0.010209,0.010241,0.009702,0.008915,0.008418,0.008894,0.009512,0.009717,0.009763,0.009703,0.009503,0.009615,0.009843,0.009230,0.008644,0.008814,0.009234,0.009553,0.009108,0.008029,0.006741,0.005969,0.006291,0.008155,0.009746,0.010502,0.010789,0.010635,0.010211,0.009723,0.009733,0.010283,0.010519,0.010348,0.010193,0.010123,0.010102,0.010301,0.010321,0.010221,0.010556,0.010897,0.010843,0.010658,0.010665,0.010607,0.010353,0.010115,0.009779,0.009582,0.009953,0.010311,0.010470,0.010402,0.010321,0.010354,0.010437,0.010404,0.010287,0.010122,0.009935,0.009993,0.010146,0.009919,0.009748,0.009927,0.009755,0.009691,0.009715,0.009770,0.009646,0.009618,0.009354,0.009170,0.009369,0.009671,0.009853,0.009628,0.009229,0.009188,0.009252,0.009065,0.008509,0.008660,0.008059,0.007022,0.006671,0.007106,0.008424,0.009698,0.010295,0.010256,0.009996,0.009548,0.009555,0.010069,0.010221,0.009853,0.009629,0.009697,0.009964,0.010270,0.010147,0.009834,0.010004,0.010201,0.009985,0.009556,0.009342,0.009303,0.009122,0.008835,0.008560,0.008800,0.008958,0.009061,0.009449,0.009832,0.009881,0.009813,0.009817,0.009843,0.009691,0.009682,0.009768,0.009709,0.009522,0.009427,0.009536,0.009655,0.009560,0.009406,0.009059,0.008709,0.008497,0.008474,0.008225,0.008128,0.008323,0.008394,0.008263,0.008076,0.007686,0.007642,0.007721,0.007353,0.007139,0.007939,0.008250,0.006999,0.005512,0.004577,0.004448,0.005968,0.007506,0.008489,0.008748,0.008653,0.008548,0.008658,0.008643,0.008585,0.008608,0.008704,0.008708,0.008689,0.008578,0.008420,0.008363,0.008248,0.008127,0.008049,0.008033,0.008128,0.008068,0.007937,0.008066,0.008821,0.009116,0.009037,0.009214,0.009414,0.009394,0.009344,0.009270,0.009115,0.009037,0.008986,0.008958,0.008895,0.008747,0.008558,0.008228,0.007852,0.007717,0.007650,0.007569,0.007595,0.007676,0.007686,0.007682,0.007694,0.007619,0.007525,0.007306,0.006891,0.006469,0.006828,0.007168,0.006540,0.006228,0.006523,0.006806,0.006222,0.004909,0.003675,0.003034,0.003096,0.004762,0.006165,0.006879,0.007190,0.007420,0.007457,0.007439,0.007486,0.007415,0.007346,0.007412,0.007405,0.007333,0.007233,0.007142,0.007161,0.007244,0.007300,0.007245,0.007162,0.007065,0.006952,0.006874,0.006944,0.007464,0.007976,0.008026,0.007735,0.007320,0.007007,0.006660,0.006331,0.006175,0.005961,0.005713,0.005561,0.005472,0.005353,0.004834,0.004166,0.003809,0.003870,0.004615,0.005303,0.005585,0.005764,0.006189,0.006398,0.006382,0.006331,0.006397,0.006507,0.006677,0.006627,0.005731,0.004520,0.004278,0.004553,0.004906,0.005263,0.004383,0.002645,0.001425,0.000963,0.001388,0.003070,0.004334,0.004984,0.005357,0.005533,0.005424,0.005225,0.005082,0.005003,0.004870,0.004642,0.004281,0.003858,0.003555,0.003544,0.003607,0.003586,0.003579,0.003554,0.003640,0.003664,0.003587,0.003440,0.003457,0.003734,0.004044,0.004230,0.004127,0.003879,0.003510,0.003302,0.003290,0.003237,0.003162,0.003165,0.003259,0.003379,0.003337,0.003126,0.002538,0.002024,0.002503,0.002971,0.003241,0.003712,0.004076,0.004412,0.004595,0.004408,0.004358,0.004260,0.004182,0.003600,0.002335,0.001358,0.001308,0.001848,0.002125,0.002106,0.002032,0.001021,-0.000097,-0.000581,-0.000833,-0.000240,0.000992,0.001843,0.002172,0.002245,0.002183,0.001976,0.001783,0.001430,0.001120,0.001037,0.001006,0.000956,0.000948,0.000969,0.000980,0.000972,0.001072,0.001104,0.001134,0.001116,0.001447,0.002166,0.002514,0.002576,0.002577,0.002515,0.002284,0.002020,0.001783,0.001702,0.001641,0.001506,0.001192,0.001073,0.001045,0.000807,0.000751,0.000981,0.000333,-0.000593,-0.000180,0.000298,0.000529,0.000925,0.001291,0.001043,0.000550,0.000653,0.001596,0.002199,0.002147,0.002276,0.002619,0.002389,0.001822,0.001596,0.001456,0.001266,0.001145,0.000955,0.000399,-0.000337,-0.000898,-0.000960,-0.000373,0.000297,0.000643,0.000852,0.000870,0.000719,0.000565,0.000700,0.000820,0.000834,0.000781,0.000681,0.000634,0.000694,0.000707,0.000814,0.001016,0.000985,0.000774,0.000715,0.000658,0.000590,0.001016,0.001538,0.001852,0.001840,0.001657,0.001517,0.001425,0.001337,0.001188,0.000949,0.000801,0.000812,0.000862,0.000872,0.000874,0.001017,0.000561,-0.000086,0.000088,0.000502,0.000742,0.000972,0.001209,0.001200,0.001112,0.001463,0.002074,0.002497,0.002576,0.002419,0.002266,0.002322,0.002164,0.001802,0.001502,0.001433,0.001535,0.001541,0.001256,0.000749,0.000314,-0.000013,0.000089,0.000701,0.001017,0.001082,0.001122,0.001383,0.001266,0.001114,0.001031,0.001003,0.000933,0.000830,0.000781,0.000774,0.000622,0.000577,0.000483,0.000503,0.000575,0.000621,0.000479,0.000355,0.000836,0.001496,0.001985,0.002141,0.002089,0.001996,0.001907,0.001791,0.001608,0.001433,0.001391,0.001235,0.000963,0.000837,0.000831,0.000874,0.000212,-0.000688,-0.000593,-0.000005,0.000368,0.000420,0.000416,0.000367,0.000166,0.000462,0.000797,0.000766,0.000771,0.000925,0.000878,0.000795,0.000489,0.000155,-0.000053,-0.000137,-0.000097,0.000141,0.000393,0.000342,-0.000027,-0.000527,-0.000878,-0.000616,-0.000010,0.000511,0.000746,0.000895,0.000776,0.000713,0.000683,0.000945,0.001192,0.001296,0.001326,0.001333,0.001377,0.001547,0.001520,0.001438,0.001418,0.001426,0.001441,0.001708,0.002426,0.002876,0.002941,0.002714,0.002500,0.002358,0.002252,0.002113,0.001856,0.001584,0.001509,0.001275,0.000936,0.000747,0.000767,0.000891,0.000137,-0.000931,-0.001003,-0.000340,0.000161,0.000171,-0.000008,-0.000207,-0.000291,0.000111,0.000597,0.000563,0.000701,0.001191,0.001410,0.001179,0.000816,0.000640,0.000630,0.000722,0.000814,0.000962,0.001173,0.001313,0.001296,0.001134,0.000561,0.000096,0.000362,0.000798,0.001132,0.001306,0.001585,0.001439,0.001415,0.001527,0.001435,0.001270,0.001358,0.001404,0.001304,0.001283,0.001247,0.001068,0.000770,0.000428,0.000392,0.000880,0.001850,0.002472,0.002596,0.002514,0.002526,0.002524,0.002385,0.002138,0.001940,0.001663,0.001279,0.000912,0.000649,0.000430,0.000347,0.000578,0.000068,-0.000870,-0.001224,-0.000847,-0.000396,-0.000311,-0.000457,-0.000594,-0.000528,-0.000255,-0.000097,-0.000054,0.000075,0.000397,0.000793,0.000979,0.001085,0.001073,0.001245,0.001513,0.001562,0.001304,0.001018,0.000876,0.000836,0.000752,0.000278,-0.000444,-0.000698,-0.000196,0.000500,0.000779,0.000804,0.000866,0.000959,0.001118,0.001097,0.000995,0.000948,0.000785,0.000703,0.000878,0.001011,0.000963,0.000748,0.000518,0.000576,0.001079,0.001687,0.002117,0.002295,0.002259,0.002244,0.002255,0.002194,0.002141,0.002108,0.001934,0.001734,0.001615,0.001538,0.001377,0.001192,0.001156,0.000918,0.000446,-0.000209,-0.000419,-0.000403,-0.000577,-0.000918,-0.000998,-0.001103,-0.001104,-0.000781,-0.000780,-0.001222,-0.001198,-0.000599,-0.000459,-0.000601,-0.000545,-0.000411,-0.000573,-0.000980,-0.001087,-0.000882,-0.000943,-0.001254,-0.001462,-0.001494,-0.001654,-0.002122,-0.001938,-0.001257,-0.000645,-0.000197,0.000706,0.001445,0.001415,0.000754,0.000271,0.000011,-0.000232,-0.000256,-0.000278,-0.000369,-0.000527,-0.000602,-0.000564,-0.000299,0.000195,0.000746,0.001299,0.001651,0.001799,0.001844,0.001844,0.001781,0.001764,0.001613,0.001406,0.001387,0.001348,0.001328,0.001341,0.001278,0.001053,0.000917,0.000858,0.000549,0.000223,-0.000071,-0.000569,-0.001181,-0.001332,-0.001290,-0.001363,-0.001066,-0.001044,-0.001528,-0.001806,-0.001727,-0.002048,-0.002549,-0.002619,-0.002295,-0.002257,-0.002451,-0.002091,-0.001302,-0.001070,-0.001178,-0.001051,-0.000889,-0.000807,-0.001313,-0.002080,-0.002189,-0.001287,-0.000442,-0.000104,0.000502,0.000024,-0.001372,-0.002043,-0.001816,-0.001463,-0.001258,-0.001635,-0.001932,-0.001936,-0.001737,-0.001730,-0.001732,-0.001627,-0.001441,-0.000955,-0.000304,0.000349,0.000922,0.001347,0.001399,0.001149,0.000851,0.000646,0.000401,0.000093,-0.000119,-0.000140,-0.000186,-0.000293,-0.000162,0.000046,0.000555,0.000720,0.000556,0.000068,-0.000517,-0.000609,-0.000396,-0.000845,-0.001241,-0.000716,-0.000104,-0.000471,-0.001294,-0.001599,-0.001715,-0.002179,-0.002259,-0.001939,-0.001717,-0.001681,-0.001595,-0.001521,-0.001430,-0.001015,-0.000996,-0.001461,-0.001563,-0.001960,-0.002404,-0.002356,-0.001055,-0.000055,-0.000424,-0.001662,-0.002914,-0.003373,-0.003476,-0.003489,-0.002934,-0.002449,-0.001942,-0.001355,-0.000826,-0.000880,-0.001180,-0.001274,-0.001482,-0.001736,-0.001915,-0.001863,-0.001288,-0.000250,0.000507,0.000626,0.000538,0.000406,0.000163,-0.000045,-0.000200,-0.000452,-0.000752,-0.000760,-0.000448,-0.000095,0.000238,0.000394,0.000182,-0.000247,-0.000451,-0.000482,-0.000582,-0.000595,-0.000600,-0.000351,-0.000050,-0.000126,-0.000526,-0.000741,-0.001226,-0.001870,-0.002015,-0.002201,-0.002157,-0.002049,-0.001980,-0.001919,-0.001956,-0.001666,-0.001482,-0.002120,-0.002536,-0.002147,-0.002408,-0.003027,-0.002957,-0.001931,-0.002140,-0.003258,-0.003381,-0.002994,-0.002490,-0.002014,-0.001973,-0.001721,-0.001270,-0.001455,-0.001112,-0.000227,-0.000416,-0.000804,-0.000691,-0.000655,-0.001013,-0.001492,-0.002095,-0.002110,-0.001483,-0.001154,-0.000718,-0.000352,-0.000288,-0.000486,-0.000914,-0.001604,-0.001969,-0.002024,-0.001450,-0.000977,-0.000576,-0.000469,-0.000562,-0.000884,-0.001249,-0.001499,-0.001961,-0.002423,-0.002687,-0.003075,-0.003357,-0.003474,-0.003504,-0.003592,-0.003651,-0.003525,-0.003475,-0.003347,-0.003247,-0.003174,-0.002893,-0.002696,-0.002588,-0.002817,-0.002434,-0.002507,-0.002584,-0.002002,-0.001542,-0.002699,-0.003906,-0.004510,-0.004901,-0.005436,-0.004988,-0.004456,-0.004177,-0.004025,-0.003921,-0.003712,-0.003262,-0.003056,-0.002479,-0.002287,-0.002532,-0.002217,-0.001943,-0.001548,-0.001445,-0.001329,-0.001624,-0.002657,-0.003403,-0.003237,-0.002774,-0.002804,-0.002962,-0.002888,-0.002843,-0.002634,-0.002405,-0.002580,-0.002947,-0.002957,-0.002526,-0.002346,-0.002365,-0.002494,-0.002751,-0.002910,-0.003145,-0.003505,-0.004015,-0.004402,-0.004445,-0.004038,-0.003557,-0.003286,-0.002809,-0.002218,-0.001959,-0.001944,-0.002171,-0.002642,-0.003005,-0.003139,-0.003016,-0.002868,-0.002401,-0.002154,-0.002239,-0.003089,-0.003813,-0.004163,-0.004846,-0.005337,-0.005646,-0.005876,-0.005549,-0.005263,-0.005256,-0.005353,-0.005173,-0.004972,-0.004838,-0.004335,-0.003653,-0.003432,-0.003641,-0.003310,-0.002639,-0.002415,-0.002545,-0.002389,-0.002398,-0.003704,-0.004978,-0.005368,-0.004818,-0.004194,-0.004298,-0.004182,-0.004045,-0.003459,-0.002894,-0.002819,-0.003420,-0.003695,-0.003644,-0.003655,-0.003805,-0.004031,-0.004401,-0.004641,-0.004486,-0.004272,-0.004345,-0.004062,-0.003786,-0.003727,-0.004056,-0.004453,-0.004433,-0.004437,-0.004176,-0.003843,-0.003633,-0.003031,-0.002607,-0.002673,-0.002993,-0.003095,-0.003454,-0.003735,-0.004510,-0.005531,-0.006211,-0.006329,-0.006390,-0.006618,-0.006503,-0.006628,-0.006904,-0.007066,-0.006798,-0.006350,-0.005812,-0.005191,-0.004937,-0.004536,-0.004115,-0.003692,-0.003079,-0.002663,-0.003223,-0.003925,-0.004410,-0.004327,-0.004576,-0.005706,-0.006219,-0.006254,-0.006344,-0.006230,-0.005765,-0.004957,-0.004693,-0.004630,-0.004659,-0.004618,-0.004793,-0.004857,-0.005097,-0.005117,-0.005086,-0.005216,-0.005523,-0.005813,-0.005837,-0.005529,-0.004436,-0.003446,-0.003030,-0.003330,-0.003997,-0.004720,-0.005059,-0.005367,-0.005403,-0.005374,-0.005947,-0.005636,-0.004959,-0.004772,-0.004329,-0.003972,-0.004100,-0.004384,-0.004691,-0.005352,-0.006021,-0.006741,-0.006747,-0.006548,-0.006606,-0.006876,-0.007502,-0.008187,-0.008250,-0.007577,-0.006373,-0.004685,-0.003368,-0.003401,-0.004111,-0.004339,-0.004534,-0.004853,-0.005032,-0.005173,-0.005191,-0.005199,-0.006036,-0.007233,-0.007118,-0.006577,-0.006895,-0.007587,-0.007631,-0.007389,-0.007328,-0.007375,-0.007301,-0.006979,-0.006644,-0.006592,-0.006703,-0.006565,-0.006410,-0.006346,-0.006269,-0.006347,-0.006356,-0.006115,-0.005720,-0.005728,-0.005322,-0.004739,-0.004428,-0.004782,-0.006047,-0.007328,-0.007820,-0.007061,-0.005808,-0.005152,-0.005514,-0.006560,-0.007019,-0.006944,-0.006974,-0.007253,-0.007235,-0.007322,-0.007271,-0.006794,-0.006668,-0.006764,-0.006570,-0.006143,-0.006226,-0.006709,-0.007003,-0.007102,-0.007367,-0.007406,-0.007209,-0.006646,-0.006513,-0.006310,-0.006722,-0.007692,-0.008096,-0.007779,-0.006992,-0.006818,-0.007501,-0.008095,-0.007817,-0.007548,-0.007782,-0.007877,-0.007795,-0.007593,-0.007241,-0.007067,-0.007145,-0.007432,-0.007678,-0.008062,-0.008273,-0.008441,-0.008562,-0.008597,-0.008514,-0.008490,-0.008635,-0.008736,-0.008740,-0.008969,-0.008829,-0.008336,-0.007936,-0.007990,-0.008573,-0.009068,-0.009362,-0.008995,-0.007484,-0.006557,-0.006347,-0.006329,-0.006549,-0.006530,-0.006238,-0.006002,-0.006194,-0.006185,-0.006497,-0.006853,-0.007210,-0.007056,-0.006566,-0.006338,-0.006897,-0.007498,-0.007670,-0.007754,-0.008028,-0.008294,-0.008498,-0.008381,-0.007629,-0.007153,-0.007757,-0.008398,-0.009181,-0.009429,-0.009068,-0.008607,-0.008682,-0.008694,-0.008460,-0.008404,-0.008669,-0.008555,-0.008230,-0.007917,-0.007698,-0.007679,-0.007697,-0.007885,-0.008243,-0.008555,-0.008864,-0.009181,-0.009259,-0.009260,-0.009462,-0.009561,-0.009281,-0.008982,-0.008986,-0.008929,-0.009081,-0.009265,-0.009670,-0.010115,-0.010262,-0.010277,-0.010056,-0.009870,-0.009064,-0.007925,-0.006854,-0.005905,-0.005891,-0.005975,-0.006373,-0.006518,-0.006179,-0.006105,-0.006354,-0.006825,-0.007736,-0.007761,-0.006889,-0.006120,-0.005811,-0.005680,-0.006143,-0.007319,-0.008155,-0.008253,-0.007983,-0.007943,-0.008271,-0.008850,-0.009476,-0.009637,-0.009714,-0.009984,-0.010204,-0.009658,-0.009245,-0.009158,-0.009038,-0.008851,-0.009073,-0.009373,-0.009319,-0.009050,-0.009044,-0.009378,-0.009722,-0.010176,-0.010357,-0.010023,-0.009961,-0.009799,-0.009909,-0.009948,-0.009800,-0.009610,-0.009352,-0.009567,-0.009561,-0.009480,-0.009474,-0.009724,-0.010152,-0.010527,-0.010687,-0.010611,-0.010542,-0.010497,-0.010279,-0.009250,-0.008075,-0.007455,-0.007426,-0.007376,-0.008303,-0.009021,-0.008363,-0.007969,-0.008435,-0.009009,-0.009716,-0.010176,-0.009746,-0.009290,-0.008377,-0.007768,-0.007248,-0.007125,-0.007592,-0.008448,-0.009363,-0.010046,-0.010543,-0.010990,-0.011376,-0.011578,-0.011687,-0.011792,-0.011787,-0.011289,-0.010837,-0.010722,-0.010906,-0.011343,-0.011845,-0.012223,-0.011910,-0.011841,-0.011491,-0.010557,-0.010519,-0.011711,-0.011635,-0.010906,-0.011041,-0.011378,-0.011347,-0.011033,-0.010759,-0.010673,-0.010857,-0.011170,-0.011303,-0.011206,-0.011536,-0.011986,-0.011841,-0.011838,-0.011842,-0.011955,-0.012028,-0.011966,-0.011621,-0.011079,-0.010219,-0.009895,-0.009730,-0.009804,-0.010227,-0.010298,-0.009538,-0.009306,-0.010225,-0.011132,-0.011486,-0.011610,-0.011646,-0.011532,-0.011109,-0.010418,-0.009398,-0.008764,-0.008298,-0.008086,-0.008040,-0.008555,-0.009639,-0.011013,-0.012141,-0.012770,-0.013170,-0.013378,-0.013264,-0.013160,-0.013267,-0.013348,-0.013373,-0.013320,-0.013015,-0.012766,-0.012910,-0.012521,-0.011476,-0.010966,-0.010904,-0.010829,-0.011142,-0.011757,-0.012592,-0.013470,-0.013666,-0.013250,-0.012930,-0.012893,-0.013020,-0.012973,-0.013081,-0.013734,-0.014536,-0.014742,-0.014751,-0.014740,-0.015061,-0.015420,-0.015362,-0.014699,-0.014420,-0.013950,-0.014017,-0.013928,-0.013731,-0.013311,-0.012753,-0.011681,-0.011593,-0.012262,-0.012910,-0.013430,-0.013806,-0.013888,-0.013750,-0.013626,-0.013402,-0.012986,-0.012658,-0.012581,-0.011908,-0.011185,-0.010341,-0.009805,-0.009672,-0.009979,-0.010456,-0.010957,-0.011483,-0.012050,-0.012497,-0.012798,-0.012667,-0.012338,-0.012536,-0.012883,-0.012490,-0.012275,-0.011327,-0.010234,-0.010427,-0.011491,-0.011363,-0.009993,-0.010071,-0.011319,-0.011820,-0.012374,-0.012637,-0.012592,-0.012784,-0.013051,-0.012896,-0.012949,-0.013718,-0.014483,-0.015019,-0.015292,-0.015125,-0.014876,-0.014636,-0.013774,-0.012464,-0.011238,-0.010720,-0.010672,-0.011686,-0.013175,-0.013858,-0.013715,-0.012646,-0.012170,-0.012917,-0.012919,-0.012245,-0.012413,-0.013126,-0.013587,-0.013767,-0.013880,-0.013872,-0.013904,-0.013907,-0.013921,-0.013861,-0.013574,-0.012853,-0.012203,-0.011834,-0.011730,-0.011692,-0.011575,-0.011201,-0.010775,-0.010550,-0.010496,-0.010499,-0.010543,-0.010631,-0.010352,-0.009888,-0.009560,-0.009013,-0.009828,-0.010427,-0.010448,-0.010737,-0.009789,-0.009278,-0.009798,-0.009919,-0.009896,-0.009780,-0.009673,-0.009868,-0.010000,-0.009751,-0.010428,-0.011803,-0.012561,-0.013033,-0.013415,-0.013333,-0.012605,-0.010906,-0.009594,-0.009545,-0.010221,-0.010241,-0.009463,-0.008490,-0.009205,-0.010519,-0.011663,-0.011548,-0.011262,-0.011329,-0.010767,-0.009961,-0.010039,-0.010984,-0.011952,-0.012546,-0.012736,-0.012899,-0.012734,-0.012074,-0.011491,-0.011528,-0.011519,-0.011864,-0.012242,-0.012471,-0.012499,-0.012396,-0.012233,-0.012003,-0.011684,-0.011021,-0.010222,-0.009703,-0.009540,-0.009245,-0.008671,-0.008531,-0.008282,-0.008840,-0.009242,-0.009127,-0.008328,-0.008754,-0.009490,-0.009635,-0.009429,-0.008994,-0.008790,-0.008605,-0.008175,-0.007880,-0.007756,-0.007837,-0.008854,-0.010263,-0.011105,-0.011503,-0.011699,-0.011430,-0.009980,-0.009414,-0.010367,-0.010799,-0.010651,-0.010451,-0.009176,-0.007336,-0.006240,-0.007086,-0.009147,-0.009442,-0.009468,-0.009892,-0.009742,-0.008860,-0.008567,-0.009223,-0.009965,-0.010526,-0.010895,-0.011003,-0.010306,-0.009770,-0.009449,-0.009163,-0.009329,-0.010067,-0.010704,-0.011077,-0.011300,-0.011343,-0.011243,-0.011104,-0.010971,-0.010843,-0.010218,-0.009230,-0.008414,-0.007829,-0.007599,-0.007815,-0.007775,-0.007775,-0.007409,-0.007222,-0.006793,-0.006424,-0.007110,-0.007244,-0.006658,-0.005882,-0.005679,-0.005628,-0.005403,-0.005385,-0.005672,-0.006223,-0.007248,-0.008753,-0.009822,-0.010213,-0.010307,-0.009135,-0.008021,-0.008341,-0.008309,-0.007531,-0.006639,-0.006243,-0.007137,-0.007206,-0.006136,-0.005765,-0.007432,-0.008295,-0.009123,-0.009412,-0.009457,-0.009697,-0.009535,-0.008771,-0.008677,-0.009296,-0.009743,-0.009548,-0.008842,-0.008880,-0.008759,-0.008582,-0.009267,-0.010175,-0.010551,-0.010593,-0.010575,-0.010524,-0.010461,-0.010341,-0.010166,-0.009988,-0.009494,-0.008717,-0.008065,-0.007445,-0.006993,-0.006262,-0.006052,-0.006412,-0.006782,-0.007247,-0.006936,-0.005854,-0.005738,-0.005744,-0.005301,-0.005359,-0.005351,-0.004982,-0.004889,-0.005253,-0.005632,-0.006061,-0.006746,-0.007661,-0.008705,-0.009098,-0.008547,-0.007463,-0.007653,-0.007428,-0.006732,-0.006191,-0.006558,-0.006273,-0.006430,-0.007584,-0.007138,-0.005613,-0.006123,-0.007049,-0.008647,-0.009575,-0.009687,-0.009640,-0.009573,-0.009034,-0.008901,-0.009177,-0.008910,-0.008223,-0.007857,-0.007730,-0.007060,-0.007306,-0.008343,-0.008991,-0.009294,-0.009503,-0.009486,-0.009310,-0.009143,-0.009005,-0.008946,-0.008893,-0.008262,-0.007198,-0.006469,-0.006199,-0.006128,-0.004923,-0.004367,-0.004342,-0.004587,-0.005071,-0.005811,-0.006165,-0.006987,-0.007601,-0.007132,-0.006184,-0.006065,-0.006038,-0.005335,-0.004773,-0.004694,-0.004518,-0.004590,-0.005458,-0.006753,-0.007763,-0.006786,-0.005578,-0.005633,-0.005675,-0.005788,-0.006431,-0.006860,-0.006747,-0.006510,-0.007299,-0.006967,-0.005603,-0.005337,-0.006387,-0.007248,-0.007732,-0.007875,-0.007497,-0.007289,-0.007361,-0.007674,-0.007595,-0.006624,-0.005794,-0.005447,-0.005166,-0.005148,-0.005867,-0.006500,-0.006764,-0.006859,-0.006870,-0.006583,-0.006413,-0.006401,-0.006335,-0.005770,-0.005200,-0.004816,-0.004288,-0.004006,-0.003718,-0.003237,-0.002239,-0.002671,-0.003392,-0.003308,-0.003261,-0.003839,-0.004481,-0.005368,-0.006174,-0.006572,-0.006089,-0.005380,-0.004310,-0.003444,-0.003256,-0.003496,-0.003530,-0.003285,-0.004346,-0.005561,-0.005983,-0.004503,-0.004116,-0.004646,-0.004926,-0.005081,-0.005962,-0.006504,-0.005615,-0.004412,-0.005248,-0.005491,-0.003880,-0.002477,-0.003362,-0.004549,-0.004805,-0.004646,-0.004520,-0.004453,-0.004506,-0.004825,-0.004916,-0.004339,-0.003623,-0.003020,-0.002759,-0.003107,-0.003661,-0.004295,-0.004652,-0.004673,-0.004587,-0.004442,-0.004263,-0.003970,-0.003762,-0.003460,-0.002849,-0.002518,-0.002203,-0.001928,-0.001445,-0.000825,-0.000311,-0.000665,-0.001827,-0.002380,-0.002315,-0.002631,-0.003564,-0.004136,-0.003042,-0.001900,-0.002036,-0.002593,-0.002331,-0.001820,-0.001448,-0.001393,-0.001777,-0.002007,-0.002350,-0.002631,-0.002286,-0.001427,-0.002461,-0.003245,-0.002754,-0.002207,-0.002059,-0.002101,-0.002155,-0.002073,-0.003406,-0.003600,-0.001979,-0.000847,-0.001528,-0.002146,-0.001904,-0.001590,-0.001377,-0.001363,-0.001652,-0.001745,-0.001944,-0.001959,-0.001689,-0.001869,-0.001940,-0.001812,-0.001907,-0.002058,-0.001718,-0.001495,-0.001439,-0.001124,-0.000791,-0.000765,-0.000667,-0.000231,0.000106,0.000199,0.000399,0.000404,0.000319,0.000366,0.000596,0.000435,-0.000935,-0.001968,-0.001931,-0.002210,-0.002982,-0.002560,-0.000841,0.000470,0.000624,0.000521,0.000886,0.001180,0.001204,0.000873,0.000216,-0.000032,0.000204,0.000521,0.000995,0.001308,0.000169,-0.000433,-0.000196,-0.000080,-0.000109,-0.000798,-0.001412,-0.001903,-0.002732,-0.001712,-0.000019,0.000285,-0.000432,-0.000678,-0.000474,-0.000253,0.000055,0.000095,-0.000295,-0.000398,-0.000089,-0.000118,-0.000004,0.000128,0.000547,0.000878,0.000901,0.001183,0.001413,0.001539,0.001528,0.001546,0.001625,0.001749,0.001656,0.001503,0.001269,0.001260,0.001525,0.001638,0.001528,0.001543,0.001638,0.001691,0.001017,-0.000442,-0.001782,-0.002475,-0.001875,-0.000293,0.000936,0.001460,0.001791,0.002105,0.002544,0.002900,0.003097,0.003114,0.002491,0.002070,0.001843,0.002100,0.002266,0.002578,0.001940,0.000473,-0.000095,0.000372,0.000697,0.000490,-0.000635,-0.001975,-0.002002,-0.000494,0.000848,0.001084,0.000728,0.000818,0.001276,0.001734,0.001655,0.001361,0.001371,0.001485,0.001759,0.001919,0.001966,0.002443,0.002566,0.002442,0.002737,0.002769,0.002593,0.002478,0.002324,0.002088,0.002097,0.002209,0.002178,0.002035,0.001975,0.002018,0.002061,0.002072,0.002087,0.002332,0.002564,0.002564,0.002141,0.001559,0.000893,0.000439,0.000729,0.001056,0.001304,0.001491,0.002283,0.002951,0.003349,0.003392,0.003230,0.002949,0.002426,0.001973,0.001991,0.002240,0.002312,0.002472,0.002174,0.000308,-0.001375,-0.000741,-0.000194,-0.000912,-0.002229,-0.003279,-0.002200,-0.000301,0.000756,0.000837,0.000700,0.001011,0.001309,0.001649,0.001858,0.001982,0.002096,0.002083,0.002014,0.002199,0.002216,0.002196,0.001912,0.001916,0.002097,0.001644,0.001513,0.001350,0.001050,0.000787,0.000828,0.000760,0.000606,0.000587,0.000701,0.000573,0.000294,0.000160,-0.000018,-0.000152,-0.000051,-0.000250,-0.000966,-0.001222,-0.001182,-0.001206,-0.001370,-0.001527,-0.000884,-0.000061,0.000981,0.001646,0.001918,0.001748,0.001305,0.000856,0.000609,0.000566,0.000620,0.000552,0.000510,0.000502,0.000651,0.000288,-0.001537,-0.002763,-0.003436,-0.004008,-0.004471,-0.003849,-0.002119,-0.000971,-0.000715,-0.000880,-0.000487,0.000032,0.000035,0.000069,0.000752,0.001608,0.001741,0.001363,0.001326,0.001065,0.000756,0.000518,0.000419,0.000364,-0.000056,-0.000413,-0.000899,-0.001167,-0.001303,-0.001592,-0.001687,-0.001553,-0.001486,-0.001631,-0.001675,-0.001703,-0.001737,-0.001504,-0.001544,-0.001770,-0.001980,-0.001965,-0.001787,-0.001742,-0.002060,-0.002262,-0.002300,-0.002309,-0.001598,-0.000582,0.000051,0.000119,-0.000154,-0.000384,-0.000399,-0.000323,-0.000195,-0.000068,-0.000175,-0.000457,-0.000410,-0.000141,0.000074,0.000570,0.000242,-0.001164,-0.002297,-0.003188,-0.003078,-0.001856,-0.001533,-0.002038,-0.002280,-0.002209,-0.002028,-0.001748,-0.001401,-0.001284,-0.001467,-0.001314,-0.001358,-0.001668,-0.001790,-0.001920,-0.001646,-0.001154,-0.000872,-0.000909,-0.000990,-0.001371,-0.001975,-0.002315,-0.002253,-0.002061,-0.001660,-0.001415,-0.001307,-0.001212,-0.001172,-0.001129,-0.001211,-0.001143,-0.001321,-0.001500,-0.001535,-0.001674,-0.001775,-0.001931,-0.002150,-0.002212,-0.002066,-0.002022,-0.001416,-0.000383,-0.000127,-0.000442,-0.000695,-0.000600,-0.000339,-0.000273,-0.000548,-0.000672,-0.000837,-0.001232,-0.000992,-0.000924,-0.000823,-0.000347,-0.000045,-0.000181,-0.000737,-0.001212,-0.001551,-0.001954,-0.002701,-0.003544,-0.004065,-0.004077,-0.003693,-0.002979,-0.002660,-0.002768,-0.003324,-0.003726,-0.003350,-0.003259,-0.003434,-0.003727,-0.003293,-0.002617,-0.002654,-0.002691,-0.002363,-0.002695,-0.002919,-0.002918,-0.003129,-0.003167,-0.002791,-0.002301,-0.002209,-0.002259,-0.002391,-0.002202,-0.002235,-0.002551,-0.002942,-0.003150,-0.003188,-0.003313,-0.003154,-0.003121,-0.003257,-0.003491,-0.003609,-0.003564,-0.002946,-0.002277,-0.002287,-0.002759,-0.002720,-0.002155,-0.001822,-0.001915,-0.002131,-0.002320,-0.002368,-0.002506,-0.002675,-0.002798,-0.002760,-0.002692,-0.002536,-0.002597,-0.002274,-0.002069,-0.002169,-0.002307,-0.002822,-0.003468,-0.003735,-0.003528,-0.003189,-0.002886,-0.002912,-0.002882,-0.003008,-0.002986,-0.002822,-0.002855,-0.002722,-0.002934,-0.002914,-0.002629,-0.002844,-0.002807,-0.002762,-0.002810,-0.002976,-0.002821,-0.002703,-0.002690,-0.002708,-0.002362,-0.002161,-0.002318,-0.002664,-0.002728,-0.002861,-0.003015,-0.003147,-0.003311,-0.003367,-0.003390,-0.003235,-0.003134,-0.003256,-0.003426,-0.003256,-0.002726,-0.002565,-0.002802,-0.003100,-0.003488,-0.003269,-0.002470,-0.002006,-0.002133,-0.002299,-0.002303,-0.002256,-0.002255,-0.002566,-0.002863,-0.003028,-0.003160,-0.002776,-0.002514,-0.002413,-0.002411,-0.002374,-0.002379,-0.002590,-0.003107,-0.003373,-0.003689,-0.003825,-0.003795,-0.003974,-0.004185,-0.004194,-0.003560,-0.002976,-0.002699,-0.002771,-0.002880,-0.003326,-0.003048,-0.002785,-0.002735,-0.002565,-0.002492,-0.002537,-0.002609,-0.002690,-0.002826,-0.003051,-0.003045,-0.003067,-0.003358,-0.003491,-0.003471,-0.003444,-0.003289,-0.003137,-0.003384,-0.003673,-0.003783,-0.003843,-0.003634,-0.003546,-0.003802,-0.004115,-0.003864,-0.003320,-0.002690,-0.002904,-0.003229,-0.003102,-0.002517,-0.002024,-0.002068,-0.002420,-0.002328,-0.002234,-0.002206,-0.002208,-0.002543,-0.002912,-0.002896,-0.002875,-0.003056,-0.003316,-0.003179,-0.003035,-0.002837,-0.003284,-0.003370,-0.003345,-0.003601,-0.003849,-0.003622,-0.003523,-0.003640,-0.003602,-0.003085,-0.002708,-0.002714,-0.003367,-0.003676,-0.003516,-0.003141,-0.002872,-0.002865,-0.002745,-0.002591,-0.002538,-0.002597,-0.002761,-0.003001,-0.003157,-0.003125,-0.003132,-0.003244,-0.003450,-0.003637,-0.003632,-0.003375,-0.003089,-0.003326,-0.003802,-0.004054,-0.003717,-0.003459,-0.003585,-0.003763,-0.003828,-0.003776,-0.003505,-0.003472,-0.003602,-0.003688,-0.003458,-0.002962,-0.002466,-0.002418,-0.002722,-0.002711,-0.002654,-0.002590,-0.002471,-0.002771,-0.003212,-0.003281,-0.003574,-0.003916,-0.003870,-0.003527,-0.002884,-0.002812,-0.003120,-0.003229,-0.003286,-0.003925,-0.004399,-0.004485,-0.004530,-0.004479,-0.004021,-0.003637,-0.003253,-0.003088,-0.003094,-0.003028,-0.002760,-0.002545,-0.002243,-0.001989,-0.001850,-0.002358,-0.002925,-0.002912,-0.002934,-0.003404,-0.003593,-0.003387,-0.003196,-0.003019,-0.003290,-0.003679,-0.003780,-0.003647,-0.003365,-0.003423,-0.003754,-0.003985,-0.004075,-0.003938,-0.003638,-0.003409,-0.003547,-0.004050,-0.003953,-0.004103,-0.004093,-0.004232,-0.004039,-0.003670,-0.003379,-0.003130,-0.002826,-0.002657,-0.002674,-0.002622,-0.002778,-0.003020,-0.003323,-0.003617,-0.004013,-0.004308,-0.004379,-0.004240,-0.003859,-0.003587,-0.003632,-0.003403,-0.003555,-0.004121,-0.004685,-0.004993,-0.005213,-0.005268,-0.004635,-0.003854,-0.003055,-0.002916,-0.003319,-0.003574,-0.003888,-0.003729,-0.003197,-0.002546,-0.002248,-0.003176,-0.003919,-0.003982,-0.004079,-0.004483,-0.004332,-0.004040,-0.003835,-0.003487,-0.003478,-0.003777,-0.003899,-0.003965,-0.003772,-0.003710,-0.003738,-0.003768,-0.003866,-0.003849,-0.003615,-0.003523,-0.003540,-0.003738,-0.003347,-0.003495,-0.003952,-0.004414,-0.004405,-0.004247,-0.004040,-0.003582,-0.003088,-0.002953,-0.002999,-0.002850,-0.003112,-0.003330,-0.003509,-0.003753,-0.004087,-0.004405,-0.004645,-0.004910,-0.004775,-0.004586,-0.003951,-0.003452,-0.003125,-0.003328,-0.004166,-0.004719,-0.004683,-0.004622,-0.004268,-0.003634,-0.003255,-0.003685,-0.004310,-0.004579,-0.004247,-0.003975,-0.003822,-0.003477,-0.003467,-0.003799,-0.004291,-0.004596,-0.004830,-0.004872,-0.004386,-0.004026,-0.003883,-0.003624,-0.003623,-0.003992,-0.004209,-0.004437,-0.004328,-0.004297,-0.004242,-0.004189,-0.004307,-0.004371,-0.004144,-0.004070,-0.003968,-0.004017,-0.003956,-0.004126,-0.004637,-0.004751,-0.004471,-0.004220,-0.003824,-0.003354,-0.003409,-0.003767,-0.003842,-0.003537,-0.003605,-0.003848,-0.004080,-0.004172,-0.004378,-0.004770,-0.005345,-0.005762,-0.005752,-0.005279,-0.004366,-0.003891,-0.003736,-0.004164,-0.004975,-0.005580,-0.005402,-0.005203,-0.005247,-0.005106,-0.004954,-0.004964,-0.004990,-0.004879,-0.004718,-0.004907,-0.005011,-0.005340,-0.005489,-0.005615,-0.005814,-0.005824,-0.005612,-0.005543,-0.005362,-0.005292,-0.005397,-0.005592,-0.005709,-0.006066,-0.006230,-0.006411,-0.006236,-0.006255,-0.006326,-0.006383,-0.006497,-0.006576,-0.006307,-0.006141,-0.005850,-0.005737,-0.007095,-0.006424,-0.005062,-0.006839,-0.008348,-0.008956