-0.001914,,-0.001780,-0.001739,-0.001659,-0.001575,-0.001550,-0.001651,-0.001637,-0.001675,-0.001687,-0.001814,-0.001975,-0.001990,-0.002005,-0.001990,-0.001983,-0.001978,-0.001965,-0.001938,-0.001912,-0.001921,-0.001938,-0.001957,-0.001972,-0.001957,-0.001907,-0.001853,-0.001815,-0.001798,-0.001779,-0.001764,-0.001725,-0.001700,-0.001700,-0.001696,-0.001700,-0.001674,-0.001668,-0.001679,-0.001672,-0.001679,-0.001615,-0.001616,-0.001648,-0.001635,-0.001618,-0.001467,-0.001464,-0.001502,-0.001513,-0.001503,-0.001306,-0.001269,-0.001269,-0.001280,-0.001261,-0.001076,-0.001127,-0.001164,-0.001351,-0.001443,-0.001386,-0.001350,-0.001278,-0.001245,-0.001204,-0.001078,-0.000969,-0.000988,-0.001045,-0.001078,-0.001044,-0.001099,-0.001254,-0.001442,-0.001574,-0.001579,-0.001580,-0.001609,-0.001628,-0.001592,-0.001556,-0.001510,-0.001465,-0.001437,-0.001447,-0.001464,-0.001480,-0.001499,-0.001451,-0.001424,-0.001376,-0.001330,-0.001306,-0.001295,-0.001287,-0.001256,-0.001222,-0.001231,-0.001249,-0.001258,-0.001233,-0.001186,-0.001197,-0.001232,-0.001248,-0.001198,-0.001102,-0.001103,-0.001135,-0.001154,-0.001067,-0.000925,-0.000930,-0.000956,-0.000988,-0.000885,-0.000700,-0.000663,-0.000731,-0.000912,-0.000948,-0.000846,-0.000854,-0.000960,-0.001155,-0.001169,-0.000967,-0.000744,-0.000723,-0.000814,-0.000810,-0.000694,-0.000539,-0.000566,-0.000730,-0.000842,-0.000903,-0.000938,-0.001054,-0.001166,-0.001188,-0.001145,-0.001110,-0.001113,-0.001092,-0.001037,-0.000977,-0.000921,-0.000896,-0.000942,-0.000958,-0.000973,-0.000959,-0.000917,-0.000893,-0.000844,-0.000803,-0.000773,-0.000773,-0.000775,-0.000743,-0.000716,-0.000710,-0.000748,-0.000771,-0.000731,-0.000694,-0.000688,-0.000750,-0.000786,-0.000705,-0.000603,-0.000531,-0.000584,-0.000610,-0.000504,-0.000400,-0.000297,-0.000369,-0.000401,-0.000273,-0.000157,-0.000078,-0.000270,-0.000450,-0.000424,-0.000351,-0.000284,-0.000505,-0.000588,-0.000450,-0.000170,0.000037,-0.000151,-0.000310,-0.000169,0.000128,0.000228,-0.000111,-0.000425,-0.000544,-0.000445,-0.000435,-0.000564,-0.000714,-0.000733,-0.000687,-0.000643,-0.000606,-0.000556,-0.000496,-0.000434,-0.000382,-0.000385,-0.000419,-0.000426,-0.000425,-0.000404,-0.000345,-0.000306,-0.000259,-0.000215,-0.000189,-0.000195,-0.000194,-0.000136,-0.000099,-0.000102,-0.000121,-0.000116,-0.000042,0.000008,0.000009,-0.000049,-0.000046,0.000113,0.000243,0.000302,0.000229,0.000208,0.000349,0.000503,0.000586,0.000507,0.000491,0.000602,0.000765,0.000871,0.000704,0.000576,0.000502,0.000521,0.000503,0.000443,0.000405,0.000494,0.000676,0.000727,0.000729,0.000670,0.000643,0.000708,0.000578,0.000423,0.000404,0.000404,0.000265,0.000132,0.000028,-0.000019,-0.000009,0.000010,0.000045,0.000074,0.000119,0.000178,0.000232,0.000283,0.000283,0.000250,0.000231,0.000231,0.000237,0.000245,0.000273,0.000321,0.000379,0.000397,0.000395,0.000447,0.000509,0.000560,0.000570,0.000555,0.000602,0.000672,0.000745,0.000740,0.000701,0.000796,0.000928,0.001069,0.001064,0.000996,0.001091,0.001258,0.001458,0.001460,0.001386,0.001436,0.001605,0.001873,0.001786,0.001532,0.001352,0.001346,0.001475,0.001386,0.001161,0.001109,0.001265,0.001460,0.001520,0.001228,0.000928,0.001095,0.001306,0.001329,0.001378,0.001470,0.001431,0.001335,0.001193,0.001097,0.001086,0.001110,0.001123,0.001122,0.001151,0.001201,0.001227,0.001267,0.001302,0.001287,0.001257,0.001245,0.001207,0.001200,0.001239,0.001280,0.001341,0.001385,0.001396,0.001431,0.001468,0.001517,0.001555,0.001554,0.001576,0.001625,0.001693,0.001737,0.001713,0.001746,0.001848,0.001963,0.002032,0.001990,0.002027,0.002153,0.002297,0.002375,0.002339,0.002367,0.002478,0.002687,0.002733,0.002581,0.002470,0.002364,0.002441,0.002419,0.002297,0.002246,0.002197,0.002332,0.002484,0.002441,0.002155,0.002025,0.002191,0.002365,0.002579,0.002784,0.002741,0.002597,0.002458,0.002424,0.002458,0.002451,0.002465,0.002465,0.002464,0.002500,0.002531,0.002570,0.002594,0.002614,0.002618,0.002574,0.002546,0.002528,0.002559,0.002607,0.002665,0.002719,0.002759,0.002784,0.002807,0.002844,0.002885,0.002928,0.002947,0.002978,0.003033,0.003089,0.003136,0.003145,0.003204,0.003302,0.003399,0.003470,0.003462,0.003521,0.003619,0.003715,0.003798,0.003824,0.003884,0.004003,0.004110,0.004131,0.004074,0.003950,0.003885,0.003835,0.003820,0.003852,0.003820,0.003885,0.003942,0.004097,0.003951,0.003618,0.003632,0.003792,0.003988,0.004115,0.004088,0.003927,0.003748,0.003701,0.003744,0.003782,0.003785,0.003792,0.003781,0.003802,0.003843,0.003861,0.003878,0.003882,0.003907,0.003930,0.003868,0.003814,0.003750,0.003756,0.003826,0.003856,0.003873,0.003856,0.003844,0.003900,0.003916,0.003948,0.003937,0.003939,0.004036,0.004074,0.004142,0.004122,0.004134,0.004298,0.004362,0.004480,0.004423,0.004474,0.004715,0.004767,0.004875,0.004798,0.004826,0.005037,0.005055,0.005032,0.004757,0.004670,0.004822,0.004818,0.004714,0.004522,0.004468,0.004738,0.004918,0.004966,0.004841,0.004495,0.004510,0.004596,0.004739,0.004812,0.004741,0.004817,0.004676,0.004687,0.004671,0.004628,0.004685,0.004724,0.004769,0.004766,0.004738,0.004775,0.004807,0.004847,0.004866,0.004889,0.004891,0.004857,0.004810,0.004731,0.004745,0.004801,0.004812,0.004820,0.004840,0.004843,0.004884,0.004867,0.004888,0.004898,0.004957,0.005010,0.004997,0.005045,0.005118,0.005226,0.005324,0.005310,0.005352,0.005465,0.005662,0.005800,0.005778,0.005794,0.005901,0.006093,0.006225,0.006080,0.005892,0.005751,0.005846,0.005963,0.005871,0.005755,0.005597,0.005767,0.005949,0.005979,0.005954,0.005579,0.005314,0.005202,0.005263,0.005484,0.005546,0.005653,0.005478,0.005440,0.005472,0.005515,0.005538,0.005528,0.005539,0.005601,0.005655,0.005714,0.005706,0.005688,0.005757,0.005803,0.005847,0.005802,0.005732,0.005721,0.005691,0.005747,0.005765,0.005780,0.005835,0.005822,0.005902,0.005935,0.006003,0.006067,0.006066,0.006120,0.006163,0.006292,0.006430,0.006470,0.006535,0.006578,0.006759,0.006919,0.006950,0.007051,0.007106,0.007304,0.007463,0.007497,0.007571,0.007604,0.007641,0.007533,0.007269,0.007273,0.007368,0.007442,0.007324,0.007063,0.007054,0.007227,0.007268,0.007059,0.006545,0.006239,0.006226,0.006490,0.006640,0.006677,0.006617,0.006521,0.006574,0.006636,0.006655,0.006641,0.006674,0.006830,0.006931,0.006979,0.006932,0.006930,0.007094,0.007244,0.007354,0.007265,0.007192,0.007311,0.007357,0.007344,0.007225,0.007128,0.007181,0.007230,0.007277,0.007269,0.007319,0.007465,0.007523,0.007596,0.007659,0.007750,0.007966,0.008085,0.008186,0.008268,0.008407,0.008645,0.008777,0.008946,0.009053,0.009227,0.009475,0.009609,0.009707,0.009704,0.009769,0.009771,0.009626,0.009505,0.009455,0.009556,0.009527,0.009391,0.009289,0.009272,0.009318,0.009196,0.008936,0.008584,0.008332,0.008476,0.008725,0.008893,0.008978,0.009011,0.008943,0.008976,0.009041,0.009075,0.009156,0.009315,0.009427,0.009417,0.009364,0.009391,0.009458,0.009537,0.009540,0.009373,0.009283,0.009320,0.009323,0.009212,0.008958,0.008778,0.008798,0.008924,0.008982,0.008920,0.008883,0.008986,0.009166,0.009266,0.009328,0.009296,0.009432,0.009592,0.009716,0.009909,0.010011,0.010276,0.010494,0.010673,0.010852,0.010971,0.011221,0.011395,0.011532,0.011528,0.011516,0.011544,0.011509,0.011420,0.011319,0.011339,0.011392,0.011413,0.011341,0.011177,0.011254,0.011399,0.011346,0.011062,0.010684,0.010538,0.010746,0.011056,0.011260,0.011378,0.011495,0.011696,0.011834,0.011949,0.011979,0.012045,0.012080,0.012000,0.011959,0.011941,0.011949,0.011946,0.011894,0.011828,0.011813,0.011825,0.011731,0.011591,0.011459,0.011353,0.011340,0.011329,0.011305,0.011286,0.011316,0.011278,0.011207,0.011105,0.011160,0.011216,0.011218,0.011165,0.011048,0.011204,0.011411,0.011534,0.011542,0.011447,0.011652,0.011877,0.012078,0.012128,0.012027,0.012044,0.012077,0.012088,0.012054,0.011901,0.011869,0.011890,0.011985,0.012114,0.012044,0.011895,0.011873,0.012153,0.012385,0.012298,0.012076,0.011755,0.011718,0.012050,0.012364,0.012533,0.012732,0.012898,0.013021,0.013151,0.013160,0.013134,0.013131,0.013080,0.013065,0.013034,0.013011,0.013009,0.012970,0.012947,0.012930,0.012909,0.012853,0.012726,0.012604,0.012525,0.012439,0.012478,0.012446,0.012398,0.012401,0.012351,0.012396,0.012313,0.012275,0.012315,0.012350,0.012525,0.012428,0.012354,0.012362,0.012403,0.012577,0.012450,0.012397,0.012503,0.012672,0.012881,0.012615,0.012418,0.012449,0.012531,0.012729,0.012473,0.012224,0.012194,0.012285,0.012691,0.012613,0.012441,0.012319,0.012350,0.012747,0.012766,0.012630,0.012425,0.012255,0.012321,0.012454,0.012792,0.013065,0.013280,0.013303,0.013304,0.013257,0.013225,0.013218,0.013182,0.013143,0.013079,0.013036,0.012950,0.012870,0.012804,0.012726,0.012663,0.012580,0.012443,0.012257,0.012089,0.011933,0.011771,0.011767,0.011747,0.011737,0.011655,0.011563,0.011577,0.011634,0.011675,0.011619,0.011525,0.011517,0.011519,0.011557,0.011522,0.011479,0.011449,0.011397,0.011485,0.011508,0.011486,0.011324,0.011112,0.011120,0.011073,0.011085,0.010904,0.010634,0.010544,0.010495,0.010639,0.010578,0.010480,0.010352,0.010243,0.010278,0.010347,0.010307,0.010186,0.010047,0.009941,0.009920,0.010040,0.010369,0.010690,0.010948,0.011020,0.011014,0.011045,0.011109,0.011109,0.011144,0.011171,0.011200,0.011148,0.011026,0.010981,0.010977,0.011026,0.010998,0.010865,0.010741,0.010638,0.010623,0.010474,0.010297,0.010145,0.010083,0.010143,0.010126,0.010056,0.009968,0.009919,0.009920,0.009823,0.009767,0.009701,0.009686,0.009747,0.009695,0.009610,0.009506,0.009541,0.009537,0.009413,0.009135,0.009011,0.009017,0.008994,0.008931,0.008691,0.008611,0.008569,0.008641,0.008641,0.008463,0.008671,0.008643,0.008595,0.008407,0.008210,0.008381,0.008342,0.008284,0.008108,0.007788,0.007779,0.007892,0.008179,0.008347,0.008550,0.008630,0.008567,0.008601,0.008566,0.008541,0.008621,0.008693,0.008811,0.008759,0.008783,0.008840,0.008955,0.009080,0.009021,0.009046,0.009062,0.009165,0.009127,0.009030,0.009059,0.009116,0.009218,0.009193,0.009161,0.009118,0.009124,0.009107,0.009051,0.008934,0.008874,0.008884,0.008923,0.008878,0.008657,0.008482,0.008434,0.008456,0.008476,0.008271,0.008118,0.008021,0.008022,0.007951,0.007682,0.007590,0.007604,0.007647,0.007630,0.007481,0.007574,0.007812,0.007763,0.007388,0.006945,0.006972,0.007343,0.007426,0.007187,0.006712,0.006603,0.006892,0.007245,0.007441,0.007506,0.007636,0.007769,0.007921,0.007909,0.007807,0.007829,0.007929,0.008070,0.008062,0.008048,0.008045,0.008164,0.008313,0.008247,0.008110,0.008023,0.008131,0.008192,0.008155,0.008104,0.008078,0.008220,0.008370,0.008434,0.008421,0.008433,0.008491,0.008546,0.008548,0.008492,0.008427,0.008476,0.008514,0.008444,0.008287,0.008119,0.008107,0.008153,0.008022,0.007851,0.007669,0.007662,0.007715,0.007688,0.007527,0.007338,0.007441,0.007655,0.007745,0.007630,0.007601,0.007593,0.007553,0.007388,0.007256,0.007300,0.007461,0.007535,0.007361,0.007137,0.007025,0.007388,0.007677,0.007928,0.008100,0.008170,0.008196,0.008279,0.008291,0.008149,0.008051,0.008106,0.008231,0.008352,0.008260,0.008190,0.008264,0.008305,0.008298,0.008191,0.008192,0.008253,0.008313,0.008279,0.008052,0.007973,0.008005,0.008032,0.007998,0.007873,0.007839,0.007855,0.007954,0.008007,0.007924,0.007914,0.007854,0.007812,0.007747,0.007684,0.007713,0.007706,0.007642,0.007482,0.007431,0.007475,0.007559,0.007605,0.007430,0.007287,0.007330,0.007521,0.007581,0.007398,0.007224,0.007158,0.007421,0.007461,0.007269,0.007023,0.006933,0.007278,0.007279,0.007019,0.006800,0.006872,0.007170,0.007475,0.007584,0.007543,0.007638,0.007783,0.007772,0.007582,0.007407,0.007404,0.007568,0.007674,0.007530,0.007385,0.007397,0.007495,0.007495,0.007368,0.007294,0.007229,0.007274,0.007208,0.007022,0.006996,0.006961,0.006997,0.006987,0.006970,0.007051,0.007097,0.007214,0.007185,0.007227,0.007292,0.007264,0.007225,0.007105,0.007019,0.007010,0.006968,0.006936,0.006747,0.006663,0.006651,0.006645,0.006635,0.006448,0.006309,0.006232,0.006246,0.006328,0.006213,0.006072,0.005935,0.005966,0.006102,0.006011,0.005829,0.005590,0.005663,0.005842,0.005740,0.005830,0.005702,0.005539,0.005560,0.005736,0.006018,0.006276,0.006514,0.006483,0.006374,0.006286,0.006286,0.006308,0.006319,0.006259,0.006273,0.006312,0.006298,0.006232,0.006159,0.006222,0.006244,0.006250,0.006168,0.006086,0.006201,0.006282,0.006363,0.006355,0.006363,0.006506,0.006599,0.006649,0.006538,0.006515,0.006462,0.006378,0.006307,0.006231,0.006112,0.006018,0.005938,0.005877,0.005783,0.005626,0.005544,0.005500,0.005504,0.005430,0.005296,0.005320,0.005355,0.005428,0.005264,0.004977,0.004928,0.004879,0.004928,0.004839,0.004584,0.004486,0.004406,0.004471,0.004486,0.004500,0.004445,0.004215,0.004037,0.004220,0.004482,0.004795,0.005020,0.005213,0.005201,0.005157,0.005181,0.005166,0.005146,0.005133,0.005107,0.005146,0.005115,0.005109,0.005033,0.004975,0.005031,0.005068,0.005089,0.004989,0.004842,0.004875,0.004908,0.004964,0.004898,0.004846,0.004918,0.004927,0.004914,0.004754,0.004553,0.004395,0.004239,0.004204,0.004114,0.003974,0.003865,0.003774,0.003834,0.003783,0.003700,0.003659,0.003687,0.003817,0.003942,0.004123,0.004142,0.004180,0.004110,0.003998,0.003947,0.003857,0.003826,0.003711,0.003547,0.003338,0.003045,0.002876,0.002938,0.003062,0.002944,0.002821,0.002545,0.002361,0.002569,0.002855,0.003156,0.003343,0.003441,0.003339,0.003280,0.003263,0.003194,0.003098,0.002987,0.002918,0.002899,0.002846,0.002811,0.002714,0.002689,0.002753,0.002824,0.002882,0.002820,0.002800,0.002786,0.002845,0.002915,0.002917,0.002996,0.002949,0.002913,0.002903,0.002888,0.002877,0.002749,0.002653,0.002573,0.002514,0.002546,0.002505,0.002485,0.002447,0.002319,0.002346,0.002296,0.002235,0.002318,0.002424,0.002480,0.002468,0.002354,0.002381,0.002271,0.002294,0.002108,0.001795,0.001637,0.001413,0.001254,0.001078,0.001097,0.001301,0.001237,0.001113,0.000905,0.000720,0.000741,0.000906,0.001091,0.001237,0.001428,0.001557,0.001486,0.001391,0.001280,0.001233,0.001271,0.001277,0.001277,0.001202,0.001242,0.001351,0.001479,0.001574,0.001531,0.001539,0.001663,0.001795,0.001838,0.001792,0.001853,0.001992,0.002147,0.002093,0.001905,0.001724,0.001619,0.001606,0.001509,0.001401,0.001168,0.001088,0.001183,0.001194,0.001187,0.000950,0.000745,0.000834,0.000957,0.001022,0.000899,0.000917,0.000910,0.001075,0.001276,0.001355,0.001293,0.001242,0.001284,0.001386,0.001384,0.001369,0.001273,0.001069,0.000843,0.000773,0.000865,0.000832,0.000691,0.000496,0.000414,0.000517,0.000667,0.000829,0.000910,0.000994,0.001046,0.001083,0.001130,0.001073,0.001024,0.001054,0.001159,0.001189,0.001133,0.001087,0.001137,0.001278,0.001351,0.001251,0.001211,0.001329,0.001387,0.001409,0.001357,0.001394,0.001560,0.001685,0.001691,0.001495,0.001346,0.001392,0.001373,0.001330,0.001135,0.001014,0.001119,0.001202,0.001215,0.001057,0.000973,0.001068,0.001165,0.001206,0.001087,0.001135,0.001231,0.001376,0.001451,0.001474,0.001492,0.001589,0.001696,0.001687,0.001583,0.001458,0.001457,0.001452,0.001335,0.001143,0.001080,0.001195,0.001262,0.001162,0.000950,0.000904,0.001017,0.001144,0.001170,0.001168,0.001217,0.001165,0.001145,0.001080,0.001014,0.000985,0.001005,0.001021,0.000959,0.000881,0.000930,0.001002,0.001082,0.001005,0.000982,0.001149,0.001340,0.001413,0.001346,0.001322,0.001460,0.001574,0.001588,0.001440,0.001373,0.001434,0.001343,0.001168,0.000916,0.000814,0.000929,0.000902,0.000761,0.000562,0.000464,0.000590,0.000618,0.000575,0.000451,0.000508,0.000615,0.000685,0.000650,0.000595,0.000556,0.000657,0.000742,0.000739,0.000655,0.000549,0.000585,0.000637,0.000618,0.000523,0.000379,0.000418,0.000553,0.000668,0.000661,0.000559,0.000508,0.000600,0.000717,0.000832,0.000946,0.001011,0.001102,0.001124,0.001177,0.001218,0.001255,0.001342,0.001406,0.001442,0.001507,0.001550,0.001611,0.001619,0.001688,0.001758,0.001781,0.001768,0.001683,0.001727,0.001862,0.001885,0.001754,0.001515,0.001447,0.001486,0.001316,0.001048,0.000751,0.000744,0.000902,0.000807,0.000523,0.000275,0.000322,0.000558,0.000549,0.000386,0.000228,0.000411,0.000615,0.000663,0.000594,0.000599,0.000658,0.000824,0.000910,0.000949,0.000952,0.000983,0.001038,0.001016,0.001006,0.001051,0.000999,0.000942,0.000913,0.001019,0.001185,0.001202,0.001099,0.000977,0.000979,0.001067,0.001227,0.001316,0.001232,0.001186,0.001221,0.001258,0.001203,0.001210,0.001205,0.001241,0.001333,0.001343,0.001264,0.001211,0.001249,0.001363,0.001367,0.001299,0.001248,0.001349,0.001569,0.001631,0.001513,0.001295,0.001227,0.001246,0.001057,0.000781,0.000517,0.000510,0.000588,0.000420,0.000216,0.000078,0.000164,0.000294,0.000198,0.000025,-0.000106,0.000110,0.000304,0.000366,0.000321,0.000309,0.000445,0.000605,0.000653,0.000672,0.000740,0.000848,0.000909,0.000929,0.000929,0.000943,0.000917,0.000783,0.000641,0.000611,0.000665,0.000633,0.000524,0.000415,0.000454,0.000562,0.000634,0.000717,0.000746,0.000733,0.000770,0.000835,0.000804,0.000769,0.000747,0.000794,0.000929,0.000994,0.000996,0.001042,0.001142,0.001223,0.001260,0.001241,0.001287,0.001395,0.001479,0.001500,0.001453,0.001336,0.001240,0.001128,0.000960,0.000849,0.000837,0.000835,0.000722,0.000497,0.000293,0.000248,0.000243,0.000138,-0.000077,-0.000249,-0.000339,-0.000354,-0.000297,-0.000366,-0.000504,-0.000591,-0.000505,-0.000410,-0.000500,-0.000548,-0.000608,-0.000536,-0.000461,-0.000509,-0.000589,-0.000609,-0.000512,-0.000557,-0.000691,-0.000745,-0.000680,-0.000599,-0.000629,-0.000681,-0.000526,-0.000316,-0.000264,-0.000231,-0.000042,0.000155,0.000242,0.000213,0.000244,0.000174,0.000087,0.000015,0.000041,0.000081,0.000138,0.000210,0.000256,0.000302,0.000402,0.000599,0.000788,0.000943,0.001051,0.001145,0.001253,0.001241,0.001198,0.001077,0.000907,0.000801,0.000763,0.000754,0.000655,0.000526,0.000359,0.000250,0.000144,0.000005,-0.000129,-0.000245,-0.000372,-0.000585,-0.000682,-0.000805,-0.000969,-0.001077,-0.001082,-0.001061,-0.001145,-0.001163,-0.001240,-0.001258,-0.001232,-0.001299,-0.001344,-0.001343,-0.001181,-0.000996,-0.000976,-0.000941,-0.000961,-0.000909,-0.000824,-0.000810,-0.000730,-0.000871,-0.001010,-0.001138,-0.001057,-0.000681,-0.000650,-0.000953,-0.001176,-0.001245,-0.001274,-0.001228,-0.001143,-0.001055,-0.000992,-0.000897,-0.000904,-0.000784,-0.000635,-0.000473,-0.000325,-0.000165,0.000055,0.000243,0.000384,0.000454,0.000526,0.000629,0.000620,0.000471,0.000268,0.000125,0.000180,0.000209,0.000149,0.000019,-0.000126,-0.000127,-0.000051,0.000001,-0.000061,-0.000269,-0.000482,-0.000559,-0.000655,-0.000685,-0.000730,-0.000846,-0.000952,-0.000988,-0.000902,-0.000993,-0.001133,-0.001159,-0.001178,-0.001224,-0.001374,-0.001280,-0.001090,-0.001007,-0.001096,-0.001348,-0.001265,-0.001020,-0.001025,-0.001346,-0.001699,-0.001599,-0.001486,-0.001405,-0.001431,-0.001551,-0.001694,-0.001910,-0.001992,-0.001904,-0.001763,-0.001586,-0.001428,-0.001199,-0.001050,-0.000930,-0.000830,-0.000863,-0.000955,-0.000904,-0.000718,-0.000532,-0.000429,-0.000328,-0.000185,0.000022,0.000209,0.000221,0.000126,0.000042,0.000012,-0.000024,-0.000107,-0.000200,-0.000282,-0.000299,-0.000190,-0.000110,-0.000161,-0.000296,-0.000482,-0.000507,-0.000518,-0.000540,-0.000683,-0.000846,-0.000816,-0.000852,-0.000834,-0.001014,-0.001314,-0.001399,-0.001473,-0.001434,-0.001583,-0.001779,-0.001731,-0.001578,-0.001386,-0.001517,-0.001874,-0.001862,-0.001559,-0.001542,-0.001780,-0.002083,-0.002030,-0.001879,-0.001694,-0.001519,-0.001682,-0.002055,-0.001975,-0.001532,-0.001102,-0.001008,-0.001178,-0.001161,-0.000954,-0.000838,-0.000889,-0.000938,-0.001048,-0.001285,-0.001119,-0.001003,-0.001024,-0.001088,-0.001248,-0.001067,-0.000923,-0.000764,-0.000784,-0.000887,-0.000823,-0.000913,-0.001006,-0.001112,-0.001274,-0.001304,-0.001353,-0.001219,-0.001285,-0.001469,-0.001705,-0.001969,-0.002043,-0.002149,-0.002287,-0.002497,-0.002720,-0.002605,-0.002583,-0.002565,-0.002718,-0.002765,-0.002557,-0.002401,-0.002259,-0.002447,-0.002512,-0.002290,-0.002074,-0.002022,-0.002420,-0.002678,-0.002448,-0.002200,-0.002312,-0.002665,-0.002889,-0.002919,-0.003041,-0.002949,-0.002968,-0.002971,-0.002724,-0.002611,-0.002412,-0.002308,-0.002175,-0.001972,-0.002028,-0.002063,-0.002029,-0.001895,-0.001808,-0.001948,-0.002058,-0.002288,-0.002268,-0.002112,-0.002028,-0.002154,-0.002502,-0.002553,-0.002307,-0.002067,-0.001964,-0.002119,-0.002273,-0.002354,-0.002290,-0.002231,-0.002367,-0.002437,-0.002568,-0.002659,-0.002774,-0.002864,-0.002863,-0.002882,-0.002890,-0.002964,-0.003086,-0.002975,-0.002832,-0.002627,-0.002519,-0.002512,-0.002462,-0.002472,-0.002434,-0.002520,-0.002632,-0.002721,-0.002849,-0.002787,-0.002855,-0.002860,-0.002948,-0.003045,-0.003179,-0.003513,-0.003683,-0.003668,-0.003610,-0.003673,-0.003801,-0.003718,-0.003438,-0.003285,-0.003280,-0.003396,-0.003249,-0.002900,-0.002740,-0.002848,-0.002914,-0.002971,-0.002837,-0.002778,-0.002794,-0.003034,-0.003292,-0.003223,-0.003163,-0.003281,-0.003607,-0.003789,-0.003470,-0.003140,-0.002945,-0.003052,-0.003118,-0.003204,-0.003091,-0.003116,-0.003272,-0.003459,-0.003567,-0.003575,-0.003684,-0.003728,-0.003781,-0.003766,-0.003617,-0.003559,-0.003547,-0.003633,-0.003609,-0.003491,-0.003449,-0.003560,-0.003653,-0.003702,-0.003591,-0.003364,-0.003467,-0.003559,-0.003730,-0.003813,-0.003902,-0.004109,-0.004288,-0.004569,-0.004665,-0.004822,-0.004882,-0.004777,-0.004662,-0.004577,-0.004612,-0.004520,-0.004356,-0.004238,-0.004020,-0.003967,-0.003868,-0.003673,-0.003622,-0.003594,-0.003569,-0.003641,-0.003553,-0.003737,-0.004068,-0.004335,-0.004345,-0.004213,-0.004301,-0.004594,-0.004833,-0.004783,-0.004429,-0.004343,-0.004347,-0.004377,-0.004333,-0.004282,-0.004260,-0.004399,-0.004560,-0.004648,-0.004556,-0.004543,-0.004597,-0.004700,-0.004692,-0.004572,-0.004459,-0.004406,-0.004338,-0.004239,-0.004425,-0.004595,-0.004758,-0.004788,-0.004754,-0.004866,-0.004818,-0.004634,-0.004583,-0.004595,-0.004594,-0.004748,-0.004718,-0.004704,-0.004919,-0.005249,-0.005534,-0.005429,-0.005368,-0.005375,-0.005451,-0.005395,-0.005286,-0.005254,-0.005211,-0.005204,-0.005003,-0.004604,-0.004342,-0.004202,-0.004234,-0.004493,-0.004692,-0.004736,-0.004735,-0.005022,-0.005368,-0.005514,-0.005479,-0.005370,-0.005562,-0.005959,-0.006200,-0.006052,-0.005812,-0.005850,-0.005938,-0.005948,-0.005912,-0.005819,-0.005779,-0.005752,-0.005689,-0.005600,-0.005529,-0.005582,-0.005631,-0.005646,-0.005433,-0.005253,-0.005371,-0.005605,-0.005696,-0.005456,-0.005160,-0.005158,-0.005621,-0.006168,-0.006340,-0.006094,-0.005693,-0.005539,-0.005618,-0.005866,-0.005925,-0.005950,-0.005889,-0.005775,-0.005996,-0.006200,-0.006320,-0.006131,-0.005919,-0.005882,-0.006039,-0.006263,-0.006294,-0.006150,-0.006105,-0.006147,-0.006339,-0.006319,-0.006206,-0.006138,-0.005978,-0.006023,-0.006080,-0.006272,-0.006406,-0.006507,-0.006508,-0.006363,-0.006347,-0.006272,-0.006481,-0.006601,-0.006574,-0.006522,-0.006501,-0.006576,-0.006558,-0.006574,-0.006599,-0.006685,-0.006904,-0.007024,-0.007132,-0.007142,-0.007160,-0.007272,-0.007322,-0.007350,-0.007243,-0.007131,-0.007229,-0.007288,-0.007328,-0.007157,-0.006869,-0.006726,-0.006740,-0.006931,-0.006945,-0.006681,-0.006431,-0.006199,-0.006016,-0.005916,-0.005977,-0.006062,-0.006150,-0.006161,-0.006012,-0.006090,-0.006433,-0.006675,-0.006659,-0.006513,-0.006479,-0.006679,-0.006782,-0.006825,-0.006758,-0.006780,-0.006931,-0.007018,-0.007054,-0.006874,-0.006785,-0.006927,-0.006989,-0.007032,-0.007032,-0.007106,-0.007205,-0.007272,-0.007276,-0.007034,-0.006967,-0.006978,-0.006970,-0.007082,-0.007154,-0.007162,-0.007130,-0.007128,-0.007242,-0.007384,-0.007536,-0.007670,-0.007757,-0.007828,-0.007866,-0.007927,-0.007984,-0.007919,-0.007991,-0.007946,-0.007873,-0.007785,-0.007695,-0.007814,-0.007745,-0.007709,-0.007564,-0.007383,-0.007317,-0.007048,-0.006955,-0.006735,-0.006447,-0.006177,-0.005937,-0.006052,-0.006271,-0.006446,-0.006419,-0.006343,-0.006357,-0.006483,-0.006703,-0.006797,-0.006850,-0.006842,-0.006594,-0.006587,-0.006848,-0.007215,-0.007364,-0.007403,-0.007418,-0.007469,-0.007610,-0.007730,-0.007831,-0.007942,-0.008039,-0.008121,-0.008121,-0.008090,-0.008073,-0.008028,-0.007994,-0.008097,-0.008111,-0.008198,-0.008245,-0.008412,-0.008532,-0.008419,-0.008535,-0.008644,-0.008771,-0.008838,-0.008717,-0.008726,-0.008595,-0.008618,-0.008563,-0.008482,-0.008498,-0.008406,-0.008390,-0.008329,-0.008272,-0.008343,-0.008360,-0.008425,-0.008382,-0.008230,-0.008149,-0.008066,-0.008105,-0.008055,-0.007818,-0.007522,-0.007302,-0.007555,-0.007870,-0.007902,-0.007866,-0.007952,-0.007879,-0.007978,-0.008109,-0.008200,-0.008271,-0.008283,-0.008294,-0.008153,-0.008181,-0.008297,-0.008494,-0.008635,-0.008826,-0.009153,-0.009433,-0.009521,-0.009478,-0.009480,-0.009699,-0.009910,-0.009905,-0.009761,-0.009586,-0.009581,-0.009710,-0.009959,-0.010048,-0.009903,-0.009790,-0.009946,-0.010167,-0.010137,-0.010032,-0.009751,-0.009698,-0.009858,-0.010004,-0.009957,-0.009865,-0.009896,-0.009692,-0.009599,-0.009561,-0.009774,-0.009868,-0.009759,-0.009642,-0.009507,-0.009694,-0.009750,-0.009770,-0.009628,-0.009438,-0.009530,-0.009566,-0.009489,-0.009231,-0.008981,-0.009007,-0.009202,-0.009328,-0.009155,-0.009108,-0.009194,-0.009262,-0.009295,-0.009366,-0.009473,-0.009459,-0.009473,-0.009387,-0.009257,-0.009230,-0.009238,-0.009287,-0.009235,-0.009394,-0.009659,-0.009971,-0.010282,-0.010532,-0.010795,-0.011015,-0.011053,-0.011041,-0.010951,-0.010924,-0.010890,-0.010817,-0.010870,-0.010858,-0.010787,-0.010626,-0.010491,-0.010688,-0.010884,-0.010857,-0.010606,-0.010502,-0.010690,-0.011003,-0.011404,-0.011625,-0.011653,-0.011549,-0.011453,-0.011543,-0.011732,-0.011773,-0.011778,-0.011783,-0.012009,-0.012207,-0.012200,-0.012131,-0.012007,-0.012079,-0.012135,-0.011991,-0.011647,-0.011441,-0.011481,-0.011562,-0.011560,-0.011205,-0.011047,-0.010996,-0.010975,-0.010976,-0.011087,-0.011110,-0.011062,-0.010920,-0.010738,-0.010523,-0.010427,-0.010384,-0.010232,-0.010042,-0.009875,-0.009850,-0.009823,-0.009759,-0.009625,-0.009713,-0.009997,-0.010352,-0.010415,-0.010199,-0.010143,-0.010259,-0.010559,-0.010533,-0.010194,-0.010156,-0.010203,-0.010315,-0.010257,-0.010160,-0.010243,-0.010178,-0.010383,-0.010521,-0.010493,-0.010676,-0.010948,-0.011087,-0.011029,-0.011190,-0.011400,-0.011489,-0.011490,-0.011276,-0.011308,-0.011556,-0.011792,-0.011788,-0.011507,-0.011307,-0.011221,-0.011160,-0.011043,-0.010627,-0.010472,-0.010643,-0.010840,-0.010970,-0.011002,-0.011170,-0.011403,-0.011341,-0.011127,-0.011074,-0.011161,-0.011078,-0.011087,-0.011157,-0.011100,-0.011037,-0.010888,-0.010776,-0.010688,-0.010523,-0.010391,-0.010184,-0.009959,-0.009663,-0.009384,-0.009415,-0.009415,-0.009441,-0.009137,-0.008750,-0.008837,-0.008906,-0.009184,-0.008971,-0.008649,-0.008830,-0.008755,-0.008977,-0.009036,-0.008998,-0.009090,-0.008904,-0.009081,-0.009065,-0.009173,-0.009240,-0.009056,-0.009056,-0.009065,-0.009393,-0.009612,-0.009489,-0.009361,-0.009336,-0.009769,-0.010184,-0.010018,-0.009696,-0.009519,-0.009641,-0.009655,-0.009226,-0.008758,-0.008509,-0.008895,-0.009347,-0.009249,-0.009050,-0.009001,-0.009475,-0.009980,-0.010065,-0.009781,-0.009657,-0.009762,-0.009852,-0.009932,-0.010026,-0.010120,-0.010157,-0.010086,-0.009991,-0.009878,-0.009686,-0.009606,-0.009664,-0.009694,-0.009504,-0.009348,-0.009184,-0.009162,-0.009031,-0.008670,-0.008395,-0.008233,-0.008244,-0.008037,-0.007712,-0.007590,-0.007608,-0.007703,-0.007657,-0.007661,-0.007740,-0.007794,-0.007954,-0.007832,-0.007827,-0.007837,-0.007906,-0.007897,-0.007829,-0.007831,-0.007979,-0.007907,-0.007988,-0.008110,-0.008265,-0.008580,-0.008758,-0.008916,-0.008811,-0.008519,-0.008492,-0.008423,-0.008432,-0.008128,-0.007703,-0.007700,-0.007890,-0.008115,-0.007896,-0.007372,-0.007517,-0.008036,-0.008492,-0.008353,-0.008274,-0.008200,-0.008263,-0.008326,-0.008469,-0.008610,-0.008570,-0.008613,-0.008562,-0.008423,-0.008291,-0.008313,-0.008409,-0.008474,-0.008519,-0.008429,-0.008215,-0.008106,-0.007951,-0.007775,-0.007546,-0.007242,-0.007129,-0.006847,-0.006521,-0.006315,-0.006159,-0.006267,-0.006130,-0.005927,-0.005758,-0.005686,-0.005939,-0.005957,-0.005861,-0.005661,-0.005662,-0.005945,-0.005914,-0.005941,-0.005857,-0.005970,-0.006358,-0.006678,-0.006857,-0.006608,-0.006856,-0.007433,-0.007558,-0.007180,-0.006464,-0.006396,-0.006748,-0.006954,-0.006515,-0.005977,-0.006198,-0.006795,-0.007300,-0.007085,-0.006746,-0.006904,-0.007376,-0.007779,-0.007851,-0.007510,-0.007481,-0.007497,-0.007539,-0.007610,-0.007700,-0.007871,-0.007723,-0.007553,-0.007596,-0.007770,-0.007808,-0.007752,-0.007790,-0.007714,-0.007555,-0.007367,-0.007047,-0.006878,-0.006699,-0.006559,-0.006444,-0.006030,-0.005651,-0.005440,-0.005411,-0.005536,-0.005349,-0.005048,-0.004860,-0.004999,-0.005181,-0.005190,-0.004856,-0.004662,-0.004819,-0.005260,-0.005405,-0.005297,-0.005116,-0.005283,-0.005706,-0.006047,-0.005998,-0.005846,-0.005921,-0.006293,-0.006644,-0.006274,-0.005862,-0.005639,-0.005873,-0.006238,-0.005821,-0.005726,-0.005884,-0.006305,-0.006626,-0.006418,-0.006239,-0.006259,-0.006697,-0.007163,-0.007278,-0.007008,-0.006865,-0.006728,-0.006691,-0.006682,-0.006773,-0.006706,-0.006385,-0.006385,-0.006511,-0.006588,-0.006594,-0.006621,-0.006630,-0.006480,-0.006347,-0.006156,-0.005871,-0.005807,-0.005621,-0.005477,-0.005278,-0.004932,-0.004712,-0.004539,-0.004517,-0.004531,-0.004459,-0.004421,-0.004288,-0.004488,-0.004614,-0.004818,-0.004777,-0.004590,-0.004524,-0.004687,-0.004633,-0.004425,-0.004362,-0.004368,-0.004378,-0.004553,-0.004539,-0.004618,-0.004713,-0.004862,-0.005264,-0.005138,-0.004861,-0.004584,-0.004806,-0.005183,-0.005053,-0.004878,-0.004866,-0.005038,-0.005268,-0.005095,-0.004874,-0.004840,-0.005125,-0.005395,-0.005371,-0.005224,-0.005170,-0.005047,-0.004938,-0.004831,-0.004708,-0.004493,-0.004288,-0.004350,-0.004436,-0.004479,-0.004502,-0.004369,-0.004210,-0.004093,-0.004033,-0.003886,-0.003534,-0.003477,-0.003402,-0.003342,-0.003101,-0.002861,-0.002921,-0.002897,-0.002950,-0.002918,-0.002939,-0.003064,-0.003083,-0.003227,-0.003209,-0.003518,-0.003621,-0.003486,-0.003356,-0.003372,-0.003393,-0.003080,-0.002903,-0.002671,-0.002725,-0.003037,-0.003078,-0.003168,-0.003141,-0.003378,-0.003663,-0.003561,-0.003413,-0.003195,-0.003403,-0.003425,-0.003366,-0.003202,-0.003099,-0.003024,-0.002986,-0.002970,-0.002753,-0.002550,-0.002746,-0.003172,-0.003196,-0.002944,-0.002875,-0.002880,-0.002841,-0.002804,-0.002604,-0.002412,-0.002297,-0.002305,-0.002455,-0.002479,-0.002479,-0.002340,-0.002266,-0.002259,-0.002101,-0.001916,-0.001638,-0.001562,-0.001644,-0.001508,-0.001235,-0.000978,-0.001179,-0.001416,-0.001297,-0.001044,-0.000958,-0.001255,-0.001669,-0.001748,-0.001628,-0.001461,-0.001429,-0.001499,-0.001489,-0.001397,-0.001149,-0.000951,-0.000970,-0.001046,-0.001268,-0.001254,-0.001055,-0.001182,-0.001304,-0.001522,-0.001530,-0.001298,-0.001287,-0.001296,-0.001467,-0.001362,-0.001211,-0.001102,-0.001084,-0.001151,-0.001283,-0.001223,-0.001041,-0.000663,-0.000738,-0.000975,-0.001012,-0.000972,-0.000905,-0.000900,-0.000898,-0.000903,-0.000855,-0.000770,-0.000631,-0.000609,-0.000672,-0.000563,-0.000481,-0.000361,-0.000239,-0.000222,-0.000185,-0.000024,0.000213,0.000214,-0.000039,-0.000009,0.000207,0.000380,0.000237,-0.000175,-0.000243,-0.000049,0.000110,-0.000015,-0.000414,-0.000538,-0.000423,-0.000034,0.000179,0.000097,0.000178,0.000457,0.000812,0.001073,0.000919,0.000606,0.000244,0.000322,0.000539,0.000339,0.000205,-0.000096,-0.000118,0.000055,0.000004,0.000006,-0.000345,-0.000439,-0.000344,-0.000312,-0.000169,-0.000231,-0.000208,-0.000005,0.000148,0.000446,0.000358,0.000332,0.000424,0.000408,0.000525,0.000620,0.000622,0.000715,0.000803,0.000999,0.001036,0.001136,0.001249,0.001336,0.001393,0.001397,0.001464,0.001451,0.001427,0.001417,0.001406,0.001465,0.001401,0.001238,0.001072,0.000972,0.001154,0.001194,0.001025,0.000829,0.000664,0.000760,0.000781,0.000694,0.000612,0.000637,0.000946,0.001226,0.001484,0.001825,0.001989,0.002146,0.001973,0.001632,0.001529,0.001499,0.001578,0.001381,0.001023,0.000883,0.000733,0.000856,0.000897,0.000660,0.000281,0.000119,0.000452,0.000655,0.000655,0.000701,0.000687,0.001023,0.001313,0.001544,0.001625,0.001661,0.001755,0.001857,0.001800,0.001800,0.001866,0.001997,0.002173,0.002160,0.002109,0.002176,0.002263,0.002203,0.002120,0.002043,0.001974,0.002031,0.002009,0.001874,0.001781,0.001865,0.001997,0.001933,0.001707,0.001575,0.001704,0.001937,0.001945,0.001693,0.001517,0.001548,0.001658,0.001603,0.001490,0.001381,0.001502,0.001762,0.001784,0.001716,0.001819,0.002004,0.002032,0.001566,0.001151,0.001042,0.001161,0.001215,0.000740,0.000392,0.000276,0.000385,0.000555,0.000043,-0.000496,-0.000601,-0.000110,0.000290,0.000202,0.000239,0.000485,0.000921,0.001376,0.001447,0.001507,0.001575,0.001666,0.001713,0.001597,0.001574,0.001558,0.001524,0.001521,0.001381,0.001354,0.001284,0.001194,0.001136,0.001016,0.000842,0.000645,0.000625,0.000559,0.000464,0.000396,0.000284,0.000195,0.000178,0.000118,0.000061,-0.000154,-0.000179,-0.000056,-0.000069,-0.000081,-0.000247,-0.000269,-0.000179,0.000039,0.000124,0.000074,0.000219,0.000377,0.000491,0.000670,0.000678,0.000667,0.000381,-0.000009,-0.000196,-0.000214,-0.000062,-0.000325,-0.000714,-0.000888,-0.000917,-0.000754,-0.001035,-0.001404,-0.001661,-0.001455,-0.001102,-0.001030,-0.000814,-0.000435,0.000190,0.000508,0.000467,0.000412,0.000472,0.000596,0.000532,0.000527,0.000500,0.000276,0.000035,-0.000143,-0.000154,-0.000297,-0.000500,-0.000651,-0.000729,-0.000766,-0.000978,-0.001183,-0.001317,-0.001188,-0.001061,-0.001159,-0.001285,-0.001382,-0.001265,-0.001126,-0.001149,-0.001297,-0.001313,-0.001088,-0.000984,-0.001004,-0.001106,-0.001092,-0.000834,-0.000670,-0.000641,-0.000672,-0.000544,-0.000273,-0.000054,0.000042,-0.000123,-0.000239,-0.000141,-0.000078,-0.000189,-0.000444,-0.000603,-0.000488,-0.000498,-0.000608,-0.000816,-0.001039,-0.000984,-0.001074,-0.001369,-0.001584,-0.001749,-0.001617,-0.001385,-0.001242,-0.001214,-0.001206,-0.001062,-0.001079,-0.001198,-0.001174,-0.001193,-0.001213,-0.001264,-0.001356,-0.001425,-0.001451,-0.001394,-0.001358,-0.001284,-0.001272,-0.001340,-0.001379,-0.001467,-0.001560,-0.001531,-0.001419,-0.001229,-0.001189,-0.001206,-0.001254,-0.001222,-0.001122,-0.001127,-0.001168,-0.001242,-0.001187,-0.001146,-0.001104,-0.001087,-0.001076,-0.001019,-0.000970,-0.000833,-0.000659,-0.000558,-0.000543,-0.000470,-0.000360,-0.000417,-0.000402,-0.000556,-0.000552,-0.000584,-0.000685,-0.000738,-0.000958,-0.001069,-0.001061,-0.001011,-0.001054,-0.001240,-0.001324,-0.001675,-0.001858,-0.001922,-0.002046,-0.002245,-0.002645,-0.002790,-0.002583,-0.002441,-0.002392,-0.002623,-0.002692,-0.002580,-0.002587,-0.002629,-0.002700,-0.002595,-0.002450,-0.002436,-0.002400,-0.002327,-0.002363,-0.002368,-0.002320,-0.002351,-0.002460,-0.002372,-0.002336,-0.002318,-0.002287,-0.002251,-0.002234,-0.002344,-0.002369,-0.002354,-0.002282,-0.002391,-0.002575,-0.002594,-0.002430,-0.002244,-0.002264,-0.002413,-0.002506,-0.002326,-0.002082,-0.002025,-0.002119,-0.002133,-0.002079,-0.002028,-0.002016,-0.001994,-0.002045,-0.002103,-0.002113,-0.002173,-0.002187,-0.002263,-0.002308,-0.002237,-0.002222,-0.002181,-0.002239,-0.002280,-0.002268,-0.002223,-0.002337,-0.002455,-0.002610,-0.002612,-0.002495,-0.002390,-0.002269,-0.002432,-0.002470,-0.002466,-0.002385,-0.002290,-0.002383,-0.002399,-0.002406,-0.002349,-0.002301,-0.002300,-0.002380,-0.002463,-0.002338,-0.002281,-0.002319,-0.002392,-0.002395,-0.002338,-0.002303,-0.002321,-0.002370,-0.002526,-0.002528,-0.002463,-0.002417,-0.002530,-0.002676,-0.002605,-0.002449,-0.002324,-0.002398,-0.002549,-0.002516,-0.002359,-0.002158,-0.002152,-0.002332,-0.002441,-0.002384,-0.002194,-0.002157,-0.002137,-0.002200,-0.002253,-0.002170,-0.002177,-0.002213,-0.002333,-0.002410,-0.002311,-0.002251,-0.002272,-0.002333,-0.002346,-0.002311,-0.002287,-0.002380,-0.002521,-0.002691,-0.002725,-0.002632,-0.002565,-0.002637,-0.002705,-0.002748,-0.002631,-0.002486,-0.002374,-0.002372,-0.002555,-0.002506,-0.002484,-0.002414,-0.002392,-0.002407,-0.002456,-0.002468,-0.002426,-0.002465,-0.002581,-0.002652,-0.002661,-0.002618,-0.002602,-0.002685,-0.002835,-0.002858,-0.002678,-0.002557,-0.002642,-0.002815,-0.002898,-0.002742,-0.002492,-0.002530,-0.002685,-0.002710,-0.002549,-0.002274,-0.002245,-0.002293,-0.002333,-0.002270,-0.002169,-0.002103,-0.002119,-0.002148,-0.002224,-0.002240,-0.002248,-0.002242,-0.002324,-0.002383,-0.002420,-0.002524,-0.002473,-0.002453,-0.002502,-0.002579,-0.002624,-0.002518,-0.002602,-0.002740,-0.002812,-0.002617,-0.002552,-0.002720,-0.002807,-0.002731,-0.002569,-0.002461,-0.002581,-0.002689,-0.002782,-0.002704,-0.002618,-0.002530,-0.002534,-0.002589,-0.002587,-0.002534,-0.002468,-0.002569,-0.002728,-0.002817,-0.002747,-0.002646,-0.002696,-0.002851,-0.002975,-0.002875,-0.002722,-0.002739,-0.002873,-0.002983,-0.002895,-0.002799,-0.002778,-0.002824,-0.002875,-0.002831,-0.002694,-0.002594,-0.002606,-0.002693,-0.002678,-0.002602,-0.002496,-0.002443,-0.002462,-0.002441,-0.002459,-0.002565,-0.002600,-0.002623,-0.002600,-0.002543,-0.002687,-0.002862,-0.002884,-0.002765,-0.002689,-0.002756,-0.002814,-0.002804,-0.002762,-0.002872,-0.002937,-0.002947,-0.003027,-0.003073,-0.002964,-0.002906,-0.002849,-0.002707,-0.002555,-0.002501,-0.002530,-0.002586,-0.002513,-0.002381,-0.002391,-0.002563,-0.002680,-0.002655,-0.002618,-0.002798,-0.002885,-0.002931,-0.002945,-0.002858,-0.002853,-0.002859,-0.002950,-0.003031,-0.003020,-0.003006,-0.002926,-0.002987,-0.003073,-0.003093,-0.003085,-0.002969,-0.003015,-0.003012,-0.002934,-0.002944,-0.002936,-0.002991,-0.002922,-0.002914,-0.002844,-0.002805,-0.002712,-0.002706,-0.002717,-0.002729,-0.002768,-0.002816,-0.002901,-0.002922,-0.003013,-0.003074,-0.003133,-0.003199,-0.003153,-0.003182,-0.003146,-0.003135,-0.003176,-0.003232,-0.003338,-0.003303,-0.003426,-0.003464,-0.003398,-0.003378,-0.003208,-0.003064,-0.002819,-0.002786,-0.002998,-0.003174,-0.003211,-0.002999,-0.002944,-0.003010,-0.003104,-0.003169,-0.003222,-0.003392,-0.003302,-0.003292,-0.003336,-0.003227,-0.003140,-0.003085,-0.003124,-0.003222,-0.003196,-0.003156,-0.003074,-0.003146,-0.003225,-0.003160,-0.003094,-0.003037,-0.003163,-0.003229,-0.003112,-0.003065,-0.003041,-0.003116,-0.003145,-0.003249,-0.003204,-0.003101,-0.002983,-0.003019,-0.003024,-0.002980,-0.002991,-0.003055,-0.003153,-0.003210,-0.003306,-0.003266,-0.003336,-0.003377,-0.003373,-0.003443,-0.003402,-0.003444,-0.003374,-0.003344,-0.003327,-0.003388,-0.003518,-0.003673,-0.003685,-0.003424,-0.003263,-0.003302,-0.003391,-0.003505,-0.003511,-0.003609,-0.003657,-0.003636,-0.003607,-0.003553,-0.003562,-0.003639,-0.003777,-0.003835,-0.003739,-0.003678,-0.003714,-0.003617,-0.003546,-0.003526,-0.003548,-0.003680,-0.003691,-0.003665,-0.003616,-0.003619,-0.003672,-0.003627,-0.003546,-0.003541,-0.003593,-0.003646,-0.003555,-0.003480,-0.003487,-0.003573,-0.003665,-0.003693,-0.003554,-0.003386,-0.003398,-0.003530,-0.003565,-0.003545,-0.003606,-0.003693,-0.003748,-0.003805,-0.003893,-0.003937,-0.003966,-0.003974,-0.004057,-0.004160,-0.004242,-0.004169,-0.004032,-0.003949,-0.004027,-0.004306,-0.004413,-0.004553,-0.004515,-0.004383,-0.004383,-0.004462,-0.004639,-0.004599,-0.004546,-0.004595,-0.004635,-0.004807,-0.004859,-0.004887,-0.004949,-0.005032,-0.005125,-0.005135,-0.005052,-0.005031,-0.005078,-0.005193,-0.005192,-0.005178,-0.005292,-0.005369,-0.005515,-0.005453,-0.005333,-0.005505,-0.005421,-0.005752,-0.005606,-0.005529,-0.005784,-0.005681,-0.006092,-0.006002,-0.005948,-0.006295,-0.006327,-0.006642