-0.011177,,-0.007560,-0.008021,-0.008769,-0.008241,-0.007446,-0.007484,-0.003656,-0.006296,-0.002219,-0.000092,-0.007066,-0.007775,-0.008190,-0.008135,-0.007435,-0.007254,-0.007050,-0.006607,-0.006240,-0.006202,-0.006382,-0.006482,-0.006527,-0.006334,-0.005962,-0.005568,-0.005480,-0.005638,-0.005941,-0.006137,-0.006228,-0.005954,-0.006094,-0.006511,-0.006648,-0.006516,-0.006366,-0.005840,-0.000394,-0.000648,0.004013,-0.001694,-0.005290,-0.006325,-0.007150,-0.006818,-0.007762,-0.008437,-0.008680,-0.008371,-0.009300,-0.006686,-0.003593,-0.002713,-0.002940,0.004329,0.002349,0.010930,-0.002500,-0.005178,-0.006469,-0.008279,-0.006610,-0.007151,-0.007227,-0.007174,-0.006410,-0.006471,-0.005744,-0.002050,0.000852,-0.000354,0.003966,0.002600,-0.005733,-0.006434,-0.005999,-0.005769,-0.006200,-0.005567,-0.005204,-0.004803,-0.004259,-0.003904,-0.003956,-0.004230,-0.004513,-0.004611,-0.004283,-0.003989,-0.003845,-0.003870,-0.004013,-0.004190,-0.004112,-0.004483,-0.004952,-0.005177,-0.005146,-0.004155,-0.001742,0.000774,-0.000719,-0.000223,0.001313,0.000095,-0.001950,-0.005171,-0.005111,-0.006456,-0.006336,-0.006626,-0.007301,-0.006984,-0.008573,-0.005658,-0.000057,0.001423,0.002727,-0.000169,0.001919,0.003098,-0.000373,-0.002696,-0.006205,-0.005893,-0.006486,-0.006002,-0.005787,-0.005921,-0.005369,-0.006404,-0.005244,0.006233,0.006500,-0.000582,-0.002050,0.000349,-0.001612,-0.003741,-0.005517,-0.004993,-0.004052,-0.004055,-0.003610,-0.003129,-0.002635,-0.002100,-0.001711,-0.002013,-0.002346,-0.002688,-0.002694,-0.002289,-0.002090,-0.001898,-0.001936,-0.002144,-0.002232,-0.002663,-0.002909,-0.002998,-0.003376,-0.003110,-0.000805,0.002648,0.004241,0.002402,0.000317,-0.000571,-0.001123,-0.003844,-0.002090,-0.003903,-0.005199,-0.004600,-0.005450,-0.005497,-0.005729,-0.004711,0.001630,0.003879,0.005987,0.005146,0.003597,0.003335,0.002441,-0.001473,-0.005451,-0.003290,-0.004471,-0.005354,-0.004275,-0.004429,-0.004529,-0.004881,-0.003301,0.010698,0.012262,0.006284,-0.003774,-0.002808,0.001797,0.003341,-0.002502,-0.003904,-0.003338,-0.002553,-0.002040,-0.001516,-0.001073,-0.000512,0.000100,0.000205,-0.000137,-0.000586,-0.000781,-0.000680,-0.000226,0.000144,0.000236,0.000211,-0.000062,-0.000034,0.000035,-0.000052,-0.000994,-0.001640,-0.000964,0.000993,0.009202,0.007574,0.006521,0.004201,0.002854,0.001422,0.001002,0.000196,-0.002273,-0.001750,-0.002426,-0.000801,0.002025,-0.000528,0.002729,0.005032,0.004326,0.013439,0.010170,0.009516,0.006101,0.001877,-0.000258,-0.000343,-0.001552,-0.003166,-0.002574,-0.002631,-0.001308,0.002720,-0.000408,0.005334,0.012583,0.007222,0.001338,0.005227,0.004637,0.002661,-0.000418,-0.001590,-0.001209,-0.000935,-0.000356,0.000082,0.000545,0.001107,0.001602,0.002055,0.002046,0.001573,0.001076,0.000847,0.000898,0.001139,0.001387,0.001552,0.001497,0.001695,0.001605,0.001340,0.001025,0.001024,0.001026,0.001357,0.008514,0.010316,0.009630,0.008570,0.006837,0.007250,0.004625,0.003138,0.000834,0.000160,-0.000193,0.004389,0.010114,0.003491,0.002444,0.004461,0.007502,0.009120,0.009558,0.009053,0.011097,0.007909,0.006587,0.002613,0.001986,0.000855,0.000666,0.000185,0.003218,0.015642,0.001540,-0.000776,0.002529,0.002640,0.001883,0.006532,0.005383,0.006156,0.004438,0.001988,0.001238,0.001916,0.002406,0.002751,0.003120,0.003523,0.003798,0.003976,0.004142,0.003883,0.003236,0.002831,0.002352,0.002249,0.002565,0.002865,0.003280,0.003760,0.003623,0.003254,0.003221,0.003220,0.002712,0.002079,0.005062,0.010275,0.008712,0.010417,0.010446,0.010260,0.009058,0.005083,0.003180,0.002222,0.002124,0.005457,0.012665,0.006899,0.004821,0.006764,0.003727,0.006570,0.022280,0.013251,0.012237,0.008630,0.007776,0.007563,0.004107,0.003231,0.003167,0.002908,0.004580,0.016974,0.005072,0.001452,0.003101,0.001971,0.002608,0.011588,0.011989,0.009568,0.004911,0.004028,0.004975,0.005026,0.005438,0.005827,0.006083,0.006427,0.006666,0.006788,0.006809,0.006774,0.006395,0.005707,0.005177,0.004701,0.004765,0.005161,0.005860,0.006507,0.006859,0.006768,0.006299,0.005778,0.005624,0.005691,0.005236,0.010838,0.014538,0.014586,0.016119,0.013054,0.011838,0.008748,0.005826,0.006040,0.006334,0.006342,0.013202,0.012878,0.012118,0.014134,0.019264,0.040995,0.068146,0.036655,0.018812,0.013886,0.008731,0.008594,0.006679,0.004979,0.005515,0.006173,0.005612,0.012948,0.011592,0.007150,0.008364,0.007294,0.011314,0.032264,0.017850,0.013565,0.007399,0.006230,0.007083,0.007676,0.007961,0.008396,0.008710,0.008972,0.009120,0.009199,0.009112,0.008897,0.008703,0.008262,0.007455,0.006746,0.006229,0.006388,0.007030,0.007066,0.007294,0.007590,0.007146,0.007037,0.008793,0.011272,0.009317,0.011290,0.018536,0.011716,0.013468,0.011087,0.011280,0.014094,0.006108,0.006888,0.005779,0.005399,0.008620,0.011407,0.014681,0.015955,0.016859,0.024639,0.044039,0.017856,0.011693,0.009188,0.009622,0.008438,0.012462,0.006014,0.005901,0.006271,0.006252,0.007968,0.011676,0.016108,0.020581,0.008388,0.012091,0.018937,0.008028,0.013246,0.007588,0.008173,0.007573,0.008231,0.008597,0.009949,0.009931,0.010496,0.010456,0.011516,0.009691,0.010794,0.010317,0.009484,0.009474,0.008784,0.008162,0.008424,0.008290,0.008615,0.008165,0.008667,0.009642,0.008426,0.009968,0.012276,0.013477,0.016234,0.017632,0.015615,0.012452,0.013315,0.015324,0.013021,0.008866,0.006504,0.008385,0.011076,0.013252,0.014764,0.017084,0.017829,0.016979,0.018008,0.024001,0.015298,0.018039,0.006250,0.009670,0.014622,0.012314,0.008145,0.006381,0.008440,0.010527,0.013016,0.017326,0.021767,0.024893,0.018200,0.010090,0.009830,0.009295,0.015427,0.008979,0.009095,0.009817,0.010748,0.010167,0.010115,0.010496,0.012515,0.011737,0.012264,0.012751,0.012235,0.011788,0.011745,0.012200,0.011561,0.010264,0.010050,0.009892,0.011440,0.012524,0.011079,0.011938,0.010791,0.010700,0.010196,0.017272,0.020115,0.018751,0.018855,0.018887,0.018157,0.017085,0.013010,0.016449,0.014761,0.017242,0.017612,0.016661,0.020721,0.021327,0.019698,0.017756,0.019135,0.025645,0.030147,0.028755,0.019721,0.015258,0.015770,0.010968,0.014826,0.012729,0.015487,0.016411,0.017002,0.025153,0.026346,0.026978,0.024055,0.008702,0.010834,0.011939,0.014180,0.014326,0.014185,0.019943,0.019049,0.016299,0.012896,0.012077,0.016382,0.014577,0.013477,0.014452,0.014488,0.014087,0.013826,0.013246,0.013038,0.013278,0.013781,0.013443,0.018188,0.018765,0.015145,0.014798,0.014777,0.015362,0.014750,0.016951,0.022912,0.021797,0.023284,0.024988,0.023422,0.022484,0.020903,0.022694,0.019912,0.021060,0.026071,0.028350,0.028786,0.026831,0.026402,0.026502,0.022442,0.029774,0.031944,0.034772,0.057340,0.042626,0.027005,0.019515,0.022995,0.020698,0.018442,0.029011,0.037497,0.035851,0.034180,0.040261,0.034991,0.021949,0.021917,0.022176,0.021183,0.029071,0.033419,0.028594,0.025188,0.024220,0.020514,0.017957,0.023490,0.023485,0.020645,0.018608,0.023291,0.025402,0.026026,0.023186,0.020621,0.019239,0.019348,0.025231,0.024859,0.023315,0.021131,0.017523,0.017901,0.019833,0.021453,0.020593,0.026023,0.026642,0.027914,0.030932,0.028449,0.026278,0.027289,0.025807,0.025409,0.021792,0.027765,0.032222,0.030771,0.032036,0.032748,0.034064,0.032761,0.039822,0.033995,0.040021,0.058611,0.038350,0.024342,0.028343,0.029306,0.032802,0.027809,0.033066,0.048330,0.043480,0.043759,0.048014,0.046063,0.043120,0.050770,0.033084,0.033071,0.035238,0.035531,0.032069,0.031070,0.033837,0.037993,0.035243,0.039910,0.045788,0.041674,0.041028,0.041079,0.042417,0.041975,0.040309,0.039735,0.037502,0.034381,0.035643,0.034182,0.034467,0.034496,0.026369,0.026349,0.033291,0.032911,0.036911,0.039443,0.037679,0.038804,0.042691,0.037765,0.030588,0.030139,0.028869,0.031190,0.029637,0.029413,0.031361,0.026943,0.031924,0.034233,0.032448,0.042614,0.045496,0.039041,0.038451,0.051157,0.044473,0.034320,0.027270,0.032076,0.039033,0.035554,0.032735,0.037900,0.036088,0.041642,0.050462,0.038655,0.046485,0.046631,0.035957,0.039189,0.038415,0.034390,0.037610,0.035643,0.036633,0.043665,0.044074,0.047754,0.050542,0.046209,0.048418,0.047196,0.045154,0.042536,0.042325,0.046029,0.047056,0.044202,0.045715,0.045348,0.039742,0.038026,0.036179,0.038475,0.041292,0.037629,0.045577,0.049830,0.044889,0.038435,0.037477,0.038520,0.038102,0.038036,0.033046,0.040262,0.042208,0.036753,0.037203,0.031041,0.038621,0.039693,0.038188,0.051597,0.044934,0.041499,0.045254,0.041539,0.049984,0.088810,0.074670,0.068145,0.037877,0.043408,0.036991,0.040215,0.035196,0.038062,0.051559,0.045469,0.050261,0.041098,0.036616,0.041803,0.034517,0.035226,0.040305,0.045086,0.043208,0.046263,0.044066,0.046290,0.049489,0.048639,0.049918,0.048840,0.048060,0.045173,0.045227,0.048137,0.047864,0.046143,0.045824,0.046780,0.045058,0.037868,0.036613,0.035148,0.041029,0.039892,0.037544,0.036086,0.036576,0.035028,0.032499,0.034800,0.037641,0.034361,0.028619,0.026293,0.034674,0.033100,0.030337,0.028490,0.029386,0.037183,0.040034,0.037023,0.033817,0.033755,0.038197,0.033143,0.032359,0.036535,0.027668,0.023625,0.029051,0.035900,0.024432,0.027909,0.026812,0.026488,0.035168,0.030126,0.030787,0.027905,0.027190,0.029152,0.024610,0.021270,0.020310,0.022859,0.027257,0.032293,0.031217,0.030478,0.029540,0.027159,0.028185,0.031110,0.031696,0.029898,0.030256,0.031227,0.029186,0.028298,0.028861,0.024853,0.027581,0.026758,0.033975,0.031848,0.035181,0.030221,0.024673,0.023887,0.027675,0.029831,0.024444,0.023485,0.025652,0.021076,0.015966,0.019010,0.019538,0.015004,0.017917,0.025650,0.022918,0.028842,0.028695,0.028521,0.023085,0.020686,0.028656,0.022896,0.019111,0.026269,0.017162,0.002520,0.006810,0.018429,0.010143,0.015804,0.017709,0.020080,0.021416,0.017326,0.021300,0.012951,0.015261,0.018159,0.017028,0.014451,0.009337,0.011950,0.009207,0.014830,0.019139,0.015661,0.014422,0.014945,0.015746,0.016208,0.018811,0.018389,0.018569,0.019036,0.016943,0.015728,0.018428,0.016736,0.020667,0.017181,0.018219,0.020667,0.016906,0.015833,0.015764,0.018489,0.018339,0.023643,0.021292,0.025032,0.021925,0.017442,0.015942,0.014966,0.014251,0.025278,0.027106,0.025971,0.025056,0.024566,0.021674,0.022061,0.018707,0.022396,0.020760,0.018332,0.019410,0.016687,0.021161,0.006239,-0.003856,-0.001765,0.007957,0.020567,0.019736,0.025243,0.021679,0.018017,0.016897,0.010162,0.011891,0.014493,0.009808,0.011294,0.009600,0.011589,0.008195,0.009338,0.012562,0.011984,0.014259,0.015440,0.013111,0.011741,0.014093,0.013071,0.012393,0.014913,0.015650,0.014544,0.018366,0.017958,0.017646,0.014690,0.017335,0.017969,0.016341,0.016948,0.015172,0.012026,0.013115,0.019666,0.017225,0.016303,0.018049,0.017182,0.015169,0.017814,0.014037,0.022414,0.023118,0.026969,0.027611,0.026115,0.021810,0.027721,0.020611,0.014672,0.021435,0.023372,0.017484,0.016999,0.025454,0.010743,0.004516,0.003348,0.017433,0.023509,0.024737,0.026264,0.021797,0.018924,0.024333,0.020923,0.012928,0.015948,0.015707,0.017073,0.012546,0.014481,0.012472,0.012923,0.013801,0.018482,0.023232,0.026358,0.023494,0.020826,0.020012,0.016649,0.013687,0.018110,0.022933,0.018086,0.020232,0.019069,0.018653,0.018883,0.022470,0.019124,0.021129,0.029392,0.025639,0.021963,0.021217,0.024870,0.021282,0.016951,0.017852,0.014435,0.014047,0.024911,0.023493,0.026100,0.023042,0.024460,0.024457,0.026595,0.027416,0.027521,0.025558,0.018321,0.022741,0.021702,0.015191,0.019637,0.022816,0.017548,0.024706,0.033312,0.029731,0.028064,0.031159,0.019841,0.023486,0.027092,0.025600,0.024999,0.017883,0.018916,0.017338,0.013826,0.014852,0.016950,0.019167,0.020233,0.022933,0.022572,0.026455,0.027854,0.024426,0.023410,0.020241,0.016321,0.012885,0.017106,0.022481,0.019039,0.014975,0.018619,0.021398,0.024907,0.025944,0.019464,0.020260,0.027628,0.022612,0.020333,0.018026,0.017186,0.018015,0.015395,0.015027,0.013801,0.019660,0.015404,0.019868,0.026301,0.026124,0.024779,0.023666,0.025239,0.025868,0.021806,0.024899,0.022463,0.019864,0.018820,0.018945,0.023316,0.022505,0.023286,0.024867,0.024192,0.017245,0.015623,0.018687,0.013132,0.021928,0.024913,0.021573,0.018598,0.015157,0.014234,0.014840,0.010582,0.013933,0.015368,0.018496,0.014091,0.010094,0.009049,0.010593,0.016559,0.016923,0.015689,0.014846,0.014304,0.011920,0.013782,0.016605,0.018501,0.016400,0.018121,0.019711,0.018941,0.018441,0.017168,0.016189,0.016235,0.014301,0.014207,0.014159,0.013814,0.014980,0.013120,0.012206,0.014454,0.026490,0.017629,0.021062,0.025058,0.023596,0.023145,0.024816,0.022884,0.021547,0.023382,0.022004,0.019699,0.018916,0.021596,0.020209,0.015607,0.013579,0.021399,0.020352,0.019371,0.020291,0.015191,0.012605,0.012839,0.016177,0.019819,0.020518,0.017742,0.011455,0.010430,0.018618,0.012568,0.010352,0.010072,0.011898,0.009470,0.006595,0.006048,0.006106,0.008324,0.011600,0.012149,0.011758,0.011433,0.011291,0.011803,0.011628,0.012874,0.016924,0.015813,0.016659,0.015612,0.014670,0.015412,0.014088,0.013911,0.014957,0.013527,0.014235,0.012922,0.012832,0.011476,0.007537,0.006368,0.009015,0.019316,0.020796,0.021944,0.018723,0.019122,0.023796,0.018864,0.019410,0.023507,0.021713,0.023927,0.021490,0.022094,0.018069,0.004269,0.001316,0.006482,0.010702,0.011857,0.015221,0.007647,0.003558,0.009399,0.008577,0.012930,0.017823,0.021036,0.020175,0.019230,0.021668,0.011084,0.009788,0.008840,0.011070,0.009918,0.005730,0.003468,0.004110,0.006243,0.007408,0.010700,0.009705,0.009040,0.010332,0.009761,0.009335,0.008848,0.010769,0.014564,0.016091,0.016125,0.014678,0.013434,0.010043,0.010952,0.012360,0.011675,0.011876,0.010713,0.011108,0.012570,0.009680,0.007381,0.002375,0.004388,0.010250,0.019032,0.019994,0.022355,0.022744,0.016020,0.017877,0.019995,0.021032,0.021932,0.021104,0.022072,0.021535,0.007834,0.001607,0.000569,0.003557,0.002171,0.001970,0.003107,0.003000,-0.000403,0.009810,0.006635,0.007895,0.015817,0.014585,0.015714,0.008207,0.007440,0.009340,0.005357,0.006728,0.004652,0.003605,0.001796,0.001281,0.001738,0.002080,0.004091,0.006489,0.005543,0.005937,0.004239,0.011766,0.017089,0.014397,0.016890,0.015556,0.014552,0.013161,0.013317,0.011858,0.013083,0.011271,0.011296,0.009848,0.012299,0.008932,0.006598,0.012510,0.015119,0.013262,0.005722,0.011851,0.016248,0.015913,0.015995,0.018161,0.008879,0.014005,0.017542,0.024555,0.016169,0.020554,0.018006,0.008279,0.019285,0.020795,-0.003527,-0.001207,-0.002705,-0.001862,0.000263,0.002260,-0.001750,-0.008390,-0.008969,-0.002516,0.013491,0.012857,0.007443,0.012026,0.011210,0.004686,0.003619,0.005605,0.004805,0.002973,0.002118,0.001381,0.000884,0.000445,0.001930,0.002102,0.002822,0.003850,0.002970,0.003487,0.007704,0.019016,0.019665,0.019034,0.016294,0.014421,0.014091,0.014073,0.013446,0.009169,0.008005,0.011076,0.012082,0.008100,0.004304,0.005181,0.006052,-0.004344,0.006689,0.013416,0.015800,0.013106,0.010508,0.016485,0.016746,0.013661,0.010091,0.011393,0.014399,0.021528,0.016203,0.007977,0.009128,0.016617,-0.001841,-0.001501,-0.000764,-0.000091,-0.000121,0.000572,0.000548,-0.001221,-0.003718,0.000213,0.009460,0.010128,0.008245,0.007828,0.007635,0.009307,0.004999,0.005158,0.004281,0.004098,0.003861,0.002741,0.001765,0.000603,0.001466,0.002445,0.003944,0.004206,0.001235,-0.000050,0.002280,0.008418,0.010247,0.011809,0.010717,0.009532,0.008474,0.006769,0.005187,0.003371,0.004387,0.005715,0.004892,0.003086,0.004109,0.004110,0.002037,-0.007893,-0.002372,0.003300,0.013646,0.013431,0.012116,0.013099,0.011735,0.007968,0.006751,0.011507,0.011737,0.010038,0.007056,0.006569,0.012185,0.014358,-0.006560,-0.005412,-0.004469,-0.003067,-0.002625,-0.002443,-0.002332,-0.002829,-0.005915,-0.003683,-0.004543,-0.003238,0.001796,0.004871,0.002495,0.001496,-0.001303,0.000410,0.000411,0.001577,0.002474,0.003427,0.003333,0.003433,0.001855,-0.000825,-0.000514,0.001539,0.001706,0.002307,0.005760,0.011021,0.009230,0.008336,0.008105,0.008369,0.008526,0.008160,0.007584,0.006894,0.010234,0.010275,0.006811,0.004190,0.004646,0.005787,0.005730,-0.001400,0.012086,0.012276,0.016135,0.013967,0.010781,0.010299,0.009774,0.008425,0.005862,0.009445,0.010082,0.007467,0.006413,0.005334,0.009621,0.013839,-0.005423,-0.003383,-0.002037,0.000997,0.002600,0.001558,0.000186,0.000342,0.000233,0.004655,-0.001115,-0.003720,0.005232,0.013035,0.007098,0.006185,0.004793,0.003429,0.004084,0.004447,0.004819,0.006974,0.008482,0.007108,0.007057,0.002727,-0.000135,0.001173,0.001251,0.002198,0.005445,0.011542,0.009969,0.011137,0.011848,0.011600,0.011056,0.010763,0.009650,0.009995,0.008630,0.009001,0.007815,0.004280,0.001894,0.002764,0.004620,-0.001664,0.011694,0.010294,0.011234,0.010996,0.009652,0.009773,0.008446,0.005191,0.007428,0.005706,0.004481,0.007003,0.006157,0.002624,0.003984,0.014952,-0.002356,-0.001343,0.001561,0.004348,0.003812,-0.000273,-0.001685,-0.000830,-0.000269,0.000035,-0.002190,-0.006236,-0.003604,0.007880,0.011056,0.003186,0.005085,0.004265,0.007045,0.010212,0.006721,0.005506,0.006330,0.006466,0.007589,0.005779,0.002251,0.000474,0.001432,0.004498,0.008242,0.011316,0.009729,0.009313,0.008900,0.008058,0.007984,0.008272,0.008185,0.008102,0.007232,0.006863,0.007080,0.005149,0.003142,0.003442,0.006129,0.008897,0.016780,0.017297,0.014053,0.008939,0.007650,0.009676,0.011157,0.008815,0.009892,0.007792,0.006235,0.007156,0.007525,0.005720,0.004981,0.011309,0.002166,-0.001618,-0.001185,0.004782,0.000049,-0.004416,-0.005671,-0.003348,-0.006681,-0.004632,-0.003690,-0.007882,-0.011884,-0.006259,0.000981,-0.002773,-0.001406,0.002710,0.004339,0.001147,-0.002469,-0.001697,-0.001026,-0.002395,-0.002398,-0.002787,-0.002981,-0.003996,-0.002286,0.000455,0.003012,0.006199,0.011544,0.012521,0.011454,0.008150,0.007376,0.007920,0.007750,0.005332,0.004949,0.003631,0.002119,0.001867,0.002155,0.002683,0.003841,0.006942,0.011806,0.017969,0.020759,0.016702,0.011278,0.010105,0.012270,0.013394,0.009933,0.010141,0.008526,0.003838,0.004140,0.006206,0.005547,0.003099,0.004757,0.004848,0.006963,0.005663,-0.001548,-0.006143,-0.006069,-0.003081,-0.005738,-0.001184,0.000346,-0.003438,-0.009291,-0.012669,-0.010189,-0.006525,-0.004505,-0.003503,-0.000703,-0.004406,-0.009305,-0.005865,-0.002003,-0.004315,-0.003876,-0.004933,-0.004113,-0.006298,-0.007083,-0.006027,-0.004084,-0.003168,-0.002150,0.002814,0.003256,0.003933,0.005288,0.005193,0.003696,0.003029,0.001963,0.001111,-0.000950,-0.001427,-0.000629,0.000263,0.000473,0.002527,0.002169,0.003145,0.006312,0.010196,0.015163,0.016837,0.011882,0.007982,0.005768,0.006348,0.009188,0.006512,0.000954,-0.000653,0.002087,0.002765,0.007626,0.002368,0.006938,0.007094,0.005519,0.001401,0.000371,-0.001321,-0.002819,-0.004176,-0.003953,0.009213,0.015313,-0.006627,-0.012545,-0.009537,-0.003343,-0.003603,-0.005931,-0.006215,-0.008393,-0.006740,-0.006217,-0.006624,-0.004731,-0.004503,-0.004005,-0.003794,-0.005450,-0.006696,-0.005552,-0.001441,-0.002744,-0.005900,-0.007517,-0.004424,0.002036,0.001662,-0.000697,0.001003,-0.000353,-0.001163,-0.000798,-0.001611,-0.004127,-0.003786,-0.000847,0.000573,0.001917,0.002417,0.001909,0.001163,0.001675,0.012322,0.016035,0.008927,0.013082,0.009256,0.006770,0.007219,0.002111,-0.000928,0.002722,0.009049,0.009332,0.009419,0.009793,0.010523,0.007585,0.004172,0.001322,0.002586,-0.001513,0.000639,0.003975,0.003125,0.003011,-0.000350,-0.008087,-0.008953,-0.012038,-0.006565,-0.005250,-0.008755,-0.006114,-0.004925,-0.006567,-0.007438,-0.006602,-0.004451,-0.007179,-0.010800,-0.002916,-0.001725,-0.004584,-0.005511,-0.000430,-0.006789,-0.009860,-0.010746,-0.006022,-0.005207,-0.001851,-0.000687,-0.000730,0.000265,-0.002109,-0.005443,-0.009446,-0.012052,-0.003416,-0.005637,0.004076,0.004484,0.000980,-0.000591,-0.003722,-0.002393,-0.002748,-0.007422,0.003470,0.001559,0.007250,0.009155,-0.003307,-0.009084,-0.008755,0.007997,0.004764,0.004944,0.003738,0.003717,-0.000830,-0.004487,-0.003345,-0.004583,-0.009244,-0.010914,-0.007708,-0.012330,-0.012340,-0.005760,-0.005863,-0.016751,-0.017410,-0.015688,-0.012985,-0.015279,-0.014362,-0.014803,-0.015059,-0.012949,-0.014850,-0.013475,-0.012000,-0.014591,-0.005512,-0.010264,-0.016675,-0.008949,-0.007139,-0.006877,-0.012279,-0.012247,-0.010926,-0.012785,-0.010850,-0.011899,-0.012797,-0.017007,-0.015868,-0.009336,-0.014698,-0.018226,-0.017095,-0.019828,-0.011694,-0.002288,0.002101,-0.002239,-0.008911,-0.011202,-0.013120,-0.012230,-0.011312,-0.013582,-0.015826,-0.016306,-0.011822,0.002367,0.004219,-0.000012,-0.006335,-0.006340,-0.006674,-0.007455,-0.007588,-0.011810,-0.011171,-0.011274,-0.012916,-0.012112,-0.011154,-0.010320,-0.011037,-0.014364,-0.014892,-0.014408,-0.015139,-0.013346,-0.014660,-0.013810,-0.015789,-0.016256,-0.016863,-0.015629,-0.015631,-0.016535,-0.015868,-0.013387,-0.012312,-0.015881,-0.020272,-0.013750,-0.011887,-0.012351,-0.011803,-0.012710,-0.014062,-0.016746,-0.017859,-0.019600,-0.018855,-0.019715,-0.025555,-0.014801,-0.020172,-0.018266,-0.017031,-0.015828,-0.015206,-0.013403,-0.011919,-0.012247,-0.016719,-0.022344,-0.025375,-0.024571,-0.017178,-0.018131,-0.019905,-0.016807,-0.014321,-0.000371,-0.000556,-0.011364,-0.014252,-0.017920,-0.013113,-0.012961,-0.012175,-0.009798,-0.009148,-0.009821,-0.010566,-0.009868,-0.012558,-0.010860,-0.018309,-0.025493,-0.026360,-0.022593,-0.021569,-0.021960,-0.018593,-0.017034,-0.017346,-0.017010,-0.017675,-0.017069,-0.017114,-0.017360,-0.021167,-0.019950,-0.018783,-0.016250,-0.012561,-0.013850,-0.024213,-0.019378,-0.020145,-0.021218,-0.019903,-0.020484,-0.020634,-0.023690,-0.025734,-0.024561,-0.020805,-0.013233,-0.021945,-0.020978,-0.018825,-0.016034,-0.016590,-0.018905,-0.021708,-0.016147,-0.020937,-0.025392,-0.026415,-0.028901,-0.026205,-0.021007,-0.009103,-0.009421,-0.008660,-0.008163,-0.010826,-0.016253,-0.022685,-0.030690,-0.021750,-0.019816,-0.030358,-0.018187,-0.014686,-0.015276,-0.010851,-0.010050,-0.010835,-0.013046,-0.016745,-0.026421,-0.026985,-0.028480,-0.019981,-0.015064,-0.020253,-0.021706,-0.019713,-0.022303,-0.026229,-0.027299,-0.020917,-0.011556,-0.010444,-0.016181,-0.021953,-0.015480,-0.020140,-0.023623,-0.024858,-0.027551,-0.022040,-0.020748,-0.021482,-0.022661,-0.021233,-0.020494,-0.017198,-0.017114,-0.016254,-0.017110,-0.019005,-0.022776,-0.023827,-0.019692,-0.017536,-0.018236,-0.020451,-0.019405,-0.023520,-0.024179,-0.020434,-0.024358,-0.028706,-0.025877,-0.021489,-0.024495,-0.018381,-0.015463,-0.013582,-0.016160,-0.034344,-0.040900,-0.034853,-0.018132,-0.012940,-0.015257,-0.026301,-0.036812,-0.025004,-0.018323,-0.020391,-0.027887,-0.026999,-0.029552,-0.025732,-0.021139,-0.020433,-0.016797,-0.012697,-0.012479,-0.010696,-0.015681,-0.020106,-0.022802,-0.030519,-0.025900,-0.022961,-0.016325,-0.019612,-0.014596,-0.022718,-0.033248,-0.037113,-0.031388,-0.018494,-0.017903,-0.023897,-0.027089,-0.025738,-0.026959,-0.031182,-0.029551,-0.029210,-0.026445,-0.021259,-0.024161,-0.026705,-0.027637,-0.026899,-0.022887,-0.024604,-0.026744,-0.027629,-0.026271,-0.023716,-0.025140,-0.027261,-0.028024,-0.026819,-0.029535,-0.026009,-0.023147,-0.023724,-0.028476,-0.038107,-0.039140,-0.039908,-0.035395,-0.017797,-0.021517,-0.024386,-0.025003,-0.029754,-0.023146,-0.019516,-0.018994,-0.022034,-0.018918,-0.022295,-0.023449,-0.023535,-0.017322,-0.012664,-0.013165,-0.017373,-0.019249,-0.017311,-0.020462,-0.023963,-0.025246,-0.028864,-0.027245,-0.016349,-0.018765,-0.030873,-0.025226,-0.031523,-0.034548,-0.033210,-0.029560,-0.033655,-0.030194,-0.027127,-0.028755,-0.035132,-0.030700,-0.027045,-0.020673,-0.018041,-0.022344,-0.022555,-0.025629,-0.026840,-0.023482,-0.023714,-0.024992,-0.023744,-0.023968,-0.027469,-0.028510,-0.024889,-0.022936,-0.024277,-0.022711,-0.028355,-0.028640,-0.034257,-0.037166,-0.038625,-0.041970,-0.042007,-0.045042,-0.032390,-0.025002,-0.020713,-0.016800,-0.023554,-0.020075,-0.026539,-0.025352,-0.018496,-0.020776,-0.021722,-0.025866,-0.037879,-0.023186,-0.015851,-0.011747,-0.011151,-0.009438,-0.013298,-0.028269,-0.026830,-0.023256,-0.018649,-0.019160,-0.023551,-0.031140,-0.038449,-0.035825,-0.032023,-0.032719,-0.035784,-0.023012,-0.021482,-0.025077,-0.024864,-0.021553,-0.023119,-0.021927,-0.020007,-0.019543,-0.021785,-0.023756,-0.021667,-0.024468,-0.026371,-0.023150,-0.023627,-0.019428,-0.026895,-0.027726,-0.024636,-0.027473,-0.025232,-0.030582,-0.029242,-0.030999,-0.034529,-0.038611,-0.044973,-0.048215,-0.049972,-0.044384,-0.048274,-0.050911,-0.044886,-0.023645,-0.020162,-0.020477,-0.024008,-0.022018,-0.039977,-0.041842,-0.021149,-0.023765,-0.031840,-0.034437,-0.038701,-0.037116,-0.027207,-0.026155,-0.012539,-0.013747,-0.009831,-0.012675,-0.016900,-0.025329,-0.030858,-0.027268,-0.031027,-0.036172,-0.037007,-0.038034,-0.037702,-0.035974,-0.032906,-0.021568,-0.022864,-0.025963,-0.025105,-0.024655,-0.024655,-0.027535,-0.023938,-0.030922,-0.034537,-0.027421,-0.025353,-0.029288,-0.027141,-0.028019,-0.034821,-0.033009,-0.031264,-0.028101,-0.028203,-0.031715,-0.038998,-0.043138,-0.045833,-0.035123,-0.033623,-0.043799,-0.042962,-0.052854,-0.042299,-0.044573,-0.042949,-0.040377,-0.035041,-0.031063,-0.024405,-0.028849,-0.026292,-0.026175,-0.031453,-0.026319,-0.020984,-0.024063,-0.032757,-0.036722,-0.034403,-0.035453,-0.036242,-0.034751,-0.029545,-0.022858,-0.017249,-0.017083,-0.015386,-0.016306,-0.015850,-0.017730,-0.025627,-0.035243,-0.038304,-0.035240,-0.035907,-0.037418,-0.035074,-0.034409,-0.037139,-0.034887,-0.031518,-0.027341,-0.024164,-0.025749,-0.037595,-0.043366,-0.041400,-0.047748,-0.047494,-0.032499,-0.031441,-0.034773,-0.046123,-0.057042,-0.046690,-0.038942,-0.041976,-0.045301,-0.050576,-0.046377,-0.040979,-0.032528,-0.018832,-0.023824,-0.022362,-0.029812,-0.035265,-0.038236,-0.038082,-0.032031,-0.029648,-0.026362,-0.028957,-0.028294,-0.028316,-0.026851,-0.025397,-0.021139,-0.025350,-0.028246,-0.028932,-0.030150,-0.031100,-0.031221,-0.029989,-0.031016,-0.030056,-0.030099,-0.029813,-0.031391,-0.025516,-0.024869,-0.020573,-0.021808,-0.023456,-0.027210,-0.033817,-0.038065,-0.037744,-0.037481,-0.037333,-0.043025,-0.044125,-0.038134,-0.035126,-0.032260,-0.025171,-0.030489,-0.026119,-0.025381,-0.025344,-0.033889,-0.040000,-0.025266,-0.031540,-0.045942,-0.036817,-0.048651,-0.040079,-0.038448,-0.047228,-0.047954,-0.036558,-0.031895,-0.026068,-0.026006,-0.033888,-0.034410,-0.019116,-0.017524,-0.040062,-0.056783,-0.074266,-0.053438,-0.043688,-0.031097,-0.028363,-0.027588,-0.025564,-0.026278,-0.021848,-0.023781,-0.028321,-0.024462,-0.021502,-0.025228,-0.026922,-0.025791,-0.021914,-0.014035,-0.014280,-0.025425,-0.027160,-0.029483,-0.026944,-0.025475,-0.024060,-0.024729,-0.024217,-0.025931,-0.029385,-0.033121,-0.032658,-0.032578,-0.035750,-0.037498,-0.035839,-0.032531,-0.028806,-0.022565,-0.018667,-0.027751,-0.024146,-0.025280,-0.025108,-0.025123,-0.030547,-0.022578,-0.028283,-0.036496,-0.026091,-0.027696,-0.025444,-0.024264,-0.029206,-0.028143,-0.024196,-0.022140,-0.021236,-0.027128,-0.027134,-0.028458,-0.028611,-0.028316,-0.042761,-0.034122,-0.032490,-0.052644,-0.062735,-0.045621,-0.023975,-0.022676,-0.021432,-0.024270,-0.021991,-0.022417,-0.023877,-0.019347,-0.017413,-0.019653,-0.010111,-0.018199,-0.023298,-0.021940,-0.019009,-0.002814,-0.005077,-0.017976,-0.020984,-0.019682,-0.021188,-0.021721,-0.021167,-0.020910,-0.021641,-0.022931,-0.023918,-0.026720,-0.025592,-0.026137,-0.028415,-0.032396,-0.027735,-0.021512,-0.020145,-0.023719,-0.025291,-0.023164,-0.023917,-0.023623,-0.028684,-0.030813,-0.032176,-0.030915,-0.023125,-0.030284,-0.034000,-0.023882,-0.022109,-0.022664,-0.022193,-0.019719,-0.023914,-0.022670,-0.023395,-0.023027,-0.032913,-0.028912,-0.025060,-0.025582,-0.024651,-0.022690,-0.019541,-0.009048,-0.011638,-0.016119,-0.020359,-0.023692,-0.018203,-0.021254,-0.023070,-0.019935,-0.016504,-0.012305,-0.019622,-0.020857,-0.020899,-0.020757,-0.020335,-0.013565,-0.001161,0.002387,-0.015876,-0.016360,-0.018922,-0.019539,-0.019296,-0.018960,-0.019163,-0.020070,-0.020332,-0.020807,-0.021182,-0.019407,-0.017012,-0.019335,-0.021509,-0.022553,-0.025653,-0.023629,-0.023212,-0.020852,-0.020719,-0.020118,-0.022306,-0.024077,-0.023224,-0.021175,-0.012167,-0.015997,-0.018403,-0.017251,-0.015950,-0.020145,-0.020774,-0.018815,-0.020621,-0.020483,-0.020356,-0.023619,-0.022888,-0.023092,-0.020677,-0.017849,-0.018003,-0.017745,-0.008374,-0.001077,-0.008029,-0.018945,-0.019608,-0.022841,-0.018047,-0.022441,-0.021781,-0.021421,-0.019317,-0.018716,-0.017311,-0.016703,-0.019545,-0.013806,-0.017716,-0.017109,-0.015989,0.006136,-0.013944,-0.019168,-0.023817,-0.021284,-0.020673,-0.020985,-0.021048,-0.020853,-0.020961,-0.021636,-0.021741,-0.019878,-0.017421,-0.017759,-0.016690,-0.016982,-0.022762,-0.023578,-0.026511,-0.024726,-0.026490,-0.025964,-0.021799,-0.019498,-0.019108,-0.017018,-0.015179,-0.015588,-0.013669,-0.018386,-0.017640,-0.017930,-0.019750,-0.021325,-0.019073,-0.020451,-0.020880,-0.019676,-0.016134,-0.023831,-0.018681,-0.019825,-0.017186,-0.022245,-0.019890,-0.016166,-0.027599,-0.026801,-0.021370,-0.021367,-0.017697,-0.023957,-0.024308,-0.022710,-0.020480,-0.021898,-0.018204,-0.019057,-0.023328,-0.020617,-0.015791,-0.018871,-0.019671,0.004650,0.003672,-0.022793,-0.022738,-0.022321,-0.021726,-0.021389,-0.020683,-0.020391,-0.021038,-0.021347,-0.021834,-0.019081,-0.016323,-0.016452,-0.015460,-0.010770,-0.017754,-0.014850,-0.015826,-0.021469,-0.022951,-0.027149,-0.023638,-0.024947,-0.026274,-0.022956,-0.017736,-0.017458,-0.023232,-0.020714,-0.017079,-0.017968,-0.009936,-0.019901,-0.017652,-0.017809,-0.023662,-0.020192,-0.017781,-0.020840,-0.024960,-0.022258,-0.023715,-0.027938,-0.030896,-0.019416,-0.034640,-0.036090,-0.022312,-0.019261,-0.020069,-0.020443,-0.021387,-0.017915,-0.017818,-0.019441,-0.018284,-0.021725,-0.021111,-0.017061,-0.016416,-0.016334,-0.016717,-0.014186,0.005327,-0.019369,-0.020277,-0.020770,-0.022308,-0.018530,-0.019572,-0.020984,-0.020327,-0.016549,-0.014569,-0.015410,-0.013096,-0.012258,-0.009195,-0.004607,-0.014908,-0.013406,-0.013186,-0.014757,-0.015916,-0.017616,-0.018341,-0.019218,-0.020016,-0.020652,-0.015946,-0.014265,-0.028101,-0.028661,-0.024412,-0.023139,-0.002263,-0.017700,-0.016655,-0.014930,-0.014045,-0.015271,-0.017012,-0.022121,-0.023554,-0.020557,-0.022355,-0.029354,-0.018576,-0.000552,-0.021013,-0.035578,-0.016062,-0.012280,-0.016530,-0.017921,-0.016505,-0.010965,-0.015758,-0.015981,-0.015945,-0.018498,-0.018620,-0.015119,-0.011691,-0.011592,-0.013828,-0.013746,0.002536,-0.018453,-0.020497,-0.018091,-0.017987,-0.016906,-0.017306,-0.016579,-0.016880,-0.014675,-0.009983,-0.012074,-0.009608,-0.007401,-0.003212,-0.005162,-0.012183,-0.012945,-0.011852,-0.013404,-0.016203,-0.016250,-0.013854,-0.006842,-0.012674,-0.014385,-0.014801,-0.022116,-0.016642,-0.009912,-0.004926,0.002611,-0.004705,-0.013997,-0.013516,-0.007602,-0.004549,-0.013636,-0.015333,-0.013130,-0.007303,-0.012642,-0.013457,-0.012347,-0.004631,-0.008044,-0.010972,-0.006963,-0.012859,-0.008394,-0.011909,-0.012279,-0.008407,-0.003425,-0.009341,-0.008686,-0.009374,-0.007684,-0.010739,-0.009538,-0.008592,-0.012616,-0.012221,-0.007112,0.008215,-0.011524,-0.008797,-0.009163,-0.009271,-0.005512,-0.005250,-0.005381,-0.005479,-0.003532,-0.002233,-0.002216,-0.002867,-0.001506,0.001163,-0.000126,-0.008820,-0.011712,-0.010077,-0.010525,-0.011801,-0.011139,-0.007680,0.001385,0.003982,0.004187,0.000405,-0.000080,0.003506,0.002334,0.001922,0.011805,0.011590,-0.001897,-0.005204,0.001288,0.000615,-0.010877,-0.008076,-0.002958,0.014346,0.016870,0.015804,0.012045,0.007206,-0.000009,0.008525,0.000797,-0.003360,-0.003158,-0.004510,-0.004854,0.005751,0.007973,-0.003605,-0.002822,-0.004589,-0.003409,-0.001455,-0.005057,-0.003311,-0.003282,-0.001652,0.010819,0.005598,0.001962,0.002511,0.003874,0.005008,0.006534,0.005872,0.004307,0.005762,0.006487,0.005762,0.006084,0.006032,0.007585,0.008940,0.008074,0.009024,-0.002376,-0.002858,-0.001873,-0.000053,0.005426,0.016505,0.019534,0.017211,0.023661,0.021539,0.019782,0.023350,0.023990,0.022538,0.021339,0.021178,0.022118,0.005555,0.003322,0.004180,-0.006611,-0.004257,0.014254,0.012226,0.017142,0.022645,0.010194,0.006286,0.014094,0.027015,0.023709,0.007480,0.009997,0.007926,0.016798,0.015556,0.022205,0.005373,0.006161,0.012061,0.012091,0.009936,0.012115,0.010674,0.008407,0.011058,0.023649,0.014629,0.013405,0.014802,0.016853,0.017432,0.015820,0.012602,0.014202,0.016941,0.019616,0.019527,0.020035,0.021871,0.021183,0.023327,0.022911,0.024463,0.024673,0.014814,0.015911,0.018142,0.022770,0.020142,0.025861,0.023523,0.025378,0.025204,0.025235,0.026382,0.025700,0.024676,0.025904,0.025698,0.033349,0.030354,0.011750,0.010043,0.002340,0.007980,0.004198,0.023935,0.016116,0.015343,0.011290,0.010053,0.017368,0.025138,0.026124,0.026433,0.029206,0.031742,0.025899,0.022949,0.024805,0.010445,0.005357,0.007042,0.009412,0.007574,0.006040,0.006257,0.006160,0.009859,0.028790,0.017800,0.014306,0.023237,0.025585,0.021918,0.023057,0.022588,0.022379,0.022517,0.021492,0.019918,0.020894,0.019934,0.022534,0.019787,0.017925,0.018501,0.013701,0.009251,0.007841,0.005409,0.003007,0.002207,0.013421,0.009132,0.010323,0.009912,0.008399,0.008777,0.006877,0.006479,0.007361,0.007838,0.003566,0.003320,0.005959,0.006871,0.006256,-0.005669,-0.008363,0.017037,0.009378,0.007768,0.007934,0.011049,0.023006,0.019543,0.019118,0.014738,0.015088,0.017234,0.011162,0.012082,0.015200,0.018433,0.002768,-0.000606,-0.002584,-0.002221,-0.003313,-0.003588,-0.002977,0.023605,0.014776,0.026331,0.018947,0.015155,0.021683,0.018804,0.012656,0.010889,0.012288,0.014353,0.009611,0.007362,0.006069,0.004847,0.005196,0.001775,-0.003780,-0.003696,-0.004224,-0.005088,-0.007413,-0.008801,-0.008119,-0.006142,0.004110,0.004772,0.004266,0.004923,0.004378,0.003023,0.001599,0.000282,0.000037,-0.000809,0.000457,0.000731,-0.000771,-0.000025,0.001342,-0.000309,-0.004956,0.007247,0.009720,0.008918,0.015609,0.019168,0.014103,0.005974,0.000148,0.003409,0.005777,0.011393,0.011759,0.012396,0.010870,0.007728,0.011383,-0.004946,-0.010173,-0.009731,-0.010428,-0.003110,0.015799,-0.002726,-0.001993,-0.001231,-0.003026,-0.003908,-0.004502,-0.004269,-0.004307,-0.002275,-0.003104,-0.002975,-0.002639,-0.003511,-0.000898,-0.000406,-0.000062,-0.002557,-0.003652,-0.006193,-0.007735,-0.006669,-0.008777,-0.009816,-0.006801,-0.005158,0.002718,0.003909,0.004590,0.004199,0.002103,0.002250,0.000975,0.000064,-0.001374,-0.004456,-0.003909,-0.005363,-0.009105,-0.002947,-0.005891,-0.004009,0.000523,0.011440,0.012068,0.011500,0.009074,0.012168,0.009366,0.006249,0.000763,-0.003294,-0.004248,-0.004236,0.002542,0.000543,-0.000007,-0.003897,-0.006830,0.003166,-0.004879,-0.009270,-0.012148,-0.007853,-0.006798,-0.012105,-0.012388,-0.008638,-0.012573,-0.010114,-0.010982,-0.014239,-0.014023,-0.011447,-0.008040,-0.010691,-0.011127,-0.012194,-0.007376,-0.008437,-0.012392,-0.012842,-0.011086,-0.012821,-0.014341,-0.011164,-0.013587,-0.014780,-0.015455,-0.014741,-0.014211,-0.008396,-0.007315,-0.010714,-0.015458,-0.011426,-0.008188,-0.009228,-0.010292,-0.011431,-0.010600,-0.009452,-0.010580,-0.011108,-0.010914,-0.009293,-0.007776,-0.005634,-0.008033,-0.006332,-0.005312,-0.005065,-0.004267,-0.009168,-0.012322,-0.012575,-0.009542,-0.007731,-0.006696,-0.008851,-0.007398,-0.008979,-0.006644,-0.006787,-0.008025,-0.006318,-0.011342,-0.008465,-0.007378,-0.012118,-0.009208,-0.008758,-0.008550,-0.009648,-0.008330,-0.007618,-0.008319,-0.008060,-0.004924,-0.006007,-0.006771,-0.009868,-0.006912,-0.007392,-0.009403,-0.008175,-0.008908,-0.008735,-0.009276,-0.006495,-0.006806,-0.009198,-0.010581,-0.007508,-0.005840,-0.006953,-0.009507,-0.010308,-0.012890,-0.008287,-0.005085,-0.006351,-0.007345,-0.007299,-0.005943,-0.005416,-0.005855,-0.007889,-0.006887,-0.005266,-0.005715,-0.004635,-0.005861,-0.006336,-0.005132,-0.003508,-0.002933,-0.005391,-0.009643,-0.007356,-0.008934,-0.008005,-0.008234,-0.011163,-0.011465,-0.010782,-0.003340,-0.003174,-0.003590,-0.005053,-0.005413,-0.009819,-0.004844,-0.005852,-0.006191,-0.005773,-0.006385,-0.006401,-0.007860,-0.008203,-0.008138,-0.007813,-0.006604,-0.006775,-0.009530,-0.008056,-0.008625,-0.006005,-0.005359,-0.005559,-0.007073,-0.008491,-0.008086,-0.008660,-0.006199,-0.007666,-0.011549,-0.012613,-0.008531,-0.007211,-0.004972,-0.010894,-0.010988,-0.007082,-0.004372,-0.004994,-0.007399,-0.008719,-0.005773,-0.005251,-0.005553,-0.005895,-0.007934,-0.006880,-0.005112,-0.004489,-0.007592,-0.008298,-0.004342,-0.003828,-0.002495,-0.008925,-0.005708,-0.004433,-0.007331,-0.007279,-0.004965,-0.006998,-0.008142,-0.006437,-0.002828,-0.003556,-0.004866,-0.009775,-0.008529,-0.005678,-0.005641,-0.003664,-0.006605,-0.005945,-0.005204,-0.004339,-0.005364,-0.007224,-0.007857,-0.006712,-0.006556,-0.007040,-0.009280,-0.009040,-0.008009,-0.006098,-0.004609,-0.004568,-0.006750,-0.008558,-0.008415,-0.004771,-0.005965,-0.009342,-0.009762,-0.008807,-0.007171,-0.006509,-0.009400,-0.010555,-0.010087,-0.006795,-0.004159,-0.004864,-0.007277,-0.008761,-0.005085,-0.005772,-0.006107,-0.004675,-0.006574,-0.007582,-0.006357,-0.009437,-0.010097,-0.007656,-0.004831,-0.001106,-0.003890,-0.006726,-0.005629,-0.004746,-0.009468,-0.009149,-0.008201,-0.010410,-0.009943,-0.006145,-0.006617,-0.005736,-0.005954,-0.005863,-0.003956,-0.003989,-0.003668,-0.001712,-0.002747,-0.004625,-0.007596,-0.008498,-0.006162,-0.006791,-0.009122,-0.007300,-0.004952,-0.004629,-0.004150,-0.007256,-0.007267,-0.005374,-0.004074,-0.002384,-0.004032,-0.006833,-0.006701,-0.006310,-0.005776,-0.006190,-0.005836,-0.007529,-0.011487,-0.006239,-0.012003,-0.010349,-0.012602,-0.009076,-0.005762,-0.006962,-0.006343,-0.005734,-0.005577,-0.005160,-0.003438,-0.004193,-0.005383,-0.007922,-0.007884,-0.010991,-0.010841,-0.011511,-0.009418,-0.005859,-0.004910,-0.005674,-0.003092,-0.005320,-0.007780,-0.008380,-0.009897,-0.011367,-0.011156,-0.006041,-0.005119,-0.004289,-0.006145,-0.008219,-0.006235,-0.009474,-0.006348,-0.003176,-0.003245,-0.004654,-0.013096,-0.011559,-0.009212,-0.010499,-0.011401,-0.006937,-0.005242,-0.006798,-0.006447,-0.008157,-0.009835,-0.006584,-0.006942,-0.003712,-0.004138,-0.007801,-0.007167,-0.007704,-0.007404,-0.006790,-0.006810,-0.007477,-0.010337,-0.003843,-0.008541,-0.012195,-0.014275,-0.011451,-0.008219,-0.008041,-0.005301,-0.004141,-0.005371,-0.005102,-0.002870,-0.005953,-0.005385,-0.007117,-0.007197,-0.010132,-0.012360,-0.013524,-0.014024,-0.009949,-0.008620,-0.003505,-0.003253,-0.002896,-0.003983,-0.008627,-0.009864,-0.007541,-0.007697,-0.005015,-0.003869,-0.005459,-0.009923,-0.012518,-0.010634,-0.007156,-0.005991,-0.005436,-0.002765,-0.005483,-0.008289,-0.009332,-0.008886,-0.010354,-0.009111,-0.004651,-0.005171,-0.008113,-0.007483,-0.008209,-0.008150,-0.007112,-0.009696,-0.005808,-0.006226,-0.007032,-0.008524,-0.010766,-0.009975,-0.007422,-0.007956,-0.007803,-0.009764,-0.007129,-0.009446,-0.015691,-0.012300,-0.009886,-0.007152,-0.004791,-0.004474,-0.005546,-0.007729,-0.006201,-0.003457,-0.006096,-0.006742,-0.008406,-0.007215,-0.010549,-0.014361,-0.015231,-0.014392,-0.012072,-0.007407,-0.002808,-0.004061,-0.004516,-0.006138,-0.009134,-0.011535,-0.007874,-0.007184,-0.007219,-0.006686,-0.008390,-0.009995,-0.009908,-0.008739,-0.006988,-0.007572,-0.006662,-0.009637,-0.010184,-0.011496,-0.012669,-0.010272,-0.010044,-0.011728,-0.009620,-0.010991,-0.011902,-0.013412,-0.013028,-0.015722,-0.015837,-0.020053,-0.016405,-0.017018,-0.017942,-0.018831,-0.020147,-0.018529,-0.014389,-0.015837,-0.014672,-0.015225,-0.015590,-0.015601,-0.010571,-0.023422,-0.021416,-0.020497,-0.020566,-0.020382,-0.020175,-0.020622,-0.019534,-0.019382,-0.018385,-0.017219,-0.018759,-0.017913,-0.019351