-0.003790,,-0.001862,-0.001676,-0.002459,-0.002427,-0.001890,-0.001452,-0.000973,-0.000261,-0.000257,-0.001632,-0.002842,-0.003371,-0.003455,-0.003556,-0.003535,-0.003568,-0.003627,-0.003603,-0.003590,-0.003656,-0.003729,-0.003768,-0.003777,-0.003749,-0.003657,-0.003562,-0.003464,-0.003340,-0.003239,-0.003139,-0.003093,-0.003037,-0.003021,-0.003018,-0.003006,-0.003002,-0.003003,-0.002968,-0.002968,-0.002975,-0.002950,-0.002938,-0.002920,-0.002879,-0.002887,-0.002914,-0.002887,-0.002841,-0.002809,-0.002692,-0.002356,-0.002132,-0.001996,-0.001248,-0.000697,-0.000186,-0.000229,-0.000204,-0.000761,-0.001620,-0.002381,-0.002587,-0.002810,-0.002836,-0.002135,-0.001315,-0.000647,-0.001059,-0.001336,-0.000684,-0.000881,-0.000371,-0.000429,-0.001450,-0.002459,-0.002846,-0.002971,-0.003113,-0.003320,-0.003160,-0.003114,-0.003044,-0.003100,-0.003206,-0.003128,-0.003075,-0.003217,-0.003288,-0.003118,-0.002954,-0.002900,-0.002884,-0.002767,-0.002737,-0.002588,-0.002465,-0.002501,-0.002524,-0.002460,-0.002469,-0.002443,-0.002444,-0.002521,-0.002509,-0.002437,-0.002440,-0.002388,-0.002325,-0.002296,-0.002339,-0.002354,-0.002265,-0.002329,-0.002284,-0.001950,-0.001487,-0.000749,0.000157,0.000561,0.000225,0.000128,0.000354,0.000241,-0.000554,-0.001688,-0.002099,-0.001826,-0.001221,-0.000731,-0.000219,0.000543,0.000209,-0.000150,-0.000039,-0.000795,-0.000778,-0.000243,-0.001056,-0.001522,-0.002247,-0.002560,-0.002561,-0.002526,-0.002646,-0.002753,-0.002730,-0.002549,-0.002494,-0.002474,-0.002595,-0.002622,-0.002612,-0.002595,-0.002563,-0.002484,-0.002299,-0.002088,-0.002052,-0.002074,-0.002118,-0.002047,-0.001947,-0.001973,-0.001992,-0.001963,-0.001944,-0.001960,-0.001895,-0.001835,-0.001864,-0.001889,-0.001881,-0.001786,-0.001605,-0.001570,-0.001562,-0.001600,-0.001669,-0.001810,-0.001378,-0.000324,0.000629,0.001222,0.001464,0.001296,0.001011,0.000537,0.000177,-0.000134,0.000102,-0.000006,-0.000102,0.000472,0.001093,0.001423,0.001371,0.001374,0.000643,0.000371,-0.000153,-0.000643,-0.000002,-0.000529,-0.001047,-0.001846,-0.002248,-0.002208,-0.002128,-0.002018,-0.001967,-0.002096,-0.001993,-0.001827,-0.001911,-0.001986,-0.001998,-0.002057,-0.002024,-0.001659,-0.000821,-0.000120,0.000003,-0.000332,-0.000795,-0.000820,-0.000776,-0.000976,-0.001046,-0.001045,-0.001066,-0.001055,-0.001110,-0.001179,-0.001122,-0.000950,-0.000898,-0.000946,-0.000796,-0.000801,-0.000804,-0.000612,-0.000503,-0.000534,-0.000447,0.000182,0.000958,0.001831,0.002959,0.003015,0.002833,0.002347,0.002019,0.001665,0.001400,0.001311,0.001569,0.002264,0.002628,0.002969,0.003317,0.002742,0.002132,0.001264,0.000411,0.000566,0.001565,0.001852,0.000671,-0.000282,-0.000571,-0.000678,-0.000833,-0.000336,0.000128,0.000060,0.000254,0.000532,0.000602,0.000550,0.000573,0.000559,0.000632,0.001002,0.001476,0.001689,0.001678,0.001323,0.000822,0.000784,0.000716,0.000365,0.000068,-0.000066,0.000148,0.000565,0.000686,0.000397,0.000051,-0.000201,-0.000176,-0.000155,-0.000093,-0.000056,-0.000090,0.000043,0.000097,0.000395,0.000772,0.001393,0.002072,0.002708,0.003762,0.004069,0.003930,0.003780,0.003592,0.003295,0.002399,0.002028,0.002312,0.002797,0.003114,0.004209,0.004901,0.003506,0.003403,0.002772,0.001132,0.001079,0.001746,0.001683,0.001461,0.001165,0.001249,0.001653,0.001860,0.002384,0.002839,0.002916,0.002903,0.002917,0.002920,0.002986,0.003120,0.003175,0.003176,0.003197,0.003211,0.003188,0.003296,0.003345,0.003304,0.003506,0.003520,0.003314,0.003298,0.003301,0.003414,0.003640,0.003663,0.003412,0.003039,0.002656,0.002397,0.002381,0.002637,0.002804,0.002403,0.001931,0.001591,0.001904,0.002810,0.003572,0.003892,0.003950,0.004482,0.005005,0.004667,0.004531,0.004405,0.004470,0.004018,0.003152,0.002716,0.002713,0.003092,0.004539,0.005318,0.004058,0.003695,0.003769,0.002578,0.002155,0.002837,0.002673,0.002849,0.002807,0.003066,0.003853,0.004104,0.004364,0.004483,0.004483,0.004541,0.004591,0.004600,0.004570,0.004680,0.004819,0.004814,0.004735,0.004746,0.004799,0.004847,0.004882,0.004897,0.005088,0.005193,0.005205,0.005425,0.005510,0.005245,0.004941,0.004815,0.004904,0.005010,0.005010,0.005193,0.005370,0.005233,0.004977,0.004795,0.004929,0.004904,0.004665,0.005061,0.005572,0.005824,0.005842,0.005937,0.006666,0.006795,0.006551,0.006121,0.005399,0.005259,0.005061,0.004791,0.004646,0.004553,0.005273,0.006657,0.006807,0.005983,0.005094,0.005254,0.004741,0.003788,0.004678,0.004793,0.005215,0.005548,0.005786,0.005954,0.006049,0.006225,0.006406,0.006479,0.006454,0.006434,0.006307,0.006327,0.006464,0.006539,0.006528,0.006526,0.006498,0.006413,0.006326,0.006262,0.006315,0.006319,0.006194,0.006043,0.005924,0.005787,0.005634,0.005626,0.005812,0.005889,0.005796,0.005620,0.005610,0.005753,0.005666,0.005446,0.005329,0.005557,0.006026,0.006241,0.006329,0.006670,0.006992,0.006855,0.007167,0.007628,0.007097,0.006670,0.005770,0.005807,0.005987,0.005145,0.005260,0.004951,0.005288,0.006111,0.006570,0.006570,0.005701,0.005024,0.005142,0.004193,0.003192,0.003504,0.003168,0.004579,0.004857,0.004966,0.005051,0.005065,0.005380,0.005527,0.005575,0.005688,0.005643,0.005965,0.006206,0.006128,0.006062,0.006036,0.006117,0.006163,0.006404,0.006760,0.007009,0.006968,0.006703,0.006199,0.006221,0.006518,0.006548,0.006402,0.006419,0.006232,0.006160,0.006246,0.006095,0.005920,0.005887,0.006129,0.006333,0.006498,0.006959,0.007157,0.007182,0.007341,0.007679,0.007817,0.007795,0.007966,0.007778,0.006647,0.006117,0.006338,0.005952,0.005288,0.005329,0.006173,0.006824,0.006919,0.007203,0.007139,0.006718,0.005817,0.005683,0.005529,0.004366,0.004133,0.003564,0.003455,0.004819,0.005391,0.005200,0.005196,0.005306,0.005253,0.005201,0.005531,0.005507,0.005525,0.005709,0.005575,0.005709,0.005935,0.006020,0.005852,0.005968,0.006549,0.006787,0.006616,0.006511,0.006660,0.006970,0.007204,0.007508,0.007799,0.008006,0.007875,0.007852,0.008003,0.007954,0.008193,0.008615,0.008843,0.008955,0.008868,0.008663,0.008705,0.008649,0.008762,0.009166,0.009941,0.010183,0.009972,0.009876,0.009273,0.008282,0.007315,0.007358,0.008269,0.008497,0.008996,0.009187,0.009208,0.009481,0.009271,0.008602,0.008037,0.006555,0.006308,0.006057,0.005613,0.005688,0.005116,0.005107,0.006250,0.006330,0.006924,0.007300,0.007034,0.007316,0.006994,0.006922,0.007193,0.007428,0.007561,0.007895,0.008278,0.008407,0.008328,0.008667,0.009228,0.009094,0.008839,0.008432,0.008237,0.008382,0.008467,0.008738,0.008977,0.009167,0.009351,0.009529,0.009816,0.009929,0.010092,0.010363,0.010630,0.011082,0.011370,0.011224,0.011512,0.011530,0.011282,0.011656,0.012456,0.012805,0.012481,0.012763,0.012395,0.011438,0.010721,0.011088,0.011753,0.011771,0.011997,0.012384,0.012379,0.012424,0.012428,0.011667,0.010776,0.009819,0.009407,0.009569,0.008916,0.009054,0.009227,0.008500,0.008815,0.010462,0.010745,0.010802,0.011425,0.011581,0.011068,0.010654,0.011026,0.011479,0.011696,0.011708,0.011658,0.011597,0.011727,0.012140,0.012093,0.011817,0.011997,0.012020,0.012074,0.012201,0.011906,0.011866,0.011695,0.011761,0.011875,0.011807,0.011949,0.012170,0.012417,0.012610,0.012836,0.012978,0.013355,0.013468,0.013654,0.013801,0.013903,0.014414,0.014794,0.015138,0.015033,0.015260,0.015214,0.015003,0.014920,0.015261,0.015085,0.014784,0.014415,0.014763,0.015320,0.015418,0.015667,0.015534,0.014776,0.014713,0.013756,0.012314,0.011996,0.012821,0.012156,0.011957,0.012808,0.013856,0.015344,0.015415,0.015513,0.015656,0.015200,0.014551,0.014473,0.014888,0.015033,0.014816,0.014733,0.014789,0.015026,0.015278,0.014934,0.014549,0.014731,0.014857,0.014805,0.014654,0.014175,0.014173,0.014075,0.013804,0.013721,0.013934,0.013843,0.013746,0.014107,0.014493,0.014746,0.015044,0.015283,0.015056,0.014532,0.014659,0.015075,0.015942,0.016231,0.016263,0.016309,0.016331,0.016460,0.016221,0.015586,0.015644,0.015665,0.015668,0.015099,0.014849,0.015334,0.015509,0.015968,0.015909,0.014826,0.015172,0.014930,0.013194,0.013291,0.014149,0.013495,0.013015,0.013173,0.013489,0.014353,0.015940,0.016154,0.016267,0.015725,0.015524,0.015450,0.015552,0.015505,0.015481,0.015645,0.015746,0.015664,0.015663,0.015472,0.015093,0.014894,0.014628,0.014547,0.014626,0.014460,0.014724,0.014819,0.014448,0.014378,0.015098,0.015574,0.015728,0.016112,0.016407,0.016678,0.016542,0.016341,0.016225,0.016321,0.016520,0.016296,0.016693,0.017174,0.016964,0.016735,0.016342,0.016385,0.016397,0.016171,0.016080,0.015883,0.015990,0.016328,0.016092,0.015971,0.015546,0.015794,0.016016,0.015234,0.015301,0.014832,0.014090,0.014087,0.013148,0.013436,0.013093,0.013038,0.013022,0.013200,0.013499,0.015039,0.014998,0.014976,0.014915,0.014832,0.014827,0.014611,0.014568,0.014531,0.014431,0.014472,0.014358,0.014111,0.013766,0.013398,0.013241,0.013147,0.013214,0.012996,0.012876,0.012815,0.012779,0.012675,0.012788,0.013530,0.014246,0.014354,0.014272,0.014077,0.014152,0.013961,0.013572,0.013557,0.013662,0.013899,0.014123,0.013924,0.013813,0.013421,0.012799,0.012235,0.012298,0.013159,0.012915,0.012388,0.012358,0.013201,0.012941,0.012990,0.012834,0.013012,0.013459,0.013322,0.012966,0.011920,0.011236,0.011523,0.010631,0.009930,0.010052,0.008928,0.009212,0.009582,0.009633,0.010064,0.011350,0.011251,0.011216,0.011255,0.011300,0.011203,0.011086,0.011046,0.010977,0.010909,0.010829,0.010562,0.010443,0.010307,0.010494,0.010483,0.010365,0.010054,0.009718,0.009908,0.010284,0.010212,0.009943,0.009944,0.010233,0.010612,0.010980,0.010974,0.010755,0.010556,0.010526,0.010771,0.010595,0.010917,0.010970,0.010894,0.010811,0.010681,0.010582,0.009554,0.009022,0.009775,0.008746,0.008002,0.008712,0.009199,0.009097,0.009867,0.009899,0.010130,0.009961,0.009943,0.009374,0.008242,0.008263,0.009003,0.009192,0.007911,0.006667,0.006595,0.005266,0.005993,0.006556,0.006199,0.006946,0.007748,0.007690,0.007682,0.007607,0.007579,0.007522,0.007722,0.007441,0.007233,0.007684,0.007718,0.007742,0.007639,0.008044,0.008191,0.007875,0.007949,0.008046,0.008298,0.008336,0.008928,0.009575,0.010044,0.009987,0.009973,0.010159,0.010002,0.009958,0.010214,0.010176,0.010009,0.009688,0.009403,0.009361,0.009379,0.009146,0.009248,0.009341,0.008632,0.007614,0.007877,0.007180,0.006365,0.006381,0.007067,0.007449,0.007157,0.007109,0.008158,0.008429,0.008314,0.008447,0.008338,0.008098,0.007712,0.007264,0.007010,0.006334,0.006083,0.005514,0.005087,0.005779,0.005880,0.006476,0.007259,0.007045,0.007052,0.007156,0.007119,0.007059,0.007303,0.007660,0.007691,0.008103,0.008198,0.007882,0.007659,0.007869,0.007760,0.007739,0.007855,0.007362,0.007109,0.007581,0.007863,0.007863,0.008733,0.009422,0.009791,0.010133,0.010127,0.009902,0.010125,0.010291,0.010349,0.010061,0.009786,0.009727,0.009961,0.009594,0.009542,0.009927,0.009255,0.008108,0.008333,0.008071,0.007123,0.007089,0.007672,0.008302,0.008150,0.008450,0.008984,0.009242,0.009341,0.009455,0.008959,0.008511,0.008604,0.008416,0.008507,0.007744,0.007640,0.007235,0.006832,0.007001,0.008006,0.008183,0.008749,0.009214,0.008637,0.008385,0.008202,0.008551,0.008852,0.009069,0.008754,0.008777,0.008705,0.008559,0.008673,0.008656,0.008240,0.008490,0.008721,0.008527,0.008411,0.008554,0.008375,0.007963,0.008367,0.008877,0.009273,0.009894,0.010389,0.010352,0.010385,0.010227,0.010111,0.010029,0.010062,0.009900,0.009718,0.009555,0.009470,0.009789,0.008974,0.007853,0.008230,0.008227,0.007883,0.007888,0.007972,0.007848,0.007599,0.007817,0.007828,0.008185,0.008454,0.008692,0.008655,0.008174,0.008008,0.007686,0.007212,0.006826,0.007327,0.007006,0.006905,0.007093,0.006964,0.007391,0.007625,0.007910,0.008077,0.008038,0.007649,0.007765,0.008175,0.008292,0.007769,0.008022,0.008332,0.008518,0.008818,0.008686,0.008389,0.008779,0.008882,0.008343,0.007795,0.007575,0.007561,0.007827,0.008347,0.008719,0.009136,0.009466,0.009271,0.009677,0.009958,0.009815,0.009498,0.009285,0.009331,0.009033,0.008701,0.008733,0.008638,0.008686,0.007945,0.006966,0.007000,0.007141,0.007231,0.007030,0.006876,0.006599,0.006542,0.006819,0.006990,0.007115,0.007245,0.007570,0.007678,0.007079,0.006826,0.006772,0.005980,0.006347,0.007059,0.007210,0.006570,0.006390,0.006192,0.006206,0.006951,0.007048,0.007649,0.007547,0.007416,0.007266,0.007650,0.007393,0.007626,0.007797,0.007660,0.007584,0.007672,0.007498,0.007247,0.007264,0.007160,0.006784,0.006343,0.005916,0.005920,0.006422,0.007170,0.007900,0.008655,0.009076,0.008795,0.009189,0.009239,0.008948,0.008756,0.008540,0.008102,0.007876,0.007777,0.007552,0.007404,0.007440,0.006789,0.005716,0.005121,0.005439,0.006008,0.006108,0.005939,0.005832,0.005809,0.005971,0.005957,0.005855,0.005735,0.005870,0.006110,0.005874,0.006033,0.006373,0.005710,0.006032,0.006083,0.006091,0.005404,0.004663,0.004472,0.004388,0.004165,0.004793,0.004952,0.005515,0.005718,0.005553,0.005595,0.005571,0.005541,0.005536,0.005149,0.005275,0.005187,0.005019,0.005196,0.005431,0.005551,0.005626,0.005438,0.005230,0.005276,0.005805,0.006397,0.006912,0.007242,0.007644,0.008157,0.008010,0.007765,0.007503,0.007399,0.007197,0.006759,0.006585,0.006529,0.006183,0.006028,0.005934,0.005698,0.005001,0.003899,0.003999,0.004402,0.004898,0.004531,0.004480,0.004343,0.004521,0.004923,0.004475,0.003911,0.003935,0.004609,0.004751,0.004360,0.003902,0.003376,0.003496,0.003031,0.003086,0.003252,0.002115,0.001226,0.001073,0.001144,0.001264,0.001889,0.002367,0.002775,0.002979,0.003089,0.003838,0.003932,0.003451,0.002947,0.002894,0.002802,0.002436,0.002364,0.002180,0.002204,0.002189,0.002172,0.002268,0.002580,0.003248,0.003982,0.004601,0.005009,0.005287,0.005657,0.005869,0.005893,0.005840,0.005662,0.005364,0.005169,0.005059,0.004954,0.004935,0.004884,0.004829,0.004909,0.004888,0.004403,0.003944,0.003464,0.003737,0.003114,0.003169,0.003483,0.003534,0.003915,0.003991,0.003204,0.002882,0.002862,0.002451,0.001655,0.000851,0.001040,0.001235,0.001038,0.001190,0.001385,0.001378,0.000562,0.000551,0.000872,0.000957,0.000996,0.001168,0.001591,0.002390,0.002312,0.001870,0.002242,0.001086,0.000189,0.000403,0.000960,0.001097,0.000987,0.000413,0.000379,0.000418,0.000613,0.000541,0.000521,0.000660,0.000890,0.001554,0.002706,0.003607,0.004101,0.004692,0.004737,0.004473,0.004205,0.004052,0.003821,0.003711,0.003522,0.003364,0.003282,0.003393,0.003422,0.003500,0.004222,0.003534,0.002447,0.002957,0.002535,0.002835,0.003193,0.002650,0.002153,0.002427,0.002985,0.003421,0.003116,0.002745,0.002503,0.002119,0.001870,0.001568,0.001710,0.001657,0.001514,0.001442,0.001462,0.001526,0.001005,0.000777,0.001169,0.001017,0.001153,0.001632,0.003124,0.002961,0.001731,0.000507,0.000013,0.000128,-0.000017,0.000012,0.000652,0.000827,0.001233,0.001526,0.001761,0.001569,0.001120,0.001065,0.001084,0.000982,0.000812,0.001319,0.002297,0.003374,0.003970,0.004097,0.004079,0.004063,0.003888,0.003623,0.003377,0.003166,0.003004,0.003283,0.003612,0.003726,0.004022,0.003865,0.002808,0.003027,0.003150,0.003102,0.003007,0.003178,0.003041,0.003231,0.003693,0.003980,0.003751,0.003366,0.002812,0.002246,0.002275,0.001911,0.001613,0.001728,0.001679,0.001872,0.001728,0.001930,0.001694,0.000859,0.001151,0.002036,0.001676,0.001212,0.001527,0.002403,0.001101,-0.000787,-0.000350,0.000268,0.001008,0.001613,0.001398,0.001679,0.001815,0.001291,0.002077,0.002557,0.001760,0.002044,0.002796,0.002658,0.002206,0.001959,0.001814,0.001821,0.002459,0.002568,0.002966,0.003312,0.003385,0.003304,0.003010,0.002675,0.002409,0.002188,0.002988,0.003155,0.003449,0.003034,0.002038,0.002252,0.002261,0.002247,0.001784,0.001307,0.001078,0.000427,0.000276,0.000470,0.000275,0.000062,0.000246,0.000559,0.000524,0.000701,0.000280,0.000343,0.000653,0.000710,0.001063,0.000840,0.001378,0.000742,0.000830,0.001677,0.001968,0.000793,0.000690,0.000699,0.000503,-0.000237,0.000183,0.000587,0.001145,0.001437,0.001332,0.001503,0.001919,0.001986,0.002888,0.002458,0.002052,0.002572,0.002319,0.002813,0.003201,0.004155,0.004144,0.002788,0.001974,0.001999,0.002397,0.002343,0.002381,0.002358,0.002020,0.002562,0.002822,0.002574,0.002392,0.002175,0.002303,0.001637,0.000558,0.000855,0.001094,0.001472,0.001285,0.000736,0.000212,0.000042,0.000275,0.000974,0.001029,0.001079,0.001733,0.002173,0.002027,0.001821,0.001490,0.001045,0.001135,0.001203,0.001527,0.001765,0.002177,0.002137,0.001892,0.000870,0.000816,0.001380,0.000932,0.000810,0.000547,0.000676,0.000677,0.001112,0.001224,0.001064,0.001098,0.001307,0.001388,0.001856,0.002066,0.001837,0.001531,0.001972,0.002252,0.002190,0.002462,0.003333,0.003637,0.002216,0.001133,0.001073,0.001836,0.002436,0.002163,0.002468,0.002119,0.002532,0.002977,0.002965,0.002244,0.001895,0.001854,0.001431,0.000399,0.000293,0.000489,0.000953,0.001216,0.001124,0.000884,0.001415,0.001566,0.001577,0.001237,0.000853,0.001105,0.001231,0.001801,0.001730,0.001811,0.002367,0.002437,0.002105,0.001610,0.001604,0.001254,0.001425,0.000785,0.000175,-0.000073,0.000382,0.000809,0.000636,0.000698,0.000482,-0.000038,-0.000104,0.000182,0.000270,0.000605,0.001121,0.001077,0.001699,0.002087,0.002353,0.002688,0.002579,0.001909,0.002063,0.002160,0.002779,0.002685,0.001401,0.000778,0.000700,0.000746,0.001111,0.001650,0.002397,0.002136,0.002222,0.002209,0.002260,0.001737,0.001369,0.000985,0.001101,0.000643,-0.000025,-0.000058,-0.000008,-0.000119,-0.000228,0.000658,0.000711,0.000351,0.000287,-0.000390,-0.001202,-0.001068,-0.000280,0.000412,0.000114,-0.000414,0.000530,0.000643,-0.000102,0.000120,0.000191,-0.000033,-0.000391,-0.000266,-0.000296,-0.000235,-0.000789,0.000125,0.000270,-0.000259,-0.000348,-0.000170,-0.000595,-0.000748,-0.000652,0.000325,0.001666,0.002051,0.001383,0.000909,0.001143,0.000805,0.000858,0.001225,0.001679,0.002378,0.002624,0.001937,0.000779,0.000878,0.001219,0.000747,0.000289,0.000505,0.000440,0.000027,0.000063,0.000110,0.000409,0.000596,0.000420,0.000303,0.000526,0.000503,0.000144,0.000032,-0.000267,-0.000653,-0.000717,-0.000226,-0.000446,-0.000288,0.000029,-0.000402,-0.001467,-0.002610,-0.002395,-0.002027,-0.001302,-0.000628,-0.000434,-0.000935,-0.001651,-0.000926,-0.000311,-0.000608,-0.001389,-0.000850,-0.000762,-0.000234,-0.000275,-0.001024,-0.001097,-0.000645,-0.000392,-0.000779,-0.000873,-0.001651,-0.002117,-0.001726,-0.000825,-0.000433,-0.000187,-0.001154,-0.000936,-0.001411,-0.001699,-0.001209,-0.000623,0.000585,0.000305,-0.000286,-0.000349,0.000416,0.000998,0.000983,0.001066,0.000958,0.001008,0.001194,0.000949,0.000646,0.000325,0.000231,-0.000092,-0.000051,-0.000133,-0.000218,-0.000053,-0.000349,-0.000648,-0.001246,-0.001645,-0.001398,-0.001579,-0.001757,-0.001744,-0.001122,-0.000962,-0.001816,-0.002217,-0.002227,-0.001551,-0.000654,-0.000860,-0.000682,-0.000383,-0.000618,-0.000249,-0.000053,-0.000162,-0.000394,-0.000383,-0.000992,-0.000916,-0.001521,-0.001190,-0.000746,-0.000044,-0.000623,-0.001637,-0.002149,-0.002540,-0.002419,-0.002313,-0.002225,-0.001429,-0.000468,-0.000377,-0.000872,-0.000655,-0.001549,-0.001739,-0.000972,-0.000569,-0.000706,-0.000560,-0.000315,0.000021,0.000410,0.001094,0.001265,0.001309,0.001282,0.000740,0.000537,0.000316,-0.000008,-0.000320,-0.000489,-0.000433,-0.000338,-0.000354,-0.000679,-0.000899,-0.000853,-0.000789,-0.001064,-0.001022,-0.001349,-0.001402,-0.001457,-0.001500,-0.001422,-0.001802,-0.001616,-0.001553,-0.001209,-0.000521,-0.000188,0.000101,-0.000214,-0.000162,-0.000523,-0.000560,0.000292,-0.000128,-0.001019,-0.001292,-0.001400,-0.001075,-0.000684,-0.000432,0.000238,-0.000697,-0.002206,-0.002139,-0.001313,-0.000714,-0.000036,-0.000694,-0.000767,-0.000962,-0.001583,-0.000728,-0.000520,-0.001394,-0.001308,-0.000244,-0.000346,-0.000687,-0.001054,-0.001122,-0.001693,-0.001048,-0.000853,-0.000683,-0.000574,-0.001148,-0.001465,-0.002184,-0.002694,-0.002285,-0.002482,-0.001403,-0.001774,-0.001524,-0.001397,-0.001548,-0.001573,-0.002223,-0.002232,-0.002354,-0.002853,-0.002920,-0.003425,-0.003590,-0.003471,-0.003137,-0.003076,-0.003116,-0.002471,-0.001437,-0.001011,-0.001224,-0.001485,-0.001181,-0.002337,-0.002224,-0.001444,-0.001352,-0.002321,-0.002620,-0.002375,-0.002466,-0.002934,-0.003187,-0.002276,-0.002525,-0.002671,-0.002390,-0.002271,-0.002693,-0.002864,-0.003098,-0.003005,-0.002829,-0.003002,-0.002550,-0.002887,-0.003190,-0.002567,-0.002311,-0.002045,-0.002144,-0.002021,-0.002531,-0.003897,-0.004736,-0.003982,-0.003849,-0.003452,-0.002425,-0.002588,-0.004005,-0.003651,-0.002884,-0.003333,-0.003224,-0.003406,-0.003013,-0.003168,-0.003324,-0.003555,-0.003872,-0.003600,-0.003591,-0.004365,-0.005114,-0.005092,-0.004840,-0.004306,-0.003976,-0.003996,-0.003887,-0.003187,-0.002871,-0.002523,-0.002931,-0.003243,-0.003430,-0.004008,-0.003538,-0.002913,-0.003202,-0.004160,-0.004597,-0.004759,-0.004916,-0.004690,-0.004904,-0.004553,-0.004086,-0.003373,-0.003367,-0.002570,-0.002877,-0.002895,-0.003182,-0.003648,-0.004250,-0.004188,-0.004049,-0.004351,-0.004673,-0.003997,-0.003709,-0.003965,-0.004212,-0.004013,-0.003926,-0.004734,-0.005899,-0.005785,-0.004649,-0.002771,-0.002504,-0.002000,-0.001994,-0.002260,-0.002826,-0.003833,-0.004792,-0.004631,-0.004264,-0.004504,-0.004663,-0.004865,-0.004966,-0.005125,-0.005572,-0.006212,-0.006771,-0.006697,-0.006681,-0.006971,-0.007712,-0.007884,-0.007161,-0.007536,-0.006698,-0.007554,-0.007303,-0.007011,-0.006746,-0.006754,-0.006254,-0.007059,-0.008006,-0.007963,-0.008711,-0.008824,-0.008751,-0.008334,-0.008259,-0.008276,-0.007633,-0.007503,-0.007919,-0.006854,-0.006438,-0.005549,-0.005066,-0.004747,-0.004988,-0.004743,-0.004594,-0.004465,-0.004309,-0.004433,-0.005110,-0.004903,-0.005009,-0.004968,-0.005195,-0.006006,-0.006901,-0.005539,-0.004758,-0.004752,-0.005505,-0.004617,-0.003227,-0.003715,-0.004747,-0.004658,-0.005555,-0.005464,-0.005691,-0.005996,-0.005978,-0.005847,-0.006312,-0.007519,-0.008284,-0.008727,-0.008419,-0.008402,-0.008514,-0.008865,-0.008615,-0.007464,-0.005973,-0.005259,-0.004640,-0.006026,-0.008051,-0.008109,-0.008315,-0.008085,-0.008475,-0.009660,-0.009083,-0.008886,-0.009606,-0.010321,-0.010310,-0.010589,-0.010212,-0.010267,-0.010690,-0.010438,-0.010719,-0.010868,-0.010251,-0.009115,-0.008168,-0.007085,-0.006774,-0.007149,-0.007063,-0.006241,-0.005949,-0.005865,-0.005619,-0.005461,-0.005350,-0.005474,-0.005923,-0.007123,-0.007207,-0.005740,-0.006826,-0.007745,-0.007563,-0.007955,-0.006893,-0.006709,-0.006902,-0.006066,-0.006057,-0.005984,-0.006038,-0.006205,-0.006067,-0.005860,-0.006890,-0.008366,-0.009164,-0.009503,-0.009619,-0.009808,-0.009127,-0.007711,-0.006511,-0.006642,-0.007854,-0.007467,-0.006359,-0.004624,-0.005383,-0.006565,-0.008678,-0.009330,-0.009429,-0.009978,-0.009506,-0.009850,-0.010226,-0.011143,-0.011064,-0.010936,-0.011004,-0.011480,-0.011231,-0.010283,-0.010246,-0.011108,-0.010781,-0.011013,-0.010959,-0.010679,-0.010512,-0.010153,-0.010323,-0.009929,-0.010039,-0.009723,-0.008671,-0.007977,-0.006862,-0.006783,-0.006802,-0.007357,-0.007110,-0.007256,-0.007882,-0.007823,-0.007126,-0.007513,-0.007717,-0.007789,-0.007575,-0.007231,-0.007419,-0.007254,-0.006569,-0.006491,-0.006513,-0.006727,-0.008024,-0.009479,-0.010415,-0.011109,-0.011219,-0.011118,-0.009621,-0.008811,-0.009493,-0.009978,-0.010437,-0.010289,-0.009242,-0.007336,-0.005501,-0.006265,-0.008327,-0.008309,-0.009787,-0.010193,-0.009695,-0.009461,-0.010096,-0.010852,-0.011159,-0.011389,-0.011440,-0.011053,-0.010174,-0.010355,-0.010646,-0.010703,-0.010861,-0.011249,-0.011425,-0.011449,-0.011471,-0.011283,-0.010605,-0.010626,-0.011263,-0.011291,-0.011051,-0.010605,-0.009416,-0.008601,-0.008294,-0.008242,-0.007890,-0.008021,-0.008174,-0.008183,-0.007779,-0.007497,-0.008020,-0.008201,-0.007513,-0.006959,-0.007345,-0.007083,-0.006592,-0.006554,-0.006737,-0.007230,-0.008304,-0.009937,-0.010722,-0.011107,-0.011547,-0.010407,-0.009512,-0.009699,-0.009758,-0.009255,-0.008473,-0.007965,-0.008838,-0.008968,-0.007195,-0.006204,-0.007336,-0.007593,-0.010005,-0.009950,-0.010498,-0.010867,-0.010037,-0.009997,-0.010687,-0.011424,-0.011808,-0.010671,-0.009726,-0.010409,-0.010242,-0.010082,-0.011351,-0.012015,-0.011865,-0.011548,-0.011285,-0.011469,-0.011646,-0.011867,-0.012029,-0.011826,-0.011570,-0.011317,-0.011460,-0.010711,-0.010434,-0.009884,-0.009198,-0.009293,-0.009603,-0.010010,-0.009562,-0.008556,-0.008878,-0.009461,-0.009259,-0.009924,-0.009800,-0.008452,-0.008430,-0.008085,-0.008494,-0.008786,-0.008825,-0.009619,-0.010929,-0.011613,-0.011336,-0.010300,-0.010460,-0.010309,-0.009967,-0.009685,-0.010366,-0.009571,-0.009482,-0.010532,-0.009482,-0.007183,-0.007600,-0.008397,-0.011360,-0.011553,-0.012258,-0.012467,-0.011483,-0.011563,-0.012467,-0.012881,-0.012613,-0.012169,-0.011887,-0.012129,-0.010939,-0.012016,-0.012417,-0.012333,-0.012782,-0.013094,-0.013364,-0.013270,-0.013278,-0.013407,-0.013560,-0.013648,-0.012981,-0.012304,-0.012233,-0.011915,-0.012020,-0.011118,-0.010547,-0.010861,-0.011301,-0.011671,-0.011570,-0.011657,-0.011990,-0.011798,-0.011349,-0.011915,-0.012361,-0.011352,-0.010767,-0.009927,-0.009798,-0.009351,-0.009324,-0.010108,-0.011762,-0.012997,-0.011703,-0.010818,-0.011200,-0.011840,-0.011246,-0.011259,-0.011866,-0.011463,-0.011163,-0.011614,-0.011014,-0.009606,-0.008791,-0.010314,-0.011457,-0.012573,-0.013026,-0.012363,-0.012114,-0.012654,-0.013714,-0.013533,-0.012442,-0.012475,-0.012599,-0.012363,-0.012301,-0.012713,-0.012187,-0.012150,-0.011957,-0.012080,-0.011843,-0.012178,-0.012676,-0.013067,-0.012829,-0.012732,-0.012744,-0.012443,-0.012365,-0.012183,-0.012002,-0.011120,-0.011446,-0.012019,-0.011878,-0.012213,-0.012873,-0.013180,-0.013005,-0.013573,-0.013950,-0.013017,-0.013399,-0.012868,-0.012137,-0.011815,-0.011515,-0.011001,-0.010893,-0.012295,-0.013641,-0.014210,-0.013129,-0.013491,-0.014546,-0.014480,-0.014146,-0.014930,-0.015396,-0.014856,-0.013442,-0.013861,-0.014005,-0.011951,-0.011220,-0.012755,-0.013830,-0.013686,-0.013304,-0.012567,-0.013221,-0.013587,-0.013796,-0.013623,-0.012817,-0.012410,-0.011967,-0.011961,-0.012134,-0.011904,-0.012046,-0.011997,-0.011220,-0.011041,-0.010509,-0.010355,-0.010227,-0.010481,-0.010546,-0.010257,-0.010571,-0.010410,-0.010505,-0.010310,-0.009665,-0.009102,-0.009688,-0.011074,-0.011553,-0.011604,-0.011466,-0.011514,-0.012659,-0.012953,-0.011402,-0.009944,-0.010905,-0.011411,-0.010655,-0.010782,-0.010877,-0.011151,-0.011490,-0.011741,-0.012106,-0.012231,-0.012345,-0.013685,-0.014288,-0.013787,-0.013172,-0.012655,-0.012871,-0.012287,-0.011230,-0.011887,-0.011565,-0.009826,-0.009984,-0.012034,-0.012813,-0.012370,-0.011543,-0.011576,-0.012383,-0.011855,-0.011200,-0.011876,-0.011874,-0.011596,-0.011956,-0.011717,-0.011513,-0.011622,-0.011381,-0.010710,-0.010540,-0.010261,-0.009339,-0.009003,-0.009008,-0.008867,-0.008224,-0.007836,-0.007616,-0.007131,-0.007346,-0.007462,-0.007355,-0.007155,-0.007386,-0.008674,-0.010139,-0.010518,-0.010268,-0.011503,-0.012310,-0.010168,-0.009332,-0.008389,-0.007589,-0.007821,-0.007513,-0.007919,-0.008394,-0.008983,-0.009273,-0.009057,-0.009005,-0.009532,-0.010078,-0.011108,-0.011544,-0.011687,-0.011338,-0.010879,-0.010399,-0.009492,-0.010180,-0.011565,-0.010315,-0.008353,-0.007662,-0.009277,-0.010338,-0.011110,-0.010529,-0.010152,-0.010533,-0.010243,-0.009646,-0.009743,-0.010407,-0.010198,-0.010111,-0.009492,-0.009428,-0.009320,-0.008310,-0.008194,-0.008226,-0.007967,-0.008036,-0.007737,-0.007542,-0.007550,-0.007435,-0.007411,-0.007046,-0.006573,-0.006253,-0.006009,-0.005795,-0.005761,-0.005611,-0.006015,-0.007938,-0.009889,-0.010724,-0.011125,-0.009267,-0.007673,-0.007216,-0.007499,-0.007022,-0.006389,-0.006205,-0.006355,-0.006160,-0.006343,-0.006465,-0.006884,-0.006836,-0.007717,-0.008291,-0.009091,-0.010921,-0.011444,-0.010242,-0.009260,-0.008747,-0.010565,-0.011937,-0.011314,-0.010251,-0.008332,-0.006784,-0.006803,-0.006976,-0.008353,-0.007614,-0.008262,-0.008503,-0.007673,-0.006916,-0.006745,-0.007296,-0.007267,-0.006781,-0.007020,-0.006950,-0.005838,-0.006133,-0.006038,-0.005833,-0.006108,-0.006449,-0.006256,-0.006178,-0.006237,-0.006288,-0.006151,-0.005986,-0.005940,-0.005932,-0.005490,-0.004790,-0.004488,-0.004363,-0.004599,-0.004944,-0.005605,-0.006106,-0.005975,-0.005604,-0.005351,-0.004875,-0.004350,-0.004796,-0.003695,-0.003696,-0.004273,-0.004226,-0.004440,-0.004501,-0.004651,-0.004833,-0.005585,-0.006698,-0.007417,-0.009355,-0.010968,-0.009394,-0.008006,-0.009259,-0.010349,-0.010322,-0.009184,-0.007260,-0.007227,-0.007241,-0.005815,-0.004918,-0.006110,-0.006225,-0.007050,-0.006586,-0.006333,-0.006597,-0.006181,-0.005560,-0.006073,-0.006387,-0.006611,-0.005911,-0.005379,-0.006569,-0.005854,-0.006011,-0.006842,-0.007008,-0.006762,-0.006782,-0.006807,-0.006791,-0.006643,-0.006850,-0.007093,-0.007065,-0.006979,-0.006709,-0.006449,-0.006482,-0.006939,-0.006530,-0.005801,-0.006667,-0.006620,-0.007154,-0.006553,-0.004840,-0.003809,-0.004510,-0.003816,-0.004477,-0.004758,-0.004258,-0.004419,-0.004397,-0.004789,-0.005242,-0.005449,-0.006137,-0.006768,-0.006940,-0.008625,-0.009180,-0.009905,-0.011182,-0.010455,-0.009714,-0.008728,-0.007058,-0.006247,-0.007053,-0.005946,-0.004089,-0.005115,-0.005916,-0.006685,-0.006078,-0.006210,-0.006488,-0.005964,-0.006141,-0.006485,-0.006852,-0.006485,-0.006293,-0.006999,-0.007171,-0.006989,-0.007540,-0.008005,-0.008136,-0.007966,-0.007871,-0.007884,-0.008025,-0.007763,-0.007703,-0.007760,-0.007529,-0.007227,-0.006741,-0.006690,-0.006663,-0.006511,-0.006015,-0.005212,-0.006207,-0.005975,-0.006293,-0.006016,-0.004838,-0.004458,-0.005223,-0.004504,-0.003963,-0.004177,-0.004260,-0.003327,-0.002883,-0.003443,-0.003533,-0.003296,-0.003683,-0.004784,-0.004688,-0.004489,-0.004547,-0.006280,-0.007598,-0.006681,-0.005802,-0.005966,-0.005569,-0.005168,-0.005374,-0.005641,-0.004141,-0.004029,-0.005675,-0.006517,-0.006320,-0.006546,-0.006351,-0.006416,-0.006720,-0.006417,-0.005939,-0.005242,-0.005452,-0.005578,-0.005806,-0.006185,-0.006517,-0.006132,-0.005830,-0.005368,-0.005333,-0.005029,-0.004990,-0.004915,-0.004677,-0.004417,-0.004092,-0.004326,-0.003995,-0.003958,-0.004023,-0.003746,-0.003402,-0.003475,-0.004478,-0.003729,-0.003827,-0.003630,-0.002852,-0.003196,-0.003677,-0.003296,-0.002315,-0.001850,-0.001233,-0.000831,-0.000860,-0.001409,-0.001831,-0.001237,-0.002471,-0.003309,-0.002835,-0.002140,-0.001433,-0.002968,-0.002795,-0.002709,-0.003790,-0.004597,-0.004196,-0.003421,-0.003993,-0.004348,-0.002188,-0.001578,-0.003747,-0.004827,-0.004417,-0.003536,-0.003673,-0.003717,-0.003872,-0.003358,-0.002903,-0.003083,-0.002697,-0.002131,-0.002815,-0.002891,-0.002955,-0.003556,-0.003297,-0.002839,-0.002530,-0.002590,-0.002505,-0.002354,-0.002010,-0.002175,-0.002064,-0.002372,-0.002110,-0.001959,-0.001873,-0.001243,-0.001114,-0.001547,-0.002612,-0.002857,-0.002260,-0.001796,-0.002199,-0.002994,-0.002394,-0.000633,-0.000614,-0.001187,-0.000898,-0.000687,-0.000789,-0.000853,-0.001462,-0.001632,-0.001799,-0.002121,-0.001989,-0.001254,-0.001999,-0.002696,-0.001785,-0.001722,-0.001500,-0.002163,-0.002160,-0.002009,-0.002132,-0.002169,-0.000143,0.000255,-0.000971,-0.001375,-0.000771,-0.000580,-0.000651,-0.000495,-0.001078,-0.000586,-0.000528,-0.000962,-0.000404,-0.000895,-0.000748,-0.000744,-0.000675,-0.000711,-0.000436,-0.000509,-0.000083,0.000130,-0.000049,-0.000327,-0.000105,0.000102,0.000056,-0.000120,-0.000122,-0.000147,-0.000243,0.000057,0.000273,-0.000024,-0.000912,-0.001668,-0.000557,-0.000690,-0.001667,-0.001442,-0.000135,0.001293,0.001575,0.001402,0.001382,0.001210,0.001057,0.000800,0.000226,-0.000020,0.000089,0.000051,-0.000010,0.000906,0.000319,-0.000426,0.000198,0.000283,0.000378,-0.000052,-0.000694,-0.000368,-0.000974,-0.000448,0.001446,0.000767,0.000044,0.000221,0.001163,0.001269,0.001399,0.001119,0.000988,0.000873,0.001918,0.001561,0.001668,0.001939,0.002119,0.002227,0.002016,0.002307,0.002228,0.002139,0.002315,0.002279,0.002078,0.002203,0.002060,0.001915,0.001908,0.001989,0.001734,0.001540,0.001494,0.001527,0.001904,0.001680,0.001109,-0.000139,-0.000387,-0.000143,0.000771,0.001581,0.002530,0.003007,0.003560,0.003777,0.003547,0.003161,0.003588,0.003409,0.003000,0.002756,0.002271,0.002286,0.002678,0.002688,0.002292,0.000569,0.000635,0.001852,0.002080,0.001287,0.001531,0.000460,0.000712,0.001607,0.003209,0.002850,0.002272,0.002690,0.003450,0.003532,0.003082,0.002384,0.002997,0.003503,0.003938,0.003880,0.003598,0.004268,0.003998,0.003778,0.004008,0.003583,0.003474,0.003481,0.003495,0.003375,0.003350,0.003213,0.003044,0.003024,0.003237,0.003351,0.002864,0.002616,0.002602,0.003174,0.003168,0.002765,0.002504,0.002483,0.001993,0.001888,0.002029,0.002485,0.002500,0.003074,0.003789,0.003966,0.003663,0.003128,0.003227,0.002863,0.002559,0.002520,0.002190,0.002048,0.002093,0.001665,0.001446,0.000255,-0.000870,0.001110,0.001196,0.000552,0.000334,-0.000159,0.000160,0.001657,0.002342,0.002131,0.002039,0.002786,0.002740,0.003092,0.002911,0.002789,0.003019,0.003120,0.003161,0.003531,0.003390,0.003462,0.002512,0.002467,0.002846,0.002034,0.001862,0.001828,0.001922,0.001931,0.002057,0.001387,0.001178,0.001226,0.001424,0.001431,0.000885,0.000714,0.000434,0.000336,0.000728,0.000882,0.000285,0.000278,-0.000014,0.000482,-0.000005,0.000118,0.000250,0.001471,0.002134,0.001994,0.001975,0.001789,0.001473,0.001145,0.001162,0.000889,0.000627,0.000334,-0.000009,-0.000184,-0.000169,-0.000239,-0.001669,-0.002091,-0.001975,-0.002451,-0.001811,-0.001538,-0.000390,0.000295,0.000201,0.000085,0.000645,0.001388,0.001221,0.001701,0.001773,0.001573,0.001301,0.000727,0.001452,0.001423,0.001552,0.001359,0.000141,0.000175,-0.000002,-0.000269,-0.000847,-0.000356,-0.000323,-0.000494,-0.000064,-0.000321,-0.000581,-0.000696,-0.000607,-0.000257,-0.000451,-0.000299,-0.000521,-0.000722,-0.000525,-0.000383,-0.000347,-0.000321,-0.000701,-0.000126,-0.000640,-0.000994,-0.000631,0.000638,0.000857,0.000620,0.000712,0.000768,0.000630,0.000557,0.000755,0.000279,0.000090,-0.000185,-0.000161,-0.000199,-0.000478,-0.000322,-0.000980,-0.001645,-0.002257,-0.002115,-0.001648,-0.000134,-0.000423,-0.001521,-0.001242,-0.000875,-0.000869,-0.000485,-0.000241,-0.000366,-0.001095,-0.001105,-0.001190,-0.000975,-0.000941,-0.001029,-0.000345,-0.000404,-0.000625,-0.001099,-0.001141,-0.001446,-0.001546,-0.000981,-0.000954,-0.000890,-0.000331,-0.000558,-0.000825,-0.000772,-0.000897,-0.000370,-0.000619,-0.000449,-0.000562,-0.000732,-0.000541,-0.000403,-0.000664,-0.000657,-0.000840,-0.000592,-0.000780,-0.001201,-0.000496,0.000665,0.000383,0.000426,0.000470,0.000197,0.000068,0.000005,-0.000030,-0.000372,-0.000665,-0.000995,-0.000463,-0.000899,-0.001037,-0.000999,-0.001446,-0.001335,-0.001403,-0.001146,-0.001393,-0.001741,-0.002623,-0.003420,-0.003565,-0.002757,-0.002627,-0.002620,-0.002736,-0.002905,-0.003136,-0.003000,-0.002366,-0.002482,-0.002853,-0.002851,-0.002676,-0.002282,-0.002808,-0.002819,-0.002300,-0.002618,-0.002481,-0.002331,-0.002754,-0.002722,-0.002562,-0.002326,-0.002812,-0.002704,-0.002932,-0.002214,-0.002504,-0.002753,-0.002812,-0.002862,-0.002690,-0.002462,-0.002319,-0.002160,-0.002373,-0.003796,-0.002987,-0.001696,-0.004332,-0.004189,-0.004818,-0.004994,-0.004557,-0.004281,-0.004293,-0.004356,-0.004629,-0.004455,-0.004376,-0.004647,-0.004401,-0.004193,-0.003790,-0.003750,-0.003467,-0.003797,-0.003376,-0.003571,-0.003810,-0.003829,-0.004280,-0.004342,-0.004331,-0.004051,-0.003951,-0.003919,-0.004108,-0.004017,-0.004172,-0.004039,-0.003922,-0.004093,-0.003889,-0.004247,-0.004028,-0.003871,-0.004340,-0.004024,-0.004081,-0.004132,-0.004217,-0.004041,-0.004090,-0.004141,-0.004149,-0.003843,-0.003916,-0.004139,-0.004283,-0.004127,-0.004233,-0.004268,-0.004300,-0.004368,-0.004298,-0.004307,-0.004087,-0.004073,-0.004224,-0.004269,-0.004034,-0.003723,-0.003902,-0.005241,-0.005176,-0.005340,-0.004817,-0.004248,-0.004460,-0.004650,-0.004382,-0.003931,-0.004097,-0.004215,-0.003966,-0.003568,-0.003420,-0.003498,-0.002975,-0.003203,-0.003409,-0.003529,-0.003511,-0.003479,-0.003722,-0.004001,-0.003798,-0.004104,-0.004113,-0.004179,-0.004471,-0.004413,-0.004256,-0.003769,-0.003838,-0.003870,-0.003987,-0.003944,-0.004266,-0.003753,-0.003902,-0.004013,-0.003802,-0.003937,-0.003920,-0.003965,-0.004010,-0.004053,-0.004196,-0.004068,-0.004145,-0.004395,-0.004300,-0.004284,-0.004288,-0.004158,-0.004148,-0.004384,-0.004402,-0.004345,-0.004327,-0.004086,-0.004218,-0.004410,-0.004425,-0.004046,-0.003903,-0.004816,-0.005041,-0.004911,-0.004530,-0.004039,-0.004014,-0.004368,-0.004373,-0.003709,-0.003607,-0.004266,-0.004618,-0.004516,-0.004845,-0.004583,-0.003715,-0.003369,-0.003714,-0.003437,-0.003661,-0.003599,-0.004065,-0.003894,-0.003937,-0.004220,-0.004151,-0.003795,-0.003858,-0.004076,-0.004244,-0.003968,-0.003934,-0.004008,-0.004450,-0.004208,-0.003977,-0.003869,-0.003891,-0.004074,-0.003829,-0.003824,-0.003886,-0.003937,-0.004040,-0.004114,-0.004136,-0.004082,-0.004127,-0.004265,-0.004366,-0.004414,-0.004336,-0.004165,-0.004068,-0.004401,-0.004538,-0.004521,-0.004119,-0.004153,-0.004351,-0.004337,-0.004308,-0.004324,-0.004297,-0.005199,-0.005127,-0.004938,-0.004773,-0.004547,-0.004098,-0.004124,-0.004586,-0.004216,-0.003553,-0.003769,-0.004644,-0.005196,-0.005394,-0.004852,-0.004625,-0.004268,-0.004060,-0.003638,-0.003582,-0.003967,-0.003684,-0.003594,-0.003701,-0.004306,-0.004349,-0.004312,-0.004374,-0.004256,-0.003941,-0.003911,-0.003685,-0.003811,-0.003906,-0.003829,-0.003729,-0.003739,-0.003618,-0.003609,-0.003516,-0.003984,-0.004116,-0.003810,-0.003949,-0.004275,-0.004162,-0.003987,-0.003946,-0.003944,-0.004292,-0.004366,-0.004279,-0.004201,-0.004013,-0.004268,-0.004432,-0.004482,-0.004447,-0.004229,-0.004049,-0.003993,-0.004237,-0.004706,-0.004420,-0.005344,-0.004984,-0.004974,-0.004801,-0.004713,-0.004492,-0.004296,-0.004571,-0.004091,-0.003339,-0.003863,-0.004602,-0.003402,-0.002847,-0.002926,-0.003042,-0.003820,-0.004330,-0.004431,-0.004788,-0.004882,-0.004480,-0.004111,-0.004381,-0.004497,-0.004579,-0.004696,-0.004814,-0.004681,-0.004044,-0.003865,-0.003605,-0.003967,-0.004338,-0.004264,-0.004535,-0.004207,-0.004013,-0.003842,-0.003839,-0.004731,-0.004613,-0.004373,-0.004493,-0.004711,-0.004399,-0.004363,-0.004324,-0.004075,-0.004315,-0.004473,-0.004437,-0.004527,-0.004278,-0.004412,-0.004494,-0.004507,-0.004577,-0.004445,-0.004268,-0.004324,-0.004361,-0.004701,-0.004335,-0.005782,-0.005622,-0.005600,-0.005360,-0.005189,-0.005227,-0.004765,-0.004267,-0.004654,-0.003987,-0.003793,-0.004575,-0.004564,-0.004740,-0.004750,-0.004649,-0.004832,-0.004855,-0.004680,-0.004511,-0.004824,-0.004516,-0.004637,-0.004499,-0.004568,-0.004944,-0.004707,-0.004369,-0.004466,-0.004472,-0.004380,-0.004340,-0.004837,-0.005066,-0.005010,-0.004693,-0.004789,-0.004816,-0.004581,-0.004814,-0.004951,-0.005198,-0.005193,-0.005183,-0.005097,-0.004726,-0.004826,-0.004837,-0.004605,-0.004771,-0.005010,-0.005010,-0.005188,-0.004889,-0.005006,-0.005055,-0.004947,-0.005116,-0.005072,-0.004889,-0.004984,-0.004842,-0.005043,-0.005009,-0.006194,-0.006397,-0.006187,-0.006037,-0.005960,-0.005729,-0.005244,-0.004856,-0.004676,-0.003946,-0.003957,-0.004864,-0.005637,-0.006307,-0.006673,-0.006828,-0.006719,-0.007158,-0.006903,-0.006290,-0.005627,-0.004620,-0.004673,-0.005073,-0.005680,-0.006262,-0.006371,-0.005877,-0.005909,-0.006262,-0.006271,-0.006337,-0.006357,-0.006446,-0.006478,-0.006496,-0.006869,-0.006861,-0.007219,-0.007182,-0.007280,-0.007517,-0.007448,-0.007326,-0.007421,-0.007361,-0.007525,-0.007603,-0.007752,-0.007743,-0.008042,-0.008021,-0.008197,-0.007906,-0.008116,-0.008280,-0.008260,-0.008440,-0.008485,-0.008322,-0.008436,-0.008275,-0.008518,-0.009417,-0.010389