-0.005425,,-0.005221,-0.005180,-0.005095,-0.004868,-0.004750,-0.004709,-0.004532,-0.004788,-0.004692,-0.004947,-0.005489,-0.005517,-0.005552,-0.005400,-0.005274,-0.005276,-0.005139,-0.004921,-0.004737,-0.004775,-0.005007,-0.005145,-0.005189,-0.005048,-0.004736,-0.004616,-0.004510,-0.004419,-0.004351,-0.004248,-0.004161,-0.004047,-0.003950,-0.003891,-0.003844,-0.003874,-0.003916,-0.003951,-0.004014,-0.004104,-0.004177,-0.004227,-0.004268,-0.004292,-0.004285,-0.004225,-0.004135,-0.003984,-0.003863,-0.003806,-0.003754,-0.003607,-0.003408,-0.003191,-0.003031,-0.002774,-0.003170,-0.003397,-0.004292,-0.004648,-0.004533,-0.004286,-0.003933,-0.003789,-0.003598,-0.003387,-0.003134,-0.002897,-0.002605,-0.002442,-0.002648,-0.003004,-0.003254,-0.003741,-0.004282,-0.004195,-0.004072,-0.004143,-0.004102,-0.003863,-0.003730,-0.003531,-0.003240,-0.003076,-0.003163,-0.003381,-0.003594,-0.003696,-0.003381,-0.003249,-0.003125,-0.003059,-0.002939,-0.002843,-0.002743,-0.002624,-0.002556,-0.002526,-0.002490,-0.002470,-0.002489,-0.002548,-0.002608,-0.002669,-0.002718,-0.002772,-0.002825,-0.002850,-0.002833,-0.002773,-0.002689,-0.002580,-0.002529,-0.002393,-0.002220,-0.002021,-0.001748,-0.001504,-0.001563,-0.002033,-0.002287,-0.002517,-0.002960,-0.003332,-0.003611,-0.003400,-0.003273,-0.002924,-0.002621,-0.002289,-0.002005,-0.001849,-0.001386,-0.001058,-0.001565,-0.002169,-0.002365,-0.002394,-0.002682,-0.002943,-0.003009,-0.002850,-0.002607,-0.002491,-0.002342,-0.002104,-0.001821,-0.001583,-0.001423,-0.001744,-0.001968,-0.002155,-0.002156,-0.001863,-0.001748,-0.001652,-0.001550,-0.001467,-0.001358,-0.001254,-0.001191,-0.001131,-0.001120,-0.001146,-0.001153,-0.001204,-0.001268,-0.001319,-0.001360,-0.001413,-0.001452,-0.001429,-0.001297,-0.001178,-0.001068,-0.000985,-0.000913,-0.000671,-0.000430,-0.000236,-0.000008,0.000209,0.000211,-0.000138,-0.000746,-0.001231,-0.001539,-0.001749,-0.002001,-0.001738,-0.001742,-0.001544,-0.001014,-0.000591,-0.000194,0.000069,0.000350,0.000662,0.000094,-0.000641,-0.001232,-0.001026,-0.000831,-0.001067,-0.001525,-0.001588,-0.001401,-0.001129,-0.000850,-0.000580,-0.000375,-0.000149,0.000128,0.000117,-0.000133,-0.000316,-0.000435,-0.000387,-0.000029,0.000150,0.000210,0.000306,0.000441,0.000530,0.000610,0.000776,0.000889,0.000939,0.001032,0.001094,0.001120,0.001151,0.001194,0.001240,0.001305,0.001431,0.001584,0.001725,0.001852,0.001899,0.001992,0.002231,0.002461,0.002729,0.003079,0.003458,0.003794,0.004082,0.003338,0.002682,0.001998,0.001476,0.001137,0.001014,0.001025,0.001105,0.001673,0.002145,0.002779,0.003147,0.002890,0.003118,0.002899,0.002188,0.001581,0.001425,0.001113,0.000797,0.000496,0.000442,0.000484,0.000632,0.000869,0.001065,0.001261,0.001485,0.001691,0.001970,0.001960,0.001670,0.001444,0.001293,0.001323,0.001432,0.001524,0.001644,0.001863,0.002033,0.002193,0.002439,0.002654,0.002825,0.002968,0.003083,0.003173,0.003273,0.003387,0.003510,0.003638,0.003787,0.003917,0.004043,0.004178,0.004293,0.004457,0.004708,0.004996,0.005493,0.006130,0.006646,0.007094,0.007688,0.007323,0.006604,0.005821,0.005055,0.004530,0.004019,0.003934,0.004006,0.004172,0.004421,0.005150,0.005532,0.004891,0.005035,0.005398,0.005251,0.004697,0.004385,0.003950,0.003720,0.003389,0.003104,0.003037,0.003215,0.003300,0.003362,0.003502,0.003703,0.003771,0.003934,0.004169,0.004039,0.003773,0.003608,0.003330,0.003352,0.003560,0.003720,0.003955,0.004158,0.004328,0.004523,0.004691,0.004862,0.005014,0.005146,0.005245,0.005331,0.005438,0.005555,0.005676,0.005812,0.005960,0.006085,0.006193,0.006302,0.006414,0.006544,0.006717,0.007137,0.007734,0.008224,0.008649,0.009274,0.009496,0.008912,0.008426,0.007733,0.007177,0.006717,0.006370,0.006488,0.006636,0.006911,0.007569,0.008102,0.007591,0.007716,0.008140,0.007961,0.007662,0.007388,0.006835,0.006357,0.005856,0.005747,0.005969,0.006014,0.006140,0.006174,0.006221,0.006387,0.006519,0.006669,0.006769,0.006927,0.006912,0.006589,0.006397,0.006245,0.006441,0.006695,0.006952,0.007181,0.007347,0.007515,0.007688,0.007871,0.008034,0.008198,0.008322,0.008426,0.008525,0.008639,0.008775,0.008942,0.009124,0.009308,0.009448,0.009565,0.009637,0.009758,0.009897,0.010160,0.010696,0.011448,0.012140,0.012623,0.013195,0.012937,0.012172,0.011433,0.010593,0.010229,0.010038,0.010274,0.010999,0.011504,0.011883,0.012676,0.012474,0.012400,0.012347,0.011808,0.011208,0.010411,0.009552,0.008951,0.008381,0.008198,0.008490,0.008595,0.008696,0.008771,0.008821,0.008937,0.009004,0.009091,0.009166,0.009245,0.009373,0.009284,0.008916,0.008620,0.008397,0.008524,0.008711,0.008900,0.009001,0.009095,0.009192,0.009298,0.009396,0.009505,0.009610,0.009714,0.009827,0.009935,0.010041,0.010159,0.010253,0.010382,0.010533,0.010734,0.010930,0.011324,0.011774,0.012104,0.012563,0.013293,0.013735,0.013595,0.013701,0.013685,0.012555,0.012032,0.011274,0.010888,0.010693,0.010206,0.011020,0.011778,0.012482,0.013070,0.013234,0.013220,0.012710,0.012037,0.011611,0.010946,0.010114,0.010225,0.009695,0.009871,0.009883,0.010006,0.010227,0.010255,0.010480,0.010603,0.010664,0.010829,0.010778,0.010966,0.011223,0.011358,0.011157,0.010834,0.010628,0.010291,0.010419,0.010673,0.010828,0.010878,0.011110,0.011073,0.011134,0.011227,0.011318,0.011330,0.011532,0.011569,0.011636,0.011870,0.011941,0.011997,0.012135,0.012265,0.012497,0.012779,0.013378,0.013990,0.014644,0.015447,0.016003,0.016100,0.016193,0.015917,0.015160,0.014257,0.013764,0.013606,0.013545,0.013684,0.014357,0.015598,0.016589,0.016619,0.015830,0.015110,0.014516,0.013688,0.013056,0.012501,0.011999,0.012057,0.011522,0.011483,0.011630,0.011764,0.011924,0.012064,0.012340,0.012453,0.012562,0.012871,0.012975,0.012989,0.013192,0.013298,0.013440,0.013288,0.012974,0.012705,0.012555,0.012764,0.012899,0.012979,0.013154,0.013247,0.013579,0.013637,0.013795,0.013993,0.014201,0.014392,0.014616,0.014960,0.015292,0.015608,0.015876,0.016079,0.016337,0.016494,0.016773,0.017638,0.018573,0.019423,0.020263,0.021309,0.021332,0.020787,0.020272,0.019854,0.019484,0.019114,0.018796,0.019202,0.019453,0.020280,0.020816,0.020834,0.020275,0.018959,0.017714,0.016888,0.016076,0.015677,0.015157,0.014798,0.014287,0.013975,0.014096,0.014493,0.014839,0.015159,0.015395,0.015736,0.015966,0.016026,0.016202,0.016501,0.016611,0.016975,0.017819,0.018409,0.018600,0.018456,0.018124,0.017912,0.017660,0.017328,0.017043,0.017253,0.017674,0.017605,0.017777,0.018057,0.018302,0.018787,0.019223,0.019534,0.019932,0.020413,0.020795,0.021104,0.021590,0.022144,0.022648,0.023844,0.025131,0.026323,0.027604,0.028854,0.029754,0.029640,0.029445,0.029052,0.028352,0.027868,0.027748,0.028214,0.028589,0.029569,0.030707,0.031000,0.030129,0.028432,0.026728,0.025186,0.024281,0.024224,0.023564,0.022931,0.022810,0.022456,0.022172,0.022593,0.023693,0.024637,0.024873,0.025726,0.026512,0.026261,0.026276,0.026725,0.026588,0.026742,0.027111,0.027213,0.027097,0.026439,0.025399,0.024309,0.023449,0.022896,0.022302,0.022229,0.022650,0.022755,0.023211,0.023425,0.023592,0.023876,0.023926,0.023833,0.023980,0.024385,0.024916,0.025642,0.026103,0.026997,0.028047,0.029458,0.031066,0.032490,0.034151,0.035028,0.036130,0.036280,0.036194,0.036064,0.035219,0.034441,0.034379,0.034545,0.034965,0.035643,0.037577,0.039645,0.040884,0.041092,0.039123,0.036148,0.034017,0.032390,0.030615,0.030312,0.031074,0.031928,0.032867,0.034510,0.036636,0.038265,0.038440,0.038950,0.039429,0.039028,0.038991,0.039081,0.039030,0.038992,0.038753,0.038492,0.038224,0.037897,0.037212,0.036292,0.035560,0.034913,0.034553,0.034516,0.034679,0.034228,0.034239,0.034020,0.033460,0.033013,0.032448,0.031906,0.031764,0.031788,0.031536,0.031099,0.030861,0.031080,0.031720,0.032652,0.034183,0.035253,0.036710,0.037182,0.037170,0.036929,0.036689,0.037034,0.036846,0.036122,0.035835,0.035668,0.035995,0.036305,0.037354,0.039420,0.041425,0.043717,0.043804,0.041254,0.039534,0.037249,0.035449,0.035596,0.035842,0.036759,0.038296,0.039354,0.041060,0.042415,0.042714,0.042991,0.043143,0.042810,0.042889,0.042926,0.042882,0.042801,0.042561,0.042509,0.042244,0.041898,0.041495,0.040954,0.040360,0.039951,0.039647,0.039854,0.039941,0.039301,0.038955,0.038703,0.038204,0.038031,0.038155,0.038425,0.038509,0.038228,0.037782,0.037620,0.037143,0.036733,0.036779,0.037315,0.038165,0.038251,0.038853,0.039598,0.039329,0.039263,0.038886,0.038657,0.038512,0.038293,0.038332,0.037936,0.037985,0.038574,0.038995,0.040274,0.041367,0.043379,0.045205,0.044819,0.043582,0.040901,0.039202,0.039417,0.039220,0.039785,0.040790,0.041317,0.041734,0.042280,0.042571,0.042892,0.043101,0.042840,0.042595,0.042157,0.041888,0.041452,0.041085,0.040968,0.040581,0.040082,0.039594,0.038632,0.037448,0.036363,0.035559,0.034847,0.034668,0.034132,0.033766,0.033589,0.033554,0.033377,0.033184,0.033076,0.032909,0.032563,0.032126,0.031744,0.031691,0.031640,0.031588,0.031784,0.032010,0.032220,0.032223,0.031873,0.031837,0.031958,0.031899,0.031157,0.030655,0.030475,0.029897,0.029335,0.029319,0.029806,0.029056,0.029267,0.029290,0.029685,0.030685,0.030993,0.030738,0.029168,0.027769,0.027069,0.026509,0.026778,0.027060,0.027302,0.028049,0.028688,0.028919,0.029323,0.029845,0.030164,0.030425,0.030562,0.030500,0.030058,0.029703,0.029579,0.029480,0.029555,0.029675,0.029596,0.029311,0.028415,0.027501,0.026382,0.025818,0.025367,0.024962,0.024865,0.024833,0.024386,0.023846,0.023448,0.022985,0.022518,0.022313,0.022223,0.022107,0.022236,0.022429,0.022756,0.022440,0.022442,0.022032,0.021463,0.021038,0.020715,0.020619,0.019628,0.019319,0.019617,0.018825,0.018405,0.019380,0.019878,0.019360,0.019761,0.019534,0.019358,0.019325,0.019713,0.020326,0.019450,0.018684,0.017936,0.017028,0.016599,0.016373,0.016337,0.016221,0.016283,0.016404,0.016291,0.016253,0.016436,0.016510,0.016874,0.017025,0.017235,0.017474,0.017958,0.018045,0.018016,0.018697,0.018946,0.019163,0.018753,0.018875,0.018978,0.018753,0.019041,0.019428,0.019828,0.019794,0.019847,0.019423,0.019212,0.018872,0.018707,0.018983,0.019078,0.019084,0.019308,0.018680,0.018024,0.017471,0.017329,0.017156,0.017056,0.016951,0.016869,0.016081,0.015340,0.014658,0.014182,0.014332,0.014306,0.014925,0.015778,0.016473,0.016437,0.015724,0.015287,0.014347,0.013968,0.013875,0.013598,0.013574,0.013422,0.012685,0.012507,0.012698,0.013098,0.012818,0.012829,0.013064,0.013187,0.013417,0.013617,0.013537,0.013516,0.013935,0.014275,0.014647,0.015380,0.015595,0.015456,0.015788,0.015843,0.015672,0.015393,0.015351,0.015046,0.014802,0.014989,0.015102,0.015333,0.015815,0.016260,0.016379,0.016645,0.016772,0.016755,0.017075,0.017254,0.017249,0.017694,0.017884,0.018085,0.017664,0.017110,0.016735,0.016886,0.016463,0.016531,0.016692,0.015726,0.014839,0.014975,0.015448,0.015304,0.016296,0.017223,0.018015,0.017568,0.017113,0.016694,0.016009,0.015945,0.016701,0.017179,0.017018,0.017207,0.016713,0.016178,0.015927,0.016374,0.016468,0.016627,0.016934,0.017140,0.017203,0.017077,0.016711,0.016653,0.016897,0.016996,0.017095,0.017645,0.017623,0.017110,0.017016,0.016907,0.016907,0.017233,0.017535,0.017350,0.017392,0.017381,0.016645,0.016223,0.015970,0.015685,0.015371,0.015434,0.015726,0.015880,0.016545,0.017091,0.016941,0.017046,0.016894,0.017004,0.017133,0.016872,0.016410,0.016116,0.015829,0.015748,0.016141,0.016135,0.016207,0.016876,0.017231,0.017190,0.017935,0.018040,0.017685,0.017423,0.017404,0.017080,0.017521,0.017847,0.017914,0.018043,0.017878,0.018447,0.018323,0.017559,0.017085,0.016815,0.016870,0.016843,0.016608,0.016154,0.015716,0.015369,0.014851,0.014667,0.014596,0.014488,0.014514,0.014968,0.015080,0.014741,0.014752,0.014894,0.014892,0.015037,0.014942,0.014470,0.014390,0.014138,0.013286,0.012804,0.012510,0.012496,0.012635,0.012716,0.012936,0.013475,0.014336,0.014453,0.015058,0.015522,0.015079,0.014728,0.014586,0.014389,0.014260,0.014065,0.014263,0.013946,0.013912,0.014202,0.014631,0.014873,0.014469,0.014093,0.014077,0.013909,0.013691,0.013701,0.013583,0.013134,0.013137,0.012713,0.012057,0.011754,0.011735,0.012457,0.013273,0.013028,0.012645,0.012081,0.012051,0.011879,0.011673,0.011506,0.011453,0.011370,0.011116,0.010914,0.010839,0.010810,0.010928,0.011231,0.011348,0.011308,0.011381,0.011350,0.011220,0.010989,0.010741,0.010489,0.010398,0.010235,0.009852,0.009783,0.009914,0.010311,0.010762,0.011019,0.011518,0.012202,0.012864,0.012382,0.012691,0.012793,0.012431,0.012280,0.012254,0.011916,0.011948,0.012091,0.011857,0.011501,0.010864,0.010537,0.010424,0.010274,0.010431,0.010740,0.010718,0.010759,0.010877,0.010567,0.010226,0.009801,0.008976,0.008255,0.007937,0.007471,0.007011,0.007283,0.007911,0.007327,0.006896,0.006855,0.007161,0.007148,0.007191,0.007342,0.007359,0.007442,0.007454,0.007492,0.007409,0.007414,0.007529,0.007575,0.007589,0.007625,0.007668,0.007542,0.007598,0.007561,0.007565,0.007562,0.007491,0.007434,0.007370,0.007144,0.007182,0.007391,0.007863,0.008448,0.009461,0.010520,0.011522,0.012272,0.012113,0.011543,0.010941,0.010733,0.010628,0.010035,0.009898,0.009687,0.008703,0.007868,0.006812,0.006289,0.006034,0.005799,0.006099,0.006631,0.007123,0.007423,0.007725,0.007863,0.008243,0.008608,0.008312,0.008254,0.007863,0.007163,0.006103,0.005463,0.005093,0.004378,0.004002,0.004064,0.004405,0.004438,0.004634,0.004895,0.004846,0.004848,0.004858,0.004945,0.004915,0.004944,0.005074,0.005142,0.005171,0.005276,0.005384,0.005539,0.005657,0.005903,0.006161,0.006382,0.006677,0.007001,0.007403,0.007408,0.007262,0.007275,0.007801,0.008609,0.009236,0.010304,0.010857,0.011154,0.011378,0.011331,0.010598,0.009855,0.009030,0.008152,0.007993,0.007767,0.007255,0.006591,0.005731,0.004937,0.004286,0.003611,0.003238,0.003077,0.003631,0.004124,0.004723,0.005492,0.006198,0.006345,0.006690,0.006003,0.005266,0.004721,0.004041,0.003575,0.002941,0.002566,0.002083,0.001776,0.001878,0.001809,0.002212,0.002797,0.003068,0.003227,0.003425,0.003677,0.003961,0.004045,0.004172,0.004314,0.004369,0.004552,0.004697,0.005010,0.005167,0.005692,0.006175,0.006609,0.007166,0.007446,0.007592,0.007980,0.008169,0.008606,0.009407,0.010949,0.012129,0.013456,0.013458,0.012184,0.011718,0.010496,0.009356,0.008671,0.008246,0.007513,0.007414,0.006761,0.006019,0.005072,0.004539,0.003562,0.002866,0.002533,0.001717,0.000625,0.001115,0.001592,0.002022,0.002608,0.003261,0.003554,0.003689,0.004230,0.005169,0.005318,0.004506,0.003822,0.003596,0.003072,0.002342,0.002081,0.002101,0.002189,0.002495,0.003008,0.003445,0.003599,0.003722,0.003880,0.004304,0.004604,0.004847,0.005199,0.005392,0.005513,0.005613,0.005827,0.005947,0.005978,0.006007,0.005900,0.006049,0.006201,0.005967,0.005903,0.006414,0.006467,0.006915,0.008050,0.009673,0.010818,0.011195,0.011264,0.010720,0.009590,0.008813,0.008045,0.007616,0.007071,0.006194,0.005975,0.006048,0.005502,0.004788,0.004005,0.003484,0.003316,0.002948,0.002083,0.002229,0.002565,0.002880,0.003382,0.004203,0.004832,0.005226,0.005708,0.006160,0.005975,0.005215,0.004832,0.004475,0.004268,0.004097,0.003752,0.003716,0.003760,0.004070,0.004427,0.004476,0.004499,0.004387,0.004247,0.003932,0.003717,0.003567,0.003433,0.003464,0.003414,0.003380,0.003220,0.003082,0.003057,0.002973,0.003030,0.002999,0.003317,0.003438,0.003573,0.004180,0.004564,0.004613,0.004909,0.005221,0.005751,0.006381,0.007104,0.007104,0.006793,0.006226,0.005481,0.004879,0.004331,0.003745,0.003583,0.003478,0.002970,0.002505,0.001946,0.001700,0.001425,0.001052,0.000238,0.000364,0.000438,0.000472,0.000513,0.000624,0.000859,0.001116,0.001311,0.001998,0.001864,0.001595,0.001831,0.001674,0.001419,0.001232,0.000829,0.000891,0.000874,0.001074,0.001527,0.001814,0.001880,0.001920,0.002035,0.002201,0.002503,0.002854,0.003162,0.003566,0.004109,0.004588,0.004905,0.005306,0.005712,0.005971,0.006221,0.006345,0.006425,0.006467,0.006421,0.006072,0.005784,0.006096,0.006690,0.007274,0.007868,0.008580,0.008975,0.008167,0.007354,0.006724,0.006162,0.005582,0.004883,0.004374,0.003957,0.003723,0.003121,0.002603,0.002323,0.002302,0.002313,0.002170,0.001431,0.001952,0.002349,0.002632,0.002588,0.002627,0.002702,0.003197,0.003732,0.004592,0.004712,0.004816,0.005185,0.005030,0.004493,0.004189,0.004060,0.004296,0.004487,0.004613,0.004740,0.004882,0.004840,0.004952,0.005060,0.005147,0.005209,0.005221,0.005265,0.005140,0.005367,0.005573,0.005847,0.006128,0.006402,0.006470,0.006414,0.006415,0.006099,0.005735,0.005014,0.004435,0.003969,0.003930,0.004368,0.004979,0.005932,0.006851,0.007128,0.006468,0.006129,0.005993,0.005762,0.005126,0.004203,0.003657,0.003373,0.003016,0.002955,0.002771,0.002114,0.001857,0.001878,0.001885,0.001224,0.001734,0.002253,0.002674,0.002470,0.002241,0.002435,0.003039,0.003505,0.004052,0.004465,0.004849,0.005204,0.005380,0.004930,0.004430,0.004201,0.003663,0.003322,0.002808,0.002124,0.001795,0.002170,0.002600,0.002968,0.003178,0.003261,0.003281,0.003228,0.003097,0.003150,0.003162,0.002735,0.002929,0.003269,0.003558,0.004109,0.004633,0.004995,0.005084,0.005065,0.004965,0.005020,0.005012,0.005494,0.006175,0.006702,0.006994,0.006679,0.005729,0.004934,0.004375,0.004138,0.004404,0.004746,0.004496,0.003643,0.003021,0.002610,0.002209,0.001600,0.000984,0.000793,0.000631,-0.000154,-0.000674,-0.000927,-0.001096,-0.001704,-0.002170,-0.002086,-0.001978,-0.002176,-0.001926,-0.001915,-0.002071,-0.001812,-0.001301,-0.001455,-0.001989,-0.001960,-0.002073,-0.002304,-0.002730,-0.002888,-0.002579,-0.002261,-0.002121,-0.001417,-0.000608,0.000079,0.000520,0.000529,0.000400,0.000248,0.000492,0.000946,0.001105,0.000958,0.000565,0.000463,0.000448,0.000495,0.000422,0.000625,0.000775,0.001383,0.002462,0.003726,0.005101,0.006342,0.007268,0.007855,0.007713,0.007206,0.006391,0.005421,0.004863,0.004570,0.004179,0.003272,0.003017,0.002439,0.001675,0.001306,0.001030,0.001057,0.000699,-0.000008,-0.001371,-0.002318,-0.003150,-0.004024,-0.004479,-0.004582,-0.004639,-0.004723,-0.004521,-0.004520,-0.004750,-0.004686,-0.004403,-0.004339,-0.004461,-0.004193,-0.003919,-0.003874,-0.004006,-0.003868,-0.003472,-0.003388,-0.003646,-0.003295,-0.002885,-0.002716,-0.002882,-0.003281,-0.003667,-0.004170,-0.004372,-0.004022,-0.003721,-0.003581,-0.003451,-0.003390,-0.003119,-0.002750,-0.002485,-0.002362,-0.002002,-0.001605,-0.001190,-0.000755,0.000067,0.001191,0.002409,0.003735,0.005061,0.006087,0.006356,0.005940,0.005118,0.003876,0.002898,0.002624,0.002411,0.001823,0.001460,0.001303,0.001165,0.001182,0.001135,0.000918,0.000083,-0.000608,-0.001418,-0.002513,-0.003115,-0.003272,-0.003204,-0.003147,-0.003234,-0.002820,-0.002558,-0.003382,-0.004129,-0.004281,-0.004248,-0.004339,-0.004274,-0.004032,-0.003947,-0.004135,-0.004179,-0.004172,-0.004140,-0.004208,-0.004054,-0.004242,-0.004722,-0.005128,-0.005552,-0.005797,-0.006003,-0.005984,-0.005903,-0.005675,-0.005152,-0.004710,-0.004072,-0.003684,-0.003383,-0.002955,-0.002721,-0.002397,-0.002280,-0.002485,-0.002184,-0.001522,-0.000806,-0.000082,0.001175,0.002500,0.003716,0.004944,0.005456,0.004964,0.004093,0.003468,0.002447,0.001740,0.001537,0.001341,0.001289,0.001437,0.001800,0.001658,0.001170,0.000422,-0.000278,-0.000899,-0.001294,-0.001353,-0.001281,-0.001473,-0.001819,-0.002202,-0.002777,-0.003633,-0.004210,-0.004523,-0.004595,-0.005234,-0.005326,-0.005242,-0.005306,-0.005002,-0.005224,-0.005202,-0.005157,-0.005022,-0.005071,-0.005155,-0.005290,-0.005511,-0.005786,-0.005924,-0.006156,-0.006471,-0.006555,-0.006018,-0.004724,-0.003601,-0.002971,-0.002839,-0.003343,-0.003231,-0.003039,-0.003051,-0.003082,-0.003195,-0.003264,-0.003141,-0.003325,-0.003460,-0.003764,-0.004062,-0.003904,-0.003591,-0.002427,-0.002013,-0.001901,-0.001696,-0.002386,-0.002855,-0.003372,-0.004088,-0.004553,-0.004545,-0.004394,-0.005026,-0.005723,-0.006445,-0.007122,-0.007654,-0.008125,-0.008253,-0.008519,-0.008967,-0.008842,-0.008860,-0.009021,-0.009088,-0.008940,-0.008968,-0.008806,-0.008536,-0.008400,-0.008299,-0.008148,-0.007907,-0.007861,-0.007821,-0.008021,-0.008460,-0.009244,-0.010032,-0.010490,-0.010603,-0.010659,-0.010523,-0.010573,-0.010712,-0.010870,-0.010452,-0.009708,-0.008703,-0.008510,-0.008338,-0.008244,-0.007662,-0.007375,-0.007601,-0.007997,-0.008380,-0.008768,-0.009165,-0.009525,-0.009546,-0.009529,-0.009861,-0.010662,-0.011332,-0.011290,-0.010447,-0.009545,-0.009034,-0.008833,-0.008684,-0.008582,-0.008616,-0.009137,-0.010082,-0.011142,-0.012171,-0.012556,-0.012838,-0.012842,-0.012487,-0.012037,-0.011571,-0.011181,-0.010809,-0.010324,-0.010093,-0.009637,-0.009283,-0.009299,-0.009708,-0.010022,-0.009851,-0.009702,-0.009807,-0.009860,-0.010148,-0.010366,-0.010903,-0.011387,-0.011913,-0.012261,-0.012487,-0.012890,-0.012980,-0.013408,-0.013609,-0.013693,-0.014001,-0.013847,-0.013698,-0.013267,-0.012604,-0.012523,-0.012142,-0.011469,-0.011086,-0.011101,-0.011191,-0.011556,-0.012105,-0.012773,-0.013505,-0.014318,-0.014716,-0.014650,-0.014645,-0.015275,-0.016068,-0.016535,-0.015735,-0.014760,-0.013840,-0.013638,-0.013660,-0.013728,-0.013745,-0.014132,-0.015141,-0.016206,-0.016730,-0.016645,-0.016523,-0.016264,-0.015944,-0.015749,-0.015474,-0.015035,-0.014549,-0.014420,-0.014100,-0.013194,-0.012644,-0.012631,-0.012488,-0.012486,-0.012563,-0.012836,-0.013607,-0.014306,-0.015114,-0.015794,-0.016732,-0.017401,-0.017845,-0.018025,-0.018000,-0.017931,-0.017825,-0.017837,-0.017589,-0.017039,-0.016520,-0.015855,-0.015545,-0.015563,-0.015247,-0.014976,-0.014287,-0.013975,-0.014336,-0.014650,-0.014968,-0.015619,-0.016190,-0.016569,-0.016957,-0.017470,-0.017653,-0.017545,-0.017628,-0.018343,-0.019272,-0.019614,-0.019391,-0.019314,-0.018995,-0.018741,-0.018701,-0.018832,-0.019007,-0.019224,-0.019520,-0.019582,-0.019156,-0.018298,-0.017274,-0.016205,-0.015511,-0.015571,-0.015981,-0.016615,-0.017545,-0.018164,-0.018547,-0.018592,-0.018602,-0.018550,-0.017754,-0.016782,-0.015949,-0.015696,-0.016002,-0.016465,-0.017092,-0.018024,-0.019034,-0.019803,-0.020337,-0.020595,-0.020418,-0.020144,-0.020122,-0.019852,-0.019614,-0.019151,-0.018290,-0.017350,-0.016509,-0.016452,-0.016636,-0.017171,-0.017492,-0.017597,-0.017763,-0.017873,-0.017830,-0.018008,-0.018343,-0.018686,-0.019016,-0.019125,-0.019034,-0.019180,-0.019956,-0.021004,-0.021537,-0.021096,-0.020806,-0.021097,-0.021439,-0.021676,-0.021884,-0.022022,-0.022056,-0.021950,-0.021710,-0.021470,-0.021240,-0.020947,-0.020323,-0.019309,-0.018329,-0.017765,-0.017398,-0.017525,-0.018054,-0.019026,-0.019926,-0.020335,-0.020278,-0.020113,-0.020087,-0.020760,-0.021802,-0.022527,-0.022634,-0.022368,-0.021795,-0.021478,-0.021155,-0.020810,-0.020579,-0.020176,-0.019739,-0.019323,-0.019103,-0.019254,-0.020144,-0.021145,-0.021853,-0.021943,-0.021757,-0.021542,-0.021201,-0.020994,-0.020601,-0.020889,-0.021589,-0.022025,-0.021811,-0.021519,-0.021670,-0.022135,-0.022662,-0.022733,-0.022545,-0.022450,-0.023338,-0.023819,-0.023607,-0.023238,-0.023208,-0.023594,-0.024050,-0.024443,-0.024739,-0.024891,-0.024899,-0.024815,-0.024720,-0.024478,-0.024209,-0.024163,-0.024135,-0.024016,-0.023844,-0.023647,-0.023410,-0.023240,-0.023271,-0.023414,-0.023450,-0.022953,-0.022270,-0.021354,-0.020505,-0.020376,-0.020568,-0.020552,-0.020255,-0.020002,-0.019763,-0.019764,-0.020089,-0.020471,-0.020687,-0.020782,-0.020813,-0.020617,-0.020904,-0.021590,-0.022412,-0.023193,-0.023340,-0.023383,-0.023627,-0.023650,-0.023352,-0.023084,-0.022813,-0.023659,-0.024729,-0.025438,-0.025498,-0.024771,-0.023875,-0.023927,-0.024747,-0.025248,-0.024998,-0.024051,-0.023666,-0.023067,-0.022520,-0.022491,-0.022782,-0.023170,-0.023534,-0.023873,-0.024321,-0.024699,-0.024806,-0.024720,-0.024645,-0.024497,-0.024308,-0.024088,-0.023923,-0.023934,-0.024280,-0.024534,-0.025037,-0.025464,-0.025829,-0.026013,-0.025637,-0.024748,-0.023758,-0.022413,-0.021253,-0.020398,-0.019841,-0.019753,-0.019988,-0.020299,-0.020586,-0.020680,-0.020754,-0.021255,-0.021660,-0.021502,-0.020908,-0.020108,-0.019813,-0.019901,-0.020432,-0.021781,-0.023267,-0.024387,-0.025057,-0.025356,-0.025288,-0.025622,-0.025935,-0.027012,-0.027594,-0.027655,-0.027570,-0.027235,-0.026550,-0.025869,-0.025445,-0.025067,-0.024587,-0.024230,-0.023842,-0.023194,-0.023091,-0.023300,-0.023667,-0.024235,-0.024588,-0.024645,-0.024572,-0.024659,-0.025174,-0.025871,-0.026391,-0.026501,-0.026309,-0.026379,-0.026610,-0.026918,-0.027315,-0.027342,-0.027865,-0.028665,-0.029260,-0.029559,-0.029164,-0.028456,-0.027622,-0.026327,-0.024814,-0.023824,-0.023660,-0.023941,-0.024503,-0.025028,-0.025465,-0.025682,-0.025622,-0.026295,-0.027273,-0.027507,-0.026457,-0.025097,-0.023971,-0.022983,-0.022435,-0.022686,-0.023591,-0.025013,-0.026868,-0.028993,-0.030512,-0.031119,-0.031410,-0.031577,-0.031673,-0.031506,-0.030836,-0.030211,-0.029810,-0.029736,-0.029735,-0.029427,-0.029096,-0.028665,-0.027849,-0.026848,-0.026236,-0.026162,-0.026692,-0.027481,-0.028414,-0.029026,-0.028654,-0.027920,-0.028286,-0.029476,-0.030272,-0.030106,-0.029935,-0.030366,-0.030880,-0.031257,-0.031349,-0.031237,-0.031141,-0.030506,-0.029395,-0.028793,-0.029202,-0.029352,-0.029217,-0.028373,-0.027199,-0.026756,-0.026364,-0.026363,-0.026360,-0.026312,-0.026124,-0.025858,-0.026090,-0.026992,-0.028189,-0.028867,-0.028799,-0.028713,-0.028308,-0.027513,-0.026622,-0.025868,-0.025303,-0.025052,-0.025526,-0.026822,-0.028407,-0.029870,-0.031998,-0.033813,-0.034597,-0.034685,-0.034559,-0.034469,-0.034407,-0.034593,-0.034778,-0.034456,-0.033821,-0.033062,-0.032405,-0.031952,-0.031689,-0.031884,-0.032410,-0.033230,-0.034060,-0.034445,-0.034636,-0.034599,-0.034361,-0.034532,-0.034172,-0.034426,-0.034417,-0.034473,-0.034481,-0.034351,-0.033844,-0.033185,-0.032225,-0.030991,-0.029885,-0.029364,-0.029279,-0.029019,-0.028342,-0.027590,-0.027335,-0.027257,-0.026945,-0.026247,-0.025581,-0.025166,-0.025118,-0.025264,-0.025506,-0.025780,-0.025939,-0.025991,-0.026032,-0.026271,-0.026391,-0.026474,-0.026416,-0.026323,-0.026066,-0.025785,-0.025665,-0.025845,-0.026082,-0.026463,-0.027630,-0.029092,-0.030355,-0.031484,-0.032425,-0.033219,-0.033617,-0.033306,-0.032776,-0.032206,-0.031676,-0.031229,-0.030265,-0.029232,-0.028940,-0.029438,-0.030407,-0.031165,-0.030954,-0.030624,-0.031099,-0.032365,-0.032804,-0.031890,-0.031033,-0.031010,-0.031300,-0.031216,-0.031205,-0.031244,-0.030751,-0.029628,-0.028050,-0.027047,-0.026420,-0.026142,-0.025990,-0.025948,-0.026191,-0.026915,-0.027874,-0.028142,-0.027244,-0.025549,-0.023766,-0.022546,-0.022363,-0.022797,-0.023098,-0.023093,-0.022957,-0.022904,-0.022836,-0.022777,-0.022640,-0.022527,-0.022463,-0.022485,-0.022574,-0.022622,-0.022665,-0.022736,-0.022567,-0.022564,-0.022910,-0.023370,-0.023861,-0.024443,-0.025082,-0.025876,-0.026685,-0.027006,-0.026655,-0.026095,-0.025360,-0.024903,-0.024535,-0.024466,-0.024862,-0.025342,-0.025504,-0.024783,-0.024229,-0.024214,-0.024570,-0.025319,-0.025248,-0.025027,-0.024657,-0.024176,-0.024603,-0.024854,-0.025155,-0.025405,-0.025065,-0.024047,-0.022741,-0.022109,-0.022051,-0.022358,-0.022664,-0.023218,-0.024182,-0.024795,-0.024403,-0.023350,-0.022227,-0.022164,-0.021670,-0.020451,-0.019254,-0.018623,-0.019042,-0.019842,-0.020193,-0.020320,-0.020293,-0.020367,-0.020480,-0.020198,-0.019894,-0.019790,-0.019787,-0.020056,-0.020308,-0.020645,-0.020750,-0.020801,-0.020946,-0.020964,-0.020874,-0.020746,-0.020794,-0.021008,-0.021309,-0.021789,-0.022297,-0.022787,-0.023022,-0.022799,-0.022583,-0.022368,-0.021987,-0.021898,-0.021857,-0.022087,-0.022793,-0.023253,-0.023542,-0.022828,-0.022541,-0.022437,-0.022717,-0.022385,-0.022187,-0.022301,-0.022386,-0.022252,-0.021786,-0.021051,-0.020536,-0.020320,-0.020659,-0.021164,-0.021554,-0.021835,-0.021484,-0.020345,-0.019252,-0.018651,-0.019243,-0.019554,-0.019437,-0.018985,-0.017921,-0.016644,-0.016280,-0.016689,-0.017632,-0.017857,-0.017801,-0.017791,-0.017971,-0.017745,-0.017518,-0.017444,-0.017531,-0.017846,-0.018151,-0.018458,-0.018673,-0.018806,-0.018901,-0.018794,-0.018658,-0.018425,-0.018155,-0.017868,-0.017552,-0.017349,-0.017310,-0.017434,-0.017888,-0.018426,-0.018876,-0.018703,-0.018071,-0.017692,-0.017367,-0.017444,-0.017709,-0.017879,-0.017976,-0.017552,-0.017527,-0.017707,-0.018011,-0.018454,-0.018207,-0.018644,-0.019081,-0.019217,-0.019109,-0.018556,-0.018386,-0.018287,-0.018669,-0.019227,-0.019724,-0.019965,-0.019561,-0.019009,-0.018498,-0.018867,-0.018732,-0.017961,-0.018005,-0.018314,-0.018687,-0.017962,-0.016716,-0.016426,-0.017347,-0.017879,-0.017728,-0.017423,-0.017392,-0.017366,-0.017380,-0.017537,-0.017804,-0.018151,-0.018394,-0.018572,-0.018711,-0.018799,-0.018679,-0.018547,-0.018572,-0.018465,-0.018041,-0.017418,-0.016921,-0.016552,-0.016122,-0.015930,-0.015892,-0.016049,-0.016382,-0.016875,-0.017532,-0.017748,-0.017426,-0.016795,-0.016127,-0.016589,-0.016665,-0.016751,-0.016884,-0.017104,-0.017635,-0.018592,-0.018913,-0.019374,-0.019544,-0.019353,-0.019244,-0.018788,-0.018325,-0.017935,-0.018134,-0.018971,-0.019426,-0.019233,-0.019046,-0.018975,-0.018829,-0.019139,-0.018810,-0.018696,-0.018349,-0.018160,-0.018143,-0.018117,-0.017390,-0.016545,-0.017042,-0.018032,-0.017842,-0.017336,-0.016943,-0.016627,-0.016393,-0.016442,-0.016602,-0.016648,-0.016871,-0.017220,-0.017415,-0.017449,-0.017366,-0.017211,-0.017031,-0.016941,-0.016838,-0.016501,-0.016149,-0.015850,-0.015589,-0.015557,-0.015473,-0.015334,-0.015235,-0.015410,-0.015972,-0.016779,-0.017458,-0.017823,-0.017430,-0.017754,-0.016726,-0.016036,-0.015821,-0.015955,-0.016208,-0.016514,-0.016479,-0.016816,-0.017172,-0.017133,-0.016664,-0.016131,-0.015629,-0.015173,-0.015445,-0.016680,-0.017906,-0.018076,-0.017854,-0.017049,-0.016780,-0.016500,-0.016344,-0.016583,-0.015962,-0.015371,-0.015405,-0.015020,-0.014466,-0.013470,-0.013516,-0.014675,-0.014688,-0.014142,-0.013682,-0.013253,-0.013035,-0.012999,-0.013007,-0.013169,-0.013440,-0.013728,-0.013977,-0.014094,-0.014091,-0.013902,-0.013753,-0.013636,-0.013552,-0.013313,-0.012798,-0.012496,-0.012309,-0.012279,-0.012022,-0.011679,-0.011712,-0.011796,-0.011711,-0.011722,-0.011615,-0.011761,-0.012017,-0.013099,-0.012356,-0.011918,-0.011999,-0.012228,-0.012540,-0.012839,-0.012911,-0.012807,-0.012276,-0.011412,-0.010878,-0.011009,-0.010979,-0.011013,-0.011620,-0.012806,-0.013906,-0.013700,-0.013017,-0.011816,-0.011856,-0.011297,-0.011316,-0.011244,-0.010565,-0.009765,-0.009511,-0.009841,-0.009847,-0.008866,-0.009088,-0.010450,-0.010648,-0.010354,-0.009915,-0.009603,-0.009267,-0.009163,-0.009288,-0.009437,-0.009762,-0.010007,-0.010081,-0.009941,-0.009744,-0.009545,-0.009441,-0.009091,-0.008755,-0.008313,-0.007814,-0.007481,-0.007112,-0.006998,-0.006759,-0.006301,-0.006152,-0.005921,-0.005904,-0.005899,-0.005776,-0.005828,-0.006498,-0.007154,-0.007036,-0.006478,-0.006813,-0.007591,-0.007625,-0.006511,-0.005268,-0.005785,-0.006070,-0.005733,-0.005629,-0.005995,-0.006090,-0.006351,-0.006831,-0.007145,-0.007122,-0.006495,-0.006014,-0.006260,-0.007239,-0.006401,-0.005929,-0.005553,-0.005127,-0.004825,-0.004871,-0.004685,-0.004746,-0.003460,-0.003695,-0.005145,-0.005465,-0.005341,-0.005019,-0.004764,-0.004552,-0.004385,-0.004247,-0.004067,-0.004016,-0.004129,-0.004069,-0.004051,-0.003919,-0.003700,-0.003536,-0.003410,-0.003231,-0.002707,-0.002192,-0.001753,-0.001466,-0.001204,-0.001102,-0.000892,-0.000741,-0.000624,-0.000559,-0.000780,-0.000883,-0.001041,-0.001655,-0.002656,-0.003219,-0.002270,-0.001656,-0.001307,0.000147,0.002430,0.003342,0.002721,0.001959,0.001037,0.000137,-0.000536,-0.001022,-0.001382,-0.001518,-0.001753,-0.002002,-0.001918,-0.001727,-0.002272,-0.003365,-0.002474,-0.002026,-0.001636,-0.001068,-0.000993,-0.000555,-0.000355,0.000086,0.001809,0.001243,0.000565,0.000659,0.001132,0.001562,0.001987,0.002362,0.002925,0.003372,0.003993,0.004287,0.004737,0.005100,0.005320,0.005541,0.005861,0.006112,0.006350,0.006634,0.007012,0.007196,0.007224,0.006970,0.006862,0.006859,0.007151,0.007253,0.007030,0.006592,0.005794,0.004711,0.003739,0.002731,0.002082,0.001313,0.001822,0.003450,0.005485,0.008032,0.009275,0.009184,0.009128,0.009038,0.008451,0.007867,0.007856,0.006954,0.006171,0.005292,0.004973,0.004395,0.004204,0.003864,0.003546,0.002191,0.002652,0.003899,0.003894,0.004541,0.005417,0.005463,0.006937,0.009048,0.011723,0.011703,0.011771,0.012345,0.012948,0.013203,0.013518,0.013889,0.014335,0.014918,0.015210,0.015326,0.015599,0.015948,0.015807,0.015564,0.015311,0.014975,0.014796,0.014841,0.014718,0.014535,0.014259,0.013826,0.013424,0.013221,0.013314,0.013589,0.013915,0.014188,0.013786,0.012933,0.011953,0.010679,0.009784,0.009033,0.008195,0.008254,0.009002,0.009735,0.009590,0.009938,0.009523,0.009590,0.008902,0.008110,0.007653,0.007018,0.006934,0.006780,0.006184,0.004865,0.003384,0.002529,0.001939,0.000704,0.000163,0.001601,0.002721,0.003222,0.004359,0.006170,0.008836,0.013100,0.014304,0.013834,0.013710,0.013777,0.013442,0.012956,0.012598,0.012188,0.011926,0.011531,0.011278,0.010916,0.010725,0.010230,0.009377,0.008499,0.007433,0.006274,0.005370,0.004800,0.004322,0.004077,0.003719,0.003219,0.002799,0.002233,0.002079,0.001944,0.002021,0.002237,0.001871,0.001743,0.001862,0.001736,0.001180,0.001432,0.001698,0.002042,0.002682,0.003244,0.004067,0.005424,0.004613,0.004261,0.003966,0.003528,0.002933,0.002463,0.002249,0.001729,0.001000,0.000343,-0.000851,-0.001145,-0.001790,-0.002693,-0.003927,-0.004149,-0.003241,-0.002269,-0.000253,0.002427,0.005681,0.007319,0.007120,0.006850,0.006513,0.006087,0.005510,0.004960,0.004184,0.003138,0.002155,0.001314,0.000403,-0.000276,-0.000941,-0.001419,-0.001888,-0.002502,-0.002872,-0.002996,-0.003056,-0.002980,-0.002833,-0.002696,-0.002825,-0.003026,-0.003117,-0.002973,-0.002817,-0.002778,-0.002529,-0.002258,-0.002044,-0.001954,-0.001854,-0.001835,-0.001452,-0.000972,-0.000731,-0.000361,0.000756,0.001819,0.003099,0.004553,0.003986,0.003259,0.003033,0.002541,0.002136,0.001916,0.001503,0.001210,0.000765,0.000420,-0.000430,-0.001574,-0.002643,-0.003758,-0.004833,-0.005981,-0.006461,-0.005494,-0.003966,-0.002397,-0.002027,-0.002554,-0.002584,-0.002819,-0.003060,-0.003241,-0.003426,-0.003504,-0.003605,-0.003896,-0.004103,-0.004331,-0.004427,-0.004323,-0.004297,-0.004216,-0.004251,-0.004382,-0.004423,-0.004192,-0.003904,-0.003698,-0.003436,-0.003243,-0.003122,-0.003066,-0.002959,-0.002762,-0.002645,-0.002623,-0.002786,-0.002740,-0.002646,-0.002576,-0.002326,-0.001979,-0.001791,-0.001302,-0.000873,-0.000498,0.000070,0.000828,0.001358,0.002120,0.001613,0.001230,0.000650,-0.000014,-0.000698,-0.001483,-0.002046,-0.002316,-0.002727,-0.003119,-0.003686,-0.004464,-0.005485,-0.005420,-0.006695,-0.007349,-0.008153,-0.008483,-0.008533,-0.008707,-0.009100,-0.009643,-0.010217,-0.010546,-0.010799,-0.010974,-0.010950,-0.010770,-0.010383,-0.009973,-0.009585,-0.009353,-0.009271,-0.009228,-0.009223,-0.009214,-0.009064,-0.008773,-0.008531,-0.008430,-0.008354,-0.008378,-0.008426,-0.008446,-0.008456,-0.008543,-0.008684,-0.008770,-0.008771,-0.008721,-0.008716,-0.008787,-0.008843,-0.008794,-0.008561,-0.008179,-0.007798,-0.007476,-0.007284,-0.007206,-0.007140,-0.006987,-0.006780,-0.006637,-0.006621,-0.006669,-0.006663,-0.006572,-0.006472,-0.006400,-0.006275,-0.006046,-0.005846,-0.005693,-0.005619,-0.005673,-0.005851,-0.006158,-0.006469,-0.007097,-0.007337,-0.007403,-0.007345,-0.007269,-0.007335,-0.007444,-0.007396,-0.007214,-0.007294,-0.007375,-0.007238,-0.006978,-0.006767,-0.006640,-0.006474,-0.006375,-0.006310,-0.006212,-0.006083,-0.005978,-0.005838,-0.005668,-0.005554,-0.005578,-0.005651,-0.005807,-0.006018,-0.006200,-0.006295,-0.006331,-0.006411,-0.006445,-0.006406,-0.006334,-0.006277,-0.006271,-0.006279,-0.006255,-0.006161,-0.006001,-0.005884,-0.005785,-0.005662,-0.005423,-0.005105,-0.004825,-0.004667,-0.004695,-0.004619,-0.004609,-0.004578,-0.004520,-0.004529,-0.004593,-0.004582,-0.004405,-0.004252,-0.004118,-0.004049,-0.004073,-0.004140,-0.004219,-0.004293,-0.004826,-0.005268,-0.005597,-0.005791,-0.005830,-0.005801,-0.005725,-0.005525,-0.005301,-0.005011,-0.004988,-0.005161,-0.005191,-0.005348,-0.005486,-0.005234,-0.004783,-0.004570,-0.004401,-0.004381,-0.004488,-0.004592,-0.004700,-0.004770,-0.004900,-0.005001,-0.005059,-0.005078,-0.005057,-0.005033,-0.005049,-0.005115,-0.005264,-0.005391,-0.005483,-0.005510,-0.005525,-0.005551,-0.005551,-0.005472,-0.005247,-0.004956,-0.004646,-0.004395,-0.004191,-0.003990,-0.003726,-0.003474,-0.003303,-0.003280,-0.003318,-0.003312,-0.003269,-0.003278,-0.003386,-0.003516,-0.003584,-0.003590,-0.003607,-0.003666,-0.003719,-0.003726,-0.003742,-0.003856,-0.004368,-0.004681,-0.004772,-0.004785,-0.004785,-0.004693,-0.004577,-0.004575,-0.004589,-0.004491,-0.004407,-0.004674,-0.004943,-0.005124,-0.005000,-0.004687,-0.004282,-0.004033,-0.003756,-0.003738,-0.003900,-0.003980,-0.004059,-0.004131,-0.004252,-0.004320,-0.004373,-0.004412,-0.004437,-0.004427,-0.004400,-0.004428,-0.004583,-0.004734,-0.004874,-0.004922,-0.004896,-0.004932,-0.005064,-0.005153,-0.005105,-0.004902,-0.004671,-0.004475,-0.004288,-0.004065,-0.003801,-0.003519,-0.003288,-0.003257,-0.003293,-0.003311,-0.003301,-0.003326,-0.003435,-0.003612,-0.003798,-0.003817,-0.003759,-0.003676,-0.003528,-0.003364,-0.003328,-0.003496,-0.004039,-0.004417,-0.004609,-0.004751,-0.004869,-0.004809,-0.004691,-0.004683,-0.004582,-0.004255,-0.004101,-0.004188,-0.003844,-0.003338,-0.002876,-0.002450,-0.002322,-0.002428,-0.002538,-0.002870,-0.003259,-0.003345,-0.003355,-0.003444,-0.003555,-0.003571,-0.003591,-0.003683,-0.003826,-0.003911,-0.003869,-0.003842,-0.003937,-0.004060,-0.004213,-0.004290,-0.004258,-0.004268,-0.004412,-0.004628,-0.004834,-0.004839,-0.004709,-0.004506,-0.004292,-0.004050,-0.003783,-0.003497,-0.003244,-0.003032,-0.002926,-0.002910,-0.002986,-0.003139,-0.003351,-0.003608,-0.003863,-0.004047,-0.004112,-0.004040,-0.003817,-0.003540,-0.003361,-0.003370,-0.003915,-0.004316,-0.004772,-0.005293,-0.005629,-0.005680,-0.005477,-0.005073,-0.004970,-0.004745,-0.004448,-0.004347,-0.004212,-0.003945,-0.003576,-0.003257,-0.003205,-0.003443,-0.003722,-0.004087,-0.004401,-0.004405,-0.004304,-0.004245,-0.004229,-0.004171,-0.004117,-0.004094,-0.004155,-0.004233,-0.004209,-0.004074,-0.003973,-0.003947,-0.003966,-0.003963,-0.003905,-0.003904,-0.004014,-0.004175,-0.004302,-0.004441,-0.004561,-0.004652,-0.004678,-0.004507,-0.004166,-0.003773,-0.003453,-0.003115,-0.002917,-0.002908,-0.003056,-0.003285,-0.003555,-0.003854,-0.004113,-0.004342,-0.004483,-0.004463,-0.004236,-0.003875,-0.003521,-0.003305,-0.003629,-0.003909,-0.004410,-0.005039,-0.005561,-0.005764,-0.005570,-0.005148,-0.004863,-0.004561,-0.004276,-0.004216,-0.004280,-0.004326,-0.004301,-0.004312,-0.004437,-0.004765,-0.005082,-0.005337,-0.005491,-0.005350,-0.005002,-0.004765,-0.004623,-0.004600,-0.004631,-0.004691,-0.004830,-0.004990,-0.005013,-0.004907,-0.004780,-0.004713,-0.004693,-0.004646,-0.004545,-0.004504,-0.004602,-0.004766,-0.004877,-0.005123,-0.005299,-0.005320,-0.005129,-0.004726,-0.004249,-0.003839,-0.003604,-0.003476,-0.003494,-0.003661,-0.003904,-0.004176,-0.004527,-0.004974,-0.005455,-0.005791,-0.006029,-0.006115,-0.005940,-0.005542,-0.005132,-0.004895,-0.005181,-0.005780,-0.006443,-0.007050,-0.007569,-0.007837,-0.007863,-0.007866,-0.007966,-0.008102,-0.008090,-0.008198,-0.008604,-0.009002,-0.009206,-0.009384,-0.009614,-0.009914,-0.010132,-0.010291,-0.010499,-0.010565,-0.010499,-0.010567,-0.010728,-0.010958,-0.011202,-0.011521,-0.011922,-0.012292,-0.012527,-0.012684,-0.012854,-0.012994,-0.013124,-0.013115,-0.012992,-0.012882,-0.012878,-0.012902,-0.012868,-0.012927,-0.013012,-0.013047,-0.013053,-0.013510,-0.014223,-0.014510,-0.014747