-0.001684,,-0.001660,-0.001664,-0.001659,-0.001636,-0.001631,-0.001631,-0.001608,-0.001632,-0.001632,-0.001663,-0.001704,-0.001693,-0.001695,-0.001676,-0.001662,-0.001656,-0.001627,-0.001579,-0.001534,-0.001527,-0.001560,-0.001584,-0.001593,-0.001574,-0.001517,-0.001486,-0.001451,-0.001420,-0.001391,-0.001357,-0.001329,-0.001296,-0.001265,-0.001240,-0.001218,-0.001212,-0.001209,-0.001203,-0.001196,-0.001189,-0.001173,-0.001149,-0.001122,-0.001092,-0.001058,-0.001020,-0.000987,-0.000953,-0.000936,-0.000934,-0.000941,-0.000948,-0.000958,-0.000967,-0.000975,-0.000979,-0.001033,-0.001081,-0.001170,-0.001219,-0.001235,-0.001239,-0.001238,-0.001245,-0.001241,-0.001236,-0.001223,-0.001210,-0.001195,-0.001181,-0.001189,-0.001212,-0.001238,-0.001277,-0.001306,-0.001290,-0.001278,-0.001284,-0.001268,-0.001226,-0.001191,-0.001143,-0.001079,-0.001035,-0.001037,-0.001068,-0.001103,-0.001121,-0.001067,-0.001037,-0.001004,-0.000978,-0.000942,-0.000910,-0.000880,-0.000852,-0.000833,-0.000824,-0.000814,-0.000804,-0.000800,-0.000798,-0.000793,-0.000783,-0.000766,-0.000744,-0.000718,-0.000683,-0.000642,-0.000600,-0.000565,-0.000539,-0.000530,-0.000520,-0.000518,-0.000518,-0.000518,-0.000528,-0.000560,-0.000614,-0.000650,-0.000689,-0.000743,-0.000792,-0.000830,-0.000829,-0.000833,-0.000822,-0.000814,-0.000809,-0.000804,-0.000804,-0.000766,-0.000740,-0.000777,-0.000811,-0.000819,-0.000819,-0.000833,-0.000851,-0.000840,-0.000812,-0.000773,-0.000741,-0.000706,-0.000652,-0.000588,-0.000532,-0.000491,-0.000535,-0.000571,-0.000602,-0.000602,-0.000553,-0.000526,-0.000500,-0.000470,-0.000442,-0.000412,-0.000387,-0.000370,-0.000355,-0.000351,-0.000352,-0.000345,-0.000341,-0.000335,-0.000323,-0.000306,-0.000285,-0.000257,-0.000213,-0.000147,-0.000083,-0.000029,0.000006,0.000025,0.000048,0.000052,0.000044,0.000041,0.000032,-0.000000,-0.000060,-0.000134,-0.000194,-0.000233,-0.000261,-0.000294,-0.000292,-0.000309,-0.000316,-0.000298,-0.000292,-0.000287,-0.000278,-0.000255,-0.000234,-0.000283,-0.000333,-0.000356,-0.000325,-0.000304,-0.000320,-0.000340,-0.000329,-0.000299,-0.000253,-0.000198,-0.000139,-0.000090,-0.000038,0.000019,0.000023,-0.000014,-0.000047,-0.000073,-0.000065,-0.000004,0.000036,0.000058,0.000088,0.000125,0.000150,0.000176,0.000215,0.000241,0.000252,0.000272,0.000289,0.000304,0.000324,0.000352,0.000383,0.000422,0.000476,0.000537,0.000592,0.000639,0.000662,0.000673,0.000687,0.000679,0.000667,0.000666,0.000679,0.000698,0.000709,0.000648,0.000589,0.000532,0.000488,0.000459,0.000438,0.000423,0.000410,0.000426,0.000436,0.000447,0.000453,0.000426,0.000436,0.000416,0.000373,0.000355,0.000359,0.000338,0.000324,0.000314,0.000319,0.000331,0.000359,0.000407,0.000451,0.000496,0.000549,0.000598,0.000656,0.000665,0.000620,0.000579,0.000551,0.000554,0.000573,0.000595,0.000626,0.000677,0.000717,0.000755,0.000807,0.000848,0.000876,0.000898,0.000914,0.000928,0.000945,0.000968,0.000996,0.001027,0.001065,0.001100,0.001129,0.001150,0.001154,0.001149,0.001153,0.001154,0.001176,0.001224,0.001288,0.001365,0.001445,0.001457,0.001444,0.001425,0.001402,0.001388,0.001370,0.001373,0.001382,0.001394,0.001411,0.001434,0.001437,0.001389,0.001405,0.001441,0.001436,0.001428,0.001437,0.001414,0.001400,0.001381,0.001369,0.001378,0.001397,0.001416,0.001433,0.001468,0.001519,0.001545,0.001587,0.001638,0.001621,0.001580,0.001549,0.001498,0.001499,0.001535,0.001572,0.001627,0.001679,0.001725,0.001775,0.001817,0.001854,0.001882,0.001906,0.001924,0.001940,0.001960,0.001985,0.002012,0.002042,0.002074,0.002098,0.002110,0.002107,0.002090,0.002078,0.002070,0.002089,0.002138,0.002202,0.002280,0.002372,0.002439,0.002465,0.002497,0.002507,0.002518,0.002521,0.002517,0.002537,0.002569,0.002619,0.002660,0.002676,0.002641,0.002652,0.002696,0.002708,0.002727,0.002745,0.002720,0.002688,0.002654,0.002650,0.002679,0.002689,0.002711,0.002719,0.002734,0.002775,0.002811,0.002852,0.002879,0.002910,0.002914,0.002861,0.002823,0.002795,0.002829,0.002882,0.002943,0.003002,0.003054,0.003108,0.003160,0.003209,0.003248,0.003283,0.003310,0.003334,0.003362,0.003394,0.003430,0.003471,0.003512,0.003547,0.003564,0.003564,0.003541,0.003512,0.003480,0.003466,0.003479,0.003524,0.003594,0.003675,0.003773,0.003829,0.003853,0.003865,0.003856,0.003865,0.003877,0.003900,0.003943,0.003986,0.004030,0.004090,0.004080,0.004072,0.004080,0.004076,0.004075,0.004059,0.004033,0.003999,0.003960,0.003946,0.003985,0.004002,0.004021,0.004038,0.004055,0.004088,0.004114,0.004142,0.004169,0.004195,0.004227,0.004219,0.004158,0.004103,0.004059,0.004080,0.004119,0.004160,0.004191,0.004219,0.004244,0.004266,0.004282,0.004297,0.004312,0.004329,0.004351,0.004374,0.004398,0.004431,0.004462,0.004499,0.004529,0.004554,0.004558,0.004551,0.004527,0.004500,0.004503,0.004551,0.004614,0.004666,0.004734,0.004785,0.004772,0.004799,0.004806,0.004818,0.004826,0.004805,0.004858,0.004894,0.004949,0.005014,0.005047,0.005055,0.005028,0.005009,0.005006,0.004985,0.004969,0.004993,0.004951,0.004962,0.004977,0.004985,0.005013,0.005033,0.005072,0.005102,0.005123,0.005157,0.005181,0.005217,0.005264,0.005312,0.005304,0.005252,0.005214,0.005164,0.005189,0.005241,0.005280,0.005307,0.005342,0.005351,0.005362,0.005373,0.005383,0.005383,0.005398,0.005405,0.005409,0.005436,0.005454,0.005471,0.005475,0.005472,0.005466,0.005438,0.005408,0.005372,0.005359,0.005382,0.005439,0.005500,0.005571,0.005616,0.005635,0.005658,0.005692,0.005714,0.005727,0.005749,0.005803,0.005876,0.005927,0.005949,0.005954,0.005944,0.005921,0.005889,0.005880,0.005891,0.005899,0.005934,0.005904,0.005904,0.005922,0.005956,0.005998,0.006035,0.006087,0.006132,0.006176,0.006235,0.006272,0.006308,0.006366,0.006412,0.006453,0.006433,0.006396,0.006367,0.006353,0.006401,0.006441,0.006485,0.006541,0.006571,0.006614,0.006629,0.006647,0.006660,0.006679,0.006702,0.006720,0.006747,0.006771,0.006789,0.006797,0.006800,0.006797,0.006772,0.006736,0.006699,0.006658,0.006650,0.006695,0.006774,0.006828,0.006873,0.006920,0.006964,0.007000,0.007019,0.007044,0.007098,0.007134,0.007184,0.007216,0.007242,0.007277,0.007266,0.007241,0.007229,0.007221,0.007249,0.007260,0.007275,0.007250,0.007222,0.007238,0.007292,0.007347,0.007407,0.007470,0.007534,0.007592,0.007658,0.007731,0.007797,0.007857,0.007929,0.008027,0.008061,0.008070,0.008074,0.008070,0.008080,0.008117,0.008148,0.008192,0.008266,0.008329,0.008354,0.008384,0.008408,0.008436,0.008479,0.008510,0.008537,0.008567,0.008592,0.008609,0.008622,0.008631,0.008639,0.008649,0.008667,0.008668,0.008677,0.008723,0.008792,0.008868,0.008924,0.008982,0.009031,0.009071,0.009108,0.009145,0.009185,0.009208,0.009249,0.009283,0.009278,0.009257,0.009233,0.009204,0.009174,0.009147,0.009156,0.009161,0.009179,0.009198,0.009183,0.009174,0.009212,0.009278,0.009347,0.009396,0.009478,0.009557,0.009596,0.009661,0.009728,0.009772,0.009834,0.009889,0.009917,0.009969,0.009972,0.009945,0.009922,0.009909,0.009949,0.010005,0.010070,0.010133,0.010164,0.010207,0.010247,0.010302,0.010362,0.010385,0.010390,0.010415,0.010461,0.010519,0.010581,0.010610,0.010647,0.010684,0.010713,0.010731,0.010740,0.010773,0.010807,0.010874,0.010931,0.010998,0.011085,0.011135,0.011181,0.011232,0.011260,0.011288,0.011324,0.011382,0.011411,0.011394,0.011394,0.011387,0.011361,0.011340,0.011326,0.011317,0.011363,0.011410,0.011427,0.011462,0.011531,0.011609,0.011663,0.011662,0.011688,0.011712,0.011698,0.011704,0.011705,0.011711,0.011740,0.011730,0.011731,0.011761,0.011776,0.011731,0.011666,0.011604,0.011549,0.011567,0.011596,0.011627,0.011615,0.011623,0.011624,0.011622,0.011627,0.011614,0.011593,0.011588,0.011597,0.011619,0.011654,0.011682,0.011694,0.011691,0.011682,0.011707,0.011724,0.011752,0.011747,0.011735,0.011752,0.011806,0.011911,0.011979,0.012038,0.012115,0.012165,0.012204,0.012225,0.012261,0.012319,0.012354,0.012394,0.012411,0.012393,0.012418,0.012409,0.012390,0.012429,0.012442,0.012462,0.012517,0.012567,0.012635,0.012686,0.012694,0.012703,0.012709,0.012700,0.012717,0.012721,0.012720,0.012739,0.012724,0.012732,0.012731,0.012732,0.012706,0.012634,0.012543,0.012456,0.012387,0.012399,0.012404,0.012386,0.012380,0.012367,0.012341,0.012330,0.012337,0.012351,0.012355,0.012362,0.012366,0.012373,0.012357,0.012348,0.012354,0.012366,0.012378,0.012361,0.012362,0.012357,0.012311,0.012294,0.012299,0.012340,0.012402,0.012444,0.012492,0.012517,0.012548,0.012573,0.012545,0.012532,0.012508,0.012511,0.012509,0.012447,0.012403,0.012340,0.012290,0.012269,0.012214,0.012227,0.012250,0.012257,0.012246,0.012242,0.012238,0.012238,0.012240,0.012231,0.012232,0.012238,0.012235,0.012203,0.012160,0.012153,0.012129,0.012113,0.012111,0.012033,0.011905,0.011779,0.011671,0.011585,0.011573,0.011541,0.011513,0.011487,0.011465,0.011438,0.011413,0.011388,0.011355,0.011311,0.011271,0.011231,0.011190,0.011134,0.011078,0.011043,0.011010,0.010971,0.010907,0.010815,0.010737,0.010672,0.010629,0.010604,0.010619,0.010649,0.010665,0.010678,0.010708,0.010742,0.010701,0.010691,0.010662,0.010638,0.010623,0.010574,0.010544,0.010514,0.010498,0.010485,0.010429,0.010435,0.010454,0.010474,0.010513,0.010534,0.010535,0.010560,0.010589,0.010611,0.010629,0.010644,0.010641,0.010591,0.010544,0.010527,0.010514,0.010507,0.010493,0.010469,0.010396,0.010286,0.010185,0.010057,0.009965,0.009904,0.009859,0.009833,0.009804,0.009747,0.009684,0.009627,0.009570,0.009508,0.009454,0.009399,0.009339,0.009293,0.009249,0.009207,0.009132,0.009073,0.008984,0.008879,0.008772,0.008664,0.008599,0.008548,0.008548,0.008589,0.008603,0.008639,0.008725,0.008777,0.008778,0.008827,0.008831,0.008822,0.008799,0.008776,0.008761,0.008724,0.008736,0.008742,0.008687,0.008675,0.008676,0.008700,0.008726,0.008768,0.008788,0.008778,0.008769,0.008789,0.008807,0.008836,0.008858,0.008893,0.008918,0.008937,0.008940,0.008943,0.008971,0.008960,0.008943,0.008889,0.008843,0.008783,0.008707,0.008677,0.008660,0.008640,0.008606,0.008575,0.008518,0.008458,0.008396,0.008337,0.008292,0.008235,0.008174,0.008121,0.008044,0.007969,0.007901,0.007858,0.007805,0.007739,0.007669,0.007587,0.007477,0.007405,0.007377,0.007383,0.007425,0.007468,0.007551,0.007642,0.007713,0.007740,0.007732,0.007724,0.007692,0.007669,0.007655,0.007635,0.007639,0.007649,0.007619,0.007639,0.007668,0.007706,0.007707,0.007734,0.007787,0.007826,0.007871,0.007912,0.007944,0.007980,0.008024,0.008065,0.008108,0.008164,0.008181,0.008184,0.008201,0.008193,0.008173,0.008146,0.008121,0.008071,0.008011,0.007978,0.007963,0.007954,0.007954,0.007947,0.007934,0.007918,0.007896,0.007866,0.007846,0.007813,0.007770,0.007750,0.007715,0.007674,0.007619,0.007564,0.007515,0.007473,0.007412,0.007356,0.007284,0.007202,0.007156,0.007182,0.007243,0.007299,0.007422,0.007536,0.007631,0.007659,0.007671,0.007682,0.007681,0.007688,0.007697,0.007676,0.007664,0.007714,0.007727,0.007748,0.007762,0.007799,0.007806,0.007821,0.007852,0.007874,0.007872,0.007873,0.007859,0.007841,0.007841,0.007848,0.007865,0.007898,0.007881,0.007834,0.007805,0.007775,0.007752,0.007740,0.007716,0.007661,0.007611,0.007550,0.007482,0.007442,0.007418,0.007382,0.007334,0.007292,0.007254,0.007207,0.007198,0.007185,0.007138,0.007107,0.007065,0.007034,0.007012,0.006982,0.006952,0.006914,0.006869,0.006816,0.006773,0.006719,0.006685,0.006699,0.006722,0.006762,0.006856,0.006927,0.006978,0.007015,0.007039,0.007055,0.007088,0.007097,0.007082,0.007057,0.007028,0.007041,0.007017,0.006999,0.006998,0.006998,0.006984,0.006964,0.006940,0.006908,0.006887,0.006876,0.006846,0.006822,0.006813,0.006819,0.006836,0.006861,0.006847,0.006803,0.006782,0.006773,0.006755,0.006738,0.006708,0.006663,0.006638,0.006576,0.006477,0.006421,0.006382,0.006353,0.006316,0.006276,0.006232,0.006211,0.006207,0.006161,0.006140,0.006110,0.006051,0.005995,0.005950,0.005907,0.005869,0.005824,0.005782,0.005714,0.005651,0.005601,0.005560,0.005513,0.005469,0.005460,0.005503,0.005573,0.005649,0.005722,0.005774,0.005796,0.005826,0.005829,0.005814,0.005797,0.005785,0.005799,0.005788,0.005758,0.005770,0.005773,0.005778,0.005761,0.005752,0.005760,0.005789,0.005817,0.005813,0.005800,0.005789,0.005790,0.005804,0.005816,0.005810,0.005796,0.005791,0.005780,0.005756,0.005719,0.005680,0.005640,0.005607,0.005551,0.005462,0.005398,0.005363,0.005344,0.005311,0.005273,0.005254,0.005240,0.005217,0.005136,0.005089,0.005026,0.004940,0.004867,0.004809,0.004745,0.004692,0.004639,0.004572,0.004503,0.004437,0.004380,0.004327,0.004267,0.004225,0.004212,0.004220,0.004263,0.004332,0.004400,0.004458,0.004502,0.004524,0.004540,0.004554,0.004553,0.004556,0.004596,0.004629,0.004582,0.004570,0.004583,0.004606,0.004591,0.004583,0.004601,0.004613,0.004640,0.004653,0.004628,0.004587,0.004556,0.004527,0.004472,0.004407,0.004337,0.004270,0.004189,0.004118,0.004045,0.003978,0.003907,0.003837,0.003779,0.003720,0.003642,0.003605,0.003599,0.003617,0.003637,0.003707,0.003783,0.003830,0.003826,0.003773,0.003709,0.003631,0.003562,0.003488,0.003396,0.003303,0.003205,0.003096,0.003009,0.002931,0.002865,0.002803,0.002731,0.002690,0.002677,0.002686,0.002704,0.002756,0.002824,0.002897,0.002956,0.002971,0.002982,0.002976,0.002952,0.002905,0.002851,0.002800,0.002727,0.002679,0.002651,0.002629,0.002571,0.002527,0.002520,0.002506,0.002515,0.002524,0.002521,0.002483,0.002451,0.002418,0.002364,0.002302,0.002254,0.002211,0.002172,0.002135,0.002118,0.002108,0.002097,0.002105,0.002121,0.002148,0.002140,0.002115,0.002122,0.002194,0.002289,0.002363,0.002471,0.002510,0.002489,0.002457,0.002412,0.002343,0.002265,0.002147,0.002015,0.001893,0.001771,0.001643,0.001528,0.001436,0.001356,0.001282,0.001200,0.001130,0.001082,0.001089,0.001095,0.001127,0.001182,0.001234,0.001248,0.001254,0.001212,0.001167,0.001120,0.001057,0.001002,0.000957,0.000960,0.000951,0.000937,0.000925,0.000895,0.000910,0.000954,0.000990,0.001021,0.001067,0.001128,0.001161,0.001152,0.001138,0.001122,0.001091,0.001064,0.001035,0.001020,0.001002,0.000998,0.000994,0.000997,0.001016,0.001017,0.001011,0.001034,0.001031,0.001027,0.001054,0.001177,0.001308,0.001406,0.001424,0.001381,0.001358,0.001310,0.001251,0.001220,0.001189,0.001155,0.001135,0.001113,0.001068,0.001006,0.000955,0.000888,0.000822,0.000755,0.000657,0.000556,0.000552,0.000552,0.000572,0.000609,0.000647,0.000660,0.000667,0.000700,0.000739,0.000725,0.000679,0.000654,0.000650,0.000638,0.000628,0.000634,0.000646,0.000666,0.000700,0.000747,0.000797,0.000836,0.000881,0.000929,0.000980,0.001003,0.001009,0.001015,0.000996,0.000979,0.000962,0.000947,0.000938,0.000921,0.000912,0.000893,0.000905,0.000924,0.000905,0.000903,0.000951,0.000959,0.000978,0.001038,0.001171,0.001268,0.001288,0.001294,0.001282,0.001255,0.001250,0.001227,0.001218,0.001202,0.001149,0.001138,0.001156,0.001113,0.001062,0.001026,0.000992,0.000967,0.000917,0.000843,0.000809,0.000795,0.000790,0.000803,0.000845,0.000876,0.000901,0.000931,0.000948,0.000928,0.000869,0.000861,0.000859,0.000873,0.000884,0.000889,0.000909,0.000927,0.000951,0.000976,0.000982,0.001002,0.001018,0.001033,0.001036,0.001033,0.001021,0.001000,0.000988,0.000964,0.000943,0.000915,0.000887,0.000872,0.000849,0.000837,0.000807,0.000811,0.000796,0.000787,0.000841,0.000892,0.000882,0.000877,0.000886,0.000915,0.000931,0.000941,0.000924,0.000884,0.000846,0.000791,0.000735,0.000687,0.000624,0.000599,0.000565,0.000508,0.000492,0.000462,0.000450,0.000432,0.000426,0.000418,0.000438,0.000433,0.000426,0.000432,0.000447,0.000481,0.000530,0.000563,0.000611,0.000626,0.000631,0.000669,0.000685,0.000706,0.000723,0.000733,0.000769,0.000797,0.000837,0.000890,0.000920,0.000935,0.000952,0.000978,0.001012,0.001054,0.001084,0.001098,0.001113,0.001132,0.001141,0.001145,0.001134,0.001127,0.001106,0.001091,0.001077,0.001075,0.001082,0.001075,0.001034,0.000993,0.000987,0.000983,0.000982,0.000979,0.000982,0.000951,0.000901,0.000846,0.000801,0.000757,0.000714,0.000664,0.000637,0.000621,0.000599,0.000551,0.000538,0.000553,0.000570,0.000571,0.000568,0.000555,0.000593,0.000589,0.000571,0.000539,0.000529,0.000522,0.000565,0.000596,0.000643,0.000671,0.000705,0.000735,0.000734,0.000718,0.000710,0.000711,0.000723,0.000728,0.000734,0.000752,0.000777,0.000789,0.000823,0.000859,0.000900,0.000940,0.000958,0.000962,0.000934,0.000934,0.000928,0.000922,0.000931,0.000934,0.000914,0.000885,0.000872,0.000836,0.000817,0.000760,0.000697,0.000634,0.000598,0.000592,0.000589,0.000610,0.000627,0.000594,0.000528,0.000482,0.000452,0.000424,0.000405,0.000370,0.000356,0.000354,0.000357,0.000380,0.000396,0.000371,0.000361,0.000339,0.000314,0.000276,0.000286,0.000276,0.000258,0.000203,0.000157,0.000148,0.000190,0.000223,0.000264,0.000310,0.000368,0.000421,0.000462,0.000455,0.000449,0.000451,0.000433,0.000408,0.000366,0.000323,0.000309,0.000361,0.000415,0.000463,0.000502,0.000532,0.000552,0.000553,0.000534,0.000533,0.000534,0.000487,0.000498,0.000523,0.000527,0.000556,0.000577,0.000587,0.000579,0.000560,0.000512,0.000461,0.000382,0.000348,0.000331,0.000292,0.000250,0.000178,0.000070,-0.000021,-0.000086,-0.000120,-0.000092,-0.000047,-0.000052,-0.000084,-0.000099,-0.000126,-0.000166,-0.000209,-0.000250,-0.000266,-0.000276,-0.000310,-0.000350,-0.000379,-0.000395,-0.000446,-0.000496,-0.000496,-0.000483,-0.000481,-0.000449,-0.000423,-0.000388,-0.000327,-0.000272,-0.000277,-0.000299,-0.000294,-0.000296,-0.000294,-0.000303,-0.000299,-0.000259,-0.000210,-0.000183,-0.000103,-0.000010,0.000073,0.000122,0.000110,0.000075,0.000044,0.000068,0.000113,0.000122,0.000091,0.000031,0.000019,0.000017,0.000015,-0.000017,-0.000030,-0.000063,-0.000066,-0.000044,-0.000026,-0.000013,-0.000014,-0.000019,-0.000030,-0.000085,-0.000149,-0.000223,-0.000308,-0.000363,-0.000396,-0.000414,-0.000457,-0.000471,-0.000521,-0.000596,-0.000638,-0.000671,-0.000646,-0.000636,-0.000655,-0.000701,-0.000737,-0.000770,-0.000828,-0.000871,-0.000892,-0.000903,-0.000898,-0.000864,-0.000839,-0.000831,-0.000817,-0.000813,-0.000831,-0.000861,-0.000856,-0.000834,-0.000814,-0.000798,-0.000770,-0.000733,-0.000721,-0.000739,-0.000713,-0.000680,-0.000655,-0.000658,-0.000683,-0.000706,-0.000756,-0.000797,-0.000782,-0.000777,-0.000794,-0.000795,-0.000796,-0.000778,-0.000747,-0.000723,-0.000707,-0.000657,-0.000606,-0.000557,-0.000513,-0.000437,-0.000357,-0.000299,-0.000262,-0.000242,-0.000226,-0.000242,-0.000293,-0.000364,-0.000448,-0.000524,-0.000550,-0.000576,-0.000641,-0.000691,-0.000738,-0.000796,-0.000829,-0.000855,-0.000890,-0.000930,-0.000966,-0.001006,-0.001069,-0.001119,-0.001151,-0.001174,-0.001187,-0.001187,-0.001149,-0.001137,-0.001172,-0.001218,-0.001246,-0.001265,-0.001277,-0.001265,-0.001242,-0.001217,-0.001191,-0.001149,-0.001118,-0.001095,-0.001104,-0.001110,-0.001142,-0.001191,-0.001219,-0.001245,-0.001271,-0.001321,-0.001362,-0.001382,-0.001367,-0.001308,-0.001263,-0.001200,-0.001163,-0.001124,-0.001065,-0.001025,-0.000986,-0.000972,-0.000999,-0.000967,-0.000895,-0.000822,-0.000760,-0.000673,-0.000609,-0.000580,-0.000559,-0.000562,-0.000590,-0.000638,-0.000690,-0.000770,-0.000856,-0.000918,-0.000984,-0.001041,-0.001092,-0.001109,-0.001141,-0.001185,-0.001229,-0.001265,-0.001319,-0.001375,-0.001415,-0.001442,-0.001469,-0.001493,-0.001500,-0.001517,-0.001554,-0.001564,-0.001575,-0.001566,-0.001595,-0.001582,-0.001549,-0.001520,-0.001463,-0.001449,-0.001427,-0.001414,-0.001414,-0.001448,-0.001499,-0.001545,-0.001585,-0.001626,-0.001648,-0.001675,-0.001694,-0.001681,-0.001621,-0.001508,-0.001447,-0.001425,-0.001469,-0.001550,-0.001542,-0.001533,-0.001557,-0.001583,-0.001633,-0.001683,-0.001690,-0.001721,-0.001732,-0.001748,-0.001738,-0.001696,-0.001662,-0.001606,-0.001614,-0.001633,-0.001651,-0.001716,-0.001783,-0.001855,-0.001929,-0.001986,-0.002013,-0.002009,-0.002045,-0.002094,-0.002150,-0.002208,-0.002270,-0.002346,-0.002392,-0.002461,-0.002537,-0.002554,-0.002574,-0.002610,-0.002632,-0.002604,-0.002595,-0.002563,-0.002512,-0.002460,-0.002403,-0.002350,-0.002302,-0.002279,-0.002246,-0.002224,-0.002203,-0.002204,-0.002231,-0.002260,-0.002304,-0.002369,-0.002428,-0.002467,-0.002477,-0.002482,-0.002452,-0.002416,-0.002370,-0.002390,-0.002418,-0.002442,-0.002402,-0.002383,-0.002418,-0.002452,-0.002479,-0.002499,-0.002520,-0.002550,-0.002557,-0.002568,-0.002570,-0.002581,-0.002561,-0.002495,-0.002386,-0.002299,-0.002269,-0.002278,-0.002300,-0.002324,-0.002350,-0.002413,-0.002497,-0.002584,-0.002679,-0.002737,-0.002792,-0.002824,-0.002841,-0.002877,-0.002931,-0.003007,-0.003058,-0.003074,-0.003092,-0.003060,-0.003021,-0.003006,-0.003029,-0.003049,-0.003029,-0.003000,-0.002984,-0.002954,-0.002926,-0.002870,-0.002828,-0.002787,-0.002779,-0.002785,-0.002798,-0.002833,-0.002859,-0.002922,-0.002967,-0.002998,-0.003034,-0.003024,-0.003055,-0.003073,-0.003065,-0.003094,-0.003085,-0.003031,-0.003015,-0.003043,-0.003075,-0.003126,-0.003178,-0.003228,-0.003278,-0.003349,-0.003422,-0.003490,-0.003543,-0.003600,-0.003623,-0.003621,-0.003521,-0.003437,-0.003379,-0.003384,-0.003402,-0.003425,-0.003438,-0.003473,-0.003538,-0.003611,-0.003660,-0.003689,-0.003740,-0.003787,-0.003833,-0.003897,-0.003959,-0.003994,-0.004023,-0.004101,-0.004160,-0.004132,-0.004117,-0.004148,-0.004136,-0.004114,-0.004068,-0.003999,-0.003973,-0.003933,-0.003892,-0.003844,-0.003840,-0.003841,-0.003865,-0.003908,-0.003948,-0.003994,-0.004040,-0.004087,-0.004096,-0.004081,-0.004062,-0.004000,-0.003980,-0.003992,-0.003965,-0.003944,-0.003872,-0.003834,-0.003862,-0.003859,-0.003834,-0.003864,-0.003922,-0.003986,-0.004053,-0.004131,-0.004206,-0.004281,-0.004321,-0.004363,-0.004406,-0.004400,-0.004323,-0.004315,-0.004326,-0.004376,-0.004460,-0.004565,-0.004659,-0.004739,-0.004815,-0.004872,-0.004897,-0.004906,-0.004903,-0.004880,-0.004871,-0.004914,-0.004947,-0.004972,-0.005044,-0.005090,-0.005144,-0.005158,-0.005154,-0.005177,-0.005144,-0.005094,-0.005036,-0.004983,-0.004950,-0.004896,-0.004818,-0.004793,-0.004823,-0.004868,-0.004939,-0.005029,-0.005099,-0.005157,-0.005217,-0.005221,-0.005229,-0.005251,-0.005268,-0.005251,-0.005178,-0.005146,-0.005096,-0.005049,-0.004983,-0.004937,-0.004935,-0.004933,-0.004924,-0.004942,-0.004989,-0.005049,-0.005106,-0.005158,-0.005231,-0.005300,-0.005345,-0.005382,-0.005421,-0.005381,-0.005346,-0.005383,-0.005426,-0.005475,-0.005545,-0.005621,-0.005693,-0.005749,-0.005783,-0.005816,-0.005868,-0.005937,-0.005985,-0.005996,-0.005997,-0.006025,-0.006028,-0.006040,-0.006024,-0.006008,-0.005995,-0.005991,-0.005988,-0.005973,-0.005932,-0.005915,-0.005899,-0.005882,-0.005872,-0.005876,-0.005859,-0.005875,-0.005912,-0.005956,-0.006036,-0.006118,-0.006183,-0.006214,-0.006222,-0.006240,-0.006292,-0.006327,-0.006358,-0.006348,-0.006291,-0.006249,-0.006212,-0.006194,-0.006137,-0.006134,-0.006171,-0.006198,-0.006193,-0.006205,-0.006246,-0.006291,-0.006331,-0.006358,-0.006385,-0.006374,-0.006413,-0.006423,-0.006401,-0.006372,-0.006378,-0.006416,-0.006453,-0.006498,-0.006557,-0.006622,-0.006680,-0.006720,-0.006749,-0.006747,-0.006733,-0.006736,-0.006740,-0.006739,-0.006738,-0.006732,-0.006713,-0.006697,-0.006675,-0.006653,-0.006643,-0.006617,-0.006623,-0.006596,-0.006553,-0.006554,-0.006552,-0.006540,-0.006520,-0.006528,-0.006548,-0.006569,-0.006624,-0.006698,-0.006773,-0.006859,-0.006945,-0.006959,-0.006980,-0.007008,-0.006994,-0.006980,-0.006921,-0.006883,-0.006877,-0.006842,-0.006780,-0.006729,-0.006664,-0.006679,-0.006686,-0.006703,-0.006745,-0.006764,-0.006776,-0.006815,-0.006869,-0.006913,-0.006917,-0.006854,-0.006872,-0.006878,-0.006880,-0.006930,-0.007000,-0.007071,-0.007136,-0.007199,-0.007268,-0.007332,-0.007373,-0.007386,-0.007385,-0.007352,-0.007297,-0.007238,-0.007190,-0.007154,-0.007144,-0.007104,-0.007104,-0.007099,-0.007104,-0.007122,-0.007104,-0.007054,-0.007026,-0.006962,-0.006920,-0.006906,-0.006898,-0.006912,-0.006938,-0.006974,-0.007041,-0.007103,-0.007171,-0.007290,-0.007396,-0.007488,-0.007555,-0.007584,-0.007642,-0.007643,-0.007606,-0.007606,-0.007587,-0.007562,-0.007579,-0.007606,-0.007563,-0.007523,-0.007471,-0.007522,-0.007570,-0.007608,-0.007660,-0.007702,-0.007724,-0.007762,-0.007816,-0.007850,-0.007861,-0.007882,-0.007900,-0.007895,-0.007955,-0.008044,-0.008130,-0.008231,-0.008322,-0.008399,-0.008463,-0.008513,-0.008545,-0.008556,-0.008550,-0.008486,-0.008375,-0.008309,-0.008260,-0.008234,-0.008228,-0.008179,-0.008179,-0.008186,-0.008204,-0.008249,-0.008275,-0.008304,-0.008350,-0.008345,-0.008293,-0.008260,-0.008270,-0.008279,-0.008293,-0.008335,-0.008409,-0.008502,-0.008582,-0.008710,-0.008838,-0.008942,-0.008958,-0.008987,-0.009061,-0.009091,-0.009104,-0.009142,-0.009168,-0.009180,-0.009187,-0.009217,-0.009214,-0.009166,-0.009156,-0.009174,-0.009210,-0.009248,-0.009255,-0.009283,-0.009331,-0.009400,-0.009454,-0.009455,-0.009460,-0.009482,-0.009505,-0.009551,-0.009634,-0.009714,-0.009795,-0.009864,-0.009902,-0.009899,-0.009905,-0.009900,-0.009887,-0.009879,-0.009876,-0.009800,-0.009654,-0.009604,-0.009554,-0.009517,-0.009478,-0.009433,-0.009437,-0.009431,-0.009435,-0.009464,-0.009521,-0.009566,-0.009652,-0.009665,-0.009636,-0.009651,-0.009625,-0.009600,-0.009568,-0.009571,-0.009602,-0.009642,-0.009739,-0.009883,-0.010031,-0.010144,-0.010202,-0.010304,-0.010393,-0.010453,-0.010503,-0.010558,-0.010585,-0.010561,-0.010547,-0.010576,-0.010558,-0.010472,-0.010487,-0.010552,-0.010620,-0.010683,-0.010744,-0.010813,-0.010886,-0.010969,-0.011034,-0.011062,-0.011078,-0.011074,-0.011092,-0.011143,-0.011190,-0.011250,-0.011309,-0.011354,-0.011373,-0.011368,-0.011357,-0.011317,-0.011329,-0.011357,-0.011345,-0.011362,-0.011332,-0.011274,-0.011201,-0.011130,-0.011048,-0.010991,-0.010979,-0.011021,-0.011068,-0.011119,-0.011186,-0.011257,-0.011281,-0.011229,-0.011197,-0.011182,-0.011145,-0.011046,-0.010952,-0.010877,-0.010825,-0.010782,-0.010729,-0.010712,-0.010724,-0.010750,-0.010788,-0.010879,-0.010913,-0.010920,-0.010900,-0.010870,-0.010819,-0.010764,-0.010718,-0.010699,-0.010620,-0.010502,-0.010456,-0.010439,-0.010427,-0.010433,-0.010454,-0.010503,-0.010576,-0.010636,-0.010708,-0.010771,-0.010822,-0.010896,-0.010943,-0.010968,-0.011006,-0.011049,-0.011062,-0.011055,-0.011008,-0.010944,-0.010871,-0.010884,-0.010916,-0.010865,-0.010831,-0.010893,-0.010944,-0.010938,-0.010932,-0.010917,-0.010877,-0.010847,-0.010826,-0.010879,-0.010931,-0.010984,-0.011028,-0.011051,-0.011027,-0.010960,-0.010895,-0.010830,-0.010711,-0.010598,-0.010554,-0.010555,-0.010600,-0.010637,-0.010616,-0.010554,-0.010477,-0.010405,-0.010343,-0.010307,-0.010246,-0.010201,-0.010165,-0.010120,-0.010076,-0.010015,-0.009952,-0.009901,-0.009791,-0.009693,-0.009629,-0.009567,-0.009500,-0.009437,-0.009378,-0.009349,-0.009347,-0.009334,-0.009314,-0.009333,-0.009354,-0.009401,-0.009431,-0.009464,-0.009511,-0.009526,-0.009536,-0.009525,-0.009485,-0.009432,-0.009431,-0.009458,-0.009395,-0.009410,-0.009421,-0.009409,-0.009465,-0.009485,-0.009510,-0.009522,-0.009514,-0.009516,-0.009501,-0.009525,-0.009590,-0.009676,-0.009726,-0.009716,-0.009684,-0.009624,-0.009546,-0.009441,-0.009344,-0.009360,-0.009361,-0.009337,-0.009348,-0.009390,-0.009474,-0.009545,-0.009535,-0.009452,-0.009343,-0.009292,-0.009279,-0.009221,-0.009176,-0.009151,-0.009116,-0.009111,-0.009077,-0.009047,-0.008968,-0.008898,-0.008866,-0.008825,-0.008770,-0.008712,-0.008668,-0.008635,-0.008587,-0.008533,-0.008470,-0.008419,-0.008372,-0.008311,-0.008285,-0.008287,-0.008276,-0.008283,-0.008296,-0.008311,-0.008316,-0.008290,-0.008310,-0.008239,-0.008196,-0.008165,-0.008168,-0.008108,-0.008073,-0.008082,-0.008102,-0.008110,-0.008122,-0.008160,-0.008225,-0.008274,-0.008341,-0.008396,-0.008404,-0.008379,-0.008350,-0.008300,-0.008210,-0.008117,-0.008120,-0.008067,-0.007964,-0.007919,-0.007899,-0.007885,-0.007940,-0.008022,-0.008105,-0.008067,-0.007974,-0.007893,-0.007879,-0.007812,-0.007752,-0.007722,-0.007704,-0.007715,-0.007706,-0.007664,-0.007595,-0.007532,-0.007481,-0.007408,-0.007344,-0.007272,-0.007196,-0.007122,-0.007042,-0.006978,-0.006927,-0.006869,-0.006827,-0.006779,-0.006744,-0.006692,-0.006636,-0.006620,-0.006591,-0.006581,-0.006570,-0.006545,-0.006526,-0.006487,-0.006470,-0.006441,-0.006435,-0.006466,-0.006442,-0.006510,-0.006596,-0.006672,-0.006767,-0.006866,-0.007006,-0.007109,-0.007203,-0.007268,-0.007258,-0.007222,-0.007192,-0.007127,-0.007010,-0.007005,-0.006976,-0.006910,-0.006932,-0.006967,-0.007061,-0.007095,-0.007052,-0.007098,-0.007192,-0.007231,-0.007166,-0.007034,-0.006950,-0.006879,-0.006806,-0.006763,-0.006737,-0.006719,-0.006681,-0.006640,-0.006623,-0.006622,-0.006572,-0.006508,-0.006459,-0.006379,-0.006256,-0.006122,-0.006028,-0.005968,-0.005898,-0.005856,-0.005818,-0.005785,-0.005742,-0.005695,-0.005658,-0.005604,-0.005554,-0.005507,-0.005468,-0.005521,-0.005510,-0.005518,-0.005525,-0.005533,-0.005597,-0.005699,-0.005724,-0.005797,-0.005870,-0.005936,-0.006039,-0.006142,-0.006251,-0.006327,-0.006391,-0.006462,-0.006470,-0.006420,-0.006362,-0.006265,-0.006187,-0.006179,-0.006095,-0.006100,-0.006115,-0.006109,-0.006122,-0.006179,-0.006184,-0.006155,-0.006229,-0.006295,-0.006234,-0.006084,-0.005945,-0.005822,-0.005708,-0.005633,-0.005573,-0.005477,-0.005404,-0.005379,-0.005369,-0.005366,-0.005365,-0.005368,-0.005346,-0.005317,-0.005278,-0.005197,-0.005113,-0.005039,-0.004965,-0.004913,-0.004844,-0.004768,-0.004694,-0.004645,-0.004605,-0.004577,-0.004560,-0.004536,-0.004498,-0.004587,-0.004582,-0.004631,-0.004686,-0.004723,-0.004763,-0.004804,-0.004773,-0.004771,-0.004791,-0.004790,-0.004757,-0.004767,-0.004806,-0.004831,-0.004863,-0.004901,-0.004913,-0.004843,-0.004736,-0.004580,-0.004547,-0.004489,-0.004424,-0.004439,-0.004414,-0.004365,-0.004372,-0.004383,-0.004404,-0.004349,-0.004370,-0.004444,-0.004395,-0.004251,-0.004114,-0.003973,-0.003860,-0.003755,-0.003647,-0.003563,-0.003515,-0.003506,-0.003511,-0.003501,-0.003479,-0.003432,-0.003387,-0.003358,-0.003349,-0.003332,-0.003277,-0.003250,-0.003237,-0.003248,-0.003228,-0.003198,-0.003206,-0.003200,-0.003170,-0.003165,-0.003134,-0.003113,-0.003141,-0.003228,-0.003196,-0.003192,-0.003205,-0.003186,-0.003143,-0.003065,-0.002950,-0.002858,-0.002782,-0.002699,-0.002658,-0.002693,-0.002723,-0.002750,-0.002786,-0.002835,-0.002871,-0.002812,-0.002713,-0.002606,-0.002630,-0.002577,-0.002550,-0.002530,-0.002495,-0.002433,-0.002404,-0.002439,-0.002450,-0.002357,-0.002365,-0.002436,-0.002386,-0.002278,-0.002161,-0.002066,-0.001959,-0.001866,-0.001790,-0.001713,-0.001680,-0.001674,-0.001676,-0.001665,-0.001642,-0.001608,-0.001586,-0.001541,-0.001507,-0.001471,-0.001436,-0.001424,-0.001397,-0.001396,-0.001375,-0.001335,-0.001336,-0.001314,-0.001302,-0.001290,-0.001286,-0.001288,-0.001325,-0.001367,-0.001354,-0.001274,-0.001232,-0.001206,-0.001154,-0.001040,-0.000947,-0.000969,-0.000971,-0.000939,-0.000928,-0.000948,-0.000949,-0.000955,-0.000969,-0.000987,-0.001001,-0.000956,-0.000905,-0.000915,-0.000964,-0.000894,-0.000861,-0.000824,-0.000792,-0.000759,-0.000730,-0.000673,-0.000621,-0.000474,-0.000465,-0.000521,-0.000499,-0.000453,-0.000398,-0.000357,-0.000326,-0.000299,-0.000274,-0.000251,-0.000241,-0.000250,-0.000239,-0.000220,-0.000185,-0.000138,-0.000098,-0.000060,-0.000031,0.000026,0.000071,0.000098,0.000114,0.000134,0.000132,0.000150,0.000157,0.000157,0.000169,0.000172,0.000174,0.000160,0.000118,0.000065,0.000037,0.000129,0.000176,0.000184,0.000260,0.000371,0.000407,0.000391,0.000382,0.000351,0.000303,0.000260,0.000229,0.000223,0.000229,0.000217,0.000193,0.000199,0.000223,0.000216,0.000165,0.000230,0.000271,0.000326,0.000395,0.000430,0.000487,0.000549,0.000621,0.000741,0.000713,0.000672,0.000675,0.000697,0.000712,0.000720,0.000720,0.000745,0.000766,0.000799,0.000793,0.000821,0.000847,0.000867,0.000895,0.000948,0.001002,0.001040,0.001073,0.001121,0.001158,0.001181,0.001159,0.001140,0.001127,0.001118,0.001100,0.001057,0.001027,0.001001,0.000972,0.000939,0.000893,0.000845,0.000793,0.000825,0.000925,0.001042,0.001160,0.001210,0.001211,0.001228,0.001246,0.001227,0.001191,0.001162,0.001143,0.001115,0.001069,0.001043,0.001015,0.000999,0.000967,0.000927,0.000862,0.000906,0.001004,0.001031,0.001080,0.001121,0.001124,0.001223,0.001325,0.001412,0.001405,0.001395,0.001405,0.001419,0.001404,0.001387,0.001389,0.001403,0.001432,0.001430,0.001411,0.001401,0.001386,0.001327,0.001280,0.001246,0.001206,0.001180,0.001176,0.001171,0.001184,0.001191,0.001183,0.001169,0.001152,0.001128,0.001103,0.001071,0.001048,0.000996,0.000941,0.000910,0.000867,0.000811,0.000771,0.000743,0.000761,0.000809,0.000833,0.000820,0.000836,0.000832,0.000832,0.000797,0.000746,0.000698,0.000644,0.000609,0.000586,0.000560,0.000509,0.000428,0.000376,0.000299,0.000217,0.000177,0.000269,0.000317,0.000313,0.000340,0.000401,0.000506,0.000623,0.000647,0.000613,0.000590,0.000570,0.000528,0.000478,0.000422,0.000365,0.000316,0.000279,0.000247,0.000199,0.000166,0.000116,0.000051,-0.000011,-0.000073,-0.000136,-0.000179,-0.000193,-0.000196,-0.000176,-0.000179,-0.000215,-0.000251,-0.000317,-0.000358,-0.000393,-0.000405,-0.000402,-0.000461,-0.000501,-0.000520,-0.000551,-0.000596,-0.000569,-0.000536,-0.000499,-0.000437,-0.000385,-0.000331,-0.000273,-0.000308,-0.000340,-0.000382,-0.000425,-0.000462,-0.000498,-0.000519,-0.000529,-0.000551,-0.000579,-0.000639,-0.000653,-0.000719,-0.000812,-0.000925,-0.000944,-0.000869,-0.000807,-0.000705,-0.000598,-0.000498,-0.000466,-0.000491,-0.000531,-0.000561,-0.000604,-0.000657,-0.000703,-0.000761,-0.000834,-0.000917,-0.000974,-0.001029,-0.001062,-0.001087,-0.001095,-0.001113,-0.001164,-0.001201,-0.001207,-0.001211,-0.001193,-0.001168,-0.001146,-0.001159,-0.001190,-0.001214,-0.001207,-0.001191,-0.001182,-0.001152,-0.001131,-0.001123,-0.001125,-0.001124,-0.001127,-0.001108,-0.001068,-0.001045,-0.001021,-0.000967,-0.000933,-0.000905,-0.000886,-0.000955,-0.001007,-0.001046,-0.001075,-0.001092,-0.001114,-0.001132,-0.001140,-0.001163,-0.001175,-0.001199,-0.001219,-0.001255,-0.001316,-0.001368,-0.001406,-0.001403,-0.001330,-0.001239,-0.001173,-0.001192,-0.001233,-0.001228,-0.001240,-0.001254,-0.001269,-0.001285,-0.001306,-0.001339,-0.001392,-0.001447,-0.001490,-0.001501,-0.001478,-0.001460,-0.001447,-0.001460,-0.001496,-0.001523,-0.001511,-0.001481,-0.001456,-0.001427,-0.001413,-0.001412,-0.001420,-0.001420,-0.001408,-0.001408,-0.001406,-0.001427,-0.001428,-0.001428,-0.001431,-0.001422,-0.001401,-0.001386,-0.001354,-0.001341,-0.001348,-0.001365,-0.001379,-0.001410,-0.001434,-0.001523,-0.001577,-0.001620,-0.001654,-0.001680,-0.001720,-0.001760,-0.001784,-0.001819,-0.001834,-0.001847,-0.001881,-0.001934,-0.001850,-0.001946,-0.002007,-0.002099,-0.002179,-0.002243,-0.002310,-0.002369,-0.002412,-0.002444,-0.002453,-0.002467,-0.002496,-0.002521,-0.002531,-0.002523,-0.002513,-0.002502,-0.002504,-0.002501,-0.002499,-0.002493,-0.002499,-0.002506,-0.002492,-0.002483,-0.002481,-0.002456,-0.002424,-0.002385,-0.002345,-0.002314,-0.002293,-0.002276,-0.002256,-0.002241,-0.002232,-0.002231,-0.002230,-0.002222,-0.002209,-0.002191,-0.002172,-0.002148,-0.002125,-0.002099,-0.002074,-0.002052,-0.002040,-0.002038,-0.002054,-0.002079,-0.002099,-0.002108,-0.002114,-0.002123,-0.002133,-0.002141,-0.002145,-0.002147,-0.002146,-0.002139,-0.002133,-0.002125,-0.002117,-0.002105,-0.002150,-0.002174,-0.002210,-0.002239,-0.002258,-0.002285,-0.002305,-0.002305,-0.002296,-0.002317,-0.002348,-0.002358,-0.002349,-0.002345,-0.002346,-0.002345,-0.002348,-0.002353,-0.002361,-0.002358,-0.002357,-0.002357,-0.002345,-0.002336,-0.002325,-0.002310,-0.002292,-0.002278,-0.002263,-0.002242,-0.002213,-0.002191,-0.002166,-0.002142,-0.002123,-0.002114,-0.002107,-0.002103,-0.002099,-0.002095,-0.002091,-0.002087,-0.002081,-0.002073,-0.002065,-0.002061,-0.002068,-0.002089,-0.002116,-0.002127,-0.002142,-0.002150,-0.002158,-0.002170,-0.002176,-0.002168,-0.002148,-0.002121,-0.002090,-0.002060,-0.002031,-0.002005,-0.001981,-0.001952,-0.001994,-0.002025,-0.002056,-0.002088,-0.002116,-0.002154,-0.002197,-0.002229,-0.002264,-0.002286,-0.002332,-0.002392,-0.002416,-0.002454,-0.002496,-0.002501,-0.002479,-0.002472,-0.002461,-0.002461,-0.002459,-0.002459,-0.002456,-0.002444,-0.002437,-0.002420,-0.002393,-0.002360,-0.002330,-0.002306,-0.002281,-0.002253,-0.002225,-0.002196,-0.002177,-0.002163,-0.002153,-0.002149,-0.002148,-0.002146,-0.002145,-0.002146,-0.002146,-0.002149,-0.002147,-0.002141,-0.002131,-0.002130,-0.002134,-0.002145,-0.002145,-0.002142,-0.002139,-0.002137,-0.002133,-0.002118,-0.002095,-0.002075,-0.002058,-0.002050,-0.002049,-0.002045,-0.002037,-0.002034,-0.002074,-0.002102,-0.002120,-0.002148,-0.002183,-0.002217,-0.002242,-0.002292,-0.002347,-0.002368,-0.002380,-0.002437,-0.002495,-0.002555,-0.002590,-0.002604,-0.002592,-0.002584,-0.002559,-0.002562,-0.002579,-0.002574,-0.002568,-0.002558,-0.002555,-0.002546,-0.002534,-0.002519,-0.002504,-0.002485,-0.002460,-0.002434,-0.002411,-0.002387,-0.002369,-0.002356,-0.002346,-0.002344,-0.002349,-0.002352,-0.002356,-0.002358,-0.002369,-0.002379,-0.002380,-0.002376,-0.002368,-0.002361,-0.002360,-0.002366,-0.002374,-0.002384,-0.002394,-0.002402,-0.002401,-0.002384,-0.002354,-0.002317,-0.002279,-0.002245,-0.002216,-0.002182,-0.002155,-0.002142,-0.002163,-0.002180,-0.002200,-0.002240,-0.002309,-0.002367,-0.002421,-0.002495,-0.002554,-0.002561,-0.002583,-0.002642,-0.002640,-0.002616,-0.002601,-0.002579,-0.002585,-0.002606,-0.002621,-0.002661,-0.002707,-0.002718,-0.002722,-0.002732,-0.002744,-0.002742,-0.002738,-0.002741,-0.002737,-0.002719,-0.002693,-0.002669,-0.002646,-0.002623,-0.002598,-0.002577,-0.002564,-0.002562,-0.002575,-0.002590,-0.002605,-0.002616,-0.002628,-0.002644,-0.002658,-0.002663,-0.002655,-0.002633,-0.002617,-0.002596,-0.002589,-0.002586,-0.002591,-0.002598,-0.002595,-0.002581,-0.002557,-0.002523,-0.002488,-0.002463,-0.002443,-0.002429,-0.002422,-0.002419,-0.002467,-0.002495,-0.002534,-0.002595,-0.002667,-0.002738,-0.002793,-0.002823,-0.002875,-0.002886,-0.002864,-0.002857,-0.002841,-0.002827,-0.002828,-0.002833,-0.002861,-0.002896,-0.002911,-0.002926,-0.002937,-0.002938,-0.002942,-0.002950,-0.002958,-0.002946,-0.002934,-0.002928,-0.002925,-0.002921,-0.002919,-0.002904,-0.002883,-0.002866,-0.002846,-0.002827,-0.002815,-0.002812,-0.002826,-0.002846,-0.002867,-0.002891,-0.002912,-0.002932,-0.002947,-0.002951,-0.002941,-0.002915,-0.002892,-0.002853,-0.002820,-0.002801,-0.002801,-0.002808,-0.002811,-0.002811,-0.002804,-0.002795,-0.002788,-0.002792,-0.002791,-0.002788,-0.002781,-0.002775,-0.002825,-0.002862,-0.002915,-0.002978,-0.003049,-0.003116,-0.003162,-0.003166,-0.003161,-0.003128,-0.003079,-0.003068,-0.003091,-0.003142,-0.003213,-0.003286,-0.003345,-0.003404,-0.003445,-0.003471,-0.003495,-0.003493,-0.003473,-0.003473,-0.003474,-0.003476,-0.003473,-0.003468,-0.003463,-0.003457,-0.003450,-0.003431,-0.003409,-0.003396,-0.003387,-0.003381,-0.003379,-0.003381,-0.003402,-0.003430,-0.003461,-0.003505,-0.003547,-0.003587,-0.003624,-0.003644,-0.003652,-0.003641,-0.003626,-0.003606,-0.003592,-0.003600,-0.003626,-0.003654,-0.003679,-0.003697,-0.003703,-0.003699,-0.003698,-0.003706,-0.003708,-0.003710,-0.003721,-0.003745,-0.003818,-0.003897,-0.003960,-0.004016,-0.004084,-0.004156,-0.004221,-0.004275,-0.004333,-0.004387,-0.004421,-0.004473,-0.004568,-0.004662,-0.004730,-0.004792,-0.004854,-0.004928,-0.005002,-0.005080,-0.005169,-0.005232,-0.005269,-0.005299,-0.005321,-0.005336,-0.005344,-0.005359,-0.005388,-0.005424,-0.005465,-0.005506,-0.005538,-0.005552,-0.005558,-0.005548,-0.005529,-0.005502,-0.005483,-0.005456,-0.005417,-0.005379,-0.005331,-0.005278,-0.005230,-0.005187,-0.005159,-0.005143,-0.005140