-0.009254,,-0.004858,-0.002424,-0.001192,-0.000925,0.001609,0.000842,-0.002816,-0.004651,-0.005535,-0.005213,-0.005191,-0.005407,-0.005136,-0.005451,-0.005381,-0.005408,-0.005247,-0.004953,-0.004795,-0.005072,-0.005559,-0.005922,-0.006094,-0.006012,-0.005896,-0.005956,-0.005833,-0.005584,-0.005234,-0.004856,-0.004467,-0.004044,-0.003724,-0.003529,-0.003456,-0.003534,-0.003746,-0.003862,-0.004171,-0.004632,-0.005165,-0.005569,-0.005870,-0.005938,-0.006037,-0.006301,-0.006752,-0.006975,-0.006918,-0.006845,-0.004918,-0.000837,0.001608,0.004924,-0.000834,-0.003444,-0.005367,-0.005879,-0.005783,-0.006316,-0.006745,-0.006439,-0.006813,-0.004292,-0.001138,0.001704,0.003425,0.004370,0.005706,0.002606,-0.001903,-0.001920,-0.002762,-0.003985,-0.003909,-0.003939,-0.004146,-0.004010,-0.003898,-0.003711,-0.003583,-0.003395,-0.003191,-0.003320,-0.003573,-0.004027,-0.004376,-0.004571,-0.004377,-0.004369,-0.004208,-0.003892,-0.003585,-0.003258,-0.002845,-0.002394,-0.002075,-0.001925,-0.001898,-0.001939,-0.002113,-0.002309,-0.002666,-0.003052,-0.003532,-0.003955,-0.004111,-0.004258,-0.004811,-0.005248,-0.005613,-0.005511,-0.004235,-0.001376,0.000623,-0.000067,0.001051,0.002311,0.001228,-0.001340,-0.003596,-0.004256,-0.005247,-0.005200,-0.005658,-0.004663,-0.005883,-0.004144,-0.000399,0.005666,0.005747,0.003369,0.003419,0.003518,0.000997,-0.000154,-0.002295,-0.003053,-0.002254,-0.002502,-0.002616,-0.002532,-0.002344,-0.002218,-0.002071,-0.001838,-0.001683,-0.001759,-0.001731,-0.002307,-0.002597,-0.002782,-0.002914,-0.002740,-0.002613,-0.002232,-0.001921,-0.001578,-0.001195,-0.000794,-0.000403,-0.000182,-0.000123,-0.000245,-0.000340,-0.000567,-0.000947,-0.001350,-0.001752,-0.002135,-0.002366,-0.002637,-0.003048,-0.003216,-0.003495,-0.003856,-0.003111,-0.000201,0.003854,0.005442,0.003650,0.001965,0.001042,-0.000531,-0.001953,-0.001275,-0.003122,-0.003739,-0.003626,-0.003247,-0.003200,-0.003038,0.000698,0.008813,0.009788,0.006538,0.002487,0.003283,0.005451,0.004154,0.000441,-0.001095,-0.001673,-0.001345,-0.001181,-0.001202,-0.001118,-0.001026,-0.000709,-0.000370,-0.000252,-0.000235,-0.000102,-0.000307,-0.000565,-0.000731,-0.000911,-0.000930,-0.000477,-0.000066,0.000189,0.000493,0.000846,0.001239,0.001711,0.002126,0.002372,0.002389,0.002305,0.002146,0.001814,0.001494,0.001191,0.000892,0.000669,0.000418,0.000424,0.000577,0.000288,-0.000677,-0.001107,-0.000298,0.003533,0.011306,0.010376,0.009441,0.006826,0.005045,0.003357,0.002705,0.000949,-0.000834,-0.000848,-0.001078,0.001883,0.003406,0.004088,0.009480,0.012299,0.010118,0.006215,0.008347,0.008261,0.005982,0.003090,0.002062,0.000589,0.000732,0.000643,0.000697,0.000793,0.000876,0.001094,0.001347,0.001575,0.001710,0.001832,0.001936,0.001810,0.001378,0.001056,0.000915,0.001155,0.001489,0.001808,0.002041,0.002358,0.002703,0.003111,0.003610,0.003990,0.004218,0.004170,0.004019,0.003817,0.003634,0.003460,0.003260,0.003013,0.002863,0.002912,0.002822,0.002540,0.002384,0.002308,0.002182,0.004333,0.012203,0.014669,0.014505,0.013162,0.011741,0.011091,0.008146,0.005780,0.003166,0.001698,0.002113,0.007653,0.011610,0.006515,0.004733,0.008067,0.011811,0.003846,0.006389,0.008726,0.009619,0.008043,0.005267,0.003169,0.003828,0.003647,0.003802,0.003874,0.003844,0.003794,0.003867,0.004053,0.004275,0.004266,0.004239,0.004374,0.004017,0.003531,0.003406,0.003235,0.003511,0.004035,0.004340,0.004616,0.004886,0.005220,0.005593,0.005888,0.006056,0.006100,0.006025,0.005776,0.005572,0.005427,0.005255,0.005119,0.005164,0.005283,0.005043,0.004817,0.004968,0.004868,0.004088,0.004294,0.008598,0.013628,0.013396,0.015606,0.015530,0.015245,0.012690,0.008353,0.005945,0.004185,0.004417,0.008820,0.014452,0.009159,0.007251,0.007495,0.008370,0.010427,0.017796,0.015114,0.011267,0.007704,0.006623,0.006771,0.006510,0.006678,0.006598,0.006696,0.006741,0.006819,0.006843,0.006913,0.007044,0.007112,0.007057,0.006991,0.007021,0.006820,0.006441,0.006385,0.006550,0.007080,0.007601,0.007944,0.008202,0.008454,0.008739,0.008977,0.009170,0.009173,0.009168,0.009001,0.008687,0.008396,0.008201,0.008173,0.008349,0.008476,0.008573,0.008415,0.008032,0.007743,0.007705,0.007443,0.008502,0.014984,0.019184,0.020572,0.021333,0.018001,0.015831,0.011459,0.008579,0.008222,0.007701,0.009185,0.015768,0.015487,0.017196,0.028487,0.027784,0.041622,0.050819,0.029619,0.015812,0.009975,0.008422,0.008797,0.008532,0.008912,0.008951,0.009208,0.009330,0.009454,0.009515,0.009442,0.009386,0.009456,0.009444,0.009420,0.009328,0.009314,0.009055,0.008753,0.008868,0.008861,0.009313,0.009687,0.009924,0.009946,0.009988,0.010030,0.010000,0.009870,0.009817,0.009637,0.009304,0.009034,0.008820,0.008832,0.008826,0.008316,0.008394,0.008528,0.008319,0.009054,0.011890,0.014061,0.013057,0.017463,0.022596,0.017561,0.018849,0.015914,0.017313,0.016398,0.009765,0.009801,0.008195,0.007851,0.010743,0.014781,0.019534,0.023058,0.028992,0.041623,0.019624,0.007855,0.012236,0.009637,0.011037,0.009219,0.009505,0.009841,0.009405,0.010629,0.010826,0.010813,0.011285,0.010174,0.011050,0.011724,0.010877,0.010225,0.010872,0.011477,0.011159,0.010559,0.010389,0.010634,0.010522,0.012023,0.011518,0.011478,0.011654,0.011814,0.011282,0.011786,0.010793,0.010358,0.010667,0.010241,0.010016,0.010494,0.010239,0.009714,0.009119,0.009650,0.009654,0.009774,0.012147,0.014940,0.017344,0.021491,0.022725,0.020826,0.018389,0.019520,0.020937,0.017425,0.012229,0.010006,0.012051,0.015823,0.018858,0.021705,0.023277,0.023455,0.025937,0.030794,0.020665,0.011388,0.014054,0.009986,0.010095,0.011311,0.011265,0.011447,0.011209,0.011817,0.011472,0.011476,0.012841,0.013061,0.012375,0.012790,0.012771,0.013029,0.013239,0.012715,0.012593,0.013449,0.014034,0.013907,0.012810,0.012283,0.012648,0.014149,0.013483,0.013261,0.013307,0.013320,0.012978,0.013073,0.013267,0.012729,0.012341,0.012446,0.012608,0.013737,0.013933,0.013106,0.013494,0.012621,0.011934,0.013756,0.022307,0.025613,0.025141,0.026241,0.026369,0.025556,0.022972,0.019814,0.022042,0.020836,0.023345,0.022914,0.024373,0.028414,0.027581,0.026651,0.025449,0.023224,0.030275,0.027595,0.022211,0.014440,0.012465,0.012413,0.012843,0.012634,0.012795,0.012915,0.014262,0.015108,0.014061,0.014091,0.015484,0.014604,0.014325,0.014896,0.014823,0.014449,0.016150,0.021488,0.028416,0.026341,0.021827,0.016880,0.016404,0.019160,0.016661,0.016224,0.016943,0.016326,0.016503,0.016333,0.015582,0.015847,0.017061,0.017459,0.016483,0.016925,0.017550,0.016497,0.018170,0.018280,0.017733,0.019285,0.023966,0.030388,0.030802,0.033765,0.035579,0.034420,0.032752,0.030496,0.030344,0.027749,0.030129,0.037039,0.038389,0.036073,0.035038,0.035803,0.031929,0.026978,0.035535,0.036700,0.031188,0.041355,0.028982,0.019328,0.017961,0.019126,0.019232,0.017546,0.021309,0.027199,0.025176,0.025183,0.030176,0.028327,0.027175,0.028209,0.028945,0.029160,0.032239,0.036807,0.036979,0.035220,0.031201,0.024894,0.024212,0.026526,0.021925,0.020758,0.020016,0.021618,0.025921,0.027055,0.023399,0.020604,0.019385,0.019374,0.020725,0.019893,0.020847,0.020273,0.020830,0.021675,0.022380,0.027134,0.029273,0.036647,0.037541,0.038400,0.040064,0.038892,0.038467,0.038900,0.036567,0.033522,0.031577,0.037682,0.042222,0.041964,0.042937,0.042849,0.041039,0.041044,0.037833,0.042463,0.044265,0.043552,0.026316,0.019119,0.020907,0.027532,0.034559,0.033197,0.037174,0.042867,0.040879,0.040173,0.041210,0.041476,0.041230,0.042745,0.044078,0.043924,0.043808,0.043566,0.041563,0.041398,0.041559,0.039450,0.040126,0.041905,0.037409,0.038448,0.039001,0.039072,0.041326,0.041342,0.038128,0.034751,0.031650,0.029374,0.029836,0.032368,0.034185,0.030219,0.024629,0.024078,0.024949,0.034687,0.040196,0.041912,0.041354,0.039607,0.040803,0.038857,0.035408,0.036433,0.037025,0.038427,0.035324,0.032157,0.035250,0.036476,0.042465,0.041844,0.037174,0.042146,0.038280,0.033623,0.054755,0.056712,0.037377,0.030739,0.025873,0.029925,0.039018,0.040772,0.043531,0.045752,0.043702,0.043882,0.044601,0.045856,0.045336,0.045730,0.047390,0.047769,0.046819,0.046323,0.046244,0.044895,0.044298,0.043270,0.043428,0.045296,0.043236,0.044835,0.045910,0.043103,0.040104,0.038882,0.039485,0.040676,0.040622,0.040836,0.043465,0.041360,0.038437,0.036994,0.037011,0.038651,0.034718,0.037723,0.043656,0.043581,0.043991,0.042623,0.042902,0.041815,0.039036,0.036890,0.033119,0.035222,0.041667,0.039704,0.038810,0.033225,0.038014,0.044977,0.043193,0.042279,0.035446,0.032191,0.035800,0.045697,0.054333,0.070743,0.072350,0.042285,0.040481,0.040346,0.041623,0.044424,0.045800,0.046238,0.046380,0.047138,0.045836,0.046098,0.047092,0.047422,0.046968,0.046524,0.046226,0.045208,0.043378,0.042747,0.041763,0.041885,0.039691,0.038419,0.037252,0.036872,0.035499,0.035047,0.036398,0.036656,0.035503,0.034099,0.033501,0.034827,0.033629,0.031132,0.030440,0.031659,0.034401,0.035805,0.034875,0.034782,0.035051,0.035017,0.033499,0.033634,0.033892,0.030749,0.026262,0.026911,0.034044,0.030096,0.031508,0.029837,0.030842,0.034005,0.031627,0.030484,0.025765,0.024264,0.026329,0.026474,0.029072,0.022568,0.018466,0.026917,0.026707,0.026328,0.026365,0.028001,0.029137,0.030095,0.030558,0.031482,0.032072,0.032983,0.033595,0.032225,0.030951,0.030058,0.029100,0.031415,0.032293,0.034476,0.034623,0.033810,0.029738,0.026112,0.026079,0.028565,0.028159,0.026871,0.026282,0.025129,0.024206,0.024174,0.023239,0.021538,0.021094,0.021670,0.024126,0.023491,0.026154,0.026116,0.025650,0.024566,0.023866,0.024513,0.021607,0.021944,0.023249,0.017691,0.013320,0.017010,0.019152,0.015481,0.019754,0.020610,0.022771,0.022328,0.021552,0.020958,0.016016,0.016479,0.018614,0.019243,0.017632,0.016913,0.011306,0.009766,0.011835,0.015062,0.016068,0.016709,0.016845,0.015907,0.017013,0.016694,0.016406,0.015828,0.017277,0.015556,0.014227,0.017262,0.017131,0.017809,0.015698,0.018720,0.020382,0.018166,0.017202,0.016805,0.018129,0.018374,0.021121,0.020788,0.021828,0.020049,0.018718,0.019447,0.018708,0.019136,0.021592,0.021551,0.021191,0.020020,0.019483,0.018956,0.019191,0.019486,0.020476,0.019799,0.019674,0.018935,0.017435,0.015181,0.010068,0.008974,0.010602,0.015588,0.017852,0.018635,0.020833,0.020057,0.019082,0.016952,0.013538,0.012680,0.011189,0.008825,0.009010,0.012099,0.020986,0.008298,0.004049,0.005402,0.009484,0.013951,0.016948,0.015695,0.013237,0.013209,0.012602,0.012199,0.014495,0.014928,0.014363,0.017278,0.017764,0.016265,0.014675,0.016173,0.016616,0.016555,0.016335,0.013352,0.012117,0.013395,0.015427,0.014911,0.016010,0.016026,0.015709,0.017498,0.017403,0.016531,0.018210,0.019098,0.020612,0.020653,0.020095,0.019462,0.019583,0.017513,0.018390,0.020189,0.019159,0.017083,0.017423,0.015820,0.010465,0.010974,0.013341,0.019045,0.019511,0.020555,0.020567,0.019170,0.019589,0.021280,0.017243,0.011214,0.011016,0.011970,0.012804,0.014078,0.021382,0.019670,0.012231,0.010934,0.015268,0.017082,0.020811,0.020871,0.018976,0.017804,0.015354,0.014813,0.019340,0.021216,0.019110,0.018770,0.017862,0.017420,0.018579,0.019227,0.018127,0.020585,0.022858,0.021084,0.019847,0.019442,0.019191,0.017715,0.016706,0.015431,0.013849,0.016104,0.018682,0.018720,0.019263,0.018535,0.019173,0.019900,0.020153,0.019988,0.019615,0.018503,0.017809,0.019031,0.017501,0.015963,0.017034,0.016201,0.014830,0.017838,0.020068,0.020242,0.020270,0.019737,0.017753,0.019726,0.020954,0.021529,0.019832,0.015191,0.014282,0.013432,0.012374,0.013519,0.016605,0.019829,0.034067,0.033588,0.027957,0.025164,0.020918,0.020579,0.020850,0.018626,0.015430,0.014992,0.018686,0.020046,0.017655,0.016823,0.017423,0.018319,0.020194,0.019707,0.017686,0.019295,0.021206,0.019513,0.017879,0.016255,0.015581,0.014964,0.013119,0.012098,0.012511,0.014799,0.014045,0.017112,0.019135,0.019150,0.018934,0.018930,0.018613,0.017942,0.017421,0.018413,0.017831,0.017194,0.016776,0.017178,0.017606,0.017246,0.016769,0.016960,0.017303,0.016811,0.017340,0.016837,0.015968,0.018391,0.018628,0.017874,0.015925,0.012993,0.012087,0.011636,0.010030,0.010427,0.011326,0.014430,0.016978,0.018557,0.012216,0.010864,0.014966,0.014104,0.014796,0.015314,0.014429,0.013924,0.015120,0.015388,0.014880,0.015436,0.015824,0.016226,0.016284,0.015831,0.014884,0.014642,0.014020,0.012608,0.012505,0.011989,0.012141,0.012199,0.010876,0.011456,0.014391,0.016995,0.015223,0.017218,0.017543,0.017369,0.017482,0.017502,0.016648,0.016383,0.016517,0.016499,0.016449,0.015651,0.015223,0.014689,0.013510,0.013835,0.014839,0.014661,0.014940,0.015559,0.015482,0.015751,0.016254,0.016320,0.016142,0.015818,0.013108,0.009845,0.010891,0.013633,0.010929,0.007902,0.008027,0.009531,0.009665,0.009408,0.006857,0.003977,0.003048,0.005053,0.010052,0.011405,0.012039,0.012227,0.012502,0.012284,0.012440,0.012449,0.011582,0.012067,0.011608,0.011576,0.011824,0.011588,0.011420,0.011576,0.011477,0.011424,0.010967,0.010769,0.010041,0.009670,0.009893,0.012373,0.015995,0.016949,0.017395,0.016317,0.015986,0.015924,0.014609,0.015137,0.015548,0.015075,0.015490,0.014163,0.013780,0.011407,0.007089,0.005701,0.006104,0.007571,0.009499,0.010235,0.010228,0.012378,0.013948,0.013850,0.014517,0.014751,0.015431,0.015413,0.015870,0.015752,0.011538,0.006968,0.006799,0.007241,0.007444,0.008838,0.007691,0.000518,-0.002328,-0.000039,0.002161,0.007754,0.008994,0.010041,0.010244,0.009809,0.009224,0.008810,0.009003,0.009036,0.008948,0.008319,0.007507,0.006989,0.007615,0.008930,0.009070,0.009159,0.008861,0.009171,0.009528,0.008209,0.007755,0.008208,0.011513,0.015774,0.018496,0.018244,0.017482,0.015727,0.012911,0.013990,0.014288,0.014219,0.014030,0.013739,0.014461,0.014442,0.012321,0.007987,0.003302,0.002023,0.004035,0.004278,0.006278,0.008759,0.010084,0.012973,0.011632,0.011142,0.012096,0.012842,0.014144,0.013695,0.010711,0.005979,0.005805,0.006078,0.004157,0.003690,0.003989,-0.000631,-0.002680,-0.001903,-0.002262,0.002992,0.006455,0.006867,0.006837,0.006463,0.006430,0.006049,0.005289,0.003025,0.003296,0.003484,0.003252,0.003372,0.003464,0.003791,0.004343,0.004782,0.005196,0.004650,0.004456,0.005021,0.013436,0.018751,0.019029,0.022022,0.020590,0.018945,0.017396,0.016412,0.014043,0.014421,0.013537,0.012947,0.011781,0.013162,0.009970,0.009195,0.015763,0.005680,-0.003247,-0.005412,-0.000785,-0.000813,0.000910,0.003228,0.001590,-0.001386,-0.000714,0.005206,0.011433,0.010940,0.010742,0.013286,0.012050,0.008354,0.006639,0.005628,0.003027,0.002384,0.003154,0.003356,0.001190,-0.002804,-0.004086,-0.001297,0.002748,0.004607,0.005118,0.005342,0.003581,0.003153,0.003858,0.005395,0.006159,0.005544,0.004734,0.004272,0.004349,0.004068,0.003362,0.004025,0.003427,0.002681,0.001883,0.001952,0.002652,0.007090,0.017381,0.021195,0.020507,0.017679,0.015336,0.015916,0.015281,0.012535,0.009731,0.009504,0.011474,0.012496,0.010073,0.009311,0.010847,0.005688,-0.002000,-0.002831,-0.000706,-0.000460,0.000436,0.001537,0.001613,0.000983,0.002931,0.008452,0.011089,0.010782,0.010476,0.009672,0.009620,0.009208,0.007034,0.005385,0.004080,0.004351,0.004909,0.004696,0.004403,0.004180,0.003445,0.000671,0.003149,0.005917,0.005260,0.005321,0.005011,0.005972,0.004749,0.005168,0.004719,0.004033,0.002859,0.001899,0.001979,0.001554,0.000766,0.001115,0.000498,0.001556,0.001376,0.000158,-0.000534,0.001168,0.008333,0.012024,0.014169,0.013707,0.012704,0.011882,0.010271,0.008260,0.007180,0.008246,0.008179,0.006056,0.005608,0.007225,0.009610,0.004481,-0.003505,-0.004688,-0.001526,0.000263,0.000331,-0.000328,-0.000676,-0.001631,-0.001086,0.002863,0.001002,0.001436,0.004297,0.004558,0.003425,0.002500,-0.000250,-0.000601,-0.001242,-0.001311,-0.000502,0.000782,0.001466,0.001109,-0.000658,-0.003584,-0.005166,-0.001631,0.001180,0.002239,0.002576,0.002126,0.000570,0.002099,0.002320,0.004548,0.005327,0.005507,0.006273,0.007122,0.008337,0.007136,0.004477,0.004164,0.003862,0.003437,0.004855,0.009879,0.015037,0.015465,0.014703,0.013662,0.012893,0.012358,0.011422,0.009875,0.008798,0.009751,0.009187,0.007119,0.006208,0.007568,0.010050,0.004333,-0.003663,-0.004442,-0.001308,0.002403,0.001927,-0.000390,-0.001355,-0.002117,-0.000971,0.002600,0.001744,0.002062,0.007115,0.009391,0.006720,0.003903,0.001739,0.002452,0.003377,0.004654,0.005837,0.007036,0.006948,0.006853,0.007102,0.006573,0.002673,0.001224,0.004434,0.005007,0.005803,0.006523,0.008491,0.007141,0.008166,0.007932,0.007041,0.007052,0.008123,0.008318,0.008084,0.008341,0.005495,0.003153,0.000835,-0.000139,0.001747,0.007507,0.013458,0.012938,0.012840,0.013096,0.013093,0.012236,0.010893,0.010001,0.009838,0.008915,0.008323,0.007341,0.005612,0.005187,0.007169,0.003926,-0.003284,-0.003508,-0.002676,0.000830,0.000393,-0.001244,-0.002090,-0.002986,-0.002426,-0.000585,-0.000926,0.000545,0.003576,0.008100,0.008348,0.007707,0.008517,0.007928,0.010828,0.011931,0.009843,0.007255,0.005168,0.004240,0.004370,0.004094,0.001676,-0.002504,-0.001363,0.003382,0.005539,0.004869,0.003404,0.003421,0.003212,0.003501,0.002736,0.003240,0.003594,0.002864,0.003904,0.005415,0.004983,0.002905,0.000966,0.000875,0.004315,0.009709,0.013160,0.013430,0.012874,0.012039,0.011387,0.010937,0.011014,0.010998,0.010321,0.009442,0.009471,0.009216,0.007943,0.006980,0.007063,0.006571,0.003592,0.003353,0.001151,0.002137,0.000459,-0.000524,-0.001802,-0.004089,-0.005003,-0.003239,-0.002350,-0.004794,-0.004748,-0.001381,0.000159,-0.001164,0.000714,0.001941,0.001075,-0.001729,-0.002456,-0.001372,-0.001814,-0.003810,-0.004612,-0.004288,-0.003489,-0.004353,-0.007149,-0.003736,-0.000260,0.000569,0.001685,0.004683,0.005681,0.004971,0.002027,0.000875,0.000080,-0.001164,-0.000935,-0.002118,-0.002503,-0.003620,-0.003554,-0.002989,-0.000678,0.003324,0.007845,0.011400,0.013350,0.013753,0.012932,0.012901,0.014079,0.013421,0.011103,0.010541,0.009340,0.008690,0.008638,0.008768,0.007528,0.006421,0.006795,0.006339,0.005819,0.003877,0.000843,-0.002108,-0.005314,-0.005059,-0.004234,-0.004795,-0.002702,-0.006700,-0.007647,-0.006872,-0.007898,-0.009813,-0.009946,-0.009017,-0.007878,-0.008469,-0.006971,-0.003308,-0.001856,-0.003594,-0.003383,-0.001756,-0.000655,0.000788,-0.002226,-0.006610,-0.005382,-0.001130,-0.000612,-0.000103,0.002311,-0.001061,-0.006660,-0.006058,-0.003385,-0.002821,-0.003156,-0.005593,-0.005285,-0.004955,-0.004252,-0.004882,-0.005577,-0.005055,-0.004033,-0.000354,0.003717,0.008616,0.012172,0.013022,0.011804,0.009302,0.008018,0.006949,0.004243,0.002325,0.003280,0.004859,0.003997,0.003307,0.004500,0.003807,0.006774,0.006597,0.004811,0.000930,-0.003302,0.000016,-0.000727,-0.005289,-0.003204,0.004416,0.003230,-0.004020,-0.006156,-0.005866,-0.007143,-0.008937,-0.006078,-0.005139,-0.004452,-0.003158,-0.003143,-0.003968,-0.002552,0.000228,-0.002782,-0.004339,-0.000271,-0.003353,-0.008073,-0.007862,0.000647,0.000492,-0.003785,-0.007998,-0.010186,-0.008200,-0.008153,-0.008676,-0.005620,-0.005073,-0.003118,-0.001635,-0.000671,-0.002249,-0.003709,-0.004122,-0.005688,-0.005692,-0.005888,-0.004017,0.002510,0.010187,0.010584,0.009361,0.009070,0.006211,0.004777,0.003682,0.001977,0.000201,-0.000407,0.002084,0.004073,0.006122,0.007161,0.007080,0.004644,0.001305,0.002048,0.001877,0.000540,0.002122,0.003049,0.005912,0.005062,0.002675,0.002089,-0.000159,-0.004368,-0.005045,-0.004930,-0.005653,-0.004868,-0.004205,-0.004666,-0.004581,-0.005446,-0.002778,-0.002999,-0.009568,-0.006704,-0.000785,-0.007427,-0.012308,-0.011337,-0.005012,-0.006719,-0.010044,-0.009898,-0.007667,-0.006146,-0.005419,-0.006083,-0.002960,-0.003254,-0.008076,-0.001165,0.002617,0.000076,-0.000151,0.001395,-0.000841,-0.003336,-0.006140,-0.006027,-0.004422,-0.002541,-0.001792,0.003102,0.003301,0.003929,0.001378,-0.004495,-0.007462,-0.003919,-0.006635,0.001634,0.002930,0.003893,0.002979,0.001390,-0.000693,-0.002637,-0.005206,-0.007617,-0.008792,-0.009158,-0.010808,-0.010154,-0.010034,-0.009526,-0.008742,-0.009766,-0.009109,-0.010331,-0.008328,-0.009045,-0.009423,-0.006848,-0.008249,-0.006920,-0.008975,-0.004909,-0.010962,-0.010367,-0.003361,-0.002899,-0.015507,-0.019089,-0.018053,-0.015653,-0.016540,-0.017948,-0.017401,-0.017609,-0.014604,-0.014295,-0.014201,-0.011081,-0.012366,-0.005998,-0.008568,-0.011284,-0.004193,-0.003600,-0.000800,-0.004651,-0.004410,-0.007201,-0.011376,-0.011700,-0.011200,-0.011363,-0.016865,-0.015041,-0.010560,-0.011932,-0.008072,-0.007735,-0.015117,-0.010820,-0.008709,-0.006672,-0.008412,-0.009001,-0.010063,-0.012776,-0.013127,-0.012499,-0.014275,-0.016552,-0.015343,-0.013821,-0.011809,-0.009856,-0.007285,-0.004621,-0.004230,-0.004336,-0.004492,-0.005130,-0.007744,-0.007892,-0.008376,-0.008338,-0.008213,-0.006431,-0.006643,-0.008213,-0.014429,-0.015899,-0.015382,-0.018115,-0.018848,-0.021182,-0.017767,-0.020478,-0.020682,-0.020644,-0.018490,-0.018562,-0.019753,-0.019488,-0.013294,-0.010227,-0.012627,-0.017366,-0.010045,-0.006849,-0.008750,-0.009726,-0.008569,-0.011560,-0.015672,-0.019125,-0.021174,-0.022713,-0.021383,-0.028758,-0.016240,-0.020268,-0.012795,-0.012034,-0.014085,-0.016589,-0.014321,-0.014077,-0.015516,-0.016237,-0.017949,-0.021414,-0.020429,-0.017818,-0.017106,-0.018903,-0.013065,-0.014193,-0.013861,-0.013875,-0.013827,-0.011226,-0.014124,-0.009469,-0.009243,-0.008358,-0.004810,-0.005646,-0.007310,-0.010585,-0.009609,-0.013329,-0.012309,-0.021809,-0.027054,-0.028542,-0.025830,-0.023472,-0.025663,-0.024371,-0.021098,-0.023530,-0.023755,-0.021966,-0.020115,-0.019572,-0.016763,-0.019304,-0.015877,-0.014535,-0.011447,-0.007581,-0.008154,-0.020340,-0.016513,-0.018664,-0.018355,-0.018692,-0.017837,-0.022063,-0.025315,-0.028506,-0.028190,-0.026540,-0.017388,-0.026466,-0.025778,-0.024030,-0.018724,-0.020148,-0.019175,-0.024102,-0.020498,-0.019361,-0.019972,-0.020464,-0.021363,-0.020164,-0.017053,-0.008923,-0.008268,-0.009808,-0.011576,-0.013088,-0.015373,-0.019327,-0.024515,-0.017037,-0.015659,-0.024412,-0.014225,-0.011520,-0.013057,-0.010268,-0.011913,-0.012895,-0.015194,-0.017733,-0.027082,-0.026760,-0.031103,-0.022040,-0.018629,-0.024163,-0.023335,-0.022505,-0.024950,-0.025667,-0.025833,-0.022266,-0.009879,-0.006729,-0.013676,-0.018775,-0.012946,-0.015220,-0.019592,-0.020750,-0.022770,-0.017891,-0.017403,-0.018738,-0.018812,-0.020939,-0.022635,-0.026064,-0.027478,-0.023569,-0.022226,-0.024532,-0.027098,-0.028017,-0.024958,-0.023659,-0.025538,-0.026790,-0.023123,-0.022995,-0.022503,-0.020285,-0.020656,-0.021773,-0.019210,-0.015273,-0.018970,-0.013530,-0.011270,-0.010133,-0.012423,-0.026969,-0.034101,-0.033560,-0.017333,-0.011088,-0.012447,-0.022150,-0.037297,-0.025617,-0.021229,-0.019912,-0.027638,-0.024652,-0.029816,-0.022943,-0.016785,-0.016917,-0.015559,-0.015987,-0.016654,-0.016131,-0.018435,-0.019924,-0.024217,-0.032823,-0.027669,-0.022192,-0.016761,-0.019361,-0.016059,-0.023071,-0.033051,-0.031740,-0.035553,-0.020250,-0.019482,-0.022984,-0.024786,-0.026417,-0.026906,-0.031239,-0.031357,-0.032745,-0.028723,-0.023208,-0.024375,-0.025516,-0.027783,-0.028273,-0.031918,-0.028586,-0.028207,-0.028026,-0.026905,-0.025280,-0.024913,-0.025616,-0.027042,-0.027012,-0.029896,-0.026299,-0.022793,-0.021568,-0.023838,-0.030222,-0.032200,-0.035249,-0.028450,-0.012998,-0.015673,-0.016476,-0.017125,-0.022057,-0.017336,-0.014138,-0.014473,-0.017571,-0.014519,-0.017625,-0.019173,-0.021048,-0.015160,-0.012550,-0.016035,-0.021071,-0.022755,-0.021299,-0.022920,-0.027178,-0.029118,-0.031282,-0.030818,-0.019045,-0.020710,-0.033277,-0.030284,-0.027823,-0.036559,-0.035565,-0.033393,-0.035114,-0.031033,-0.027887,-0.028397,-0.032366,-0.029968,-0.027794,-0.023635,-0.020297,-0.021924,-0.022411,-0.025728,-0.025735,-0.024966,-0.026093,-0.026618,-0.024910,-0.025126,-0.027933,-0.027277,-0.024876,-0.024071,-0.026377,-0.024307,-0.028901,-0.029080,-0.032222,-0.037272,-0.034349,-0.035355,-0.036183,-0.035693,-0.026863,-0.018790,-0.014852,-0.010665,-0.017363,-0.014407,-0.021392,-0.021293,-0.014381,-0.015197,-0.014774,-0.019203,-0.030972,-0.019234,-0.012552,-0.011607,-0.012381,-0.011798,-0.016732,-0.031513,-0.030925,-0.026159,-0.021461,-0.025186,-0.028927,-0.035440,-0.041130,-0.036301,-0.039144,-0.037301,-0.039094,-0.028143,-0.026912,-0.027281,-0.025850,-0.021980,-0.025004,-0.025069,-0.021925,-0.020284,-0.021387,-0.022747,-0.021939,-0.023492,-0.028102,-0.024044,-0.026862,-0.023280,-0.029164,-0.029919,-0.027298,-0.027252,-0.025432,-0.028246,-0.029573,-0.029491,-0.033093,-0.036787,-0.039437,-0.043756,-0.043635,-0.040905,-0.037365,-0.043485,-0.041621,-0.021577,-0.018278,-0.017914,-0.020040,-0.018223,-0.035688,-0.039743,-0.019391,-0.020701,-0.026925,-0.029550,-0.032264,-0.031129,-0.022008,-0.023541,-0.014814,-0.016309,-0.013687,-0.014989,-0.020751,-0.026601,-0.033627,-0.034993,-0.038196,-0.041306,-0.041058,-0.039306,-0.040392,-0.042294,-0.039785,-0.027682,-0.027229,-0.032473,-0.031807,-0.028370,-0.026104,-0.027624,-0.024128,-0.028157,-0.032489,-0.027551,-0.025343,-0.023735,-0.027729,-0.028494,-0.038185,-0.034801,-0.033148,-0.029229,-0.027853,-0.029080,-0.033370,-0.043409,-0.037014,-0.037854,-0.029927,-0.033054,-0.046219,-0.039015,-0.042780,-0.038026,-0.038032,-0.037384,-0.031961,-0.028922,-0.022214,-0.025444,-0.021644,-0.024445,-0.029684,-0.026353,-0.018197,-0.020734,-0.030387,-0.034059,-0.033010,-0.031173,-0.033066,-0.031498,-0.027240,-0.022659,-0.016748,-0.018230,-0.015987,-0.016755,-0.017814,-0.022335,-0.030975,-0.039459,-0.043247,-0.043398,-0.040867,-0.043760,-0.043405,-0.040912,-0.042114,-0.045787,-0.043922,-0.036298,-0.030486,-0.033108,-0.034974,-0.046915,-0.042413,-0.049985,-0.052021,-0.031476,-0.029132,-0.033910,-0.049740,-0.053626,-0.048561,-0.038231,-0.042500,-0.044941,-0.044608,-0.044677,-0.041693,-0.035662,-0.033326,-0.036115,-0.035867,-0.034787,-0.031194,-0.033955,-0.034638,-0.029630,-0.029640,-0.024492,-0.026531,-0.025385,-0.025932,-0.025650,-0.023545,-0.018070,-0.021778,-0.025162,-0.025957,-0.028140,-0.029245,-0.029741,-0.029513,-0.030083,-0.029571,-0.027158,-0.027952,-0.029417,-0.025041,-0.025132,-0.022456,-0.022581,-0.023938,-0.028164,-0.035112,-0.042014,-0.044792,-0.043803,-0.042299,-0.043627,-0.046356,-0.046827,-0.043083,-0.033909,-0.028583,-0.031461,-0.030473,-0.028922,-0.026613,-0.032505,-0.046417,-0.023284,-0.031428,-0.045569,-0.039999,-0.047549,-0.042618,-0.038037,-0.050022,-0.048420,-0.039814,-0.032274,-0.030640,-0.030708,-0.031190,-0.031023,-0.030273,-0.027904,-0.028572,-0.038131,-0.051537,-0.044896,-0.045551,-0.025009,-0.025373,-0.024950,-0.024273,-0.022858,-0.017791,-0.019603,-0.024968,-0.021773,-0.018226,-0.021635,-0.023801,-0.025188,-0.024918,-0.025282,-0.025799,-0.026470,-0.027701,-0.029014,-0.029800,-0.028903,-0.027824,-0.025487,-0.025574,-0.027535,-0.031366,-0.034300,-0.036681,-0.035115,-0.037251,-0.037630,-0.036800,-0.036606,-0.031404,-0.021972,-0.018425,-0.027309,-0.026126,-0.021804,-0.025231,-0.025799,-0.024933,-0.021105,-0.028303,-0.035631,-0.027205,-0.028227,-0.025764,-0.025120,-0.031650,-0.028232,-0.023196,-0.024408,-0.023797,-0.024932,-0.026148,-0.027117,-0.025221,-0.024890,-0.042952,-0.035345,-0.027429,-0.036765,-0.040424,-0.033942,-0.017849,-0.021698,-0.018084,-0.019802,-0.017458,-0.018185,-0.020137,-0.016508,-0.014157,-0.016725,-0.020289,-0.022280,-0.023244,-0.022341,-0.023901,-0.023858,-0.019758,-0.020306,-0.021360,-0.021060,-0.023609,-0.024861,-0.025510,-0.025963,-0.026033,-0.026074,-0.027343,-0.029175,-0.028618,-0.027355,-0.030247,-0.035182,-0.032208,-0.021605,-0.019572,-0.024032,-0.022305,-0.022062,-0.021963,-0.022732,-0.025379,-0.027099,-0.032494,-0.030921,-0.023430,-0.030247,-0.034902,-0.025202,-0.023749,-0.022590,-0.020283,-0.021717,-0.022724,-0.022377,-0.023507,-0.024332,-0.022255,-0.030887,-0.025648,-0.021919,-0.022805,-0.022656,-0.019340,-0.014035,-0.007798,-0.013872,-0.016194,-0.017518,-0.013306,-0.016272,-0.018770,-0.016554,-0.013106,-0.013693,-0.017059,-0.017648,-0.018648,-0.019242,-0.019286,-0.016479,-0.016671,-0.016767,-0.016409,-0.018447,-0.021278,-0.022504,-0.023502,-0.024393,-0.024167,-0.023288,-0.022841,-0.022207,-0.022287,-0.020244,-0.017952,-0.019398,-0.020919,-0.022074,-0.022651,-0.022890,-0.020048,-0.018480,-0.017551,-0.016142,-0.020454,-0.018542,-0.022652,-0.020215,-0.011628,-0.017041,-0.020564,-0.015388,-0.014875,-0.018308,-0.020922,-0.019161,-0.021148,-0.022016,-0.022071,-0.020333,-0.027308,-0.024330,-0.020413,-0.022163,-0.018296,-0.021785,-0.016516,-0.014094,-0.013067,-0.016398,-0.018321,-0.017773,-0.014139,-0.018768,-0.018023,-0.018208,-0.020107,-0.017617,-0.014437,-0.016054,-0.019109,-0.020038,-0.018031,-0.015610,-0.018605,-0.017375,-0.016961,-0.021281,-0.024505,-0.025755,-0.025227,-0.026883,-0.025668,-0.024830,-0.023529,-0.022671,-0.022409,-0.019745,-0.016869,-0.015996,-0.015565,-0.015153,-0.021243,-0.018446,-0.022785,-0.022901,-0.020436,-0.020598,-0.019148,-0.016089,-0.016753,-0.015441,-0.016093,-0.018615,-0.016325,-0.020906,-0.019213,-0.018785,-0.026341,-0.022498,-0.019391,-0.021147,-0.020760,-0.020360,-0.024661,-0.020223,-0.021445,-0.020992,-0.016236,-0.020861,-0.022251,-0.020624,-0.018071,-0.023776,-0.017921,-0.016975,-0.012531,-0.021608,-0.022557,-0.021232,-0.021594,-0.019777,-0.017271,-0.018420,-0.020774,-0.018904,-0.015751,-0.017310,-0.016482,-0.013140,-0.017250,-0.022227,-0.022933,-0.022597,-0.025747,-0.023534,-0.022946,-0.022025,-0.021345,-0.020938,-0.022302,-0.020138,-0.015315,-0.015585,-0.015390,-0.012944,-0.013428,-0.013442,-0.013442,-0.020917,-0.021223,-0.023944,-0.024793,-0.021660,-0.025667,-0.023105,-0.017465,-0.018126,-0.023151,-0.023676,-0.017167,-0.016871,-0.018662,-0.018935,-0.016321,-0.017913,-0.018691,-0.020145,-0.016778,-0.016646,-0.027526,-0.023734,-0.019789,-0.023298,-0.027965,-0.027886,-0.020152,-0.026634,-0.027319,-0.019726,-0.015473,-0.017479,-0.018680,-0.019239,-0.016029,-0.015572,-0.016314,-0.018757,-0.018202,-0.012469,-0.013604,-0.012616,-0.011926,-0.012741,-0.017154,-0.018990,-0.019573,-0.020398,-0.022158,-0.020600,-0.020727,-0.023590,-0.021563,-0.017398,-0.015937,-0.015640,-0.012004,-0.011681,-0.009577,-0.005417,-0.005291,-0.010635,-0.009773,-0.011045,-0.012758,-0.014104,-0.015353,-0.016193,-0.019019,-0.021601,-0.017351,-0.017385,-0.031645,-0.029406,-0.023777,-0.022406,-0.018186,-0.013767,-0.016025,-0.016538,-0.014461,-0.013042,-0.014557,-0.018734,-0.023081,-0.020933,-0.020039,-0.021815,-0.021941,-0.017712,-0.018186,-0.019545,-0.013325,-0.009630,-0.010631,-0.013534,-0.013522,-0.013223,-0.012039,-0.011799,-0.012082,-0.014371,-0.014541,-0.011134,-0.009562,-0.008061,-0.009002,-0.013267,-0.014685,-0.018482,-0.020654,-0.019415,-0.020643,-0.019593,-0.017906,-0.016895,-0.015519,-0.013832,-0.009079,-0.011056,-0.008207,-0.006451,-0.001244,0.002891,-0.000697,-0.005491,-0.007634,-0.008661,-0.011382,-0.012696,-0.012210,-0.009794,-0.007216,-0.010802,-0.010867,-0.015895,-0.015392,-0.008114,-0.003641,-0.005770,-0.011508,-0.011960,-0.011252,-0.008451,-0.004906,-0.007879,-0.010821,-0.009452,-0.009589,-0.011466,-0.009409,-0.010166,-0.007949,-0.009492,-0.011289,-0.008498,-0.002396,-0.004875,-0.006877,-0.008734,-0.006778,-0.006286,-0.004836,-0.005336,-0.007308,-0.006431,-0.008451,-0.007647,-0.005733,-0.009083,-0.007932,-0.007193,-0.009272,-0.010445,-0.007015,-0.008392,-0.009277,-0.005741,-0.004961,-0.005328,-0.004729,-0.001118,-0.000291,-0.000287,0.001648,0.002152,0.004626,0.008008,0.005774,-0.003645,-0.006037,-0.007489,-0.010118,-0.011052,-0.009238,-0.003686,0.009216,0.011390,0.012810,0.011230,0.009517,0.008276,0.006346,0.002191,-0.002282,-0.001330,0.000719,0.004271,0.009878,0.001364,-0.003622,0.000118,-0.001085,-0.001669,-0.002418,-0.005947,-0.006932,-0.009458,-0.006557,0.006231,0.002358,-0.001260,-0.003666,-0.003572,-0.002787,-0.001760,0.000175,-0.000691,-0.003361,-0.001424,0.001416,-0.000345,0.001455,0.002048,0.004716,0.005700,0.004689,0.007115,0.007589,0.008264,0.007987,0.008689,0.010288,0.011588,0.011443,0.011513,0.010359,0.011061,0.011972,0.012939,0.014270,0.015192,0.015421,0.008305,-0.002333,-0.005537,-0.007868,-0.006747,-0.000902,0.012702,0.016493,0.018678,0.018547,0.016309,0.015367,0.017546,0.018083,0.016433,0.012297,0.012138,0.012259,0.015445,0.016177,0.011415,0.001961,0.001355,0.001754,0.002195,0.004531,-0.000536,-0.005808,-0.006670,-0.000402,0.013596,0.008758,0.007113,0.005522,0.007682,0.009177,0.010812,0.011623,0.014104,0.016821,0.018621,0.018389,0.020404,0.022292,0.018237,0.021298,0.023280,0.019125,0.021444,0.020908,0.019787,0.019129,0.018373,0.016867,0.016053,0.015690,0.015715,0.015654,0.016138,0.016756,0.016724,0.017117,0.017175,0.017384,0.019167,0.015732,0.005736,0.003490,0.005653,0.014875,0.015571,0.022893,0.021134,0.018275,0.017431,0.016707,0.017153,0.016900,0.017742,0.020342,0.021204,0.018941,0.017684,0.017524,0.014751,0.003295,-0.001992,-0.003133,0.001724,-0.001850,-0.006968,-0.009322,-0.007866,0.003741,0.016825,0.014650,0.015345,0.022649,0.019098,0.019855,0.019178,0.020189,0.021269,0.019642,0.019960,0.019733,0.018263,0.019392,0.018479,0.020776,0.017828,0.016728,0.020557,0.015105,0.013299,0.010777,0.008757,0.008342,0.006920,0.006004,0.006032,0.005042,0.003876,0.002774,0.003033,0.002097,0.003274,0.002798,-0.000546,-0.004200,-0.003669,-0.003773,-0.004129,-0.003820,-0.000378,0.014594,0.013713,0.012693,0.012808,0.013239,0.013112,0.012843,0.012905,0.011816,0.011327,0.011357,0.010336,0.012177,0.013144,0.006785,-0.002031,-0.006438,-0.008083,-0.010200,-0.012232,-0.011875,-0.008383,0.005044,0.004957,0.007830,0.004758,0.013063,0.012779,0.013954,0.014085,0.013182,0.013475,0.014197,0.013393,0.011549,0.009565,0.008013,0.006129,0.005305,0.004984,0.002166,0.001551,-0.001512,-0.001025,-0.001630,-0.004629,-0.003294,-0.002312,-0.001794,-0.003579,-0.003914,-0.003617,-0.003133,-0.001246,-0.003205,-0.005401,-0.005614,-0.004191,-0.004301,-0.006881,-0.008792,-0.008766,-0.007847,-0.005416,0.005280,0.008386,0.009743,0.010458,0.008838,0.007001,0.007202,0.006521,0.007025,0.007353,0.007395,0.006952,0.008091,0.009111,0.009125,0.006360,-0.002779,-0.007414,-0.008242,-0.010699,-0.009109,0.001269,-0.008420,-0.011979,-0.009518,-0.007269,-0.004942,-0.002583,-0.000715,-0.001766,-0.003732,-0.000432,-0.001547,-0.002890,-0.002494,-0.003840,-0.001164,-0.000138,-0.000291,-0.001234,-0.001235,-0.003205,-0.005435,-0.005369,-0.003975,-0.003637,-0.001643,-0.001606,-0.000938,-0.000412,-0.001402,-0.000709,-0.001335,-0.000574,-0.002826,-0.003678,-0.003929,-0.005474,-0.004808,-0.007536,-0.009281,-0.007853,-0.006792,-0.005305,0.004166,0.008197,0.008795,0.006147,0.006330,0.007288,0.007126,0.005093,0.001457,0.001783,0.000325,-0.003794,0.001985,-0.001670,0.000178,0.003700,0.004054,0.000896,-0.002580,-0.005820,-0.004753,-0.008081,-0.011624,-0.013876,-0.016311,-0.015011,-0.011926,-0.007123,-0.007906,-0.010379,-0.016024,-0.015402,-0.008065,-0.011133,-0.012881,-0.015281,-0.008406,-0.005088,-0.009034,-0.008230,-0.005436,-0.010156,-0.008009,-0.007893,-0.010455,-0.009495,-0.007251,-0.005178,-0.007286,-0.007966,-0.009194,-0.006328,-0.008075,-0.010245,-0.011681,-0.011832,-0.011406,-0.013708,-0.009974,-0.010924,-0.011814,-0.013911,-0.014729,-0.013301,-0.006559,-0.004219,-0.008304,-0.012646,-0.008301,-0.003769,-0.004330,-0.005970,-0.007011,-0.007337,-0.005726,-0.006515,-0.006931,-0.007085,-0.005816,-0.005972,-0.004737,-0.006283,-0.004082,-0.004766,-0.006300,-0.005416,-0.009972,-0.012438,-0.013684,-0.010914,-0.008198,-0.006631,-0.009018,-0.008034,-0.010256,-0.008093,-0.005843,-0.007695,-0.005216,-0.009654,-0.006592,-0.003850,-0.007956,-0.004399,-0.005601,-0.005692,-0.006475,-0.004096,-0.004382,-0.005327,-0.005985,-0.003194,-0.003677,-0.005610,-0.007907,-0.006583,-0.007817,-0.007970,-0.008200,-0.009425,-0.009345,-0.009674,-0.006802,-0.006505,-0.008942,-0.010841,-0.008709,-0.004986,-0.005030,-0.006448,-0.008413,-0.011171,-0.006323,-0.001857,-0.002330,-0.004094,-0.004472,-0.003702,-0.002873,-0.002531,-0.004801,-0.005433,-0.005553,-0.005912,-0.002063,-0.002996,-0.003276,-0.003931,-0.004234,-0.003674,-0.005799,-0.010510,-0.009375,-0.011639,-0.009961,-0.008383,-0.011501,-0.012532,-0.012462,-0.005382,-0.003687,-0.003336,-0.004782,-0.004686,-0.009154,-0.002611,-0.002534,-0.003184,-0.001600,-0.002542,-0.002280,-0.002517,-0.003249,-0.004034,-0.005661,-0.004248,-0.004846,-0.007540,-0.007090,-0.007367,-0.007489,-0.005952,-0.005608,-0.008644,-0.010367,-0.010629,-0.010845,-0.007094,-0.007964,-0.011726,-0.014481,-0.009302,-0.005127,-0.001871,-0.008055,-0.009039,-0.005545,-0.001481,-0.000392,-0.002774,-0.004940,-0.002123,-0.002369,-0.001775,-0.001638,-0.004536,-0.005334,-0.003681,-0.004053,-0.005393,-0.007100,-0.004078,-0.005009,-0.003814,-0.010135,-0.006116,-0.006366,-0.009521,-0.009204,-0.006010,-0.006982,-0.008682,-0.008102,-0.003683,-0.002719,-0.003466,-0.009593,-0.007822,-0.004498,-0.002217,-0.001317,-0.003578,-0.002152,-0.001470,-0.001401,-0.001682,-0.003112,-0.004271,-0.004509,-0.003802,-0.004008,-0.004592,-0.006363,-0.007720,-0.006825,-0.004569,-0.003408,-0.007746,-0.010523,-0.010467,-0.005675,-0.005960,-0.009369,-0.010329,-0.009916,-0.007963,-0.005297,-0.007027,-0.007961,-0.008319,-0.005522,-0.002367,-0.000927,-0.002498,-0.004764,-0.002931,-0.003411,-0.002936,-0.002071,-0.004742,-0.005805,-0.004034,-0.007063,-0.008388,-0.006486,-0.004294,-0.001055,-0.004976,-0.007421,-0.005794,-0.005901,-0.011244,-0.011347,-0.010555,-0.011049,-0.009956,-0.006342,-0.005709,-0.003054,-0.003263,-0.003070,-0.001888,-0.000777,-0.000607,0.001185,0.001479,0.001306,-0.002410,-0.003501,-0.000666,-0.001671,-0.005638,-0.004946,-0.003324,-0.002764,-0.001643,-0.005760,-0.007464,-0.006245,-0.005424,-0.003482,-0.006025,-0.007484,-0.007521,-0.008728,-0.007060,-0.005278,-0.005238,-0.007941,-0.012845,-0.006544,-0.010357,-0.008044,-0.010423,-0.007158,-0.004503,-0.004247,-0.002757,-0.001752,-0.001633,-0.002399,-0.001823,-0.003431,-0.003942,-0.005226,-0.006359,-0.007725,-0.008386,-0.008301,-0.007307,-0.005366,-0.004984,-0.006993,-0.004498,-0.007551,-0.010144,-0.011050,-0.011504,-0.013075,-0.013011,-0.006805,-0.004500,-0.001230,-0.002653,-0.004857,-0.003658,-0.007375,-0.004074,-0.001098,0.000869,0.000618,-0.008040,-0.006640,-0.004259,-0.005803,-0.008658,-0.005552,-0.004997,-0.005031,-0.003001,-0.005208,-0.006871,-0.005893,-0.007236,-0.004436,-0.005036,-0.004928,-0.005142,-0.006649,-0.005464,-0.003802,-0.005566,-0.006564,-0.009850,-0.003375,-0.007306,-0.009875,-0.011915,-0.009078,-0.007237,-0.006350,-0.002880,-0.001532,-0.002370,-0.002889,-0.001376,-0.004855,-0.004526,-0.005867,-0.007830,-0.007871,-0.008707,-0.009093,-0.011074,-0.008385,-0.008260,-0.004363,-0.004099,-0.003120,-0.004917,-0.010632,-0.010488,-0.008558,-0.008991,-0.005250,-0.002413,-0.001913,-0.006427,-0.008573,-0.007757,-0.004056,-0.004334,-0.004105,-0.001958,-0.003669,-0.004484,-0.006118,-0.006910,-0.008315,-0.007697,-0.003697,-0.004167,-0.004721,-0.003279,-0.004590,-0.006600,-0.005843,-0.008577,-0.005476,-0.005448,-0.004778,-0.005164,-0.007365,-0.006942,-0.005127,-0.007314,-0.006675,-0.008365,-0.006257,-0.007830,-0.012591,-0.009730,-0.007041,-0.005866,-0.002548,-0.001122,-0.003716,-0.005774,-0.004730,-0.002303,-0.004863,-0.006516,-0.008167,-0.007219,-0.008522,-0.010430,-0.012673,-0.013401,-0.012193,-0.009029,-0.004153,-0.004540,-0.003821,-0.007573,-0.012581,-0.014557,-0.009704,-0.009202,-0.009983,-0.008486,-0.009404,-0.009988,-0.009701,-0.008934,-0.007970,-0.010891,-0.009342,-0.012699,-0.011379,-0.011281,-0.012574,-0.012053,-0.011271,-0.011844,-0.009734,-0.011494,-0.012953,-0.014503,-0.014212,-0.017608,-0.016712,-0.021459,-0.016802,-0.017615,-0.018313,-0.018453,-0.020213,-0.019811,-0.015216,-0.015624,-0.013160,-0.017753,-0.015203,-0.013337,-0.009516,-0.022836,-0.023760