-0.009090,,-0.006180,-0.006636,-0.007920,-0.007130,-0.006626,-0.006992,-0.003801,-0.005908,-0.002279,-0.000044,-0.006171,-0.006529,-0.006719,-0.006619,-0.006343,-0.006388,-0.006465,-0.006322,-0.006170,-0.006316,-0.006601,-0.006733,-0.006688,-0.006225,-0.005492,-0.004798,-0.004288,-0.003949,-0.003903,-0.004010,-0.004174,-0.004134,-0.004076,-0.003993,-0.003894,-0.003889,-0.003895,-0.003938,-0.003852,-0.003183,-0.001847,-0.000680,-0.000817,-0.002048,-0.003189,-0.003923,-0.004793,-0.005450,-0.005384,-0.006210,-0.006817,-0.007115,-0.007458,-0.007649,-0.007137,-0.001261,-0.000587,0.013990,-0.001342,-0.004616,-0.004121,-0.003526,-0.003652,-0.005292,-0.006008,-0.006151,-0.005556,-0.005822,-0.005287,-0.002240,0.000528,-0.000509,0.004180,0.002614,-0.004903,-0.005259,-0.004717,-0.004570,-0.005235,-0.004956,-0.004890,-0.004754,-0.004414,-0.004232,-0.004350,-0.004603,-0.004748,-0.004555,-0.003872,-0.003288,-0.002817,-0.002521,-0.002340,-0.002416,-0.002548,-0.002522,-0.002542,-0.002575,-0.002517,-0.002281,-0.002162,-0.002412,-0.002755,-0.002720,-0.002119,-0.000421,0.001387,0.000425,-0.000591,-0.001709,-0.002577,-0.003182,-0.003941,-0.005030,-0.005810,-0.005974,-0.005620,-0.003686,-0.000661,-0.001846,-0.000579,0.002086,0.000016,-0.002067,-0.003522,-0.004647,-0.004999,-0.004258,-0.004778,-0.005112,-0.004522,-0.005883,-0.004935,0.006052,0.006539,-0.000830,-0.002087,0.000182,-0.001436,-0.003068,-0.004302,-0.003847,-0.003386,-0.003626,-0.003550,-0.003350,-0.003025,-0.002637,-0.002363,-0.002657,-0.002909,-0.002961,-0.002664,-0.001860,-0.001316,-0.000959,-0.000777,-0.000849,-0.000934,-0.000861,-0.000892,-0.000894,-0.000867,-0.000815,-0.000876,-0.001065,-0.001199,-0.001177,-0.001078,0.000046,0.002219,0.002283,0.001747,0.000994,0.000366,-0.000281,-0.001807,-0.003033,-0.004078,-0.004675,-0.004193,-0.001376,0.002095,0.003665,0.001048,0.000052,-0.002408,-0.005980,-0.005727,-0.008570,-0.006887,-0.004598,-0.004178,-0.004245,-0.004046,-0.004610,-0.003339,0.011227,0.014042,0.005890,-0.003522,-0.002542,0.001454,0.003048,-0.001821,-0.002766,-0.002518,-0.002082,-0.001952,-0.001732,-0.001470,-0.001112,-0.000650,-0.000528,-0.000830,-0.001051,-0.000959,-0.000486,0.000356,0.000957,0.001200,0.001273,0.001252,0.001302,0.001322,0.001438,0.001579,0.001714,0.001726,0.001699,0.001662,0.001542,0.001182,0.001464,0.003306,0.004655,0.004448,0.004747,0.004474,0.003707,0.002178,0.000489,-0.000526,-0.001449,-0.001465,0.000500,0.001891,0.010999,0.006871,0.006180,0.003118,0.001599,0.002055,-0.001295,-0.004167,-0.004898,-0.003040,-0.002316,-0.001476,0.001736,-0.000653,0.004018,0.013004,0.005688,0.000795,0.004901,0.004331,0.002664,0.000327,-0.000483,-0.000312,-0.000248,-0.000063,0.000104,0.000391,0.000737,0.001106,0.001567,0.001595,0.001336,0.001211,0.001359,0.001739,0.002178,0.002516,0.002730,0.002799,0.002842,0.002901,0.003101,0.003252,0.003405,0.003680,0.003738,0.003500,0.003305,0.003217,0.003074,0.003874,0.006425,0.007534,0.007721,0.007318,0.005923,0.004785,0.003151,0.002103,0.001943,0.001968,0.003034,0.004933,0.009737,0.014148,0.012788,0.011182,0.015701,0.029996,0.012498,0.003227,-0.001227,-0.000173,0.000051,0.002637,0.016464,0.001745,0.000013,0.002555,0.002429,0.001784,0.005881,0.005115,0.005961,0.004591,0.002635,0.001992,0.002389,0.002560,0.002697,0.002933,0.003162,0.003411,0.003747,0.004138,0.004142,0.003822,0.003703,0.003558,0.003697,0.004109,0.004372,0.004529,0.004675,0.004733,0.004881,0.004832,0.004701,0.005057,0.005396,0.005447,0.005984,0.007218,0.007635,0.007468,0.009451,0.010464,0.008867,0.008550,0.007737,0.008087,0.006919,0.004485,0.004366,0.003944,0.004145,0.005191,0.008111,0.013890,0.011269,0.012624,0.013739,0.014930,0.010095,0.005854,0.002618,0.003080,0.002499,0.004300,0.017585,0.004924,0.002511,0.003740,0.002785,0.003082,0.009837,0.011182,0.009382,0.005249,0.004423,0.005289,0.005360,0.005297,0.005254,0.005424,0.005633,0.005934,0.006561,0.006539,0.006926,0.007085,0.006613,0.006280,0.006357,0.006272,0.006670,0.007299,0.007508,0.007654,0.007971,0.007869,0.007583,0.007583,0.008182,0.008320,0.008744,0.010080,0.011163,0.012084,0.013444,0.013632,0.012731,0.011900,0.012500,0.012505,0.010644,0.008384,0.007681,0.008796,0.010229,0.011622,0.010618,0.013803,0.018704,0.017260,0.019174,0.014993,0.016937,0.014163,0.006539,0.006161,0.005745,0.005784,0.011972,0.011229,0.007411,0.008769,0.007347,0.010867,0.034491,0.016725,0.012898,0.007755,0.006914,0.007358,0.007390,0.007503,0.008025,0.008431,0.008489,0.008165,0.008159,0.008585,0.009312,0.009205,0.008958,0.008511,0.008041,0.007612,0.007866,0.008181,0.008332,0.008399,0.008472,0.008602,0.009003,0.008803,0.008584,0.008849,0.008610,0.008511,0.009834,0.012961,0.013566,0.013294,0.013620,0.013544,0.013251,0.011905,0.011105,0.011707,0.011107,0.011445,0.012096,0.014366,0.013972,0.015134,0.031754,0.014374,0.015200,0.013273,0.013882,0.024646,0.010042,0.006899,0.006041,0.004851,0.007230,0.009843,0.016143,0.021311,0.007890,0.010524,0.016431,0.008101,0.011703,0.007506,0.008452,0.007841,0.007738,0.009354,0.011428,0.013963,0.013471,0.011467,0.010384,0.010237,0.011328,0.010930,0.010886,0.010531,0.009852,0.009683,0.008880,0.008560,0.009120,0.009990,0.009812,0.009951,0.009821,0.009732,0.009432,0.010289,0.010022,0.010101,0.010579,0.012075,0.013877,0.013957,0.014564,0.015010,0.014281,0.013560,0.012546,0.012234,0.011606,0.012134,0.013938,0.015391,0.017202,0.020707,0.022492,0.019026,0.015166,0.016208,0.018219,0.017824,0.027472,0.014884,0.009498,0.010305,0.012052,0.015879,0.021728,0.029726,0.020312,0.011871,0.011676,0.012170,0.017403,0.012512,0.012855,0.012943,0.013540,0.014865,0.016319,0.017018,0.016507,0.014952,0.013887,0.014485,0.014733,0.013368,0.013099,0.013211,0.013974,0.014663,0.013871,0.012160,0.011483,0.011316,0.011344,0.011758,0.011248,0.012040,0.011436,0.011400,0.011706,0.012330,0.013729,0.014565,0.016426,0.016424,0.016465,0.016970,0.016517,0.016537,0.016453,0.014972,0.014072,0.013491,0.014975,0.016672,0.020008,0.024878,0.023232,0.024272,0.025908,0.023841,0.020996,0.014176,0.022751,0.016480,0.015205,0.016717,0.018967,0.029433,0.032172,0.032580,0.030897,0.014910,0.016378,0.016961,0.018710,0.018941,0.017481,0.017588,0.017860,0.017958,0.018587,0.018556,0.019323,0.020171,0.019799,0.020159,0.021405,0.020327,0.020714,0.021455,0.021381,0.021148,0.020601,0.019742,0.022411,0.020795,0.018834,0.017687,0.018485,0.020077,0.017372,0.015205,0.015493,0.016421,0.019901,0.021320,0.021200,0.020718,0.020636,0.021558,0.020643,0.019682,0.020534,0.020291,0.020706,0.019353,0.018674,0.021312,0.022143,0.028793,0.028669,0.030366,0.037838,0.032790,0.030451,0.026503,0.026257,0.026798,0.029986,0.036983,0.053677,0.045955,0.036862,0.040412,0.035324,0.022275,0.022974,0.022378,0.021170,0.025774,0.027872,0.023923,0.022522,0.022809,0.023933,0.023076,0.023866,0.027662,0.026068,0.025220,0.029047,0.027681,0.027684,0.028098,0.027111,0.025711,0.026100,0.030268,0.031671,0.028635,0.027512,0.025051,0.023543,0.024963,0.022658,0.022591,0.022555,0.021863,0.024601,0.027429,0.025983,0.024875,0.024494,0.024713,0.025263,0.024122,0.023728,0.022838,0.023943,0.025414,0.024519,0.027554,0.026590,0.034257,0.037018,0.035892,0.041091,0.037002,0.033428,0.039674,0.034612,0.028473,0.038977,0.098538,0.094247,0.100935,0.045687,0.047827,0.043801,0.040011,0.051104,0.029130,0.028733,0.030312,0.030648,0.029230,0.029271,0.030562,0.035951,0.033208,0.033671,0.044427,0.038340,0.036131,0.037244,0.036378,0.035187,0.036062,0.038501,0.037624,0.036433,0.038603,0.034737,0.032376,0.033852,0.031183,0.031138,0.040176,0.029795,0.029922,0.032631,0.032322,0.036439,0.039512,0.033724,0.030511,0.029095,0.027421,0.027749,0.028817,0.029209,0.026739,0.024443,0.025963,0.024732,0.032155,0.038051,0.042000,0.043503,0.036206,0.039951,0.040013,0.031468,0.034023,0.032155,0.036401,0.029612,0.032692,0.054939,0.060143,0.053562,0.048489,0.031022,0.039044,0.039856,0.028021,0.030929,0.030725,0.028299,0.030586,0.029819,0.030824,0.038260,0.038985,0.040703,0.047170,0.040227,0.041329,0.042273,0.041626,0.038266,0.038208,0.042660,0.044018,0.040741,0.039003,0.040153,0.036338,0.035530,0.033858,0.032614,0.041324,0.035659,0.039600,0.047778,0.040878,0.034772,0.033379,0.033823,0.036117,0.036853,0.033512,0.042118,0.038252,0.030101,0.027827,0.029202,0.034858,0.028023,0.032963,0.049326,0.046627,0.048451,0.042824,0.043245,0.044476,0.036670,0.037952,0.029225,0.029362,0.038696,0.029134,0.040176,0.044053,0.046571,0.063052,0.036719,0.041389,0.030187,0.026180,0.030212,0.023564,0.024667,0.028431,0.033016,0.032830,0.038952,0.037057,0.037919,0.043735,0.044936,0.049026,0.045330,0.044832,0.041202,0.040410,0.044124,0.046469,0.045866,0.047185,0.046161,0.043955,0.037488,0.036732,0.034085,0.040139,0.035948,0.034107,0.032584,0.032467,0.030189,0.029242,0.032279,0.034881,0.032385,0.029950,0.027806,0.029986,0.028797,0.022560,0.021674,0.024377,0.030478,0.041367,0.037332,0.036758,0.038336,0.041825,0.034679,0.033365,0.039486,0.032565,0.021061,0.018543,0.038023,0.023562,0.024751,0.028310,0.028864,0.042309,0.036824,0.025517,0.021785,0.019714,0.022906,0.021309,0.015778,0.017940,0.017981,0.021216,0.025167,0.024101,0.022304,0.022915,0.024105,0.025401,0.025392,0.025772,0.024842,0.025222,0.027475,0.026611,0.025067,0.026066,0.023632,0.026347,0.026078,0.031464,0.030575,0.032974,0.025915,0.021357,0.021079,0.025662,0.026179,0.022528,0.021726,0.021439,0.020427,0.020362,0.019661,0.017052,0.016086,0.013792,0.022376,0.018679,0.028464,0.032132,0.030074,0.028057,0.022429,0.031742,0.021698,0.017120,0.028394,0.017533,0.009444,0.011485,0.021790,0.011728,0.015150,0.019063,0.027514,0.031767,0.035873,0.029443,0.012170,0.013913,0.017428,0.018105,0.013520,0.011579,0.012631,0.011700,0.014231,0.015878,0.014984,0.014899,0.015783,0.014869,0.016605,0.017208,0.017212,0.016019,0.016828,0.016047,0.013598,0.015392,0.013915,0.014743,0.012838,0.014515,0.017626,0.014247,0.013644,0.013330,0.016055,0.014820,0.021257,0.018460,0.022994,0.020594,0.015971,0.018299,0.018029,0.015860,0.027015,0.026628,0.026798,0.022513,0.022334,0.020508,0.022225,0.020827,0.027308,0.024153,0.023080,0.024156,0.017275,0.018308,0.007191,0.005293,0.006843,0.014386,0.024958,0.021295,0.028599,0.032443,0.038577,0.027401,0.014827,0.010623,0.011397,0.008422,0.008664,0.007932,0.010721,0.008207,0.007807,0.010471,0.010960,0.012844,0.015660,0.013917,0.012625,0.013167,0.012874,0.011112,0.012193,0.013492,0.011190,0.013255,0.014291,0.013096,0.010676,0.011871,0.013490,0.012821,0.014293,0.011589,0.010426,0.011063,0.015108,0.012771,0.014220,0.015849,0.013581,0.017412,0.020972,0.014699,0.019578,0.020628,0.026836,0.026991,0.026413,0.021064,0.027224,0.018361,0.018270,0.027963,0.027390,0.016478,0.015583,0.023824,0.006790,0.006647,0.008458,0.025103,0.026346,0.024933,0.025626,0.019721,0.021635,0.034976,0.030667,0.015985,0.008930,0.010198,0.012188,0.009613,0.012063,0.009454,0.008683,0.010610,0.014026,0.015814,0.020701,0.018818,0.015706,0.014259,0.011853,0.010077,0.014130,0.021982,0.014556,0.013555,0.013507,0.013674,0.015212,0.018362,0.014572,0.016804,0.029124,0.023433,0.019179,0.019285,0.022704,0.018738,0.015719,0.015374,0.011293,0.013181,0.024343,0.020603,0.024840,0.021232,0.022796,0.026758,0.028202,0.027033,0.026937,0.024186,0.018662,0.025693,0.023085,0.013675,0.017098,0.021599,0.011597,0.018880,0.024910,0.025063,0.023488,0.026579,0.014521,0.019212,0.026474,0.027616,0.027734,0.014335,0.013195,0.011194,0.009507,0.009676,0.011688,0.012666,0.012779,0.016244,0.015421,0.017864,0.022027,0.018873,0.018771,0.015427,0.011508,0.009851,0.014413,0.021533,0.013635,0.011201,0.012867,0.014042,0.019747,0.023166,0.015171,0.016167,0.026750,0.021103,0.016769,0.014516,0.014720,0.016071,0.012800,0.011855,0.010771,0.017312,0.011055,0.014624,0.024710,0.024487,0.022683,0.024054,0.023664,0.022651,0.018643,0.025221,0.024157,0.021398,0.019697,0.021849,0.025368,0.025176,0.021091,0.021533,0.021224,0.018257,0.020767,0.022868,0.013262,0.021743,0.024719,0.019097,0.012483,0.007478,0.006163,0.008363,0.004410,0.007445,0.008876,0.012595,0.008665,0.006081,0.005252,0.005986,0.012369,0.012848,0.012284,0.012068,0.011564,0.010627,0.012148,0.013223,0.012231,0.012782,0.012971,0.013577,0.014005,0.015147,0.015239,0.015936,0.016438,0.014461,0.013282,0.012345,0.013111,0.014113,0.011778,0.011626,0.013940,0.027571,0.014748,0.017779,0.021187,0.018007,0.017568,0.019520,0.016728,0.016867,0.020394,0.020498,0.022395,0.020489,0.019201,0.020291,0.015164,0.014411,0.021004,0.019318,0.017750,0.019557,0.018667,0.018850,0.020278,0.020108,0.017200,0.017664,0.011360,0.003286,0.003439,0.012094,0.005988,0.005178,0.005384,0.007948,0.006591,0.004165,0.003227,0.003621,0.005055,0.008112,0.008759,0.009045,0.009007,0.009311,0.010020,0.010188,0.010294,0.010735,0.010629,0.016086,0.016457,0.015122,0.015875,0.016502,0.016683,0.016240,0.014579,0.014481,0.015115,0.014599,0.012613,0.012552,0.013861,0.015137,0.024122,0.026456,0.020254,0.012241,0.010693,0.014942,0.008367,0.012223,0.017977,0.012195,0.015580,0.012505,0.014816,0.014272,0.003343,0.001945,0.003325,0.007012,0.006868,0.009240,0.006001,0.008950,0.017736,0.013811,0.015307,0.015929,0.019148,0.015742,0.013727,0.017315,0.005963,0.006135,0.005991,0.008273,0.008264,0.006302,0.004823,0.005643,0.005083,0.005427,0.007717,0.007168,0.006515,0.006473,0.006684,0.005846,0.005949,0.006115,0.006856,0.008834,0.011819,0.015145,0.019360,0.016182,0.016042,0.015843,0.015640,0.013880,0.012263,0.012209,0.012780,0.012095,0.013280,0.011993,0.011275,0.016407,0.021246,0.017740,0.016739,0.016937,0.003590,0.008437,0.012556,0.011733,0.013197,0.012712,0.016737,0.018973,0.009972,0.004454,-0.000529,0.002228,0.001215,0.000229,0.001314,0.006391,0.005180,0.017601,0.013374,0.008860,0.015468,0.013921,0.014889,0.004292,0.003567,0.006613,0.005799,0.008110,0.006721,0.006330,0.003724,0.004057,0.003909,0.003305,0.004074,0.005380,0.005037,0.004972,0.005229,0.005131,0.005599,0.005546,0.004378,0.003464,0.005677,0.009440,0.010969,0.010367,0.010927,0.009975,0.010199,0.008909,0.007457,0.006727,0.007856,0.007496,0.011517,0.028256,0.018008,0.028724,0.024518,0.020260,0.016048,0.020486,0.010011,0.020286,0.019274,0.021884,0.009317,0.020318,0.013267,0.001721,0.018339,0.022791,-0.003645,-0.001828,-0.002955,-0.004020,-0.002933,-0.000590,-0.000769,-0.002551,-0.002939,0.000423,0.013740,0.010563,0.004745,0.010053,0.009986,0.002125,0.003121,0.004214,0.003820,0.003031,0.003557,0.004077,0.003957,0.005537,0.005211,0.006708,0.007877,0.007904,0.007511,0.005685,0.004396,0.003649,0.004415,0.005647,0.007839,0.009505,0.008734,0.007958,0.008919,0.008379,0.008323,0.008726,0.006738,0.005257,0.005809,0.005701,0.005146,0.005561,0.017412,0.028968,0.025655,0.017732,0.011040,0.020695,0.023410,0.017807,0.006299,0.004252,0.008526,0.020420,0.013025,0.003338,0.004581,0.016396,-0.001300,-0.001310,-0.001993,-0.002659,-0.002471,-0.000953,0.000239,0.000252,0.001289,0.005994,0.012966,0.009133,0.007248,0.007307,0.007783,0.008700,0.004885,0.005028,0.005147,0.006225,0.007201,0.006034,0.007546,0.005422,0.005162,0.007086,0.008065,0.006301,0.005973,0.004691,0.003462,0.001375,0.001364,0.002830,0.005584,0.006807,0.005582,0.004750,0.005208,0.004844,0.004578,0.004493,0.004249,0.003619,0.003582,0.002354,0.001170,0.000649,0.004925,0.011220,0.018615,0.015509,0.013574,0.016560,0.015509,0.009415,0.002012,0.008731,0.013705,0.007207,0.001907,0.003655,0.012191,0.018724,-0.003050,-0.002147,-0.002172,-0.001035,-0.000646,0.000101,0.000376,-0.000012,-0.000978,0.002392,0.002008,-0.000217,0.002014,0.003867,0.002106,0.002342,-0.001747,-0.000946,-0.000586,-0.000672,0.000018,0.000618,0.000474,-0.000062,-0.000016,0.000787,0.002518,0.004068,0.005615,0.005091,0.004096,0.003586,0.003352,0.004899,0.007406,0.007992,0.007372,0.006995,0.006571,0.006633,0.008210,0.007471,0.005719,0.004630,0.004039,0.003358,0.003692,0.006337,0.023510,0.023125,0.021619,0.017433,0.017077,0.019292,0.017915,0.011979,0.004007,0.011296,0.012501,0.003727,0.000307,0.001922,0.008472,0.018135,-0.002090,-0.001441,-0.001605,0.000752,0.001358,-0.000519,-0.002678,-0.003185,-0.002425,0.001449,-0.000539,-0.001779,0.002655,0.009955,0.002496,0.000749,-0.001139,-0.002508,-0.000767,0.000383,0.001366,0.002747,0.003566,0.002893,0.002261,0.000268,0.000457,0.002594,0.002805,0.002441,0.002018,0.002821,0.003636,0.006606,0.008847,0.009438,0.009583,0.010202,0.008831,0.008778,0.008035,0.007619,0.005942,0.004193,0.003318,0.002217,0.002483,0.004840,0.020745,0.016786,0.014779,0.017101,0.020158,0.020423,0.017471,0.011624,0.012829,0.009057,0.008045,0.006913,0.003762,0.001511,0.002291,0.014031,-0.004713,-0.005767,-0.005594,-0.002219,-0.001599,-0.004836,-0.005770,-0.004277,-0.002331,-0.001206,-0.001099,-0.000889,0.000555,0.007169,0.008815,0.003071,0.004822,0.002734,0.003085,0.006173,0.003436,0.002127,0.002667,0.003180,0.003700,0.001590,0.000135,-0.000046,0.001215,0.001847,0.000927,0.001025,0.000036,0.000189,0.000297,0.000552,0.002407,0.004458,0.005116,0.006753,0.007097,0.005898,0.004759,0.003530,0.002498,0.001537,0.002163,0.007072,0.017997,0.016850,0.015324,0.012140,0.010234,0.011936,0.015527,0.018269,0.016938,0.011914,0.009343,0.009949,0.010368,0.007894,0.009060,0.013848,-0.000200,-0.004732,-0.004488,0.001724,-0.002978,-0.006487,-0.007259,-0.003614,-0.005963,-0.003688,-0.002707,-0.005175,-0.005617,-0.002397,0.002243,-0.003770,-0.002585,0.000597,-0.000152,-0.004034,-0.004750,-0.002086,-0.001518,-0.002147,-0.001469,-0.000254,0.000716,0.000180,0.000064,0.000777,0.000374,-0.000017,0.002080,0.002481,0.000933,-0.001356,-0.001312,-0.001071,0.000098,0.002898,0.005048,0.003873,0.002397,0.002098,0.000954,0.000605,0.001455,0.002826,0.007208,0.014622,0.021053,0.020449,0.014529,0.012554,0.017881,0.020258,0.010431,0.011200,0.009137,0.007497,0.008403,0.011741,0.013947,0.009577,0.012122,0.011543,0.013555,0.010750,-0.002282,-0.009343,-0.008901,-0.005363,-0.009254,-0.006040,-0.003016,-0.007232,-0.008071,-0.007946,-0.005384,-0.006458,-0.010387,-0.008311,-0.005079,-0.008946,-0.009642,-0.007276,-0.002381,-0.002778,-0.002632,-0.000416,-0.000631,-0.002608,-0.003203,-0.002547,-0.000490,-0.000337,-0.000279,0.002165,0.000388,-0.000431,-0.002372,-0.002854,-0.003263,-0.002421,-0.001200,-0.000275,0.000741,0.002379,0.002490,0.002717,0.002695,0.001026,-0.000019,0.001573,0.004873,0.008141,0.015904,0.021380,0.018252,0.009046,0.006540,0.006575,0.003287,-0.000936,-0.001800,0.000336,0.003770,0.003988,0.011298,0.006828,0.008646,0.010590,0.006418,-0.003367,-0.003213,-0.004583,-0.006423,-0.009780,-0.006762,0.013569,0.014921,-0.004543,-0.007617,-0.004234,-0.008096,-0.007767,-0.004121,-0.002671,-0.008082,-0.008546,-0.006647,-0.004572,-0.006064,-0.006274,-0.007622,-0.007325,-0.007563,-0.007795,-0.006361,-0.001704,-0.002923,-0.003251,-0.004460,-0.003040,-0.001712,-0.002168,-0.003954,-0.005603,-0.004428,-0.002490,-0.000493,0.000765,-0.000779,-0.001441,-0.000445,0.001695,0.001726,0.001377,-0.003151,-0.005642,-0.004258,0.012173,0.017229,0.008727,0.014809,0.006386,0.002428,0.001435,-0.001873,-0.004947,-0.003615,0.007372,0.009469,0.011001,0.012280,0.014075,0.010427,0.004859,0.002508,0.002390,0.000353,-0.000510,0.000935,0.007738,0.006343,-0.001261,-0.002840,-0.000238,-0.004202,-0.004288,-0.006017,-0.006843,-0.004769,-0.007805,-0.006828,-0.009137,-0.007368,-0.008339,-0.011222,-0.011599,-0.009793,-0.011429,-0.012353,-0.011279,-0.005135,-0.005856,-0.007095,-0.007112,-0.004346,-0.003357,-0.001518,-0.005257,-0.005309,-0.003971,-0.004896,-0.002877,-0.004294,-0.007354,-0.005615,-0.002434,0.002145,-0.000368,-0.004780,-0.005849,-0.007072,-0.005385,-0.003290,-0.003886,0.006403,0.004806,0.011548,0.013525,-0.004949,-0.009277,-0.009999,0.005904,0.005612,0.005602,0.006251,0.003793,-0.000267,-0.002073,-0.005210,-0.002351,-0.007676,-0.007111,-0.006406,-0.006789,-0.007253,-0.007571,-0.006925,-0.008708,-0.007529,-0.011319,-0.012886,-0.012675,-0.011624,-0.010890,-0.012275,-0.012119,-0.013873,-0.014357,-0.016454,-0.016112,-0.012585,-0.014065,-0.015778,-0.018511,-0.013974,-0.011495,-0.010126,-0.008793,-0.007887,-0.011632,-0.009701,-0.012013,-0.011049,-0.010156,-0.010993,-0.010069,-0.014029,-0.017055,-0.013675,-0.013270,-0.007627,-0.006876,-0.004283,-0.005973,-0.009373,-0.010975,-0.010059,-0.010678,-0.009334,-0.009744,-0.011626,-0.014328,-0.012933,0.001146,0.001734,-0.001495,-0.008262,-0.007865,-0.008161,-0.008214,-0.009619,-0.012405,-0.015779,-0.011368,-0.013272,-0.018904,-0.012444,-0.010601,-0.010241,-0.007298,-0.007434,-0.008594,-0.008518,-0.008848,-0.013364,-0.012332,-0.015509,-0.010505,-0.010328,-0.011643,-0.012294,-0.013410,-0.016713,-0.022020,-0.020701,-0.018054,-0.011715,-0.011078,-0.014434,-0.016520,-0.011970,-0.014038,-0.015815,-0.016556,-0.015872,-0.013737,-0.012255,-0.013085,-0.013449,-0.013557,-0.015926,-0.019642,-0.019432,-0.015163,-0.013369,-0.017058,-0.018704,-0.017756,-0.017897,-0.019953,-0.020967,-0.021368,-0.014940,-0.016443,-0.016144,-0.017432,-0.016049,-0.002617,-0.001456,-0.011330,-0.016731,-0.011742,-0.010039,-0.009527,-0.011786,-0.024321,-0.028759,-0.026450,-0.011268,-0.009480,-0.010373,-0.015494,-0.021361,-0.017364,-0.016520,-0.016730,-0.024060,-0.019278,-0.021691,-0.016379,-0.012254,-0.010728,-0.011019,-0.011051,-0.010394,-0.011029,-0.012677,-0.017009,-0.021656,-0.026598,-0.023344,-0.019744,-0.016512,-0.017806,-0.015260,-0.022725,-0.036759,-0.026136,-0.022711,-0.015594,-0.015090,-0.018747,-0.018240,-0.017479,-0.019451,-0.024777,-0.022664,-0.024143,-0.020709,-0.019660,-0.019706,-0.019206,-0.025134,-0.026941,-0.029246,-0.027310,-0.026740,-0.025761,-0.022377,-0.021701,-0.020570,-0.021048,-0.022887,-0.024779,-0.028425,-0.024617,-0.020908,-0.020056,-0.023662,-0.032015,-0.032556,-0.036461,-0.026594,-0.011671,-0.014299,-0.016037,-0.016729,-0.021746,-0.018688,-0.016077,-0.015682,-0.016596,-0.015099,-0.019253,-0.017133,-0.017795,-0.014224,-0.012408,-0.014371,-0.018858,-0.020910,-0.018782,-0.022439,-0.027647,-0.031039,-0.031383,-0.029011,-0.020070,-0.020380,-0.027727,-0.032182,-0.035044,-0.034612,-0.028941,-0.021636,-0.023311,-0.022366,-0.022066,-0.023921,-0.030790,-0.025811,-0.022778,-0.019378,-0.015948,-0.017944,-0.019829,-0.025036,-0.025689,-0.023111,-0.025433,-0.027136,-0.025382,-0.026204,-0.030422,-0.030032,-0.026732,-0.025500,-0.027558,-0.025129,-0.030441,-0.030595,-0.034463,-0.040214,-0.038962,-0.041067,-0.041615,-0.040666,-0.025011,-0.019524,-0.015264,-0.012790,-0.019031,-0.017259,-0.024794,-0.023969,-0.017595,-0.016330,-0.016330,-0.019289,-0.032891,-0.020468,-0.013101,-0.012985,-0.014280,-0.015668,-0.018055,-0.031132,-0.028076,-0.023384,-0.020360,-0.024534,-0.028279,-0.034821,-0.038735,-0.033192,-0.037473,-0.038337,-0.036202,-0.024539,-0.024554,-0.024367,-0.024061,-0.021805,-0.025991,-0.027177,-0.023267,-0.021252,-0.015917,-0.020882,-0.022325,-0.025045,-0.027298,-0.022507,-0.027087,-0.023499,-0.029534,-0.029551,-0.026116,-0.026701,-0.025784,-0.031747,-0.031886,-0.032374,-0.035307,-0.041934,-0.047785,-0.050043,-0.047982,-0.048281,-0.044543,-0.045178,-0.042969,-0.021887,-0.018837,-0.018761,-0.020820,-0.018999,-0.035847,-0.036255,-0.019722,-0.020553,-0.024749,-0.028072,-0.032263,-0.029934,-0.021049,-0.020756,-0.013027,-0.014922,-0.013098,-0.013504,-0.017306,-0.021818,-0.027410,-0.027014,-0.029199,-0.032356,-0.034868,-0.034980,-0.033777,-0.033663,-0.034159,-0.024220,-0.024132,-0.025010,-0.022902,-0.022401,-0.023401,-0.025586,-0.022470,-0.027676,-0.023250,-0.019791,-0.022088,-0.023608,-0.022194,-0.024493,-0.035504,-0.031978,-0.029030,-0.025372,-0.025234,-0.027905,-0.031966,-0.037054,-0.030296,-0.034042,-0.036394,-0.036569,-0.043023,-0.040504,-0.040733,-0.039554,-0.037652,-0.037491,-0.032341,-0.027510,-0.022054,-0.025478,-0.023195,-0.025451,-0.029700,-0.025991,-0.019247,-0.021977,-0.030762,-0.031352,-0.029882,-0.029608,-0.032086,-0.031996,-0.028436,-0.022758,-0.014827,-0.016108,-0.014387,-0.015340,-0.016991,-0.016747,-0.021103,-0.027511,-0.029731,-0.029995,-0.032186,-0.032746,-0.032260,-0.032942,-0.031284,-0.030350,-0.031621,-0.029648,-0.024706,-0.026272,-0.031664,-0.033600,-0.030067,-0.030319,-0.028562,-0.021865,-0.021643,-0.024310,-0.039846,-0.049242,-0.039428,-0.030525,-0.033815,-0.038047,-0.035042,-0.031231,-0.031989,-0.032654,-0.031802,-0.029981,-0.029654,-0.030602,-0.029877,-0.029988,-0.028576,-0.025862,-0.027122,-0.022723,-0.026889,-0.026363,-0.026609,-0.025841,-0.024010,-0.019286,-0.022921,-0.027047,-0.026462,-0.024420,-0.025558,-0.025227,-0.027172,-0.027835,-0.031114,-0.030398,-0.028022,-0.031096,-0.026323,-0.026689,-0.023308,-0.022709,-0.022402,-0.026629,-0.031097,-0.034493,-0.034666,-0.038140,-0.045012,-0.045404,-0.037154,-0.034435,-0.037935,-0.036441,-0.030867,-0.033778,-0.027984,-0.026934,-0.025373,-0.031072,-0.033351,-0.022198,-0.028148,-0.041002,-0.035737,-0.048753,-0.041210,-0.038593,-0.044767,-0.035453,-0.028027,-0.030423,-0.031802,-0.029473,-0.031021,-0.029761,-0.031878,-0.037362,-0.045189,-0.062401,-0.051756,-0.035070,-0.028863,-0.024895,-0.025333,-0.027465,-0.026493,-0.024883,-0.020883,-0.022521,-0.027111,-0.023642,-0.020701,-0.023411,-0.023501,-0.024530,-0.024381,-0.025606,-0.026404,-0.026502,-0.026126,-0.028634,-0.030853,-0.030340,-0.028430,-0.028864,-0.030635,-0.034947,-0.041066,-0.043454,-0.043151,-0.041919,-0.043297,-0.041290,-0.035581,-0.034271,-0.037825,-0.031439,-0.027344,-0.031439,-0.035120,-0.032228,-0.030841,-0.035484,-0.039360,-0.030135,-0.039547,-0.051500,-0.037831,-0.042292,-0.039874,-0.039854,-0.038057,-0.010606,-0.015711,-0.012820,-0.028111,-0.031389,-0.035373,-0.045081,-0.053317,-0.043878,-0.047832,-0.051207,-0.050905,-0.105104,-0.050038,-0.034684,-0.028918,-0.030675,-0.028034,-0.028929,-0.025664,-0.026587,-0.027675,-0.022789,-0.021216,-0.023319,-0.026686,-0.027038,-0.027835,-0.027040,-0.026772,-0.025485,-0.024087,-0.024304,-0.025819,-0.025621,-0.027087,-0.027252,-0.027574,-0.028212,-0.029332,-0.030548,-0.033919,-0.039112,-0.040229,-0.040771,-0.040318,-0.037271,-0.036397,-0.029225,-0.027010,-0.031815,-0.035431,-0.031663,-0.030308,-0.031128,-0.041213,-0.040321,-0.046526,-0.050310,-0.036207,-0.051664,-0.058389,-0.037271,-0.030754,-0.032288,-0.029290,-0.017882,-0.016997,-0.030690,-0.035029,-0.048189,-0.034336,-0.031536,-0.036593,-0.033171,-0.031975,-0.047905,-0.043211,-0.030650,-0.028417,-0.027727,-0.027637,-0.028736,-0.022530,-0.025917,-0.026320,-0.020230,-0.010186,-0.010637,-0.023617,-0.024977,-0.025411,-0.025261,-0.024144,-0.021306,-0.022142,-0.020759,-0.019710,-0.021952,-0.023996,-0.024490,-0.024726,-0.025175,-0.025123,-0.024568,-0.024458,-0.025435,-0.027567,-0.027601,-0.026187,-0.028745,-0.030188,-0.031275,-0.030921,-0.030814,-0.029057,-0.027296,-0.026143,-0.023681,-0.030938,-0.031470,-0.030616,-0.028935,-0.019893,-0.031527,-0.037010,-0.028925,-0.028851,-0.026261,-0.026738,-0.025790,-0.021478,-0.028357,-0.037839,-0.030876,-0.029313,-0.034742,-0.034968,-0.031304,-0.023367,-0.023904,-0.023875,-0.024994,-0.026075,-0.025319,-0.024715,-0.025539,-0.020002,-0.014538,-0.019686,-0.022420,-0.022846,-0.018188,0.002992,-0.007728,-0.020618,-0.021918,-0.019790,-0.017241,-0.019526,-0.017720,-0.016995,-0.020201,-0.022856,-0.023894,-0.023466,-0.023144,-0.023816,-0.024117,-0.022861,-0.022071,-0.022409,-0.021322,-0.020005,-0.019911,-0.021218,-0.022996,-0.027947,-0.026225,-0.028160,-0.035540,-0.029195,-0.025004,-0.025587,-0.022460,-0.020684,-0.017278,-0.020195,-0.024427,-0.020735,-0.028393,-0.026187,-0.023168,-0.022987,-0.025179,-0.023998,-0.028549,-0.026510,-0.024657,-0.031465,-0.025208,-0.019411,-0.021009,-0.016076,-0.024060,-0.023691,-0.032405,-0.028035,-0.024561,-0.023351,-0.022653,-0.014383,-0.023386,-0.023564,-0.022304,-0.022394,-0.021396,-0.016892,-0.005965,-0.002997,-0.018988,-0.016010,-0.016523,-0.016933,-0.014059,-0.016282,-0.019475,-0.020172,-0.020240,-0.021065,-0.021172,-0.020853,-0.020102,-0.020434,-0.020739,-0.021263,-0.020257,-0.017456,-0.016888,-0.018019,-0.017788,-0.018793,-0.018165,-0.018358,-0.022418,-0.021720,-0.021120,-0.023070,-0.023012,-0.022653,-0.020546,-0.017124,-0.019474,-0.023819,-0.024015,-0.020600,-0.020349,-0.019715,-0.019171,-0.020214,-0.020922,-0.021274,-0.021314,-0.018089,-0.014911,-0.011511,-0.025198,-0.024844,-0.024932,-0.025259,-0.056506,-0.032885,-0.026060,-0.025257,-0.021578,-0.020771,-0.021280,-0.021086,-0.021710,-0.015055,-0.020263,-0.022218,-0.021017,0.003091,-0.016168,-0.016742,-0.018004,-0.016557,-0.016960,-0.020095,-0.020469,-0.020791,-0.022249,-0.024344,-0.023661,-0.023341,-0.024203,-0.025457,-0.021858,-0.020735,-0.021967,-0.019022,-0.018999,-0.017436,-0.018462,-0.019313,-0.019525,-0.018537,-0.017870,-0.017774,-0.017209,-0.017232,-0.018098,-0.019632,-0.024815,-0.017577,-0.023260,-0.037223,-0.037185,-0.033323,-0.025211,-0.021099,-0.017632,-0.022936,-0.023067,-0.022198,-0.022927,-0.023778,-0.023977,-0.021617,-0.027779,-0.041719,-0.029183,-0.026209,-0.038393,-0.036381,-0.028247,-0.024965,-0.017520,-0.021070,-0.021536,-0.020616,-0.022563,-0.021871,-0.020646,-0.023784,-0.026163,-0.006104,0.003575,-0.019065,-0.019273,-0.019405,-0.021692,-0.022045,-0.023847,-0.025155,-0.025080,-0.025080,-0.024110,-0.023527,-0.022887,-0.022836,-0.020460,-0.017153,-0.020527,-0.017344,-0.017325,-0.016958,-0.017981,-0.017655,-0.017113,-0.018210,-0.018240,-0.017983,-0.016762,-0.016178,-0.017159,-0.019431,-0.022943,-0.026031,-0.026120,-0.031081,-0.023567,-0.020446,-0.022185,-0.022971,-0.022233,-0.023433,-0.018731,-0.018113,-0.023266,-0.029945,-0.025143,-0.022042,-0.024861,-0.021473,-0.018760,-0.017473,-0.024111,-0.033429,-0.025771,-0.019971,-0.017177,-0.020336,-0.018996,-0.017494,-0.018580,-0.017497,-0.018465,-0.020112,-0.019420,-0.019067,0.008341,-0.015671,-0.019436,-0.017548,-0.016004,-0.017240,-0.017994,-0.014289,-0.014921,-0.014441,-0.010755,-0.010377,-0.011827,-0.012348,-0.010001,-0.010423,-0.010898,-0.009238,-0.009299,-0.011976,-0.014653,-0.015260,-0.015314,-0.014582,-0.014231,-0.013637,-0.013182,-0.010217,-0.010894,-0.012340,-0.012284,-0.017030,0.003988,-0.013007,-0.010632,-0.010146,-0.011892,-0.014442,-0.011909,-0.010022,-0.011127,-0.013050,-0.015646,-0.014539,-0.001297,0.010498,-0.010618,-0.011049,-0.011269,-0.013103,-0.021977,-0.018622,-0.015438,-0.010023,-0.014513,-0.015411,-0.014003,-0.013748,-0.013669,-0.011924,-0.010989,-0.014527,-0.013548,-0.008886,0.007585,-0.009992,-0.011066,-0.008250,-0.007259,-0.007440,-0.005216,-0.004996,-0.004891,-0.004096,-0.003464,-0.003816,-0.003851,-0.004656,-0.005845,-0.007229,-0.007348,-0.006278,-0.005896,-0.006976,-0.009518,-0.012039,-0.012138,-0.011457,-0.010317,-0.007743,-0.006640,-0.005989,-0.005736,-0.005011,-0.002811,0.008715,0.006320,-0.002978,-0.004790,-0.004655,-0.004369,-0.006010,-0.005683,-0.005973,-0.000647,-0.006973,-0.009062,-0.005913,-0.000991,-0.006236,-0.005291,-0.007671,-0.009966,-0.009457,-0.013193,-0.008628,-0.008559,-0.003725,-0.008918,-0.009895,-0.007081,-0.004675,-0.003987,-0.003884,-0.005267,-0.004321,-0.004594,-0.000909,0.019308,-0.000941,-0.001341,-0.000118,0.000620,0.000568,0.001088,0.000654,0.001095,0.001099,0.001128,0.000070,-0.001465,-0.001688,-0.002220,-0.003347,-0.003783,-0.002846,-0.002974,-0.002674,-0.001578,-0.002583,-0.005342,-0.008132,-0.003097,-0.000779,-0.001434,0.000995,0.001354,0.001171,0.003173,0.018263,0.021813,0.002305,-0.002138,-0.001327,-0.000752,-0.002453,-0.003501,-0.001607,0.017938,0.016266,0.016365,0.017045,0.012917,0.002012,-0.000002,-0.005765,-0.005307,-0.002404,0.000330,-0.000120,0.009216,0.012508,0.001323,0.005701,0.003916,0.004296,0.003618,0.002953,0.003597,0.003235,0.003648,0.013702,0.008521,0.004681,0.004429,0.007148,0.005122,0.004514,0.006866,0.002747,0.003712,0.004604,0.002796,0.002317,0.001843,0.001431,0.001016,0.000552,0.002313,0.002304,0.004006,0.004153,0.004389,0.007490,0.011472,0.013630,0.009877,0.017655,0.018248,0.020581,0.021940,0.023390,0.021963,0.024021,0.023373,0.024072,0.003777,0.002964,0.002949,0.002139,0.002649,0.014296,0.016854,0.017553,0.018478,0.012563,0.009153,0.018384,0.017931,0.020439,0.007692,0.016275,0.015505,0.025859,0.031844,0.047644,0.058096,0.008799,0.011203,0.019513,0.014038,0.007213,0.003855,0.006243,0.007831,0.014211,0.010000,0.006215,0.007172,0.008471,0.008087,0.006900,0.005316,0.007341,0.008716,0.010367,0.010117,0.010651,0.013799,0.012475,0.013952,0.016568,0.018161,0.019520,0.021207,0.021853,0.022341,0.021037,0.020173,0.019961,0.019252,0.019010,0.021485,0.026996,0.029246,0.029698,0.026923,0.026638,0.024654,0.037039,0.034041,0.011598,0.009302,0.008537,0.016719,0.012950,0.036154,0.023045,0.024777,0.019785,0.016784,0.018514,0.015547,0.021478,0.027659,0.026032,0.023825,0.023415,0.015718,0.020375,0.001423,-0.001511,0.000306,0.001461,-0.000183,-0.001273,-0.001461,-0.001148,0.001049,0.023459,0.009809,0.004704,0.016611,0.021236,0.017405,0.020259,0.019243,0.021040,0.020185,0.020298,0.019326,0.021336,0.021356,0.023629,0.020596,0.018768,0.023514,0.017529,0.016440,0.011803,0.008414,0.007041,0.004098,0.003738,0.000675,0.002148,0.002390,0.004327,0.006583,0.005556,0.004506,0.007940,0.010981,0.005582,0.003673,0.002606,0.002031,0.001827,0.000408,-0.000212,0.027018,0.017188,0.017167,0.018960,0.020539,0.019726,0.016157,0.017636,0.015949,0.013232,0.014603,0.002101,0.006973,0.010732,0.011678,-0.006280,-0.005906,-0.006055,-0.006998,-0.008750,-0.008196,-0.004525,0.025987,0.010295,0.038467,0.020501,0.019869,0.021412,0.018009,0.016953,0.011508,0.012456,0.013891,0.010376,0.007161,0.005615,0.004431,0.003429,0.002072,-0.000384,-0.000313,-0.001748,-0.001783,-0.001846,-0.002297,-0.001915,-0.002954,-0.002776,-0.004137,-0.004097,-0.004741,-0.004750,-0.003623,-0.002778,-0.002647,-0.002695,-0.004337,-0.003243,-0.002684,-0.003573,-0.005041,-0.005430,-0.006556,-0.006385,0.010730,0.015322,0.010235,0.020487,0.019548,0.013976,0.016482,0.016701,0.015373,0.012799,0.018451,0.012962,0.009127,0.010066,0.010647,0.012596,-0.005491,-0.010234,-0.010003,-0.010549,-0.005290,0.017077,-0.005213,-0.003066,-0.004957,-0.003694,-0.001847,-0.004855,-0.004096,-0.004595,-0.004238,-0.005093,-0.004755,-0.004199,-0.004136,-0.002832,-0.001059,-0.000928,-0.001947,-0.002854,-0.003454,-0.004407,-0.004202,-0.003607,-0.003616,-0.002681,-0.003015,-0.002524,-0.002856,-0.003414,-0.004057,-0.004513,-0.002989,-0.003582,-0.004461,-0.004802,-0.006051,-0.004684,-0.004107,-0.004245,-0.005048,-0.005703,-0.005933,-0.005916,0.006801,0.008630,0.010329,0.007948,0.011222,0.015334,0.014027,0.007325,0.003959,0.000607,-0.002530,-0.001163,-0.005488,-0.003013,-0.003813,-0.006368,-0.001103,-0.009198,-0.012541,-0.012476,-0.008210,-0.009384,-0.010794,-0.012562,-0.012050,-0.015557,-0.009081,-0.010541,-0.012051,-0.011050,-0.011387,-0.009716,-0.010491,-0.011050,-0.011609,-0.011103,-0.009168,-0.010975,-0.012429,-0.010032,-0.011613,-0.011020,-0.009832,-0.010139,-0.012061,-0.012102,-0.011440,-0.012581,-0.010332,-0.011881,-0.014167,-0.016745,-0.013403,-0.011877,-0.009871,-0.015049,-0.015291,-0.011034,-0.008759,-0.008137,-0.009676,-0.010660,-0.007843,-0.007005,-0.006269,-0.006824,-0.009459,-0.009042,-0.006629,-0.006596,-0.007604,-0.009224,-0.007281,-0.007976,-0.007512,-0.011608,-0.008237,-0.008008,-0.009976,-0.009322,-0.008622,-0.008687,-0.009762,-0.009484,-0.006717,-0.007723,-0.008978,-0.014080,-0.011406,-0.009185,-0.008040,-0.008385,-0.009194,-0.007408,-0.006077,-0.005723,-0.006549,-0.006516,-0.008041,-0.006871,-0.005774,-0.007293,-0.006597,-0.007220,-0.007611,-0.007141,-0.005604,-0.005194,-0.007204,-0.008398,-0.007206,-0.005235,-0.006841,-0.009357,-0.008974,-0.008988,-0.008696,-0.008231,-0.010480,-0.011077,-0.010756,-0.008216,-0.006570,-0.006158,-0.006673,-0.006496,-0.003845,-0.004129,-0.005110,-0.004550,-0.006401,-0.006294,-0.004336,-0.006100,-0.006853,-0.005783,-0.004694,-0.003312,-0.005181,-0.006954,-0.005753,-0.005515,-0.008362,-0.007434,-0.007727,-0.008458,-0.008102,-0.006171,-0.006131,-0.005859,-0.007304,-0.007191,-0.007514,-0.006518,-0.006347,-0.006532,-0.006319,-0.005529,-0.005822,-0.006425,-0.004131,-0.004798,-0.006481,-0.006174,-0.003189,-0.003489,-0.003341,-0.003994,-0.004676,-0.003866,-0.003909,-0.003275,-0.004020,-0.004866,-0.004367,-0.005351,-0.005939,-0.005429,-0.005503,-0.006876,-0.009514,-0.006224,-0.010107,-0.008854,-0.010375,-0.008266,-0.006121,-0.006330,-0.006088,-0.005629,-0.004445,-0.004080,-0.002723,-0.004685,-0.004657,-0.004265,-0.003641,-0.004087,-0.005702,-0.006558,-0.005115,-0.003766,-0.003265,-0.004157,-0.004018,-0.005227,-0.005988,-0.006678,-0.008410,-0.010102,-0.009536,-0.006422,-0.005407,-0.005524,-0.005450,-0.007676,-0.007706,-0.009569,-0.005980,-0.005239,-0.004965,-0.004686,-0.008470,-0.007340,-0.005788,-0.007857,-0.008143,-0.004521,-0.003787,-0.003897,-0.003391,-0.002920,-0.003368,-0.003185,-0.004196,-0.003335,-0.003895,-0.004051,-0.003849,-0.004505,-0.004647,-0.004410,-0.005328,-0.005606,-0.006532,-0.003262,-0.006735,-0.009150,-0.010332,-0.007328,-0.006410,-0.006665,-0.004943,-0.004182,-0.004364,-0.004261,-0.003738,-0.004921,-0.004569,-0.004255,-0.004034,-0.003814,-0.005457,-0.006574,-0.006936,-0.004850,-0.004151,-0.002361,-0.003604,-0.003484,-0.003468,-0.007366,-0.008139,-0.006905,-0.007007,-0.004582,-0.004757,-0.004975,-0.006863,-0.008615,-0.009547,-0.007133,-0.006935,-0.006984,-0.005375,-0.004979,-0.005147,-0.005350,-0.005650,-0.006119,-0.004850,-0.002193,-0.002300,-0.001953,-0.000939,-0.000363,-0.002553,-0.002897,-0.003228,-0.002376,-0.003800,-0.003699,-0.003376,-0.003911,-0.003528,-0.003870,-0.004969,-0.004620,-0.005277,-0.003863,-0.006034,-0.009986,-0.008443,-0.007052,-0.005736,-0.003767,-0.002825,-0.004123,-0.005615,-0.003341,-0.003440,-0.003343,-0.004351,-0.004229,-0.003962,-0.005244,-0.006151,-0.007106,-0.007313,-0.006317,-0.003973,-0.002651,-0.003029,-0.003127,-0.004572,-0.007556,-0.009412,-0.007090,-0.006487,-0.006316,-0.005967,-0.007124,-0.006530,-0.006969,-0.007525,-0.007436,-0.008498,-0.007410,-0.008282,-0.005762,-0.004802,-0.004377,-0.004815,-0.005227,-0.004803,-0.004399,-0.003254,-0.002730,-0.002192,-0.001515,-0.005221,-0.004554,-0.005409,-0.004154,-0.005110,-0.004543,-0.004712,-0.005390,-0.004509,-0.004332,-0.006366,-0.005281,-0.004675,-0.006924,-0.006005,-0.003917,-0.010354,-0.009283,-0.009224,-0.008330,-0.008115,-0.008159,-0.008300,-0.006201,-0.008503,-0.008445,-0.008783,-0.008598,-0.007792,-0.007109,-0.004950,-0.004141,-0.003825,-0.003584,-0.002572,-0.003604,-0.003342,-0.003657,-0.003950,-0.003799,-0.005061,-0.005601,-0.006362,-0.005944,-0.006323,-0.005625,-0.005618,-0.004860,-0.005454,-0.006687,-0.006055,-0.004926,-0.004830,-0.004260,-0.003769,-0.003444,-0.005019,-0.005705,-0.005434,-0.004278,-0.004402,-0.004258,-0.003410,-0.003847,-0.004109,-0.004886,-0.004913,-0.004767,-0.004351,-0.003469,-0.003915,-0.003961,-0.003306,-0.003852,-0.004504,-0.004663,-0.005269,-0.004075,-0.004164,-0.004492,-0.003774,-0.007128,-0.006881,-0.006584,-0.006994,-0.006351,-0.007268,-0.007186,-0.007399,-0.007979,-0.008015,-0.007507,-0.005613,-0.004130,-0.003577,-0.004105,-0.004204,-0.003492,-0.002740,-0.003352,-0.003324,-0.003337,-0.003166,-0.003935,-0.004814,-0.006280,-0.006876,-0.006728,-0.006218,-0.005222,-0.005803,-0.005943,-0.007068,-0.008234,-0.008214,-0.006628,-0.006831,-0.007894,-0.007826,-0.007751,-0.007644,-0.008066,-0.008144,-0.008026,-0.009136,-0.009084,-0.009875,-0.009532,-0.009513,-0.010091,-0.009680,-0.008883,-0.008975,-0.008939,-0.009587,-0.009722,-0.010215,-0.010333,-0.011292,-0.011595,-0.012406,-0.011142,-0.011459,-0.012123,-0.011742,-0.018090,-0.017091,-0.016165,-0.016131,-0.014461,-0.015449,-0.017316,-0.018660