-0.002159,,-0.002154,-0.002156,-0.002144,-0.002111,-0.002096,-0.002083,-0.002043,-0.002056,-0.002039,-0.002058,-0.002088,-0.002058,-0.002046,-0.002010,-0.001980,-0.001964,-0.001921,-0.001862,-0.001805,-0.001788,-0.001814,-0.001832,-0.001835,-0.001816,-0.001757,-0.001731,-0.001703,-0.001680,-0.001664,-0.001643,-0.001630,-0.001614,-0.001597,-0.001584,-0.001568,-0.001562,-0.001552,-0.001535,-0.001516,-0.001498,-0.001475,-0.001449,-0.001431,-0.001424,-0.001426,-0.001432,-0.001443,-0.001445,-0.001449,-0.001455,-0.001456,-0.001445,-0.001430,-0.001409,-0.001389,-0.001367,-0.001410,-0.001454,-0.001558,-0.001625,-0.001660,-0.001685,-0.001702,-0.001726,-0.001733,-0.001734,-0.001723,-0.001704,-0.001678,-0.001654,-0.001653,-0.001666,-0.001681,-0.001711,-0.001728,-0.001691,-0.001661,-0.001654,-0.001623,-0.001565,-0.001515,-0.001454,-0.001376,-0.001320,-0.001313,-0.001338,-0.001369,-0.001387,-0.001331,-0.001305,-0.001279,-0.001261,-0.001236,-0.001216,-0.001199,-0.001181,-0.001169,-0.001161,-0.001147,-0.001128,-0.001109,-0.001090,-0.001067,-0.001044,-0.001021,-0.001007,-0.001002,-0.001002,-0.001005,-0.001011,-0.001024,-0.001038,-0.001055,-0.001057,-0.001052,-0.001040,-0.001020,-0.001004,-0.001012,-0.001047,-0.001071,-0.001108,-0.001174,-0.001239,-0.001298,-0.001315,-0.001338,-0.001342,-0.001344,-0.001343,-0.001341,-0.001337,-0.001288,-0.001252,-0.001285,-0.001313,-0.001307,-0.001291,-0.001293,-0.001295,-0.001266,-0.001219,-0.001159,-0.001110,-0.001060,-0.000989,-0.000910,-0.000840,-0.000788,-0.000826,-0.000857,-0.000885,-0.000884,-0.000836,-0.000815,-0.000797,-0.000777,-0.000761,-0.000742,-0.000727,-0.000716,-0.000702,-0.000693,-0.000685,-0.000665,-0.000647,-0.000628,-0.000606,-0.000585,-0.000575,-0.000571,-0.000563,-0.000539,-0.000522,-0.000514,-0.000519,-0.000528,-0.000516,-0.000509,-0.000503,-0.000481,-0.000458,-0.000459,-0.000497,-0.000563,-0.000625,-0.000674,-0.000717,-0.000769,-0.000785,-0.000826,-0.000855,-0.000852,-0.000856,-0.000856,-0.000845,-0.000816,-0.000783,-0.000827,-0.000869,-0.000879,-0.000825,-0.000783,-0.000785,-0.000790,-0.000759,-0.000706,-0.000638,-0.000563,-0.000486,-0.000421,-0.000354,-0.000285,-0.000274,-0.000306,-0.000336,-0.000362,-0.000355,-0.000296,-0.000264,-0.000252,-0.000234,-0.000210,-0.000198,-0.000184,-0.000149,-0.000121,-0.000101,-0.000065,-0.000028,0.000008,0.000051,0.000098,0.000141,0.000181,0.000223,0.000260,0.000286,0.000306,0.000309,0.000312,0.000334,0.000342,0.000352,0.000374,0.000411,0.000454,0.000485,0.000429,0.000365,0.000292,0.000224,0.000165,0.000109,0.000057,0.000008,-0.000003,-0.000016,-0.000019,-0.000021,-0.000055,-0.000041,-0.000062,-0.000104,-0.000121,-0.000107,-0.000111,-0.000109,-0.000102,-0.000077,-0.000049,-0.000003,0.000063,0.000122,0.000182,0.000248,0.000308,0.000374,0.000390,0.000345,0.000303,0.000272,0.000270,0.000279,0.000289,0.000309,0.000352,0.000384,0.000415,0.000468,0.000515,0.000558,0.000602,0.000647,0.000694,0.000748,0.000807,0.000865,0.000917,0.000963,0.000995,0.001019,0.001041,0.001055,0.001069,0.001099,0.001122,0.001158,0.001208,0.001261,0.001326,0.001399,0.001400,0.001374,0.001337,0.001290,0.001244,0.001188,0.001153,0.001123,0.001100,0.001090,0.001092,0.001081,0.001021,0.001028,0.001056,0.001046,0.001025,0.001032,0.001019,0.001021,0.001015,0.001022,0.001047,0.001084,0.001117,0.001147,0.001194,0.001256,0.001289,0.001338,0.001394,0.001376,0.001335,0.001302,0.001245,0.001239,0.001267,0.001294,0.001344,0.001389,0.001430,0.001478,0.001519,0.001562,0.001604,0.001647,0.001689,0.001735,0.001787,0.001844,0.001896,0.001943,0.001985,0.002018,0.002042,0.002060,0.002073,0.002096,0.002121,0.002163,0.002221,0.002276,0.002333,0.002403,0.002451,0.002457,0.002473,0.002460,0.002442,0.002407,0.002359,0.002338,0.002336,0.002361,0.002384,0.002384,0.002335,0.002336,0.002369,0.002370,0.002378,0.002388,0.002359,0.002336,0.002314,0.002327,0.002378,0.002407,0.002446,0.002467,0.002492,0.002545,0.002589,0.002637,0.002667,0.002697,0.002701,0.002644,0.002601,0.002567,0.002597,0.002643,0.002698,0.002750,0.002794,0.002842,0.002891,0.002942,0.002989,0.003038,0.003086,0.003136,0.003192,0.003254,0.003317,0.003378,0.003432,0.003477,0.003508,0.003532,0.003550,0.003577,0.003606,0.003645,0.003697,0.003761,0.003832,0.003905,0.003994,0.004035,0.004035,0.004015,0.003957,0.003911,0.003864,0.003829,0.003825,0.003830,0.003848,0.003889,0.003859,0.003838,0.003826,0.003798,0.003779,0.003748,0.003708,0.003679,0.003652,0.003654,0.003717,0.003751,0.003788,0.003820,0.003848,0.003892,0.003923,0.003956,0.003983,0.004008,0.004038,0.004024,0.003955,0.003890,0.003835,0.003847,0.003879,0.003915,0.003942,0.003972,0.004004,0.004039,0.004076,0.004117,0.004162,0.004211,0.004263,0.004311,0.004353,0.004390,0.004416,0.004442,0.004462,0.004486,0.004505,0.004534,0.004559,0.004579,0.004615,0.004675,0.004729,0.004758,0.004804,0.004832,0.004784,0.004776,0.004738,0.004700,0.004658,0.004587,0.004608,0.004620,0.004661,0.004721,0.004751,0.004758,0.004724,0.004691,0.004671,0.004634,0.004609,0.004646,0.004613,0.004642,0.004673,0.004696,0.004739,0.004771,0.004823,0.004863,0.004891,0.004930,0.004953,0.004988,0.005032,0.005073,0.005055,0.004991,0.004940,0.004875,0.004887,0.004930,0.004964,0.004989,0.005030,0.005051,0.005083,0.005122,0.005165,0.005200,0.005253,0.005292,0.005319,0.005360,0.005381,0.005399,0.005407,0.005414,0.005433,0.005445,0.005473,0.005503,0.005548,0.005603,0.005661,0.005693,0.005722,0.005717,0.005685,0.005658,0.005643,0.005611,0.005570,0.005542,0.005558,0.005601,0.005631,0.005636,0.005625,0.005603,0.005576,0.005533,0.005509,0.005504,0.005497,0.005530,0.005505,0.005515,0.005544,0.005588,0.005642,0.005687,0.005746,0.005794,0.005840,0.005899,0.005932,0.005963,0.006016,0.006053,0.006083,0.006052,0.006005,0.005966,0.005940,0.005979,0.006011,0.006053,0.006115,0.006161,0.006226,0.006270,0.006325,0.006381,0.006449,0.006524,0.006590,0.006662,0.006724,0.006774,0.006811,0.006847,0.006883,0.006907,0.006934,0.006967,0.006990,0.007025,0.007081,0.007134,0.007128,0.007101,0.007077,0.007053,0.007023,0.006976,0.006934,0.006928,0.006905,0.006905,0.006894,0.006882,0.006889,0.006851,0.006807,0.006781,0.006764,0.006778,0.006783,0.006802,0.006788,0.006791,0.006839,0.006930,0.007016,0.007099,0.007173,0.007236,0.007282,0.007329,0.007382,0.007424,0.007458,0.007505,0.007581,0.007591,0.007580,0.007564,0.007543,0.007536,0.007557,0.007579,0.007626,0.007715,0.007804,0.007862,0.007937,0.008016,0.008106,0.008220,0.008319,0.008413,0.008506,0.008588,0.008656,0.008718,0.008776,0.008840,0.008914,0.009005,0.009077,0.009143,0.009219,0.009280,0.009312,0.009297,0.009280,0.009260,0.009238,0.009219,0.009202,0.009193,0.009168,0.009171,0.009176,0.009151,0.009121,0.009100,0.009079,0.009064,0.009060,0.009091,0.009105,0.009136,0.009168,0.009164,0.009176,0.009230,0.009301,0.009364,0.009390,0.009444,0.009486,0.009482,0.009503,0.009526,0.009519,0.009534,0.009544,0.009526,0.009531,0.009487,0.009412,0.009343,0.009292,0.009306,0.009352,0.009424,0.009510,0.009574,0.009665,0.009764,0.009890,0.010026,0.010121,0.010189,0.010276,0.010378,0.010487,0.010600,0.010674,0.010761,0.010855,0.010952,0.011046,0.011131,0.011225,0.011281,0.011329,0.011325,0.011310,0.011317,0.011295,0.011287,0.011300,0.011299,0.011312,0.011347,0.011424,0.011479,0.011489,0.011522,0.011547,0.011549,0.011551,0.011562,0.011559,0.011607,0.011657,0.011672,0.011715,0.011803,0.011896,0.011956,0.011950,0.011975,0.011996,0.011971,0.011967,0.011951,0.011934,0.011936,0.011890,0.011852,0.011836,0.011800,0.011698,0.011573,0.011455,0.011354,0.011340,0.011350,0.011373,0.011361,0.011384,0.011412,0.011445,0.011490,0.011513,0.011521,0.011539,0.011566,0.011599,0.011643,0.011679,0.011702,0.011714,0.011730,0.011798,0.011869,0.011959,0.011999,0.012002,0.011997,0.012001,0.012051,0.012070,0.012099,0.012171,0.012225,0.012277,0.012313,0.012375,0.012469,0.012538,0.012612,0.012658,0.012659,0.012705,0.012710,0.012701,0.012745,0.012744,0.012752,0.012798,0.012849,0.012931,0.012989,0.012997,0.013003,0.013003,0.012984,0.012992,0.012983,0.012964,0.012964,0.012927,0.012911,0.012882,0.012857,0.012805,0.012706,0.012590,0.012480,0.012391,0.012391,0.012390,0.012370,0.012369,0.012366,0.012350,0.012353,0.012372,0.012395,0.012402,0.012405,0.012399,0.012392,0.012358,0.012338,0.012347,0.012372,0.012407,0.012419,0.012465,0.012514,0.012509,0.012513,0.012509,0.012524,0.012562,0.012593,0.012655,0.012712,0.012787,0.012859,0.012868,0.012893,0.012904,0.012944,0.012975,0.012935,0.012913,0.012864,0.012826,0.012822,0.012761,0.012755,0.012762,0.012746,0.012719,0.012699,0.012675,0.012650,0.012623,0.012579,0.012545,0.012515,0.012474,0.012406,0.012326,0.012281,0.012219,0.012169,0.012132,0.012018,0.011859,0.011707,0.011581,0.011483,0.011469,0.011440,0.011421,0.011411,0.011407,0.011397,0.011389,0.011377,0.011352,0.011312,0.011270,0.011225,0.011178,0.011115,0.011057,0.011030,0.011010,0.010989,0.010951,0.010892,0.010849,0.010807,0.010757,0.010693,0.010655,0.010632,0.010605,0.010595,0.010622,0.010664,0.010627,0.010630,0.010614,0.010606,0.010611,0.010578,0.010568,0.010558,0.010564,0.010573,0.010532,0.010545,0.010559,0.010576,0.010615,0.010645,0.010650,0.010680,0.010711,0.010724,0.010726,0.010719,0.010690,0.010612,0.010535,0.010489,0.010444,0.010406,0.010363,0.010313,0.010219,0.010092,0.009981,0.009848,0.009758,0.009706,0.009672,0.009662,0.009643,0.009589,0.009523,0.009460,0.009392,0.009315,0.009244,0.009170,0.009093,0.009039,0.008995,0.008962,0.008899,0.008862,0.008803,0.008736,0.008678,0.008619,0.008591,0.008548,0.008527,0.008526,0.008487,0.008481,0.008546,0.008577,0.008558,0.008598,0.008588,0.008563,0.008520,0.008480,0.008451,0.008396,0.008403,0.008401,0.008332,0.008307,0.008285,0.008283,0.008290,0.008317,0.008340,0.008338,0.008337,0.008371,0.008409,0.008461,0.008503,0.008562,0.008612,0.008655,0.008679,0.008702,0.008751,0.008753,0.008750,0.008706,0.008675,0.008626,0.008555,0.008531,0.008518,0.008501,0.008465,0.008434,0.008370,0.008301,0.008227,0.008155,0.008098,0.008028,0.007957,0.007902,0.007827,0.007764,0.007713,0.007692,0.007659,0.007614,0.007566,0.007509,0.007420,0.007355,0.007307,0.007264,0.007244,0.007231,0.007283,0.007359,0.007422,0.007436,0.007410,0.007388,0.007340,0.007304,0.007279,0.007251,0.007252,0.007265,0.007234,0.007261,0.007298,0.007328,0.007302,0.007306,0.007339,0.007370,0.007403,0.007435,0.007456,0.007478,0.007520,0.007562,0.007612,0.007681,0.007711,0.007728,0.007765,0.007775,0.007774,0.007767,0.007765,0.007736,0.007696,0.007682,0.007684,0.007690,0.007702,0.007701,0.007687,0.007669,0.007643,0.007606,0.007582,0.007543,0.007494,0.007476,0.007449,0.007424,0.007385,0.007345,0.007307,0.007278,0.007234,0.007207,0.007170,0.007110,0.007070,0.007079,0.007102,0.007112,0.007214,0.007322,0.007423,0.007457,0.007476,0.007494,0.007495,0.007501,0.007508,0.007478,0.007456,0.007508,0.007522,0.007542,0.007559,0.007590,0.007575,0.007570,0.007586,0.007604,0.007615,0.007625,0.007613,0.007595,0.007589,0.007585,0.007590,0.007614,0.007580,0.007515,0.007477,0.007445,0.007428,0.007427,0.007414,0.007364,0.007318,0.007259,0.007186,0.007143,0.007115,0.007076,0.007026,0.006986,0.006956,0.006920,0.006926,0.006925,0.006887,0.006868,0.006841,0.006829,0.006823,0.006805,0.006783,0.006756,0.006728,0.006704,0.006697,0.006680,0.006681,0.006718,0.006742,0.006765,0.006844,0.006901,0.006950,0.006996,0.007030,0.007049,0.007083,0.007084,0.007052,0.007006,0.006954,0.006954,0.006916,0.006889,0.006883,0.006873,0.006856,0.006817,0.006765,0.006710,0.006666,0.006641,0.006592,0.006539,0.006498,0.006473,0.006460,0.006460,0.006419,0.006352,0.006321,0.006312,0.006301,0.006298,0.006283,0.006255,0.006249,0.006202,0.006111,0.006064,0.006039,0.006027,0.006011,0.005995,0.005978,0.005987,0.006011,0.005984,0.005981,0.005963,0.005909,0.005858,0.005814,0.005769,0.005728,0.005678,0.005635,0.005567,0.005511,0.005481,0.005474,0.005467,0.005451,0.005450,0.005476,0.005509,0.005550,0.005600,0.005643,0.005664,0.005699,0.005698,0.005674,0.005645,0.005622,0.005628,0.005607,0.005570,0.005568,0.005555,0.005549,0.005505,0.005449,0.005405,0.005381,0.005357,0.005318,0.005274,0.005239,0.005225,0.005232,0.005247,0.005250,0.005253,0.005274,0.005295,0.005304,0.005297,0.005288,0.005275,0.005269,0.005236,0.005169,0.005128,0.005116,0.005119,0.005108,0.005088,0.005087,0.005091,0.005083,0.005012,0.004983,0.004938,0.004867,0.004807,0.004754,0.004689,0.004629,0.004566,0.004485,0.004401,0.004319,0.004255,0.004206,0.004161,0.004135,0.004122,0.004100,0.004088,0.004091,0.004098,0.004113,0.004131,0.004139,0.004145,0.004150,0.004135,0.004126,0.004160,0.004186,0.004123,0.004093,0.004097,0.004107,0.004072,0.004035,0.004017,0.003992,0.003986,0.003975,0.003949,0.003908,0.003889,0.003889,0.003872,0.003857,0.003848,0.003849,0.003840,0.003844,0.003845,0.003847,0.003835,0.003812,0.003790,0.003758,0.003698,0.003669,0.003661,0.003664,0.003658,0.003696,0.003739,0.003758,0.003731,0.003663,0.003593,0.003520,0.003466,0.003412,0.003343,0.003281,0.003216,0.003132,0.003058,0.002982,0.002915,0.002856,0.002797,0.002779,0.002779,0.002769,0.002741,0.002720,0.002705,0.002708,0.002716,0.002698,0.002690,0.002673,0.002642,0.002592,0.002543,0.002501,0.002433,0.002399,0.002399,0.002402,0.002367,0.002348,0.002351,0.002333,0.002343,0.002362,0.002378,0.002376,0.002386,0.002400,0.002393,0.002383,0.002389,0.002403,0.002420,0.002437,0.002473,0.002513,0.002542,0.002579,0.002613,0.002648,0.002635,0.002596,0.002579,0.002614,0.002658,0.002668,0.002711,0.002689,0.002616,0.002540,0.002462,0.002375,0.002296,0.002194,0.002097,0.002032,0.001971,0.001896,0.001815,0.001735,0.001654,0.001577,0.001498,0.001442,0.001409,0.001422,0.001421,0.001421,0.001427,0.001428,0.001399,0.001384,0.001335,0.001300,0.001273,0.001228,0.001191,0.001157,0.001162,0.001158,0.001159,0.001168,0.001157,0.001194,0.001260,0.001304,0.001339,0.001394,0.001466,0.001527,0.001557,0.001590,0.001629,0.001656,0.001690,0.001723,0.001770,0.001809,0.001860,0.001902,0.001943,0.001991,0.002011,0.002014,0.002037,0.002021,0.001993,0.001980,0.002048,0.002113,0.002142,0.002085,0.001965,0.001869,0.001749,0.001627,0.001544,0.001478,0.001426,0.001401,0.001384,0.001352,0.001307,0.001280,0.001236,0.001187,0.001136,0.001048,0.000957,0.000972,0.000992,0.001014,0.001038,0.001057,0.001050,0.001051,0.001093,0.001151,0.001155,0.001121,0.001109,0.001123,0.001127,0.001128,0.001146,0.001168,0.001193,0.001231,0.001281,0.001329,0.001358,0.001393,0.001436,0.001489,0.001522,0.001543,0.001572,0.001581,0.001600,0.001628,0.001663,0.001709,0.001743,0.001781,0.001798,0.001838,0.001875,0.001862,0.001856,0.001893,0.001879,0.001864,0.001874,0.001947,0.001973,0.001913,0.001843,0.001756,0.001661,0.001598,0.001530,0.001491,0.001460,0.001406,0.001408,0.001448,0.001430,0.001407,0.001398,0.001389,0.001383,0.001347,0.001286,0.001271,0.001282,0.001295,0.001316,0.001357,0.001381,0.001403,0.001438,0.001465,0.001450,0.001398,0.001397,0.001399,0.001411,0.001420,0.001418,0.001430,0.001440,0.001454,0.001466,0.001452,0.001448,0.001433,0.001414,0.001381,0.001354,0.001333,0.001312,0.001310,0.001305,0.001315,0.001322,0.001337,0.001369,0.001394,0.001430,0.001441,0.001483,0.001495,0.001504,0.001568,0.001616,0.001591,0.001553,0.001516,0.001496,0.001460,0.001419,0.001350,0.001260,0.001177,0.001087,0.001010,0.000951,0.000892,0.000881,0.000868,0.000834,0.000841,0.000831,0.000837,0.000832,0.000833,0.000825,0.000850,0.000853,0.000854,0.000865,0.000876,0.000900,0.000934,0.000956,0.001003,0.001017,0.001027,0.001072,0.001086,0.001103,0.001118,0.001126,0.001164,0.001193,0.001233,0.001284,0.001305,0.001306,0.001307,0.001313,0.001327,0.001354,0.001380,0.001401,0.001433,0.001476,0.001516,0.001558,0.001590,0.001625,0.001642,0.001661,0.001673,0.001691,0.001710,0.001707,0.001665,0.001615,0.001594,0.001566,0.001531,0.001493,0.001461,0.001390,0.001295,0.001196,0.001113,0.001041,0.000983,0.000928,0.000905,0.000901,0.000896,0.000868,0.000874,0.000909,0.000948,0.000967,0.000976,0.000973,0.001027,0.001041,0.001043,0.001032,0.001045,0.001058,0.001111,0.001144,0.001194,0.001227,0.001273,0.001317,0.001324,0.001310,0.001304,0.001307,0.001323,0.001328,0.001330,0.001336,0.001341,0.001325,0.001322,0.001317,0.001316,0.001309,0.001285,0.001263,0.001222,0.001225,0.001234,0.001260,0.001304,0.001351,0.001374,0.001383,0.001401,0.001390,0.001384,0.001329,0.001261,0.001186,0.001137,0.001113,0.001089,0.001088,0.001080,0.001013,0.000907,0.000824,0.000764,0.000717,0.000688,0.000650,0.000640,0.000647,0.000661,0.000698,0.000734,0.000735,0.000759,0.000774,0.000787,0.000784,0.000831,0.000848,0.000854,0.000814,0.000779,0.000773,0.000804,0.000811,0.000822,0.000835,0.000864,0.000888,0.000898,0.000862,0.000834,0.000822,0.000789,0.000754,0.000700,0.000645,0.000621,0.000668,0.000719,0.000767,0.000808,0.000837,0.000854,0.000860,0.000857,0.000880,0.000905,0.000886,0.000933,0.000993,0.001031,0.001086,0.001127,0.001149,0.001146,0.001131,0.001086,0.001036,0.000956,0.000923,0.000905,0.000859,0.000802,0.000705,0.000564,0.000440,0.000341,0.000277,0.000278,0.000298,0.000270,0.000217,0.000186,0.000149,0.000106,0.000063,0.000030,0.000025,0.000024,-0.000003,-0.000040,-0.000075,-0.000098,-0.000161,-0.000226,-0.000246,-0.000264,-0.000303,-0.000315,-0.000333,-0.000336,-0.000299,-0.000250,-0.000249,-0.000261,-0.000243,-0.000242,-0.000251,-0.000277,-0.000291,-0.000266,-0.000235,-0.000225,-0.000158,-0.000072,0.000011,0.000071,0.000076,0.000078,0.000101,0.000191,0.000307,0.000397,0.000443,0.000448,0.000482,0.000517,0.000546,0.000537,0.000548,0.000535,0.000554,0.000596,0.000634,0.000664,0.000676,0.000679,0.000668,0.000602,0.000520,0.000422,0.000311,0.000232,0.000172,0.000127,0.000056,0.000014,-0.000065,-0.000176,-0.000258,-0.000335,-0.000356,-0.000394,-0.000457,-0.000540,-0.000604,-0.000656,-0.000722,-0.000762,-0.000774,-0.000773,-0.000764,-0.000744,-0.000743,-0.000764,-0.000768,-0.000762,-0.000770,-0.000794,-0.000797,-0.000802,-0.000821,-0.000849,-0.000856,-0.000849,-0.000872,-0.000930,-0.000943,-0.000947,-0.000958,-0.000985,-0.001026,-0.001051,-0.001079,-0.001067,-0.000977,-0.000883,-0.000795,-0.000698,-0.000612,-0.000507,-0.000395,-0.000303,-0.000233,-0.000145,-0.000068,-0.000001,0.000057,0.000147,0.000246,0.000329,0.000390,0.000426,0.000444,0.000420,0.000356,0.000273,0.000176,0.000089,0.000054,0.000014,-0.000070,-0.000141,-0.000211,-0.000298,-0.000362,-0.000423,-0.000493,-0.000567,-0.000626,-0.000687,-0.000764,-0.000818,-0.000850,-0.000866,-0.000873,-0.000881,-0.000864,-0.000879,-0.000937,-0.000997,-0.001025,-0.001044,-0.001071,-0.001095,-0.001122,-0.001164,-0.001210,-0.001231,-0.001251,-0.001263,-0.001289,-0.001298,-0.001337,-0.001396,-0.001426,-0.001460,-0.001493,-0.001540,-0.001548,-0.001519,-0.001448,-0.001323,-0.001203,-0.001052,-0.000930,-0.000815,-0.000685,-0.000589,-0.000505,-0.000458,-0.000457,-0.000398,-0.000298,-0.000193,-0.000101,0.000012,0.000094,0.000132,0.000156,0.000148,0.000108,0.000048,-0.000014,-0.000104,-0.000200,-0.000273,-0.000355,-0.000435,-0.000517,-0.000572,-0.000641,-0.000722,-0.000799,-0.000861,-0.000935,-0.001003,-0.001045,-0.001072,-0.001105,-0.001140,-0.001172,-0.001228,-0.001310,-0.001354,-0.001388,-0.001398,-0.001453,-0.001468,-0.001469,-0.001478,-0.001449,-0.001448,-0.001425,-0.001398,-0.001375,-0.001375,-0.001392,-0.001422,-0.001452,-0.001483,-0.001508,-0.001541,-0.001557,-0.001522,-0.001438,-0.001304,-0.001220,-0.001171,-0.001181,-0.001222,-0.001170,-0.001113,-0.001097,-0.001098,-0.001117,-0.001131,-0.001116,-0.001128,-0.001114,-0.001109,-0.001085,-0.001040,-0.001014,-0.000977,-0.001022,-0.001090,-0.001160,-0.001287,-0.001417,-0.001552,-0.001687,-0.001796,-0.001863,-0.001894,-0.001953,-0.002014,-0.002071,-0.002125,-0.002181,-0.002249,-0.002284,-0.002339,-0.002395,-0.002374,-0.002348,-0.002347,-0.002345,-0.002305,-0.002301,-0.002280,-0.002247,-0.002217,-0.002185,-0.002153,-0.002124,-0.002116,-0.002089,-0.002072,-0.002050,-0.002056,-0.002077,-0.002099,-0.002131,-0.002169,-0.002203,-0.002233,-0.002235,-0.002227,-0.002176,-0.002122,-0.002063,-0.002086,-0.002117,-0.002138,-0.002088,-0.002057,-0.002085,-0.002123,-0.002154,-0.002181,-0.002207,-0.002230,-0.002238,-0.002261,-0.002290,-0.002330,-0.002338,-0.002304,-0.002229,-0.002187,-0.002213,-0.002285,-0.002364,-0.002431,-0.002493,-0.002581,-0.002678,-0.002769,-0.002855,-0.002895,-0.002933,-0.002956,-0.002967,-0.002992,-0.003027,-0.003071,-0.003077,-0.003044,-0.003023,-0.002954,-0.002887,-0.002856,-0.002869,-0.002880,-0.002851,-0.002820,-0.002807,-0.002779,-0.002756,-0.002712,-0.002681,-0.002648,-0.002646,-0.002657,-0.002669,-0.002703,-0.002723,-0.002785,-0.002817,-0.002830,-0.002853,-0.002830,-0.002860,-0.002882,-0.002880,-0.002929,-0.002936,-0.002889,-0.002867,-0.002885,-0.002900,-0.002930,-0.002962,-0.003000,-0.003044,-0.003107,-0.003176,-0.003254,-0.003325,-0.003405,-0.003455,-0.003481,-0.003399,-0.003335,-0.003297,-0.003328,-0.003377,-0.003425,-0.003469,-0.003543,-0.003653,-0.003771,-0.003855,-0.003896,-0.003941,-0.003972,-0.003992,-0.004023,-0.004048,-0.004037,-0.004024,-0.004075,-0.004119,-0.004071,-0.004043,-0.004066,-0.004047,-0.004022,-0.003978,-0.003927,-0.003921,-0.003901,-0.003878,-0.003838,-0.003841,-0.003847,-0.003869,-0.003892,-0.003902,-0.003907,-0.003923,-0.003953,-0.003945,-0.003919,-0.003892,-0.003829,-0.003817,-0.003849,-0.003851,-0.003864,-0.003816,-0.003790,-0.003821,-0.003812,-0.003779,-0.003796,-0.003840,-0.003890,-0.003949,-0.004031,-0.004131,-0.004239,-0.004323,-0.004423,-0.004538,-0.004598,-0.004565,-0.004595,-0.004622,-0.004674,-0.004753,-0.004848,-0.004943,-0.005030,-0.005118,-0.005186,-0.005223,-0.005240,-0.005242,-0.005211,-0.005184,-0.005201,-0.005198,-0.005185,-0.005229,-0.005246,-0.005272,-0.005266,-0.005242,-0.005246,-0.005194,-0.005137,-0.005091,-0.005073,-0.005084,-0.005074,-0.005037,-0.005016,-0.005020,-0.005020,-0.005025,-0.005048,-0.005056,-0.005064,-0.005091,-0.005074,-0.005072,-0.005096,-0.005109,-0.005086,-0.005017,-0.005005,-0.004994,-0.005004,-0.004998,-0.005004,-0.005044,-0.005071,-0.005081,-0.005124,-0.005193,-0.005263,-0.005328,-0.005389,-0.005467,-0.005542,-0.005588,-0.005628,-0.005679,-0.005651,-0.005634,-0.005701,-0.005766,-0.005815,-0.005860,-0.005904,-0.005961,-0.006026,-0.006082,-0.006125,-0.006161,-0.006192,-0.006192,-0.006156,-0.006123,-0.006128,-0.006107,-0.006113,-0.006103,-0.006109,-0.006124,-0.006160,-0.006183,-0.006180,-0.006141,-0.006126,-0.006122,-0.006117,-0.006114,-0.006115,-0.006096,-0.006120,-0.006170,-0.006218,-0.006277,-0.006319,-0.006347,-0.006361,-0.006363,-0.006392,-0.006455,-0.006480,-0.006495,-0.006458,-0.006369,-0.006302,-0.006248,-0.006228,-0.006177,-0.006180,-0.006222,-0.006240,-0.006215,-0.006201,-0.006228,-0.006264,-0.006314,-0.006368,-0.006420,-0.006436,-0.006496,-0.006523,-0.006522,-0.006514,-0.006546,-0.006617,-0.006685,-0.006749,-0.006815,-0.006879,-0.006939,-0.006996,-0.007053,-0.007081,-0.007082,-0.007085,-0.007074,-0.007055,-0.007041,-0.007026,-0.006997,-0.006969,-0.006936,-0.006908,-0.006899,-0.006885,-0.006909,-0.006885,-0.006835,-0.006825,-0.006813,-0.006789,-0.006759,-0.006750,-0.006740,-0.006743,-0.006788,-0.006849,-0.006903,-0.006954,-0.006998,-0.006968,-0.006963,-0.006975,-0.006951,-0.006931,-0.006868,-0.006821,-0.006805,-0.006760,-0.006696,-0.006651,-0.006599,-0.006631,-0.006655,-0.006685,-0.006737,-0.006768,-0.006788,-0.006846,-0.006933,-0.007009,-0.007046,-0.007013,-0.007069,-0.007109,-0.007144,-0.007215,-0.007292,-0.007361,-0.007419,-0.007467,-0.007524,-0.007582,-0.007623,-0.007646,-0.007668,-0.007667,-0.007642,-0.007600,-0.007553,-0.007501,-0.007463,-0.007391,-0.007371,-0.007348,-0.007334,-0.007334,-0.007299,-0.007238,-0.007224,-0.007178,-0.007154,-0.007144,-0.007114,-0.007091,-0.007077,-0.007083,-0.007121,-0.007152,-0.007186,-0.007264,-0.007334,-0.007390,-0.007431,-0.007442,-0.007493,-0.007495,-0.007465,-0.007482,-0.007488,-0.007475,-0.007501,-0.007544,-0.007518,-0.007503,-0.007494,-0.007603,-0.007707,-0.007798,-0.007900,-0.007994,-0.008070,-0.008160,-0.008262,-0.008329,-0.008364,-0.008402,-0.008423,-0.008402,-0.008439,-0.008494,-0.008536,-0.008588,-0.008627,-0.008652,-0.008667,-0.008673,-0.008673,-0.008663,-0.008645,-0.008581,-0.008477,-0.008411,-0.008352,-0.008296,-0.008258,-0.008170,-0.008145,-0.008133,-0.008132,-0.008161,-0.008168,-0.008190,-0.008254,-0.008286,-0.008282,-0.008296,-0.008344,-0.008364,-0.008367,-0.008382,-0.008419,-0.008461,-0.008494,-0.008593,-0.008703,-0.008793,-0.008806,-0.008842,-0.008917,-0.008954,-0.008987,-0.009050,-0.009102,-0.009141,-0.009174,-0.009251,-0.009285,-0.009280,-0.009318,-0.009391,-0.009487,-0.009588,-0.009651,-0.009720,-0.009792,-0.009876,-0.009941,-0.009951,-0.009960,-0.009975,-0.009974,-0.009975,-0.010009,-0.010046,-0.010090,-0.010120,-0.010115,-0.010066,-0.010025,-0.009987,-0.009951,-0.009933,-0.009931,-0.009854,-0.009699,-0.009652,-0.009604,-0.009558,-0.009503,-0.009437,-0.009430,-0.009407,-0.009386,-0.009390,-0.009424,-0.009455,-0.009546,-0.009570,-0.009567,-0.009624,-0.009630,-0.009629,-0.009606,-0.009601,-0.009600,-0.009587,-0.009614,-0.009695,-0.009787,-0.009860,-0.009896,-0.009996,-0.010083,-0.010152,-0.010229,-0.010320,-0.010384,-0.010403,-0.010440,-0.010527,-0.010549,-0.010483,-0.010509,-0.010582,-0.010647,-0.010703,-0.010748,-0.010791,-0.010829,-0.010875,-0.010914,-0.010932,-0.010953,-0.010961,-0.010989,-0.011046,-0.011093,-0.011153,-0.011215,-0.011260,-0.011276,-0.011276,-0.011286,-0.011279,-0.011346,-0.011446,-0.011511,-0.011597,-0.011626,-0.011620,-0.011603,-0.011588,-0.011549,-0.011523,-0.011532,-0.011576,-0.011603,-0.011622,-0.011664,-0.011719,-0.011727,-0.011654,-0.011613,-0.011590,-0.011544,-0.011431,-0.011326,-0.011232,-0.011158,-0.011071,-0.010965,-0.010877,-0.010804,-0.010733,-0.010672,-0.010674,-0.010636,-0.010593,-0.010539,-0.010492,-0.010439,-0.010400,-0.010386,-0.010418,-0.010383,-0.010297,-0.010282,-0.010295,-0.010296,-0.010311,-0.010324,-0.010354,-0.010401,-0.010437,-0.010493,-0.010548,-0.010597,-0.010677,-0.010736,-0.010782,-0.010846,-0.010923,-0.010983,-0.011022,-0.011020,-0.011018,-0.011003,-0.011076,-0.011151,-0.011114,-0.011076,-0.011116,-0.011137,-0.011097,-0.011056,-0.011025,-0.010977,-0.010954,-0.010960,-0.011063,-0.011167,-0.011269,-0.011353,-0.011403,-0.011393,-0.011329,-0.011263,-0.011195,-0.011068,-0.010952,-0.010915,-0.010927,-0.010990,-0.011032,-0.011002,-0.010910,-0.010778,-0.010638,-0.010492,-0.010384,-0.010259,-0.010139,-0.010023,-0.009915,-0.009829,-0.009740,-0.009664,-0.009611,-0.009492,-0.009394,-0.009349,-0.009321,-0.009296,-0.009273,-0.009244,-0.009237,-0.009255,-0.009263,-0.009262,-0.009292,-0.009315,-0.009360,-0.009390,-0.009430,-0.009493,-0.009533,-0.009577,-0.009601,-0.009600,-0.009602,-0.009656,-0.009720,-0.009649,-0.009641,-0.009604,-0.009515,-0.009497,-0.009439,-0.009386,-0.009343,-0.009304,-0.009301,-0.009306,-0.009375,-0.009501,-0.009657,-0.009761,-0.009783,-0.009778,-0.009746,-0.009697,-0.009623,-0.009567,-0.009632,-0.009662,-0.009652,-0.009664,-0.009703,-0.009783,-0.009858,-0.009835,-0.009736,-0.009600,-0.009528,-0.009494,-0.009394,-0.009295,-0.009219,-0.009137,-0.009093,-0.009019,-0.008943,-0.008812,-0.008693,-0.008618,-0.008544,-0.008468,-0.008398,-0.008356,-0.008333,-0.008297,-0.008251,-0.008187,-0.008127,-0.008066,-0.007990,-0.007949,-0.007939,-0.007925,-0.007945,-0.007985,-0.008035,-0.008088,-0.008122,-0.008216,-0.008203,-0.008219,-0.008238,-0.008287,-0.008242,-0.008203,-0.008193,-0.008181,-0.008163,-0.008162,-0.008192,-0.008251,-0.008300,-0.008382,-0.008465,-0.008501,-0.008496,-0.008490,-0.008468,-0.008410,-0.008359,-0.008420,-0.008400,-0.008301,-0.008249,-0.008202,-0.008149,-0.008181,-0.008256,-0.008342,-0.008303,-0.008192,-0.008113,-0.008116,-0.008054,-0.007986,-0.007944,-0.007913,-0.007901,-0.007864,-0.007784,-0.007673,-0.007563,-0.007466,-0.007345,-0.007231,-0.007118,-0.007015,-0.006923,-0.006829,-0.006745,-0.006661,-0.006558,-0.006464,-0.006364,-0.006279,-0.006181,-0.006093,-0.006072,-0.006067,-0.006105,-0.006163,-0.006215,-0.006276,-0.006306,-0.006350,-0.006354,-0.006362,-0.006384,-0.006320,-0.006343,-0.006371,-0.006399,-0.006471,-0.006562,-0.006710,-0.006831,-0.006958,-0.007066,-0.007113,-0.007140,-0.007170,-0.007152,-0.007079,-0.007131,-0.007144,-0.007096,-0.007125,-0.007153,-0.007228,-0.007235,-0.007164,-0.007210,-0.007319,-0.007373,-0.007297,-0.007174,-0.007109,-0.007070,-0.007039,-0.007032,-0.007025,-0.007016,-0.006970,-0.006899,-0.006835,-0.006778,-0.006682,-0.006568,-0.006472,-0.006355,-0.006199,-0.006030,-0.005900,-0.005801,-0.005688,-0.005602,-0.005521,-0.005448,-0.005371,-0.005294,-0.005234,-0.005171,-0.005131,-0.005113,-0.005119,-0.005236,-0.005289,-0.005363,-0.005420,-0.005446,-0.005504,-0.005577,-0.005549,-0.005570,-0.005595,-0.005618,-0.005690,-0.005772,-0.005866,-0.005934,-0.006017,-0.006130,-0.006189,-0.006207,-0.006221,-0.006190,-0.006184,-0.006249,-0.006203,-0.006243,-0.006263,-0.006249,-0.006246,-0.006297,-0.006301,-0.006272,-0.006372,-0.006465,-0.006399,-0.006263,-0.006143,-0.006043,-0.005966,-0.005923,-0.005881,-0.005788,-0.005703,-0.005642,-0.005574,-0.005499,-0.005417,-0.005323,-0.005221,-0.005132,-0.005047,-0.004941,-0.004850,-0.004779,-0.004706,-0.004655,-0.004585,-0.004504,-0.004422,-0.004359,-0.004297,-0.004252,-0.004223,-0.004194,-0.004153,-0.004258,-0.004252,-0.004311,-0.004373,-0.004409,-0.004434,-0.004450,-0.004381,-0.004342,-0.004325,-0.004298,-0.004251,-0.004260,-0.004309,-0.004349,-0.004409,-0.004494,-0.004560,-0.004551,-0.004522,-0.004442,-0.004495,-0.004503,-0.004485,-0.004532,-0.004507,-0.004441,-0.004436,-0.004442,-0.004459,-0.004391,-0.004417,-0.004495,-0.004429,-0.004267,-0.004121,-0.003972,-0.003844,-0.003726,-0.003602,-0.003500,-0.003424,-0.003372,-0.003335,-0.003285,-0.003224,-0.003140,-0.003071,-0.003027,-0.003016,-0.003010,-0.002980,-0.002980,-0.002990,-0.003011,-0.002983,-0.002925,-0.002892,-0.002838,-0.002750,-0.002691,-0.002614,-0.002562,-0.002576,-0.002666,-0.002631,-0.002638,-0.002672,-0.002674,-0.002647,-0.002580,-0.002470,-0.002387,-0.002318,-0.002250,-0.002229,-0.002287,-0.002334,-0.002377,-0.002433,-0.002504,-0.002574,-0.002543,-0.002477,-0.002406,-0.002480,-0.002455,-0.002444,-0.002416,-0.002354,-0.002251,-0.002186,-0.002200,-0.002201,-0.002090,-0.002099,-0.002168,-0.002113,-0.002003,-0.001884,-0.001788,-0.001676,-0.001575,-0.001489,-0.001401,-0.001350,-0.001316,-0.001286,-0.001243,-0.001195,-0.001151,-0.001134,-0.001108,-0.001101,-0.001092,-0.001078,-0.001079,-0.001059,-0.001058,-0.001026,-0.000956,-0.000914,-0.000852,-0.000806,-0.000772,-0.000754,-0.000750,-0.000790,-0.000841,-0.000841,-0.000777,-0.000760,-0.000759,-0.000717,-0.000602,-0.000509,-0.000547,-0.000566,-0.000553,-0.000568,-0.000614,-0.000634,-0.000657,-0.000684,-0.000705,-0.000716,-0.000662,-0.000608,-0.000630,-0.000703,-0.000633,-0.000607,-0.000580,-0.000552,-0.000521,-0.000497,-0.000446,-0.000411,-0.000265,-0.000267,-0.000325,-0.000292,-0.000229,-0.000149,-0.000083,-0.000020,0.000040,0.000100,0.000162,0.000206,0.000223,0.000253,0.000267,0.000286,0.000304,0.000299,0.000279,0.000251,0.000255,0.000258,0.000264,0.000275,0.000304,0.000328,0.000392,0.000451,0.000494,0.000533,0.000545,0.000544,0.000519,0.000457,0.000379,0.000329,0.000413,0.000450,0.000449,0.000524,0.000627,0.000631,0.000567,0.000510,0.000440,0.000366,0.000307,0.000267,0.000257,0.000265,0.000266,0.000265,0.000293,0.000329,0.000320,0.000267,0.000354,0.000406,0.000471,0.000557,0.000607,0.000690,0.000779,0.000889,0.001062,0.001069,0.001070,0.001120,0.001195,0.001261,0.001315,0.001358,0.001418,0.001466,0.001527,0.001544,0.001580,0.001602,0.001598,0.001584,0.001577,0.001555,0.001515,0.001468,0.001437,0.001400,0.001363,0.001309,0.001291,0.001309,0.001354,0.001395,0.001409,0.001425,0.001430,0.001418,0.001393,0.001345,0.001284,0.001212,0.001231,0.001321,0.001423,0.001519,0.001520,0.001453,0.001404,0.001369,0.001312,0.001258,0.001222,0.001204,0.001193,0.001179,0.001207,0.001236,0.001276,0.001289,0.001289,0.001263,0.001356,0.001500,0.001568,0.001664,0.001743,0.001777,0.001919,0.002068,0.002193,0.002204,0.002212,0.002237,0.002266,0.002266,0.002264,0.002272,0.002286,0.002314,0.002308,0.002290,0.002282,0.002269,0.002217,0.002163,0.002111,0.002051,0.001996,0.001959,0.001916,0.001885,0.001849,0.001812,0.001787,0.001779,0.001775,0.001778,0.001771,0.001763,0.001714,0.001652,0.001610,0.001552,0.001473,0.001395,0.001321,0.001290,0.001280,0.001231,0.001124,0.001044,0.000950,0.000897,0.000837,0.000786,0.000755,0.000737,0.000759,0.000803,0.000854,0.000884,0.000882,0.000900,0.000886,0.000859,0.000874,0.001026,0.001126,0.001156,0.001210,0.001297,0.001429,0.001576,0.001603,0.001558,0.001521,0.001482,0.001420,0.001345,0.001266,0.001184,0.001110,0.001049,0.000992,0.000918,0.000862,0.000785,0.000690,0.000591,0.000492,0.000394,0.000309,0.000261,0.000228,0.000223,0.000207,0.000178,0.000169,0.000148,0.000167,0.000196,0.000239,0.000285,0.000258,0.000238,0.000231,0.000201,0.000141,0.000136,0.000119,0.000090,0.000074,0.000038,-0.000002,-0.000041,-0.000173,-0.000268,-0.000342,-0.000389,-0.000402,-0.000387,-0.000338,-0.000271,-0.000217,-0.000172,-0.000163,-0.000114,-0.000132,-0.000190,-0.000278,-0.000275,-0.000173,-0.000098,0.000011,0.000115,0.000205,0.000208,0.000135,0.000044,-0.000044,-0.000134,-0.000229,-0.000319,-0.000417,-0.000518,-0.000621,-0.000698,-0.000772,-0.000813,-0.000847,-0.000864,-0.000889,-0.000944,-0.000981,-0.000991,-0.000994,-0.000973,-0.000933,-0.000886,-0.000866,-0.000851,-0.000815,-0.000741,-0.000659,-0.000582,-0.000487,-0.000406,-0.000345,-0.000310,-0.000287,-0.000280,-0.000256,-0.000219,-0.000209,-0.000204,-0.000171,-0.000163,-0.000166,-0.000183,-0.000300,-0.000400,-0.000486,-0.000560,-0.000607,-0.000642,-0.000665,-0.000675,-0.000703,-0.000732,-0.000784,-0.000836,-0.000910,-0.001016,-0.001111,-0.001194,-0.001225,-0.001164,-0.001085,-0.001030,-0.001067,-0.001142,-0.001175,-0.001225,-0.001272,-0.001311,-0.001338,-0.001357,-0.001383,-0.001426,-0.001461,-0.001482,-0.001470,-0.001419,-0.001377,-0.001335,-0.001320,-0.001332,-0.001338,-0.001306,-0.001260,-0.001220,-0.001168,-0.001119,-0.001070,-0.001020,-0.000958,-0.000882,-0.000818,-0.000755,-0.000715,-0.000666,-0.000626,-0.000608,-0.000590,-0.000571,-0.000565,-0.000540,-0.000532,-0.000539,-0.000552,-0.000560,-0.000593,-0.000622,-0.000725,-0.000810,-0.000902,-0.000998,-0.001093,-0.001195,-0.001288,-0.001354,-0.001420,-0.001466,-0.001515,-0.001577,-0.001670,-0.001610,-0.001735,-0.001822,-0.001939,-0.002038,-0.002118,-0.002198,-0.002274,-0.002342,-0.002401,-0.002441,-0.002484,-0.002534,-0.002566,-0.002579,-0.002572,-0.002564,-0.002546,-0.002529,-0.002512,-0.002498,-0.002484,-0.002475,-0.002463,-0.002439,-0.002419,-0.002405,-0.002381,-0.002351,-0.002316,-0.002277,-0.002239,-0.002208,-0.002182,-0.002159,-0.002140,-0.002123,-0.002109,-0.002098,-0.002087,-0.002076,-0.002067,-0.002064,-0.002066,-0.002071,-0.002079,-0.002087,-0.002095,-0.002103,-0.002112,-0.002122,-0.002137,-0.002155,-0.002170,-0.002180,-0.002187,-0.002191,-0.002186,-0.002171,-0.002152,-0.002130,-0.002107,-0.002087,-0.002067,-0.002048,-0.002027,-0.002064,-0.002085,-0.002113,-0.002141,-0.002165,-0.002201,-0.002241,-0.002264,-0.002278,-0.002319,-0.002364,-0.002382,-0.002380,-0.002378,-0.002382,-0.002381,-0.002383,-0.002389,-0.002396,-0.002396,-0.002395,-0.002391,-0.002380,-0.002366,-0.002355,-0.002342,-0.002328,-0.002311,-0.002291,-0.002268,-0.002245,-0.002234,-0.002225,-0.002216,-0.002209,-0.002204,-0.002201,-0.002199,-0.002197,-0.002195,-0.002195,-0.002199,-0.002203,-0.002207,-0.002209,-0.002212,-0.002217,-0.002226,-0.002234,-0.002222,-0.002213,-0.002203,-0.002189,-0.002178,-0.002168,-0.002153,-0.002131,-0.002112,-0.002091,-0.002068,-0.002042,-0.002011,-0.001979,-0.001947,-0.001988,-0.002024,-0.002060,-0.002094,-0.002120,-0.002153,-0.002194,-0.002227,-0.002261,-0.002283,-0.002330,-0.002393,-0.002425,-0.002475,-0.002529,-0.002536,-0.002513,-0.002504,-0.002489,-0.002484,-0.002485,-0.002481,-0.002475,-0.002462,-0.002452,-0.002436,-0.002415,-0.002390,-0.002363,-0.002340,-0.002320,-0.002297,-0.002278,-0.002256,-0.002237,-0.002220,-0.002207,-0.002197,-0.002189,-0.002182,-0.002176,-0.002175,-0.002175,-0.002179,-0.002182,-0.002184,-0.002186,-0.002188,-0.002190,-0.002196,-0.002201,-0.002204,-0.002204,-0.002202,-0.002202,-0.002199,-0.002192,-0.002185,-0.002180,-0.002178,-0.002175,-0.002169,-0.002165,-0.002169,-0.002221,-0.002260,-0.002286,-0.002313,-0.002345,-0.002369,-0.002389,-0.002425,-0.002468,-0.002483,-0.002489,-0.002543,-0.002598,-0.002656,-0.002691,-0.002701,-0.002685,-0.002673,-0.002648,-0.002650,-0.002664,-0.002657,-0.002648,-0.002638,-0.002632,-0.002621,-0.002608,-0.002594,-0.002580,-0.002565,-0.002549,-0.002537,-0.002529,-0.002517,-0.002505,-0.002493,-0.002482,-0.002477,-0.002477,-0.002477,-0.002476,-0.002472,-0.002474,-0.002482,-0.002491,-0.002500,-0.002502,-0.002496,-0.002487,-0.002483,-0.002479,-0.002476,-0.002472,-0.002467,-0.002463,-0.002458,-0.002452,-0.002439,-0.002427,-0.002414,-0.002398,-0.002380,-0.002370,-0.002373,-0.002413,-0.002442,-0.002463,-0.002494,-0.002543,-0.002588,-0.002632,-0.002695,-0.002745,-0.002752,-0.002773,-0.002834,-0.002828,-0.002793,-0.002761,-0.002727,-0.002722,-0.002736,-0.002745,-0.002776,-0.002813,-0.002815,-0.002810,-0.002812,-0.002810,-0.002798,-0.002785,-0.002776,-0.002766,-0.002752,-0.002733,-0.002721,-0.002714,-0.002706,-0.002697,-0.002688,-0.002679,-0.002674,-0.002678,-0.002682,-0.002684,-0.002680,-0.002680,-0.002688,-0.002701,-0.002714,-0.002723,-0.002725,-0.002723,-0.002715,-0.002709,-0.002705,-0.002705,-0.002708,-0.002713,-0.002717,-0.002722,-0.002724,-0.002720,-0.002711,-0.002694,-0.002676,-0.002665,-0.002668,-0.002731,-0.002774,-0.002818,-0.002870,-0.002918,-0.002965,-0.003004,-0.003021,-0.003075,-0.003094,-0.003081,-0.003085,-0.003076,-0.003063,-0.003053,-0.003046,-0.003059,-0.003087,-0.003097,-0.003106,-0.003114,-0.003109,-0.003105,-0.003101,-0.003098,-0.003087,-0.003071,-0.003054,-0.003040,-0.003028,-0.003019,-0.003005,-0.002996,-0.002992,-0.002987,-0.002978,-0.002964,-0.002955,-0.002954,-0.002957,-0.002957,-0.002960,-0.002964,-0.002968,-0.002972,-0.002975,-0.002977,-0.002976,-0.002977,-0.002967,-0.002959,-0.002955,-0.002955,-0.002958,-0.002963,-0.002971,-0.002980,-0.002991,-0.002999,-0.003003,-0.003001,-0.002996,-0.002997,-0.003009,-0.003081,-0.003137,-0.003201,-0.003269,-0.003332,-0.003390,-0.003426,-0.003431,-0.003435,-0.003415,-0.003383,-0.003384,-0.003408,-0.003454,-0.003511,-0.003568,-0.003612,-0.003665,-0.003702,-0.003719,-0.003727,-0.003709,-0.003674,-0.003658,-0.003647,-0.003637,-0.003624,-0.003606,-0.003589,-0.003575,-0.003560,-0.003544,-0.003529,-0.003519,-0.003508,-0.003495,-0.003480,-0.003472,-0.003479,-0.003490,-0.003499,-0.003520,-0.003539,-0.003556,-0.003568,-0.003576,-0.003583,-0.003587,-0.003594,-0.003598,-0.003604,-0.003617,-0.003637,-0.003660,-0.003686,-0.003716,-0.003746,-0.003770,-0.003792,-0.003813,-0.003832,-0.003853,-0.003881,-0.003919,-0.004003,-0.004094,-0.004167,-0.004232,-0.004308,-0.004384,-0.004448,-0.004506,-0.004566,-0.004622,-0.004655,-0.004706,-0.004788,-0.004866,-0.004918,-0.004963,-0.005012,-0.005074,-0.005135,-0.005197,-0.005268,-0.005317,-0.005341,-0.005362,-0.005376,-0.005383,-0.005386,-0.005400,-0.005428,-0.005459,-0.005489,-0.005529,-0.005579,-0.005631,-0.005686,-0.005736,-0.005778,-0.005816,-0.005854,-0.005884,-0.005902,-0.005922,-0.005939,-0.005954,-0.005971,-0.005990,-0.006014,-0.006044,-0.006084