-0.001823,,-0.001790,-0.001779,-0.001788,-0.001775,-0.001782,-0.001777,-0.001755,-0.001788,-0.001799,-0.001846,-0.001879,-0.001868,-0.001888,-0.001885,-0.001888,-0.001875,-0.001848,-0.001812,-0.001773,-0.001782,-0.001805,-0.001830,-0.001854,-0.001845,-0.001802,-0.001756,-0.001724,-0.001715,-0.001699,-0.001693,-0.001636,-0.001629,-0.001644,-0.001611,-0.001574,-0.001428,-0.001431,-0.001474,-0.001473,-0.001436,-0.001211,-0.001167,-0.001156,-0.001281,-0.001351,-0.001344,-0.001346,-0.001265,-0.001215,-0.001160,-0.001085,-0.001025,-0.000936,-0.000848,-0.000796,-0.000657,-0.000628,-0.000760,-0.001007,-0.001154,-0.001167,-0.001223,-0.001271,-0.001307,-0.001314,-0.001330,-0.001316,-0.001310,-0.001316,-0.001312,-0.001314,-0.001332,-0.001370,-0.001424,-0.001464,-0.001441,-0.001423,-0.001445,-0.001447,-0.001417,-0.001373,-0.001307,-0.001246,-0.001218,-0.001237,-0.001267,-0.001289,-0.001323,-0.001290,-0.001278,-0.001234,-0.001181,-0.001172,-0.001191,-0.001198,-0.001138,-0.001039,-0.001036,-0.001060,-0.001076,-0.000985,-0.000837,-0.000815,-0.000824,-0.000864,-0.000823,-0.000762,-0.000789,-0.000846,-0.000976,-0.000992,-0.000852,-0.000707,-0.000683,-0.000739,-0.000732,-0.000480,-0.000257,-0.000252,-0.000352,-0.000392,-0.000430,-0.000513,-0.000668,-0.000770,-0.000814,-0.000858,-0.000851,-0.000844,-0.000864,-0.000869,-0.000863,-0.000834,-0.000822,-0.000870,-0.000902,-0.000907,-0.000908,-0.000940,-0.000968,-0.000948,-0.000917,-0.000878,-0.000866,-0.000839,-0.000765,-0.000684,-0.000623,-0.000605,-0.000678,-0.000701,-0.000721,-0.000723,-0.000704,-0.000708,-0.000659,-0.000610,-0.000597,-0.000640,-0.000660,-0.000578,-0.000482,-0.000439,-0.000515,-0.000542,-0.000439,-0.000332,-0.000234,-0.000294,-0.000364,-0.000357,-0.000369,-0.000297,-0.000374,-0.000392,-0.000273,-0.000094,0.000027,-0.000101,-0.000148,0.000066,0.000388,0.000567,0.000364,0.000136,0.000070,0.000155,0.000125,-0.000044,-0.000176,-0.000260,-0.000293,-0.000279,-0.000285,-0.000297,-0.000294,-0.000270,-0.000259,-0.000330,-0.000390,-0.000407,-0.000366,-0.000350,-0.000377,-0.000404,-0.000386,-0.000349,-0.000306,-0.000260,-0.000203,-0.000130,-0.000064,-0.000010,-0.000031,-0.000087,-0.000103,-0.000122,-0.000132,-0.000108,-0.000090,-0.000028,0.000013,0.000010,-0.000056,-0.000063,0.000093,0.000205,0.000247,0.000178,0.000163,0.000301,0.000460,0.000591,0.000551,0.000536,0.000501,0.000558,0.000605,0.000589,0.000593,0.000649,0.000783,0.000835,0.000876,0.000903,0.001080,0.001244,0.001230,0.001128,0.000924,0.000810,0.000748,0.000641,0.000541,0.000530,0.000496,0.000479,0.000485,0.000487,0.000485,0.000466,0.000470,0.000443,0.000392,0.000377,0.000393,0.000372,0.000350,0.000324,0.000322,0.000337,0.000372,0.000412,0.000441,0.000493,0.000562,0.000624,0.000670,0.000651,0.000601,0.000569,0.000546,0.000522,0.000492,0.000517,0.000569,0.000642,0.000636,0.000601,0.000710,0.000849,0.000990,0.000989,0.000929,0.001029,0.001194,0.001402,0.001411,0.001349,0.001298,0.001326,0.001460,0.001422,0.001291,0.001206,0.001325,0.001554,0.001628,0.001523,0.001582,0.001730,0.001795,0.001751,0.001440,0.001215,0.001244,0.001299,0.001250,0.001306,0.001362,0.001400,0.001442,0.001488,0.001505,0.001478,0.001497,0.001549,0.001549,0.001554,0.001581,0.001556,0.001537,0.001499,0.001478,0.001483,0.001500,0.001514,0.001512,0.001544,0.001598,0.001631,0.001674,0.001703,0.001672,0.001621,0.001591,0.001531,0.001494,0.001515,0.001557,0.001636,0.001689,0.001677,0.001724,0.001831,0.001949,0.002016,0.001980,0.002030,0.002162,0.002308,0.002386,0.002365,0.002373,0.002383,0.002492,0.002482,0.002382,0.002290,0.002259,0.002451,0.002580,0.002624,0.002661,0.002608,0.002571,0.002624,0.002557,0.002370,0.002183,0.002191,0.002221,0.002303,0.002451,0.002565,0.002677,0.002750,0.002805,0.002799,0.002826,0.002891,0.002920,0.002952,0.002988,0.002968,0.002933,0.002888,0.002867,0.002891,0.002897,0.002916,0.002919,0.002921,0.002954,0.002987,0.003028,0.003053,0.003067,0.003045,0.002971,0.002922,0.002882,0.002895,0.002936,0.003005,0.003070,0.003120,0.003138,0.003208,0.003310,0.003411,0.003484,0.003483,0.003555,0.003673,0.003795,0.003890,0.003943,0.003952,0.003972,0.003956,0.003937,0.003950,0.003928,0.004025,0.004122,0.004228,0.004321,0.004308,0.004255,0.004229,0.004239,0.004043,0.003653,0.003527,0.003563,0.003664,0.003812,0.003972,0.004085,0.004159,0.004271,0.004289,0.004325,0.004346,0.004357,0.004362,0.004355,0.004363,0.004324,0.004268,0.004230,0.004257,0.004297,0.004308,0.004317,0.004312,0.004326,0.004374,0.004393,0.004409,0.004396,0.004392,0.004400,0.004316,0.004248,0.004154,0.004142,0.004228,0.004273,0.004343,0.004330,0.004349,0.004493,0.004553,0.004665,0.004609,0.004653,0.004883,0.004910,0.004943,0.004806,0.004808,0.004933,0.004939,0.004929,0.004848,0.004851,0.005036,0.005149,0.005149,0.005163,0.005137,0.005371,0.005438,0.005268,0.004917,0.004505,0.004502,0.004538,0.004711,0.004760,0.004898,0.005017,0.005127,0.005271,0.005325,0.005321,0.005325,0.005339,0.005365,0.005318,0.005294,0.005324,0.005280,0.005267,0.005259,0.005250,0.005277,0.005300,0.005336,0.005358,0.005369,0.005418,0.005399,0.005426,0.005450,0.005495,0.005480,0.005376,0.005304,0.005237,0.005278,0.005357,0.005365,0.005405,0.005491,0.005584,0.005671,0.005686,0.005731,0.005835,0.006019,0.006117,0.006011,0.005940,0.005939,0.006058,0.006139,0.006060,0.005986,0.005904,0.006034,0.006257,0.006352,0.006350,0.006173,0.006195,0.006258,0.006177,0.006036,0.005609,0.005386,0.005335,0.005454,0.005629,0.005791,0.005993,0.006045,0.006100,0.006168,0.006207,0.006195,0.006137,0.006131,0.006188,0.006216,0.006260,0.006186,0.006138,0.006155,0.006181,0.006228,0.006248,0.006273,0.006325,0.006335,0.006408,0.006442,0.006483,0.006523,0.006513,0.006559,0.006538,0.006510,0.006490,0.006425,0.006468,0.006496,0.006618,0.006775,0.006826,0.006891,0.006895,0.007062,0.007222,0.007289,0.007402,0.007488,0.007602,0.007613,0.007519,0.007584,0.007657,0.007740,0.007685,0.007570,0.007659,0.007826,0.007852,0.007770,0.007517,0.007445,0.007525,0.007459,0.007256,0.006854,0.006598,0.006632,0.006821,0.006967,0.007088,0.007205,0.007268,0.007413,0.007445,0.007412,0.007352,0.007316,0.007466,0.007582,0.007622,0.007507,0.007425,0.007575,0.007729,0.007820,0.007771,0.007722,0.007767,0.007774,0.007792,0.007810,0.007856,0.007932,0.007973,0.008037,0.008030,0.008026,0.008092,0.008079,0.008080,0.008117,0.008165,0.008330,0.008463,0.008596,0.008659,0.008800,0.009006,0.009124,0.009273,0.009369,0.009502,0.009609,0.009635,0.009656,0.009644,0.009718,0.009780,0.009788,0.009794,0.009866,0.010025,0.010022,0.009829,0.009659,0.009626,0.009675,0.009567,0.009413,0.009120,0.008922,0.009046,0.009222,0.009336,0.009455,0.009640,0.009719,0.009769,0.009817,0.009803,0.009798,0.009845,0.009924,0.009937,0.009872,0.009831,0.009890,0.009963,0.009987,0.009865,0.009741,0.009808,0.009902,0.009898,0.009827,0.009788,0.009817,0.009960,0.010012,0.009989,0.009936,0.009900,0.009862,0.009795,0.009818,0.009857,0.010048,0.010196,0.010323,0.010454,0.010575,0.010824,0.011030,0.011221,0.011301,0.011329,0.011403,0.011505,0.011601,0.011651,0.011674,0.011753,0.011817,0.011854,0.011856,0.012034,0.012157,0.012103,0.011910,0.011651,0.011707,0.011820,0.011741,0.011452,0.011153,0.011081,0.011345,0.011628,0.011908,0.012166,0.012294,0.012352,0.012376,0.012400,0.012384,0.012371,0.012364,0.012404,0.012436,0.012453,0.012500,0.012531,0.012561,0.012557,0.012532,0.012600,0.012627,0.012581,0.012549,0.012521,0.012477,0.012482,0.012417,0.012414,0.012426,0.012332,0.012139,0.011918,0.011926,0.011989,0.012073,0.012078,0.011983,0.012060,0.012228,0.012427,0.012522,0.012527,0.012586,0.012600,0.012561,0.012516,0.012465,0.012551,0.012626,0.012656,0.012656,0.012559,0.012519,0.012600,0.012809,0.012978,0.012859,0.012549,0.012371,0.012623,0.012794,0.012723,0.012542,0.012237,0.012253,0.012539,0.012897,0.013188,0.013373,0.013480,0.013492,0.013539,0.013570,0.013556,0.013540,0.013568,0.013562,0.013566,0.013630,0.013666,0.013694,0.013711,0.013723,0.013731,0.013727,0.013690,0.013706,0.013735,0.013682,0.013709,0.013630,0.013582,0.013558,0.013535,0.013619,0.013494,0.013332,0.013224,0.013172,0.013317,0.013228,0.013170,0.013262,0.013370,0.013483,0.013361,0.013310,0.013374,0.013432,0.013519,0.013299,0.013134,0.013168,0.013275,0.013501,0.013365,0.013197,0.013138,0.013219,0.013572,0.013568,0.013390,0.013161,0.013065,0.013358,0.013458,0.013446,0.013305,0.013158,0.013199,0.013307,0.013527,0.013667,0.013833,0.013897,0.013884,0.013854,0.013770,0.013711,0.013674,0.013591,0.013591,0.013618,0.013602,0.013547,0.013473,0.013412,0.013376,0.013313,0.013286,0.013260,0.013264,0.013201,0.013092,0.013048,0.013071,0.013061,0.012990,0.012920,0.012858,0.012765,0.012662,0.012528,0.012420,0.012453,0.012469,0.012541,0.012587,0.012611,0.012562,0.012441,0.012484,0.012506,0.012513,0.012333,0.012128,0.012156,0.012114,0.012116,0.012006,0.011892,0.011790,0.011705,0.011719,0.011714,0.011580,0.011362,0.011174,0.011130,0.011255,0.011222,0.011062,0.010887,0.010762,0.010745,0.010850,0.011059,0.011232,0.011360,0.011400,0.011427,0.011459,0.011482,0.011465,0.011426,0.011456,0.011515,0.011533,0.011509,0.011523,0.011548,0.011661,0.011666,0.011575,0.011477,0.011461,0.011491,0.011428,0.011346,0.011302,0.011258,0.011277,0.011245,0.011223,0.011140,0.011047,0.011011,0.010858,0.010806,0.010769,0.010813,0.010842,0.010786,0.010617,0.010478,0.010451,0.010453,0.010381,0.010099,0.010003,0.010011,0.009989,0.009926,0.009789,0.009811,0.009721,0.009677,0.009555,0.009369,0.009373,0.009268,0.009188,0.008988,0.008877,0.009041,0.009015,0.008891,0.008677,0.008412,0.008500,0.008625,0.008810,0.008863,0.008959,0.009033,0.008997,0.009139,0.009098,0.009014,0.009019,0.009075,0.009173,0.009109,0.009186,0.009228,0.009312,0.009306,0.009309,0.009358,0.009416,0.009546,0.009604,0.009672,0.009728,0.009792,0.009837,0.009851,0.009781,0.009777,0.009804,0.009819,0.009762,0.009616,0.009535,0.009537,0.009546,0.009564,0.009420,0.009289,0.009213,0.009227,0.009214,0.009022,0.008865,0.008791,0.008838,0.008767,0.008616,0.008609,0.008693,0.008599,0.008341,0.008026,0.007994,0.008149,0.008041,0.007700,0.007335,0.007424,0.007828,0.007955,0.007781,0.007413,0.007175,0.007338,0.007590,0.007779,0.007797,0.007824,0.007873,0.007985,0.008034,0.007958,0.008029,0.008147,0.008291,0.008235,0.008178,0.008183,0.008286,0.008398,0.008413,0.008344,0.008310,0.008439,0.008553,0.008638,0.008708,0.008747,0.008840,0.008954,0.008978,0.008953,0.008947,0.008978,0.008982,0.008954,0.008904,0.008886,0.008881,0.008918,0.008863,0.008803,0.008685,0.008750,0.008823,0.008724,0.008512,0.008333,0.008426,0.008486,0.008526,0.008391,0.008256,0.008110,0.008098,0.008000,0.007854,0.007810,0.007760,0.007681,0.007497,0.007472,0.007669,0.007973,0.007993,0.007828,0.007511,0.007346,0.007624,0.007884,0.008071,0.008157,0.008098,0.008112,0.008301,0.008421,0.008402,0.008403,0.008486,0.008527,0.008587,0.008556,0.008613,0.008720,0.008782,0.008742,0.008610,0.008609,0.008664,0.008726,0.008769,0.008639,0.008558,0.008595,0.008666,0.008712,0.008686,0.008683,0.008620,0.008600,0.008536,0.008448,0.008416,0.008357,0.008277,0.008182,0.008121,0.008166,0.008187,0.008154,0.008031,0.007996,0.008074,0.008111,0.008132,0.007925,0.007743,0.007634,0.007741,0.007750,0.007592,0.007437,0.007351,0.007530,0.007550,0.007469,0.007346,0.007403,0.007778,0.007783,0.007514,0.007194,0.007127,0.007350,0.007591,0.007641,0.007535,0.007618,0.007825,0.007921,0.007875,0.007838,0.007882,0.007964,0.008014,0.007929,0.007865,0.007878,0.007906,0.007827,0.007681,0.007640,0.007584,0.007612,0.007611,0.007564,0.007580,0.007556,0.007629,0.007666,0.007729,0.007759,0.007750,0.007761,0.007649,0.007518,0.007523,0.007530,0.007538,0.007447,0.007429,0.007441,0.007452,0.007471,0.007353,0.007335,0.007314,0.007230,0.007169,0.006973,0.006814,0.006704,0.006655,0.006664,0.006501,0.006306,0.006153,0.006153,0.006322,0.006311,0.006208,0.006034,0.006172,0.006355,0.006288,0.006248,0.005999,0.005768,0.005806,0.005947,0.006129,0.006279,0.006478,0.006511,0.006494,0.006550,0.006598,0.006615,0.006570,0.006506,0.006536,0.006574,0.006568,0.006481,0.006413,0.006489,0.006539,0.006602,0.006591,0.006608,0.006765,0.006849,0.006940,0.006936,0.006943,0.006934,0.006954,0.006945,0.006870,0.006766,0.006707,0.006687,0.006692,0.006674,0.006619,0.006580,0.006542,0.006542,0.006456,0.006342,0.006270,0.006190,0.006125,0.005966,0.005735,0.005685,0.005653,0.005643,0.005416,0.005079,0.005021,0.005004,0.005102,0.005109,0.004985,0.004884,0.004764,0.004809,0.004972,0.004974,0.004856,0.004540,0.004360,0.004526,0.004689,0.004907,0.005071,0.005250,0.005247,0.005292,0.005390,0.005403,0.005398,0.005388,0.005436,0.005514,0.005565,0.005603,0.005541,0.005484,0.005566,0.005646,0.005693,0.005620,0.005550,0.005624,0.005669,0.005717,0.005645,0.005518,0.005408,0.005235,0.005107,0.004958,0.004756,0.004606,0.004472,0.004461,0.004396,0.004326,0.004280,0.004275,0.004349,0.004290,0.004249,0.004260,0.004324,0.004361,0.004339,0.004378,0.004360,0.004334,0.004186,0.003989,0.003901,0.003848,0.003802,0.003715,0.003601,0.003457,0.003250,0.003195,0.003403,0.003528,0.003379,0.003189,0.002914,0.002722,0.002868,0.003068,0.003244,0.003370,0.003435,0.003438,0.003473,0.003524,0.003477,0.003426,0.003357,0.003308,0.003315,0.003294,0.003268,0.003132,0.003066,0.003052,0.003026,0.002984,0.002911,0.002911,0.002889,0.002895,0.002914,0.002918,0.002909,0.002798,0.002707,0.002671,0.002632,0.002592,0.002501,0.002514,0.002546,0.002531,0.002653,0.002669,0.002665,0.002637,0.002562,0.002663,0.002780,0.002802,0.002929,0.002990,0.003035,0.002915,0.002689,0.002536,0.002361,0.002331,0.002145,0.001823,0.001632,0.001483,0.001364,0.001231,0.001255,0.001442,0.001395,0.001316,0.001156,0.000940,0.000881,0.000922,0.000985,0.001010,0.001147,0.001250,0.001228,0.001186,0.001060,0.001043,0.001091,0.001136,0.001147,0.001104,0.001158,0.001249,0.001312,0.001338,0.001263,0.001252,0.001334,0.001472,0.001544,0.001540,0.001506,0.001490,0.001535,0.001505,0.001420,0.001283,0.001287,0.001327,0.001256,0.001156,0.001037,0.001041,0.001208,0.001201,0.001140,0.000886,0.000643,0.000675,0.000910,0.001146,0.001207,0.001187,0.001166,0.001242,0.001339,0.001382,0.001369,0.001274,0.001133,0.001000,0.000917,0.000986,0.000928,0.000786,0.000696,0.000742,0.000866,0.000868,0.000781,0.000610,0.000454,0.000438,0.000509,0.000582,0.000567,0.000548,0.000559,0.000577,0.000614,0.000596,0.000566,0.000606,0.000688,0.000742,0.000748,0.000776,0.000874,0.001016,0.001108,0.001039,0.001050,0.001170,0.001269,0.001324,0.001247,0.001175,0.001172,0.001222,0.001208,0.001028,0.000933,0.001026,0.001006,0.000940,0.000793,0.000823,0.000970,0.000947,0.000917,0.000751,0.000657,0.000731,0.000904,0.001070,0.001118,0.001145,0.001264,0.001447,0.001478,0.001439,0.001448,0.001465,0.001446,0.001327,0.001201,0.001157,0.001193,0.001200,0.001130,0.001015,0.001032,0.001162,0.001231,0.001111,0.000847,0.000729,0.000781,0.000846,0.000837,0.000845,0.000917,0.000925,0.000953,0.000924,0.000891,0.000872,0.000905,0.000942,0.000898,0.000847,0.000891,0.000962,0.001013,0.000930,0.000890,0.000971,0.001080,0.001169,0.001170,0.001207,0.001280,0.001283,0.001228,0.001086,0.001077,0.001247,0.001273,0.001134,0.000926,0.000858,0.000959,0.000905,0.000790,0.000564,0.000417,0.000459,0.000547,0.000578,0.000539,0.000509,0.000615,0.000698,0.000656,0.000610,0.000580,0.000596,0.000597,0.000522,0.000428,0.000323,0.000289,0.000310,0.000338,0.000278,0.000203,0.000249,0.000368,0.000453,0.000376,0.000249,0.000244,0.000349,0.000452,0.000519,0.000562,0.000615,0.000710,0.000743,0.000825,0.000854,0.000847,0.000883,0.000905,0.000950,0.001032,0.001101,0.001154,0.001169,0.001297,0.001493,0.001651,0.001712,0.001675,0.001705,0.001745,0.001701,0.001600,0.001487,0.001521,0.001589,0.001442,0.001228,0.001002,0.001014,0.001157,0.001059,0.000792,0.000496,0.000429,0.000519,0.000565,0.000485,0.000391,0.000413,0.000501,0.000504,0.000437,0.000461,0.000558,0.000649,0.000674,0.000665,0.000624,0.000607,0.000581,0.000575,0.000648,0.000753,0.000713,0.000661,0.000621,0.000721,0.000857,0.000866,0.000799,0.000686,0.000668,0.000722,0.000831,0.000911,0.000842,0.000853,0.000894,0.000913,0.000828,0.000804,0.000789,0.000838,0.000956,0.000951,0.000891,0.000808,0.000904,0.001123,0.001290,0.001397,0.001430,0.001504,0.001565,0.001548,0.001438,0.001338,0.001294,0.001301,0.001119,0.000883,0.000681,0.000707,0.000817,0.000673,0.000407,0.000180,0.000219,0.000250,0.000203,0.000107,0.000033,0.000088,0.000138,0.000147,0.000185,0.000247,0.000360,0.000462,0.000472,0.000468,0.000478,0.000519,0.000486,0.000483,0.000476,0.000504,0.000461,0.000358,0.000240,0.000287,0.000440,0.000470,0.000338,0.000211,0.000214,0.000295,0.000330,0.000346,0.000329,0.000295,0.000337,0.000426,0.000542,0.000573,0.000586,0.000656,0.000763,0.000785,0.000724,0.000688,0.000735,0.000826,0.000868,0.000952,0.001029,0.001065,0.001100,0.001129,0.001170,0.001196,0.001226,0.001196,0.001080,0.000927,0.000892,0.000947,0.000895,0.000692,0.000465,0.000363,0.000316,0.000148,-0.000080,-0.000189,-0.000182,-0.000223,-0.000230,-0.000283,-0.000357,-0.000429,-0.000356,-0.000290,-0.000344,-0.000373,-0.000373,-0.000331,-0.000395,-0.000538,-0.000669,-0.000714,-0.000683,-0.000717,-0.000818,-0.000828,-0.000788,-0.000734,-0.000740,-0.000744,-0.000676,-0.000581,-0.000615,-0.000669,-0.000519,-0.000332,-0.000252,-0.000290,-0.000280,-0.000308,-0.000254,-0.000141,-0.000012,0.000091,0.000136,0.000212,0.000257,0.000373,0.000513,0.000636,0.000670,0.000608,0.000560,0.000539,0.000570,0.000536,0.000548,0.000509,0.000463,0.000470,0.000539,0.000625,0.000643,0.000582,0.000516,0.000468,0.000369,0.000217,-0.000003,-0.000152,-0.000272,-0.000432,-0.000506,-0.000549,-0.000671,-0.000832,-0.000889,-0.000940,-0.001031,-0.001089,-0.001142,-0.001157,-0.001179,-0.001279,-0.001336,-0.001331,-0.001230,-0.001063,-0.001001,-0.000962,-0.001079,-0.001105,-0.001001,-0.000934,-0.000914,-0.001098,-0.001213,-0.001289,-0.001173,-0.000778,-0.000665,-0.000867,-0.001058,-0.001156,-0.001148,-0.001120,-0.001099,-0.001117,-0.001104,-0.001007,-0.001019,-0.000976,-0.000858,-0.000723,-0.000605,-0.000492,-0.000347,-0.000246,-0.000224,-0.000282,-0.000331,-0.000245,-0.000202,-0.000233,-0.000293,-0.000272,-0.000105,0.000016,0.000069,0.000006,-0.000088,-0.000051,-0.000014,-0.000004,-0.000103,-0.000318,-0.000470,-0.000483,-0.000537,-0.000549,-0.000590,-0.000699,-0.000810,-0.000945,-0.001045,-0.001178,-0.001230,-0.001198,-0.001235,-0.001268,-0.001388,-0.001358,-0.001226,-0.001146,-0.001175,-0.001443,-0.001394,-0.001181,-0.001178,-0.001484,-0.001784,-0.001625,-0.001513,-0.001479,-0.001528,-0.001579,-0.001554,-0.001604,-0.001624,-0.001611,-0.001637,-0.001679,-0.001688,-0.001566,-0.001525,-0.001500,-0.001471,-0.001493,-0.001462,-0.001339,-0.001131,-0.000912,-0.000798,-0.000757,-0.000721,-0.000683,-0.000652,-0.000697,-0.000818,-0.000808,-0.000699,-0.000574,-0.000509,-0.000452,-0.000401,-0.000362,-0.000241,-0.000197,-0.000260,-0.000382,-0.000537,-0.000570,-0.000582,-0.000606,-0.000757,-0.000927,-0.000914,-0.000968,-0.000993,-0.001141,-0.001329,-0.001362,-0.001400,-0.001351,-0.001434,-0.001614,-0.001642,-0.001530,-0.001437,-0.001591,-0.002046,-0.002064,-0.001801,-0.001766,-0.002041,-0.002348,-0.002265,-0.002057,-0.001821,-0.001556,-0.001524,-0.001730,-0.001742,-0.001589,-0.001486,-0.001555,-0.001785,-0.001720,-0.001528,-0.001469,-0.001507,-0.001516,-0.001532,-0.001624,-0.001421,-0.001266,-0.001228,-0.001248,-0.001242,-0.001087,-0.001058,-0.001094,-0.001259,-0.001462,-0.001447,-0.001500,-0.001514,-0.001489,-0.001505,-0.001457,-0.001494,-0.001371,-0.001405,-0.001553,-0.001702,-0.001940,-0.001993,-0.002100,-0.002207,-0.002345,-0.002444,-0.002279,-0.002252,-0.002261,-0.002458,-0.002595,-0.002497,-0.002497,-0.002480,-0.002751,-0.002915,-0.002712,-0.002512,-0.002462,-0.002845,-0.003046,-0.002812,-0.002541,-0.002606,-0.002894,-0.003041,-0.002963,-0.002977,-0.002858,-0.002860,-0.002861,-0.002762,-0.002825,-0.002835,-0.002723,-0.002630,-0.002477,-0.002673,-0.002777,-0.002673,-0.002454,-0.002223,-0.002231,-0.002253,-0.002506,-0.002562,-0.002422,-0.002202,-0.002116,-0.002417,-0.002596,-0.002619,-0.002578,-0.002529,-0.002699,-0.002861,-0.002995,-0.002968,-0.002880,-0.002815,-0.002654,-0.002530,-0.002503,-0.002544,-0.002637,-0.002679,-0.002742,-0.002724,-0.002792,-0.002928,-0.002888,-0.002838,-0.002778,-0.002816,-0.002846,-0.002789,-0.002827,-0.002847,-0.002970,-0.003012,-0.003059,-0.003105,-0.002992,-0.002972,-0.002953,-0.003064,-0.003149,-0.003239,-0.003459,-0.003619,-0.003575,-0.003517,-0.003551,-0.003692,-0.003637,-0.003486,-0.003413,-0.003550,-0.003650,-0.003562,-0.003343,-0.003262,-0.003349,-0.003376,-0.003325,-0.003150,-0.003055,-0.003043,-0.003225,-0.003384,-0.003169,-0.003036,-0.002965,-0.003185,-0.003392,-0.003414,-0.003368,-0.003352,-0.003490,-0.003619,-0.003807,-0.003815,-0.003852,-0.003856,-0.003842,-0.003738,-0.003634,-0.003645,-0.003679,-0.003754,-0.003776,-0.003690,-0.003748,-0.003861,-0.004003,-0.004020,-0.003946,-0.003905,-0.003915,-0.003975,-0.004059,-0.003969,-0.003766,-0.003776,-0.003907,-0.004031,-0.004030,-0.003986,-0.004166,-0.004309,-0.004528,-0.004622,-0.004727,-0.004852,-0.004784,-0.004734,-0.004690,-0.004833,-0.004829,-0.004750,-0.004648,-0.004505,-0.004511,-0.004540,-0.004444,-0.004365,-0.004276,-0.004212,-0.004156,-0.003987,-0.004127,-0.004370,-0.004482,-0.004335,-0.004113,-0.004174,-0.004227,-0.004297,-0.004246,-0.004134,-0.004178,-0.004354,-0.004537,-0.004596,-0.004605,-0.004598,-0.004736,-0.004886,-0.004911,-0.004719,-0.004666,-0.004710,-0.004854,-0.004903,-0.004804,-0.004746,-0.004756,-0.004698,-0.004616,-0.004737,-0.004835,-0.004924,-0.004879,-0.004929,-0.005223,-0.005281,-0.005124,-0.005100,-0.005104,-0.005141,-0.005243,-0.005117,-0.005063,-0.005174,-0.005405,-0.005651,-0.005579,-0.005507,-0.005557,-0.005565,-0.005476,-0.005393,-0.005406,-0.005456,-0.005520,-0.005421,-0.005192,-0.005170,-0.005131,-0.005146,-0.005308,-0.005400,-0.005330,-0.005197,-0.005408,-0.005686,-0.005779,-0.005623,-0.005376,-0.005371,-0.005545,-0.005728,-0.005732,-0.005657,-0.005676,-0.005747,-0.005785,-0.005808,-0.005791,-0.005813,-0.005858,-0.005880,-0.005791,-0.005710,-0.005798,-0.005889,-0.005951,-0.005792,-0.005633,-0.005833,-0.006112,-0.006227,-0.005925,-0.005530,-0.005431,-0.005774,-0.006224,-0.006381,-0.006205,-0.005912,-0.005899,-0.006124,-0.006427,-0.006553,-0.006590,-0.006538,-0.006435,-0.006545,-0.006710,-0.006735,-0.006551,-0.006263,-0.006185,-0.006154,-0.006226,-0.006170,-0.006055,-0.006095,-0.006218,-0.006501,-0.006627,-0.006671,-0.006688,-0.006552,-0.006577,-0.006642,-0.006780,-0.006818,-0.006824,-0.006780,-0.006708,-0.006646,-0.006547,-0.006575,-0.006611,-0.006600,-0.006669,-0.006732,-0.006816,-0.006828,-0.006843,-0.006854,-0.006861,-0.007045,-0.007093,-0.007110,-0.007067,-0.007089,-0.007223,-0.007279,-0.007327,-0.007252,-0.007201,-0.007372,-0.007525,-0.007672,-0.007580,-0.007324,-0.007238,-0.007268,-0.007513,-0.007608,-0.007396,-0.007209,-0.007041,-0.006948,-0.006880,-0.006933,-0.006943,-0.006987,-0.006897,-0.006589,-0.006554,-0.006729,-0.006884,-0.006742,-0.006516,-0.006457,-0.006616,-0.006787,-0.006905,-0.006872,-0.006956,-0.007228,-0.007410,-0.007562,-0.007427,-0.007341,-0.007499,-0.007515,-0.007551,-0.007539,-0.007515,-0.007429,-0.007456,-0.007460,-0.007420,-0.007354,-0.007349,-0.007358,-0.007431,-0.007441,-0.007433,-0.007427,-0.007426,-0.007444,-0.007405,-0.007488,-0.007573,-0.007588,-0.007642,-0.007692,-0.007783,-0.007868,-0.007854,-0.007985,-0.008058,-0.008077,-0.008085,-0.008073,-0.008222,-0.008227,-0.008263,-0.008169,-0.008072,-0.008102,-0.007894,-0.007896,-0.007755,-0.007523,-0.007313,-0.007008,-0.007027,-0.007158,-0.007144,-0.006982,-0.006797,-0.006732,-0.006787,-0.006869,-0.006880,-0.006948,-0.006926,-0.006706,-0.006767,-0.007039,-0.007361,-0.007561,-0.007610,-0.007746,-0.007798,-0.007909,-0.008030,-0.008065,-0.008132,-0.008270,-0.008415,-0.008392,-0.008323,-0.008270,-0.008281,-0.008303,-0.008443,-0.008460,-0.008492,-0.008468,-0.008535,-0.008613,-0.008455,-0.008485,-0.008501,-0.008517,-0.008469,-0.008387,-0.008525,-0.008571,-0.008691,-0.008741,-0.008752,-0.008876,-0.008918,-0.008999,-0.008971,-0.008990,-0.009058,-0.009091,-0.009156,-0.009065,-0.008923,-0.008898,-0.008814,-0.008828,-0.008784,-0.008571,-0.008307,-0.008083,-0.008292,-0.008627,-0.008554,-0.008411,-0.008426,-0.008435,-0.008555,-0.008584,-0.008578,-0.008606,-0.008584,-0.008572,-0.008492,-0.008531,-0.008603,-0.008674,-0.008787,-0.008990,-0.009296,-0.009541,-0.009658,-0.009684,-0.009743,-0.010009,-0.010255,-0.010259,-0.010127,-0.010009,-0.010057,-0.010235,-0.010506,-0.010522,-0.010254,-0.009985,-0.010051,-0.010262,-0.010253,-0.010203,-0.010028,-0.009942,-0.009928,-0.010061,-0.010180,-0.010395,-0.010466,-0.010332,-0.010257,-0.010281,-0.010530,-0.010634,-0.010613,-0.010585,-0.010518,-0.010513,-0.010522,-0.010482,-0.010384,-0.010269,-0.010244,-0.010301,-0.010181,-0.009913,-0.009648,-0.009685,-0.009919,-0.010069,-0.009847,-0.009706,-0.009832,-0.009934,-0.009937,-0.009921,-0.009975,-0.009966,-0.009959,-0.009905,-0.009858,-0.009887,-0.009862,-0.009858,-0.009889,-0.010012,-0.010195,-0.010428,-0.010713,-0.010926,-0.011138,-0.011356,-0.011478,-0.011472,-0.011335,-0.011380,-0.011486,-0.011505,-0.011592,-0.011598,-0.011484,-0.011231,-0.011049,-0.011214,-0.011514,-0.011632,-0.011516,-0.011407,-0.011472,-0.011645,-0.011846,-0.012006,-0.012053,-0.012033,-0.011991,-0.012177,-0.012385,-0.012485,-0.012558,-0.012595,-0.012825,-0.012900,-0.012799,-0.012711,-0.012655,-0.012632,-0.012628,-0.012468,-0.012258,-0.012113,-0.012145,-0.012253,-0.012297,-0.012032,-0.011878,-0.011878,-0.011891,-0.011915,-0.011895,-0.011876,-0.011859,-0.011799,-0.011697,-0.011511,-0.011436,-0.011383,-0.011198,-0.011043,-0.011015,-0.011007,-0.010967,-0.010883,-0.010732,-0.010761,-0.010997,-0.011330,-0.011483,-0.011271,-0.011125,-0.011206,-0.011460,-0.011432,-0.011118,-0.011025,-0.010917,-0.010938,-0.010785,-0.010806,-0.010989,-0.010900,-0.010962,-0.011083,-0.011265,-0.011553,-0.011712,-0.011748,-0.011722,-0.011899,-0.012072,-0.012179,-0.012246,-0.012120,-0.012002,-0.012032,-0.012130,-0.012059,-0.011729,-0.011567,-0.011522,-0.011524,-0.011612,-0.011545,-0.011808,-0.012187,-0.012362,-0.012273,-0.011949,-0.011875,-0.011987,-0.011919,-0.011693,-0.011565,-0.011567,-0.011539,-0.011648,-0.011831,-0.011907,-0.011905,-0.011770,-0.011640,-0.011531,-0.011416,-0.011342,-0.011128,-0.010924,-0.010695,-0.010489,-0.010566,-0.010612,-0.010689,-0.010493,-0.010164,-0.010255,-0.010371,-0.010610,-0.010328,-0.009895,-0.009910,-0.009671,-0.009749,-0.009751,-0.009740,-0.009683,-0.009391,-0.009447,-0.009549,-0.009772,-0.009946,-0.009908,-0.009859,-0.009882,-0.010193,-0.010350,-0.010263,-0.010145,-0.010025,-0.010284,-0.010387,-0.009936,-0.009543,-0.009418,-0.009603,-0.009805,-0.009769,-0.009680,-0.009624,-0.009965,-0.010523,-0.010697,-0.010654,-0.010430,-0.010450,-0.010515,-0.010360,-0.010021,-0.009874,-0.010035,-0.010108,-0.010186,-0.010283,-0.010431,-0.010618,-0.010642,-0.010595,-0.010447,-0.010235,-0.010188,-0.010260,-0.010271,-0.010129,-0.010037,-0.009932,-0.009991,-0.009955,-0.009672,-0.009458,-0.009370,-0.009549,-0.009516,-0.009273,-0.009166,-0.009173,-0.009210,-0.008967,-0.008882,-0.008673,-0.008626,-0.008565,-0.008559,-0.008506,-0.008474,-0.008461,-0.008563,-0.008598,-0.008670,-0.008896,-0.008886,-0.009030,-0.009071,-0.009072,-0.009134,-0.008998,-0.008843,-0.008651,-0.008444,-0.008532,-0.008793,-0.008998,-0.008757,-0.008213,-0.008255,-0.008657,-0.009155,-0.009222,-0.008938,-0.008879,-0.008984,-0.008970,-0.008700,-0.008677,-0.008611,-0.008529,-0.008562,-0.008641,-0.008727,-0.008729,-0.008832,-0.008891,-0.008751,-0.008613,-0.008604,-0.008741,-0.008821,-0.008907,-0.008897,-0.008805,-0.008831,-0.008800,-0.008704,-0.008512,-0.008262,-0.008205,-0.007997,-0.007791,-0.007742,-0.007703,-0.007823,-0.007614,-0.007333,-0.007010,-0.006826,-0.006887,-0.006837,-0.006715,-0.006361,-0.006331,-0.006542,-0.006637,-0.006683,-0.006643,-0.006824,-0.007133,-0.007359,-0.007346,-0.006824,-0.006715,-0.007018,-0.007029,-0.006709,-0.006308,-0.006497,-0.007046,-0.007278,-0.006984,-0.006807,-0.007091,-0.007603,-0.008033,-0.007957,-0.007866,-0.007742,-0.007705,-0.007898,-0.007930,-0.007619,-0.007617,-0.007687,-0.007798,-0.007848,-0.007802,-0.007965,-0.007953,-0.007873,-0.007907,-0.007963,-0.008002,-0.008001,-0.008083,-0.008147,-0.008202,-0.008213,-0.007999,-0.007893,-0.007780,-0.007702,-0.007589,-0.007163,-0.006827,-0.006598,-0.006524,-0.006591,-0.006543,-0.006275,-0.006127,-0.006061,-0.006119,-0.006040,-0.005723,-0.005400,-0.005421,-0.005608,-0.005729,-0.005592,-0.005425,-0.005770,-0.006101,-0.006350,-0.006225,-0.005951,-0.005824,-0.005980,-0.006185,-0.005966,-0.005851,-0.005692,-0.006114,-0.006486,-0.006282,-0.006182,-0.006444,-0.007010,-0.007306,-0.007152,-0.007183,-0.007180,-0.007193,-0.007315,-0.007315,-0.007203,-0.007191,-0.007138,-0.007124,-0.007165,-0.007233,-0.007165,-0.006975,-0.007056,-0.007149,-0.007092,-0.007029,-0.007014,-0.007052,-0.006991,-0.006959,-0.006817,-0.006579,-0.006578,-0.006429,-0.006291,-0.006116,-0.005825,-0.005648,-0.005465,-0.005407,-0.005285,-0.005354,-0.005305,-0.005300,-0.005315,-0.005446,-0.005529,-0.005413,-0.005063,-0.004915,-0.005002,-0.005043,-0.004797,-0.004706,-0.004918,-0.005040,-0.005234,-0.005190,-0.005230,-0.005075,-0.004899,-0.004971,-0.005029,-0.004972,-0.004870,-0.005079,-0.005516,-0.005471,-0.005274,-0.005404,-0.005886,-0.006089,-0.006002,-0.005868,-0.005866,-0.005909,-0.005752,-0.005587,-0.005553,-0.005569,-0.005480,-0.005404,-0.005342,-0.005295,-0.005086,-0.004948,-0.005092,-0.005130,-0.005058,-0.005027,-0.004875,-0.004765,-0.004688,-0.004634,-0.004506,-0.004216,-0.004211,-0.004185,-0.004128,-0.003906,-0.003636,-0.003621,-0.003540,-0.003595,-0.003563,-0.003698,-0.003725,-0.003640,-0.003577,-0.003575,-0.003756,-0.003752,-0.003468,-0.003286,-0.003344,-0.003513,-0.003411,-0.003558,-0.003705,-0.003839,-0.004078,-0.004045,-0.004059,-0.003716,-0.003583,-0.003509,-0.003594,-0.003514,-0.003414,-0.003492,-0.003652,-0.003574,-0.003431,-0.003567,-0.003852,-0.003831,-0.003744,-0.003570,-0.003458,-0.003490,-0.003460,-0.003363,-0.003157,-0.003132,-0.003108,-0.003087,-0.003131,-0.002995,-0.002810,-0.002790,-0.002934,-0.003072,-0.003053,-0.003006,-0.002875,-0.002775,-0.002783,-0.002650,-0.002482,-0.002244,-0.002196,-0.002304,-0.002156,-0.001879,-0.001638,-0.001827,-0.002056,-0.001937,-0.001719,-0.001630,-0.001836,-0.001962,-0.001865,-0.001705,-0.001549,-0.001406,-0.001321,-0.001519,-0.001741,-0.001711,-0.001468,-0.001571,-0.001811,-0.002065,-0.001911,-0.001622,-0.001680,-0.001624,-0.001601,-0.001470,-0.001463,-0.001411,-0.001348,-0.001436,-0.001611,-0.001522,-0.001440,-0.001404,-0.001544,-0.001511,-0.001520,-0.001482,-0.001408,-0.001421,-0.001299,-0.001254,-0.001228,-0.001192,-0.001206,-0.001222,-0.001218,-0.001185,-0.001021,-0.000930,-0.000986,-0.001033,-0.000898,-0.000821,-0.000728,-0.000611,-0.000580,-0.000508,-0.000360,-0.000150,-0.000174,-0.000446,-0.000456,-0.000261,-0.000090,-0.000233,-0.000623,-0.000691,-0.000484,-0.000344,-0.000438,-0.000504,-0.000353,-0.000113,0.000201,0.000464,0.000329,0.000053,-0.000084,0.000093,0.000348,0.000174,-0.000127,-0.000391,-0.000040,0.000366,0.000283,0.000277,0.000152,0.000141,0.000195,0.000252,0.000338,0.000056,-0.000239,-0.000254,-0.000210,-0.000113,-0.000175,-0.000130,-0.000157,-0.000218,-0.000207,-0.000200,-0.000050,0.000039,-0.000007,0.000128,0.000220,0.000251,0.000357,0.000458,0.000705,0.000701,0.000708,0.000805,0.000915,0.001003,0.001011,0.001057,0.001073,0.001084,0.001099,0.001046,0.001097,0.001063,0.000921,0.000749,0.000641,0.000817,0.000871,0.000722,0.000546,0.000403,0.000504,0.000687,0.000910,0.001178,0.001344,0.001434,0.001288,0.001136,0.001279,0.001413,0.001538,0.001349,0.001014,0.000934,0.000988,0.001275,0.001281,0.001161,0.001053,0.000900,0.000964,0.001209,0.001218,0.000930,0.000626,0.000720,0.000840,0.000870,0.000969,0.001031,0.000980,0.000911,0.000881,0.000955,0.001025,0.001149,0.001220,0.001212,0.001258,0.001279,0.001449,0.001670,0.001738,0.001699,0.001764,0.001862,0.001873,0.001825,0.001762,0.001733,0.001834,0.001863,0.001752,0.001655,0.001728,0.001872,0.001780,0.001523,0.001353,0.001418,0.001609,0.001607,0.001361,0.001216,0.001242,0.001352,0.001413,0.001439,0.001453,0.001484,0.001637,0.001564,0.001504,0.001528,0.001714,0.001748,0.001327,0.001003,0.000938,0.001136,0.001240,0.000787,0.000414,0.000354,0.000518,0.000837,0.000672,0.000367,0.000235,0.000387,0.000679,0.000703,0.000815,0.000780,0.000694,0.000665,0.000540,0.000533,0.000535,0.000702,0.000821,0.000755,0.000829,0.000957,0.001102,0.001267,0.001192,0.001186,0.001143,0.001085,0.001056,0.000943,0.000789,0.000631,0.000632,0.000585,0.000505,0.000424,0.000314,0.000255,0.000198,0.000136,0.000044,-0.000205,-0.000276,-0.000205,-0.000203,-0.000218,-0.000371,-0.000397,-0.000248,-0.000109,-0.000053,-0.000107,0.000055,0.000104,0.000038,0.000034,0.000082,0.000099,-0.000161,-0.000441,-0.000565,-0.000536,-0.000330,-0.000549,-0.000836,-0.000921,-0.000935,-0.000828,-0.000959,-0.000960,-0.000855,-0.000503,-0.000266,-0.000297,-0.000428,-0.000572,-0.000447,-0.000368,-0.000511,-0.000671,-0.000730,-0.000574,-0.000499,-0.000373,-0.000191,-0.000158,-0.000127,-0.000150,-0.000075,-0.000158,-0.000313,-0.000443,-0.000522,-0.000503,-0.000697,-0.000945,-0.001144,-0.001099,-0.001043,-0.001192,-0.001320,-0.001394,-0.001307,-0.001252,-0.001357,-0.001524,-0.001594,-0.001408,-0.001316,-0.001303,-0.001423,-0.001447,-0.001246,-0.001068,-0.000993,-0.000981,-0.000873,-0.000758,-0.000736,-0.000805,-0.000927,-0.001006,-0.000873,-0.000750,-0.000816,-0.001010,-0.001056,-0.000859,-0.000774,-0.000809,-0.001039,-0.001265,-0.001170,-0.001096,-0.001075,-0.001013,-0.001075,-0.001180,-0.001334,-0.001499,-0.001572,-0.001548,-0.001478,-0.001568,-0.001715,-0.001697,-0.001679,-0.001574,-0.001463,-0.001381,-0.001367,-0.001357,-0.001282,-0.001297,-0.001278,-0.001297,-0.001354,-0.001339,-0.001406,-0.001533,-0.001587,-0.001568,-0.001449,-0.001412,-0.001414,-0.001424,-0.001424,-0.001401,-0.001472,-0.001530,-0.001582,-0.001527,-0.001464,-0.001426,-0.001401,-0.001402,-0.001336,-0.001306,-0.001185,-0.001020,-0.000965,-0.001073,-0.001118,-0.001136,-0.001140,-0.001096,-0.001222,-0.001161,-0.001105,-0.001102,-0.001050,-0.001189,-0.001231,-0.001158,-0.001150,-0.001169,-0.001302,-0.001488,-0.001739,-0.001874,-0.001850,-0.001897,-0.002053,-0.002369,-0.002429,-0.002211,-0.002113,-0.001983,-0.002312,-0.002406,-0.002335,-0.002411,-0.002537,-0.002739,-0.002750,-0.002668,-0.002711,-0.002702,-0.002675,-0.002742,-0.002769,-0.002732,-0.002754,-0.002800,-0.002668,-0.002600,-0.002560,-0.002531,-0.002508,-0.002481,-0.002567,-0.002567,-0.002542,-0.002498,-0.002579,-0.002745,-0.002752,-0.002607,-0.002450,-0.002500,-0.002677,-0.002768,-0.002588,-0.002342,-0.002309,-0.002418,-0.002441,-0.002361,-0.002275,-0.002248,-0.002244,-0.002300,-0.002311,-0.002270,-0.002282,-0.002263,-0.002310,-0.002335,-0.002265,-0.002240,-0.002179,-0.002193,-0.002214,-0.002124,-0.002065,-0.002142,-0.002238,-0.002383,-0.002370,-0.002280,-0.002225,-0.002158,-0.002289,-0.002353,-0.002363,-0.002361,-0.002326,-0.002465,-0.002522,-0.002550,-0.002513,-0.002452,-0.002487,-0.002594,-0.002683,-0.002552,-0.002489,-0.002511,-0.002544,-0.002529,-0.002436,-0.002404,-0.002411,-0.002449,-0.002570,-0.002536,-0.002465,-0.002437,-0.002545,-0.002687,-0.002620,-0.002489,-0.002397,-0.002493,-0.002666,-0.002636,-0.002488,-0.002306,-0.002330,-0.002478,-0.002524,-0.002399,-0.002204,-0.002174,-0.002177,-0.002241,-0.002249,-0.002120,-0.002114,-0.002158,-0.002281,-0.002357,-0.002228,-0.002163,-0.002182,-0.002265,-0.002318,-0.002241,-0.002179,-0.002228,-0.002342,-0.002485,-0.002492,-0.002362,-0.002287,-0.002348,-0.002422,-0.002515,-0.002418,-0.002318,-0.002231,-0.002237,-0.002433,-0.002424,-0.002411,-0.002390,-0.002367,-0.002427,-0.002505,-0.002520,-0.002510,-0.002583,-0.002691,-0.002726,-0.002727,-0.002673,-0.002665,-0.002737,-0.002875,-0.002889,-0.002716,-0.002622,-0.002707,-0.002871,-0.002939,-0.002777,-0.002557,-0.002636,-0.002819,-0.002865,-0.002691,-0.002417,-0.002405,-0.002487,-0.002523,-0.002443,-0.002286,-0.002202,-0.002215,-0.002228,-0.002259,-0.002222,-0.002187,-0.002176,-0.002247,-0.002287,-0.002312,-0.002407,-0.002371,-0.002359,-0.002399,-0.002418,-0.002445,-0.002340,-0.002411,-0.002535,-0.002560,-0.002371,-0.002266,-0.002411,-0.002498,-0.002492,-0.002316,-0.002182,-0.002293,-0.002407,-0.002498,-0.002436,-0.002405,-0.002436,-0.002460,-0.002494,-0.002529,-0.002519,-0.002511,-0.002625,-0.002790,-0.002857,-0.002787,-0.002659,-0.002722,-0.002897,-0.003010,-0.002893,-0.002730,-0.002759,-0.002906,-0.003018,-0.002915,-0.002791,-0.002779,-0.002857,-0.002958,-0.002932,-0.002787,-0.002670,-0.002666,-0.002755,-0.002757,-0.002697,-0.002576,-0.002507,-0.002515,-0.002479,-0.002472,-0.002517,-0.002509,-0.002525,-0.002497,-0.002423,-0.002543,-0.002704,-0.002743,-0.002651,-0.002581,-0.002632,-0.002705,-0.002707,-0.002662,-0.002724,-0.002743,-0.002706,-0.002728,-0.002723,-0.002657,-0.002649,-0.002580,-0.002478,-0.002405,-0.002425,-0.002507,-0.002574,-0.002537,-0.002443,-0.002406,-0.002533,-0.002685,-0.002608,-0.002494,-0.002609,-0.002677,-0.002747,-0.002784,-0.002707,-0.002776,-0.002860,-0.002957,-0.003027,-0.003008,-0.003009,-0.002944,-0.003012,-0.003100,-0.003087,-0.003053,-0.002942,-0.003045,-0.003095,-0.003038,-0.003033,-0.002996,-0.003035,-0.002985,-0.002983,-0.002939,-0.002886,-0.002790,-0.002747,-0.002742,-0.002730,-0.002757,-0.002784,-0.002829,-0.002834,-0.002881,-0.002938,-0.003000,-0.003079,-0.003048,-0.003047,-0.003014,-0.002975,-0.002963,-0.002941,-0.002972,-0.002885,-0.002969,-0.002974,-0.002927,-0.003030,-0.002919,-0.002851,-0.002699,-0.002715,-0.002969,-0.003113,-0.003114,-0.002943,-0.002892,-0.002946,-0.003027,-0.003037,-0.003018,-0.003150,-0.003096,-0.003161,-0.003276,-0.003188,-0.003160,-0.003133,-0.003190,-0.003304,-0.003276,-0.003246,-0.003170,-0.003246,-0.003322,-0.003226,-0.003129,-0.003067,-0.003193,-0.003258,-0.003145,-0.003091,-0.003064,-0.003119,-0.003142,-0.003221,-0.003208,-0.003122,-0.003033,-0.003058,-0.003061,-0.003011,-0.003005,-0.003043,-0.003112,-0.003173,-0.003238,-0.003195,-0.003265,-0.003307,-0.003302,-0.003332,-0.003273,-0.003267,-0.003144,-0.003043,-0.002999,-0.002998,-0.003094,-0.003217,-0.003266,-0.003147,-0.003070,-0.003150,-0.003260,-0.003379,-0.003362,-0.003429,-0.003441,-0.003407,-0.003354,-0.003221,-0.003208,-0.003304,-0.003465,-0.003578,-0.003554,-0.003580,-0.003685,-0.003637,-0.003595,-0.003598,-0.003619,-0.003731,-0.003739,-0.003714,-0.003703,-0.003736,-0.003802,-0.003753,-0.003668,-0.003675,-0.003705,-0.003732,-0.003632,-0.003544,-0.003547,-0.003612,-0.003695,-0.003726,-0.003614,-0.003470,-0.003494,-0.003605,-0.003609,-0.003546,-0.003550,-0.003611,-0.003670,-0.003736,-0.003810,-0.003853,-0.003908,-0.003962,-0.004064,-0.004143,-0.004177,-0.004086,-0.003935,-0.003828,-0.003865,-0.004058,-0.004087,-0.004155,-0.004115,-0.004063,-0.004118,-0.004151,-0.004271,-0.004254,-0.004241,-0.004318,-0.004361,-0.004538,-0.004579,-0.004546,-0.004593,-0.004728,-0.004877,-0.004918,-0.004886,-0.004910,-0.005014,-0.005134,-0.005169,-0.005214,-0.005354,-0.005455,-0.005603,-0.005557,-0.005483,-0.005679,-0.005627,-0.005954,-0.005819,-0.005761,-0.006027,-0.005926,-0.006341,-0.006209,-0.006130,-0.006202,-0.006331,-0.006482,-0.006554,-0.006654,-0.006551,-0.006546,-0.006576,-0.006583,-0.006496,-0.006382,-0.006342,-0.006365