-0.002200,,-0.001717,-0.001349,-0.001200,-0.001015,-0.000656,-0.000888,-0.001561,-0.002095,-0.002248,-0.002215,-0.002174,-0.002097,-0.002133,-0.002163,-0.002206,-0.002255,-0.002273,-0.002254,-0.002251,-0.002307,-0.002400,-0.002458,-0.002477,-0.002453,-0.002388,-0.002347,-0.002285,-0.002218,-0.002173,-0.002144,-0.002122,-0.002095,-0.002073,-0.002063,-0.002057,-0.002060,-0.002036,-0.002014,-0.002018,-0.002050,-0.002092,-0.002137,-0.002155,-0.002120,-0.002063,-0.002093,-0.002186,-0.002221,-0.002212,-0.002240,-0.001700,-0.001090,-0.000410,-0.000273,-0.000868,-0.001544,-0.001960,-0.002008,-0.002009,-0.002072,-0.002036,-0.001958,-0.001649,-0.001175,-0.000652,-0.000175,0.000053,0.000218,0.000313,-0.000279,-0.000965,-0.001272,-0.001396,-0.001554,-0.001668,-0.001696,-0.001673,-0.001684,-0.001701,-0.001705,-0.001708,-0.001690,-0.001670,-0.001673,-0.001724,-0.001784,-0.001838,-0.001861,-0.001789,-0.001747,-0.001666,-0.001593,-0.001539,-0.001510,-0.001484,-0.001460,-0.001447,-0.001448,-0.001444,-0.001436,-0.001421,-0.001425,-0.001444,-0.001482,-0.001530,-0.001567,-0.001538,-0.001533,-0.001596,-0.001687,-0.001753,-0.001673,-0.001306,-0.000718,-0.000457,-0.000483,-0.000356,-0.000223,-0.000329,-0.000878,-0.001290,-0.001585,-0.001728,-0.001734,-0.001495,-0.001399,-0.001293,-0.001044,-0.000218,0.000626,0.000630,0.000259,0.000218,0.000134,-0.000067,-0.000559,-0.001063,-0.001081,-0.000986,-0.001039,-0.001070,-0.001059,-0.001066,-0.001076,-0.001072,-0.001038,-0.001018,-0.001004,-0.001001,-0.001084,-0.001132,-0.001164,-0.001161,-0.001090,-0.001004,-0.000917,-0.000864,-0.000838,-0.000813,-0.000786,-0.000762,-0.000741,-0.000742,-0.000745,-0.000743,-0.000762,-0.000798,-0.000835,-0.000870,-0.000906,-0.000910,-0.000929,-0.000938,-0.000918,-0.000947,-0.001001,-0.000781,-0.000183,0.000438,0.000638,0.000431,0.000124,-0.000025,-0.000412,-0.000553,-0.000593,-0.000877,-0.001020,-0.000850,-0.000651,-0.000624,-0.000480,0.000620,0.001850,0.002150,0.001371,0.000590,0.000633,0.000961,0.000713,-0.000005,-0.000511,-0.000561,-0.000472,-0.000457,-0.000468,-0.000485,-0.000480,-0.000446,-0.000405,-0.000393,-0.000381,-0.000358,-0.000365,-0.000411,-0.000443,-0.000460,-0.000432,-0.000296,-0.000187,-0.000136,-0.000103,-0.000067,-0.000036,0.000002,0.000060,0.000091,0.000091,0.000102,0.000103,0.000089,0.000071,0.000055,0.000058,0.000051,0.000059,0.000134,0.000243,0.000229,0.000065,-0.000015,0.000159,0.001021,0.001770,0.001926,0.001676,0.001385,0.001102,0.000890,0.000760,0.000365,0.000087,0.000008,0.000339,0.000994,0.001420,0.001712,0.002100,0.002269,0.001490,0.001137,0.001693,0.001906,0.001529,0.001133,0.000708,0.000486,0.000420,0.000401,0.000382,0.000368,0.000358,0.000375,0.000391,0.000405,0.000433,0.000448,0.000496,0.000491,0.000427,0.000382,0.000377,0.000427,0.000501,0.000540,0.000566,0.000617,0.000658,0.000706,0.000776,0.000843,0.000883,0.000905,0.000914,0.000914,0.000916,0.000930,0.000951,0.000966,0.001008,0.001077,0.001116,0.001121,0.001126,0.001142,0.001139,0.001727,0.002582,0.003012,0.002996,0.002787,0.002690,0.002508,0.002208,0.001748,0.001339,0.001152,0.001521,0.002716,0.003311,0.002292,0.001215,0.001229,0.000685,0.000367,0.001232,0.002269,0.002731,0.002709,0.002182,0.001876,0.001825,0.001833,0.001807,0.001785,0.001742,0.001725,0.001702,0.001708,0.001735,0.001714,0.001726,0.001764,0.001719,0.001660,0.001641,0.001610,0.001654,0.001721,0.001757,0.001804,0.001844,0.001880,0.001929,0.001967,0.002001,0.002042,0.002063,0.002072,0.002079,0.002091,0.002113,0.002149,0.002225,0.002299,0.002310,0.002318,0.002364,0.002370,0.002259,0.002414,0.003117,0.003626,0.003831,0.003948,0.004020,0.003983,0.003624,0.003081,0.002624,0.002499,0.002762,0.003862,0.004582,0.003761,0.002511,0.001904,0.001415,0.001295,0.002002,0.003163,0.003646,0.003492,0.003486,0.003584,0.003595,0.003529,0.003486,0.003463,0.003425,0.003405,0.003374,0.003342,0.003345,0.003336,0.003343,0.003347,0.003367,0.003355,0.003284,0.003269,0.003276,0.003356,0.003423,0.003477,0.003509,0.003533,0.003552,0.003574,0.003601,0.003650,0.003695,0.003713,0.003721,0.003734,0.003763,0.003821,0.003898,0.003979,0.004045,0.004055,0.004034,0.004016,0.004035,0.003976,0.004331,0.005076,0.005613,0.005911,0.005891,0.005685,0.005318,0.004765,0.004364,0.004341,0.004535,0.005190,0.005993,0.006260,0.005535,0.004391,0.003798,0.003731,0.003732,0.004510,0.005136,0.004988,0.004931,0.005019,0.005115,0.005101,0.005080,0.005067,0.005037,0.005003,0.004975,0.004916,0.004887,0.004876,0.004893,0.004901,0.004912,0.004928,0.004901,0.004846,0.004818,0.004800,0.004830,0.004853,0.004852,0.004828,0.004799,0.004778,0.004769,0.004796,0.004823,0.004826,0.004820,0.004822,0.004836,0.004896,0.004920,0.004917,0.004964,0.004998,0.005002,0.005170,0.005602,0.005809,0.005862,0.006546,0.006821,0.006699,0.006478,0.006337,0.006537,0.006158,0.005592,0.005410,0.005284,0.005442,0.006111,0.007129,0.007647,0.006863,0.005566,0.004895,0.004150,0.004662,0.005473,0.005981,0.006062,0.006088,0.006138,0.006064,0.006045,0.006148,0.006143,0.006195,0.006092,0.005955,0.005998,0.006064,0.005964,0.005896,0.005996,0.006109,0.006118,0.006030,0.005988,0.005924,0.005939,0.006003,0.005982,0.005927,0.005959,0.005933,0.005950,0.005945,0.005851,0.005832,0.005871,0.005859,0.005897,0.005955,0.006002,0.005953,0.005945,0.006022,0.006046,0.006177,0.006539,0.006932,0.007375,0.007848,0.008054,0.007864,0.007664,0.007833,0.007958,0.007541,0.006808,0.006446,0.006925,0.007673,0.008083,0.008494,0.009071,0.008886,0.007673,0.006244,0.004987,0.004954,0.005835,0.006299,0.006673,0.006910,0.007148,0.007097,0.007063,0.007022,0.006901,0.006883,0.007030,0.007064,0.007056,0.007021,0.007033,0.007072,0.007078,0.007025,0.007042,0.007179,0.007279,0.007198,0.007032,0.006855,0.006963,0.007071,0.007064,0.007051,0.007074,0.007125,0.007147,0.007227,0.007292,0.007280,0.007284,0.007310,0.007427,0.007633,0.007685,0.007709,0.007737,0.007695,0.007586,0.008104,0.009013,0.009515,0.009644,0.009782,0.009873,0.009833,0.009423,0.009253,0.009219,0.009277,0.009412,0.009467,0.009744,0.010259,0.010652,0.010614,0.009828,0.008085,0.006906,0.006458,0.006542,0.007242,0.007652,0.007895,0.008115,0.008240,0.008204,0.008229,0.008354,0.008334,0.008141,0.008173,0.008291,0.008245,0.008236,0.008318,0.008304,0.008300,0.008571,0.009369,0.009936,0.009871,0.009286,0.008646,0.008604,0.008728,0.008596,0.008550,0.008618,0.008660,0.008721,0.008733,0.008709,0.008823,0.009077,0.009186,0.009182,0.009365,0.009439,0.009542,0.009769,0.009891,0.009942,0.010226,0.010973,0.011593,0.011953,0.012366,0.012645,0.012655,0.012398,0.012251,0.012040,0.011843,0.011952,0.012346,0.012772,0.012996,0.013007,0.012893,0.012417,0.011569,0.010176,0.009059,0.008877,0.009379,0.010297,0.010575,0.010548,0.010785,0.010799,0.010692,0.011165,0.011593,0.011451,0.011490,0.011644,0.011585,0.011483,0.011559,0.011597,0.011650,0.011962,0.012319,0.012363,0.012209,0.011672,0.011009,0.010929,0.010864,0.010598,0.010353,0.010310,0.010609,0.011094,0.011265,0.011013,0.010736,0.010609,0.010759,0.010877,0.011042,0.011181,0.011284,0.011497,0.011636,0.012055,0.012512,0.013176,0.013822,0.014156,0.014421,0.014648,0.014680,0.014731,0.014712,0.014516,0.013902,0.013685,0.014252,0.014746,0.014900,0.015113,0.015279,0.015200,0.015396,0.014338,0.012484,0.011499,0.011135,0.011050,0.011550,0.012568,0.013845,0.014565,0.014687,0.015039,0.015363,0.015347,0.015204,0.015100,0.014959,0.014866,0.014944,0.015000,0.014956,0.014964,0.014859,0.014672,0.014668,0.014616,0.014392,0.014437,0.014300,0.013972,0.013924,0.013954,0.014076,0.014290,0.014320,0.014049,0.013707,0.013394,0.013209,0.013279,0.013607,0.013827,0.013440,0.012993,0.012751,0.013234,0.014202,0.014983,0.015328,0.015251,0.015236,0.015390,0.015220,0.015016,0.014996,0.015254,0.015089,0.014556,0.014377,0.014424,0.014729,0.015510,0.015695,0.015677,0.015905,0.015680,0.014905,0.013793,0.012828,0.012021,0.012186,0.013518,0.015126,0.016267,0.016733,0.016873,0.016750,0.016618,0.016593,0.016595,0.016481,0.016320,0.016321,0.016404,0.016385,0.016287,0.016217,0.016163,0.016074,0.015976,0.015819,0.015830,0.015755,0.015619,0.015714,0.015796,0.015493,0.015128,0.014990,0.015082,0.015220,0.015236,0.015435,0.015615,0.015451,0.015167,0.014971,0.015150,0.015131,0.014952,0.015417,0.016006,0.016273,0.016218,0.016156,0.016250,0.016153,0.015945,0.015552,0.015232,0.015400,0.015498,0.015437,0.015066,0.014840,0.015491,0.016098,0.016433,0.016268,0.015546,0.015698,0.015389,0.013914,0.013138,0.013080,0.014054,0.015336,0.016335,0.016795,0.017068,0.017109,0.017122,0.017064,0.016940,0.016785,0.016600,0.016545,0.016596,0.016595,0.016531,0.016457,0.016400,0.016179,0.015943,0.015737,0.015606,0.015411,0.015134,0.014860,0.014687,0.014574,0.014406,0.014385,0.014536,0.014614,0.014517,0.014329,0.014314,0.014432,0.014304,0.014016,0.013893,0.014082,0.014504,0.014716,0.014659,0.014611,0.014726,0.014676,0.014516,0.014596,0.014633,0.014140,0.013431,0.013411,0.013436,0.013275,0.013092,0.012933,0.013215,0.013422,0.013390,0.013134,0.012884,0.013006,0.013082,0.012346,0.010738,0.009514,0.009375,0.010742,0.012161,0.012993,0.013436,0.013723,0.013849,0.013883,0.013891,0.013897,0.013950,0.014059,0.014090,0.013959,0.013814,0.013620,0.013629,0.013726,0.013903,0.014017,0.014061,0.013790,0.013188,0.012654,0.012589,0.012812,0.012828,0.012681,0.012576,0.012460,0.012369,0.012332,0.012153,0.011909,0.011694,0.011872,0.011982,0.012122,0.012362,0.012468,0.012367,0.012119,0.012150,0.012042,0.011676,0.011788,0.011842,0.010962,0.010319,0.010525,0.010374,0.010142,0.010277,0.010628,0.010879,0.010828,0.010870,0.010480,0.010312,0.010464,0.010904,0.011092,0.009933,0.008091,0.007107,0.006693,0.007885,0.009349,0.010094,0.010378,0.010539,0.010613,0.010537,0.010519,0.010435,0.010487,0.010591,0.010364,0.010407,0.010621,0.010857,0.010684,0.010630,0.011059,0.011286,0.011123,0.010879,0.010923,0.010971,0.011199,0.011414,0.011602,0.011658,0.011428,0.011251,0.011227,0.011102,0.011252,0.011512,0.011601,0.011428,0.011207,0.010981,0.010857,0.010794,0.010909,0.010991,0.010944,0.010943,0.010851,0.010722,0.010089,0.009235,0.008592,0.008775,0.009389,0.009657,0.009812,0.009958,0.009874,0.009654,0.009339,0.009043,0.009064,0.009075,0.008900,0.008745,0.008234,0.007127,0.005997,0.005663,0.006862,0.008210,0.009389,0.010063,0.009763,0.009592,0.009579,0.009449,0.009481,0.009807,0.009861,0.010007,0.010356,0.010559,0.010282,0.010116,0.010231,0.010239,0.010207,0.010029,0.009677,0.009486,0.009785,0.010052,0.010176,0.010338,0.010403,0.010506,0.010770,0.010731,0.010630,0.010680,0.010941,0.011181,0.011268,0.011090,0.011058,0.010921,0.010643,0.010722,0.010984,0.010777,0.010368,0.010400,0.009863,0.009076,0.008580,0.009058,0.009679,0.009884,0.009938,0.009887,0.009697,0.009815,0.010048,0.009441,0.008859,0.009033,0.009458,0.009778,0.009332,0.008260,0.006974,0.006209,0.006535,0.008401,0.009988,0.010740,0.011025,0.010872,0.010449,0.009963,0.009972,0.010520,0.010755,0.010581,0.010426,0.010357,0.010331,0.010523,0.010538,0.010432,0.010763,0.011102,0.011045,0.010852,0.010849,0.010781,0.010521,0.010282,0.009946,0.009744,0.010109,0.010460,0.010615,0.010541,0.010459,0.010493,0.010573,0.010540,0.010422,0.010259,0.010075,0.010135,0.010291,0.010065,0.009895,0.010074,0.009906,0.009846,0.009874,0.009935,0.009816,0.009792,0.009538,0.009360,0.009565,0.009872,0.010058,0.009837,0.009445,0.009410,0.009477,0.009290,0.008734,0.008889,0.008288,0.007253,0.006905,0.007338,0.008654,0.009924,0.010514,0.010470,0.010207,0.009760,0.009764,0.010274,0.010423,0.010053,0.009828,0.009896,0.010159,0.010459,0.010333,0.010017,0.010184,0.010379,0.010161,0.009728,0.009511,0.009463,0.009268,0.008976,0.008697,0.008935,0.009087,0.009185,0.009565,0.009945,0.009996,0.009924,0.009928,0.009956,0.009804,0.009793,0.009879,0.009819,0.009633,0.009537,0.009646,0.009763,0.009668,0.009517,0.009176,0.008832,0.008624,0.008606,0.008364,0.008273,0.008475,0.008553,0.008429,0.008247,0.007863,0.007824,0.007908,0.007542,0.007331,0.008136,0.008449,0.007198,0.005714,0.004780,0.004651,0.006168,0.007699,0.008676,0.008933,0.008837,0.008728,0.008835,0.008814,0.008753,0.008777,0.008873,0.008875,0.008856,0.008746,0.008589,0.008530,0.008411,0.008287,0.008205,0.008186,0.008271,0.008195,0.008053,0.008177,0.008928,0.009216,0.009130,0.009304,0.009503,0.009485,0.009428,0.009354,0.009197,0.009113,0.009060,0.009031,0.008967,0.008818,0.008629,0.008298,0.007921,0.007785,0.007718,0.007639,0.007667,0.007753,0.007769,0.007771,0.007788,0.007719,0.007633,0.007422,0.007016,0.006602,0.006969,0.007317,0.006697,0.006392,0.006697,0.006990,0.006404,0.005092,0.003862,0.003227,0.003288,0.004950,0.006351,0.007063,0.007374,0.007602,0.007636,0.007615,0.007660,0.007589,0.007518,0.007581,0.007572,0.007498,0.007394,0.007301,0.007317,0.007396,0.007445,0.007382,0.007292,0.007184,0.007054,0.006966,0.007030,0.007545,0.008051,0.008105,0.007820,0.007407,0.007089,0.006736,0.006402,0.006242,0.006028,0.005779,0.005626,0.005536,0.005419,0.004899,0.004231,0.003873,0.003933,0.004678,0.005365,0.005649,0.005834,0.006265,0.006477,0.006466,0.006420,0.006491,0.006610,0.006786,0.006744,0.005857,0.004653,0.004417,0.004698,0.005058,0.005415,0.004537,0.002807,0.001593,0.001130,0.001555,0.003237,0.004497,0.005145,0.005516,0.005688,0.005575,0.005374,0.005227,0.005143,0.005003,0.004772,0.004407,0.003981,0.003675,0.003663,0.003724,0.003701,0.003692,0.003664,0.003750,0.003764,0.003670,0.003514,0.003535,0.003817,0.004127,0.004322,0.004215,0.003952,0.003576,0.003367,0.003354,0.003303,0.003223,0.003222,0.003317,0.003439,0.003399,0.003187,0.002601,0.002087,0.002568,0.003033,0.003302,0.003772,0.004142,0.004482,0.004670,0.004488,0.004442,0.004346,0.004270,0.003688,0.002423,0.001447,0.001396,0.001938,0.002219,0.002211,0.002144,0.001140,0.000026,-0.000459,-0.000707,-0.000108,0.001122,0.001969,0.002298,0.002374,0.002313,0.002103,0.001908,0.001555,0.001239,0.001154,0.001119,0.001065,0.001055,0.001076,0.001085,0.001079,0.001183,0.001211,0.001235,0.001216,0.001538,0.002243,0.002582,0.002653,0.002665,0.002604,0.002363,0.002085,0.001840,0.001749,0.001675,0.001536,0.001220,0.001102,0.001080,0.000850,0.000798,0.001030,0.000387,-0.000536,-0.000122,0.000354,0.000580,0.000971,0.001341,0.001098,0.000610,0.000717,0.001662,0.002264,0.002211,0.002344,0.002692,0.002463,0.001893,0.001669,0.001534,0.001350,0.001234,0.001048,0.000496,-0.000235,-0.000793,-0.000853,-0.000265,0.000403,0.000748,0.000959,0.000981,0.000832,0.000678,0.000813,0.000930,0.000940,0.000883,0.000779,0.000731,0.000788,0.000802,0.000906,0.001111,0.001082,0.000859,0.000792,0.000736,0.000657,0.001069,0.001584,0.001910,0.001901,0.001705,0.001554,0.001453,0.001356,0.001204,0.000961,0.000814,0.000828,0.000874,0.000893,0.000912,0.001055,0.000600,-0.000041,0.000138,0.000558,0.000798,0.001028,0.001265,0.001261,0.001177,0.001530,0.002145,0.002569,0.002648,0.002493,0.002342,0.002398,0.002235,0.001878,0.001581,0.001521,0.001628,0.001639,0.001359,0.000855,0.000424,0.000098,0.000198,0.000808,0.001118,0.001180,0.001215,0.001471,0.001350,0.001191,0.001103,0.001067,0.000992,0.000883,0.000827,0.000819,0.000667,0.000624,0.000527,0.000552,0.000620,0.000663,0.000532,0.000415,0.000883,0.001528,0.002006,0.002156,0.002094,0.001992,0.001895,0.001771,0.001582,0.001401,0.001354,0.001196,0.000920,0.000802,0.000800,0.000845,0.000197,-0.000694,-0.000590,0.000001,0.000381,0.000439,0.000440,0.000392,0.000192,0.000488,0.000820,0.000789,0.000796,0.000948,0.000902,0.000819,0.000512,0.000184,-0.000016,-0.000092,-0.000047,0.000193,0.000450,0.000401,0.000037,-0.000457,-0.000807,-0.000548,0.000054,0.000571,0.000804,0.000953,0.000836,0.000775,0.000747,0.001011,0.001260,0.001366,0.001393,0.001400,0.001446,0.001619,0.001597,0.001522,0.001509,0.001519,0.001526,0.001783,0.002494,0.002933,0.002988,0.002751,0.002529,0.002378,0.002261,0.002112,0.001847,0.001569,0.001487,0.001247,0.000909,0.000725,0.000748,0.000871,0.000125,-0.000929,-0.000990,-0.000320,0.000187,0.000201,0.000027,-0.000174,-0.000262,0.000135,0.000619,0.000580,0.000724,0.001214,0.001438,0.001214,0.000858,0.000688,0.000683,0.000779,0.000872,0.001021,0.001235,0.001375,0.001361,0.001203,0.000635,0.000169,0.000437,0.000873,0.001207,0.001378,0.001653,0.001505,0.001472,0.001583,0.001490,0.001327,0.001423,0.001478,0.001383,0.001364,0.001333,0.001153,0.000856,0.000504,0.000453,0.000925,0.001882,0.002496,0.002608,0.002520,0.002525,0.002512,0.002359,0.002102,0.001898,0.001616,0.001231,0.000859,0.000598,0.000384,0.000309,0.000553,0.000054,-0.000883,-0.001232,-0.000853,-0.000400,-0.000314,-0.000458,-0.000595,-0.000530,-0.000262,-0.000107,-0.000063,0.000074,0.000398,0.000797,0.000988,0.001103,0.001098,0.001278,0.001547,0.001601,0.001350,0.001068,0.000928,0.000885,0.000800,0.000329,-0.000379,-0.000620,-0.000111,0.000589,0.000868,0.000890,0.000945,0.001028,0.001185,0.001162,0.001046,0.000999,0.000841,0.000759,0.000940,0.001078,0.001030,0.000812,0.000575,0.000621,0.001111,0.001703,0.002129,0.002306,0.002263,0.002239,0.002238,0.002158,0.002089,0.002045,0.001863,0.001671,0.001563,0.001486,0.001321,0.001140,0.001107,0.000870,0.000399,-0.000255,-0.000460,-0.000439,-0.000612,-0.000953,-0.001032,-0.001135,-0.001139,-0.000820,-0.000815,-0.001252,-0.001227,-0.000628,-0.000490,-0.000630,-0.000568,-0.000428,-0.000587,-0.000988,-0.001085,-0.000873,-0.000926,-0.001235,-0.001442,-0.001471,-0.001626,-0.002095,-0.001901,-0.001206,-0.000581,-0.000128,0.000762,0.001487,0.001449,0.000795,0.000325,0.000071,-0.000178,-0.000215,-0.000241,-0.000334,-0.000496,-0.000586,-0.000558,-0.000308,0.000180,0.000732,0.001287,0.001643,0.001793,0.001842,0.001844,0.001776,0.001750,0.001587,0.001364,0.001335,0.001292,0.001273,0.001280,0.001217,0.000983,0.000832,0.000767,0.000453,0.000135,-0.000156,-0.000657,-0.001275,-0.001428,-0.001385,-0.001460,-0.001160,-0.001135,-0.001613,-0.001883,-0.001797,-0.002113,-0.002612,-0.002680,-0.002354,-0.002314,-0.002508,-0.002144,-0.001351,-0.001115,-0.001220,-0.001091,-0.000928,-0.000848,-0.001360,-0.002128,-0.002233,-0.001328,-0.000484,-0.000155,0.000444,-0.000044,-0.001444,-0.002103,-0.001871,-0.001516,-0.001308,-0.001684,-0.001975,-0.001973,-0.001769,-0.001764,-0.001764,-0.001659,-0.001474,-0.000991,-0.000334,0.000327,0.000902,0.001324,0.001371,0.001119,0.000816,0.000601,0.000345,0.000025,-0.000197,-0.000217,-0.000266,-0.000386,-0.000264,-0.000064,0.000438,0.000599,0.000434,-0.000059,-0.000647,-0.000739,-0.000526,-0.000978,-0.001372,-0.000843,-0.000225,-0.000585,-0.001402,-0.001699,-0.001811,-0.002274,-0.002353,-0.002033,-0.001809,-0.001771,-0.001682,-0.001606,-0.001514,-0.001097,-0.001075,-0.001540,-0.001642,-0.002043,-0.002490,-0.002449,-0.001159,-0.000162,-0.000536,-0.001778,-0.003040,-0.003501,-0.003602,-0.003611,-0.003044,-0.002557,-0.002042,-0.001455,-0.000923,-0.000967,-0.001262,-0.001352,-0.001561,-0.001826,-0.002001,-0.001937,-0.001352,-0.000310,0.000454,0.000575,0.000481,0.000346,0.000103,-0.000104,-0.000264,-0.000522,-0.000833,-0.000853,-0.000548,-0.000202,0.000125,0.000275,0.000066,-0.000363,-0.000567,-0.000598,-0.000693,-0.000704,-0.000707,-0.000451,-0.000142,-0.000213,-0.000612,-0.000825,-0.001313,-0.001963,-0.002108,-0.002296,-0.002248,-0.002146,-0.002079,-0.002017,-0.002053,-0.001758,-0.001576,-0.002216,-0.002634,-0.002249,-0.002516,-0.003140,-0.003077,-0.002055,-0.002266,-0.003390,-0.003523,-0.003146,-0.002639,-0.002156,-0.002106,-0.001849,-0.001394,-0.001590,-0.001259,-0.000369,-0.000556,-0.000949,-0.000844,-0.000817,-0.001180,-0.001654,-0.002258,-0.002265,-0.001635,-0.001300,-0.000856,-0.000488,-0.000422,-0.000624,-0.001055,-0.001748,-0.002122,-0.002186,-0.001622,-0.001158,-0.000765,-0.000662,-0.000750,-0.001072,-0.001440,-0.001692,-0.002155,-0.002613,-0.002877,-0.003258,-0.003540,-0.003660,-0.003683,-0.003767,-0.003827,-0.003701,-0.003648,-0.003524,-0.003424,-0.003349,-0.003065,-0.002866,-0.002757,-0.002987,-0.002610,-0.002686,-0.002767,-0.002188,-0.001736,-0.002902,-0.004117,-0.004727,-0.005123,-0.005662,-0.005220,-0.004690,-0.004412,-0.004254,-0.004150,-0.003938,-0.003492,-0.003296,-0.002724,-0.002524,-0.002768,-0.002464,-0.002203,-0.001816,-0.001721,-0.001611,-0.001912,-0.002944,-0.003688,-0.003517,-0.003053,-0.003076,-0.003225,-0.003137,-0.003082,-0.002874,-0.002652,-0.002835,-0.003208,-0.003220,-0.002794,-0.002619,-0.002645,-0.002783,-0.003046,-0.003211,-0.003445,-0.003799,-0.004304,-0.004690,-0.004734,-0.004322,-0.003836,-0.003560,-0.003070,-0.002466,-0.002200,-0.002188,-0.002420,-0.002889,-0.003246,-0.003381,-0.003260,-0.003115,-0.002649,-0.002404,-0.002492,-0.003346,-0.004077,-0.004435,-0.005127,-0.005626,-0.005946,-0.006184,-0.005855,-0.005571,-0.005558,-0.005659,-0.005483,-0.005285,-0.005159,-0.004658,-0.003968,-0.003750,-0.003971,-0.003651,-0.002992,-0.002778,-0.002918,-0.002770,-0.002789,-0.004102,-0.005382,-0.005779,-0.005242,-0.004622,-0.004728,-0.004602,-0.004454,-0.003860,-0.003295,-0.003223,-0.003826,-0.004103,-0.004054,-0.004071,-0.004229,-0.004459,-0.004832,-0.005077,-0.004922,-0.004701,-0.004772,-0.004484,-0.004198,-0.004128,-0.004455,-0.004850,-0.004813,-0.004808,-0.004550,-0.004213,-0.004005,-0.003398,-0.002969,-0.003038,-0.003361,-0.003463,-0.003820,-0.004106,-0.004888,-0.005917,-0.006605,-0.006727,-0.006788,-0.007020,-0.006910,-0.007036,-0.007309,-0.007469,-0.007193,-0.006744,-0.006212,-0.005592,-0.005340,-0.004929,-0.004507,-0.004099,-0.003489,-0.003068,-0.003636,-0.004350,-0.004846,-0.004770,-0.005028,-0.006166,-0.006689,-0.006735,-0.006838,-0.006740,-0.006285,-0.005475,-0.005215,-0.005154,-0.005188,-0.005155,-0.005336,-0.005403,-0.005645,-0.005667,-0.005639,-0.005770,-0.006076,-0.006363,-0.006376,-0.006058,-0.004965,-0.003971,-0.003548,-0.003845,-0.004507,-0.005228,-0.005560,-0.005864,-0.005903,-0.005866,-0.006431,-0.006112,-0.005429,-0.005241,-0.004795,-0.004429,-0.004554,-0.004839,-0.005148,-0.005815,-0.006490,-0.007210,-0.007214,-0.007017,-0.007073,-0.007341,-0.007972,-0.008660,-0.008722,-0.008040,-0.006837,-0.005145,-0.003828,-0.003855,-0.004561,-0.004792,-0.004982,-0.005293,-0.005475,-0.005629,-0.005659,-0.005676,-0.006519,-0.007724,-0.007618,-0.007080,-0.007400,-0.008100,-0.008143,-0.007907,-0.007857,-0.007917,-0.007853,-0.007539,-0.007211,-0.007164,-0.007280,-0.007143,-0.006987,-0.006923,-0.006849,-0.006927,-0.006928,-0.006678,-0.006283,-0.006288,-0.005877,-0.005288,-0.004973,-0.005329,-0.006598,-0.007884,-0.008377,-0.007612,-0.006359,-0.005703,-0.006061,-0.007102,-0.007554,-0.007467,-0.007491,-0.007769,-0.007750,-0.007840,-0.007796,-0.007322,-0.007199,-0.007298,-0.007108,-0.006685,-0.006771,-0.007255,-0.007544,-0.007634,-0.007893,-0.007927,-0.007731,-0.007154,-0.007019,-0.006822,-0.007233,-0.008192,-0.008590,-0.008281,-0.007501,-0.007336,-0.008025,-0.008625,-0.008342,-0.008074,-0.008307,-0.008398,-0.008315,-0.008120,-0.007778,-0.007614,-0.007700,-0.007997,-0.008251,-0.008641,-0.008859,-0.009034,-0.009155,-0.009187,-0.009105,-0.009081,-0.009227,-0.009330,-0.009335,-0.009561,-0.009415,-0.008918,-0.008512,-0.008565,-0.009146,-0.009642,-0.009932,-0.009553,-0.008042,-0.007115,-0.006900,-0.006876,-0.007091,-0.007067,-0.006768,-0.006532,-0.006725,-0.006719,-0.007036,-0.007400,-0.007759,-0.007608,-0.007121,-0.006890,-0.007447,-0.008037,-0.008200,-0.008281,-0.008552,-0.008813,-0.009018,-0.008888,-0.008143,-0.007670,-0.008276,-0.008923,-0.009704,-0.009946,-0.009589,-0.009141,-0.009226,-0.009239,-0.008995,-0.008941,-0.009203,-0.009086,-0.008769,-0.008466,-0.008256,-0.008243,-0.008266,-0.008462,-0.008829,-0.009149,-0.009464,-0.009789,-0.009869,-0.009868,-0.010068,-0.010164,-0.009882,-0.009585,-0.009584,-0.009529,-0.009683,-0.009868,-0.010273,-0.010713,-0.010852,-0.010864,-0.010636,-0.010447,-0.009643,-0.008501,-0.007428,-0.006476,-0.006457,-0.006543,-0.006938,-0.007076,-0.006739,-0.006667,-0.006917,-0.007393,-0.008306,-0.008336,-0.007464,-0.006689,-0.006384,-0.006253,-0.006714,-0.007892,-0.008731,-0.008824,-0.008549,-0.008496,-0.008837,-0.009427,-0.010058,-0.010228,-0.010312,-0.010583,-0.010808,-0.010273,-0.009863,-0.009771,-0.009649,-0.009462,-0.009672,-0.009976,-0.009933,-0.009671,-0.009672,-0.010013,-0.010361,-0.010819,-0.011005,-0.010677,-0.010622,-0.010469,-0.010580,-0.010611,-0.010459,-0.010266,-0.010003,-0.010213,-0.010194,-0.010105,-0.010096,-0.010344,-0.010774,-0.011150,-0.011313,-0.011248,-0.011184,-0.011137,-0.010922,-0.009902,-0.008731,-0.008108,-0.008074,-0.008022,-0.008944,-0.009654,-0.008995,-0.008607,-0.009073,-0.009641,-0.010349,-0.010820,-0.010398,-0.009947,-0.009044,-0.008445,-0.007935,-0.007819,-0.008296,-0.009159,-0.010073,-0.010754,-0.011255,-0.011709,-0.012103,-0.012305,-0.012417,-0.012529,-0.012534,-0.012041,-0.011581,-0.011458,-0.011639,-0.012070,-0.012568,-0.012953,-0.012650,-0.012591,-0.012251,-0.011324,-0.011286,-0.012477,-0.012401,-0.011671,-0.011803,-0.012139,-0.012103,-0.011773,-0.011492,-0.011398,-0.011572,-0.011873,-0.011991,-0.011883,-0.012199,-0.012637,-0.012485,-0.012479,-0.012484,-0.012606,-0.012689,-0.012629,-0.012294,-0.011761,-0.010906,-0.010583,-0.010418,-0.010488,-0.010901,-0.010970,-0.010213,-0.009983,-0.010902,-0.011809,-0.012172,-0.012306,-0.012352,-0.012251,-0.011843,-0.011164,-0.010152,-0.009531,-0.009083,-0.008880,-0.008825,-0.009346,-0.010442,-0.011823,-0.012956,-0.013589,-0.013993,-0.014206,-0.014101,-0.014004,-0.014109,-0.014187,-0.014207,-0.014152,-0.013852,-0.013608,-0.013764,-0.013386,-0.012350,-0.011845,-0.011783,-0.011706,-0.012010,-0.012622,-0.013456,-0.014328,-0.014526,-0.014106,-0.013779,-0.013730,-0.013843,-0.013779,-0.013867,-0.014504,-0.015295,-0.015492,-0.015494,-0.015480,-0.015802,-0.016162,-0.016103,-0.015443,-0.015172,-0.014703,-0.014764,-0.014664,-0.014459,-0.014033,-0.013467,-0.012382,-0.012282,-0.012944,-0.013587,-0.014106,-0.014483,-0.014564,-0.014427,-0.014302,-0.014079,-0.013665,-0.013342,-0.013278,-0.012621,-0.011905,-0.011057,-0.010528,-0.010403,-0.010712,-0.011191,-0.011692,-0.012221,-0.012794,-0.013245,-0.013554,-0.013428,-0.013100,-0.013308,-0.013659,-0.013267,-0.013058,-0.012121,-0.011032,-0.011228,-0.012291,-0.012159,-0.010782,-0.010862,-0.012113,-0.012604,-0.013147,-0.013408,-0.013358,-0.013541,-0.013797,-0.013632,-0.013669,-0.014422,-0.015172,-0.015702,-0.015973,-0.015807,-0.015559,-0.015322,-0.014462,-0.013151,-0.011925,-0.011405,-0.011341,-0.012335,-0.013809,-0.014481,-0.014335,-0.013261,-0.012773,-0.013505,-0.013494,-0.012810,-0.012966,-0.013668,-0.014120,-0.014295,-0.014405,-0.014400,-0.014439,-0.014449,-0.014471,-0.014418,-0.014129,-0.013408,-0.012763,-0.012398,-0.012298,-0.012262,-0.012145,-0.011775,-0.011358,-0.011138,-0.011084,-0.011096,-0.011145,-0.011240,-0.010964,-0.010502,-0.010181,-0.009634,-0.010452,-0.011051,-0.011071,-0.011360,-0.010415,-0.009910,-0.010425,-0.010547,-0.010524,-0.010400,-0.010288,-0.010475,-0.010598,-0.010339,-0.011002,-0.012365,-0.013111,-0.013576,-0.013959,-0.013883,-0.013161,-0.011464,-0.010153,-0.010101,-0.010770,-0.010778,-0.009985,-0.009007,-0.009714,-0.011014,-0.012147,-0.012021,-0.011732,-0.011797,-0.011229,-0.010411,-0.010472,-0.011408,-0.012378,-0.012967,-0.013153,-0.013323,-0.013166,-0.012520,-0.011942,-0.011986,-0.011978,-0.012323,-0.012706,-0.012939,-0.012967,-0.012864,-0.012707,-0.012486,-0.012172,-0.011512,-0.010714,-0.010198,-0.010041,-0.009742,-0.009171,-0.009034,-0.008783,-0.009343,-0.009749,-0.009640,-0.008849,-0.009280,-0.010024,-0.010167,-0.009963,-0.009531,-0.009332,-0.009144,-0.008710,-0.008411,-0.008279,-0.008347,-0.009350,-0.010748,-0.011588,-0.011981,-0.012176,-0.011909,-0.010460,-0.009892,-0.010841,-0.011268,-0.011106,-0.010894,-0.009618,-0.007774,-0.006665,-0.007498,-0.009546,-0.009825,-0.009840,-0.010257,-0.010104,-0.009212,-0.008901,-0.009547,-0.010293,-0.010848,-0.011217,-0.011333,-0.010647,-0.010124,-0.009810,-0.009532,-0.009700,-0.010440,-0.011083,-0.011455,-0.011678,-0.011720,-0.011620,-0.011481,-0.011346,-0.011218,-0.010593,-0.009602,-0.008786,-0.008201,-0.007974,-0.008186,-0.008140,-0.008145,-0.007779,-0.007598,-0.007179,-0.006818,-0.007509,-0.007646,-0.007065,-0.006291,-0.006088,-0.006040,-0.005811,-0.005791,-0.006075,-0.006621,-0.007641,-0.009142,-0.010216,-0.010609,-0.010710,-0.009545,-0.008434,-0.008757,-0.008727,-0.007947,-0.007041,-0.006641,-0.007531,-0.007592,-0.006521,-0.006148,-0.007814,-0.008666,-0.009475,-0.009757,-0.009801,-0.010039,-0.009867,-0.009087,-0.008987,-0.009602,-0.010052,-0.009868,-0.009173,-0.009223,-0.009110,-0.008940,-0.009632,-0.010547,-0.010922,-0.010961,-0.010947,-0.010897,-0.010824,-0.010691,-0.010510,-0.010331,-0.009829,-0.009050,-0.008395,-0.007772,-0.007317,-0.006582,-0.006372,-0.006731,-0.007103,-0.007568,-0.007260,-0.006192,-0.006081,-0.006092,-0.005653,-0.005717,-0.005717,-0.005355,-0.005262,-0.005624,-0.006003,-0.006430,-0.007115,-0.008028,-0.009071,-0.009464,-0.008918,-0.007842,-0.008034,-0.007808,-0.007113,-0.006566,-0.006929,-0.006650,-0.006805,-0.007964,-0.007520,-0.005994,-0.006498,-0.007418,-0.009008,-0.009925,-0.010035,-0.009987,-0.009910,-0.009352,-0.009206,-0.009474,-0.009201,-0.008519,-0.008161,-0.008034,-0.007370,-0.007625,-0.008665,-0.009314,-0.009616,-0.009823,-0.009802,-0.009626,-0.009460,-0.009318,-0.009257,-0.009205,-0.008571,-0.007510,-0.006776,-0.006498,-0.006420,-0.005213,-0.004652,-0.004626,-0.004872,-0.005355,-0.006090,-0.006451,-0.007267,-0.007882,-0.007416,-0.006470,-0.006357,-0.006332,-0.005628,-0.005063,-0.004984,-0.004804,-0.004868,-0.005730,-0.007022,-0.008032,-0.007059,-0.005855,-0.005912,-0.005950,-0.006057,-0.006685,-0.007117,-0.007009,-0.006774,-0.007567,-0.007234,-0.005865,-0.005599,-0.006644,-0.007500,-0.007975,-0.008112,-0.007740,-0.007526,-0.007581,-0.007882,-0.007793,-0.006818,-0.005986,-0.005634,-0.005353,-0.005339,-0.006065,-0.006706,-0.006972,-0.007065,-0.007069,-0.006779,-0.006610,-0.006605,-0.006544,-0.005975,-0.005407,-0.005027,-0.004504,-0.004218,-0.003920,-0.003439,-0.002439,-0.002862,-0.003580,-0.003488,-0.003433,-0.004010,-0.004657,-0.005536,-0.006337,-0.006738,-0.006259,-0.005553,-0.004481,-0.003610,-0.003420,-0.003657,-0.003683,-0.003432,-0.004494,-0.005706,-0.006128,-0.004651,-0.004269,-0.004803,-0.005077,-0.005219,-0.006084,-0.006632,-0.005749,-0.004548,-0.005382,-0.005620,-0.004005,-0.002598,-0.003483,-0.004666,-0.004913,-0.004755,-0.004638,-0.004571,-0.004619,-0.004931,-0.005020,-0.004436,-0.003714,-0.003108,-0.002843,-0.003196,-0.003756,-0.004396,-0.004753,-0.004772,-0.004684,-0.004543,-0.004365,-0.004076,-0.003868,-0.003566,-0.002958,-0.002625,-0.002314,-0.002036,-0.001544,-0.000923,-0.000403,-0.000752,-0.001907,-0.002454,-0.002382,-0.002696,-0.003631,-0.004204,-0.003103,-0.001962,-0.002102,-0.002661,-0.002392,-0.001876,-0.001507,-0.001453,-0.001836,-0.002064,-0.002408,-0.002686,-0.002340,-0.001483,-0.002519,-0.003300,-0.002797,-0.002240,-0.002091,-0.002140,-0.002194,-0.002111,-0.003438,-0.003631,-0.002014,-0.000887,-0.001565,-0.002180,-0.001926,-0.001615,-0.001411,-0.001400,-0.001691,-0.001779,-0.001977,-0.001990,-0.001719,-0.001897,-0.001964,-0.001838,-0.001940,-0.002093,-0.001759,-0.001539,-0.001486,-0.001179,-0.000855,-0.000835,-0.000733,-0.000295,0.000043,0.000136,0.000337,0.000341,0.000266,0.000321,0.000557,0.000407,-0.000953,-0.001974,-0.001930,-0.002207,-0.002982,-0.002567,-0.000844,0.000467,0.000615,0.000516,0.000890,0.001188,0.001214,0.000884,0.000225,-0.000027,0.000207,0.000522,0.000999,0.001313,0.000174,-0.000428,-0.000183,-0.000059,-0.000082,-0.000778,-0.001389,-0.001877,-0.002701,-0.001679,0.000007,0.000305,-0.000409,-0.000650,-0.000435,-0.000214,0.000088,0.000125,-0.000264,-0.000365,-0.000057,-0.000089,0.000027,0.000159,0.000581,0.000906,0.000931,0.001214,0.001439,0.001561,0.001550,0.001565,0.001641,0.001762,0.001674,0.001526,0.001293,0.001276,0.001539,0.001656,0.001553,0.001576,0.001675,0.001736,0.001072,-0.000377,-0.001709,-0.002400,-0.001804,-0.000230,0.000998,0.001527,0.001866,0.002189,0.002631,0.002986,0.003186,0.003208,0.002582,0.002158,0.001930,0.002192,0.002360,0.002671,0.002035,0.000574,0.000014,0.000484,0.000808,0.000594,-0.000528,-0.001860,-0.001884,-0.000375,0.000961,0.001185,0.000833,0.000929,0.001394,0.001852,0.001768,0.001471,0.001480,0.001587,0.001855,0.002013,0.002060,0.002542,0.002663,0.002534,0.002830,0.002861,0.002676,0.002552,0.002391,0.002148,0.002150,0.002263,0.002231,0.002090,0.002030,0.002073,0.002117,0.002131,0.002151,0.002404,0.002642,0.002650,0.002228,0.001646,0.000986,0.000533,0.000816,0.001137,0.001382,0.001569,0.002364,0.003028,0.003418,0.003457,0.003291,0.003011,0.002485,0.002027,0.002044,0.002290,0.002364,0.002529,0.002238,0.000375,-0.001311,-0.000674,-0.000131,-0.000856,-0.002179,-0.003222,-0.002141,-0.000251,0.000800,0.000881,0.000749,0.001069,0.001370,0.001708,0.001915,0.002036,0.002146,0.002127,0.002051,0.002229,0.002243,0.002225,0.001943,0.001944,0.002127,0.001671,0.001531,0.001359,0.001049,0.000774,0.000807,0.000739,0.000587,0.000575,0.000690,0.000559,0.000279,0.000138,-0.000039,-0.000169,-0.000059,-0.000250,-0.000973,-0.001232,-0.001190,-0.001218,-0.001391,-0.001549,-0.000909,-0.000091,0.000950,0.001611,0.001879,0.001708,0.001257,0.000805,0.000554,0.000509,0.000563,0.000495,0.000456,0.000454,0.000606,0.000248,-0.001576,-0.002790,-0.003463,-0.004042,-0.004518,-0.003900,-0.002168,-0.001021,-0.000758,-0.000914,-0.000511,0.000015,0.000022,0.000055,0.000738,0.001592,0.001721,0.001340,0.001298,0.001032,0.000716,0.000478,0.000377,0.000327,-0.000091,-0.000445,-0.000932,-0.001211,-0.001355,-0.001647,-0.001745,-0.001609,-0.001537,-0.001677,-0.001726,-0.001760,-0.001797,-0.001562,-0.001601,-0.001827,-0.002032,-0.002016,-0.001839,-0.001797,-0.002119,-0.002325,-0.002365,-0.002370,-0.001661,-0.000650,-0.000016,0.000051,-0.000224,-0.000454,-0.000478,-0.000405,-0.000280,-0.000156,-0.000264,-0.000549,-0.000501,-0.000228,-0.000014,0.000484,0.000154,-0.001250,-0.002385,-0.003284,-0.003179,-0.001961,-0.001637,-0.002134,-0.002363,-0.002284,-0.002103,-0.001823,-0.001469,-0.001352,-0.001536,-0.001385,-0.001431,-0.001742,-0.001868,-0.002006,-0.001736,-0.001247,-0.000961,-0.000989,-0.001065,-0.001442,-0.002049,-0.002397,-0.002342,-0.002149,-0.001744,-0.001498,-0.001387,-0.001290,-0.001250,-0.001206,-0.001285,-0.001214,-0.001394,-0.001573,-0.001613,-0.001752,-0.001854,-0.002013,-0.002232,-0.002292,-0.002147,-0.002100,-0.001495,-0.000464,-0.000212,-0.000528,-0.000784,-0.000690,-0.000437,-0.000373,-0.000653,-0.000782,-0.000951,-0.001350,-0.001115,-0.001048,-0.000951,-0.000477,-0.000178,-0.000320,-0.000880,-0.001332,-0.001688,-0.002099,-0.002858,-0.003711,-0.004241,-0.004264,-0.003891,-0.003188,-0.002879,-0.002994,-0.003556,-0.003966,-0.003594,-0.003502,-0.003671,-0.003958,-0.003515,-0.002830,-0.002856,-0.002886,-0.002552,-0.002878,-0.003096,-0.003088,-0.003293,-0.003326,-0.002944,-0.002450,-0.002353,-0.002399,-0.002527,-0.002334,-0.002363,-0.002674,-0.003062,-0.003265,-0.003299,-0.003420,-0.003257,-0.003219,-0.003348,-0.003576,-0.003687,-0.003637,-0.003016,-0.002344,-0.002353,-0.002822,-0.002782,-0.002215,-0.001880,-0.001970,-0.002183,-0.002370,-0.002415,-0.002551,-0.002718,-0.002838,-0.002798,-0.002727,-0.002568,-0.002626,-0.002301,-0.002094,-0.002192,-0.002342,-0.002865,-0.003521,-0.003796,-0.003597,-0.003268,-0.002975,-0.003007,-0.002980,-0.003115,-0.003100,-0.002937,-0.002965,-0.002827,-0.003036,-0.003010,-0.002720,-0.002931,-0.002891,-0.002841,-0.002886,-0.003048,-0.002890,-0.002770,-0.002754,-0.002770,-0.002422,-0.002220,-0.002376,-0.002719,-0.002781,-0.002912,-0.003063,-0.003192,-0.003352,-0.003405,-0.003425,-0.003268,-0.003163,-0.003282,-0.003448,-0.003274,-0.002740,-0.002575,-0.002810,-0.003107,-0.003495,-0.003276,-0.002479,-0.002013,-0.002139,-0.002303,-0.002305,-0.002256,-0.002253,-0.002562,-0.002857,-0.003020,-0.003150,-0.002764,-0.002502,-0.002399,-0.002395,-0.002356,-0.002377,-0.002598,-0.003123,-0.003397,-0.003719,-0.003862,-0.003840,-0.004026,-0.004242,-0.004257,-0.003634,-0.003061,-0.002787,-0.002869,-0.002987,-0.003433,-0.003146,-0.002879,-0.002823,-0.002650,-0.002575,-0.002618,-0.002688,-0.002765,-0.002901,-0.003123,-0.003116,-0.003135,-0.003424,-0.003555,-0.003534,-0.003505,-0.003348,-0.003194,-0.003438,-0.003725,-0.003833,-0.003890,-0.003678,-0.003588,-0.003838,-0.004146,-0.003891,-0.003343,-0.002710,-0.002923,-0.003246,-0.003121,-0.002536,-0.002043,-0.002086,-0.002437,-0.002343,-0.002248,-0.002219,-0.002220,-0.002554,-0.002922,-0.002906,-0.002885,-0.003065,-0.003323,-0.003185,-0.003041,-0.002856,-0.003312,-0.003405,-0.003387,-0.003652,-0.003905,-0.003682,-0.003592,-0.003719,-0.003684,-0.003169,-0.002801,-0.002816,-0.003480,-0.003796,-0.003636,-0.003254,-0.002981,-0.002969,-0.002849,-0.002697,-0.002641,-0.002697,-0.002858,-0.003097,-0.003251,-0.003219,-0.003224,-0.003334,-0.003538,-0.003723,-0.003717,-0.003458,-0.003170,-0.003406,-0.003879,-0.004129,-0.003790,-0.003529,-0.003652,-0.003826,-0.003885,-0.003828,-0.003553,-0.003516,-0.003644,-0.003729,-0.003499,-0.003002,-0.002505,-0.002456,-0.002760,-0.002747,-0.002687,-0.002622,-0.002502,-0.002802,-0.003243,-0.003312,-0.003603,-0.003944,-0.003896,-0.003553,-0.002911,-0.002849,-0.003165,-0.003278,-0.003342,-0.003990,-0.004469,-0.004562,-0.004617,-0.004573,-0.004115,-0.003737,-0.003365,-0.003198,-0.003196,-0.003125,-0.002850,-0.002636,-0.002335,-0.002081,-0.001947,-0.002461,-0.003025,-0.003009,-0.003030,-0.003499,-0.003687,-0.003481,-0.003290,-0.003113,-0.003383,-0.003770,-0.003870,-0.003736,-0.003453,-0.003509,-0.003838,-0.004067,-0.004155,-0.004015,-0.003713,-0.003480,-0.003614,-0.004112,-0.004011,-0.004159,-0.004147,-0.004285,-0.004091,-0.003721,-0.003428,-0.003176,-0.002871,-0.002701,-0.002717,-0.002665,-0.002821,-0.003061,-0.003363,-0.003656,-0.004049,-0.004342,-0.004412,-0.004272,-0.003893,-0.003638,-0.003693,-0.003473,-0.003635,-0.004210,-0.004783,-0.005099,-0.005322,-0.005389,-0.004762,-0.003981,-0.003182,-0.003040,-0.003440,-0.003692,-0.004006,-0.003849,-0.003326,-0.002678,-0.002382,-0.003312,-0.004052,-0.004112,-0.004208,-0.004611,-0.004460,-0.004168,-0.003962,-0.003614,-0.003604,-0.003902,-0.004021,-0.004084,-0.003888,-0.003823,-0.003848,-0.003876,-0.003972,-0.003953,-0.003717,-0.003622,-0.003636,-0.003830,-0.003436,-0.003582,-0.004037,-0.004497,-0.004486,-0.004326,-0.004116,-0.003656,-0.003161,-0.003027,-0.003073,-0.002924,-0.003185,-0.003402,-0.003579,-0.003821,-0.004153,-0.004470,-0.004709,-0.004974,-0.004841,-0.004669,-0.004047,-0.003561,-0.003247,-0.003462,-0.004311,-0.004869,-0.004831,-0.004767,-0.004408,-0.003770,-0.003390,-0.003825,-0.004459,-0.004739,-0.004416,-0.004147,-0.004003,-0.003664,-0.003657,-0.003992,-0.004481,-0.004782,-0.005016,-0.005059,-0.004575,-0.004215,-0.004071,-0.003810,-0.003807,-0.004173,-0.004386,-0.004610,-0.004496,-0.004462,-0.004404,-0.004349,-0.004465,-0.004529,-0.004301,-0.004225,-0.004121,-0.004168,-0.004104,-0.004271,-0.004779,-0.004890,-0.004610,-0.004359,-0.003963,-0.003492,-0.003547,-0.003905,-0.003980,-0.003675,-0.003743,-0.003988,-0.004221,-0.004315,-0.004523,-0.004918,-0.005495,-0.005916,-0.005910,-0.005453,-0.004556,-0.004092,-0.003947,-0.004389,-0.005212,-0.005826,-0.005657,-0.005467,-0.005523,-0.005390,-0.005245,-0.005270,-0.005310,-0.005206,-0.005050,-0.005244,-0.005355,-0.005692,-0.005850,-0.005987,-0.006193,-0.006206,-0.006000,-0.005935,-0.005758,-0.005689,-0.005794,-0.005990,-0.006108,-0.006464,-0.006628,-0.006808,-0.006632,-0.006651,-0.006722,-0.006777,-0.006892,-0.006972,-0.006703,-0.006536,-0.006243,-0.006129,-0.007485,-0.006813,-0.005451,-0.007228,-0.008739,-0.009350